//Numpy array shape [196, 49]
//Min -0.156452715397
//Max 0.156481370330
//Number of zeros 0

#ifndef W2_H_
#define W2_H_

#ifndef __SYNTHESIS__
model_default_t w2[9604];
#else
model_default_t w2[9604] = {0.0542287380, 0.0892470479, 0.1552649885, 0.1423364729, 0.0797095448, -0.1003034934, 0.1177476496, 0.0331799388, 0.0701630712, 0.0607973486, -0.0474286452, 0.1295173615, 0.0301003158, -0.0446735919, 0.0455386788, 0.0602253377, 0.0833742470, -0.1513189226, -0.1392549425, 0.1484030336, 0.0795113891, -0.1174938828, -0.0235725939, -0.1037634909, 0.1481327862, 0.0320319235, -0.0037763268, -0.0724812895, 0.0250159651, -0.0492735133, 0.0295042843, -0.1166815609, -0.0210470408, -0.1076849923, -0.0122372508, -0.1376538724, -0.1263976544, -0.0701601952, 0.1451625675, 0.0796332210, -0.1432315856, -0.0099045187, -0.1453158706, 0.1448813230, -0.1005524322, -0.0443502963, 0.1173417717, -0.1530298442, -0.0848701000, -0.1480073780, 0.0977747589, 0.0452496260, -0.1542243809, -0.1521884948, 0.0089190751, 0.0281934142, 0.0174711943, -0.0826691091, 0.0213275403, 0.0308221728, -0.0949860215, 0.0868853182, -0.0351303518, 0.1188279539, 0.0933700651, -0.0031923056, -0.0151812881, -0.1022218168, -0.1170276552, 0.0110623091, -0.1082081273, -0.0466325134, -0.0474556237, -0.0670790449, -0.0827511549, 0.1016311198, -0.1501137614, 0.0762355626, -0.1144245267, -0.1387603134, 0.1179207712, -0.1037460342, -0.0180478990, 0.1558874995, 0.0044600368, 0.1429694742, -0.0051032752, 0.0672329068, -0.1548981667, 0.1018130928, -0.0765784085, -0.0954393446, 0.1469043344, -0.0876711607, 0.1103969067, -0.1112302542, 0.1017957479, -0.0407057554, 0.1072455794, 0.1261021346, -0.0443798453, -0.0113576204, 0.1095629781, 0.1047480255, 0.0205689073, -0.0818830803, -0.1121506989, -0.1177609190, 0.0114924163, -0.0721568689, 0.0710375458, 0.1257778555, -0.0370849445, 0.1074261814, 0.1397296935, -0.0426306501, -0.0507819057, 0.0442017317, -0.1460441053, -0.1206473857, 0.1557006985, 0.0659435689, 0.0810869485, 0.0527879447, -0.0110766292, -0.0070364177, 0.0147045702, 0.0763938278, 0.1341771036, 0.0459980518, 0.0423168242, -0.0438848808, -0.1261004806, -0.1235763729, -0.1482359469, 0.0390165150, 0.1066867858, -0.0266220421, 0.1135836989, 0.0977889746, 0.0674736351, -0.1218741536, 0.1179116517, 0.0402944088, -0.0387146398, -0.0460931137, 0.1081880182, 0.0457897782, -0.0364724174, -0.0941108242, 0.1480796188, -0.0663520470, -0.0529441312, -0.1379591078, -0.0454443172, -0.1104976535, -0.0309337974, -0.1343663186, 0.1494285017, 0.0153239965, -0.0376400948, 0.1397676915, 0.1421041638, -0.1317511350, -0.0605664328, -0.0926565304, -0.1491197646, 0.1049687713, -0.1344929039, 0.0591121763, -0.1276353598, -0.0459756255, 0.0448205173, -0.1310632080, -0.0046061873, -0.0168680996, -0.0277645588, 0.1262824386, -0.1049071848, -0.0555868819, 0.1257128268, 0.0061331987, 0.1147252172, 0.1297728270, -0.0766257495, -0.1253982186, -0.0893729702, 0.0428761095, 0.0747460425, 0.0853198767, 0.0220340192, -0.0629764795, 0.0665950477, -0.1042052954, -0.0812126100, 0.0784012973, -0.0416943803, -0.0248062760, 0.0953312069, -0.0630312115, 0.0910115093, -0.0324514881, 0.1087860912, -0.1479265988, 0.0506851226, -0.0258128792, 0.0671079606, -0.1351534277, 0.0151226372, 0.0444565564, 0.1411203891, -0.0461810157, -0.0816007555, -0.1002331674, 0.0692345500, 0.0774624050, 0.0691658258, 0.1276711971, 0.0494988263, 0.0830590725, -0.0318090692, -0.1455040574, -0.0588630512, -0.0904998630, 0.1272492260, -0.0092918426, 0.0769263953, -0.0767764151, -0.0686393753, 0.1481322497, -0.1493561566, 0.1405850798, 0.1187663227, 0.0329869390, -0.0527976900, -0.0561240762, 0.0401375145, 0.1325072795, -0.1005210131, -0.0364535376, 0.0979780704, 0.0784622878, 0.1074085683, -0.0489726365, -0.0398538783, -0.0009619445, 0.0517882854, -0.0162357688, 0.1554578394, 0.0165947974, 0.1425660104, -0.0365270004, 0.0258717537, -0.1041848436, -0.1549458206, -0.1113775894, 0.1290883273, 0.1359359771, 0.0183335096, -0.0147023350, 0.0693626404, -0.0191843063, 0.1425662488, -0.1336436123, -0.1161311567, 0.1025759429, -0.1399538070, -0.0555134192, -0.1051723063, 0.0279974490, 0.1304263026, -0.0308726430, -0.0226577818, 0.0746077746, -0.0833914429, 0.0782439113, -0.1541231573, 0.1323195547, -0.0875225514, 0.0604134202, 0.0676422119, -0.0277169198, -0.0845913514, 0.0436770618, -0.0896926820, 0.0786377639, -0.0431578904, -0.1495401859, 0.1400925964, 0.0363070220, -0.1070168018, 0.1143985540, 0.0081193596, 0.0728466362, 0.0416723639, 0.0371497571, -0.0765941143, -0.0106973648, 0.1338209361, -0.1349902302, -0.0480588600, -0.0175989121, 0.0468451530, -0.1563537419, -0.0402600840, -0.0145589858, 0.0007293522, 0.0992416292, -0.1350041032, 0.0999003798, -0.1443638504, -0.0757809654, -0.0637394413, -0.0153330714, -0.1422381550, -0.1417731047, -0.0208374262, -0.0707722381, 0.0750302076, 0.0078727007, -0.0261794180, 0.0204866379, -0.0311165154, 0.1185956746, -0.1151929051, -0.0590383038, -0.0984839648, -0.0693326443, 0.0617959648, -0.0272169113, 0.0153291821, 0.0320380479, -0.1317075193, -0.1442550570, -0.1553349644, -0.0133821666, -0.0890321359, 0.0270456970, -0.1430973113, 0.1413394064, 0.1035871059, -0.0258277655, -0.0732649937, 0.0827656686, 0.1483082622, -0.0956973881, 0.1061142534, 0.0184361935, -0.1238882989, 0.0919714719, -0.0530372933, -0.0718241706, 0.1227087826, 0.0855929554, -0.1528378427, 0.0089925677, -0.0073494166, 0.1020971984, -0.0040097386, -0.0235921443, -0.1126560420, 0.0139625669, 0.0787136257, 0.0492767543, 0.0457759351, 0.1342374831, 0.0316728950, 0.1441148669, 0.0473688394, -0.1290494055, 0.0926019847, 0.0743579417, -0.1370539069, 0.1224426180, 0.0118347853, -0.1024664342, -0.0061848015, 0.0189992785, 0.0070405900, -0.0741220564, 0.0085610449, 0.1398729831, 0.0858743191, -0.0412004218, 0.1113931984, -0.1356118917, 0.0321362913, 0.1126843244, 0.0756039321, -0.0078985840, 0.1313018054, 0.1456146091, -0.1285413355, -0.0323114246, -0.0777277946, -0.1540217847, -0.0112904608, 0.0839948207, 0.0934211016, 0.0676297545, -0.0912317857, 0.1153909713, 0.0956465155, 0.0531608015, 0.1195486933, -0.1397857964, 0.1466431469, -0.1329970509, -0.1049340814, 0.1178408712, -0.0655077398, 0.0572766066, -0.1015996337, -0.0262310952, 0.1098924428, -0.0866613463, 0.0808736384, 0.1564813703, -0.0369798392, 0.0414658934, 0.1347090155, 0.0556420982, 0.0636269152, 0.1328401119, 0.0242037028, 0.0271837115, 0.0025747269, -0.1380922347, 0.1294338256, 0.0793075711, 0.0689267814, 0.0481167734, -0.0485869199, -0.1490117162, 0.0361843854, 0.0246654600, 0.1451229304, 0.0626267642, -0.1155976057, -0.1552722454, 0.0843837857, -0.0100228637, 0.1056673974, 0.0557283312, -0.1447409093, 0.0516543388, 0.1564446539, 0.0884996355, -0.0001735389, -0.0400980785, 0.0493917465, -0.0725601614, -0.1452326328, -0.1264184713, -0.1420544684, -0.1058056951, 0.1533098966, -0.0138563514, -0.0776325092, 0.1146132797, -0.0239970833, 0.1115140766, 0.0746407509, -0.0499450266, -0.0376584828, -0.0571178123, -0.1176473051, -0.1263065040, -0.1412423253, -0.0039036572, -0.0255589485, 0.1339417249, -0.0116683394, 0.0773590505, -0.0853849128, -0.0592133626, 0.0178775042, -0.0761742964, 0.1181689054, 0.0086668134, 0.0389308482, 0.1503141373, 0.0447877347, 0.0615942329, 0.0353075862, 0.0980419070, 0.0927893966, 0.0965685099, -0.0068006068, 0.1491653174, 0.1460211426, -0.1251352131, -0.1378083378, 0.0732078701, 0.1511093825, -0.0219069719, 0.0168261677, -0.0535902381, 0.0248196721, 0.0885998905, 0.0375574529, -0.0512213111, -0.0684073046, 0.0173032582, 0.0390638262, 0.1533314735, 0.1078714579, 0.0684568137, 0.1063583642, -0.0417985469, -0.0490699038, -0.0686695576, 0.0913857222, 0.0329482108, -0.0427366123, -0.0229222029, 0.0062374026, -0.1074150130, -0.1101005599, -0.0716096014, 0.1122794598, 0.0284532011, 0.0864482224, 0.0040357858, -0.0258635432, 0.1429478079, 0.1542734355, 0.0211372226, -0.0453350395, -0.1007150710, 0.1221251041, -0.1269214302, 0.1557150930, 0.1238187104, 0.0622171313, 0.1204070002, 0.0798484236, 0.0380109251, -0.1266371161, 0.1139628142, 0.0703650713, 0.1173968464, 0.0640564263, 0.1084205061, 0.1189727932, 0.1418932229, 0.1512189656, 0.1536668092, 0.1024141163, -0.0990450457, 0.0709334910, -0.1524613798, 0.0440555066, 0.1309435219, 0.0810110569, -0.0318415314, 0.1157946736, 0.0050126463, 0.1541334838, 0.1219980568, 0.0727588385, 0.0827187598, 0.0969384164, -0.1214432120, 0.0328573585, 0.1419493407, 0.0798452497, -0.0257217288, -0.1515036821, -0.0531592295, 0.0224782825, 0.0469357371, 0.0345971435, 0.0929415077, -0.1226932406, 0.0873461515, -0.0430408418, -0.0630015880, -0.0487966835, 0.0263088197, -0.1042261869, -0.1473564655, -0.1304803789, -0.0157964230, 0.0902096629, 0.0308821648, -0.1028531492, 0.0865586251, 0.1016347855, 0.1230532974, 0.0572834313, -0.0982882380, -0.0909188613, 0.0892949551, 0.1215715557, 0.0616257638, 0.0304653347, 0.0674723685, 0.0662576854, 0.1531218439, 0.0036867410, -0.0842282772, -0.1255417168, 0.0180270076, -0.0532382131, 0.0551339686, -0.1126623824, -0.1471573412, 0.0484764427, 0.0199412704, -0.1209334806, 0.1174015552, -0.0572137386, 0.0106012523, 0.1060621589, 0.0397596359, 0.1031823009, -0.0410856158, 0.0724331588, 0.1080895513, 0.0920275897, -0.0731636584, -0.0840113536, 0.1327200085, -0.1415321976, 0.0246491283, 0.1305066496, -0.1147304326, 0.1091151088, -0.0716025457, -0.0500371084, -0.0166499466, -0.1458378434, 0.0604194999, -0.0122744143, -0.0682419017, -0.1201647297, 0.0672628731, 0.0886193365, -0.0293455571, -0.0588076860, -0.0124665350, -0.0855395645, -0.0263034701, 0.1173049361, 0.0645633042, -0.1561236382, -0.1239314675, -0.0063384026, -0.0860258341, -0.1276031286, 0.0224698484, 0.0595597923, 0.0788910985, -0.0312764645, -0.0341342688, 0.0301277041, 0.1189532131, 0.1151240915, 0.1498056501, 0.1391370147, 0.0053212494, -0.1140829474, 0.0557359010, -0.0350311473, -0.1520477086, 0.0281131119, -0.0970082879, -0.1101535410, -0.0780986622, 0.1531435400, 0.0309010446, -0.0766921267, 0.0237173587, 0.1390066892, -0.0417469442, -0.0392407924, 0.0360400975, -0.1085802615, -0.0811241865, 0.1091606170, -0.0068012476, 0.0685691237, -0.0275044739, -0.0038578510, -0.1411518455, -0.1418336332, 0.1301738769, -0.0615372956, -0.1445529759, -0.1346340925, 0.0363905579, -0.1165465266, -0.1560888737, 0.0807545781, 0.1131182164, -0.0921390280, 0.1242388934, -0.1390459985, -0.0652575344, -0.0054839104, 0.0414896607, 0.0808757693, 0.1236853153, -0.0684418529, -0.0235718489, 0.1398826092, -0.0812783539, 0.1391732246, 0.0392003804, 0.0499627888, 0.0066570342, -0.0034869760, 0.0014908165, -0.0328100026, -0.0729705021, -0.1435574591, -0.1095037758, -0.0171806216, 0.0953860730, 0.0944373757, 0.0273514986, -0.0965836644, -0.0617845878, 0.0468754768, 0.0289984196, -0.1520460695, -0.0496031120, -0.0694433451, -0.0395381600, -0.1286738366, 0.1014507562, 0.1506108195, -0.1315333545, -0.0368855596, -0.1490975618, 0.1023354083, -0.0376778096, 0.0259935409, 0.0988008827, -0.0667804852, 0.0381932259, -0.1258456111, -0.0707566813, 0.1458053142, 0.0947670788, -0.0254325718, 0.0178344101, 0.0675354302, 0.1557193547, 0.1341003627, 0.0333198905, -0.1124427766, -0.1173249483, 0.1063877493, 0.0588151813, 0.0015332401, 0.1049228758, -0.1541442424, -0.1015472412, -0.1539377272, 0.1469970196, 0.1081997603, -0.1082771495, -0.0423749238, 0.1290979832, 0.0155171901, 0.0487122536, -0.0156278163, 0.0813608021, 0.0327220261, 0.1028589755, -0.1174509376, -0.0980967954, 0.0847152174, 0.0471917689, 0.0517261624, 0.0422840416, -0.0845000520, 0.0857755542, 0.1386186928, -0.1426321566, -0.0653778985, -0.0913422257, 0.1195436865, 0.0621813089, 0.1177376360, 0.0996898562, -0.1551661044, 0.1311184019, 0.0469091386, 0.1235672683, 0.0945551544, 0.1534993201, 0.0530412495, 0.0259600282, 0.0912860334, -0.0103891492, 0.1401376277, 0.0390658379, 0.1202658564, 0.1516563147, -0.1020910889, -0.0029672086, 0.1198158115, 0.0569452941, 0.0898257643, -0.1222658455, -0.1290324926, 0.1408023983, 0.1362270266, -0.0141718537, 0.1413501352, -0.1167096496, 0.0414773375, 0.0462964922, 0.1219737679, 0.1178965122, 0.1155741066, 0.0147366971, 0.1100655943, -0.1123386770, 0.0872658193, 0.0244371593, 0.0300745815, 0.0303003043, 0.1255116016, 0.1026339680, 0.0456818044, 0.0309233963, -0.0489527509, -0.0738927126, 0.0543726087, -0.0121857226, 0.0239944309, 0.0573460013, 0.1011410505, 0.0556545556, 0.1020740718, -0.0071637183, -0.0646705255, 0.0387214273, 0.0704504699, -0.0707615316, -0.0120374262, 0.0787987560, -0.0897831246, 0.1545055956, -0.0273343772, -0.1208494902, 0.0224521607, -0.0963965803, 0.0889916122, -0.1150566787, -0.0459275320, 0.1175139695, 0.0590256900, -0.0004147142, -0.0638649538, -0.0176607668, -0.1025681049, 0.0574720055, 0.0180729032, -0.0779433772, -0.0200896114, -0.0288383663, 0.0152560622, -0.0857810378, -0.0214086920, 0.0740087777, -0.1038306504, 0.1046951562, -0.0377614647, -0.1280945092, -0.0787892863, -0.0479176790, -0.0170015246, 0.0745758712, -0.0643604025, 0.0217158347, 0.0574669242, -0.1293959022, -0.0798555091, 0.1374049932, -0.1324860156, -0.1517069638, -0.1491208822, 0.0615123659, -0.0844387114, 0.0454570055, -0.1561401337, -0.1297331601, -0.1138272583, -0.0416916534, 0.0843585730, 0.1326894909, -0.0225151032, 0.1073452383, 0.1203650385, -0.0059625804, 0.1342225224, -0.0341195688, 0.0292753428, 0.0505565852, 0.0106069297, -0.0105907768, 0.1134211272, 0.1275896877, -0.0306627452, 0.1412204951, 0.1275003403, -0.0786887705, 0.0291434526, 0.0973873287, -0.0809682980, 0.1425014287, -0.0078737736, 0.0108335614, 0.0825645924, -0.0460085720, 0.0231194943, 0.0304343253, 0.0488213450, -0.1334056109, -0.0248695910, -0.0189738423, -0.1344337016, 0.1548855752, -0.0712720156, 0.1228619963, 0.0739439726, -0.0632600784, -0.0642752945, 0.0070631951, 0.0563721210, -0.0374135748, 0.1037746221, -0.0350900218, 0.0457494408, -0.1123839691, -0.0015968233, 0.1043775231, -0.0598612651, -0.0810241550, -0.1029958725, -0.1355667114, -0.0767507777, 0.0928931981, -0.0610277429, -0.0768005922, -0.1491939723, -0.1021420881, 0.0565262884, -0.1469176859, -0.1472841203, 0.1228405982, 0.1550764292, 0.0240223855, -0.0642072782, -0.0387962386, 0.0547801107, -0.0407828018, 0.1184975654, 0.0670402050, 0.0833676755, -0.0453102291, -0.1512162089, 0.0617097020, -0.0246916562, -0.0142564625, -0.1160635054, -0.1236220822, 0.1176776737, 0.0128354579, -0.1473927349, -0.0151759535, -0.1070682108, 0.0970518440, -0.0521137491, -0.0049829483, 0.1092999429, -0.0382840708, -0.1186039522, 0.0515657216, 0.1409107894, 0.0023944527, 0.1017975360, 0.0025206357, -0.0113155693, -0.0708793178, -0.0760740042, 0.1471576244, 0.0817822367, -0.0354131684, -0.1466271132, -0.0463292897, -0.1393403113, 0.0609965175, 0.1503527910, -0.0008853823, 0.0639948696, 0.0494732410, -0.0483061597, 0.0995550901, 0.0676801205, 0.0490033031, -0.1380110085, -0.0422593355, 0.0623966008, -0.0770901591, 0.0519231558, -0.1471283138, -0.1365700662, 0.0062315166, -0.0224972367, 0.0574421883, -0.1026691794, -0.0929476991, 0.0811860412, -0.0762727931, -0.1412251741, 0.1464492530, -0.0250758827, -0.1427163184, 0.0320941210, -0.0491530374, 0.0162515491, 0.0066702515, 0.1135508269, 0.0154821575, -0.0577389598, -0.1460843533, 0.0613837242, -0.0499176010, 0.0993307084, -0.0183358341, 0.0566106141, -0.0901643261, -0.0539607704, -0.0893737152, 0.0542589575, -0.1088213995, 0.0467298180, 0.0658031702, 0.0022771806, -0.0588646978, 0.0190946162, -0.1002912223, 0.1064114422, -0.1321674138, 0.1484626383, 0.0028904974, -0.1048778519, -0.0151330829, 0.0365884900, 0.0178612769, 0.1326406151, -0.0510911345, -0.0705314726, 0.0221272558, 0.1077890247, -0.0436260626, 0.0974600464, 0.1483187824, -0.0842158943, 0.0357733220, 0.0159270912, -0.0189330578, 0.1508362740, -0.1013582274, -0.0434599519, -0.0320589021, -0.0334523469, 0.0907865614, -0.0966927558, -0.0390131995, 0.0600215495, 0.0462232977, -0.0047067702, -0.0203708261, 0.1456535906, -0.0352448598, -0.1045363545, -0.0822992474, 0.0477208644, 0.0211605430, -0.0863474905, 0.1419437379, -0.0985131115, -0.1553702205, 0.0999702364, -0.0084719062, 0.0131468177, -0.0764584914, -0.1456688643, -0.1395842135, 0.1382100433, -0.0324412659, 0.1053038687, -0.1058177054, -0.1233655736, 0.0108276159, -0.0506332964, -0.1193969846, 0.1201453060, -0.1479768604, 0.0876240730, -0.0285598785, -0.1227104738, 0.1264012307, -0.1551653147, 0.0997134298, 0.0505884886, -0.0758717805, -0.0243417174, -0.0647742897, 0.0466733724, -0.1532928050, -0.0409590229, -0.1269957870, 0.0626889616, -0.0931123570, -0.0136397928, 0.1376155466, 0.0636661202, -0.0110655576, 0.0686245561, 0.1109772474, -0.0745713189, 0.0657771677, -0.0587153062, -0.1133258790, 0.0997142345, 0.1359338015, 0.1507180780, 0.1030445248, 0.1275162250, 0.0809769630, -0.0106391311, 0.0419634581, 0.1083471328, 0.0561678112, -0.1251524538, 0.0263295174, 0.0306938887, 0.0046241283, 0.1429963559, -0.0230258554, 0.1211401671, 0.0869212896, -0.0808986053, -0.1042532325, 0.1255608052, -0.1190216094, 0.1315857917, 0.0834906548, 0.1420656890, 0.0775355399, 0.0445793122, -0.1331471950, -0.1347390860, 0.1161035150, -0.0061814338, 0.1382397264, -0.0530197248, 0.0228599608, 0.0617287308, -0.0476903841, 0.0138933957, -0.0116805732, -0.1523060501, -0.0643557757, 0.0731458962, -0.1231498048, 0.0116681904, -0.0884862840, 0.0241059214, -0.0061919987, -0.0259296596, 0.0170507729, 0.1277721971, -0.1412816197, -0.0177636743, -0.0425866619, 0.0350842327, -0.0009656698, -0.1098894551, -0.1352359205, -0.1519417912, 0.1367787868, 0.0681384355, 0.0935965627, -0.0906939134, -0.1500002891, -0.1105229557, -0.1195470914, -0.0702446997, 0.0105733126, -0.1040123999, -0.1354833543, 0.0991668552, -0.0637899265, 0.0771351904, -0.0890775472, 0.0606015772, -0.1433040053, -0.0695577413, 0.0683216006, -0.0416935161, -0.0327053517, 0.0575571060, -0.1317770779, -0.0228088945, 0.0695286691, 0.1376805454, -0.0618605539, 0.0119623095, 0.0925575793, -0.1482691616, -0.1434430182, 0.0859735906, -0.1250164211, 0.0971429497, 0.1275514513, 0.0566481054, 0.1554645151, 0.1482115239, -0.1446220726, -0.0359179825, 0.1087004095, 0.1252117306, 0.0031732321, -0.0366712064, 0.1214493662, 0.0658732802, 0.0353150070, 0.1421421915, 0.0977831632, -0.0843755826, 0.0219487995, -0.1272989661, 0.1126492471, -0.1077106297, -0.1081450284, -0.0153997391, 0.0554012656, -0.1345079541, 0.0278383940, 0.0098754913, -0.0879790410, -0.0591635928, -0.0638223067, -0.0692028776, 0.0746492893, 0.1472535580, 0.0389970392, 0.1326677054, -0.0164328665, 0.1223526150, 0.0760220289, -0.1361659914, -0.1211794317, -0.0839123726, 0.0136490911, -0.0927049592, -0.0394761115, -0.0873163715, -0.1404317915, 0.0559563339, -0.1147937477, 0.0435087532, 0.0646714270, 0.1537587196, -0.0789759159, -0.1420700997, 0.1352144629, 0.1308071762, -0.1321987510, -0.0443016067, -0.1155964583, -0.0867927149, -0.0847474933, -0.1005240753, -0.0462502688, -0.0953433067, -0.0801406726, 0.1470198184, 0.0271160305, 0.0958693177, -0.0419759601, -0.0230730474, 0.0370733440, -0.0608963370, -0.1205713749, 0.0029290318, 0.0825366229, -0.1391680539, -0.0298142284, 0.0995106548, 0.0550152808, 0.1213418692, 0.1344748884, 0.0112180710, -0.0561639667, -0.0989497527, -0.1315458119, -0.0241644979, 0.0680944920, -0.1092303619, -0.0068481863, -0.1517390460, -0.1381769627, -0.0605481863, 0.0072395653, 0.0290852487, 0.1185269505, -0.0854457989, 0.0951608568, 0.1441314071, -0.0554006621, -0.1496732235, -0.0248440355, -0.0015486926, -0.0319870040, 0.0553500354, -0.0665618032, 0.1282803565, 0.0059027970, -0.0338105634, 0.1127682179, 0.0886324644, -0.0844790116, -0.0928507671, -0.1508495957, 0.1479433924, -0.0921569392, -0.0776607469, -0.0176566690, 0.0081760734, -0.0235531181, 0.0899575502, -0.0231248289, -0.0183705688, 0.1218311340, -0.0553286895, -0.0038071424, 0.1348888427, -0.1318416893, -0.1365772337, -0.1254384816, 0.1506698579, -0.0298165381, 0.0598705858, 0.0556560606, 0.0746972710, 0.0525233001, -0.0213567615, -0.0932398811, 0.1448672861, -0.0445006937, 0.0160515159, 0.1526712924, -0.0707308948, -0.0447704867, 0.0362594128, -0.0150869638, -0.1286976039, -0.1452595741, -0.1173266917, -0.0135386884, 0.1141714603, -0.0878319293, 0.0634301007, -0.0265662223, 0.0117072612, -0.0546615049, 0.0759519190, -0.1048123688, -0.0254257023, 0.0035119057, 0.0604355782, -0.0936561599, -0.1506328583, -0.0710765049, -0.1025794446, -0.0704021156, -0.0008034855, -0.0898732319, -0.0853848755, -0.1002683863, -0.0325735658, 0.0025409311, 0.0303219855, -0.0611064285, 0.0712493211, 0.0866654515, 0.1253957599, 0.1019901186, -0.0054916739, 0.0577043295, 0.0512740761, -0.1012204736, 0.0214521289, 0.0136367381, -0.0272543728, 0.1044739038, -0.0607303381, -0.0265272260, 0.1021593958, 0.0783223361, 0.0999533385, -0.0878086835, -0.0512214974, 0.0553347319, 0.0910540372, -0.0809749812, -0.0281781554, 0.0190007389, -0.1136008203, 0.1047015935, 0.0970105976, -0.0264936090, 0.0328980535, -0.0605663583, -0.0777345896, -0.1455649883, -0.0809690505, -0.0421017334, 0.0477225780, -0.0300722271, -0.0872608125, 0.0031603277, 0.0596083403, 0.0684942752, -0.0147041231, 0.0529733896, 0.1019465476, -0.0249287337, 0.1508904546, -0.0579687208, -0.1000132561, -0.1503894031, -0.0151363313, -0.0185661465, 0.1465937644, -0.0081684589, 0.0405127555, 0.0933896899, 0.0432675779, -0.0466417670, 0.1463755220, 0.0697080940, -0.0598914847, -0.0952257812, 0.0598612577, -0.1459395885, 0.0405674130, 0.0722402930, 0.0275642425, 0.1158403009, 0.0253890306, 0.0796495527, 0.0989488214, 0.1131240577, 0.0960578471, -0.1331010014, 0.1273543090, 0.1240430921, 0.0342371315, 0.0751169175, -0.0115706325, -0.0362825096, -0.0396521017, 0.0442300886, -0.0517450795, -0.0136755854, 0.0692349225, 0.1493283957, 0.1344404072, -0.0768380538, 0.0835265368, 0.0322143734, -0.1497235298, 0.0944392830, -0.0099870563, -0.0336109176, -0.0561183691, -0.0034761578, 0.0653933436, 0.0905008018, -0.0148059130, -0.1110650748, -0.0142369568, 0.1493216902, 0.0881522000, 0.0851696283, -0.0937262252, -0.0293217897, -0.0092698634, 0.0420562476, 0.1139097065, 0.1469133943, -0.0977776051, -0.0411838219, 0.0590831935, 0.0013971776, -0.0095735341, 0.0707118660, 0.1183938831, -0.1289011985, -0.0682854801, -0.0716458634, -0.0712765604, 0.1324852556, 0.0745651275, -0.0926551521, -0.0349698812, -0.0457377657, 0.0556950122, -0.1494654864, 0.0754024535, -0.1043294668, 0.0907122791, 0.1491168886, 0.1548625380, -0.0710518062, -0.0101139098, -0.0652053058, -0.0113103539, -0.1287077516, -0.0527968630, -0.1182419658, 0.0456572920, 0.0648005903, -0.0012024790, 0.0494603962, -0.0278100818, -0.0200265199, 0.1256527156, 0.0402936935, -0.1462680697, -0.0811868310, 0.0789230466, -0.0679987147, 0.1124876589, -0.0790817291, 0.0900727361, -0.1461445391, -0.1029652730, 0.0898323059, -0.0163084418, 0.1112636477, -0.0363469422, 0.0865347087, 0.0692792535, -0.0315289795, -0.1297989786, -0.0729288310, 0.0477329195, -0.1116547734, 0.1514405459, -0.0610865057, 0.1313908547, 0.0419969708, -0.1233771741, -0.0995850042, -0.0997280180, 0.0446279943, 0.0878709555, -0.1549561918, -0.0894179270, 0.1314565092, 0.0694182366, -0.0297429562, -0.1332152784, 0.0610912889, 0.0136286020, -0.1043934524, 0.0515633374, 0.0529146940, 0.0610464662, 0.0037788898, -0.0047180057, -0.1049172580, 0.1341954023, -0.1396565139, 0.0165066421, -0.0672799200, -0.0987854376, -0.0895269886, 0.1127144545, -0.0539524853, 0.1161983460, -0.1179676205, -0.0049610138, 0.1030208021, -0.1335817873, -0.1064696759, -0.0021823049, 0.0426418781, 0.1435452551, 0.1040514559, -0.0617352650, 0.0154088140, -0.1370317191, 0.0969477147, -0.0299727172, 0.1068861634, -0.1056690961, -0.0836751536, 0.0624015927, 0.1145129055, 0.0202417374, 0.1193942279, -0.0811626539, -0.1560619324, -0.0137824416, -0.0936545134, 0.0351756811, 0.0122214705, 0.1147967428, -0.1389841735, 0.0094911605, 0.1442176253, -0.0646351948, -0.0684753954, -0.1067472994, -0.1265220940, 0.0841165334, 0.1428529173, 0.0234936476, 0.1177472323, 0.1138738543, -0.0918464810, 0.0705650896, 0.0539519340, 0.0850421786, -0.0762320533, -0.1535046548, 0.0379351377, -0.1402193904, -0.1092708409, 0.0074841082, -0.1449745148, 0.0959071368, 0.0706841797, -0.0601351261, -0.1471263617, 0.0368327200, -0.0851222798, -0.1541339457, 0.0925316066, -0.0923916250, -0.1170892864, 0.0166089833, 0.0928478241, -0.1132022664, -0.0058477670, 0.0630723238, -0.0176607221, -0.0172206163, -0.1252471805, -0.0594743863, -0.0170177519, 0.1197197884, 0.0429680943, 0.0060682446, -0.1295324564, 0.0407081395, 0.0910604149, -0.1023359150, -0.1370494366, -0.1448619813, -0.0867490992, -0.0602438450, -0.1161949933, -0.1090598106, -0.0124673545, -0.1087853611, -0.0417328477, 0.0917327255, -0.0191392750, 0.0567570180, 0.0434964001, 0.1093433648, -0.0916713029, -0.1213820279, 0.0517914146, 0.0813318491, -0.1054794490, -0.0011979640, -0.0030914545, 0.1561878175, 0.1085843891, -0.0348854065, 0.0425556898, 0.1399942786, 0.0687873513, -0.1248774752, -0.1505339891, -0.0782389194, -0.0178165436, -0.0237516612, 0.0487231761, 0.1099985987, -0.1208513528, 0.0392050445, -0.0842870474, 0.1263942569, -0.0886238068, -0.0561424717, -0.0535502806, -0.1395022720, -0.0201969892, 0.1439981610, -0.0864331126, 0.1386698633, -0.0956194103, 0.0825164318, 0.0802666396, -0.0409574881, -0.0279620439, 0.0889622569, 0.1532943100, -0.0944771767, -0.0523574576, 0.0814397931, -0.0854301304, -0.1258639246, 0.0665443838, -0.1386226416, 0.0599355102, 0.1499182135, 0.1194129437, -0.0605802760, 0.1202487797, -0.1206948012, -0.0500034168, 0.1272056550, 0.0996329039, 0.0705294907, 0.0220208466, 0.1289889067, -0.0537294075, -0.0119866729, 0.0502508283, -0.0161934942, 0.0452246368, -0.1475809664, -0.0383109003, 0.0061769634, 0.1242782921, -0.1330108941, -0.1219222471, -0.1520895809, 0.1461908668, -0.1295085847, 0.0165727884, 0.0426858664, 0.1539166719, 0.0573035479, 0.0924142301, -0.1037905514, -0.1269085109, 0.1363306493, 0.1310040802, -0.1010156050, 0.1437293738, -0.0986757800, -0.0905864611, -0.1265230179, 0.0013388544, -0.1509963423, -0.0241114348, -0.1337340921, -0.0406159908, -0.0965643376, 0.0900004953, 0.1526514739, 0.1428008229, 0.1308028251, -0.1442021430, 0.0297987014, 0.0359470397, -0.1086606681, -0.1480060369, 0.1025629789, -0.0206482708, 0.1455428749, 0.0321759433, -0.0775445253, -0.1073199064, -0.0632700771, -0.0760408714, 0.0135359317, -0.0639746487, 0.1257242709, 0.0041084588, 0.0651923865, 0.0577087402, 0.0956106335, -0.0025496185, -0.1449252665, -0.0348405242, 0.0805202723, 0.1501016766, -0.0571515039, 0.0481724292, 0.0166169703, -0.0154920518, -0.0163732469, 0.0814503133, 0.0152100176, -0.1409796327, -0.0268387794, -0.1069917977, 0.1433913857, 0.0431694537, -0.0622827634, -0.1410796195, -0.0848119333, 0.0624600947, 0.1154191047, 0.1171048731, -0.0070686191, -0.0053055286, 0.0781243742, 0.0667117983, 0.1217791289, -0.0285007358, 0.0026039481, 0.0513577908, 0.1331983954, -0.1270434260, 0.1321088821, 0.0545000285, -0.0768948719, 0.0761711597, 0.0431486666, -0.0671009421, 0.0109545588, 0.0899875164, -0.1379172504, -0.0939957574, -0.0265394747, -0.0424731970, -0.1534806639, 0.0247862786, 0.1020726115, -0.1220405251, -0.0331459492, -0.0683152154, 0.0366545320, -0.1147754714, 0.0219001919, 0.0804643482, 0.0292363912, -0.0492143333, -0.0489185005, -0.1229079217, -0.0700716525, -0.1487485915, 0.0344186127, 0.0228532106, 0.0648302883, -0.0648885369, 0.1267650276, 0.0758598447, -0.0279651880, -0.0822370872, -0.0987458825, 0.0560911000, 0.0497179925, 0.0203628093, 0.1512833983, 0.0681648552, 0.1148773879, 0.0014928728, -0.0327432901, 0.0080211461, -0.0642631352, -0.0583565980, 0.1268309802, 0.0901973844, -0.1191770807, -0.0957962200, 0.1229633242, 0.0475402772, -0.1410260051, -0.1004665792, -0.0913756564, -0.1503815353, -0.1558271646, -0.1172883809, 0.0081811100, -0.0811791047, 0.0362252295, -0.0145218968, 0.0478312671, -0.1280012280, -0.0674007758, -0.1372715831, -0.1073182672, -0.1376233846, 0.0967669338, -0.0877427161, -0.1002019718, 0.0828187913, 0.0508633554, 0.0367573649, 0.1089196652, -0.0261539668, 0.0970907062, 0.0205777436, 0.0443635434, 0.1340079457, -0.1372293830, -0.0924223289, -0.1138378158, 0.1130202562, -0.0007504970, 0.1084252745, 0.1324472874, 0.0698637217, -0.0976287276, -0.1194456443, -0.0161965787, -0.0429083928, 0.0981583148, -0.0676888451, -0.1449756026, 0.1471939236, 0.1152001172, -0.0828687549, 0.0956132859, -0.0828665942, -0.0355822220, -0.0404511839, -0.0741603002, -0.0981989130, -0.1488009393, -0.0911020935, 0.1056172401, 0.1006129235, -0.0082693100, -0.0519634932, -0.0484854728, 0.0951013118, 0.0626832843, -0.0864365846, 0.0262456089, 0.0351759791, -0.1100161970, -0.1374078095, -0.1331277192, -0.0326466560, 0.0747096986, 0.1484251767, 0.1420665234, -0.0983086452, 0.0526581407, 0.0996607095, 0.0828920007, 0.0842725635, 0.0662142187, -0.0694929659, -0.0066352934, -0.0957791358, -0.1176107079, -0.0721239224, 0.0811225027, -0.0423266441, -0.1421602517, 0.0140099227, -0.0678171962, -0.0166528970, -0.0772184730, -0.1253754199, 0.0578833520, -0.1260245591, -0.0796790719, -0.1378209144, 0.0768527091, -0.0281299502, -0.1002168208, 0.1079325527, -0.0564588308, 0.0089193285, -0.0470768809, 0.0149029940, 0.1530518085, 0.0128556043, -0.1443435550, 0.0310116708, -0.1488455236, 0.1133873314, -0.0279140323, -0.0296195000, 0.0785973966, -0.0963399485, 0.0499546975, 0.0227174014, 0.1338160485, 0.0130529702, -0.1097491682, 0.0686702281, 0.0547291487, 0.1456879228, -0.0729840845, -0.1385407001, -0.1513881683, 0.1016029269, -0.0387408659, 0.0230948776, -0.1410376132, -0.1314861178, -0.0313748866, 0.0477707088, 0.1401038319, -0.0870016143, 0.0011201054, 0.0936821550, -0.0406791940, 0.1406067759, 0.0836665332, -0.0320845023, 0.0356228501, -0.0736004561, -0.0650787428, 0.1217969209, -0.0976374298, -0.0618397743, 0.0366265029, 0.1043477803, 0.1527167410, 0.1224768013, -0.0903322622, -0.1222806871, 0.1146967858, -0.0940079242, 0.0803793967, -0.0914861336, -0.1396009624, 0.0804519653, -0.0387638137, 0.1268668324, -0.1419679821, -0.0283994824, -0.0268073231, 0.1563440114, -0.0396829993, 0.1130148619, 0.0465537459, -0.0879673660, 0.0254395902, 0.0584138334, 0.0762364119, 0.0160520822, -0.1465563774, -0.0358258635, 0.0382528454, 0.1427672654, -0.0162728876, 0.0216756910, 0.0619015545, 0.0291949809, 0.0455721021, -0.1184601188, 0.0384180248, -0.0963843837, 0.0570110977, -0.0152450949, 0.1258764416, 0.0293607861, -0.1409606785, 0.0425920337, 0.0324880183, 0.1185218543, 0.0415991247, -0.0228295177, 0.1101316363, -0.0075556338, -0.1554669738, 0.1348806173, -0.0001672953, 0.0393004566, -0.0879706889, -0.1190740317, 0.0455382615, -0.0311605781, 0.0590965003, -0.1360631287, -0.1294077635, -0.1064547896, 0.1194713861, 0.0136919618, 0.0101848692, 0.0154817551, -0.1205121279, -0.0696673170, -0.0235497355, 0.0290596932, 0.0713678300, 0.0149968266, -0.1199260950, 0.1253442317, 0.0565295666, 0.0212192684, 0.0859605372, -0.1292585582, -0.0274568647, -0.0625239387, -0.1441600174, -0.1009801626, 0.0041016340, 0.0130742788, -0.1231330931, -0.0684863999, -0.0031155497, 0.1387432367, -0.0763144344, 0.0064521730, -0.0060951710, 0.0555979609, -0.1150224283, -0.0354477912, -0.1262258887, -0.0660250559, 0.0302083343, -0.0679814368, -0.1447798610, 0.0962190479, -0.0314368606, -0.1193040162, -0.0956903696, 0.1134481579, -0.0524937138, -0.0212723613, 0.0730650425, 0.1516631097, -0.1011248082, 0.0941851586, 0.0188695937, -0.1399131715, 0.0430674106, 0.0451325476, -0.1170198545, 0.0547306389, -0.0575560257, 0.0454915911, 0.0254666805, -0.0546925440, 0.0080894679, 0.0352405310, -0.0022318810, -0.0842576101, -0.0503775701, -0.1073612124, 0.0942391306, 0.0255255848, -0.0768645778, -0.0364715606, -0.0387757495, -0.0056968927, 0.1113772541, -0.1248050183, -0.0324047357, -0.1073853895, -0.0038195997, -0.1153748631, 0.0323992968, -0.1216634214, -0.0810024738, 0.1366143972, 0.0922519714, -0.0241180062, 0.0544845313, -0.0820158347, 0.1335246712, -0.1435335428, -0.0847627148, -0.0831941441, -0.1104343012, -0.0543533936, -0.0764494613, -0.0240511447, -0.1326258183, -0.0700199008, 0.1465034634, -0.0514835715, -0.0353096277, -0.1514167190, 0.1006717831, -0.1287729293, 0.0769165456, 0.0420977026, -0.0788298026, 0.0892229378, 0.1240773350, 0.0547237694, 0.0155226439, -0.1269741058, 0.0108378083, 0.1196521968, -0.1152395383, -0.0079310834, -0.1141990945, 0.0463119745, 0.1013110429, -0.1127952784, -0.1064247191, -0.0802532434, -0.0616549700, -0.0627329126, 0.0172399729, -0.0260550678, -0.1159344167, 0.0363669842, -0.0594764799, 0.0785543770, -0.0640439317, -0.0997813344, 0.1312178522, 0.1395116299, 0.0563094318, -0.0355806947, -0.0739866942, -0.0030492544, 0.1558022946, -0.0309087336, 0.0388854891, 0.0776256770, -0.0758674145, -0.1295967102, 0.1518565267, -0.0932336897, -0.1453474015, -0.0551457927, 0.0250374228, 0.0414017141, -0.1062093526, 0.0038226992, 0.1158709973, 0.1528882235, -0.1057946533, 0.1219493598, -0.1446603537, 0.0357953757, 0.1198591441, -0.1173570678, 0.1034092754, -0.0631453097, -0.1100682840, 0.1417556852, 0.0831677318, -0.0795981809, -0.0829639733, -0.0751388520, -0.0363925323, 0.0705990791, 0.0158787668, -0.0568246245, 0.0638623089, -0.0752069056, -0.0094800293, -0.1463067681, -0.0767722726, 0.0643994361, 0.0372239649, 0.1345510036, 0.1202687174, -0.0179747790, 0.1415284425, 0.0727395117, 0.1217778176, -0.0089175105, -0.1445671171, -0.0274857730, -0.1361106336, -0.0868761763, 0.1149284691, -0.0192778856, -0.0301300883, 0.0504281670, 0.0823598355, 0.1239928752, 0.0201526731, -0.0691378042, -0.0181347579, -0.0195637643, -0.1300925612, 0.1408354491, -0.0575562119, -0.0476953462, -0.0918042436, 0.0657349229, 0.0164848417, -0.0077015907, -0.1497366875, -0.0056814402, 0.1372941285, -0.0649795011, -0.0392379537, 0.0238157213, 0.0023602694, 0.0297911316, -0.0407839566, 0.1260463148, -0.1296110749, -0.1010105684, -0.0133586228, 0.1040837318, -0.1180410832, 0.0199564546, -0.0433693603, 0.0045720488, -0.0694216639, 0.0265145749, -0.1420395523, -0.1448538154, -0.1488087773, 0.0240661800, 0.0990988761, -0.0602102280, -0.1198505014, -0.0759197623, 0.0979384035, 0.1166032702, -0.0822676048, -0.0025901794, 0.0076274872, 0.0605520010, 0.0543713719, -0.1198522896, 0.0678536147, 0.1524221152, -0.0610734075, 0.0841414630, 0.0844679624, 0.0646360517, 0.0129506290, -0.1105253026, -0.1387186795, 0.0036382675, 0.1048681587, -0.0227833688, 0.1086835414, 0.1419822127, -0.0780752748, 0.1562042385, 0.0430665463, 0.0093069524, 0.0175467879, -0.0722518638, -0.0321541578, -0.0707763061, -0.0808718130, -0.0439209640, -0.0402381420, 0.0007303208, -0.0369998440, 0.1047012359, 0.1365905553, 0.0945201069, -0.0982530564, 0.0784365535, 0.0619353652, -0.0884380043, -0.1234931052, -0.0253567994, -0.0739225596, 0.1188699156, -0.0457375422, -0.0587813035, 0.1170114726, 0.0294356644, -0.0767796189, 0.0335009992, -0.0381593034, -0.1483024359, 0.1245370060, -0.0383638442, 0.1128438860, -0.0749176368, 0.1200837344, 0.0016345382, 0.1541399807, 0.0205985755, -0.0324957743, 0.0851213783, 0.0622926801, -0.0548591763, -0.0308756679, 0.0007037222, -0.0839810967, -0.0442569852, 0.0377205312, -0.0523595512, 0.1396904439, -0.1041024253, -0.0944793373, -0.1067115590, -0.0383801833, -0.0095853657, 0.1021667868, -0.1516386867, 0.1376114935, -0.0723056644, -0.0851774663, 0.0388912708, 0.0370246172, 0.1476205736, 0.0496426225, -0.0152405053, -0.0495122224, -0.0594355464, 0.0408692211, -0.0509373397, -0.0691375062, -0.1244644076, 0.0031276345, 0.0900979489, -0.0885935873, 0.0152669102, -0.1441245824, -0.1445384324, 0.0118384808, 0.0130382329, -0.0077503175, -0.1373621821, 0.0607328415, 0.1106089801, 0.0931833982, 0.0812591761, -0.1215875298, -0.0250045508, -0.0138789564, 0.0304637700, 0.0653332025, 0.0867079049, 0.0091710687, 0.0813148767, -0.0613766313, 0.1457624882, -0.1461155117, -0.0299369693, 0.1432074457, 0.0535752028, 0.1150890142, -0.0467590317, 0.1561810523, 0.0193988383, 0.0443643630, -0.1396517009, 0.0574709922, 0.1170456260, -0.0634605065, -0.1097734198, -0.0384674892, 0.0085578263, 0.0351056904, -0.1085293740, 0.1465488821, 0.1297027916, -0.0851400793, 0.0105593652, 0.0364055932, 0.0780071765, -0.0511118025, 0.1120663434, 0.0030086488, 0.1312359124, -0.1139049754, -0.0107027739, 0.1149080247, 0.0380074531, -0.0310793072, 0.0739712119, 0.1410758942, -0.0594352111, -0.0737416744, 0.0532805622, 0.0552705228, 0.0375170708, -0.0852831677, 0.0891867131, 0.0112718046, 0.0389984995, -0.0535462499, 0.0569278300, -0.0808004439, 0.1455787569, -0.1106360778, -0.0029041916, 0.0458002239, 0.0880899280, -0.0244906694, -0.0371451676, 0.1030633301, -0.0880143046, -0.0793724880, 0.0728086829, 0.0174001157, 0.0829397589, 0.0942730457, 0.0985951871, -0.0185687244, 0.0853545070, -0.0194820166, 0.0001590550, 0.0684658736, 0.0049960762, 0.0442499667, -0.0526924729, -0.0195251852, 0.0552185178, -0.0433029532, 0.1443883032, 0.0399863720, 0.0706580281, -0.0259149224, 0.1112091690, 0.1175757498, 0.0030547678, 0.1490328759, 0.0772372335, 0.1508999914, 0.0876455307, -0.0399769321, -0.0586979538, 0.0095601827, -0.0955948532, 0.0854039788, -0.0393294394, 0.0439111888, 0.0705222934, 0.0293384343, 0.0460151732, 0.0781337023, 0.0740111023, 0.0687853396, -0.0725601241, 0.1459280103, 0.1540711373, -0.1207154691, -0.1188940406, -0.1043611765, -0.1272353232, 0.0369510800, -0.0291721821, -0.1549296975, 0.1072400957, -0.0836313069, 0.1024513990, 0.1036605984, 0.1238935441, 0.0374556631, -0.0098271817, 0.0888368487, 0.1422180682, -0.0021537244, -0.1535472274, 0.0654061884, -0.1155030653, -0.0513381660, -0.0249494016, 0.0956198126, 0.0834896415, -0.0953148380, 0.0583894700, -0.1252929717, 0.0463160127, -0.0340343565, -0.0433069766, 0.0090716332, -0.0551538169, -0.0757692903, 0.1077645272, -0.0598037690, -0.1262919158, 0.0749972612, -0.0166190863, -0.0997104049, -0.0070958436, 0.0028055310, 0.0174132138, -0.0896963403, 0.1550085396, -0.0543120131, -0.0825479552, 0.1082211882, -0.1016865671, -0.1342155486, 0.1220390350, 0.0513836443, 0.0265255570, -0.0882730186, 0.0175054371, 0.0352373570, 0.0723169297, 0.0880692601, -0.0616388544, -0.1564340293, -0.0710662827, 0.1129545718, 0.0233792216, 0.0244007856, -0.0210482031, 0.0283704102, 0.1380686909, 0.1389070898, -0.0039401203, -0.0137856454, 0.0296525508, -0.1033999026, 0.0565018505, 0.0684382319, 0.0659367740, 0.0831444114, 0.1424877495, -0.0599625260, 0.0299551040, -0.0821453035, 0.0081135035, -0.0098906457, -0.1559498906, 0.1467147619, 0.0947550684, -0.0034420937, 0.1343833655, 0.0383829772, -0.0035063028, 0.0307463109, 0.0382201970, -0.0861990303, 0.1327112764, -0.0039940327, 0.0934933722, 0.1440860778, -0.0638136566, 0.0663684309, 0.0553769022, -0.0220921189, 0.0605300218, 0.0202177018, -0.0155883878, -0.0433908179, -0.1326410323, 0.0105615556, -0.0315756574, -0.0452076942, -0.0249980837, -0.1446855068, 0.0091087222, -0.0685698986, 0.0510057360, -0.0079523176, 0.0707752556, -0.1487108767, 0.1389504820, -0.1105096340, -0.1507586688, -0.0868211091, -0.1534322053, -0.1048578545, -0.0624094307, -0.0548235774, 0.0973560959, -0.0901342928, 0.0117233694, 0.0766974986, -0.0638302192, -0.0131632984, -0.0277453065, -0.0432274342, -0.1150517166, -0.1495571136, -0.0851362720, -0.0664621517, 0.0899003893, -0.0341859832, -0.0701691881, -0.0561893731, -0.0076934099, -0.1535117030, 0.0599877387, 0.0620592386, -0.0933516994, 0.1143093556, -0.1453765035, 0.0686839670, 0.0887736827, -0.0130376071, -0.0262304246, -0.0572050065, 0.1528074592, 0.0005253404, 0.0999861807, 0.1094764918, -0.0892086551, -0.1338762343, 0.0925740004, -0.1301687956, 0.1448767632, -0.1297526658, 0.0673650652, -0.1426140964, -0.1096770465, 0.1249285191, -0.1449110061, -0.0617058650, -0.0440698341, -0.1469485462, -0.1256824136, -0.0176769942, 0.1440679878, -0.0337840766, -0.1452109814, 0.1164206415, 0.1415432543, 0.0591590405, -0.0847776830, -0.1306403577, -0.0040964037, -0.0621793717, 0.0110376775, 0.0001648813, 0.0498464555, 0.1335578710, -0.0204387307, 0.0846940726, 0.0221613944, 0.0726828724, 0.1315064579, -0.1563455313, 0.0372916907, 0.0614256263, -0.0888705477, 0.0764733404, -0.1331261396, 0.0064902157, -0.1536920667, 0.0387417227, 0.1269564182, 0.0485390574, 0.1206342727, 0.1107354611, 0.1118809730, 0.1146925241, -0.0310665220, -0.1421958804, 0.1309178323, -0.0046724081, -0.1116133928, 0.1415572315, -0.0781393349, 0.1227953881, 0.0540493131, -0.0845931023, 0.0258007497, -0.1048593819, -0.1257027090, -0.0794443861, 0.1473924667, -0.1086388379, 0.0887514800, -0.1047113687, 0.1232309192, -0.0410740152, 0.0136617720, 0.1012221128, -0.0162400156, 0.1522500068, -0.1034460217, -0.0665794909, -0.0309401751, 0.0824007243, 0.0037205070, 0.0728399158, -0.1293536723, -0.0426919907, 0.1370945722, -0.0096050650, 0.0628809631, -0.1472115070, 0.0595840812, 0.0067414790, 0.1528707892, 0.0216090530, -0.1189927310, -0.1298886687, 0.1050176471, -0.0710073337, -0.0153410882, -0.0282673240, -0.1047376767, -0.0545996428, -0.0584879667, -0.1237204671, 0.0825619549, -0.0201587081, 0.1436721534, 0.0582416803, 0.1237332672, 0.0378061533, -0.0430511385, -0.0759862885, 0.1494823843, -0.0884910226, -0.0745592266, 0.0579853207, -0.0230521858, -0.0000080913, -0.0331550166, -0.0287644565, 0.1087004393, 0.0445775986, 0.0503883511, 0.0103895962, -0.0481304973, 0.1034118384, -0.1040191501, -0.0546221808, -0.0792249963, -0.0139151961, -0.0434287265, 0.0813005120, 0.0614765584, -0.0517923161, -0.0774969906, -0.1426559538, 0.1414517909, 0.0017644614, -0.1454053074, 0.1117936820, -0.0110787898, -0.0836506337, 0.0913649052, 0.1108240932, -0.1275346577, -0.0873920396, -0.1040090322, 0.0629810989, -0.0723061860, -0.0888447613, -0.0816949978, -0.1465091407, -0.0246992260, -0.1556358486, 0.0434883088, 0.0120059997, 0.0153574347, -0.0303621292, -0.1461764425, -0.0300519615, 0.0511476249, -0.1353602707, -0.0035624504, -0.0423272401, -0.0481469184, 0.1079842001, 0.0638651401, -0.0793710724, -0.1488857567, 0.1300688833, 0.1155605167, 0.0930636674, -0.1019360945, -0.0723846927, -0.0068619847, -0.0983651280, -0.0389818922, 0.1119789630, 0.1470908076, -0.0627574623, 0.1060252935, -0.0892764851, 0.1336087137, 0.0747670829, 0.1538743824, 0.0758615881, 0.0349481702, 0.0668186843, -0.1096652150, 0.0297850519, 0.0661759377, 0.0623371899, -0.0087851286, -0.1475218236, 0.0283403397, 0.1319201440, 0.1249380261, -0.0879402012, -0.1404718608, 0.0298743248, 0.1210636944, 0.1103456169, -0.1094328091, -0.0651750416, -0.0402122140, -0.0586924702, -0.1226227134, -0.0275990963, -0.0692058206, 0.1561059803, -0.0809541196, -0.0057420284, 0.1284946054, 0.0984486192, -0.0093631446, -0.0353953317, -0.1331639886, 0.0604000986, -0.0887765959, -0.0801481381, -0.0147716105, 0.0108001232, -0.0285179764, -0.0263806731, -0.1330519766, 0.0696963817, -0.0912546590, 0.1134811193, 0.0006109923, 0.0447043329, 0.0382134467, -0.0676412359, -0.0056613982, -0.0586661622, -0.0564580485, -0.1523986608, 0.1048054248, -0.0149713010, 0.1293457299, 0.0789868087, 0.1107207388, 0.0883940160, -0.1410513073, 0.1071713716, -0.0193592161, 0.0387250781, 0.0037729591, 0.1326787323, -0.0344761088, -0.0046746135, -0.1228049397, 0.0728945732, -0.1159738153, 0.1174853891, 0.0906932503, 0.0464986861, -0.0416418836, -0.1054060981, 0.0428008586, 0.0228096396, 0.0706199408, -0.0586711243, -0.0266866237, -0.0194574296, 0.1115223616, 0.1392146498, -0.0310820341, -0.0800781474, -0.0620562509, -0.0497457162, 0.0377458334, -0.0970754474, 0.0715538561, 0.1192141622, 0.0286347568, -0.1226812974, -0.0376924723, 0.0484843850, 0.0186692327, -0.0988347605, 0.0756805241, -0.1496212482, 0.0682461560, -0.1484979838, -0.0266390145, 0.0768435746, 0.1440068334, -0.0108858943, 0.1116783172, 0.1095749587, 0.0005463362, 0.0993493944, -0.1553770602, 0.0359961838, -0.0738708079, 0.0960574001, 0.0547476113, 0.0731833279, 0.1365599185, -0.1474677175, -0.1066691726, 0.1526977867, -0.0469652489, 0.0809925944, -0.0331259146, 0.0305863321, 0.1456311792, -0.0906937271, 0.0313294083, 0.1129197925, 0.0121893436, 0.1321215481, 0.0574302822, -0.0333692133, -0.0276972204, -0.0361385271, 0.1061083227, -0.0920574293, 0.0095937252, -0.1323359907, -0.0229060799, -0.1161614060, 0.1075181514, 0.1101588458, -0.1479680985, 0.0496257544, -0.0704829320, -0.0467577651, 0.0535359830, -0.0726042241, -0.1014436334, -0.1256435364, 0.0290936381, 0.1015345305, 0.0757087767, 0.0253390670, 0.1558332890, 0.0061784238, -0.0471962392, -0.1126242131, 0.0837468207, -0.0903447270, -0.0725675523, 0.0657038093, -0.0588358194, -0.0292577296, -0.0588894337, -0.0787802562, 0.1225824505, 0.0545709133, -0.0352678448, 0.0508008897, 0.0027136356, -0.0223822445, -0.1512786299, -0.1331796944, -0.1044273227, 0.1418425888, -0.0083809048, -0.1224278063, 0.0499863327, -0.1017819643, 0.0398013145, 0.0826095641, 0.0463515967, 0.0896992832, -0.0447847396, -0.0212844163, -0.0538984612, 0.0277141184, 0.1090260595, 0.0079848468, -0.0653596222, 0.1277321130, -0.0458612666, 0.0809384137, -0.0398073569, -0.1312007010, 0.0294035822, 0.0886631310, 0.0108525455, 0.0024174750, -0.1426418871, 0.1368793696, 0.0703962892, 0.1081988662, -0.0239480585, 0.1404397339, 0.0373830944, -0.0308189541, 0.1454030722, -0.1272434592, -0.0325706601, 0.0396221131, -0.0354897678, -0.0588307083, -0.0772203729, 0.1328729242, 0.0962852985, 0.1303162128, -0.1118179262, -0.0873388276, 0.0826551914, -0.0462118760, 0.0788324475, 0.1261351854, -0.1481677443, 0.0961461216, 0.0233737677, -0.1402463317, -0.0080340952, 0.1000616401, 0.0793798417, -0.0547170937, 0.0026955009, 0.0583105534, -0.0341738611, 0.1061053425, -0.0737564191, -0.0254500359, 0.0644778609, 0.0033174753, 0.0802699625, 0.0890237093, 0.1362606138, -0.0963597968, 0.0961244851, -0.0632152632, 0.0641250908, 0.0923247635, -0.0490617752, -0.0172218084, -0.1112315953, -0.1307751983, 0.0247885883, -0.1040086299, -0.0387510508, -0.0187195987, -0.0199992508, 0.0291718096, -0.1158965379, 0.0570537895, -0.1347785294, -0.0479565561, -0.1331716329, 0.0611347556, -0.0258781761, 0.0723348111, -0.0455280840, 0.0065031350, -0.1244442612, 0.0482063591, 0.1523659378, -0.0740203857, -0.1534696668, -0.1372742653, 0.0651519448, -0.1221991628, 0.0438473821, 0.0813079327, -0.0158746690, -0.1157764792, 0.1544733793, -0.0810415447, 0.0767023861, 0.1460803896, 0.0981659740, 0.0202526301, 0.0404751003, -0.1521229297, 0.1125535220, 0.0067124516, -0.0676473975, -0.0922413766, 0.0666467994, -0.1169270277, 0.0199430138, 0.1258212775, -0.0491490439, -0.1113611311, -0.1181354374, -0.0962328613, -0.1374360174, -0.0330136865, 0.0084232837, -0.0432573929, 0.0394268632, 0.0082814693, 0.0549511015, -0.1039872468, 0.1312757879, -0.0991818607, -0.0056445450, -0.1314010471, 0.1348676533, 0.1460005492, 0.0351327062, 0.0017007738, 0.0005591065, 0.0519261509, -0.1397525221, -0.0439335406, 0.1436933130, 0.0336598605, 0.1063093990, -0.0915261656, 0.0840701163, 0.0902317166, -0.0473470166, 0.0142903030, -0.0187872052, 0.0650293082, 0.1370533258, 0.1312422901, 0.0698868483, 0.0259426087, -0.1156399995, 0.1095209271, 0.1239882261, -0.0870498568, -0.0909549817, -0.1563699991, -0.1348084807, -0.0560955778, -0.0384734273, -0.1259335876, -0.0512570217, -0.1402760148, -0.0425234959, 0.0070098788, -0.1268023700, -0.1220351160, -0.0031543225, -0.0158075839, 0.0671119094, 0.0882287621, -0.0699369237, 0.0111582726, 0.1487752646, -0.1169622838, 0.0586079657, -0.0733673424, -0.0540705025, 0.1499084383, 0.0492868721, -0.1293405741, -0.0251730084, -0.0972624123, 0.1405169815, -0.0636435524, -0.1413274407, -0.0178213865, 0.0203064233, 0.0758999437, -0.0451719537, 0.1477973312, 0.1367627829, 0.1365897208, -0.0342372134, 0.0881848186, -0.1050098240, 0.0048782527, -0.0038320571, 0.0309230983, 0.0185515881, -0.1372249126, -0.1159727722, 0.0599705130, -0.0421415418, 0.0464698374, 0.0938014835, -0.1032183468, 0.0833848417, -0.1234700382, -0.0500026718, -0.0941136926, -0.0003109872, 0.0262648910, 0.1318734735, 0.1017319411, -0.1083792001, -0.0479315594, -0.1220793277, 0.0612236261, -0.1389638484, -0.0502703786, -0.0997528285, -0.0861501917, 0.0102903843, 0.1280164272, -0.0877876803, 0.0364994705, 0.1550916582, -0.0135308206, -0.0948152542, -0.0524280518, -0.0370343924, 0.0928273350, 0.1412078589, -0.0667114183, 0.0187437385, -0.1011546627, 0.0720644891, 0.1135105640, -0.0079427212, 0.1456150264, -0.0234739482, 0.1361359507, 0.1427447647, -0.0384174958, -0.0471501648, -0.1404202282, -0.1296733916, -0.0068044513, 0.0857306272, 0.0955335647, 0.0426563621, 0.1337949485, 0.0330950171, -0.1198832989, -0.1509645879, 0.1002645344, -0.0281134099, 0.1368531138, -0.0423259363, -0.1362949759, 0.1536077708, 0.1452236623, -0.0716267973, 0.0838801414, 0.0577784032, -0.1263734102, -0.0914221480, -0.0408391058, 0.0650968850, 0.0273685157, -0.0378796980, 0.0877338052, 0.0443333983, 0.0604838580, 0.0423817486, -0.0080323517, -0.0721450821, -0.0425869226, 0.0973390490, -0.0285807997, 0.1066377312, 0.1223599762, 0.0474332422, 0.0942375213, 0.0944359154, 0.0130234957, 0.0568347424, -0.0743808076, 0.1452666074, -0.1383771300, 0.1355267912, -0.0587181374, 0.1020111293, 0.0276134163, 0.0554947555, 0.1222689897, 0.0351428539, 0.0371880680, -0.0392237380, -0.1164520234, 0.1004684716, 0.0916039944, -0.0759072974, 0.0319343209, -0.1308413893, 0.0234017968, -0.0864998996, 0.1443953365, 0.1224750131, 0.1251470894, 0.0258697420, 0.1167286187, 0.0639689714, -0.1217268109, -0.0602303743, -0.0844441205, -0.0037449449, 0.0407622010, -0.1089181155, -0.0764641613, -0.0996772721, -0.0896294415, 0.1510470957, -0.1421638727, 0.0396636277, 0.0285601765, 0.1540897042, -0.0823091343, 0.0517636985, 0.0673965216, 0.0768699497, -0.0631991476, -0.0979473665, 0.0202501267, -0.0149829835, 0.0266785920, 0.1115672439, 0.0355226696, 0.0940530151, 0.0252232999, -0.0883743167, -0.0289540291, -0.0283614248, 0.0686105639, 0.0077921450, -0.1554036587, -0.1542335153, -0.0501130000, -0.0654674098, 0.1417503804, -0.1461008787, -0.0954356492, -0.0038784444, -0.0594687164, -0.0183777213, -0.1439810395, 0.1091857404, 0.0395156592, -0.0040251017, -0.0437539965, -0.1495624483, -0.1268842667, 0.0146018565, -0.1468913555, 0.0831842571, -0.0411353111, -0.1010380238, -0.0748283491, 0.0053389221, -0.1225063056, -0.1359834373, 0.0890834332, 0.0713194311, 0.0664186478, 0.1483450681, -0.1502494216, 0.0407169461, -0.0345855057, -0.0985629857, 0.1199326068, 0.1119635850, 0.0623017550, 0.1131499857, 0.1277043074, -0.1552199721, 0.1279546469, -0.0497691482, -0.0396267697, 0.0562552959, -0.1511332691, 0.1285621375, -0.0723919645, -0.0761104897, 0.1339297742, -0.0077900141, -0.0681739971, 0.0204171240, 0.0373570472, -0.1519774646, 0.1329765469, 0.1159221381, 0.1051727086, 0.0019218326, 0.0156565905, 0.1410769969, 0.0287087858, 0.0416622460, -0.0630970299, 0.1050737947, -0.0493236557, 0.1252454072, -0.0601365790, -0.0992168933, 0.0487864912, 0.0250442475, -0.1354277730, 0.0804371089, -0.1145393327, 0.0868272334, 0.0857621282, -0.1135560870, 0.1407679170, 0.1429790407, 0.0216265172, -0.1284225434, -0.1512312889, -0.0072224438, 0.0450655371, 0.0158100873, -0.0978953913, -0.0132704675, -0.0504266694, -0.0338266417, -0.1506180167, -0.0530360267, -0.0245131254, 0.0337080359, -0.1531239748, 0.0015863031, -0.0621835515, -0.0569754690, -0.0487569422, -0.0654788613, 0.1000101715, -0.0336874053, -0.1274437755, -0.0735779554, -0.0038294494, 0.0365841985, 0.0159601867, -0.1547382176, 0.0784216672, 0.0736048222, 0.0628918260, -0.1106042564, -0.1134908274, -0.1444194466, 0.0798670799, -0.1284027994, 0.0924483389, 0.0762832016, -0.0494102165, -0.0787289515, 0.0633562207, 0.0326045752, 0.1419770271, 0.0418025851, -0.0260863304, 0.0378948897, -0.1309701204, -0.1397412121, 0.0998838693, 0.1449062675, -0.1201407388, 0.0228488445, -0.0936266035, 0.0971011966, -0.1200062707, -0.0111089498, 0.1395727545, -0.1171854734, 0.1389283687, 0.1315868646, -0.0492019132, -0.0668936819, 0.0325953960, -0.0993227810, 0.1166421622, 0.0174636990, -0.1485399157, 0.0068813860, 0.0867467821, 0.0476876646, 0.0210179836, -0.0394729003, -0.0650631487, 0.1086480170, 0.0311097652, 0.1559077948, -0.1268942654, -0.1495090574, -0.0510388613, -0.0094154477, 0.0540697575, -0.0865319148, -0.0144214928, 0.0441984832, 0.0374161899, 0.1215158552, -0.1250530630, -0.0227248669, -0.0894128904, -0.0830049738, 0.0138734430, -0.1014666855, -0.0651479587, 0.0733584911, 0.0837764889, -0.1315536946, -0.0322945938, 0.0683435053, 0.0289162993, 0.0299530923, 0.1141441613, -0.1177326739, 0.1107929796, -0.0453264192, -0.0712685063, 0.0560944974, 0.0564351380, 0.1227569133, -0.0227285177, -0.1203874052, -0.0601976141, 0.0997101814, 0.0705777407, -0.1289656013, 0.1160382479, -0.0818199515, -0.1492016912, -0.1100482866, -0.1308000088, 0.0514314771, -0.0684124902, -0.1225122064, -0.1156023890, -0.1413347125, -0.0383428708, 0.0040690601, 0.1383750588, 0.0381654203, 0.1114922911, -0.1030034423, -0.0403267965, 0.1012021154, -0.0647164583, 0.1098164469, 0.1220211536, -0.1499337256, 0.1013491899, 0.0964086801, -0.1148457974, 0.1521318406, 0.0910435468, -0.0978357643, -0.0458726063, 0.0099570453, -0.0576243401, -0.0027469993, -0.0882807747, 0.0197140127, -0.0536591187, 0.0356422514, 0.0284967870, 0.1505707651, 0.1500825733, 0.0860942602, -0.0716973916, -0.1069922447, -0.0991477221, 0.0419783443, -0.1145730615, 0.1504258960, -0.1127256975, 0.0657467544, -0.0859422907, -0.0580625907, -0.0331737101, 0.0052845329, 0.0675857961, 0.0090050697, -0.1324289590, -0.0919638202, -0.0801272094, 0.0505156219, 0.0559223741, 0.1375611573, 0.0587752312, -0.1509725302, 0.0345043540, -0.1433415413, 0.0884615779, -0.0511685163, 0.1156375259, -0.0058736205, 0.1066649705, -0.0304869264, -0.0446350127, 0.1353536993, -0.1094087064, 0.0892969668, -0.1110327244, 0.0432166457, 0.0944371372, 0.1054183096, 0.0878661871, -0.0597305596, -0.0885277689, 0.0797075331, 0.0981328338, 0.0886960775, 0.0429778248, 0.0074134767, 0.0751885772, -0.0358025804, -0.0282390416, 0.1378289908, 0.1315369755, 0.0110676736, 0.1005134732, 0.0850575417, -0.0522370562, 0.0583938658, -0.0369795784, 0.0275298804, -0.1060990691, -0.0900216922, 0.0910213888, 0.0397960544, -0.0473941341, -0.0753456280, -0.1038962156, 0.0646341890, -0.0637045950, -0.0809719190, 0.0218269527, 0.0655046850, 0.0160326362, 0.0394032449, -0.0141669959, -0.0127457231, 0.0575069636, 0.1400980204, 0.1086835712, -0.0622455627, 0.0204113424, -0.0001097322, 0.0323485136, -0.1108355373, -0.0043719113, 0.1188360304, -0.0659370422, 0.1288540810, -0.0612635091, 0.0959450155, -0.0303395241, -0.0911401883, -0.0345573723, -0.1056934297, 0.0294332504, -0.0177689642, -0.0866314620, -0.0173635930, 0.0593975335, -0.1160748154, 0.0016793460, 0.0987968892, 0.0138343722, 0.0414099246, 0.0450449139, 0.0154834688, 0.1058164090, -0.0208096653, -0.0572939888, -0.0657259002, -0.1550478339, -0.1393595934, -0.1026228741, -0.1004725471, -0.0952753648, 0.1141141504, -0.0479240194, 0.0865339637, -0.0015833527, -0.1386105865, 0.0811675340, 0.0889774710, 0.0085901469, -0.0523015708, -0.0868160725, 0.1147108525, -0.1550848037, 0.1346765608, -0.0486815423, -0.1191228330, -0.1251184940, 0.0025724918, 0.0218319446, -0.1091920808, -0.1003133804, 0.1209431738, -0.1216701046, -0.0860264674, -0.0510564744, -0.0833380893, -0.0022990406, -0.0918452069, 0.0838649869, 0.1483540088, 0.0054844022, 0.0967400819, -0.0639669970, 0.0646507889, 0.0900312066, 0.1133228093, -0.0192512125, -0.0854202807, 0.0682344437, -0.0797161534, -0.1390028298, 0.0682085901, -0.1514084339, -0.0697055981, 0.0562433600, -0.1125465333, 0.0794781893, 0.0043854862, -0.0240649134, 0.1234677583, -0.0589351729, -0.1132077128, -0.1413320303, 0.0436922908, -0.0438289195, -0.1193122566, -0.0830322877, 0.0609553158, -0.0077488571, 0.1121369451, -0.0940984040, -0.1193040162, 0.0828710645, 0.0434122384, 0.0975318700, -0.0428244770, -0.0293502957, 0.0134922415, 0.1401480585, 0.0842634290, 0.0399387926, -0.0613093227, -0.1041077971, -0.0413786173, 0.0769890100, 0.0289843231, 0.0837939084, 0.0060864538, 0.1174130589, 0.0692582428, -0.0091904998, 0.1267686039, 0.1409632415, 0.1330755800, -0.0081826299, -0.0392321348, -0.1430581659, 0.0294740647, 0.1274883300, 0.1142100245, 0.0444508493, -0.1555329412, -0.1075506061, 0.0815122128, 0.0312689245, 0.0903610736, 0.1541724056, 0.1028458327, 0.0279967785, 0.0849361718, 0.0475706905, 0.0619051754, -0.1138908342, -0.1047318578, -0.0353846252, -0.0352319852, -0.1350062340, 0.0910556763, 0.0961100310, 0.0308333933, 0.1521651596, 0.0088596344, -0.1139018387, -0.0267682970, -0.1244276613, 0.0402068049, 0.0489931554, -0.1404933929, 0.1441512257, -0.0993950963, 0.0027927756, 0.1193501502, 0.0288092196, 0.0408884287, -0.0187591910, 0.0918252170, -0.0113893747, -0.1174794883, 0.0932615548, 0.0126143545, -0.1127330065, -0.0276500136, -0.0612509325, 0.0884180367, 0.0242460519, 0.0615553111, -0.1059117690, 0.0908199549, 0.0700652748, 0.0374108851, 0.0578317940, 0.1091361493, -0.0665230751, -0.0090834647, 0.0463914871, 0.0307433754, 0.1206561178, 0.0845785588, 0.0022921115, -0.0952867046, -0.0595929623, -0.0817564502, 0.0835643411, 0.0729368180, -0.0929183364, -0.1426825523, -0.1494311988, -0.0316023752, -0.1255224943, -0.0680987015, -0.0168903321, 0.0683489144, 0.0813069344, 0.0574388355, -0.1021659300, 0.1351736933, 0.0847969353, -0.0823622271, 0.0996908396, -0.1119526178, 0.0981748849, 0.0443183184, 0.1432644874, 0.1496947557, -0.1034412086, -0.0404185057, 0.1463726610, -0.0112357289, -0.1236241311, -0.1052908823, -0.1274633259, 0.0831045955, -0.0944168866, 0.0654321909, 0.0057923347, -0.0290179402, 0.1170981377, 0.1112898737, 0.1328059584, 0.1048415452, 0.1549864560, 0.0211845636, -0.1550378203, 0.0131898671, -0.0897102952, 0.0934611410, 0.0585805029, -0.0899022594, -0.1173401326, 0.0661745518, 0.0196861327, 0.1333191544, 0.1144561321, 0.1297045499, -0.0873412564, -0.0204729438, 0.0622922778, -0.1388123930, 0.1073338538, 0.1026328057, -0.1374002695, -0.0801404864, -0.1494007558, -0.0331963226, -0.1463541090, -0.0525612086, -0.1292036474, -0.0904771760, -0.1290481687, 0.0126674026, -0.0425660685, 0.0848680437, -0.1011087000, 0.1442048699, 0.0215805918, 0.0917575657, 0.0482100397, -0.0510244593, 0.0759162605, -0.0769442394, 0.1164918393, 0.0317130685, 0.1327877492, -0.1184664220, 0.1107881516, -0.1092330515, 0.1373478025, 0.0845201313, 0.1272311360, 0.0306455344, 0.1280573159, -0.0993529707, -0.0157064795, -0.0996648818, -0.0304976851, 0.1490545720, 0.1335835904, -0.1179251596, -0.0026012212, 0.1392001063, 0.0290796161, -0.1069501638, -0.0493127257, -0.0763230175, -0.0314195156, -0.0812856629, -0.0123583227, -0.0253909379, -0.0791261643, -0.0697026551, -0.1209053099, -0.1562156528, 0.0566331148, 0.0849641562, -0.0065042078, -0.0535083413, -0.0548445135, 0.1464761049, -0.0816815346, -0.1087862179, 0.0653301477, -0.0250697285, 0.0000241101, 0.0649324059, 0.0767201483, 0.1175947338, 0.0071967393, 0.0574902445, -0.0704849809, -0.0782043636, -0.1114674732, -0.1280568689, -0.1009601653, -0.0701181814, 0.1004177481, 0.0510852784, -0.0011841953, -0.0335173011, -0.0512528047, 0.0242614597, 0.0687575340, 0.1190143973, -0.0273178369, -0.1286073029, -0.0545241609, -0.0564318523, 0.0717780590, 0.0162319541, 0.1336704642, 0.1216131896, 0.0690876991, 0.1299237460, 0.0305874795, 0.0339595079, -0.0286847502, -0.0851757824, -0.0760678500, 0.1041382402, 0.1455195993, -0.0453593284, -0.0987307429, -0.1026074290, -0.0335077867, 0.0541592985, 0.1437668949, 0.0097358823, -0.1385440677, -0.0873245820, -0.0395411029, 0.0522402972, -0.0349357799, 0.0110468268, 0.0880905241, -0.0526769161, 0.1010069102, -0.1035257876, -0.0989900827, -0.0597834662, -0.0858608112, 0.1264300495, 0.1078601927, -0.0223230273, 0.1406813711, 0.0324894637, -0.0697483942, 0.1095126420, 0.0567933917, 0.0681438893, -0.1536753476, 0.1305697411, -0.0529714078, -0.1562157273, 0.0126962066, 0.1023569554, -0.0742527619, 0.1482857615, -0.0788073093, 0.1158596724, 0.0095282048, 0.0099760741, -0.1227702796, -0.1094293445, -0.0741901919, -0.0316555426, -0.1216886044, -0.1077279001, -0.0554708466, -0.0172240436, -0.0598435402, -0.1239664555, 0.0502191931, 0.1155944020, -0.0502858236, -0.0411159098, -0.1250602603, -0.0491482243, 0.1269288808, -0.0694275573, -0.0147179663, -0.0711866096, 0.0026282668, 0.0993702859, 0.1412020773, 0.0199569315, 0.1280331761, 0.0054054856, -0.1456587613, 0.0026981235, 0.0942794234, -0.0152901262, 0.0343898088, -0.0327195302, 0.0851931721, -0.0074792206, -0.0668340251, -0.0519553646, -0.1084167287, -0.1255173832, -0.1275072098, -0.0640339702, -0.0932260007, 0.0743876696, 0.0711520910, 0.1562612504, 0.1530171186, 0.0763148367, -0.0965224355, 0.1562108248, 0.0619214773, -0.0847725645, -0.0606212765, -0.0318761915, 0.0523172021, -0.1129619852, 0.0054876804, 0.1225637347, 0.0506751537, -0.0323394835, -0.1031671241, 0.1462316960, 0.0047002882, 0.0603163391, 0.1054928154, 0.0325018615, -0.1063438207, 0.0529347360, -0.0607422069, 0.1376740187, 0.0049839914, -0.0963217020, -0.1022331268, -0.1357421428, 0.0747869313, -0.0323031023, 0.0437075496, -0.1252855062, -0.0064139664, -0.0294114202, -0.0700431094, 0.0894150138, -0.1532585174, 0.1111095399, 0.1404133886, 0.0165580809, -0.0730020329, 0.1450918466, 0.0998968929, 0.1010224968, -0.1309080273, -0.1245885417, -0.1429980993, -0.1527164280, 0.0286359489, 0.0975080281, -0.0432545245, 0.1423989087, -0.1217106581, -0.1497789621, -0.0039643645, -0.0832548440, -0.0627997369, -0.1049666554, 0.0501928478, -0.0067196786, -0.0447459370, 0.1372786611, -0.1056068987, -0.0941388458, 0.0091039091, 0.0804378241, -0.0407625064, 0.0725217760, -0.1453601569, 0.0950038284, 0.1385786384, -0.1314722449, -0.1430723816, -0.0031128675, 0.1365157813, -0.0587986931, 0.0215698034, -0.0187749714, -0.0430497974, 0.0753583908, -0.1099027395, 0.0729213357, 0.1012294441, 0.1455859989, 0.1201694757, 0.0473627597, -0.1463274360, 0.0342316926, 0.0893892795, 0.0224242210, 0.0063038915, -0.0904436707, -0.0542785078, 0.1033972651, -0.1018584147, -0.0283679813, 0.0233403742, 0.0607385486, -0.0659173355, -0.0616839975, 0.0653946549, 0.0746771246, 0.0922835320, 0.1228277534, 0.1137074083, 0.1544346958, -0.0977864861, -0.1314354837, -0.0203883946, 0.0360252857, -0.1052450240, 0.1012585610, 0.0756316036, 0.1248864979, 0.0155404359, 0.0641867667, -0.0825010613, 0.0475028604, -0.1124117300, -0.0968905836, -0.1183219999, -0.1462743431, 0.0252887458, -0.0079169869, 0.0531980991, -0.1220955551, 0.0597658902, -0.0405997187, -0.0258625448, 0.0581321418, -0.1061531678, 0.0018860102, 0.0643400699, 0.1023864001, -0.0651960149, -0.0025539100, -0.0562978759, -0.1530620456, 0.0848908424, 0.0379268676, -0.0178366899, -0.0569623411, 0.0793794245, -0.1422546059, 0.0090254098, 0.1339436620, -0.1139247492, -0.0188017190, 0.0412221700, -0.0697111562, 0.0817855597, 0.1112633497, 0.0654336810, -0.0857820436, 0.1044768244, -0.0335937142, -0.0499035791, 0.0837395489, -0.0523073897, -0.1169660538, -0.0497025475, 0.0850804150, -0.1276329458, 0.0029527694, -0.0059425831, 0.0664416999, -0.1032537594, -0.0928048417, -0.0194133222, 0.0309088826, -0.0302252322, -0.0140444636, -0.0388097391, -0.0915141180, 0.1096235365, 0.1195503026, -0.0225206316, 0.0071743876, -0.1389085501, -0.0124026090, -0.0226634443, 0.0631173998, 0.1490555257, -0.1227691248, 0.0776400119, -0.0770699009, 0.1046018153, -0.0064409375, 0.1398677379, 0.1144268364, 0.1529344469, -0.0793753266, -0.1137007773, -0.0537918285, 0.1097428948, -0.1483575404, 0.0994826108, -0.1497376710, -0.1071755588, 0.0008342713, 0.0819289386, -0.0863863304, -0.1136658490, -0.1091788411, 0.1045543700, 0.1427906901, 0.1176946312, -0.0781447813, -0.0824183822, -0.0690746754, 0.1432301253, -0.1108096093, 0.1013634652, -0.1032037586, 0.0059186220, -0.1378798932, 0.0405022204, 0.1200803965, 0.0833124965, 0.0251206160, -0.1010309756, 0.1205485910, -0.0770193040, 0.0089551806, -0.1175840646, -0.0871062353, -0.1180816740, -0.0870666504, -0.1443454921, -0.0820539668, 0.0499657393, -0.0081239045, -0.0740458742, -0.0680865794, 0.1501126736, 0.0021867454, 0.0939659327, -0.1444239169, 0.1108382195, -0.0818199143, 0.0002208352, -0.0641939193, -0.1236581653, -0.1316405088, 0.1389152259, 0.1510341316, -0.1544374228, 0.1485292464, 0.0175567865, -0.0400176719, 0.0618662685, -0.0041848719, -0.0681316853, -0.1147566661, 0.0940652043, -0.0955916792, -0.1159632206, 0.0473630130, -0.0386697128, 0.0491353422, -0.0853990167, -0.0867588371, -0.0321871042, -0.0119488835, -0.0155343562, -0.0233366042, -0.0001321882, 0.0877707452, -0.0171532333, -0.0497720167, 0.1358988732, -0.0998199433, 0.1084029227, 0.0118740350, -0.0381944180, -0.0854846388, 0.0594921410, -0.0984441191, -0.0724315867, 0.0460172296, 0.0855198205, -0.1016850695, -0.1220872402, 0.1424757689, -0.1211107075, 0.1233666986, 0.1311841160, 0.0526156127, -0.0030747354, 0.1014818698, -0.0890282169, 0.0814801604, 0.0056662858, -0.1132222638, 0.0780394226, 0.0101491958, 0.0899228901, -0.0199646205, -0.0641771704, 0.0040492117, 0.0716210604, -0.0873960629, -0.0240929723, -0.1448536664, 0.1167957038, -0.1244175881, 0.1120312959, -0.1350704730, -0.1115100086, -0.0831014216, 0.1348464638, 0.1304117590, -0.0154094398, 0.0903289467, 0.1181851774, -0.0059357136, 0.0323757827, 0.0868586451, -0.1122403592, 0.1478873938, -0.0820990354, -0.1477228105, 0.0981696695, -0.0240565985, -0.0227741152, 0.0800748914, 0.1391737908, -0.0003850460, -0.0988059938, 0.0597077310, 0.1480887979, -0.1453698277, 0.1024930328, -0.1506713629, 0.0129894018, -0.1461116672, 0.1488461941, 0.1318935901, -0.1509100795, -0.0906971246, 0.0948121399, -0.0451283008, -0.0044409037, 0.1023283750, -0.0820099413, -0.0258059800, -0.1563127637, -0.0722722709, -0.1092889458, 0.0874372870, -0.1217765138, -0.0858754367, -0.1542925090, -0.0932165235, -0.0481399000, -0.0404651389, -0.0187550187, 0.0451574028, 0.0283932090, 0.0484050661, -0.0370427817, -0.1112151444, -0.0411796048, -0.1060893312, 0.1107801050, 0.0350820422, -0.1294170916, 0.0373942107, 0.0978409797, -0.0363215357, -0.1224018410, 0.1243423671, -0.0874953493, -0.0571316555, 0.1145447046, 0.1379480511, 0.0673493147, 0.0162969083, -0.1054240018, -0.1532306522, 0.0063849390, -0.0244073868, 0.0890650898, 0.0788174570, 0.0731517226, 0.0647029579, -0.1225930154, -0.0427179933, -0.0186058432, 0.0365358442, -0.1044433713, -0.1146416366, 0.0530889034, 0.1068177074, -0.0415790156, -0.0628161132, -0.1424354464, 0.1483016759, 0.1291264743, -0.0231400132, -0.1251589507, -0.0544603989, -0.0489850640, -0.1432153583, -0.0581511632, 0.0903235674, 0.0716844052, 0.1057292968, -0.0512344092, -0.0034864545, 0.0906220227, -0.0223367959, 0.0838505030, -0.1312519908, 0.0385568440, 0.1129667610, -0.0672267899, 0.0728408545, -0.1523450464, -0.0447990298, 0.0141683370, 0.0089864880, -0.0143519491, -0.0399323851, -0.1494414508, -0.1369882822, 0.1094564050, -0.0875753835, 0.0582069159, -0.0384783894, -0.0126818866, 0.1460659951, 0.1560796648, 0.0393864512, 0.0802258551, -0.0090693533, 0.0767730922, 0.1184628755, 0.0136118233, 0.0820516944, 0.0865292698, -0.1368568838, 0.1180021614, 0.0039959997, -0.0004842579, 0.0866110474, 0.0491114706, -0.0677344054, -0.0482076555, -0.1280987561, 0.0042510629, -0.0303082168, -0.0454043224, 0.1163972765, 0.0728198886, 0.0858168155, 0.0337140411, -0.0954845995, 0.1323537081, 0.0163359046, 0.0878687948, 0.0091125965, 0.1171615571, -0.0115325302, 0.0499178618, 0.0397496670, 0.0829620361, 0.0203476548, -0.1170486584, -0.1016995832, -0.0019871593, 0.1193853170, -0.0955445617, 0.1239154190, -0.1227921844, 0.0777765661, 0.0876433253, 0.0273240358, 0.0119625330, -0.0303105712, 0.1028667837, 0.0369734317, -0.0343526900, 0.1320533305, 0.0404267907, -0.0874560252, -0.1093705446, 0.0656339228, 0.1202955097, 0.1323917955, -0.1218310222, -0.0140124559, 0.0484832674, -0.0928234980, -0.0474347696, -0.0608909205, -0.0622514561, 0.0338131338, -0.1211668998, 0.0107837468, 0.0212208778, -0.1521448344, 0.0745873600, -0.0770475492, 0.0752476156, 0.0292550474, -0.0722000375, 0.0639319718, -0.0632137358, -0.0780477375, -0.0615852028, 0.0351267308, 0.0900391936, 0.0776367635, -0.1557732970, -0.1239371300, 0.1539681703, -0.0998922586, 0.1173475236, -0.1413247883, 0.0235786885, 0.0755402744, -0.1193389744, 0.0363796651, 0.0356397182, -0.0016281605, -0.0950060934, -0.1419259310, 0.1043923348, 0.1027976424, -0.0528346971, -0.0158366561, -0.1097452492, -0.1188432574, 0.0440302491, -0.0448983908, -0.0530562103, 0.0357618034, -0.0407379940, -0.1556503624, -0.1153565794, 0.0600457937, 0.0532262325, -0.0263004899, 0.1435428411, -0.1085003465, 0.1235399991, 0.1267894655, 0.0266491622, 0.0518162996, 0.1272942275, 0.0193264186, 0.1263387948, 0.0430392325, -0.0720912442, 0.1536269933, 0.0953951031, -0.0324339494, 0.1169453114, 0.0733540505, 0.0667005330, 0.0905940682, 0.1305124015, -0.0292404592, 0.0819070339, 0.1206571609, 0.0606438220, -0.1454771608, -0.0141343921, -0.1070938110, -0.1544910818, 0.0491770953, -0.0523833558, -0.0292959809, -0.0840971321, 0.0618015677, -0.1134692281, 0.0436587781, -0.1060191095, 0.1407816261, -0.1340214908, -0.0217088610, 0.0149866343, 0.0868543535, -0.0098695159, 0.0267818421, -0.0769530386, -0.1239391863, 0.0529353321, 0.0379573107, -0.1354320645, -0.0542172790, 0.0103966892, -0.0056891292, 0.0959451646, 0.0836834013, 0.0039516091, -0.0556833297, -0.1394757777, -0.0450989380, -0.0245228261, 0.1558205634, 0.1097619683, 0.0686249286, 0.1355534941, -0.0925675407, -0.0689178258, 0.0550869554, -0.1317469180, -0.0140798390, -0.0025085509, -0.0237442702, 0.0449869633, -0.0206356198, 0.0894510597, -0.1475719661, 0.0121543109, 0.0731457472, -0.0152757168, 0.1020096093, 0.1286108047, 0.1500578374, -0.0266813636, -0.1247939318, -0.0460946783, 0.0327054262, 0.1014392227, 0.1383758634, -0.0974999741, -0.1346110404, 0.0333507508, 0.0718410760, -0.0669653937, 0.0903787911, 0.0552544743, -0.0490220711, 0.0696183741, 0.1204731315, -0.0853760317, 0.0188171417, 0.1558688730, -0.0945912749, 0.0963898748, -0.1243508011, -0.0403076187, 0.0197485536, -0.1393328160, -0.0107531548, 0.0648377538, 0.1410373896, -0.1511153281, -0.0152878463, 0.1453201920, 0.1329192966, 0.1168653518, 0.0977322012, 0.1217890233, 0.0628993213, -0.1055549309, -0.1463137418, -0.0400260687, -0.1456626654, 0.0865353495, -0.0854418054, -0.0090643913, 0.0897217542, 0.1429668218, 0.1260294169, -0.0045293570, -0.1017775983, -0.0999859422, 0.0572414994, 0.0046364367, -0.0375359952, -0.1234040037, 0.0840661973, 0.1266847402, -0.0321299434, 0.0090251416, -0.0101850182, -0.0975204557, 0.0084311217, 0.0858116001, 0.0886873156, 0.0220805407, -0.0586578846, -0.0416068062, -0.1440842748, 0.1389277726, -0.0786954463, -0.0462346748, 0.1467178613, -0.0725135207, -0.1204141527, -0.1245429814, -0.0924357623, -0.0863992348, -0.0070210397, -0.0267142355, 0.1132899076, 0.0526982546, -0.0473555177, 0.0253355950, -0.0358184725, 0.0452716798, -0.1549679786, -0.0381847173, 0.1529234201, 0.0723687559, -0.0485964715, -0.0379645824, 0.1462618560, 0.0387952626, 0.0088487715, -0.1479199231, -0.0674833432, -0.1154099405, 0.1511047333, 0.1161709577, 0.0630252808, -0.0709464774, -0.0404653251, 0.0982441455, 0.1050035506, 0.0390371531, 0.0373182148, -0.0479398817, -0.1424158961, 0.0772597790, 0.0178873539, -0.0948000625, 0.0756354183, -0.0847401097, -0.1453540027, 0.0540493876, -0.0283005238, 0.0241834521, -0.0966251120, 0.0413589478, -0.0391246453, 0.0223363489, 0.0466160178, -0.1541264802, -0.0431948230, 0.1362913698, 0.0269483179, 0.0507707894, 0.1075507551, -0.0384378657, -0.1372975856, -0.0856579095, -0.1292859167, -0.0155581981, 0.0239576101, -0.0799376667, 0.0639716983, -0.0635025948, -0.1365536153, -0.0639266297, -0.0413468629, -0.1420586556, -0.0835136324, 0.0792681277, -0.0648262650, -0.0153932124, -0.1214279979, -0.1023366302, -0.0741461962, 0.0328045189, 0.1140369028, 0.0343889147, 0.0248133689, 0.0028744936, 0.1391316205, 0.0078488886, -0.0771247447, -0.1376590580, 0.0751037002, -0.0552372783, 0.0762492120, -0.0225933790, -0.0162289739, 0.1254804879, 0.1072213203, 0.1271893829, -0.0342256054, -0.0939475521, 0.0333928317, -0.0002310276, -0.0272769928, -0.0009359419, 0.1008762568, 0.0605152845, 0.1007033139, -0.0330050290, 0.0656816512, 0.0815581083, -0.0592241436, 0.0253344476, -0.0303224325, 0.0285297632, 0.0088854134, -0.1205752939, 0.0984296352, 0.0356095731, 0.1368856281, 0.0258642584, -0.0399434641, 0.1433586031, 0.0764839798, -0.0994921029, 0.0985204130, -0.0906674266, 0.0016936809, 0.0049579442, 0.1100821942, -0.1316005141, 0.1133205146, -0.1546686739, -0.1058756113, -0.1332726330, 0.1115998477, -0.0811267570, 0.1536306888, -0.1256117076, 0.1244491786, 0.0700736344, 0.1168641895, 0.0704203248, -0.1563772857, -0.0918926671, -0.0716575086, -0.0121298730, 0.0946969241, -0.1094762385, 0.1025153846, -0.0064564496, -0.0896208584, -0.0124479085, 0.0062251687, 0.0677915663, -0.0262690336, 0.1149002463, 0.0583451390, -0.0480054319, 0.0701229870, 0.0322901160, 0.1387860626, -0.0812292546, 0.1512200087, -0.0330493152, 0.0233236253, -0.0760958269, 0.0020592064, 0.0272633731, -0.1464811862, -0.0269611478, 0.0147561282, 0.0843700618, -0.0399996936, 0.0249233246, 0.0685428083, 0.0114227235, 0.0961173624, 0.1103274077, 0.0339661539, -0.1366700232, 0.0917157829, 0.0433688760, -0.0158133656, 0.0347005278, -0.0708427504, -0.0968303606, -0.0321665481, 0.1395770758, 0.1174105257, 0.0089468658, -0.0069925785, -0.0055088401, 0.1319088787, 0.0778856277, 0.0837496221, -0.0675859824, -0.0119343698, -0.0073171705, 0.1227156073, -0.1222301349, -0.1207436472, 0.1391656846, 0.1279357225, 0.1032397598, 0.0918140113, 0.0221941620, 0.1099527031, -0.1198975146, -0.1091139540, 0.0030409992, 0.0522072464, -0.1210883930, -0.1509297043, -0.0370697975, 0.0608777106, 0.0809285641, -0.0937129408, -0.0044945478, 0.0633554012, -0.0730620623, -0.1155824959, 0.0938533098, -0.0285080820, -0.0014771223, -0.1524345875, -0.1537812054, 0.1354424208, -0.1473309398, 0.0431582630, 0.1178640872, -0.0120307803, -0.1190573126, -0.1511783451, 0.1070846766, -0.1541750878, -0.0104351193, 0.1415790170, 0.0989413708, 0.1557142287, 0.0846253783, 0.0291730314, 0.0220721215, -0.0174316764, -0.0641553402, 0.1293466836, 0.0563659966, 0.1563947648, 0.1379174441, -0.0658115968, 0.0640704185, 0.0186701715, 0.1262043566, -0.1033516601, -0.0410467386, -0.1312697977, -0.1526464820, 0.1436066180, 0.0797355920, -0.1459200382, -0.0096680373, 0.1245357543, 0.0444151461, 0.1560205072, -0.0278307945, 0.0830169171, -0.0831194445, -0.0386995673, -0.0405429676, 0.0856515318, 0.0151618868, 0.0070360005, 0.1202672273, -0.0162316263, -0.0029801875, 0.0417441875, 0.1119360477, 0.0962095112, 0.0303426832, 0.0395700186, -0.1257331520, -0.0031158179, -0.0989969149, -0.0797349587, 0.1461496502, -0.0063212067, -0.1049462408, 0.0869791210, -0.0074350387, -0.0149795860, 0.1286394745, -0.0508751795, -0.0155399889, 0.0489822626, 0.0251827389, 0.1046900302, -0.1499294043, -0.0004780293, -0.1463275850, -0.0699122995, -0.1416812539, 0.0895449668, 0.0016427487, 0.0282332152, 0.0508321673, 0.0873787850, 0.1104020327, -0.1231965572, -0.1126874164, -0.1105450764, -0.0789515898, -0.0759778544, -0.1557800919, -0.0769465119, 0.0125962943, -0.1111389101, 0.1146142930, 0.0213695616, 0.0030579418, -0.1017487943, 0.0031606555, -0.0655175149, -0.0721705258, 0.0278166085, -0.0843805820, 0.0301144570, 0.1142195314, -0.0118881762, -0.0504302531, 0.0731839985, -0.1137523353, 0.1197184473, 0.0822990984, -0.0115654767, -0.1263047904, -0.0152521431, 0.1012203246, -0.0241906494, 0.0043683350, -0.0737260804, -0.0216246098, 0.0719692707, 0.1518314928, 0.1470999271, 0.0525058359, 0.1527386457, -0.0576963499, -0.0915405676, 0.0623241067, -0.0975763053, 0.0797436237, -0.0920972824, 0.0209108591, 0.0493247062, 0.1071593910, -0.1044929922, -0.0446915776, 0.1389001161, -0.0814203173, -0.1212762892, -0.0807469338, -0.0981942862, -0.1316380203, -0.1414496601, 0.0063210577, -0.1034555361, -0.0531022549, -0.0935420617, -0.0093493015, 0.1543618292, 0.0530789346, -0.1443054974, -0.0933027864, 0.0160646141, -0.0056763291, 0.0454748720, 0.0248122066, 0.0618379861, 0.1183976978, -0.1446048468, -0.0985353068, -0.1417908370, -0.0081046969, -0.1491584182, 0.0167736262, -0.0284156352, -0.1446993798, 0.0489252955, -0.0642620921, 0.0189680904, 0.1138087064, -0.0208667219, 0.0170767456, 0.0482069105, 0.0157103539, 0.0381593853, 0.0538314581, -0.1006761193, 0.0957996994, 0.0357400775, -0.0301265121, -0.0867308155, 0.1221037954, 0.0930639207, 0.0612410456, -0.0372937769, 0.0081756562, -0.0334283561, -0.0031158477, -0.0414066017, -0.0790446773, -0.0060532838, -0.0569053292, 0.0607668310, -0.0762282461, 0.0690614730, -0.0868343562, 0.0681562424, 0.1211068481, -0.0011169612, 0.0636812001, 0.0465251654, -0.0730871409, 0.0398504138, -0.0328447819, -0.0785903037, -0.0453348905, 0.0577144474, 0.0318334401, -0.0433226898, 0.0474445820, -0.0144702643, -0.0128986984, -0.1271880120, -0.1401200593, -0.0596275106, 0.0727574974, -0.0769381523, -0.1063646451, -0.0426745266, -0.0787963718, -0.1053209528, 0.0861026496, 0.0829470009, -0.1144412458, 0.0093421042, -0.0937498063, 0.0086014420, 0.1023755521, 0.0708285421, 0.1301230639, -0.0264320821, -0.0498852581, 0.0806954801, -0.0487058312, -0.0960886180, 0.1134917885, 0.0621217340, -0.1498577297, 0.0646780729, 0.0261588991, 0.1115793437, -0.1197214797, 0.0760512054, 0.1329565197, 0.0481953472, -0.1053181887, 0.0522017628, 0.1080643684, -0.0904258788, -0.0754433796, 0.0144103020, -0.0352824703, 0.0273746252, 0.1219195873, -0.1172749475, -0.1554362625, -0.0135475993, 0.0100828707, -0.1506912857, -0.1130027622, -0.1489987671, 0.0954268426, 0.1118757874, 0.1522889584, -0.0055917799, -0.1536266208, 0.1186175793, -0.0783392042, -0.0709515512, 0.0194671303, -0.1217932999, 0.0791640282, -0.0649711788, -0.0005177557, 0.0559486151, 0.0952056795, -0.0478080586, 0.0254741013, -0.0182396770, 0.0871734768, 0.0823036432, -0.0055232495, 0.0265120417, 0.1417656094, -0.0410196856, -0.0735252798, -0.0863119289, -0.0905772820, -0.1130294427, -0.0961391032, 0.0248046666, -0.1369602680, 0.1228411645, 0.1332223266, -0.0271457583, 0.1131790131, 0.0004059374, -0.0923768505, -0.0485535637, -0.1058768779, -0.1304087341, -0.0014453828, -0.0879187509, 0.1252043992, 0.1200447828, 0.0094341785, 0.0171013623, 0.0599644631, 0.0157330781, -0.0039282441, 0.0383436233, 0.0025356710, -0.0268083960, 0.1136142462, -0.0304145813, -0.0343259349, 0.0624337494, -0.0448068678, 0.0039760470, 0.0235331655, 0.0412569046, -0.1123843417, 0.0904132724, 0.1001528352, 0.0220683068, 0.1010091752, -0.0112672150, -0.0917357057, 0.0646658987, 0.1077805012, 0.0744946003, 0.0521223694, 0.0453177243, 0.0758665502, -0.0037066936, 0.0859289765, 0.1508971602, 0.0092233717, 0.1211925000, 0.0361319631, -0.1043858007, -0.0499754325, 0.1517588049, 0.0456847847, -0.0996610820, -0.0083952248, -0.0729177073, -0.0567651168, -0.1326036453, 0.1330632716, -0.0870087817, -0.1196342111, -0.0804885253, -0.0713174194, 0.0785032958, 0.1194934696, -0.0021714717, 0.1409025341, -0.0026059598, -0.1267420799, 0.0695030391, 0.1142620891, 0.1130212396, 0.1285270602, -0.1290815622, -0.0233439654, -0.1248965040, 0.0017738640, 0.0323960781, 0.0389070511, -0.1137445420, -0.0580159128, -0.0668984950, -0.1413765401, 0.1411541551, 0.0325850993, -0.1552412808, -0.0084792227, 0.0155218244, -0.1253249794, -0.1164974272, -0.1202969551, -0.0796510130, -0.0066249818, -0.0713669658, 0.0729506910, 0.0214122087, -0.1537017375, 0.0068859756, 0.0070005953, 0.0085724890, 0.0079053342, 0.0715508312, -0.1321467459, 0.1137300581, 0.0459452122, -0.0090867877, 0.0767108649, -0.0703567415, -0.1181746572, -0.0943955779, -0.0558322370, 0.0729200542, 0.0045176446, -0.0108032525, -0.1417832673, 0.1224765331, -0.1166855544, 0.0551400930, 0.0870221704, -0.1302214712, 0.0111622959, 0.1425224692, 0.1328943223, -0.0268286616, -0.0314846635, 0.0279034376, -0.1289523542, -0.0723673031, -0.1163140833, 0.0700621754, 0.0539854318, 0.0824966133, 0.1281427592, 0.0684533417, 0.1466016322, -0.0970480666, 0.0857219696, -0.0839355439, -0.0534442812, -0.1256593913, 0.0793015659, -0.1236138046, -0.0464432016, -0.0156853497, 0.0224751383, -0.0519449115, -0.0000805110, 0.0972326547, -0.0380966961, -0.1523644775, -0.1205758601, -0.1057504714, 0.1413547844, -0.0933233798, 0.1102406830, 0.0393754840, -0.1560794711, -0.0228472799, -0.1502638906, -0.1414014995, 0.0145191401, 0.1542101949, -0.1172355115, 0.0506112427, -0.1536307335, 0.0624695420, 0.1114092320, -0.0597341433, -0.0737992823, -0.0760751590, -0.1491325945, -0.1341898441, 0.0347306132, -0.0517003834, -0.1150439978, 0.0093490034, -0.0053769797, 0.0089236647, -0.0622445941, 0.0705240518, -0.0243830234, -0.1410839409, 0.0675418824, -0.0587373525, -0.0831019133, -0.1285267174, -0.0199262649, -0.0855080709, 0.1563982219, 0.0743166655, -0.1426004767, -0.0374889448, 0.0747544020, 0.0282558650, -0.0362749323, -0.0625402033, 0.0969106406, 0.1212535053, -0.1055523902, -0.0803517401, 0.1138232201, -0.0594133884, -0.0841806382, 0.0666585118, 0.1200403124, -0.0114052594, 0.1353351325, 0.1450768262, 0.0114237368, -0.1433647871, 0.0085884929, 0.1012959331, -0.0193743706, -0.1096879020, -0.1058279723, 0.1360253245, -0.0580678508, 0.0834810585, -0.1138764322, 0.0830055326, -0.0771887302, 0.1464063078, 0.0888100266, -0.1207305491, 0.0381444544, -0.1527481526, -0.1227694973, -0.0487902239, 0.1323244125, -0.0987100303, 0.0374746919, 0.0299586207, 0.0381671786, 0.0618884563, 0.0461453497, -0.1099118739, -0.0880917609, -0.0397226214, 0.0906730145, -0.0459360778, 0.0726404488, 0.1497417837, -0.1488609761, -0.1181179434, 0.1207980365, -0.1342784166, -0.1236064881, -0.0900266543, -0.1227012947, 0.0792023540, -0.0841818303, -0.0964891911, 0.0151987821, 0.0774159878, -0.1016755924, 0.1484711319, 0.0349956602, 0.0326921046, 0.1470102221, -0.1202601716, -0.0161068887, -0.1285294741, 0.1543697864, -0.0689913258, -0.1172663271, 0.0870197564, -0.0688908845, -0.0528896600, 0.1238411218, 0.1014018208, -0.0618928671, 0.0157291889, -0.0810844898, 0.0107215494, 0.1154824048, 0.1316761523, -0.0589327514, -0.0585151687, -0.1322748363, 0.0888571441, 0.0197340399, 0.0375297219, -0.0839618072, -0.0834597945, 0.1240371317, 0.0527616143, 0.0826731324, -0.0180367529, -0.0609449148, -0.0830527693, -0.1523277313, -0.1361047626, 0.0072870702, -0.1073287129, -0.0852918550, -0.0419971868, -0.0534116700, 0.0310958475, -0.1339736581, 0.0158516914, 0.0738775283, -0.1107145101, -0.0850707516, 0.0029468387, 0.1158277541, 0.1234963387, 0.1104171723, -0.0157896429, 0.1545674056, 0.1025070697, 0.0387629569, 0.0208037347, 0.0071995705, 0.1194915026, 0.1184469014, -0.0399188027, 0.0787099600, -0.0349975303, 0.0868105441, 0.0424326062, -0.1423164308, 0.1487981826, 0.1184634715, -0.1101445854, 0.1341155916, -0.1398949325, 0.1304071993, 0.0851723850, -0.0885131434, 0.0536438227, -0.0638071224, -0.0635022968, -0.1179104224, 0.1136541814, 0.1427450627, -0.1332475543, -0.0986218303, 0.0549703538, 0.0252395719, 0.0766120553, -0.0808341354, 0.0279503316, 0.1072147042, 0.1297438592, 0.0882781297, 0.1200792640, -0.0296792686, 0.1436428279, -0.0118439645, -0.0243478715, -0.1033854261, 0.0113172531, 0.0042398721, 0.0808114856, 0.1315679699, 0.0628283918, -0.0917106643, -0.1177070439, -0.0228129923, 0.1383987516, 0.0239863396, 0.0033161342, 0.1493700892, -0.0778494701, 0.1537269801, -0.0077597946, -0.1287454367, 0.0897598416, -0.0544259995, 0.0300563723, 0.0154210776, 0.1284551471, -0.1558754146, 0.0710081458, 0.0830728859, 0.1294310838, 0.1297573596, 0.0288899690, -0.0478683934, -0.1544149965, 0.0324283987, 0.0246134549, -0.1203777790, -0.0112941861, 0.1332837790, 0.0290482789, -0.0025449544, 0.1422407776, -0.0556726605, 0.1367955357, 0.0865721405, 0.0074430257, 0.0969970375, 0.1485357732, 0.1531829983, 0.0880459100, -0.1466560364, 0.0612500757, 0.1399540752, -0.1553969085, -0.0082504302, 0.1478435248, -0.0924196094, -0.0551133379, 0.1022309214, -0.0226881206, 0.1537405998, -0.0226793140, 0.0342017263, 0.1432999521, -0.0553127229, -0.1186353266, -0.1408209056, 0.0064948052, -0.1246883124, 0.1000466794, -0.1530824453, -0.1201314107, -0.0183939934, -0.0695982948, 0.0253691375, 0.1428483576, -0.1508285552, -0.1225645095, 0.0441287458, -0.1498852968, -0.0958791599, 0.1384055167, -0.0120068938, 0.1329181641, -0.1354467571, -0.1216768175, -0.1007363349, 0.1256579906, -0.1018002853, -0.0103873610, 0.0769980401, 0.1204110235, -0.1057087183, 0.0206774026, 0.0872731954, -0.0760099068, -0.0571595281, -0.1498951167, -0.1214836985, -0.0613690615, -0.0162387043, -0.0609472618, -0.0104122460, -0.1516449451, -0.1446933001, -0.1460845470, 0.1207355112, 0.0632669032, -0.0896024704, -0.0607291460, -0.1370785832, -0.0333646312, 0.0667782873, -0.0516261309, -0.0890706778, 0.0469427854, -0.0899696052, 0.0600042045, -0.0319193974, 0.0689683408, -0.1013042405, 0.0707969368, -0.1246386915, -0.1478304267, -0.0230397731, 0.0045266449, 0.0075089484, -0.1011334658, 0.0630824715, 0.0319239944, 0.0271921009, 0.1526195258, 0.0233645141, 0.0943443626, -0.0348351523, 0.1353545934, -0.0278526545, 0.1263321489, 0.0425678194, 0.0599400997, 0.0755863935, 0.0481388122, 0.0609776378, -0.1155297458, -0.0249582380, 0.0796263814, 0.0984083265, 0.1083551198, -0.0285481662, 0.1072390527, -0.0671454594, 0.0335977077, 0.0173175484, 0.1239773482, -0.0806733966, -0.0516575128, -0.0026051849, -0.0505617708, 0.0037973672, -0.1452043802, -0.0779039040, -0.0274326503, 0.0443604141, 0.0935611278, 0.1545160264, -0.0098339617, 0.0074822009, -0.0862127244, -0.0871204138, 0.0996770114, 0.1562821418, -0.0999022201, 0.0810938179, -0.1109668761, -0.1415167153, -0.1548403054, 0.1558550447, 0.0273456424, -0.1221113354, -0.1244761199, -0.0893345401, -0.0359277204, -0.0771343336, -0.0134949237, -0.0444131643, -0.0254778266, -0.1100822017, 0.0025247335, -0.0733207017, 0.0055145472, -0.0242657959, -0.0054194778, -0.0903450623, 0.0653436184, 0.1123711020, 0.1197616309, 0.0094008297, 0.0856081843, 0.0883762836, 0.1072959453, 0.0095790923, -0.0935828388, 0.1466381103, 0.0133193731, -0.1323928386, 0.1279727370, 0.0633583516, -0.0822637603, 0.0485415161, 0.0310608149, -0.0689273402, 0.0657976121, -0.0261058807, 0.0944775194, 0.0637852997, -0.0721864551, -0.0087314695, -0.0924602002, -0.0407368019, 0.1330471188, 0.0486165136, -0.0375554711, 0.0790454596, -0.0779271871, -0.1315370798, 0.0164640993, 0.1056873351, 0.1003872305, -0.1407796741, -0.0265909135, -0.0157062113, -0.0483328328, 0.0164552927, -0.1309965998, -0.0375635698, 0.0561144948, -0.0782598853, -0.0120684206, -0.0864475891, 0.0247143060, 0.1175861806, -0.0025423914, 0.0843898803, 0.1411340982, 0.0588575304, 0.0837859660, -0.1192419976, 0.0065753609, -0.1089731455, -0.0471958667, 0.0605820268, -0.0708605126, 0.0991432220, -0.0106574148, 0.0877187699, 0.0883981138, -0.1303371787, 0.1173578054, -0.0735707581, 0.0366247147, 0.1542258114, -0.0624155104, 0.1434277147, 0.1470647305, -0.0637336969, 0.0755925775, 0.1471509486, -0.1342142373, -0.0801927224, -0.0404043645, 0.0786761642, -0.0506134853, -0.0758768544, 0.0505612493, -0.1117318571, 0.0521442294, 0.0076660365, -0.0892479792, 0.0156674832, 0.1413036734, 0.1087708324, 0.1124766916, 0.1157207638, 0.0162142366, 0.1177649051, -0.1371912211, 0.0636355281, -0.1014763117, -0.0098853856, 0.0216402113, -0.0701501593, -0.0060368627, -0.0023173243, -0.1527522206, -0.1108818799, 0.0849547982, 0.0860326588, -0.0448477566, -0.1327561736, 0.0783962905, -0.0964150876, -0.0942888334, 0.0706849694, 0.1387915462, -0.0428481698, -0.1257357001, -0.0345129371, -0.0113438517, -0.0482023954, 0.1261588484, -0.0899770632, 0.0620745718, 0.0489801317, -0.1112406999, 0.0095311850, -0.0566126257, -0.0780062824, 0.1223799437, -0.1013635993, -0.1069495678, -0.0804854259, -0.0377612412, 0.1159143895, 0.0751117617, -0.1245537698, 0.0878604352, -0.0635773987, 0.0143155754, 0.0636608601, 0.0319774598, 0.0523304045, -0.0071317852, 0.0725342333, 0.0733553320, -0.0559730828, 0.0074999183, -0.1241642088, -0.1545860022, 0.0562066883, -0.1223541200, 0.1516743153, 0.0812351853, 0.1224140078, -0.1027482376, 0.0563015640, -0.0657403395, -0.1234163940, -0.0582672805, -0.0964424759, 0.1267202049, -0.1455584317, -0.0762530565, -0.0241374075, 0.1051785499, 0.1007730812, 0.0019041896, -0.0543153360, 0.0765712857, 0.0456832200, 0.1071031243, -0.1079703867, 0.1495807618, 0.0589121580, 0.0707661510, -0.0030957013, -0.0245280862, 0.0429726094, 0.1040292233, 0.1221812516, 0.0685240775, 0.0928112268, -0.0851294100, 0.1176727563, 0.0868342072, -0.0294482112, -0.1427318454, 0.0007028580, -0.0071048439, 0.0989882201, 0.1372656971, 0.0912473053, -0.0294077992, 0.1299133748, -0.1073296815, 0.0229378641, 0.0944105536, 0.0089633167, -0.1403267980, -0.1353342980, 0.1441306919, 0.0846424997, 0.0359790176, -0.1376811862, -0.1002101749, 0.0984115452, 0.0632780194, 0.1014372855, -0.1096532047, 0.1102686673, 0.1447414607, -0.0753609240, 0.1109808534, 0.0530098379, -0.0620171800, 0.0599612147, 0.1283549517, 0.0329886526, -0.0029424280, -0.0067178905, 0.0731475502, 0.1338204890, 0.0329711437, -0.0438351855, 0.0934437066, -0.0696418360, -0.0717048869, 0.0976809412, -0.0092820227, 0.0550748706, 0.0364702940, -0.1525099874, -0.1263182312, -0.0088944882, 0.0773340166, -0.0065401793, 0.0555274785, -0.0454446152, 0.1283092648, -0.0175734609, -0.1120040715, -0.1161906272, -0.1363124698, 0.0409621596, -0.1305759251, -0.0105240941, -0.0436034128, -0.0111378580, 0.0337314308, 0.1407259256, 0.0415549874, 0.1138474196, -0.0527394041, -0.0378729478, 0.1322860271, -0.0499509946, -0.0296876580, -0.0729717016, -0.0783183873, -0.0216596127, -0.0709445029, 0.0850533992, 0.0952694565, -0.0331348702, 0.0188832879, -0.1189707145, -0.0331834853, -0.1502313614, 0.1310867220, 0.0041294247, 0.0697044730, 0.1119312495, -0.0359808132, 0.0440074503, 0.0830779225, 0.0620193779, -0.0702868626, -0.0433485061, -0.1290924996, -0.0049450099, -0.0653572679, -0.0019615740, 0.0810594112, 0.0631253421, 0.0880888551, 0.0841679126, -0.0205923319, -0.1371890604, 0.1295276433, 0.1520623118, -0.0247415751, -0.0382701159, -0.0673387274, 0.0001153648, -0.0048837364, -0.0923536420, 0.0488130301, -0.1100162715, -0.0177311003, -0.0056225955, 0.1076566130, -0.1276277900, 0.0377713144, -0.1176628321, -0.1150586903, 0.1490858346, -0.0414371938, -0.0742198154, 0.1013424546, -0.0646623597, 0.0127253830, -0.1500256658, 0.0581731498, 0.0409207344, 0.0431202352, -0.1511881948, -0.0096059591, 0.0806736201, -0.0530042797, -0.0951852575, -0.0704469979, 0.0677316040, 0.1115675420, -0.0491479635, 0.0571833998, 0.0373240709, 0.0927627832, -0.0985168740, -0.0543413013, -0.0697448850, 0.0225896090, -0.0162986666, -0.0397775024, 0.0024627596, 0.0345450640, 0.1490925997, -0.0986067951, 0.0564183146, -0.0693304390, -0.0622731373, -0.0099136233, 0.0907907337, 0.0753289163, 0.1142915636, 0.0944564790, 0.0932419747, -0.0179751068, -0.0152065158, 0.1279190332, 0.1453922540, -0.0707552209, -0.0284286141, -0.0789585635, 0.1439811140, 0.0358053446, -0.1211736798, -0.0746784732, -0.0293102264, -0.1524906307, 0.1232949346, -0.0270578265, -0.0763469711, 0.0638367534, -0.0273316801, -0.0153134465, -0.1046576500, 0.0509329438, 0.0727650672, 0.0987503976, 0.0217162520, -0.0885785893, -0.1294047087, -0.1144971699, -0.1535062641, -0.0158526599, -0.0053631365, -0.0755515024, 0.0661639571, -0.1226302534, -0.0723534971, 0.0577841103, -0.0243477225, 0.0398433656, -0.0896949619, -0.0184884965, 0.0773776323, 0.1546518058, 0.0112964660, 0.0876144469, 0.0304905474, 0.0301346779, -0.0668470487, -0.0553122014, 0.0114597380, 0.1196540147, 0.0165599585, -0.1519697756, -0.0948529318, 0.0837646276, 0.1175091714, 0.0697600693, 0.0560113639, -0.1372658014, 0.1550608724, 0.0995881110, 0.0033959448, -0.1251023412, -0.1543149650, 0.0672403425, 0.1067702621, 0.1014062613, -0.0859599784, 0.0839332342, 0.0650904924, -0.0401335210, 0.0857288390, -0.1279224306, 0.0591827333, 0.0820957124, -0.1166357398, -0.0971466452, 0.0388571322, -0.0889429674, 0.1409956068, 0.0722629875, -0.1208417267, 0.0761335194, -0.1503417194, -0.0836016461, -0.0167697817, -0.1513861567, -0.0952053666, -0.1220902577, -0.0409703627, -0.0805959776, -0.0298934281, 0.0319925249, 0.0224548429, 0.0445450246, -0.1030161679, 0.0679728240, -0.1149099767, -0.0998147279, 0.1247340292, -0.1175838411, -0.0421382636, -0.0609782711, -0.1098155379, 0.1465430111, 0.0277921706, 0.1077687591, 0.0992554277, -0.0948890448, -0.0459138006, 0.1158609241, 0.0719420016, 0.0948167294, -0.0638243631, -0.1349390000, 0.1072946936, 0.0886500031, 0.0131074488, 0.0946033150, 0.1293841153, 0.0873367488, 0.0903248340, -0.1025814936, -0.0476466939, -0.0555901304, 0.1033710390, 0.0321893096, 0.0577717572, -0.0013695210, -0.0934954956, -0.1281632036, 0.0907357037, -0.0554658845, 0.1466654986, 0.0556032658, -0.0785366148, -0.0417579189, -0.0287221074, -0.0926253721, 0.0271203965, 0.0873567015, -0.0260796845, 0.0579261035, 0.1240091175, -0.0816516802, 0.0365282297, -0.1309813112, 0.0027496070, -0.1332465857, -0.0048566461, 0.1290981919, 0.0347617567, 0.0218038559, -0.1000490785, -0.1424177587, 0.0000300407, -0.0805911645, 0.1392709464, 0.0434490591, 0.0583989769, 0.0729507655, -0.1415838748, 0.0264490694, -0.0932363719, -0.0246962905, 0.0978182703, 0.0003883243, 0.0195757300, 0.1059743613, 0.1034930199, 0.1156082898, 0.0443672687, 0.1279758960, 0.1398186833, -0.0746138170, 0.0402160138, 0.0041791946, 0.0560899377, -0.0768005550, 0.0945927054, 0.1257440597, 0.1342966706, -0.0494652092, 0.1305830926, 0.0079832524, 0.1032477766, 0.0308964550, -0.0404105932, 0.0642360151, -0.1331396997, -0.0341240093, -0.0065028667, -0.1153724045, -0.1337379366, -0.1450501084, 0.1437803954, -0.1064373627, -0.0279920101, -0.0628154799, 0.0899995714, 0.0407907814, -0.0948982239, -0.0325098410, 0.1558184177, -0.0288506448, -0.0896241814, 0.0957240611, -0.0379609242, -0.1313141137, 0.1230097860, 0.1464720517, -0.0845755339, -0.1010284424, -0.0923203602, -0.0983918458, 0.0956603438, 0.1367752701, 0.0365971029, 0.0125052631, 0.1156293005, 0.0763862878, 0.0318792611, 0.1082798690, -0.0621887371, 0.0799583048, 0.0243701190, 0.1332899481, -0.0708527863, -0.1350291073, 0.0772912949, 0.0469771922, -0.1245478690, 0.0150211900, 0.0814682692, 0.0388559401, -0.0770665407, -0.1051928997, 0.0124542117, 0.0765390396, 0.0930992961, 0.1374578029, -0.0802291781, 0.0843192786, -0.0021685362, 0.0282164365, -0.1334062815, -0.1413077414, 0.1033401638, -0.0370037183, 0.1171561927, 0.0598393679, -0.0902985707, -0.0713869259, 0.0322581381, -0.0355510339, -0.0192831755, 0.1099937111, -0.1121893525, -0.0029682815, -0.1402693391, 0.1461594254, -0.1278349757, -0.0479571894, 0.0586373210, 0.0757062733, -0.0493014157, -0.0339891687, -0.0343315303, 0.0257469863, 0.0059700757, -0.0264482796, -0.0870125890, 0.1025581807, 0.1174239367, 0.1422108263, 0.0570824742, -0.1357781589, 0.0843393505, 0.0740576237, 0.0850672424, 0.0195705891, -0.0969594121, 0.0478234291, 0.0568182766, -0.0782796964, 0.0262139738, -0.0787959248, -0.0747628361, -0.1094842628, 0.1387800127, -0.0781372786, -0.0683270469, -0.1309836954, 0.1083716899, 0.0790027380, -0.0456515029, -0.0943865106, -0.1321682781, -0.0609377846, 0.0217239708, -0.0696198195, -0.0927890912, 0.0668186545, -0.1060258299, 0.0516269952, -0.0089510828, 0.0447849631, -0.0565724447, -0.0875297487, -0.0151634961, 0.0801614225, -0.0201410651, -0.0834670290, 0.0328221619, -0.1232298315, 0.1011704057, 0.1369270235, -0.1124985889, -0.0335396901, -0.0074791461, -0.0601368770, -0.1205376536, -0.0882457793, -0.1513803750, 0.1156018525, -0.0204314590, 0.0218669772, -0.0541824698, -0.0583980158, 0.0044003427, -0.1518707573, -0.1186904758, -0.0596454218, 0.0492219031, 0.0575288981, -0.0322554559, 0.1066298932, 0.1482944041, 0.0593257844, 0.1440546960, 0.0942981988, -0.1132991612, -0.0880096778, -0.0617088452, 0.0096827149, -0.1031861156, 0.1041435748, -0.0177159458, 0.0120632350, 0.0212561637, -0.0104246736, -0.0145266354, 0.0571527779, 0.0091222674, -0.0513395518, -0.1267368197, 0.0352640748, 0.0651915371, -0.1335126162, -0.0533584654, -0.0596816838, -0.0778768882, 0.0372783244, -0.0075886548, 0.1367977411, -0.0384130925, 0.1414104849, -0.0598715991, -0.1417312473, -0.1462816596, -0.1425440609, -0.0581129640, 0.0439106673, 0.0785026997, -0.0158411264, -0.0870176628, -0.0151222199, -0.0649071187, -0.1154962331, -0.1455580145, 0.0373959690, -0.0277354270, 0.0164504498, 0.1119772345, 0.1514517516, -0.1044535935, 0.0872108489, -0.0414817408, -0.1167193502, 0.0115836859, 0.0621628761, 0.0560874045, -0.1429920942, 0.0624866933, -0.1357151717, -0.0103139281, -0.0556878075, 0.1543294042, 0.1014513522, 0.0347727239, -0.0252955705, -0.0967059284, -0.1235560477, -0.0610358790, -0.1345763355, -0.1040325016, -0.1215771288, 0.1440251917, 0.1033341736, -0.0034075379, -0.1290676147, 0.1525599509, 0.0737306029, -0.0201561004, -0.0287481099, -0.0948118567, 0.0088419169, -0.0411089361, -0.0290802866, 0.1206127256, -0.1040325761, -0.1238219142, -0.0628060028, 0.1041798741, -0.0003172457, -0.0543935373, 0.0643690526, -0.0313259363, -0.1235603690, -0.1062911004, -0.0981352627, 0.1418393999, 0.0725779533, -0.1196945757, 0.0252252072, -0.0700959042, 0.0410300940, 0.0717392862, 0.0119564980, 0.0869277418, 0.1335860044, 0.0629314035, 0.0027126670, 0.0427433997, -0.0881126523, -0.1055380255, -0.1508473605, 0.0276647955, 0.1278439313, -0.0508015305, 0.1115996689, -0.0453131720, -0.0445957258, -0.1264844835, -0.0204432458, -0.0345713273, 0.0982371122, -0.0910657197, 0.0218918324, 0.0189023167, -0.0359273106, 0.0009543002, -0.0510731861, 0.1321327835, 0.0462463051, 0.0237175077, -0.0708884597, -0.0047350228, 0.0173212439, 0.0418620855, -0.0148156881, -0.1341814101, 0.0964193195, 0.0071983784, 0.0724593848, -0.0314704031, -0.0808533058, 0.0556350499, 0.0358628035, -0.0520227104, 0.1311647743, 0.0752779096, -0.0543880165, -0.0253915340, -0.1214532554, 0.1542853862, 0.1419173628, 0.0476378798, 0.0679014772, -0.1181842089, 0.1095310599, 0.1006396264, -0.0714538619, -0.1301996112, -0.1215047836, -0.0710496753, 0.1332354397, -0.1070020944, -0.1151743233, 0.1547052115, -0.0844540820, 0.0451640785, -0.0004504472, -0.0993777066, -0.0505282655, 0.0823755115, -0.1021184698, 0.0216302425, 0.1395588368, -0.1024113968, 0.1394368261, -0.0389030203, -0.1397325993, -0.0006704032, 0.0632823557, -0.1464975327, 0.0367274731, 0.1449189931, 0.0710151345, -0.0187946409, -0.0719036832, 0.1521184891, 0.1335431188, 0.1497251540, -0.0394292474, -0.1239947081, -0.1066194400, -0.1379387677, -0.1119892225, 0.0110960752, -0.1454670876, -0.1415529400, -0.0053168088, -0.1072526723, 0.0587816834, -0.0055495799, -0.1221545041, -0.1429568678, -0.0805484429, 0.1079082936, 0.1435073167, 0.0223025829, 0.0350114405, 0.1013389081, 0.0005717874, 0.0597433597, -0.0978572220, -0.0243133605, -0.0064428002, 0.1509207934, -0.0439114496, 0.0726042241, 0.0169017166, -0.0213098973, 0.0515733063, 0.0823215544, -0.1314271688, 0.1559731215, 0.0771611631, -0.0190105587, -0.1305095553, -0.0879136026, 0.1452058405, 0.0996337980, 0.0145260692, 0.0550236702, 0.1562402099, 0.0678679049, 0.1261675209, -0.1236411482, 0.0898659974, 0.0757481307, 0.0957252234, -0.0637576133, 0.1468194872, -0.0603743941, -0.1415518969, -0.0899806097, 0.0969777256, 0.0815272927, -0.0929412469, -0.1475445777, 0.0962801427, -0.0232101679, 0.0082372576, 0.0528429449, 0.0620878190, -0.1077258438, 0.1014828235, 0.0317791849, 0.1235589236, -0.1114600450, -0.0895476192, 0.0558515191, -0.1260675788, 0.0295361131, 0.0516322553, -0.0436339676, 0.0114676803, -0.0394735336, -0.1485456675, -0.0354524553, -0.0537419096, 0.0938663036, -0.0498951077, 0.0858354717, -0.1460899562, 0.0868800282, 0.1056258827, 0.0967860669, -0.0906177238, -0.0872576088, 0.0302485228, 0.1263903230, 0.0367373973, -0.1294069886, 0.0422914177, -0.0340461433, -0.1177261770, 0.1244705766, 0.0769609213, 0.0664501339, 0.0280470103, -0.0627133995, -0.0638292879, 0.1257819682, 0.1532550603, -0.0513536930, -0.0885494128, -0.0088139325, 0.0578585714, -0.0717711151, -0.0829849765, -0.0323508978, -0.1025303751, 0.1162729412, -0.0158736259, -0.0690518394, -0.1495614052, 0.1200123578, -0.1507984400, 0.0520892739, -0.1231656671, -0.1205487326, -0.0980587006, -0.1479706317, -0.1394443661, -0.0070948750, -0.1111019030, -0.0224339962, -0.0773535743, -0.1425334215, -0.0369539484, -0.0613186508, 0.1234985739, 0.0423548818, -0.0272624046, 0.0393588394, -0.0880606025, 