//Numpy array shape [49, 2]
//Min -0.333422392607
//Max 0.330253213644
//Number of zeros 0

#ifndef W4_H_
#define W4_H_

#ifndef __SYNTHESIS__
model_default_t w4[98];
#else
model_default_t w4[98] = {-0.2918100655, -0.2861261666, 0.1757067144, 0.3045860827, -0.0515881479, 0.0290895998, -0.3172653317, -0.2011714131, 0.1606803238, -0.3025714159, -0.2595603466, -0.1715846956, 0.1645622551, -0.0548845530, -0.1537405699, -0.2857574224, 0.0170772374, 0.0957642496, -0.0640637875, 0.2395597994, -0.3268012404, 0.2907738388, 0.2076408565, 0.3105808794, 0.0048466027, -0.1490175426, 0.1908796132, 0.3146748245, 0.2787496150, -0.2028330415, -0.0174646080, -0.2014264762, 0.2370837629, 0.2512913048, 0.1681539714, -0.0635040104, -0.0355705917, -0.2863808870, -0.1783527881, 0.2902729213, -0.0549523532, -0.1818317473, -0.3334223926, -0.1716581285, -0.1923456341, -0.2020820826, -0.1368221492, -0.3045697212, 0.1963952482, 0.3047594130, -0.0524346828, -0.1716621369, 0.0648511946, -0.1009963453, -0.0432459116, -0.1765367687, -0.1883408576, -0.1503241658, 0.0673866272, -0.1457665861, -0.1138192117, -0.0459387302, -0.2747752666, -0.2688354850, 0.3232028782, 0.3044538200, 0.2932195961, 0.2226370275, 0.2242137492, -0.2613976598, -0.1011573672, 0.2048909366, -0.2273482680, -0.0077680647, -0.1675379574, -0.0197912455, 0.0062054694, -0.2613882422, -0.1033691913, -0.2371480167, 0.2748923004, 0.2160227597, 0.2052035034, 0.0456131101, -0.1228145063, -0.2727261186, -0.2348033786, -0.0163515210, 0.2406457961, -0.0970000774, 0.1357339323, 0.3302532136, 0.2721970975, -0.2565277517, -0.1640578657, -0.0745083094, -0.2209861130, 0.2611722648};
#endif

#endif
