//Numpy array shape [2, 49]
//Min -0.342041283846
//Max 0.341544300318
//Number of zeros 0

#ifndef W6_H_
#define W6_H_

#ifndef __SYNTHESIS__
model_default_t w6[98];
#else
model_default_t w6[98] = {0.2744486034, 0.3054886162, 0.2188441455, 0.2521175444, 0.0397937000, 0.2160689533, -0.1149147749, -0.3080673814, -0.1969916224, -0.2190499604, 0.0237576663, -0.1336653978, -0.1875955462, -0.3072998226, -0.0439143479, 0.1220311522, 0.0084683299, -0.1148270220, 0.1535393000, -0.0118326247, 0.2459917963, 0.2225497663, -0.1898693591, 0.1466167271, -0.2381765246, -0.1428761780, -0.1687254459, 0.2212104499, -0.0040445924, -0.1861023754, -0.1573079973, -0.1446520388, -0.3054871559, -0.2292456627, 0.2491131127, -0.1377889216, -0.3178579509, -0.2326807827, 0.2768503129, -0.1743763089, 0.2460602224, -0.2227047384, 0.1840575635, -0.1081907451, 0.2298950255, -0.1737248003, 0.1690368354, -0.1742112041, 0.2451736033, -0.1370566934, 0.0513441265, -0.0764547884, -0.1541828960, 0.1087616384, -0.2748710513, -0.1949016601, -0.2070077509, 0.0922624171, 0.0841149092, 0.2108511031, 0.2213518918, 0.0070983171, 0.3415443003, -0.0886182785, 0.1456303298, -0.1251069605, 0.0172610581, 0.2325518429, -0.1871528924, -0.1059678048, 0.1949345171, 0.0278864801, -0.0388951302, 0.3011812866, -0.0587268472, -0.2751641273, 0.0614053607, 0.3136773407, 0.1437955201, -0.2245336771, -0.3071739674, -0.2320560068, -0.3059964776, -0.1998319030, 0.3168729842, -0.2540406585, -0.3335334361, -0.3420412838, -0.2178074419, 0.0563125610, -0.0364617705, 0.1487901211, -0.1309334785, -0.0107593834, 0.2320761979, 0.0731325746, 0.3165614903, 0.2027342618};
#endif

#endif
