//Numpy array shape [100]
//Min -0.458873748779
//Max 0.230062097311
//Number of zeros 0

#ifndef B12_H_
#define B12_H_

#ifndef __SYNTHESIS__
model_default_t b12[100];
#else
model_default_t b12[100] = {-0.0567548163, -0.0610591695, -0.0702850446, -0.0983456075, -0.0372061767, -0.0158932302, -0.0547205359, -0.1833774447, -0.0664868653, -0.0910353363, -0.0592874698, -0.0449301936, -0.0039532958, 0.0922450945, 0.0737790018, -0.0770315453, -0.1017271355, -0.2639139593, -0.1181180477, -0.0886333138, -0.0686712340, -0.0197507143, 0.0791989118, -0.0370630175, -0.3663576841, -0.2157620639, -0.3045654893, -0.1034729555, -0.1435328871, -0.0691219568, -0.0473239534, 0.0241367500, 0.0233993083, -0.0818073601, -0.1604254693, -0.2150780708, -0.1014653370, -0.2391168177, -0.2187270969, -0.0934424624, -0.0527824797, -0.1484798491, 0.0364238434, 0.1033447087, 0.1434794217, -0.2013773620, -0.1426479220, -0.1470131874, -0.1234142035, -0.1181642935, -0.0744441152, -0.2236709595, -0.0617860220, -0.1123187616, -0.1360520422, 0.0264151655, 0.1081167459, -0.0902342647, -0.0380159952, -0.0894284174, -0.0938561186, -0.2238893658, -0.2531045973, -0.2699081600, -0.3333117664, -0.0021107933, 0.1818925291, 0.0126345353, -0.0126473503, -0.0865248144, -0.0816846043, -0.0875674263, -0.1740312129, -0.1489356905, -0.0968509838, -0.4588737488, 0.0512598939, 0.0737354159, -0.0071356315, -0.1052434966, -0.0535569973, -0.0349992365, 0.0690136924, -0.0726380497, -0.2506716251, -0.4048427641, 0.0709733143, 0.1568903625, -0.0280188788, -0.0573252290, -0.0653421134, -0.0456002578, 0.0099391723, 0.0125041204, 0.0597910173, -0.0407600254, 0.2300620973, 0.0873639435, -0.0517940633, -0.0652521849};
#endif

#endif
