//Numpy array shape [32, 100]
//Min -1.582215309143
//Max 1.237321376801
//Number of zeros 0

#ifndef W12_H_
#define W12_H_

#ifndef __SYNTHESIS__
model_default_t w12[3200];
#else
model_default_t w12[3200] = {-0.3520269692, -0.5831442475, -0.3948614299, -0.3916769624, -0.2425665706, -0.1614218503, -0.1519524157, -0.1615940481, -0.0593328252, -0.2073458284, -0.3342103660, -0.0831638724, 0.2409866452, 0.0900321156, 0.0528653972, 0.2385624349, 0.5711041093, 0.5732272267, 0.5939348936, 0.5119853616, -0.2575024962, 0.1458532065, 0.2184271812, 0.2043097317, 0.0477559119, 0.3014021516, 0.7246333957, 0.7016344070, 0.8496145606, 0.5545011759, -0.2869958282, 0.2006137520, 0.0775796250, -0.1168337315, -0.1271300763, 0.0696037263, 0.2958963215, 0.2433617562, 0.5569565892, 0.3513869345, -0.0970767736, 0.2246500403, -0.0517085567, -0.4119325280, -0.1815567911, -0.5524179339, -0.3597629368, -0.4493366182, -0.0361857228, 0.2263801396, 0.2408915758, 0.2226228863, -0.1954449415, -0.5556875467, -0.8754943609, -1.1950515509, -0.7766107917, -0.5165923834, -0.3799581826, 0.0723726526, 0.4204712212, 0.3279786408, -0.3276813030, -0.6745951176, -1.4903159142, -0.8235595822, -0.1241853163, -0.2298419178, -0.2957431972, 0.1128659099, 0.4882950187, 0.5377040505, -0.1572893858, -0.5563796759, -0.8041359782, -0.1738982052, -0.1103695631, -0.1738235652, 0.1012658551, -0.0154982256, 0.5213606954, 0.6609688401, 0.9042470455, 0.2843427062, -0.1318908632, -0.0863674432, 0.1142857596, 0.3331113160, 0.3529993892, -0.6965603828, -0.1319357157, 0.3724668920, 0.6448698640, 0.5935245156, 0.5806577802, 0.3383446038, 0.5071525574, 0.4692085981, -0.2589643598, -0.2645110786, 0.1047060043, -0.0885781795, -0.1980240196, -0.2140210718, 0.0104239807, -0.1198710054, -0.1144649312, -0.0828326717, -0.1440525055, -0.0009734483, -0.0554317571, -0.1872136891, -0.1370691657, -0.0685282201, -0.0339481495, -0.1957212687, -0.0041320608, -0.1822803617, 0.1089765057, -0.0851210728, -0.2401357889, 0.0282665547, 0.0982063115, 0.0064856480, -0.1413975358, 0.0182629917, -0.0000344021, 0.0533381887, 0.0482607335, -0.1457313150, -0.1326804906, -0.1667277366, 0.1498847455, -0.0960196555, -0.0360391922, 0.1487619579, -0.1234695017, -0.0625284985, -0.1562129855, -0.1993561387, -0.1626561880, -0.1903778464, -0.2031469196, 0.1109434888, -0.1187411398, -0.1120083928, -0.1158334389, 0.0971670970, -0.1098059341, -0.2706685066, -0.1100944057, -0.0164013896, -0.0887416080, 0.2209690958, 0.0606531799, 0.0038882017, -0.0826021209, -0.0436107256, -0.1711073816, 0.0868484080, -0.0161202829, -0.1604850143, 0.0565714799, -0.1051880121, 0.0176779479, -0.0649090037, -0.0382440872, -0.1737306714, -0.0597281717, -0.3361177742, -0.2466826588, -0.3878812194, -0.2698957920, -0.0543822832, 0.0436854586, -0.0852495506, -0.2448545992, -0.0058440249, -0.1815988272, 0.0745406523, -0.0364790857, -0.0841860995, -0.2168079168, -0.0645633936, -0.2093179226, -0.2534481585, -0.2074025571, -0.0991568044, 0.0068711876, -0.0770323053, -0.2836911380, -0.1553426832, 0.0920074359, 0.1560656577, -0.0613701679, 0.0861165300, -0.2207363844, -0.1129058227, -0.1635320038, -0.0468162447, -0.3446540534, -0.2447400838, -0.0818624273, 0.2035071403, 0.2233342826, 0.1814477742, 0.2406471968, 0.3850068748, -0.2533996701, -0.2126366943, -0.2833577394, -0.0486771129, 0.2793954909, 0.3301606774, 0.5171392560, 0.6004399657, 0.2611155510, -0.1619039327, -0.5341686606, -0.4884324670, 0.0043865526, -0.2217284590, -0.0196466930, 0.0118471095, -0.0212895963, 0.0320661664, -0.0646218359, -0.3906188011, -0.6932718158, -0.6810176969, -0.1940515339, -0.1233941987, -0.0802689195, -0.1269687563, -0.2070948929, 0.1237612069, -0.0825732127, -0.4677688479, -0.3184988797, 0.0370460302, -0.2286271304, -0.1336835176, -0.0490813255, -0.3405038118, 0.0347351395, 0.3284162283, -0.0872198790, -0.3966172934, -0.2263902277, 0.0428657047, -0.1685955971, -0.0964198187, -0.0622181669, -0.1854817718, 0.0020103247, -0.0075634951, -0.2972373068, -0.1215552017, 0.0432258248, 0.0156661700, -0.0142714232, 0.0249531623, -0.1452884376, -0.1002838463, -0.0764848590, -0.1613930464, -0.1161275059, 0.3545137942, 0.2202949077, -0.1216266528, -0.2662442029, -0.0718412995, -0.2548416853, -0.2756130993, -0.4244440198, -0.0628716573, 0.1809557229, 0.3565946817, 0.0528621823, 0.0036523172, -0.2548049688, -0.1500207335, -0.1908040345, -0.0965715572, -0.1338874996, 0.4151350558, 0.4453576505, 0.4463920891, 0.1552917510, 0.0554372668, -0.2522969842, -0.4203682840, -0.4585517943, -0.2799436748, 0.0997453406, 0.5982651711, 0.3196412027, 0.2110675275, -0.1085412428, -0.2016304284, -0.6334802508, -0.3585427701, -0.2018737793, -0.4098449945, -0.1003491879, 0.2803833485, 0.0969216153, 0.1373213232, -0.0935719535, -0.4764679670, -0.3511909544, -0.0830726847, -0.0318766348, 0.1304876804, 0.2729082406, 0.1980072707, 0.2258545756, 0.1496708393, -0.0022048289, -0.2375126779, -0.0018672994, -0.2963981330, -0.3264621496, -0.0241915695, -0.0811643228, -0.1500597745, 0.1320967674, -0.0628762394, -0.4668552577, -0.3182946742, -0.2526148856, -1.0259038210, -0.5877937078, 0.3134056330, 0.1243052855, -0.2134120166, 0.1188380718, -0.4309462309, -0.8004089594, -0.9692298770, -0.7176945806, -1.5495496988, -0.0885293111, 0.4544774592, 0.2277765274, 0.2402718216, 0.0822237059, -0.1082173586, -0.6840635538, -1.1949058771, -0.9457741380, -1.3866456747, -0.3031282425, 0.1729249060, 0.2306136787, 0.0534211211, 0.0094074598, -0.1721615791, -0.4625673592, -1.2735394239, -0.8656983376, -0.6165033579, -0.4137275219, 0.0052153422, -0.0147610977, -0.2137942612, -0.0558771081, 0.2414193749, -0.0914217234, -0.8227547407, -0.1092474982, 0.1614622921, -0.0055030100, 0.0133218355, 0.0401439071, -0.3983115852, -0.0404417217, 0.0899376199, -0.0186013859, -0.4898267686, 0.0106788669, 0.3180622756, 0.4583719373, 0.3334977925, 0.1077303886, 0.1674670279, 0.3819411397, 0.3518792093, -0.0608682111, 0.1546107829, -0.2060040534, 0.1107348502, 0.2230530381, 0.2462979108, 0.5492964387, 0.5246083736, 0.3392472863, 0.0418893695, -0.6069833636, -0.4303866923, -0.3347882926, -0.3068723977, 0.1750539392, 0.2049074471, 0.0732318386, -0.1111639738, -0.2931429446, 0.3495156169, -0.7702378035, -0.2684047520, -0.2915943861, 0.1312586814, 0.1455501467, -0.1399929523, 0.1973083913, -0.0932622179, -0.0074823629, 0.0583810173, 0.0191798005, 0.0512331165, 0.0647612438, 0.4133357704, 0.0614770539, 0.0724879056, -0.0219129194, 0.2173595130, 0.0883314684, -0.1169299260, 0.0768673047, -0.0171839520, -0.0167157724, 0.2148450017, -0.0213542022, 0.0862069353, -0.0746371821, 0.1282366216, 0.1133381054, -0.0237280019, 0.2486407310, 0.2800402343, -0.1810257137, 0.3423998356, 0.0661413521, -0.1111649275, 0.0091854269, -0.0549153723, 0.1266078502, 0.0249326881, 0.2011057287, 0.2321277112, 0.0301448759, 0.1579805762, 0.1159323826, -0.0528737418, -0.1828892678, 0.0632422492, 0.0158505123, 0.2165830135, -0.0908371434, 0.1083357036, -0.1278554499, 0.4669404328, 0.0511525087, -0.0571311899, -0.1733897328, 0.3240177035, 0.3269304335, -0.2081647515, -0.1428786814, 0.1315633059, 0.3783341944, 0.2835349739, -0.1354694963, -0.0295809340, 0.1871025115, 0.4177261293, 0.0026422911, -0.4195848703, -0.1151589826, -0.1172842309, 0.5422424674, 0.2118870616, -0.0622961335, 0.1191746667, 0.0458962582, 0.2873597741, -0.2377237231, -0.1317583323, 0.1119297966, -0.0006028808, 0.0764990598, -0.3185161054, -0.4496839345, -0.1861172020, -0.2042897493, 0.2420372069, -0.1707478613, 0.3678505719, 0.1049083099, -0.2128875852, 0.0108210510, -0.1840609610, -0.1530885845, 0.0974332392, -0.1106387302, -0.1871870905, -0.1118330956, -0.0659108311, -0.0808036998, -0.2083329707, -0.1344821751, -0.1672683209, -0.0652590692, 0.0813621059, -0.0176726207, -0.0913086683, -0.0224332549, -0.2000898719, -0.0690427572, -0.1636389345, -0.0544598922, -0.1787807643, -0.0205766447, 0.0693257451, 0.2291496098, -0.0372399502, -0.0150897978, -0.0888889804, -0.0748860165, -0.0864472389, 0.0215363707, -0.0110814301, 0.1763074845, -0.0995503813, -0.0113157416, -0.0822248310, -0.0637946352, -0.0006423334, 0.0159581117, -0.1149855554, -0.0160177387, 0.0426658280, -0.0798690170, 0.1156690642, -0.1406569034, 0.0568055287, -0.1332043558, -0.1091148257, -0.2391295284, -0.1828000098, -0.1383283585, 0.0901209265, 0.1429447979, -0.0134948185, 0.1242093965, 0.0009985021, 0.2002507299, -0.0438627973, -0.0958445594, -0.1208846420, -0.1100800708, -0.2575051785, 0.1119555309, 0.0331808142, -0.0415979475, -0.1494987607, 0.0196962785, 0.1048346013, -0.2073663473, 0.0274256375, -0.2900759876, -0.1161050647, 0.1249243096, 0.1531993151, -0.1140408888, 0.2458962202, 0.1677529067, -0.0134423058, -0.2837936282, -0.0198899675, -0.3204672933, -0.3211615384, 0.0283395257, -0.1002748981, 0.0827381983, 0.2501341403, -0.0339940451, 0.0078459205, 0.0173663925, 0.0905745402, -0.0693899840, -0.1580081731, -0.2695763707, -0.2661762536, -0.0819237530, 0.1358458102, -0.1554103792, -0.1459890604, 0.0517797843, 0.0704697594, -0.2358395457, -0.0926047415, -0.3985606432, -0.4094079733, -0.5579778552, -0.1883409172, 0.1552666128, -0.2591943741, -0.1028252244, 0.0206328649, 0.0581310652, 0.0992454067, -0.1508684754, -0.0355851837, 0.0683282167, 0.0829103515, 0.2306620181, 0.3782380521, 0.3647140265, 0.4160230458, -0.2484175861, -0.1253035069, 0.0464738682, 0.0536869168, 0.2809683681, -0.1012362391, -0.0379201807, 0.2429703921, 0.4110268950, 0.4634422958, -0.1546660662, -0.0672674552, 0.0580391213, 0.1116392836, 0.1248847321, 0.0295072719, -0.0135032004, 0.1705089211, -0.0659781694, 0.3787401319, -0.3012365103, -0.0241576582, 0.0011869828, 0.1818356663, 0.0515495390, 0.0965494215, 0.0452182293, 0.0059630964, -0.2555185854, -0.6042731404, -0.3258083761, 0.0364616252, -0.0847518295, -0.0182275791, 0.1061193645, -0.0005559427, -0.0670723021, 0.0325288400, -0.1346539110, -0.7212330699, -0.2044523060, -0.0417359658, -0.0041879346, -0.2282185256, -0.1232199445, -0.0837296024, 0.1878294349, 0.2305978090, -0.1418212652, -0.6417196989, 0.0121882539, -0.0093150316, -0.1056136489, -0.3860952258, -0.5010374784, -0.4287810326, 0.1188364252, 0.1664789766, -0.1919925064, -0.4139956832, 0.3433956802, 0.4737946987, 0.1357567906, -0.2508653104, -0.1359930634, -0.0371463522, 0.2536305487, 0.4085942507, -0.0426013544, -0.3808433414, 0.1098407134, 0.5140931606, 0.2539420426, 0.2300905138, 0.2206346840, 0.2756448090, 0.4711568356, 0.2424816787, 0.0705691576, -0.0330546759, -0.3679734468, -0.0723444372, 0.2258861512, 0.2903756201, 0.2403434366, 0.0581626594, 0.2256440818, 0.0360765383, 0.0184970722, -0.2369768322, -0.1107576638, 0.1875731945, 0.1029737592, 0.1592506617, -0.3876540661, -0.1570182592, 0.2813565731, 0.1894031316, 0.2897321284, 0.0512027442, -0.1041637212, 0.0009563881, 0.1013564840, 0.0861466527, -0.1507174522, -0.0697551295, 0.3282098174, 0.2387262881, -0.0089929141, -0.0174282659, -0.0906999707, 0.1271765381, -0.0332953446, 0.0180536751, -0.1698169410, -0.1703086346, 0.1076502353, 0.2166463733, 0.1618496776, 0.2545660734, -0.1801335961, 0.2312069684, 0.0217824727, 0.0598455183, -0.0779277980, 0.0654928610, 0.1091468707, 0.2052304745, 0.0607283823, 0.2346023768, 0.2067902088, 0.1723221838, 0.1392315179, 0.0208066143, 0.0098124025, -0.1263867021, 0.1742038876, -0.0408958532, 0.3233065605, 0.3248386383, -0.0853155702, 0.3026101887, 0.2911679447, 0.1846460402, 0.0706458241, -0.1637383103, -0.0859969035, 0.1571850479, 0.3489798605, 0.3901700675, 0.0010500679, -0.0513461083, 0.0929712728, 0.1336715221, 0.2335548848, -0.2508301735, 0.0694239289, 0.3110773563, 0.2855923176, 0.1179986969, -0.0734876618, 0.0306885913, 0.0536229610, 0.2947138846, 0.3778919280, -0.4378235638, 0.1309619844, 0.1241311133, 0.2953896523, 0.0400214158, -0.1249411628, 0.2483225465, 0.2873296738, 0.3821930885, 0.4243868291, -0.3360449076, -0.0619181842, 0.2453908026, 0.3878571391, -0.1308827549, -0.1331322938, -0.0229358431, 0.0015608612, -0.2568084896, -0.0262487158, -0.2420646548, -0.2949228287, -0.2454386503, -0.0109800426, -0.1994482726, 0.0588826314, 0.0057707336, -0.0447529331, -0.0001855448, 0.1863414049, 0.2025498450, -0.3906682730, 0.0275665876, 0.1038411632, -0.2421318740, -0.1269554496, 0.0528768003, 0.0961660966, 0.1120138466, -0.1681188345, -0.0363407172, 0.0009600786, -0.1729321480, 0.0497838445, 0.2124230266, -0.0612995662, 0.0715480000, -0.0798281133, -0.0269851536, -0.0070454618, -0.0366707630, -0.1264786869, 0.0241026189, 0.1662397236, -0.0784726515, 0.0826221332, 0.0673993900, -0.0076279528, -0.0603109077, -0.0722453147, -0.0877242014, -0.1073390394, -0.0727516562, 0.1917497814, 0.0004925391, -0.0979360491, 0.0143238120, -0.1036680862, 0.1822531372, 0.0516353138, 0.1576411277, 0.0877346545, -0.0254202615, -0.0027011188, -0.1280429661, 0.0295770504, -0.0723726898, -0.1860450655, 0.1725709289, 0.1209246963, 0.1430725902, 0.1999754012, 0.2396728694, -0.2249000967, -0.0146356933, 0.0680695102, 0.0451669432, -0.0503791384, -0.0969671011, 0.0184597690, 0.2123592943, 0.2601165771, -0.1164624095, 0.0115183964, 0.1016052440, 0.1062408537, 0.0884796605, -0.0664405301, -0.0898554698, -0.1116159186, -0.0374831893, 0.0993520319, 0.0191105381, -0.0105506144, -0.0695967749, -0.2701287866, -0.2284441888, -0.0275828224, -0.3706849217, -0.0109519837, 0.0384969413, 0.0412445664, -0.0877066627, 0.1577246934, -0.1089578643, -0.3425901532, -0.2172225863, 0.1135143563, -0.0314693227, -0.2352765054, -0.3339826763, -0.3365418315, 0.0978897065, 0.0835246518, -0.0168812349, -0.1658499986, -0.1852414310, 0.1073791310, 0.1421489269, -0.1204463243, -0.0746039674, -0.0109667061, 0.0698807463, -0.0232172478, -0.2831984758, -0.1615131497, -0.0837889910, 0.1880132705, -0.2454417944, -0.2156835198, -0.0333885364, -0.0158479493, -0.0336944982, -0.0828875601, -0.2123993188, -0.0601269566, -0.0018471254, -0.0727246851, -0.1108158156, -0.2309281826, -0.1380110532, 0.0192156453, -0.0882216096, -0.0279225055, 0.1204925403, -0.0879305303, 0.1214387342, -0.0594631173, -0.3883766532, -0.2774918079, 0.1112004966, -0.0544387139, 0.0911014378, 0.1221825629, 0.0126487734, -0.0535620451, 0.3677669764, -0.0138100237, -0.0434868298, 0.2142206430, -0.0932298601, -0.0959790275, -0.0959334522, -0.1913147569, 0.1848222613, -0.0410394631, 0.4471188188, -0.0366517417, 0.2843131721, 0.1469359249, 0.1345568895, -0.0784202963, -0.4906244874, -0.1387882680, -0.0170842484, 0.3050631583, 0.3125210404, 0.0363941416, 0.0926352367, 0.1638940722, -0.0738158524, -0.2326861918, -0.2013479620, 0.0608271956, -0.1651590914, -0.2397702485, -0.1411133707, -0.2465493977, 0.0069388384, -0.0026965591, -0.2052006871, -0.2548944950, -0.0785205886, -0.0526064634, -0.0703375712, -0.2056858689, -0.0080423001, -0.2381406426, -0.3097711504, -0.0901479274, -0.0333233140, -0.0820834339, -0.2378897071, -0.0672667176, -0.1945715547, -0.1902189255, -0.1291962415, 0.0952121541, 0.0632148609, -0.2809305489, -0.3187158108, -0.4008075595, -0.1639701724, -0.2855224907, -0.1361440718, -0.0702876523, -0.0190487336, 0.0691986457, -0.0846371129, 0.1193184629, 0.1294586957, 0.0414267071, -0.1675074548, 0.0686045736, 0.1192396358, -0.0033889720, -0.0964239016, -0.0566055663, -0.0723285601, 0.1327900290, 0.0799275264, 0.1298124790, 0.1386427283, 0.0122271562, -0.1102977693, -0.2656303346, 0.1368462145, -0.1035702154, -0.2457014471, 0.1644089371, -0.0531153269, -0.1609362513, 0.1407386959, 0.2135470808, -0.1694358587, -0.2949033082, 0.2702493668, 0.0993635654, -0.1568078250, -0.1328864694, 0.1007823497, -0.2436184883, 0.2121539265, -0.1172557026, -0.0876482055, -0.0087146331, 0.0379214361, 0.0942609012, -0.1678116769, -0.0543719120, -0.1376002431, 0.0042354898, 0.2476631403, -0.2805736065, 0.0109830098, -0.0958013609, 0.1691214591, 0.1291912198, 0.0776517689, 0.1856710911, 0.2364779860, 0.2153177857, -0.0794950575, -0.2995814383, 0.0317256004, -0.0032870090, -0.1099728197, 0.0784079283, 0.0784390792, -0.0465127043, 0.0501861833, -0.2928714752, -0.2367539853, -0.2448203117, -0.0066266260, -0.0233688802, -0.3041633070, -0.2399424165, -0.0909103826, 0.0905238613, -0.0487155207, -0.2708012462, -0.0512595773, 0.0165375639, -0.2465796322, 0.0437391102, -0.1606821269, -0.0636653900, 0.0373942591, 0.0744821429, -0.2353488207, -0.1163484082, -0.0560385957, -0.1054474860, 0.0201134682, 0.0227288119, 0.0291702580, -0.2663290501, -0.0278109424, -0.0220422968, 0.0771568418, -0.0680921748, -0.1609421223, -0.0289487019, -0.0216096174, -0.0316676162, -0.1596679986, -0.2181671113, 0.0543068312, -0.1220695004, -0.1310262978, -0.0963625237, -0.1700176895, -0.0562506542, -0.1008451879, -0.1151170954, -0.0925611928, -0.0244885106, -0.0247009862, -0.1041646451, 0.0840843022, 0.0059022987, 0.0924338996, -0.0080191456, 0.0596186444, -0.2618258893, -0.2533045113, -0.1127242222, -0.0448473431, 0.2513517737, -0.0368999541, 0.1496890336, -0.0281383563, 0.0736464337, 0.0337383673, -0.2209132016, -0.1695670187, -0.0633073300, 0.0769330636, -0.0940783545, 0.1007177234, 0.0690870136, 0.1098170355, 0.0209954455, 0.0992195234, -0.1831569970, -0.0665307045, 0.0998753682, 0.0476551093, -0.1307053864, -0.0337688252, -0.1206399426, 0.0922681987, -0.0423461832, 0.1428229958, -0.1961055547, 0.0420931913, 0.0815395787, -0.0960712954, 0.0674273670, 0.1066703126, -0.1728504896, -0.1000528857, 0.1497921497, -0.2327812463, -0.1592117548, -0.0354775228, 0.1057363451, 0.1945756078, -0.0228341687, -0.0751432478, -0.0939142928, -0.0644162893, 0.1707627773, -0.0757521987, -0.1684269607, -0.1572887897, -0.0924243107, -0.1561268568, -0.0240608975, 0.0846615285, -0.1822401434, -0.1470333338, -0.1735635102, -0.0620459244, -0.0840584859, -0.1311424226, -0.1571705341, -0.4212328494, -0.3427269459, -0.2048126012, -0.1199820861, 0.1126479879, -0.1122581288, -0.0144769112, -0.3010306656, -0.0830958337, 0.1692223102, -0.1578500420, -0.1269991249, 0.0009241993, -0.1361606270, -0.1024742797, 0.0360065438, -0.2813012302, -0.0413612053, 0.1729165018, -0.0383806936, -0.2099444568, -0.0752937943, -0.5151047707, -0.3836289346, 0.2817960978, 0.0455925018, 0.1553813070, 0.1459447443, 0.2231169045, -0.0717798471, -0.0609423928, 0.0816818476, -0.1795080155, -0.0154367648, 0.2398715764, 0.0533154458, -0.0096318638, 0.0150460359, -0.0204134323, 0.2164304703, 0.0984535292, 0.0032097897, 0.0608570650, 0.3609889746, 0.0239274818, -0.0817115530, -0.2139782310, -0.2486099452, 0.0811911300, 0.1641449183, 0.0458643958, 0.0524920821, -0.1289709210, 0.2160539329, 0.0681171641, 0.3563103676, 0.1716631949, -0.0166838542, 0.0392260812, 0.0714997128, -0.0333205685, 0.0400161669, 0.1439122856, -0.0384440273, -0.1083261073, 0.0419264436, 0.0949593037, -0.1484803259, 0.1692693532, 0.1362537146, -0.0206201244, -0.0019496132, 0.0774507597, -0.0456345826, 0.2231599689, -0.1000510976, 0.2023567408, -0.0686963648, 0.0399604291, 0.0116461795, 0.0505249538, -0.2052990198, -0.0783714354, 0.0484479629, 0.1563063264, 0.1305848360, 0.1711333692, 0.1722771972, 0.0773082003, -0.1251008660, 0.1669854075, -0.5902419090, -0.2935072184, 0.1092267334, -0.0295722000, 0.1919826269, 0.0150581943, 0.1102699563, 0.1801992655, 0.1647320539, 0.3372917771, -0.3755590916, -0.3396987319, 0.0824656114, 0.0073821554, -0.0677784607, -0.2555710375, -0.1703915745, -0.1029126272, 0.1800391227, 0.1574453562, 0.2707332373, 0.3591774106, 0.2873857021, 0.2512893677, 0.1106138378, -0.0045024576, -0.1722716987, -0.2277078778, -0.0704021454, -0.0687199607, 0.0259051435, -0.0612559803, -0.0352702998, 0.1908868998, 0.3632624149, 0.0186154526, -0.2779200971, -0.0776393637, -0.0866002217, 0.2279897034, 0.0444123074, -0.1881434619, -0.4505253136, 0.2105001062, 0.6257717013, 0.3410866261, -0.0262995008, -0.0277540032, 0.2265052199, 0.2671990693, 0.0109117068, -0.1242163852, -0.5321860313, 0.2750813067, 0.6925247908, 0.2428638488, -0.0985204279, 0.1061563790, 0.2130748183, -0.0890475214, -0.0707787797, -0.1663317233, -0.3036769927, 0.5138807893, 0.3830192983, 0.3069159389, 0.1537510157, 0.3073561490, 0.1138133556, -0.0991529077, 0.1528888196, 0.1245917752, -0.0006514170, 0.1110995337, 0.2632232308, 0.1229558513, 0.1585230529, 0.2430400103, 0.3827811182, 0.1265386045, 0.2234510034, -0.0197531674, -0.0296884701, -0.0156294927, 0.3505899608, 0.1153424457, 0.2407353073, 0.4892382324, 0.4165699184, 0.1718745083, 0.3283860087, 0.2287259251, 0.3102683425, 0.0992911607, 0.0007101294, 0.1575726122, 0.1094666645, 0.3452287912, 0.1686303318, -0.0207544602, 0.2451900095, 0.4239033461, 0.3207665086, 0.0762192011, -0.1365444362, -0.3591391444, -0.0121114273, 0.3013635874, 0.1626853943, 0.0836780295, 0.1976931691, 0.2853381634, -0.0874234214, -0.4381961823, -0.0168052148, -0.0779786929, 0.0446693636, -0.0860872939, 0.0510153472, -0.1423230618, -0.0819513127, -0.3107298613, -0.2894701064, -0.2031015456, 0.0508107357, -0.0315486044, 0.0324313492, -0.0365264006, -0.2211081386, -0.0475842021, -0.1373957396, -0.1417141110, -0.0105017656, -0.2210857272, -0.3105304539, 0.0513553023, -0.0029560649, -0.0374297574, -0.1300112903, 0.0603387244, -0.0693318173, -0.1735730916, -0.0595300421, -0.2289850414, -0.0495123565, 0.0082723377, -0.0731769353, 0.0386561081, 0.0154706016, 0.1391944885, -0.1365781426, 0.1521600336, -0.0064734891, -0.1589667201, 0.1380373091, -0.2973214686, 0.0574421547, -0.1281937361, -0.0493684448, -0.1225675568, 0.1983598918, -0.0229002591, 0.0877444670, 0.1332778931, 0.0428442247, -0.0254864618, -0.2395868152, -0.0886295587, -0.0920147672, -0.1427439153, 0.0343775637, 0.0645036995, 0.0938151106, 0.2346239835, 0.1303231716, -0.2682745755, 0.0550890937, -0.2912199795, -0.1176259518, -0.0737675130, -0.1020487472, -0.1382813156, -0.1274754703, -0.3394819498, 0.0372687615, 0.0440956578, -0.0802350342, 0.0573990978, -0.1952440888, 0.0147165759, 0.2117613703, 0.2172049880, -0.0094258999, -0.2517533004, 0.0032632276, 0.0220174417, -0.2562859952, -0.0583073534, -0.2707886398, -0.0677941665, 0.2658399642, -0.0096315946, -0.2409802675, -0.3908799589, -0.0723008141, -0.0547281429, -0.0915256664, 0.0138258114, -0.1420497298, -0.0344522558, 0.0689195916, 0.1018734798, 0.0690410584, -0.3346555531, -0.1100727469, -0.2814215720, -0.1987019330, -0.2460047752, 0.0392897092, -0.0810553879, -0.2576391697, -0.1056159437, 0.1155329198, 0.0799897537, -0.1877774596, -0.2021069378, -0.3053072095, 0.0628641024, 0.1391887367, -0.1762534529, -0.0900948942, 0.1211776137, 0.0949624181, -0.1998718530, -0.2557765543, 0.0795786455, -0.1834426224, -0.2367400825, -0.1689805239, 0.2179794759, 0.1200875565, 0.0079029286, -0.1633134186, 0.0685812160, 0.0254657418, -0.1475917399, -0.2570342422, 0.1078638881, -0.0285154711, -0.1377933621, -0.2078784257, -0.0981321782, -0.1058930233, 0.0637770966, 0.1067460999, -0.0415882803, -0.1664563417, 0.1104597896, 0.0058237826, -0.1268127114, 0.2089404762, 0.0607995354, -0.0224511661, -0.0523994640, -0.2649951279, -0.1240639165, 0.1020694673, -0.2113393396, -0.0711424723, -0.0297133941, 0.0853633955, 0.1254340261, 0.1111761481, -0.1041614786, -0.2566465437, -0.3275496364, -0.2250958830, -0.3382647038, -0.0910564065, -0.0742763579, -0.0806551948, -0.1008878350, 0.0281652380, -0.0251471568, -0.1111239791, -0.1386407167, -0.1774292439, -0.0712908953, 0.0428688750, 0.1215767637, 0.0259797778, 0.0728090554, 0.1674265862, -0.3084082007, -0.0170308892, -0.1177672520, -0.3240191936, -0.3503685594, -0.0406155549, -0.1766556501, -0.0685781837, 0.0125021012, -0.0097688297, -0.1159797534, -0.2770856917, -0.0838114545, -0.0993899181, -0.1329561919, -0.0017213223, 0.1221968904, 0.0232255105, 0.0943479016, -0.0767777711, -0.1323445737, 0.0281079859, -0.0099960417, 0.0005269647, 0.0745059550, -0.1577004790, -0.1471570432, 0.0718482733, -0.1599625945, -0.1476021260, 0.0992992520, -0.1538233906, -0.1371630728, 0.0098675191, 0.0270295888, -0.0342145562, 0.0110144168, -0.1075040847, 0.0577496588, -0.1109843329, -0.0049576014, 0.1763936877, -0.1636603028, -0.0368154794, 0.1048643291, 0.0924718380, -0.1633686870, 0.0019277632, -0.1531580538, 0.1788370311, -0.0934245065, 0.1784812510, 0.0975786150, -0.1509431005, -0.0092208982, 0.1306613088, 0.1895616651, -0.1193158925, -0.0724877119, 0.0567774773, 0.0953209102, 0.0517807901, 0.1915510297, -0.1679630578, -0.0703805238, -0.0751976669, 0.1143963039, -0.1882048249, -0.1217316836, -0.1285041571, -0.0117947757, 0.0007208884, -0.0441788584, -0.0491515994, 0.1595458984, 0.1330173016, -0.0815776289, 0.0226938576, -0.0242198557, 0.1448699534, -0.0122483373, 0.1284166873, -0.1109899729, -0.0839320719, -0.2041164041, 0.0676360130, 0.0762502253, -0.0862699300, -0.1698411107, 0.1038660705, -0.2106428444, -0.1464254856, -0.0699688941, -0.0246427804, 0.1329844594, -0.1293860674, 0.1722222865, 0.1582346559, -0.0272216797, -0.1312160790, -0.0005379915, 0.0047149360, -0.0872940272, 0.1482886374, -0.1417471468, 0.0305743963, 0.0332269669, -0.0249087214, 0.1575620472, -0.0491629988, -0.0633280128, -0.0689635575, -0.1422385424, 0.1800004542, 0.0416697264, -0.0437213778, -0.1988485754, -0.0785430670, -0.0164966434, -0.1519183367, -0.1944349259, -0.1064797863, -0.1153384149, -0.1768048853, -0.0434584320, -0.1088939011, 0.0268038791, 0.0837712362, -0.1075079739, -0.0860896185, -0.1370976567, 0.0352946259, -0.0144421449, -0.2990493476, 0.0983033404, -0.0652389228, 0.1314505190, 0.0435201190, 0.1872616559, -0.0688867792, -0.0976084098, -0.0917428732, -0.2413445413, -0.2232888937, 0.0827129260, 0.0948196426, -0.2320056707, 0.1489908397, 0.0971598327, -0.1742298305, 0.1922025234, 0.2721633315, -0.1372334510, -0.2322732806, 0.2017449141, 0.0562358983, 0.0242800899, 0.0629568771, -0.0235505402, -0.0537709631, -0.0861077756, -0.1768147498, -0.3009602129, -0.2142744660, -0.1489634663, 0.1693584770, -0.0746962056, -0.1339172721, -0.2815736830, 0.0679813623, -0.0356553979, -0.0274916291, 0.0596475415, 0.0361392014, -0.1642384976, 0.1342056692, -0.1058489904, 0.0088967560, 0.0456941910, -0.1342388839, 0.0696063712, -0.1553870142, -0.1770763844, -0.0558347441, -0.1293964386, -0.0886132717, 0.1172604635, 0.0593576841, 0.2449104935, 0.0746981204, 0.0121906335, 0.0017994069, -0.1453914046, -0.1849599928, -0.0829544812, 0.0385818407, 0.0261232536, 0.0705450103, 0.0973772481, 0.2363839149, -0.0635333657, -0.1396985501, -0.2020490021, -0.2712141871, -0.1987098902, 0.1174198911, -0.0911867395, -0.0229254290, 0.1721702367, 0.0346379243, 0.1274827570, -0.1496107578, -0.1771295965, 0.0097128293, -0.0640684441, 0.2226651013, -0.2014622390, -0.1997400522, 0.0235062782, -0.0766993985, 0.0537008233, 0.0920116454, -0.1314650178, -0.1780887097, -0.2620356381, -0.1872366965, -0.2017561495, -0.2544978857, -0.2139158398, 0.0378368348, -0.1290319264, -0.1479517668, 0.0726865977, -0.1793275028, -0.0206814092, -0.1878059059, -0.1569898725, -0.0051361136, -0.1380207092, -0.2771700919, -0.2618851662, -0.0838428065, -0.1014276147, -0.0268350504, 0.0143152736, 0.0115317767, 0.1627595127, 0.2170919031, -0.1916976273, -0.1102961376, -0.1911667436, -0.2192063928, -0.0193016343, -0.1054774970, 0.1354045123, -0.2165794522, 0.0060072276, 0.1486514509, 0.0192973781, -0.1331157535, -0.1561731845, -0.2899620235, 0.0107852425, -0.2667495906, 0.1134807244, -0.0420339815, 0.2141766995, -0.0797981545, -0.0181565247, 0.1538973451, -0.1555106193, -0.1115607619, -0.1771137267, -0.1147474125, 0.1098670885, -0.2685897946, -0.0069209728, 0.0224318784, 0.0833407268, -0.0652663410, -0.1091523692, -0.1462867409, -0.0136998557, 0.0321214721, -0.3032874763, -0.1762877852, -0.1585045755, -0.1351108402, -0.1603289098, -0.2532705069, -0.0479091182, -0.1758187264, -0.0527182445, 0.0471809953, -0.1053165942, 0.1304420233, -0.0059134844, 0.0460749194, -0.0385746844, -0.1932626069, -0.0849337131, -0.2104178220, 0.0694471523, -0.1461170912, -0.1728572994, -0.0435142145, -0.0215909742, -0.0673836544, 0.0371304676, -0.3827142417, -0.2199498415, -0.1828729510, -0.1668511629, -0.2707110643, -0.1154295951, -0.0772156417, -0.1239608824, -0.0093788179, -0.1974224150, -0.1132813990, -0.0686118379, -0.2867122591, -0.0228044875, -0.0938422084, -0.2551392615, -1.0070405006, -1.4505758286, -1.2280302048, -0.7204642296, -0.3024016023, 0.1204858422, 0.2971979380, 0.2515853047, -0.1887970418, -1.1479821205, -1.2729402781, -0.9280230999, -0.2788034081, -0.0512269884, -0.0230612829, 0.0773681551, 0.2977758944, 0.1342787296, -0.2830634117, -1.1199939251, -0.8351479173, -0.2936396599, 0.2651854753, 0.2988430858, -0.2243904322, -0.4537587464, -0.0004426689, 0.1635439545, -0.0658757910, -0.4032903016, -0.0317047611, 0.3601020277, 0.3578203022, 0.0097606024, -0.6845256090, -0.4713237584, -0.0898182616, 0.1451895386, -0.1233986989, 0.1114062667, 0.5320196748, 0.6699851751, 0.1807564497, -1.1540938616, -0.8327600956, -0.1196666881, 0.1432843357, 0.2835240364, -0.1471875459, 0.4222678244, 0.5730504990, 0.6383736730, -0.1396518499, 0.0611737818, 0.2571954131, 0.4223527312, 0.3732121587, 0.1699860245, 0.0100811701, 0.2856767774, 0.0617973879, -0.0269384906, 0.3715825379, 0.1941961199, 0.5430670381, 0.7976644039, 0.2814877629, -0.4290536642, 0.0773477256, -0.0733269081, -0.4110980928, -0.1132482365, 0.3317661583, 0.1181486249, 0.3707540333, 0.4300020635, -0.6040238142, -1.1943284273, 0.1762059331, -0.0390415415, -0.5115283728, -0.3198111653, -0.2726558149, -0.2080676556, -0.2417335808, -0.7808150053, -1.1519035101, -1.2689456940, -0.4128856659, 0.0587222129, 0.0378698930, -0.1371854842, -0.4697537422, -0.5312976837, -0.9613826871, -0.9081744552, -0.6599691510, -0.3264311254, -0.3052917421, 0.0904083923, 0.0025282621, -0.2365635037, -0.2193436474, -0.2168026716, -0.0156590324, 0.0284950882, 0.1710477322, -0.2676406503, -0.1210673302, -0.0601261482, 0.0904981270, -0.2381080389, 0.1780941337, 0.0542050414, 0.0301899426, 0.0214729514, -0.3383496404, -0.1951778978, 0.1061476171, -0.0009925116, 0.0544778332, -0.1698027253, 0.1251071841, -0.0854917094, 0.0536545552, -0.0850086436, -0.1782801300, -0.2645515800, -0.2134069353, -0.0924848840, -0.1689095348, -0.0905441418, -0.0558228008, -0.0363516808, 0.1523921341, -0.1524620950, -0.3206971288, -0.1064231247, 0.0133430455, 0.1373214424, 0.1516517997, 0.1875534505, 0.0504686013, -0.0227148682, 0.0355227441, -0.0986968949, -0.2265153378, -0.1623113006, 0.0802194923, -0.0391048603, 0.0910147950, -0.0799996257, -0.1405819952, -0.1459179074, -0.1345159113, -0.0886159465, 0.1957665086, -0.3279509544, -0.3039714694, -0.3792755604, 0.0271628071, 0.1539338082, -0.1857731491, -0.0586797334, -0.3119311929, -0.2951835692, -0.0362914018, -0.3119903505, -0.1782519221, -0.2629339993, -0.2282924950, -0.0972673669, -0.2378663570, -0.1576883048, -0.1979836375, -0.2854012847, -0.2010352165, -0.0522024743, -0.0602073111, -0.0925963819, 0.0846267790, 0.1570337862, -0.0580112226, -0.2789533734, -0.0573164783, -0.2194970548, -0.3179792762, -0.2404688150, 0.0925234184, -0.1795967370, 0.0646511167, -0.0985136181, -0.0491219684, -0.1574593633, -0.2011402398, -0.2614748478, -0.2067408115, -0.2657355964, -0.0063690776, -0.0577230789, 0.0122175794, 0.0011875058, -0.1798432320, -0.0887090713, -0.2308385968, -0.2818363607, -0.0691522509, 0.0028626283, -0.2059256434, 0.1238387674, 0.0572346225, -0.0528602265, -0.1200764254, 0.0141788246, 0.0153385075, 0.0987544879, -0.1373185962, -0.0966705084, 0.0772281587, -0.1595620364, -0.1392976791, -0.0203379933, -0.0303423665, 0.1510324925, 0.1077938005, 0.0181214586, -0.2559312284, -0.0627867356, -0.2484571338, -0.2267991155, -0.1417187005, -0.1549992561, 0.0114913527, 0.1495202035, -0.0029418066, -0.1718707532, -0.3432508707, 0.0192004610, -0.1178546622, -0.2166501731, 0.0471699089, -0.0281324685, 0.1875625104, -0.1829938293, -0.2511048913, 0.1229468063, -0.3099181354, 0.1430721134, 0.0189287700, -0.2816884518, 0.0894035771, -0.0230546445, -0.0379644409, -0.0981223881, 0.1288540512, 0.1329010278, -0.0122046778, 0.0119760744, 0.0254585277, -0.1433457136, -0.2895402908, -0.1107539758, -0.2042953074, -0.0947786048, -0.0478403047, -0.1954573542, 0.2793527544, -0.0639487803, 0.0715577751, -0.0668230727, -0.2989790738, -0.1494755298, 0.0940007195, 0.1727095246, 0.0796686858, 0.1468281448, 0.0137499077, -0.1153399944, -0.1700814813, -0.2332627326, -0.0443270318, -0.1406526864, 0.0087302597, 0.0153631624, -0.1739587784, -0.2782602310, -0.0109988432, -0.1517460346, -0.0502970181, -0.1003719494, 0.1563977599, -0.1541376859, 0.0910277292, -0.1564034373, -0.0250853747, -0.2295177430, 0.1306833029, 0.0073690647, -0.0070949229, 0.0509117804, -0.0040886262, -0.1057162881, 0.0415917486, 0.1870379299, -0.0490504839, -0.5447676778, -0.3989582658, -0.0274462011, -0.2517041266, -0.1673816293, 0.1251660734, -0.1263642609, 0.0730005875, 0.0026443207, 0.1617396772, -0.2082584649, 0.0302007161, 0.0291755479, -0.2302614897, 0.1501230448, -0.1055162251, 0.1412472129, -0.0886179805, 0.0039477423, -0.2878612280, -0.0224618576, 0.1147395447, -0.0288012717, -0.0631189197, 0.0093639065, 0.0771747902, -0.0546588451, 0.1347679347, -0.2232078165, -0.2086673230, 0.1682314128, 0.0863385499, -0.0974188149, 0.0555531308, -0.0393759832, 0.0319550484, -0.0624698326, -0.1090641022, -0.0281392150, 0.0671814680, -0.1761365682, 0.1359109282, -0.0497216210, -0.2003130764, 0.1614600122, -0.1481357962, 0.0504207052, -0.0348003656, -0.0076456466, 0.1612649113, -0.0581099242, -0.0518568419, -0.0131659405, 0.0023508058, -0.1648614109, -0.1510811597, 0.0056891432, 0.0957449824, 0.0283744019, 0.2995784283, -0.1328139603, 0.0460024960, -0.0434080772, -0.0681897551, -0.1951730251, -0.1461638361, -0.2369001657, -0.0063782032, 0.2252488732, 0.0190668087, 0.1572761238, 0.1262995452, -0.1476278305, -0.0289679058, -0.1709398478, -0.1829487383, 0.1172122061, -0.0025457167, 0.1449041069, 0.0684738532, -0.0762146935, -0.0010427381, -0.1908271909, 0.0607479177, -0.3189985752, -0.1545489877, -0.0045066597, 0.0366995782, -0.0068653305, 0.1112573966, -0.0754786655, -0.0811627135, -0.2307928503, 0.2032519579, -0.1800109148, -0.1337182522, -0.1202832535, 0.1912173331, 0.1561309993, -0.2108947188, 0.0190835893, -0.1836590022, 0.1263792217, 0.1374530494, 0.1060782373, 0.0405849516, 0.1024570763, -0.0082489550, -0.0103722662, -0.1050940827, 0.0956758559, 0.0340138227, 0.1441344321, 0.1550269127, -0.0821959823, -0.1065580696, 0.1090387106, 0.0458198488, -0.0612081140, -0.1468803287, 0.0812476873, -0.0345078558, -0.0721729696, 0.1295186281, -0.1423009634, 0.1736800671, 0.1127853096, -0.1352781057, -0.1102299467, 0.0359079987, -0.1695763767, -0.1148196831, -0.1477128863, -0.0553453118, -0.0177779943, 0.0252720118, -0.1115136817, 0.0795857608, 0.0982353091, -0.0155790001, -0.1261978447, 0.0086565167, 0.1209905744, -0.0129325241, -0.0828319788, -0.0002908558, -0.1694068015, 0.0184859633, -0.1508048922, -0.1110747606, -0.1159479767, 0.0812900662, 0.0631431937, 0.1676644683, -0.1719876975, -0.2048271298, 0.1250446439, 0.1465263367, 0.1769084334, -0.0896165520, 0.0881062150, 0.1717253029, -0.0798935890, 0.0992965400, 0.1894657910, 0.0065677166, 0.2097725272, -0.0235737413, 0.1830013990, -0.1049183086, -0.0609712899, 0.0497511029, 0.1479421854, 0.0287196189, -0.0023855567, -0.0716190189, 0.1176520884, -0.1748428792, 0.0679877996, -0.1372998953, 0.1377304792, 0.2081663013, -0.0378531963, 0.0877396166, -0.0321771502, 0.1871823668, 0.1855764091, 0.1747770607, -0.0415967405, 0.0355607718, 0.1714370549, -0.0653021932, -0.1958370954, -0.0674763992, -0.2245869040, 0.0352350585, -0.1676688343, -0.0704015642, 0.0709343404, -0.0560043082, -0.1246381775, -0.0007770329, -0.0830531046, -0.1199827343, 0.0718315691, -0.0532909371, -0.1126952618, 0.1054670364, 0.0283405986, -0.1558690220, -0.0420814231, -0.1560493112, -0.0581935346, -0.0446317047, -0.0802067518, -0.1142691001, -0.1204116121, -0.0331711322, 0.0949378014, -0.2588029802, -0.2372588068, -0.0462848358, -0.0740352869, -0.2131894827, 0.0274166297, 0.1681872606, -0.0159469601, -0.0582938641, 0.0046919966, 0.0431068763, 0.1651790589, -0.0229072291, -0.0826083198, -0.0848103389, -0.0434880517, -0.2023244500, 0.1006967425, 0.1461741477, -0.0344377048, -0.0150509654, 0.0272971354, -0.0081945220, -0.2199306339, 0.0135904858, -0.3021509647, -0.0805905238, 0.1704505980, -0.1449772716, 0.0034059505, -0.0735766068, -0.1076159328, 0.1536289752, -0.2410600036, -0.0882431641, 0.0007104218, -0.0105887363, 0.0113861999, -0.0325412862, -0.0820077956, 0.0649778619, -0.1780851781, -0.1314691901, -0.0079384763, -0.1431872100, -0.0476547740, 0.1900929362, -0.0303549264, 0.0568406656, -0.1416276842, -0.2016011477, 0.0352870785, 0.1776238084, 0.0587957390, -0.1945358813, 0.1508293152, -0.0084079523, -0.2760088742, -0.0848702863, -0.0068382565, 0.0098711057, -0.0449523963, -0.0651152432, -0.1386664510, -0.1312555373, -0.1252989769, -0.2557872236, -0.1147289351, -0.3011824191, 0.0456458963, 0.0632865503, -0.0976278260, -0.0184918828, -0.2104694694, -0.2243228853, -0.2863538265, -0.4464485049, -0.7337130904, -0.7282494307, -0.3942480683, -0.1087929755, 0.3402459323, 0.3367354870, -0.0367467068, -0.1796422899, -0.7498320937, -0.7526986599, -0.4179695249, -0.2034281343, 0.1185741276, 0.0042797429, 0.0813729540, 0.2172505558, 0.1337226331, -0.1855557859, -0.1285563856, -0.2067925781, 0.0295710824, 0.0403069928, 0.1828883290, -0.0579307191, -0.0210363846, 0.0746966451, 0.1135417596, -0.2302471697, 0.0208469573, 0.0787996873, 0.2587225735, 0.1196369454, -0.0188924540, 0.1517834216, 0.0323172808, 0.4151686132, 0.3299686611, -0.2174886316, 0.2328534126, 0.0351392403, 0.0323813260, -0.1467488557, 0.0459755547, 0.0773695856, 0.0004018944, 0.4244583547, -0.0568196662, 0.0215368588, 0.2604839504, 0.1846427023, 0.0312548280, -0.1455921829, -0.0333297551, -0.0786662623, -0.3287061453, 0.3133111596, -0.5231088400, -0.3000390828, 0.3677882850, 0.2619304061, 0.0641142502, 0.1301949769, -0.1035121754, 0.0205482040, -0.4436635673, -0.8673858047, -0.2553676665, -0.3041028380, -0.1182950214, 0.0141681377, -0.1400859803, -0.0136150690, 0.1827606857, 0.3063411117, -0.6801917553, -1.2435940504, -0.5957742929, -0.1571466029, -0.1436156482, -0.1674408317, -0.0430695228, 0.0420644209, 0.3996280730, 0.2603657544, -1.1111965179, -1.2858620882, -0.4993602633, 0.2386501431, 0.2805640996, 0.0775453895, -0.0345872082, 0.0957252979, 0.2185254544, -0.1048487648, -0.8630143404, -1.0560824871, -0.1057308912, -0.6718575358, -0.3410775661, 0.1083105803, 0.3335440755, 0.5878831744, 0.2057309449, 0.1882592738, 0.2503269315, 0.1688133329, -0.5132737756, -0.6229159832, -0.1965257376, 0.2968834639, 0.6310473680, 0.3252578676, 0.0689648539, 0.0899026841, 0.3606626391, 0.3606449664, 0.0982134938, -0.5942123532, -0.3550378978, 0.0035280655, -0.1048562601, -0.2083101422, -0.1148942038, 0.0368726701, 0.1985712647, 0.0793054104, 0.1412660182, -0.6417618990, -0.2937393486, -0.2236429751, -0.4784734249, -0.3720040023, -0.1238407418, 0.1052915305, -0.0090043833, 0.1259319633, 0.4985364377, -0.5958092213, -1.0357602835, -0.7809500098, -0.4855143130, 0.3064368069, 0.2848441303, -0.0657304600, -0.5914891958, -0.7727416158, -0.4397131801, -0.8107703328, -0.9693650603, -0.5744429231, -0.2220293134, 0.2940030098, 0.3968446851, -0.2476040274, -0.7933631539, -1.3976596594, -0.4672014713, 0.6228241920, 0.5265993476, -0.3541072607, -0.0257204045, 0.2743728459, 0.1331147105, -0.2455259711, -0.2796796858, -0.2016863376, 0.5926500559, 0.5659469366, 0.8579396009, 0.5222865343, 0.4067281783, -0.0009292139, -0.3031218648, -0.1859740913, 0.5374876261, 0.6346045732, 0.3910471797, 0.2010513246, 0.7791486979, 0.5922055244, 0.2595098019, -0.3903712630, -0.4320218265, -0.2011313289, 0.0790389180, 0.1378392577, 0.0728330091, -0.0158503633, 0.2712143660, 0.2377581298, 0.1773982495, -0.1566323936, -0.2159743756, -0.6142026186, -0.4209464192, -0.1816481054, -0.2530490458, -0.1526998430, -0.0245454758, -0.2113645375, 0.0413978994, 0.1543736309, -0.1011072472, -0.4111499786, -0.2773469388, -0.0378068052, -0.0947384536, -0.1340374798, -0.1240288094, 0.1824219823, 0.1524275094, -0.1814161539, -0.0672952980, -0.0220606253, 0.1373513341, 0.1564988643, 0.1220687330, 0.1024549678, 0.1667437702, -0.0197386425, -0.0038735287, -0.0348152854, 0.1187780127, 0.1449456662, -0.1146362424, 0.1116311327, 0.0190083385, -0.2951576412, -0.1535525769, -0.1325955242, 0.1620090455, -0.0375794843, -0.0359779745, -0.0455745235, -0.1644149423, -0.1189174205, -0.2135037035, -0.2954300046, -0.2223341167, -0.0932202637, 0.0599226207, 0.1104959175, -0.0007392432, -0.1394189894, -0.0481314138, -0.2624486983, 0.3960611522, 0.0050711837, -0.2721041739, -0.0478670932, 0.0206932090, -0.0896584168, -0.1546778381, 0.0930480808, 0.1237173751, 0.2252813280, -0.0065162233, 0.0505373552, -0.2895280719, -0.3064574301, -0.3649238050, -0.0596460886, -0.0658335239, 0.1374765188, 0.4180811644, 0.2880678177, -0.1468110830, -0.3392065167, -0.0003296912, -0.1825115234, 0.0035122270, -0.0632712245, -0.1681862324, -0.0722391605, 0.3183322251, 0.0093987575, -0.2258670181, 0.2303101718, 0.1469774842, -0.0842908695, -0.1825637817, -0.1083737984, -0.2726627588, -0.1903195679, 0.1266374439, -0.2035064697, -0.2375653535, -0.2163330913, 0.2913823128, 0.4994511008, -0.0378536582, -0.3111260831, -0.3745164573, 0.2142293006, 0.0034908901, -0.2086447328, -0.1383958012, -0.2951830924, -0.0346232280, -0.1319634765, 0.0359360576, -0.0371262021, 0.1243298128, -0.0195067693, -0.1097642928, -0.1717959940, 0.0699484572, -0.1141953170, -0.2002635449, -0.0820559189, -0.1609374881, -0.1900875419, 0.0558206066, -0.0371543914, -0.0662601367, -0.3495877385, 0.0422113687, 0.0666352659, -0.0219739024, -0.0053937742, -0.0841348544, -0.1133207455, 0.0811621994, 0.1666986346, -0.1820295453, -0.1194084734, 0.1082494706, -0.2823367417, -0.0028252031, -0.0807473511, 0.0586656258, -0.0451640263, 0.1211314574, 0.0225771703, 0.1806205213, 0.0118003115, -0.1610131264, -0.0930916220, -0.1719198674, 0.0709988028, -0.1365093738, 0.1330863684, -0.1913479418, 0.0155477002, -0.1021837071, 0.0204437673, -0.2784821391, 0.0525976755, -0.0341131166, -0.1273822784, -0.0636565164, -0.1722338051, -0.0537393466, 0.1484919786, 0.1664910167, -0.0123390770, -0.0539110638, 0.0993105769, -0.2051660120, -0.1209760681, 0.0156472269, -0.0086840251, 0.0356000625, -0.1782427877, -0.1684012115, -0.0850034356, 0.0326764248, -0.0467976369, -0.3153299689, -0.2634643912, -0.1418761611, 0.0022056671, -0.0038725708, -0.3061643243, -0.2965777218, -0.1267692596, -0.2202868760, -0.1082409695, -0.3615976572, -0.0184004176, -0.2036422789, 0.1578902155, 0.1492429078, 0.0393862352, -0.0918201581, -0.2676146328, -0.0627175793, -0.0053414479, -0.2343747169, -0.2722030282, 0.1096541286, 0.0568942800, -0.0772310346, -0.0448779278, 0.0495292470, -0.1612604558, -0.2320529670, -0.1583468765, 0.0335771739, -0.2344053239, -0.0359075107, 0.0468616672, 0.1343372166, -0.0848818198, -0.1001939103, -0.1683458835, 0.0060815602, -0.1514666528, -0.0486027412, -0.0593562610, 0.0728130117, 0.1935755163, 0.2352440655, 0.0907967016, -0.0595394075, -0.3949718773, -0.1981075704, -0.2234300673, 0.1788895577, 0.2054954767, -0.0105554760, 0.1729588658, 0.0598576628, -0.1724325269, -0.0381196775, -0.2012212425, -0.1038233712, 0.0040382850, -0.0236496292, 0.1719611287, 0.1129734442, 0.1831364930, -0.0490445234, -0.3745420873, -0.0749598742, -0.3455006480, -0.1558483690, -0.2880942225, 0.0309946816, 0.0799308866, 0.1670893580, 0.0242764745, 0.2380942404, -0.0788018629, 0.0341664925, 0.1558916122, -0.1957741678, -0.0219804384, -0.0562853105, 0.0199440960, 0.0094789108, -0.0240371116, -0.1020950377, -0.1151843816, 0.3207908869, -0.0424473025, 0.0864145532, 0.0295904297, -0.2016395330, -0.1566911638, -0.4306180775, -0.2641317546, 0.3407947123, -0.1167614758, -0.5911888480, -0.1154789180, 0.0640847385, -0.0973918885, 0.0878287256, 0.2524376810, 0.2627380788, 0.1660125256, 0.3034066558, -0.2630305886, -0.4493981302, -0.1986006796, -0.2420541942, -0.3664855361, -0.1346999556, 0.0834401324, 0.6110710502, 0.6640859246, 0.0330490954, -0.4317470491, -0.3468088508, -0.1907270700, -0.0212063789, -0.2807734907, -0.2558758557, -0.0332175046, 0.2959205508, 0.0367909819, -0.1767570227, -0.3299764991, -0.8476201892, -0.3215540648, -0.1097508520, -0.0334910303, 0.0655539632, -0.0909826308, 0.1130035818, -0.0214695483, 0.0689604580, -0.0611098111, -0.2044404000, -0.0167265087, -0.1146772578, 0.0430758893, 0.1709290445, 0.1929386556, 0.1721159816, -0.0490162373, -0.0495053977, -0.1730791926, -0.0084723085, -0.0528505743, -0.0077055246, 0.1736698449, 0.0901314020, -0.0709292442, -0.1163922399, -0.1552270800, 0.0916238129, -0.0361406505, -0.1439858973, 0.0622094870, -0.0072713196, -0.0263992846, 0.0948664844, 0.0086699873, -0.1898903251, 0.1279665232, 0.0507447124, -0.1909051239, 0.1779269576, -0.1389026046, -0.0925820842, 0.1986006200, -0.0224313736, -0.0988522395, -0.1851085573, 0.0933427811, 0.1826643050, -0.0813763291, 0.0147188753, 0.0182449818, 0.1381226480, 0.1843543351, -0.2111106962, -0.1075147614, 0.1676363051, 0.1958577335, -0.0186418146, -0.0207857192, -0.0013495684, 0.1538651586, -0.0183589906, -0.1156444177, -0.0161239505, -0.0350780189, -0.0928504691, -0.1695265174, -0.1171382368, -0.0112464130, -0.1350565851, -0.0131559819, -0.0590196848, -0.0895870179, -0.1993532777, -0.0558772683, 0.0669486523, 0.0993856192, -0.0862454325, -0.1612264663, -0.0168710202, 0.1087212861, 0.0783687532, 0.1299586296, -0.0709838271, 0.0140206218, -0.0062620789, 0.0566679835, -0.0562762320, 0.1013505459, -0.0164479017, 0.0509349108, -0.0336622745, 0.2034178376, 0.0127876550, -0.0067941248, -0.2025867999, 0.1555237770, -0.1390660256, 0.1368731856, -0.0315666646, 0.0809490085, 0.1705602705, -0.4580221176, -0.0062989537, 0.1261847764, 0.3024661243, 0.0539335012, -0.0302191619, 0.0925019234, -0.0782562718, -0.0758049041, -0.0345195048, -0.2205672115, -0.5319316983, -0.5605819225, -0.8221637011, -0.8535995483, -0.5475841165, -0.2273877114, 0.2793802917, 0.4959296584, -0.0376470909, -0.6129200459, -0.2359788716, -0.4114450216, -0.3581173122, -0.0175935980, 0.0625124127, 0.0344423242, 0.7011882067, 1.0882155895, 0.1096822619, -0.5045832992, -0.4885434210, -0.5814092755, -0.3908185363, 0.0591443479, -0.0958977863, 0.0090841651, 1.0848070383, 1.2373213768, 0.0058945315, -0.3172353506, -0.4188587964, -0.6889753342, -0.6450527310, -0.8081465364, -0.4658724070, 0.3207251430, 1.0816366673, 0.9606423378, -0.0715209916, -1.0691769123, 0.1538618356, 0.1588465720, -0.1186294779, -0.0956865922, -0.1054282486, 0.4303840399, 0.4999554157, 0.1005404443, -0.3556923270, -0.0171885714, 0.6374676228, 1.1236178875, 0.7728891373, 0.3596692085, 0.4764994979, 0.6982666850, -0.1022510082, -0.7449623942, -0.0030107782, 0.1245616600, 0.1395576596, 0.5591481328, 0.3667190671, 0.3846653998, 0.9623765945, 0.6426957846, -0.6618064642, -0.4222174883, 0.3893269300, 0.2648329139, 0.0489187837, 0.0007380488, 0.0966175571, 0.3546880186, 0.0797847584, -0.4094967544, -0.7251540422, 0.1463565975, -0.0812084451, -0.0323155634, -0.0781619698, -0.2103490233, -0.4737296999, -0.7389682531, -1.3656147718, -1.5822153091, -1.2503738403, 0.1172655746, 0.1071096733};
#endif

#endif
