//Numpy array shape [32, 100]
//Min -0.212805762887
//Max 0.213140934706
//Number of zeros 0

#ifndef W12_H_
#define W12_H_

#ifndef __SYNTHESIS__
model_default_t w12[3200];
#else
model_default_t w12[3200] = {0.0299687982, -0.0200913697, -0.1628506184, -0.1068779975, 0.0424054265, 0.0826480091, 0.0613067746, -0.0700136125, -0.0242939144, 0.1030909717, 0.0650041699, -0.0830966085, 0.0960527658, 0.1947352886, -0.2073853463, 0.0206085145, 0.2071990073, 0.0054719150, -0.0430176705, 0.0793472528, 0.0041321069, -0.0060941279, -0.1071751043, 0.0795918703, -0.1221742183, 0.1073543727, 0.1956848502, -0.0784232020, 0.1237751544, 0.2066734433, 0.1868695319, 0.1677424908, 0.0094357580, -0.0799254626, 0.2026934922, -0.0076247603, -0.0580709279, -0.0180531889, -0.1637006700, -0.1638052166, 0.0779233277, -0.1231834143, 0.0149706006, -0.0556826741, -0.1517318487, 0.0896132588, 0.0733369887, -0.0469554067, -0.2075115591, 0.2020627260, -0.1361604631, -0.0397243351, -0.0796420276, -0.0720068067, 0.1404963732, -0.1644846797, -0.1368613839, 0.1972313821, 0.1479609013, 0.1812329292, -0.0925163031, 0.1341431439, 0.0459197760, 0.2102182209, 0.1156741083, -0.1755264401, -0.1409626305, -0.0525652170, -0.1710569263, 0.1657299995, -0.1696748286, -0.1518070698, 0.1033410728, -0.1277162135, -0.1875155568, -0.0796543807, 0.1871464550, 0.0151327997, -0.1990237534, -0.0622079521, 0.0616436303, -0.0678324550, -0.0198629797, -0.0415979624, -0.1598083824, -0.0991619006, -0.0476939231, 0.1539309919, 0.0488269925, -0.0068289489, 0.0577009320, 0.0779598355, 0.0286590308, 0.1280354857, -0.0991276950, -0.1547031701, -0.0801663995, -0.2033021450, -0.0365294069, -0.0199189931, -0.1896166503, -0.1620380282, -0.1860011518, -0.1301473677, -0.1325807571, -0.1151512563, 0.0179842710, -0.0323763490, -0.0208511800, -0.0292268693, 0.0576676726, 0.1994232237, -0.1680585593, 0.1120285392, 0.2034228742, -0.1939662695, 0.1442087591, 0.0624234378, 0.1286650300, 0.2087322176, 0.0912633240, -0.0376317203, 0.0205214471, -0.0496083796, -0.2016787976, -0.1382226348, 0.0664850473, 0.0934087038, 0.0602796376, -0.0408537984, -0.1239186376, 0.1804018617, -0.1277865171, -0.1906520277, 0.0994181335, 0.0932106972, 0.1030148864, 0.1116523147, 0.0058985800, 0.0763316154, 0.0466108620, -0.0782565325, -0.1931094080, -0.1808894277, 0.0781139433, 0.0563023686, -0.0503799319, -0.0703481436, 0.0061757714, -0.0098461658, -0.2114745528, 0.0153114647, -0.1681676507, -0.1633462161, -0.0197864771, -0.1017761901, 0.0926398337, -0.0084916204, 0.1515615582, -0.0639852583, 0.0894241929, -0.1429507434, -0.2018470466, 0.1891367435, -0.1565079689, -0.1863281429, -0.0731568635, 0.1096500158, -0.1922487319, -0.0225030929, -0.0464011431, 0.0343073308, -0.0230456144, -0.0067266226, -0.1473098993, 0.0474331081, 0.1361288130, 0.1835507452, -0.0805701017, 0.1962219775, -0.0072854012, 0.1076261401, 0.1758356094, 0.2032818198, 0.1188454628, -0.0964757353, 0.0214861184, -0.0365467817, 0.1914212108, -0.1486441642, -0.0549377054, -0.1208507791, -0.0835755914, -0.1265096366, -0.2034690231, 0.0648523271, -0.1897552162, -0.0336513519, -0.1699216664, 0.0531323850, -0.1490594000, -0.0797703713, 0.2046851516, -0.1592926085, -0.1386430115, 0.0487061739, 0.0597852468, -0.1644745171, 0.1618199646, 0.0082582086, 0.1800731719, -0.0387442112, -0.0123487860, 0.1716650128, 0.1768315434, 0.0235440135, 0.1460557878, 0.1448304057, 0.1400508285, -0.2036625296, -0.0995768830, 0.1586339772, -0.1803688109, -0.1290575564, 0.1552039683, -0.0657280087, -0.1672912240, 0.0555873215, -0.1085671112, 0.0801717937, 0.0385826826, 0.0135929286, 0.0630749464, 0.0029980689, -0.1597732604, 0.0757490993, -0.0452418327, 0.0770318210, 0.0499458313, -0.0152857453, 0.0045678318, -0.0506545305, 0.0333602875, 0.0823979974, -0.1917371154, -0.1759482026, 0.0670691431, -0.0253701657, 0.2032220960, -0.1656939983, -0.0252533555, -0.2011405975, -0.1797123849, 0.0893137455, -0.1314969361, -0.1712016910, -0.1751994491, -0.1736104190, -0.1309947222, -0.1455578506, -0.0290444344, 0.1079195142, -0.0198743641, -0.1168765575, -0.1956928372, 0.0749217570, 0.1197899282, 0.1492062509, 0.0845648646, 0.1910144687, 0.0714731812, 0.0896423161, 0.0886339843, 0.0424313843, -0.1047299802, 0.1140542328, -0.0675532520, -0.0491651744, 0.1374236345, 0.0591898561, 0.0204799175, -0.2117312998, -0.0115324855, -0.1409758925, -0.1222114265, -0.0760993063, -0.1121596992, 0.0451081991, 0.1246991456, 0.0530746877, -0.1226361692, -0.1766454428, -0.1873668283, 0.0489591658, 0.1323884130, -0.0933586806, 0.0075565875, -0.0572030842, -0.1902633309, -0.1812438220, -0.0443895608, 0.0993377864, 0.1648918986, 0.0184242576, 0.1783342957, -0.1467216909, 0.1525241435, 0.0741368234, 0.1681051254, 0.2015506625, -0.1783226132, 0.0273520201, -0.1540651917, 0.1322736740, 0.1993274987, 0.0856180787, 0.2101798356, 0.1924318671, -0.0558870733, 0.0282167494, -0.1529767513, 0.2130309939, 0.0657108724, 0.0723687112, 0.0556191802, -0.0014367402, 0.1229352653, -0.2076495588, 0.1529274285, -0.0508707613, -0.1626865268, -0.0902138129, -0.1416822970, 0.1324886978, 0.1586819291, 0.0451759696, 0.0123371929, 0.0383366346, 0.1934813261, 0.1374279857, 0.1389309764, -0.1145577505, 0.1496672928, 0.0143344998, -0.1715855300, 0.0703697503, 0.0756785870, 0.0705799758, 0.0685043037, -0.0987578928, -0.1857370734, 0.0366628915, 0.0343631357, 0.1183466315, 0.0785025656, -0.1750455797, 0.1534826159, 0.1441718042, 0.0897021592, 0.0018040389, -0.0981088355, -0.1238731444, 0.1437948942, -0.1384842694, 0.0986107290, 0.0601267219, 0.0760452747, -0.0176557451, -0.2066420913, 0.1434316337, 0.1618829966, 0.1882940829, 0.0081178099, 0.0319456607, -0.0112308115, -0.0579738915, 0.1688969731, -0.0522499532, 0.0275250971, 0.1130464971, -0.1198113412, -0.1739815474, -0.2051894963, -0.0725248307, 0.0653609931, 0.1268644333, 0.0542542338, -0.1434755027, -0.1683304012, -0.0638830960, 0.1737835407, 0.0660760403, -0.0277434587, -0.1337418258, -0.0600245148, 0.1939641833, -0.0056484491, -0.0793008059, -0.1560899913, 0.1696815491, -0.0796096027, 0.1000609398, 0.1038047075, -0.1127653494, 0.0950272083, -0.1602330208, -0.1877627373, -0.1061679423, -0.1238565221, 0.1439324915, 0.1299566925, 0.0472214520, -0.0069753826, -0.1149794459, -0.2021604776, 0.1122357845, -0.1002883688, 0.0194462240, -0.0018406361, -0.0953991339, 0.0182069540, 0.0094234645, -0.0216829777, -0.0452967286, -0.0725801289, 0.0355390161, -0.1340863109, 0.1887212694, -0.1611262858, 0.1702066660, 0.0964568853, -0.1035552248, -0.0042550117, -0.0943432227, 0.1989069283, -0.0933973119, -0.0053331405, 0.0471409857, -0.0212728232, 0.2078837454, 0.2041386068, 0.0111851543, -0.1873343438, 0.1273722947, 0.2028470039, 0.0488651693, 0.1237006783, -0.0178181976, 0.0472271442, -0.0325583816, 0.1946828663, 0.1655352712, 0.2027935684, 0.1411809027, 0.1962138116, 0.1080618501, -0.0607369095, -0.0708165020, 0.1253030300, -0.0159034431, 0.1700783670, -0.0541625768, -0.0760538131, -0.0406669974, -0.0891414285, 0.1450912356, 0.0859740376, 0.2055131793, 0.1083478332, 0.0022055060, -0.0290104300, -0.0267654210, -0.0207869411, -0.1194224805, 0.0018991977, -0.0272793770, -0.1055083573, 0.0597414970, -0.1958667785, 0.0869557858, 0.0951965749, -0.1256363094, -0.0545191616, -0.1926113069, -0.0835183561, 0.0878288150, -0.1846973300, 0.0389287770, 0.0536273718, -0.1922698766, -0.1813737452, -0.0055727065, 0.0913288891, -0.0415549576, 0.0197254270, 0.1108522117, 0.0002185702, 0.0923810899, 0.0573065877, 0.0757805109, 0.1220797300, -0.0833618939, 0.1317946017, -0.0430670381, -0.0967186093, -0.0560624450, 0.0935617089, 0.0121237487, -0.0303220153, 0.0375040770, -0.0382418483, 0.0393078625, 0.0130563527, -0.0055943131, -0.1761269718, -0.0499690771, -0.0106518418, -0.0307799578, 0.0621480346, 0.0695970654, 0.1028584838, 0.0719177127, 0.0005092323, 0.1469067037, 0.1609019041, 0.1450909674, 0.0792758465, -0.0519316047, -0.2121607214, 0.0241434127, -0.0808357447, -0.2041620016, -0.1480538100, 0.1651775241, -0.2083772123, 0.1574057937, -0.1065901965, -0.0385201424, 0.1561101079, -0.1631736457, 0.0538884401, -0.1054305360, -0.2048415542, 0.0021589994, -0.0986903384, -0.0747502595, 0.1790751219, -0.1251314580, 0.1173853278, -0.1656351984, 0.0950775146, -0.1212994158, -0.0788257867, -0.1449895203, -0.1379195750, -0.1993272603, 0.1146961153, -0.0986853093, 0.0152729899, 0.0105710775, 0.1330817044, 0.1422324777, 0.0992231071, 0.1181887984, -0.1909636706, 0.0078451037, -0.1997201741, -0.0151363015, 0.1178297997, -0.1558717191, -0.0950169861, -0.1872103661, 0.2013084590, 0.0404230654, -0.1430938244, -0.0383232236, -0.1629514694, 0.1915737987, 0.0239459276, -0.1554045379, -0.0571268350, -0.0343904793, -0.0432691872, -0.1243529916, 0.0900253952, 0.0138496757, 0.2025043070, 0.0890162289, 0.2063539922, -0.0377029926, 0.0664572418, -0.1869729310, -0.0886757150, -0.1995316446, 0.1380406618, -0.0402527303, -0.0892176777, 0.1503989995, 0.0581840277, -0.1900311857, -0.0375838876, 0.1521078944, 0.0178539306, -0.0032742321, -0.1492450833, -0.1072543487, -0.0301053226, -0.0052204430, 0.1500692666, 0.1414586008, 0.1079036295, 0.0571198165, 0.0485185683, 0.1213852763, -0.1186918393, 0.1275147796, -0.0365253836, -0.1145128161, 0.0286160856, 0.1659997106, -0.2049054056, -0.0777986497, -0.0125737637, 0.0773003101, -0.0892232209, 0.2025945783, 0.0550533831, 0.0385752916, 0.1083570719, 0.1414549351, -0.0111115575, 0.0712562799, -0.1094422191, 0.1511150599, 0.0087268203, 0.0202568769, -0.0386397541, 0.1489885449, -0.1213671267, -0.2128057629, 0.1057298183, 0.0510607064, -0.1561504751, -0.1614055485, 0.1519888341, -0.0476292223, 0.2093452513, 0.0253442973, 0.1837027073, 0.0339175016, -0.0858129710, -0.0682265610, -0.1138197854, -0.1712946147, 0.0106116384, -0.0390239358, -0.1540293545, 0.1809662879, 0.1934553981, -0.0429925621, 0.0340826064, -0.1216562018, 0.1013063490, 0.0999135971, -0.0800538063, 0.0211647600, 0.1619406939, -0.0261410177, -0.0756101608, -0.0725631565, -0.0672484189, -0.1443044245, -0.2104350030, 0.1078053117, -0.1717941314, 0.0366245061, -0.1369144022, 0.0730428398, -0.0014251471, 0.0019932836, -0.0347588062, -0.1416097581, -0.0373671502, 0.1879232824, -0.0678206235, -0.0094726086, -0.1668108106, -0.2068654895, -0.0293164849, 0.1029573083, 0.0726135373, -0.1451911032, -0.0059137344, 0.2113559544, -0.1072068214, 0.2105501294, -0.0070212930, 0.2129808664, -0.1996234953, 0.0191973448, -0.0369255245, -0.0173931569, 0.0040988028, -0.1652255356, 0.0166354179, 0.0675693154, -0.1846835017, -0.0812719762, 0.1431894898, -0.0498331934, -0.0058604628, 0.0493593514, -0.1396758854, -0.1841018498, 0.1082337499, 0.1404029727, -0.0944251642, -0.1443277895, 0.1943573952, -0.0410360843, -0.0552903116, 0.1141994894, -0.2049532384, 0.1282199025, 0.1656420529, 0.1564200521, -0.1017887443, 0.1943162382, -0.1167149171, 0.1902273893, -0.0146615952, 0.0996394455, 0.1081024110, -0.0095883608, 0.0467160344, -0.1426015794, 0.1132473648, -0.0834285319, -0.2006640136, -0.0626687407, 0.1497789025, 0.0997542739, 0.0486185551, -0.1117992550, 0.1593234539, -0.0817669630, -0.1094438434, -0.2040923089, -0.0345581174, -0.1097800955, 0.1097026765, -0.1717210412, -0.1104205102, -0.2118057609, -0.0631954968, 0.1601560116, 0.0353156626, -0.0384458303, 0.0104279816, -0.0868183523, 0.0248557031, -0.0272359103, 0.1344070435, 0.1277020872, -0.0776934773, -0.1456069648, 0.1698482037, -0.0428069234, -0.0244031101, -0.0958980396, -0.1205567792, -0.0047460347, -0.0705674291, 0.1576403379, 0.2007039785, 0.0109769553, 0.1511013210, -0.1129482910, 0.1351296306, -0.2037522495, 0.0605449677, 0.0585310459, -0.1157551780, 0.0295844674, -0.1049444377, 0.1212015152, 0.1379203498, -0.0699597448, 0.0286668092, -0.0065829754, -0.1788249761, -0.1312187314, 0.1286323965, 0.1392367184, 0.1908683181, 0.0242387205, 0.1691608727, -0.2020194232, -0.0678330660, -0.0243738294, -0.0575586557, -0.0077267736, -0.1400625110, 0.1848634481, 0.1182062626, 0.0595957637, 0.1738096774, 0.1422152519, -0.2081463337, 0.0900264084, 0.1681007445, -0.1872164607, 0.0730664432, 0.1905981898, 0.0831505358, -0.0544702560, 0.1223368645, 0.1236465275, 0.1874395013, 0.0316298008, 0.1114262044, 0.0823487937, 0.0209904611, -0.1241559684, -0.1212982461, -0.1685856283, 0.1621521115, -0.0055004209, 0.0879061222, -0.1197008863, 0.0481621325, 0.1770572662, 0.2034153938, 0.0980803668, 0.1807042062, -0.0962149203, 0.0693045855, 0.1404873729, -0.0112236440, -0.1166152358, 0.0854465663, 0.0849801004, 0.1941885948, 0.1874067187, -0.1194612682, -0.0316866338, 0.1586165428, 0.1986514628, -0.0514322966, 0.0083613992, 0.0338022709, -0.0840201527, 0.1076180935, -0.1840358078, -0.0786230713, 0.1650006175, 0.1759569347, -0.0984335914, 0.0937895179, -0.1591776758, -0.0548721850, 0.2099168897, -0.0761839002, -0.1439442784, -0.1180057228, -0.0115567297, 0.2119663954, -0.2084765881, -0.1429431587, 0.1304834485, 0.0253197849, -0.0495870262, -0.1593472958, 0.1906189919, -0.0755666047, 0.0204891115, -0.2027017176, 0.0845215023, -0.0375019461, -0.0741307288, -0.1682538986, -0.0986525714, -0.1323923767, 0.0248608440, 0.1058465838, 0.1753382683, -0.1236304268, 0.1611528993, -0.0788172930, 0.2003071308, 0.0172708482, 0.1628030837, 0.0418015420, -0.0545591116, -0.0956913158, -0.1495652795, -0.1087132543, -0.1375667155, 0.1122941375, -0.1753409654, -0.1203577742, -0.1041368321, 0.1671169102, -0.0055812448, 0.1678700149, 0.0990319848, -0.1881180555, 0.1386297345, -0.0494644642, -0.0536248833, -0.1219948381, 0.0529752672, -0.0706597269, 0.0397333801, -0.1728109568, -0.0324662775, -0.1066334024, 0.0403463542, -0.0274363458, 0.0952627063, -0.1018335298, 0.0583408773, 0.1738654077, 0.1537837386, 0.0972969532, -0.1946167499, 0.0721558928, -0.0901098624, -0.0134937465, 0.2068599164, -0.1080145761, 0.0695914626, 0.1576732397, 0.1439830065, -0.1283816546, -0.0403546393, 0.1978405118, 0.0215785801, 0.1189253926, -0.1251751781, -0.1324729919, -0.0573372245, 0.1317686737, 0.1840246916, -0.0632864386, -0.1593850106, -0.2103401572, -0.0452760458, 0.0562445223, -0.0672827810, -0.1317190230, -0.1057995185, 0.0628919005, 0.1449728310, 0.1558126509, -0.1442781389, 0.1884695888, 0.1673473418, -0.0872376114, 0.1140232086, -0.0252642781, 0.0438523591, 0.1734786332, -0.0142899752, 0.0308145732, -0.1282856315, -0.1500093937, -0.0310410261, -0.0346261412, 0.0138389915, -0.0564204454, 0.1973220706, -0.1628828943, 0.2086023390, -0.0911404118, 0.1388567388, -0.0801965445, 0.1897435784, -0.0078805834, 0.0966969132, -0.1342030764, -0.1829697788, 0.0274105668, 0.0954551399, 0.0424244702, 0.0432503819, -0.1348703206, 0.0819534659, 0.1172466576, -0.1045202017, -0.0274430066, -0.2078236043, 0.1791496873, -0.0249381959, -0.0028370321, -0.1151518151, -0.0351021737, 0.1781578660, 0.1670326293, 0.1231856048, 0.0522374511, -0.0416953564, -0.0919703320, 0.2049568295, 0.0597164333, -0.1264267862, 0.0250963420, -0.1367215514, 0.2062895894, -0.2021236271, -0.0789147466, -0.1009974107, -0.1868142933, 0.1095725596, 0.0458966494, 0.1690641642, -0.0414194912, 0.0501979589, -0.1225041598, -0.0142165720, 0.1769432127, 0.0690946877, -0.0368168950, -0.2125138342, 0.1564998329, 0.1774396300, -0.0208842754, -0.1699668020, 0.1192377508, 0.2057524025, -0.0954460502, 0.0930086076, 0.1147645712, -0.1254046261, 0.1324979365, -0.1101972088, -0.0763699412, 0.0361105055, 0.0514391661, 0.0420373082, -0.0369996876, 0.0854761600, 0.1843793690, -0.1736085415, -0.0634968281, 0.1430990696, 0.1729621291, 0.1585301757, -0.1438342333, 0.0730384588, -0.1971729845, 0.0652405918, 0.0152683109, -0.1353506446, 0.1925430894, 0.0246178210, 0.1677184999, -0.0048195422, -0.1687426418, -0.0789889991, 0.0222119838, 0.1184870303, -0.0578724742, 0.0195703506, 0.1599646807, -0.0953619257, -0.1090037525, 0.0946376324, -0.0791863799, -0.0674538761, 0.1205617189, -0.0457265675, -0.0772978514, 0.0474117100, 0.1960088611, 0.0076489449, -0.1340975463, 0.0089059472, -0.0732634515, -0.0593659431, 0.1910074353, -0.0600316823, 0.1865903735, 0.2039996982, 0.0955586433, 0.0850807428, 0.0748503804, 0.1393448412, 0.1457204521, -0.1769429147, -0.1073040143, -0.1568056345, -0.1769776195, 0.0820996165, -0.0717875659, 0.0552145839, 0.0963548124, -0.1853030771, -0.0829025805, 0.1825232804, -0.0630365610, 0.1861030757, 0.0656674206, -0.0497936457, 0.1127585769, 0.1411151290, -0.1029667556, 0.2078949213, 0.0462093055, 0.0898126066, 0.0131751001, 0.1630607545, 0.0629414618, 0.2107377648, 0.0717314482, -0.0816785246, 0.0140785575, 0.0746624172, 0.1485654712, 0.0411568582, -0.0456013680, 0.1087857783, 0.0439174473, -0.0011476576, -0.1062764674, 0.0663406253, 0.2129457891, 0.0096564740, -0.1795127243, 0.1119864583, -0.0606164932, 0.1801105440, 0.0738519132, -0.0362794101, 0.0169439614, 0.1146946251, -0.0022736192, -0.2109142840, 0.0731431842, -0.2111463845, -0.0210354924, 0.1228208840, 0.1741955280, -0.1463062465, 0.0535667241, 0.0714875758, 0.1088028550, 0.1164041460, 0.2026323378, -0.0252092779, 0.0014938712, -0.1912081689, -0.1331903189, 0.1476591229, -0.1678193510, -0.0322937071, 0.1266770959, -0.0697968751, -0.0139189065, -0.1026626825, -0.0157848597, 0.0318510234, 0.1830307841, -0.0639783591, 0.0032776296, 0.1112110913, 0.1398272812, 0.2115580142, 0.0822045207, 0.1698623598, 0.1983507574, 0.1014650464, 0.0911060572, -0.1313718259, 0.1438991427, -0.0996037722, 0.0321595073, 0.0923565328, -0.0361539572, -0.2123867571, 0.1487106979, -0.0159201771, 0.1643887162, 0.0597353876, -0.1827633679, 0.1444546580, 0.0984890461, 0.0160970092, 0.0142266899, 0.0770986378, -0.0505784303, -0.0323747844, -0.1830642819, 0.0064463913, 0.0076768547, -0.1202597693, -0.2009681910, -0.1707529575, 0.1267985106, -0.0900287405, -0.0438698083, -0.1021372974, 0.0055644661, -0.0194720328, 0.1149333417, -0.0809840262, -0.1144135445, 0.2040384710, -0.0188029557, 0.1048910618, 0.1795919538, -0.1614289731, 0.0341091901, -0.0088966489, 0.0277018845, 0.1153512597, 0.0880717933, -0.1324718297, 0.1717734039, -0.2016137391, -0.1045009866, 0.1157133877, -0.0166334361, -0.0154671073, 0.1994017363, -0.1078871936, 0.1074694693, 0.1580016911, 0.1991653144, 0.1872931123, -0.1518543363, 0.0200148076, -0.1169207320, 0.0856198668, 0.0655365288, 0.1064652503, 0.1896738410, 0.0871496797, 0.2046217620, 0.1393769979, 0.0166612864, -0.0847424716, -0.1429281235, 0.0346267968, 0.1239484847, 0.0759538710, 0.0976523757, 0.0261277556, 0.0197988302, -0.0161558241, 0.0142623633, -0.1662683934, 0.1792075336, 0.0535419285, -0.1046166271, 0.0217982680, 0.1907408237, -0.0097986907, -0.0788309723, -0.1983426064, 0.1801694930, 0.1988052130, 0.1525231898, -0.0462639928, -0.1794506609, -0.1983816922, -0.0863542110, 0.1962837577, 0.0113638788, -0.1423419416, 0.2009785175, 0.0230496824, -0.0825804174, 0.0670066476, 0.0893870592, 0.1693057418, -0.0931251049, 0.0395222306, -0.0908814818, -0.0015156865, -0.1482891142, -0.1197384968, 0.0808253288, 0.1706576049, 0.1219940186, -0.0090284497, -0.1708687544, -0.0672705173, 0.1744294167, -0.0471183211, 0.1627449393, 0.0505898595, 0.1289803386, 0.1933867931, -0.0364499092, 0.2092516422, -0.0879659653, -0.1325432360, -0.1883024126, 0.1935233176, 0.0722268522, -0.0351103544, -0.1282860935, -0.1669809967, 0.0634535849, 0.1463640928, 0.1115628481, 0.1915774643, -0.1330951154, -0.0498410761, 0.1824287474, -0.1198925152, -0.1558498144, 0.0115216672, -0.0575571805, 0.1512074769, -0.0792186111, -0.1005453169, 0.1918959022, 0.1577787995, -0.0474315286, 0.1767385006, 0.1532249153, 0.0381480753, -0.0994352177, -0.1345816553, -0.0714825839, 0.1817150712, -0.0423345566, 0.0728407800, 0.0606569946, 0.1074360311, -0.1082013845, -0.1286506951, -0.1654386818, 0.0755141973, 0.1346943080, 0.0741473436, 0.0272509605, -0.1022430733, -0.1535176337, -0.1437671334, 0.0033517927, 0.0385562479, -0.2093280107, -0.1801258922, 0.1942785680, 0.1442832649, 0.0647675097, 0.0466073155, -0.0312325507, 0.1904779971, -0.0702055097, 0.1841617227, 0.0860672593, -0.0434789211, -0.1418571472, -0.0536649376, 0.0984870791, -0.1137775481, 0.0694874823, 0.0945133567, -0.1912234277, 0.1735962331, -0.0742257386, 0.1887037754, -0.1645788699, 0.0214261860, 0.1316542625, -0.1871816963, 0.0810263753, 0.1041027904, -0.1497622430, -0.0212554485, -0.1823785156, 0.1808028221, 0.1183961034, 0.1672869921, 0.1207077503, 0.0926214755, 0.1032781005, 0.0705330670, -0.0409869701, -0.1389550120, 0.0041922331, -0.0760333836, -0.0342211723, -0.0022919774, 0.0694222152, -0.1467096359, 0.0167407840, 0.2002843916, -0.2026804835, 0.0219483674, 0.1510784626, -0.2011389732, 0.1555231214, -0.0785504282, -0.0242179781, 0.0736868083, 0.0837689936, -0.2070930153, 0.1436602771, -0.1341157854, -0.0420701355, -0.1833635718, 0.0336981118, -0.1235698834, 0.0389548540, 0.0881867111, 0.0741657019, -0.1485468149, -0.1753440648, 0.0552891493, 0.1398189962, 0.0925252438, -0.0714594126, 0.1528547406, 0.0452864170, 0.1368271112, -0.1442251801, -0.1871099770, 0.1367825866, 0.0078157187, 0.0879496336, -0.1634112298, -0.1578331888, -0.1039924771, 0.1737509668, -0.2009857148, 0.0084375441, -0.0871703029, 0.1638271213, -0.1012258977, 0.0226652473, 0.2094560564, -0.2052043378, -0.1554896235, 0.1281714737, 0.1526623070, 0.0711450577, -0.1538139880, 0.1103184819, -0.1276670098, -0.1715557873, -0.0104382038, -0.1191718876, 0.1682462394, 0.1613282859, 0.0988994539, 0.0623968840, 0.0341099948, 0.1983372867, -0.1309966445, 0.1504108608, 0.0166955441, 0.1539048254, 0.0171548128, -0.1117881685, 0.1348723173, -0.0929081589, 0.0306994468, -0.0673389435, 0.1843204200, -0.0494693965, 0.0026714802, 0.1970034242, 0.1465358436, -0.2089259773, -0.0306969434, -0.0623424053, 0.1178109348, -0.1690531224, -0.1106899157, -0.0879889876, -0.0418089181, 0.0957140326, 0.1265924871, -0.0413431525, -0.1948350221, 0.0549199581, -0.1067268252, 0.1657143831, -0.0590002686, -0.1327666938, 0.1300134361, -0.0232419223, 0.2081829906, -0.0133474618, -0.1192633808, 0.0818081498, 0.0748744309, 0.1030098200, 0.1931266487, -0.1345575154, 0.1282161474, 0.0507016480, -0.0075940490, 0.1418971121, 0.2076115310, 0.0331827849, -0.0025079995, -0.0684792399, -0.2117804438, 0.0889830291, -0.0081021041, 0.0968770087, -0.0448308140, -0.2018771470, 0.1256079674, -0.1889444590, -0.1807408929, -0.1891945004, 0.1386094987, 0.1040057838, 0.2109294832, -0.1347030997, -0.0752518028, -0.1905307919, -0.0660125017, -0.1359195858, 0.0700816810, -0.1311333477, 0.1863650084, 0.0182687193, -0.1991056353, -0.1986645758, 0.0332740843, 0.1223597527, 0.1440291107, -0.1991315633, -0.1418480575, -0.1046753898, 0.1215175390, -0.1528828144, -0.0192871094, -0.0392865241, 0.1554636955, 0.1521648169, -0.0530413985, 0.1745767593, 0.1329261065, 0.1173268855, -0.0834161788, 0.1669941545, -0.1135928258, -0.0104432255, 0.2093745172, -0.1487203538, -0.0243670642, 0.0781385601, -0.0863867402, -0.1772288829, 0.0374935269, 0.0326699018, -0.1416948438, 0.1712468863, -0.2092596889, -0.0162612945, 0.1995322108, -0.0407852232, 0.1391594112, 0.1703530252, -0.1247310713, 0.0101923794, -0.1614331901, -0.1967547536, 0.1085800827, 0.0099474788, -0.1713281572, -0.0349265933, -0.1580587327, -0.0134223402, -0.1268889010, -0.0272006392, 0.0517058074, 0.0707002580, -0.0472020358, -0.0683047771, 0.0666269660, 0.0012337267, 0.1978390217, 0.1685774326, 0.0937682688, 0.1021435857, -0.1766422987, 0.1285056174, 0.0278677493, 0.2131409347, -0.0197218806, -0.0183848143, 0.1801211238, -0.2011249512, -0.1342885196, -0.1063225642, -0.1096163169, -0.0815093517, 0.1041289568, 0.1356954575, 0.0624127984, -0.1830896437, -0.1202615499, 0.0235555023, 0.1180990338, 0.0151791573, -0.1735906005, -0.0099890083, 0.1042123735, -0.1211249679, -0.0183042437, 0.0646506846, -0.1295357645, -0.2120593637, -0.0708652437, 0.1243365109, -0.0544359982, -0.0681137592, -0.0318974257, -0.0399938375, -0.2073388398, 0.1302348375, 0.1618840694, 0.0332589298, 0.1849151850, 0.1767701805, -0.1539921910, 0.0606725514, -0.2084412575, -0.1359802783, -0.1610464752, -0.0460764319, -0.0974373594, -0.0677113235, 0.0968209207, 0.1616028249, 0.0057454854, 0.1070614457, -0.1252095997, 0.1165149510, 0.1797955036, 0.0990042090, -0.0438649803, -0.2108273208, -0.1882810742, 0.0832380652, 0.1381633580, -0.1082440838, -0.2057079226, 0.1687243879, 0.0165371001, -0.0090067983, 0.0030519515, -0.1095453575, 0.0558823049, 0.0032670647, 0.0653376877, -0.0037532598, 0.0686316192, -0.0914803669, 0.1204346418, 0.0681389868, 0.0972673297, 0.1868832707, -0.1156612411, 0.0290973932, 0.1910237670, 0.0628211200, 0.0652168095, -0.1818069816, 0.0808030069, -0.2054787725, 0.1728060246, 0.1067647040, -0.0791605115, -0.1227906942, 0.2060981393, 0.0920174122, 0.0442633331, -0.0913680345, 0.0774338245, -0.1595715582, 0.0464090705, 0.0904039145, 0.0160845071, -0.0072901845, 0.1936618984, 0.1889795959, -0.0602845103, 0.1024118364, -0.0906693637, 0.0332486182, 0.1135805845, -0.0269023627, 0.1737165153, 0.0655167997, 0.2131136060, -0.0408491194, 0.1877136528, 0.1271311045, 0.0442544520, 0.1611259580, 0.1131458282, 0.0869052708, 0.0794386566, -0.1972284913, -0.1239228025, 0.0040045232, -0.0112203807, 0.0104427189, 0.0851106346, 0.1309471428, -0.1934918612, -0.0773466080, 0.1444209814, 0.0258134604, 0.0405142605, -0.2011807114, -0.0524137318, -0.0633147508, 0.0562126935, 0.0138960779, 0.0027410090, -0.0553597510, 0.1429971457, -0.0844705701, -0.1139667407, 0.1930039823, 0.1534200013, 0.0817907155, -0.0481107384, 0.1761950254, -0.0427481681, -0.0800165981, 0.1292200089, -0.0713572800, -0.1633257270, -0.1784992516, 0.2117676437, 0.0497537553, -0.1343480349, 0.1995138526, 0.1230620742, 0.1978739500, 0.0688371956, -0.1255532205, 0.0393286645, 0.1028071940, -0.0379785895, 0.1169190407, -0.1697795391, 0.0002817065, -0.0651353747, -0.0321286619, -0.0973549113, -0.0383515954, -0.0690279007, 0.0932333767, -0.0843957514, 0.1068355143, -0.1142790467, 0.1139979362, -0.2103314102, -0.1968776584, -0.0599546731, 0.0578142405, -0.1474400312, -0.0340850949, -0.1431041956, -0.1225979477, 0.0317832083, 0.2002293169, 0.1547575593, -0.0025028139, 0.0855506361, 0.2077602744, 0.1482928097, 0.1962883770, -0.0263144523, 0.0999545455, -0.1755501330, 0.0907763541, 0.2108449042, 0.1564360857, -0.1490325630, -0.2122148573, 0.1328415275, -0.0560300648, 0.0927752256, -0.1412148029, 0.1037666798, -0.0936286896, 0.1331335306, 0.1564979255, 0.0636173487, 0.1403563321, -0.1232199147, 0.2115045786, 0.1556344926, 0.1365908086, -0.1735243648, 0.0514004230, 0.0813339949, -0.0397134125, 0.0008128434, 0.1764344871, 0.0534341335, -0.0965536609, -0.0563279837, -0.0701866448, 0.1678231657, -0.1305635720, -0.1049790010, 0.1803027987, -0.1480420679, -0.0221689790, 0.0227394551, -0.0514955819, 0.0391811430, -0.0903801844, 0.0161486119, -0.1661705375, 0.0148486495, -0.1189615428, -0.2023089528, 0.1500414014, 0.1575564146, 0.2006876469, -0.1427052170, 0.1038216352, 0.1328781247, -0.0355130285, -0.0493305773, 0.1476909816, -0.1162002012, 0.0018752515, 0.1564856172, 0.1089758575, 0.1843735874, -0.1625342369, 0.2025069296, 0.0816542208, -0.2002037317, 0.1977411807, 0.1830754280, 0.1948248446, 0.0473127961, 0.0856705010, -0.1472903192, 0.0240328014, -0.1473911256, 0.1059477031, -0.1635962129, 0.0690924525, 0.1293298900, 0.0291915834, 0.1522969902, 0.1869597137, 0.0537905991, -0.1628608406, -0.0562254041, -0.0952598080, -0.0580354929, 0.0834422708, -0.0904143378, -0.0870322436, 0.0731475651, 0.1328050792, 0.0595055819, -0.1284235865, 0.0775947571, 0.1282472014, -0.0781846493, -0.1768473983, -0.1059038192, 0.0783807635, 0.0185207874, 0.1210107505, -0.0355900973, -0.1083190590, 0.0551561117, -0.0146243870, -0.1358241141, 0.0594488978, -0.1208960190, 0.1518229246, -0.1121866331, -0.1449517012, -0.1512638927, -0.2059335560, -0.0745748878, 0.1951863468, 0.1911711693, -0.1959552318, 0.0085752457, 0.1613205969, -0.1183672324, -0.1731554866, -0.0484661460, 0.0297663808, 0.0933525264, -0.0036646575, -0.1410296857, 0.2080911398, -0.0710754842, -0.1831357479, -0.1716746837, 0.1974130571, -0.0352466851, 0.1570383608, -0.1903720498, -0.1753707528, -0.1628082246, -0.1246879175, -0.0627532750, 0.1821535826, -0.1860825270, 0.1057403088, 0.1573023498, -0.1415687501, -0.1320505738, 0.1899049580, -0.0032659471, 0.1987372637, -0.0291750133, -0.0125812888, 0.1250814497, 0.1543976665, 0.1588623226, -0.0772247612, 0.1269832850, 0.0809114277, -0.2079120576, -0.2060230672, 0.1824369133, -0.0100146681, 0.2086891532, 0.1752610207, 0.1876649559, -0.0246680826, -0.0451197475, 0.0043716729, -0.1415401697, -0.1758477986, -0.0596223921, 0.1316759586, -0.0559997708, -0.0688156337, 0.0573354363, 0.0119467080, -0.1301584542, 0.1751771867, 0.1697615385, 0.1741175056, 0.1899056733, -0.1500841081, -0.1966127753, -0.1269682944, 0.0956632495, -0.0649770349, 0.0084272772, 0.2049444020, -0.1740206331, 0.1296412945, 0.1302121878, 0.0303550661, 0.1835718751, -0.0123747587, -0.0687476248, -0.0049850494, 0.1179048121, 0.1232193112, 0.1716808677, 0.1933630109, 0.0383467674, 0.1538934708, 0.0399881005, -0.0753969848, 0.1629869342, 0.1576235592, -0.2061833888, -0.1943323910, -0.1071545705, -0.1535230726, -0.1996119171, 0.1132124662, 0.2103752792, -0.1986448467, -0.1092130244, -0.0629687458, 0.0168035626, -0.0435729027, 0.0788228810, 0.1089095175, 0.0574910045, -0.0307945460, -0.0557697564, -0.1573819667, 0.0387057960, -0.1841708720, 0.0259755105, 0.1528935432, 0.0440687537, -0.1419970393, -0.0956466347, -0.1713100672, -0.1513942778, -0.1747036427, -0.0862678587, -0.1714905649, -0.0699100792, 0.1882464886, 0.1420514286, -0.0752908885, 0.1676419377, 0.1588957012, -0.1760142744, -0.1110270768, 0.1897342205, -0.2016245723, 0.1889849305, 0.0963345766, 0.1372450590, -0.0214768201, -0.0735859275, 0.0885555148, 0.1388621330, -0.0230655819, 0.1722593904, 0.2026747465, -0.1153706908, 0.0849388838, 0.1582046151, -0.1976340264, 0.0836519301, 0.1209901571, -0.1021070480, -0.1253621280, 0.0024885833, -0.1998213828, 0.1640697122, -0.0472567230, -0.2121480554, -0.0621883422, 0.0732249320, -0.1825171858, -0.1615246385, -0.0747048706, -0.0765175521, 0.1380745769, 0.1035941541, 0.0566515625, -0.1656499356, -0.0494195819, 0.0154630542, -0.0155421346, 0.0999943018, -0.0983497724, -0.0023596287, -0.0089180022, 0.0952349901, 0.2121636569, 0.1911831498, -0.1771416515, 0.1345708370, 0.0569574237, 0.0976062715, 0.0373338163, 0.1374650598, 0.1132061481, 0.0398771465, -0.1904560328, -0.0199830383, 0.1737166047, 0.0579673350, -0.1397959590, 0.0845487416, 0.0635729134, -0.1875258237, 0.0082111955, -0.0156118274, -0.0246786624, 0.0612721145, -0.1228818372, -0.0824263990, 0.0642475486, -0.0011276305, -0.1635920405, 0.0701577365, -0.1154046953, 0.0584930182, 0.2104386091, 0.1489616632, -0.1016275138, -0.1633670628, 0.0255742520, 0.1254868209, -0.0513779521, -0.1428818554, -0.1509671360, 0.0329130292, -0.1813355684, 0.0400531590, 0.0307151526, 0.1701872051, 0.1005813181, 0.1923497319, -0.0850675851, 0.1909916401, 0.1995913386, -0.2029951215, 0.1294534206, 0.1793923080, 0.1737214327, -0.1812362373, -0.0247590691, -0.1586031765, -0.1100956500, -0.1073428467, -0.1396663934, 0.1241170764, 0.1778326631, -0.1573841572, -0.2054813653, -0.0386196226, -0.0788801759, -0.1261099130, 0.0681798458, -0.1681665778, -0.1431814581, -0.0348086655, 0.1602859497, -0.0285475105, -0.0923261940, -0.0164624304, -0.0991970226, -0.0123434514, 0.0399152040, -0.1202259138, -0.0785073340, 0.1368511617, -0.1663074791, 0.1028437316, 0.0936442316, 0.1018613279, -0.0085767657, -0.1116045192, 0.1987394094, 0.0133036524, -0.0635730773, 0.0212164521, 0.1224555671, -0.2004901171, 0.0609331131, -0.0939833373, -0.1074724123, -0.0456439555, -0.1393577456, 0.2108364701, -0.1564366072, 0.1102900207, -0.1210132912, 0.2025828958, -0.0019102842, -0.1822917014, 0.0851008594, 0.1891973019, -0.0883233026, 0.0805514455, -0.1029163301, -0.0362101346, -0.1989262998, 0.1424619555, 0.1177086234, -0.0348578691, 0.0526777506, 0.0025217235, -0.1254328489, -0.2027739584, 0.1317826509, -0.2042178661, -0.1840894967, 0.0762514472, 0.2096597254, -0.1821867377, -0.1721322089, 0.1988409162, -0.0269709826, -0.0497884154, 0.1787462831, 0.0205632746, -0.0181038231, -0.0163949877, 0.0733549595, 0.0962017179, 0.0804091096, 0.1289397180, -0.1992752105, -0.0732874870, -0.1382424533, -0.1074526906, 0.0234863609, -0.1498726010, 0.1014916301, -0.1051092297, 0.0120407492, -0.0532581955, -0.1761582792, -0.1231599301, 0.1514270604, -0.0693330914, -0.0399371088, -0.1808742732, 0.0967165828, 0.0503450036, 0.0447240770, -0.0834280699, -0.1418748945, 0.1757943928, -0.0100928098, -0.1883556843, -0.1606097370, -0.0556207746, 0.0232119858, -0.0959400758, -0.0751698166, 0.0568815768, 0.1121352017, -0.1729973555, -0.2019679844, -0.0289052129, -0.0151661485, -0.1674913317, 0.1589995623, 0.0899834037, 0.1433444321, -0.0225699395, 0.1180243194, 0.2110497952, 0.0646307766, 0.1859165132, -0.0485507846, 0.1991371512, 0.0911098719, 0.2106680572, -0.1714508235, -0.1939509660, 0.0791778266, -0.0754837543, -0.0327089429, 0.1121619940, 0.2039345801, -0.1273471415, -0.2015063763, -0.0674412698, -0.0352532864, 0.0634191632, 0.0450389683, 0.0261033475, 0.0950153172, -0.1664189100, 0.1172609031, -0.1009978130, 0.1553344429, 0.0687726438, -0.0394574255, -0.1875092536, 0.1070518792, 0.1996398270, -0.0200542510, -0.0682562441, -0.0071145147, -0.1617317200, -0.0876040459, -0.1677239388, 0.1637404561, -0.1399584115, 0.1566878259, -0.1262205243, -0.2000394017, -0.0376290232, 0.1243444383, 0.1360243857, 0.1490159035, -0.1438673735, -0.1607309133, -0.0636731088, -0.0899126381, 0.0921191573, -0.0427442491, 0.0562658012, 0.0478655696, 0.0427762866, 0.0448572934, 0.0992826223, 0.1593501866, 0.0214248151, -0.0314345062, 0.0521414280, -0.0732607543, -0.1107577235, -0.0309938043, 0.1126447618, -0.1880721003, -0.1696287394, -0.0810296685, 0.1370448172, 0.0319990814, 0.0231824517, -0.0773761868, 0.1445294023, -0.0761980265, -0.1314511299, 0.1056902707, 0.0578934848, 0.0492510796, 0.2056159675, 0.1874613762, 0.1695712507, -0.1180968583, -0.1972379982, -0.0108184218, -0.0791732669, 0.1048881114, 0.1979803443, 0.2024841607, 0.1388750672, 0.1141068339, 0.1264521480, -0.1981775612, -0.0573552251, 0.0723751187, -0.1998384148, -0.1825031638, 0.1997896731, 0.0256707221, 0.1526589394, -0.0417924523, -0.1898938417, -0.2010440826, 0.1861183643, -0.1606833935, -0.2109050304, -0.0684543848, -0.1897711307, -0.0417264700, -0.0888886005, -0.1028481126, 0.1220721900, 0.0838447511, -0.1525900662, 0.0044677407, -0.1151472405, 0.0706208050, -0.1393886507, -0.1777141094, -0.1873037368, -0.1871229857, 0.0860051513, 0.1032820046, 0.0603369176, 0.0606627464, -0.0815231800, 0.1486389339, -0.1946210712, -0.0372415483, 0.0269194990, -0.1937365085, 0.0906293988, 0.0503427684, 0.0503278971, 0.2001654506, -0.1801522225, 0.0419180095, 0.1578094661, -0.0037205815, -0.0345633030, -0.0801014453, -0.0104420632, 0.1217197776, 0.1103863418, -0.1894428581, 0.0520878136, -0.1004308462, 0.0276933908, 0.0552809536, -0.1131219789, 0.1236320138, 0.0618739426, 0.1961426437, 0.1427689195, -0.0817000270, 0.0674391389, 0.0967779160, -0.0040636808, -0.1892023832, 0.1024222970, 0.1905990243, 0.0761097372, 0.1403602958, 0.2085951269, -0.1978327781, -0.1386842430, 0.0716426373, -0.1514661461, 0.1604115963, 0.1293117702, 0.0809597671, 0.1760691106, -0.1881445944, -0.2093095034, 0.0757643282, 0.0491489172, 0.0915529430, -0.1682676375, 0.0580054522, 0.0966015458, 0.1935326159, 0.2076593339, 0.1939801872, 0.1266939640, 0.0558563173, -0.1001905203, -0.2072352469, 0.0404997170, -0.0043535680, -0.0369075388, 0.0924699605, 0.1955164075, 0.0661515296, -0.1610964835, 0.1529740095, -0.0638748109, -0.0208785385, -0.0419577509, 0.1858939528, -0.1960482001, -0.0744788647, 0.0906780958, -0.0887935981, 0.0468099117, -0.0935182869, 0.0357558578, 0.1774282455, 0.1700491011, -0.0210153759, -0.1612454206, 0.1797387004, -0.1056237966, 0.0738513470, 0.1883957982, -0.0871931314, 0.1078689396, -0.0225079209, 0.1023400724, 0.0868689418, -0.1747629195, -0.0368673801, 0.0986522734, 0.2037334442, -0.1426269412, -0.0711795837, 0.1987050474, 0.1878060997, 0.1339875460, -0.0994506180, 0.0646777451, 0.1630476415, 0.2040054798, -0.1387091875, -0.0780089796, 0.1923853159, -0.0326879025, -0.0326911509, 0.0727188587, 0.1397978961, -0.0133277923, -0.0764702260, 0.2108619809, -0.0837472975, -0.0571934283, -0.1908024848, -0.0166734308, 0.2078124285, -0.1086236387, 0.2005369365, 0.1395209134, 0.1248455942, 0.0990054011, -0.1519040614, 0.2061503530, 0.1659146547, -0.1723120511, 0.1742579043, 0.0923238099, -0.2108805329, 0.1853901148, -0.1210635602, -0.1610381305, 0.2092482150, 0.1099981070, -0.1123044118, 0.1142407656, 0.0639456213, -0.1164770797, -0.1839908361, -0.0080247372, -0.1194459125, 0.0586822033, 0.1616915762, -0.0002340227, 0.0028121769, -0.1835221648, 0.1208060980, -0.2078100890, 0.0155630857, 0.2087851763, -0.0807315856, -0.1970693469, -0.0661643893, 0.0090000927, 0.1261626780, -0.1204295978, 0.0437651873, -0.1915783733, -0.1516554952, 0.0651507080, 0.1397578418, -0.1196567118, -0.0727079660, -0.1299479604, 0.0757280290, -0.0095487535, -0.1183249354, -0.0271632820, 0.1173901558, 0.1588713527, 0.0924242437, -0.2049111426, -0.1289208233, 0.1828841865, -0.0855947435, -0.0643326938, -0.0527134836, 0.1769357920, 0.0774650872, 0.1172084808, -0.0975405425, 0.0255076140, 0.1517721117, 0.1112448871, -0.0195154548, 0.0205666870, -0.0908947960, 0.0713352263, 0.0169820338, -0.0227927715, 0.0229648352, 0.1850242615, 0.0407651067, 0.1555531621, -0.0662065744, -0.1438441426, -0.1127760187, -0.1377274990, 0.2091112137, -0.0072878450, -0.1981091946, -0.0098019540, -0.1877576113, 0.1508529782, -0.0234492570, 0.0491071939, 0.0448753834, -0.0734052658, -0.0165965855, 0.1248821020, 0.0734958947, 0.1669113934, -0.0577529222, 0.2000485361, -0.1228384748, -0.1255454868, -0.1971827000, -0.1230085567, 0.1180750430, -0.0093547851, -0.0230401754, -0.0049679726, 0.2042787969, -0.1283455640, -0.1552554518, -0.0012578666, -0.1631354690, -0.1329830885, 0.0765587687, -0.0761249810, 0.1577172577, 0.0429348648, 0.1620784402, 0.0867160857, 0.1138004661, 0.0462742150, -0.1812913418, -0.0250388533, -0.0280440748, 0.0066502243, -0.1858594716, -0.0276051015, 0.1421964169, 0.0813965499, 0.1068108976, 0.0059656799, -0.1877613217, 0.0368406475, -0.0483537614, 0.1361891031, -0.1244090050, 0.0797127783, -0.1442604959, 0.1093797982, 0.1205075085, 0.0501118004, -0.0564092100, -0.1988244951, 0.2009366155, -0.1583352536, -0.0167462230, 0.0865212083, -0.2071752548, -0.1965620518, -0.1771773398, -0.1335911155, 0.0192012042, 0.1224520504, -0.1708127856, 0.0516567528, 0.1172842681, 0.1654311419, 0.1693318784, 0.1837634742, -0.0850449055, 0.0907040834, 0.0058849603, -0.0235214978, 0.0194096118, -0.1881018877, 0.2034058869, -0.1333278120, -0.1030089483, -0.1997814327, 0.0269460827, -0.0611050725, 0.0560825169, 0.1283653378, -0.1056428030, 0.1983804405, 0.0421571434, -0.0861751437, 0.0508041084, -0.2116856426, -0.0863313377, 0.0239236653, 0.0539779663, 0.0233431309, 0.1606138051, -0.0920646712, 0.1922321022, -0.0452404171, -0.1105760559, 0.2106334865, -0.1054409519, -0.0556141138, -0.1781117618, 0.1360196769, 0.1802893281, -0.0936985314, 0.1165351272, 0.0552333295, -0.0636999011, 0.1994484961, 0.0636085570, -0.0902845711, -0.0198717266, 0.1379822493, -0.0663420409, 0.1304030120, 0.1364517808, -0.1937849969, -0.1414416730, -0.0128650218, 0.1679543555, 0.0158417374, -0.1752573997, 0.0270776749, 0.1726594865, 0.0408231914, 0.2081383169, -0.1346630901, 0.0387143195, -0.1806079745, 0.1326352954, -0.0630900264, -0.0658071935, -0.1518288255, 0.1277736127, -0.0592663139, -0.0034587383, -0.1979734749, 0.1719286740, 0.0123056769, -0.1612582803, 0.2065779865, -0.0637299865, -0.1479045153, -0.0260363519, -0.2057416737, -0.0346208513, 0.2064574659, -0.0264683217, -0.0883198008, 0.1408757567, 0.1289643645, 0.1855285168, -0.1804073453, -0.0537951142, 0.0668195486, -0.1226902008, 0.0524666011, -0.1067594588, 0.1907449961, -0.0393671393, 0.1491917074, -0.1861257851, 0.1008849740, 0.2036682665, 0.1965058446, 0.0960520506, -0.0340944976, -0.0966986790, 0.0040719211, 0.0189812630, -0.1239445582, 0.1392132342, 0.2128939629, -0.2059993297, 0.0990686119, 0.0473121703, 0.0808303058, 0.2105965018, -0.1099056453, -0.1748321503, 0.0744347870, -0.1461552233, 0.1689332724, 0.0095289350, -0.1977693886, 0.0245501548, -0.1985494345, 0.0792918503, -0.0335043967, -0.0181492567, 0.0773982406, -0.1040530652, 0.0992784202, 0.0055586696, 0.1237892807, -0.1484608054, 0.0555051267, -0.1437306851, -0.0632395744, -0.1463977993, 0.1064682007, -0.0560435802, 0.0960682333, 0.0719676018, 0.0245992690, -0.0462644100, -0.0785900801, -0.0558394939, 0.1865259707, -0.0731129944, 0.1052559912, -0.0146709979, -0.1061939150, 0.0801361501, 0.0586482584, 0.1610437334, 0.1619606316, 0.0940272212, -0.0385499299, -0.0123391300, 0.1672401428, 0.1551659405, 0.0083943903, -0.1835677177, -0.0897399187, 0.1685397923, -0.1080016717, -0.0534483045, 0.1901096106, 0.1756649613, 0.0774500966, -0.1757703424, -0.1224443838, 0.0554220080, -0.0717803538, -0.0245188475, -0.0113737881, -0.0852353275, 0.0548189580, -0.0362652838, 0.0551236272, 0.1079287827, -0.0623466223, -0.0302456766, 0.0536195636, 0.1808533370, -0.0254818946, -0.1045151204, -0.0699811429, 0.2028083801, 0.1999809444, -0.0528029501, 0.1118593216, -0.1497626901, -0.1521579623, -0.1569841057, -0.0230683386, 0.1878478229, 0.0261472762, -0.1194706187, 0.0159520358, -0.0970126167, -0.1212493479, 0.0610946119, -0.0846420228, 0.1101294160, 0.1159366071, 0.0047756732, 0.1573970020, -0.1000526622, 0.2035552263, -0.1226661578, 0.0103985518, -0.0672702640, -0.1391693056, -0.2008733302, -0.1600718349, 0.1714603305, 0.0079642981, 0.1395266652, 0.1262914836, 0.1683962941, 0.0637745559, -0.1979252845, 0.0519728661, 0.1328639686, 0.1291106045, -0.0457876623, 0.2084420621, -0.1958028972, 0.1884651780, 0.0992593467, -0.1925799996, -0.1031548306, -0.1922521442, 0.0982190967, 0.1479490399, 0.1115373671, 0.0264677554, -0.0409521610, 0.0600257218, -0.1780522466, -0.1126354262, -0.1716191769, 0.1830831766, 0.1652213633, 0.0296512991, 0.0466898978, -0.0095825642, -0.0639636666, 0.0170907527, 0.0081479102, -0.2096172273, 0.1619519293, 0.0312604159, 0.0397034287, -0.0002698153, 0.1978329420, -0.0121454597, -0.0094526857, -0.0237273574, -0.0867079943, -0.0049833208, 0.1319896877, -0.1144113541, -0.1337009668, -0.1686180532, 0.1296547651, -0.0601793379, 0.1494078338, 0.0722094178, -0.1717362851, -0.1255957484, -0.1145360470, 0.0237909406, 0.1043739021, -0.1544477940, 0.0790340304, 0.0052815527, 0.2102528811, -0.0860441923, -0.0234307647, 0.1603132486, -0.0272525847, -0.1651003957, 0.1738359630, 0.2106792033, -0.0349970013, -0.0303519666, -0.0339978188, -0.1489456892, 0.2005601525, 0.2035722435, -0.1253810525, 0.1512997746, -0.0325741917, 0.0651094317, 0.0496669710, 0.2097713053, -0.0383381248, 0.0771798193, -0.1760617495, -0.1120572239, 0.1996681392, 0.0647082925, 0.1044281423, -0.0954377651, 0.1633413434, 0.1215559542, 0.0402642190, -0.0182905793, -0.1975707412, -0.0008970201, 0.0971205235, 0.1578942835, 0.2023544014, 0.1381759346, -0.0625620037, 0.1514950693, -0.0718256980, 0.0118870884, 0.1327362955, -0.1062853113, -0.1607363075, 0.0596870482, -0.1901426464, -0.1708513647, 0.1650001109, -0.0033199787, -0.0126292259, -0.0357793868, -0.1835055500, 0.0603061020, 0.1106692255, 0.1907842457, 0.1198039055, 0.1926206648, 0.1565317512, -0.0759528726, -0.1948379129, 0.1923233569, 0.1007493138, -0.1178143397, -0.1323398054, -0.1422309130, 0.0485868156, 0.1440326869, -0.0591032505, -0.1091527343, -0.1529152989, -0.1697878242, 0.0034380555, 0.1017098427, -0.0187026113, 0.1979413629, -0.0882942304, 0.1439684331, 0.1196214259, 0.0762318671, 0.1660355330, 0.1309429705, -0.0918098018, 0.1929387152, -0.1887128353, 0.0244574398, 0.1828245223, -0.1637505293, -0.1873486191, 0.1972919405, 0.1629608572, 0.0894708633, 0.1667929590, -0.1097143143, -0.0912832469, 0.0267206430, 0.1277072132, -0.1347484887, 0.0236548781, -0.0652003288, 0.1869010031, 0.1981157362, -0.1759383380, -0.1731866002, -0.0478647649, -0.1857491732, 0.2028805614, -0.1692140549, -0.0875881314, 0.1166424751, 0.0468351245, 0.1045762599, -0.1714083254, -0.0320059508, -0.1707411706, -0.0123952925, -0.0141666979, -0.2018545270, -0.1669420600, 0.2041317523, 0.0571704507, -0.0365011841, 0.1836222410, 0.1290774643, -0.1669084132, 0.1796984971, -0.0079360455, -0.0760267824, 0.1283863783, -0.2096923590, 0.0941240489, 0.1281087399, 0.0895640850, -0.0796302855, 0.1376777291, 0.1197003126, -0.1719098240, -0.1797896028, 0.0218136162, -0.0866396874, 0.1352225840, 0.0674757659, -0.1355925798, 0.0684938729, 0.1475597322, -0.0109589696, -0.0492037535, -0.1614322811, -0.1336855143, -0.1066660807, -0.0386074781, 0.0495053530, -0.0099364519, -0.1896707416, -0.1004594117, 0.1207754016, 0.0203200579, 0.2052307129, 0.0189252049, 0.0103460997, 0.0420710444, 0.1399002075, 0.1172848344, 0.1661094427, 0.2017557025, 0.0436914265, 0.0643244088, 0.2057434618, -0.0191677213, 0.0682848096, -0.1417491883, -0.0031131506, 0.0148516595, 0.0932514668, 0.2116248608, 0.0039765537, -0.1724414676, -0.1691936702, -0.1404601634, 0.1984391510, -0.0478304625, -0.1642811000, -0.1889132559, -0.1716609597, 0.1156466007, -0.0588394850, -0.1020036116, -0.2036255300, 0.2080315650, -0.1140736863, -0.0345724076, -0.1933063716, 0.1139229834, -0.0723220110, 0.1774840653, 0.1098777950, -0.0612724572, 0.0664094985, 0.1506472230, 0.1241123080, -0.0973965377, -0.1720945984, -0.1503418088, -0.0343479365, 0.0694606900, 0.1561326385, 0.2117401958, 0.0380726457, 0.2029472291, -0.1956074983, -0.0692329109, 0.0057167560, -0.1098129302, -0.1614622772, 0.0239131898, 0.0408787131, -0.0020718277, 0.0050014704, -0.1183702797, -0.0678333789, 0.0211721361, 0.1196450591, 0.0897656381, 0.0394547284, -0.0488569885, -0.0839669853, 0.0309076458, 0.1004701257, 0.0947154164, 0.0654139221, 0.0823945701, 0.1146301925, 0.0400183797, 0.0202626586, -0.1072974056, 0.2105867267, 0.1104008853, -0.0037561506, -0.0927053988, 0.0944980979, 0.1367858946, -0.0674200207, 0.1487843692, -0.0806787759, 0.1989254355, -0.0481174439, -0.1338374913, -0.2081667781, 0.1005316079, -0.1840391755, -0.0350880921, -0.0890243649, -0.0245165527, 0.1492657661, 0.1713838875, 0.0965442955, -0.2071402371, 0.1704485714, 0.1327006221, 0.0831274092, -0.0848695487, 0.1644728780, -0.0411594957, 0.0764342844, 0.1126935780, -0.2038380504, 0.0191847980, -0.0076710582, -0.0816929638, 0.1799655855, -0.0389810801, -0.0568400472, -0.1133250967, 0.0734277964, -0.0255433023, -0.1542529613, 0.1426350176, 0.0768330693, -0.1914806813, -0.1565151960, 0.1419842839, 0.0423746705, 0.1880020499, -0.1642536521, 0.0382031202, -0.0196413547, -0.1266663671, -0.1905800104, 0.0546536446, 0.2114781141};
#endif

#endif
