//Numpy array shape [8, 16]
//Min -0.480692863464
//Max 0.495215654373
//Number of zeros 0

#ifndef W12_H_
#define W12_H_

#ifndef __SYNTHESIS__
model_default_t w12[128];
#else
model_default_t w12[128] = {0.1477898359, 0.4952156544, 0.3944464922, 0.4225765467, 0.2794018984, -0.0216857195, -0.1972308159, 0.1788313389, 0.1640907526, 0.3889473677, 0.3247734308, 0.2014056444, -0.4658943415, -0.3161069155, 0.4695022106, 0.1043509245, 0.0221303701, -0.1959202290, 0.2448604107, 0.2785365582, -0.3822860718, 0.1693160534, -0.3540269136, -0.4205923080, 0.3187781572, 0.3717385530, 0.2829113007, -0.0232406855, 0.1531893015, 0.2827247381, 0.1533958912, -0.0450469255, 0.3184996843, -0.0664938688, 0.2910288572, -0.1909788847, -0.4500772953, -0.1554331779, -0.0992311239, -0.3949055672, 0.0626883507, -0.0645360947, -0.3822441101, 0.0383373499, 0.0541621447, -0.1336148977, 0.3148654699, 0.0333626270, 0.0185136795, 0.3815641403, -0.3996367455, 0.2219368219, 0.3179978132, -0.4682586193, -0.0217100382, -0.3626617193, 0.3670767546, 0.1957361698, 0.4628517628, 0.2321323156, -0.1485828161, -0.0973768234, -0.4806928635, -0.1574252844, 0.1427212954, 0.0997258425, 0.2063459158, 0.2289910316, -0.1433973312, -0.2993348837, -0.1059596539, 0.0014984608, 0.3032010794, -0.1215887070, 0.3200181723, 0.4288203716, 0.3720196486, -0.4425222874, 0.1050065756, -0.3841481209, -0.3192069530, -0.4253743887, 0.4487696886, 0.2635805607, -0.4086583853, -0.0825183392, 0.1013934612, -0.4763438702, -0.1121723652, 0.1690760851, 0.4696218967, -0.0729339123, -0.1184480190, 0.1779327393, -0.0095553398, 0.3437156677, 0.0848984718, 0.1454271078, 0.1477019787, -0.4241541624, -0.2439939976, 0.2466188669, -0.2994021177, 0.1543548107, -0.2347046137, -0.0335321426, -0.2107672691, -0.4261676073, 0.1881917715, -0.2392357588, -0.3069769144, 0.1581010818, 0.2458853722, 0.1622809172, -0.3723568916, 0.2304996252, -0.0318996906, 0.4686102867, -0.2785844803, 0.0956397057, -0.1355977058, 0.1390434504, 0.3800611496, 0.4604412317, 0.3888586760, -0.3106181622, -0.1716667414, -0.4339956045};
#endif

#endif
