//Numpy array shape [100, 32]
//Min -0.213195428252
//Max 0.213079929352
//Number of zeros 0

#ifndef W2_H_
#define W2_H_

#ifndef __SYNTHESIS__
model_default_t w2[3200];
#else
model_default_t w2[3200] = {-0.0747238696, 0.0702665448, -0.2050665915, -0.1304139793, 0.1610298455, -0.1810131520, -0.0231247544, -0.0361172110, 0.0461444557, 0.0359051973, 0.0760371387, -0.2113457471, 0.0999777019, 0.0359689891, -0.1927438825, 0.0936444104, -0.1948066503, 0.0397396982, 0.0563738942, -0.1845022887, 0.1011802554, -0.1888832152, -0.1760497987, -0.1750413775, 0.1093027294, 0.0974972248, -0.1233510599, -0.0611993670, -0.1355045438, 0.1683713198, 0.1798975170, 0.0213785619, -0.0560328066, -0.1530482173, 0.0548693240, 0.0343294889, -0.0711358637, 0.0912140608, 0.1809859574, 0.1149189472, 0.1054931581, -0.0636578053, -0.0942127407, 0.1773730516, 0.2120944262, 0.0772497058, 0.0976216793, 0.1192027032, 0.1474955380, 0.1808525324, -0.1679046899, 0.0302044004, -0.1142014265, 0.0415002108, 0.0487659574, -0.0340339541, 0.1995163858, 0.0966926217, 0.1879581511, -0.1030610502, -0.1011514291, -0.1468277574, 0.1659207642, -0.1842445284, 0.0208937377, -0.2034995109, 0.1920813918, 0.1997976005, 0.1374559999, -0.1527216285, -0.0834722519, 0.0123545229, 0.0552387834, 0.0926317871, 0.1921240985, -0.1326754987, -0.1813822836, -0.0326681733, 0.0065337121, -0.1843209714, 0.0786501765, -0.0897448957, 0.1941747069, 0.1248153448, 0.1492989063, 0.1165934801, 0.1772582233, 0.1636407971, 0.0535315573, 0.1117191911, 0.0433555543, 0.0710774064, 0.1352140903, 0.0605131090, -0.0881200880, -0.0305309892, 0.0763566196, 0.0928750336, -0.1551524103, -0.0275730342, 0.1828040183, 0.1478491127, -0.0047877729, 0.1009497941, 0.0961081386, 0.0965725780, 0.0553318560, 0.0013379157, 0.0985064209, -0.0789774209, 0.0182258189, 0.1944918633, 0.1619832516, -0.0111588240, 0.0247146487, 0.2024116218, -0.0613928288, -0.1978193074, -0.1667818874, 0.0785077810, 0.1043009162, -0.1804296076, 0.0209509730, 0.0505620539, 0.0428503454, -0.1396937966, -0.0319835395, -0.0479197204, 0.1023346782, -0.1610890180, 0.1083749235, -0.1606936604, -0.0941008106, 0.0156576782, -0.1311611831, 0.0280482024, -0.0584021956, -0.1437120289, -0.0527850091, 0.0450398922, 0.1743397117, -0.1097086221, -0.1784005910, -0.1217441857, 0.0298525393, 0.0874874890, -0.1523758769, 0.1969851255, 0.0338514149, 0.1471830904, -0.1563977748, 0.0323705077, 0.0171378851, 0.0746625364, 0.0708424747, 0.0754641891, -0.2068636715, 0.1751983464, 0.1664066911, -0.1142128110, 0.0260509402, 0.1997905970, 0.1474956870, 0.0921829641, -0.2072199881, -0.0147853196, -0.1459300816, -0.0892340988, -0.0889594033, -0.0213264525, 0.2104727328, -0.1749198288, -0.0741588920, -0.0848147422, 0.1499308944, -0.0320727378, -0.1704946905, 0.1370982528, -0.1597510427, 0.0103891939, 0.1807686388, -0.1413751245, -0.0901559144, -0.1192921996, 0.1687165797, -0.2074870616, -0.1928701401, -0.0669201016, 0.1421534419, -0.1442528218, 0.0908613503, -0.0952229574, 0.2038098872, -0.0267766118, 0.0151951164, 0.1892472506, 0.2125876546, -0.1569796354, -0.2104967088, 0.0884851515, -0.1223398298, 0.2005375922, -0.1431695074, -0.2004103661, -0.0165345669, 0.1019257307, -0.1666406840, 0.1041443050, 0.1377868652, 0.0636464655, -0.0799396485, 0.0861123502, 0.1729778945, 0.1917064190, -0.1925877780, -0.0982609242, 0.0424757600, -0.1279396266, -0.1854511499, 0.1656659544, 0.1626098752, -0.1451410949, 0.1050138772, 0.0140170008, -0.0016366541, -0.1785351932, -0.0096530616, -0.1227467284, 0.2013838887, -0.0196719617, 0.1457566619, 0.0698645711, -0.0506878197, -0.0471427590, 0.2125827074, 0.0489243269, 0.0402944684, -0.0839135051, -0.0288685113, -0.1964230835, -0.0570136905, -0.0616854131, -0.1989611685, 0.1908734441, -0.1933027208, 0.1848526597, -0.0239524394, -0.0085199922, 0.1121234000, -0.1739788949, -0.1694386750, 0.0083744079, 0.1795202494, -0.0554620773, -0.0602274835, 0.1674101651, -0.0737326741, 0.1095213592, -0.0379525721, -0.0252632648, 0.0479144752, 0.0578884780, -0.1163546816, 0.2028668225, -0.0403439105, -0.0248067081, -0.1026851013, -0.0549643934, -0.1903476566, -0.0831966400, -0.0815107822, 0.1428983808, 0.1499240398, 0.1336150169, 0.0306331515, -0.1386979073, 0.0693302453, -0.1745532900, -0.0618710965, -0.0677071065, 0.1083213389, -0.1957625747, -0.0262940675, 0.0788343847, 0.0354494005, 0.0325540155, 0.0333747715, 0.1720476747, -0.0050642937, 0.0154831707, -0.1973226815, 0.1037870646, -0.0082861632, 0.0791448057, -0.1626487225, -0.1265460849, 0.1839307547, -0.1693492085, 0.1280570030, -0.1016471311, 0.0476514399, 0.0513041019, 0.0320510864, -0.0869730860, 0.0718724132, -0.0137081146, -0.1089694872, 0.0720199347, 0.1315560937, 0.0817287564, 0.0773424208, -0.0913953781, 0.1013099253, -0.1286484152, -0.0467070341, 0.0211089551, 0.0025796741, 0.2097119689, -0.1783920527, -0.1623266935, 0.1405432224, 0.0569670200, 0.1915337443, 0.1316097677, -0.1873059273, -0.1660270989, -0.0686397552, -0.1768479049, -0.1941861510, -0.1430532634, -0.1345467418, -0.0608831942, 0.1528359950, -0.1801085621, -0.1618970335, -0.0384509116, 0.1670229435, -0.0734604150, -0.1029334590, -0.0753931701, 0.0075235516, 0.0085687339, -0.1843736917, 0.0329272598, 0.1680009067, 0.1883189380, 0.0350664407, 0.1527980864, 0.1766326427, -0.2059459686, 0.0709660947, 0.0986067653, -0.1684172153, 0.2084665298, 0.1004770994, -0.0400849879, 0.1573551893, 0.2078708708, 0.2048985958, 0.1998811662, -0.1924828142, -0.1506332308, -0.0651212335, 0.0612077713, -0.1890182197, 0.1755529344, 0.0698769987, -0.0095744282, 0.0152651668, -0.0292068422, -0.1200814024, 0.0461067855, 0.0474772453, 0.0015643686, 0.0931799114, -0.1282588840, 0.0867186785, -0.1885387897, 0.0013438165, 0.1249091327, 0.0619903505, 0.0521927774, -0.1607024521, 0.0634821951, 0.0705485642, -0.1398805380, 0.2093632817, 0.1580654383, 0.0336693376, -0.1646576077, 0.1115638614, 0.1249285936, -0.1532698274, -0.1884149611, 0.0932014585, 0.0517255962, 0.0089468211, -0.1837435812, 0.1259187460, -0.0921760425, 0.1063024402, 0.1357710660, 0.1838632524, 0.0786914527, 0.0544321239, 0.0473594069, -0.0513110608, 0.1398054659, -0.1390701830, -0.1819920540, 0.0718535483, 0.0709967315, -0.1687692255, -0.0864441842, 0.0273480564, -0.1973255873, 0.0981178880, -0.1333549023, 0.1491134763, -0.0804392695, -0.1057778150, 0.0567161739, -0.1458514035, -0.0863720030, 0.0843233168, -0.0496387184, 0.1119783819, 0.1851776242, 0.1442417502, 0.2072727978, 0.1606869400, -0.1883433908, 0.1129450798, 0.1143928468, -0.1908319741, -0.0253121704, 0.0722504854, 0.1173419654, -0.0715675205, 0.1647857428, 0.1161437929, 0.0974222124, -0.1756055355, -0.0168303549, -0.0217503905, -0.1586980820, -0.1896074563, -0.0390761346, -0.0023331940, 0.1008508205, 0.0488894582, 0.0642848015, 0.1373653114, -0.1095423549, 0.1388662159, 0.1861095726, -0.0074812621, -0.0166262686, -0.0528066158, -0.1696114987, 0.1061561108, -0.0549411625, -0.1410522461, -0.1265841126, 0.0688604712, 0.1769667864, 0.1361033320, -0.0097976327, 0.0556917787, 0.1916642189, 0.0340525061, -0.0521488637, -0.1872127503, 0.0439819992, -0.1107872576, -0.0538937896, 0.1570566595, -0.0902339444, -0.0609310865, -0.1839942336, 0.1206285357, -0.0781041831, -0.1185983568, 0.0614432991, 0.1199873686, -0.0158654302, 0.0093431026, 0.0897020102, 0.0271121413, -0.1121155247, -0.1972154826, -0.0506454259, 0.0792386234, 0.1528101861, -0.1691373885, -0.1117611304, -0.1237250715, 0.1570326090, 0.0836027861, -0.1249725148, -0.1913276762, 0.1799748838, 0.0317695886, 0.0915957987, -0.0537778884, 0.1019198895, 0.0789291859, -0.0185148865, 0.1365544200, 0.0012650341, 0.2046919167, -0.1252259612, -0.0282614827, -0.0599798858, -0.0252795815, -0.0837962478, -0.0550680757, 0.0649763048, -0.0104622394, 0.1165009737, -0.2109362483, -0.1376764476, 0.2091076672, -0.1718324572, -0.1353810281, -0.1705467850, -0.0097470433, 0.1090845764, 0.1511430740, 0.1596433222, -0.0172036588, -0.1752222180, -0.0907011330, -0.0523476005, -0.0778975636, -0.0292850733, -0.1940959841, -0.0887255818, -0.0513249934, -0.0652970076, -0.0926434845, 0.1552390754, -0.0443678498, 0.1251921058, -0.1626410484, 0.0926787555, 0.1792289913, -0.1946324557, -0.1256407946, -0.0225305408, 0.1979660094, 0.1523216963, -0.0357439667, -0.0577572435, 0.1088013351, 0.0912234187, -0.0291785747, -0.1710796058, -0.2067052275, 0.2029761076, 0.1381095350, -0.1073800027, 0.0964722335, -0.1850559413, -0.1840608269, 0.1598322690, 0.0071673691, -0.2129073739, -0.1250619292, 0.0389801264, 0.0823149681, -0.0658542216, 0.0289013386, 0.2020024061, 0.0472106636, 0.1408573091, 0.1113214791, -0.2086748779, 0.1343995333, 0.0877676606, 0.1859664321, 0.0506578684, 0.1138330102, 0.1881920695, -0.0601821393, 0.1593374908, -0.0242364258, -0.1655089855, 0.1032479107, 0.2029424012, -0.0320668966, -0.0417693704, -0.1471744329, 0.1772362888, -0.1648610830, -0.0230969042, -0.1128182113, 0.0837174952, -0.1439721882, 0.1391288936, -0.1311879307, -0.1222508177, -0.1577120572, 0.2007710040, 0.0791011453, -0.0675868988, -0.0520371348, 0.0969536901, 0.0871776640, -0.1623048484, -0.0280459076, -0.0025532395, -0.1955051720, -0.0410415232, -0.1748048514, -0.0075336695, -0.0997597724, 0.1552977860, 0.0717715621, 0.0068704188, 0.0518671572, -0.0879601240, 0.0918017626, 0.1279027760, 0.1960412264, 0.0597797036, 0.0250352323, -0.0911321789, -0.1874019951, 0.0814309716, 0.0181226730, -0.1598652601, -0.0310108364, 0.0554268360, 0.0855072737, 0.1992585957, -0.1658549309, 0.1668510139, -0.1960341185, 0.0550440252, 0.0207350850, 0.1846005023, 0.0892125368, 0.0696214139, -0.1345083117, 0.0902889371, -0.1219682544, -0.0440082699, 0.1583348811, 0.1831572652, -0.0227335095, 0.2093854845, 0.1487198472, -0.0454178154, -0.1200702712, 0.0506695807, -0.1670876890, 0.0730926692, -0.0377478153, 0.1500038505, 0.2061194479, 0.1362510622, 0.0697242916, 0.0146648437, -0.0070878267, 0.0881031454, -0.1372570097, 0.1414441466, -0.0860091299, -0.2012100369, 0.1995158792, 0.1993721426, 0.2129037678, -0.0387273282, 0.0281131566, 0.1571446359, -0.0163650513, 0.0592943728, 0.1159420907, -0.1847553849, 0.0912800431, -0.1641400456, 0.1106509268, 0.1053180397, -0.1962069422, 0.1062380970, 0.0709238946, -0.0276379883, -0.0647808164, -0.0817310363, 0.1182181835, 0.1167886853, 0.0541085303, 0.1357671916, -0.1107763276, -0.0280494690, 0.1466166675, 0.0162720680, 0.0692138076, 0.0160253942, 0.1892643869, 0.1467187405, -0.1632732302, 0.1803488433, -0.1579830348, -0.1282528043, -0.0057222545, 0.0341107547, 0.0340652168, -0.1217539459, 0.1527514756, -0.0568480343, -0.1957312226, -0.0784360170, -0.1140084714, 0.0536070466, 0.0229471028, 0.1840257049, -0.1380712688, 0.0556440949, 0.1309313476, -0.1331313998, -0.0476581454, 0.0168934762, 0.1444199979, 0.1245186925, 0.1474438906, -0.0554386973, -0.1847412437, 0.0342960954, 0.0485461652, -0.2036251724, 0.0709468126, -0.0379859209, -0.1454381943, -0.0714997649, 0.0947059095, -0.1664340049, 0.1834268570, 0.0919531882, -0.1530278325, 0.2068942785, -0.0420753658, 0.1849041581, -0.1002729163, 0.1988419294, 0.0943531394, -0.1277283132, 0.0976471305, 0.0186871588, -0.0238777101, 0.0256373882, -0.0616322905, -0.1633119583, -0.2113031894, -0.0011393726, 0.1629575789, 0.1692775488, -0.0856769979, -0.0398735255, 0.2087187469, 0.1409768164, -0.0698124766, -0.0291483849, 0.0173804462, -0.0529693663, -0.1211816445, -0.0941947475, -0.1876989007, 0.1341651678, -0.0228612423, 0.1899296641, -0.0659681857, 0.1791129708, 0.0353442281, 0.1920144558, 0.0855770707, -0.2012451589, -0.1596216261, -0.0576818138, -0.0696182549, -0.0370560586, 0.1411648989, 0.0936513543, -0.1266936064, 0.0163802356, 0.2037049830, 0.0435677767, -0.1233056635, -0.1006579623, -0.0307743698, -0.0632095784, 0.0825739205, -0.0214114487, -0.1908553988, -0.0510985851, 0.0406039655, -0.1050481349, 0.0843189955, -0.0153014511, -0.1254773140, 0.2034479380, -0.0365235507, 0.0924013257, -0.1451801807, 0.2093302011, -0.1621778160, 0.0323058516, -0.1886439472, 0.0478064120, -0.1992603689, 0.1910296679, 0.0627740026, 0.0920626819, -0.1851127744, 0.0248233825, -0.2017012686, 0.1918494999, -0.1685944796, 0.1771685481, -0.0458932370, 0.1198258400, -0.0307605863, 0.1338742971, 0.2016800642, -0.2129886448, 0.0085784942, 0.0989363194, -0.0552743524, -0.1927256882, -0.0771643668, 0.0592687428, -0.1586670280, -0.0870227963, 0.0503590405, 0.0408625007, 0.1513848305, -0.1753961742, -0.0910049975, 0.1904300451, -0.1627425551, 0.0149302930, -0.0194987208, -0.1019753963, 0.0691846609, -0.1802852452, -0.2079423964, -0.0232513696, 0.1148614585, 0.1473616362, -0.1185828522, -0.1476247460, -0.0781639218, 0.0003054440, -0.1946229935, 0.0906373858, 0.0520909131, -0.0696749389, 0.1836592555, -0.0613439381, 0.2026910484, 0.0019484013, -0.0996881574, -0.0979242697, -0.2061058730, -0.0485235900, 0.0323083997, 0.1120965779, 0.0698562562, -0.2026646733, -0.0974542350, -0.1153426319, 0.0070716590, -0.1193417609, 0.0585309565, 0.1077032387, -0.1405243129, -0.1469416320, -0.0118951201, 0.1504545212, 0.2068819106, -0.0345447063, 0.1558310688, -0.0401609689, -0.1281215549, -0.1485913992, -0.0325951278, 0.0236924887, -0.1412186623, -0.0989285335, -0.1125764102, 0.2117060721, -0.1755986810, -0.0379357487, -0.1456120461, -0.1759462059, 0.1071435511, -0.1095023528, 0.0897330940, 0.0590722859, -0.0538412184, -0.1669235080, 0.1190285385, 0.1856550872, -0.1246593967, -0.0452941358, -0.1681733429, -0.1650929302, 0.1673581600, 0.1749532223, 0.1103092432, 0.1773640811, 0.0196264684, -0.0606461763, 0.1917156577, -0.1570813507, -0.0482148975, 0.1045039296, -0.0833038390, 0.1934553087, -0.2046683282, 0.0115418434, 0.2022055686, 0.0367304832, -0.1198011190, -0.1145377755, 0.1659276783, -0.1711680442, 0.0928618014, 0.0347656608, 0.2130160928, 0.0912171602, 0.0163737386, -0.0857663006, -0.0393097103, -0.2092131227, -0.0897728577, -0.0448745340, -0.1397090405, -0.0905019715, 0.0188910365, 0.0904752910, -0.1662477106, -0.1537895799, 0.0561960340, 0.0095788538, -0.0508569330, -0.1168929264, -0.1259870529, 0.0583164394, 0.1533126831, -0.1222576797, 0.1557004750, 0.0525202155, -0.1796438098, -0.0919916779, -0.0360903740, 0.0956878662, 0.0841439664, 0.0375068188, -0.2066167742, 0.0058252811, 0.0962599516, -0.0490829796, 0.0021192431, 0.0402545631, 0.1363182664, -0.1359829307, -0.1802334040, 0.1274853051, -0.1081600040, -0.1473830491, -0.1813733876, -0.0096957684, 0.0478501320, 0.0771263540, -0.2086321861, -0.0535877794, 0.1153199673, 0.1019386351, 0.0595577359, -0.1449661255, 0.1209572852, -0.1217929348, 0.1701689661, -0.1500580311, 0.1806248426, -0.1651500612, -0.0812479854, -0.0782255232, 0.0879411995, -0.0171717256, 0.0299322009, -0.1999279261, 0.0488563776, -0.2054077685, -0.1058893874, 0.1868181527, 0.1597919166, -0.1933054030, -0.0893015489, 0.2095572650, 0.1075255275, 0.0263815522, -0.1575437635, 0.0937550962, 0.0803167522, 0.1283850074, 0.1627438664, -0.1260104328, 0.1386916041, 0.0021191388, 0.1538386345, 0.0292192996, -0.1366710663, 0.0025791675, 0.0551883876, -0.0341164470, 0.2125579715, -0.0129152983, 0.0043642521, 0.1742798090, -0.1281677485, 0.0298834443, -0.0716484934, -0.1951778680, 0.0928669870, 0.1479415894, -0.0937376246, 0.1383763552, 0.1601681709, 0.1671158969, -0.1943475455, 0.1315532625, -0.0645507574, 0.0437509716, 0.1643465757, -0.1303095669, -0.0779238343, -0.0417658091, 0.1274443269, -0.1462714225, 0.0412399173, 0.1863614321, 0.0664007664, 0.1757509708, -0.1520830393, 0.0112962723, 0.0828160644, -0.2097683549, 0.0648523867, -0.0168878883, -0.0203789175, 0.1985651553, 0.1011780202, 0.1745383441, 0.1499823034, 0.2079764009, 0.0816646516, 0.1186003983, -0.0535969287, 0.1682977676, -0.0158083439, -0.1617091000, 0.0476481318, 0.1407393217, 0.0001622587, 0.0945599675, 0.0866003931, 0.0938604176, 0.1383636296, 0.1371096373, 0.1208607852, -0.0270037204, -0.1119401604, 0.0896398425, -0.1295544803, -0.1550250798, -0.1024166644, -0.0933098793, -0.1743687242, -0.0390040576, 0.0148617625, 0.0447485149, 0.1119694412, 0.0492811799, 0.0449284017, -0.0321076661, -0.0946635082, 0.1151131690, 0.0400865078, 0.0852429867, -0.0430465490, 0.1623199284, 0.0557721853, 0.1113232076, -0.1964957714, -0.1067959070, 0.0526090264, -0.1610911041, 0.0771970153, 0.1714132428, 0.0462478995, -0.0748775899, 0.1127077639, -0.0926309302, 0.1933218837, -0.0828977525, 0.0463362336, -0.1324259192, 0.2050657868, -0.1675897986, 0.1589995027, 0.1578087807, -0.0372102261, 0.0368894935, 0.0065888613, 0.0016215146, -0.2060333490, 0.1892905235, -0.1701564491, 0.0464455187, 0.1175576448, 0.0851863623, 0.0066614002, 0.1565407217, -0.1849170774, -0.0165613592, 0.1825207472, 0.0341811627, -0.1399172395, -0.0554997325, -0.0532411635, -0.1934920549, -0.1772823632, -0.0655783117, 0.1964595318, 0.1447093785, 0.1229943335, 0.0632467866, -0.0328790694, 0.1104698777, 0.0611682236, -0.0608098954, -0.0657706559, -0.0787817091, -0.1938354671, 0.1142753959, -0.0829502642, 0.0175814778, -0.1325020641, -0.0780659616, -0.1990582049, 0.2112723887, -0.1553747505, -0.0798613131, 0.0551274121, 0.1428200603, 0.1224687994, 0.0259825736, 0.1331348717, 0.1315174103, 0.1793091893, -0.0879709423, 0.0909688175, -0.0981649011, 0.0858121514, 0.1802685261, -0.0026372671, -0.1356098205, -0.1719633490, -0.1789807230, 0.0798831582, 0.0582580268, -0.1044361293, -0.1631913334, 0.1257994473, 0.0747932494, 0.1154229939, 0.0231893063, 0.0567423105, 0.0604450405, -0.2107093334, -0.0749627799, -0.1914475858, 0.0437601209, 0.1855938733, 0.2007837594, 0.1338332295, -0.1269670725, 0.0130960494, -0.1011529490, -0.1249871552, 0.1358241141, 0.0872164071, -0.0887128264, -0.1060122475, -0.1883794218, 0.2048520744, 0.0388409793, -0.0951914415, -0.0441533476, -0.0458308160, 0.0420882702, -0.1980627775, 0.1205570698, 0.2019619942, 0.0513183177, 0.1594775319, 0.1197360158, -0.0784743875, -0.1497696638, -0.0182491541, -0.1293919683, 0.0574680269, 0.1754296124, -0.0589711368, 0.0111865401, 0.0450025797, 0.0575985610, 0.0642512143, -0.1421603560, 0.1481683850, 0.0333788991, 0.1222280562, 0.0098046362, 0.0922617912, 0.1810188293, 0.1967584193, -0.1292517185, 0.1636549234, -0.1694006473, 0.0721220374, -0.0027960688, 0.0289781541, -0.1374978870, -0.1105206013, 0.0905115902, 0.0465723872, 0.0512376726, 0.0014149249, -0.1960090548, 0.1336880624, 0.1239778697, 0.0018246323, -0.1423616111, 0.1602640748, 0.1318146884, -0.1008566096, 0.0192181915, 0.0763817430, 0.0348337740, 0.1360687315, -0.1250124723, 0.1015513539, -0.0817829818, -0.1092065126, 0.0173519254, 0.0436394513, -0.0468415469, 0.1463158429, -0.0785777271, 0.0302119702, 0.0263187736, -0.0074735880, 0.1262762845, -0.0813904703, 0.1677648127, 0.1713149846, -0.0686187595, -0.0685251802, -0.0151415914, -0.1574501246, 0.1367207766, 0.1761445999, 0.2093665898, -0.0521663427, -0.1315490901, 0.1619792581, -0.1619434357, -0.1917611063, 0.1341825426, 0.0560451448, -0.1994723231, -0.0339842439, -0.1655012965, 0.1874391139, -0.0665728748, -0.2021121830, -0.0587394089, 0.1683867872, -0.1739189178, 0.1563077569, 0.1677886844, -0.1587698460, 0.2030812800, -0.1093225107, 0.2130799294, 0.1177565455, 0.1293844581, -0.2131954283, -0.1952110082, 0.1411190331, 0.0855821371, 0.1532515883, -0.1028959453, -0.0664155930, -0.0840103477, 0.0148153603, -0.1788078398, -0.1269693077, 0.0636402369, 0.0710251033, 0.1511216760, 0.0666429698, 0.1180694997, 0.2021875083, -0.0425276607, -0.1047077700, 0.1603533924, 0.1251109242, 0.0810645223, 0.1455161870, -0.0240291953, -0.1777985990, 0.1208658814, -0.0302214772, -0.1385754049, -0.1722335666, -0.1607687324, -0.0364927053, -0.0314335376, -0.0647694319, 0.1739393473, -0.0728218853, 0.1783054173, 0.1548511386, 0.1999092102, 0.0302997530, -0.0426795483, 0.0648125410, -0.0877423137, 0.1345773935, 0.1706428230, -0.0795313269, -0.0809811801, 0.0900012851, -0.0148148537, -0.1967352778, -0.1688222438, -0.1740829945, -0.1589090228, 0.0538221598, -0.1631648540, -0.1131669134, 0.0895903707, 0.0421771407, 0.0514474511, -0.1988473684, 0.1412400603, 0.1809027493, -0.0732579082, -0.0802176893, -0.1999509037, 0.0048704296, -0.1728903055, 0.0200094730, 0.1794625521, 0.0761397183, 0.0587445498, 0.1545799077, 0.1583607793, 0.0414906144, -0.0822204798, 0.0681066811, 0.1219957471, -0.1745245755, 0.0641526580, 0.0150034875, -0.0179223567, 0.0015339851, -0.1800732315, -0.0712532401, -0.1482105255, -0.1208747253, -0.1311452836, 0.1096603274, -0.1164696068, 0.2121781409, -0.0507577211, -0.0616377890, 0.0436992049, 0.0920339227, 0.2028413117, -0.1719179600, 0.1553429663, 0.0769672096, 0.1607833207, -0.0776915997, 0.1592099369, 0.0526845157, -0.2035764307, -0.1737343967, 0.1263822019, -0.1020136252, 0.2073834538, -0.1773916483, -0.1785380840, 0.1485368013, 0.0042837858, -0.1991783679, -0.0641485304, 0.1616183221, 0.0172713548, -0.1680070758, 0.0367290080, 0.0426670909, 0.0856925845, -0.1223958433, -0.0784772336, -0.2052665502, -0.0422638059, -0.1747235209, 0.0624602735, 0.0655645430, -0.0677023828, 0.2100816667, 0.1441288888, -0.1587779820, 0.0161279142, 0.0624574423, -0.2083326280, 0.1074596941, 0.0567601025, -0.0765303075, -0.1200548187, -0.1794728637, -0.1170208678, 0.1262377501, 0.0309961885, 0.0251553059, 0.1659008861, 0.1706125140, 0.1145618260, -0.0490875095, -0.1169596165, -0.0409267992, 0.0618336797, -0.2048173696, 0.0021907091, -0.0061539114, 0.1302522421, -0.1065987349, -0.1958718151, 0.0671834946, -0.1894103289, 0.0651319623, 0.0262213349, 0.1392145455, -0.1988502592, -0.0136579871, -0.0205741525, -0.0671000928, -0.1551161259, 0.0107717514, 0.0022179037, -0.0987654179, 0.1287915409, 0.1183460951, 0.0700584650, -0.0870736241, 0.0667438209, -0.0383139253, 0.1231867075, -0.0771709383, -0.2019595951, 0.1078383923, -0.0091558397, -0.1216481179, 0.1064752638, 0.1958286464, 0.0468741357, 0.1828132868, -0.0485149920, -0.1939623505, 0.2035515308, -0.0663258284, 0.0211003572, -0.2053535283, 0.1489544809, 0.1923023164, 0.0543997586, -0.1097443104, -0.1778039783, -0.1685322076, -0.0611888468, 0.0956527889, 0.0198410153, 0.1694431603, -0.1582887471, 0.1487581134, 0.0298632234, 0.2071783245, -0.0590164810, -0.1364271343, 0.1506095529, -0.1012387052, 0.0093348622, 0.1344440579, 0.1307239830, -0.0739731491, -0.1634575874, 0.0750719607, -0.0726677626, 0.0165913999, -0.1260736585, 0.0848121047, 0.1920724511, 0.1866309941, -0.1440292150, 0.0530213714, -0.1068393663, -0.1572163105, -0.1817591935, 0.0872799456, -0.1363787353, 0.0342573524, 0.1573859155, 0.0643665493, -0.0841873884, 0.0996667445, -0.1815573871, -0.1556952894, 0.1443904340, -0.1696757972, 0.1797145605, 0.1919395328, -0.0852943808, -0.0432171375, 0.1305790842, 0.0064933598, 0.1770673990, -0.1004561633, -0.0653946549, -0.1894420534, 0.1474712789, 0.1597555578, 0.0644319654, 0.0112381727, 0.1773147881, 0.1368961930, -0.1696494222, -0.0794858336, 0.0543223917, -0.1608809680, 0.1402814388, 0.1976004243, 0.1423691213, 0.1369906366, 0.1369352937, -0.1916384101, -0.0003434718, -0.1823771000, -0.0920493752, -0.1194690466, -0.1343110800, -0.1054637805, -0.2012929916, 0.0553362668, 0.1735905111, -0.0886167511, 0.0628515184, -0.0775610059, -0.1044777557, -0.0881972462, 0.0609320104, -0.0460686982, 0.1779697835, 0.0804338157, -0.1629889756, -0.0943208560, -0.1311645955, 0.0961579978, -0.1141553745, 0.0923919678, -0.1632291526, 0.1006371677, -0.1108925790, -0.0012696087, 0.0399169922, 0.1142591834, -0.1421104372, -0.0174781978, 0.1302104592, -0.2063336521, 0.1987169683, 0.0140927434, 0.2010957599, 0.0888950527, -0.1703964770, -0.1330864727, -0.1129195169, 0.1431652904, -0.0087963045, 0.1897248328, -0.0336518139, -0.1243215725, 0.1992536485, -0.1858008653, -0.0389436781, -0.1441355646, -0.0483581275, -0.1993281692, -0.1753670871, -0.1082982644, -0.1959311366, 0.1117576361, -0.2010479867, -0.1241202354, -0.1972450167, 0.0678546131, 0.1490649879, -0.1754833460, 0.1168682873, -0.1774145216, 0.0227796584, -0.1417134553, 0.0673241615, 0.1737882197, 0.0875216126, 0.0729320347, -0.0616698563, -0.1281520426, -0.1989519149, 0.0506260693, 0.0031040460, -0.0599344969, -0.0999724045, 0.0916744471, -0.0527899414, 0.0402813554, 0.0755846500, -0.1540571600, 0.0956314206, -0.1533639282, 0.1268324852, -0.0474900454, -0.0872085243, 0.0557737052, -0.0806360841, 0.0710445642, 0.1065910161, 0.1539396346, -0.1553277373, 0.0808281302, -0.0243396163, -0.0551216006, -0.0355269164, 0.1911634505, 0.1564151049, 0.1697790921, -0.0528497696, 0.0984633863, -0.0529521406, -0.2101432383, 0.1568694413, 0.1261364520, -0.0316334069, -0.0699019432, 0.1140802503, -0.1544983685, -0.0391753614, -0.1233761162, 0.1802347600, -0.0190109462, -0.0831044316, -0.2082015872, -0.2094552815, -0.1421009302, 0.0446969271, 0.1180342734, 0.0346517116, -0.1930497289, -0.0490227938, -0.1677147895, -0.0491812974, 0.1212866604, 0.1160207093, 0.2117471397, 0.1301966608, -0.2032881081, -0.1543271691, -0.1442168951, -0.1038520783, 0.0471235514, -0.1585114300, 0.0527115166, -0.1329412460, 0.0585195124, 0.1939077675, -0.0408542603, 0.0379559696, -0.1076223180, 0.1626552641, -0.0470750630, -0.1445066631, 0.0631578267, -0.1279372871, 0.1168318689, -0.0907143429, -0.0983053446, 0.0499971211, -0.1543325186, -0.0352110416, -0.1911678612, 0.2012702823, -0.0674726218, -0.0280527174, -0.1482307613, -0.0866022259, 0.0135001093, -0.0755891651, 0.1493487954, -0.0923628435, 0.1512388885, 0.1105206609, -0.1233010888, -0.1604435742, -0.0687525570, 0.0480512083, 0.0533574522, 0.0810398459, 0.2036272585, 0.1289487779, 0.0090710521, -0.0519945920, 0.1261376739, -0.2042019963, 0.1476466656, 0.0121955872, -0.1674290150, 0.0097776949, 0.1986927986, 0.1322011054, -0.0863118172, 0.0273644179, -0.1336909980, 0.1636165977, -0.1228503212, -0.0751855224, -0.1121777445, -0.1152681634, -0.1866390705, -0.0889009461, -0.1258024275, -0.1915954500, -0.1558095515, -0.0735427141, 0.1202566326, 0.0228019208, -0.1811176538, 0.0133337379, 0.1875566244, 0.1818839908, 0.1318564713, 0.1887971163, -0.1080502123, -0.0883422121, -0.0622210801, 0.1333971620, -0.1905879378, 0.1017746627, -0.0049944073, -0.0265125483, 0.0914417803, 0.0491191149, 0.0685849488, -0.0211933255, 0.0164035708, -0.1089145392, -0.0075309128, -0.1465310752, -0.0649724603, 0.0363533199, -0.1956815124, 0.2007778585, -0.0128664970, -0.0485958755, -0.1622623503, -0.0534678698, -0.1758344322, -0.1261566281, -0.0731016994, 0.1904644072, 0.0895338953, -0.0453352630, 0.0471154749, 0.0413264632, 0.0719670057, -0.0446490943, -0.1264902353, 0.0893809497, -0.1692527831, 0.1201239526, 0.0458091199, 0.0051479638, -0.1877388060, -0.1992911696, 0.0982604623, 0.0934755504, 0.1866677403, -0.0781512558, 0.1888723373, 0.0367126018, -0.1654497683, -0.0991836563, -0.2052423656, -0.1020171270, 0.1388156414, 0.0897136331, -0.1058568060, -0.2055169046, 0.1068682373, -0.0308343023, 0.0184083432, 0.1758403778, -0.1735419035, 0.1746751964, 0.0020956099, 0.1933275759, 0.1729234457, -0.0949942693, -0.0631643981, 0.0157373846, -0.1988634169, 0.1142289639, 0.0629304647, -0.1140842587, -0.1448621303, 0.1459372640, -0.1504361033, -0.0824999511, 0.0407643914, 0.1589671671, -0.1848030090, 0.1760683060, -0.1430222541, 0.2027480304, -0.1728915274, 0.0866293609, -0.1914968938, 0.0221603960, 0.0069704056, 0.0888171196, -0.0728658438, -0.1679234058, 0.2006779015, 0.0904677510, 0.0584804118, -0.1882095039, 0.0623434186, 0.0868101716, -0.1981459409, -0.1769716740, -0.1821801215, -0.1996962428, -0.0516619980, -0.0329256803, -0.0241647512, 0.2022213340, -0.1534017473, 0.0064666271, 0.0136136115, -0.1948258728, -0.1259876639, 0.1414062977, -0.0981904715, -0.1901355386, 0.1337595284, 0.0206441581, -0.1829779744, -0.2119307518, -0.2014321238, -0.2070757300, 0.2016168833, 0.1520060301, 0.0576945245, -0.1641073674, 0.2129188180, 0.1198900342, 0.1515713036, -0.0608581454, -0.0445007682, 0.0263260454, -0.0153774023, -0.0441926867, -0.1944570839, -0.1918360293, -0.0928257108, 0.1664627194, -0.0336474329, -0.1162796989, 0.1217368543, -0.1634105742, 0.0026267916, -0.0529325753, 0.0312067270, 0.0766163766, -0.0213577747, 0.0142683089, 0.0897280276, 0.1391752064, 0.0983397663, -0.0214587152, 0.1951382756, 0.0966913998, 0.0634912848, 0.1193961501, -0.0797929019, -0.1105776280, -0.2024938762, -0.2046627402, -0.0074753165, 0.1339516044, 0.1118431091, 0.0258384198, -0.1532483846, 0.1079897285, -0.1471315920, -0.1969375908, -0.0491231382, 0.1895702481, -0.0908532664, -0.0205998272, -0.0303425491, 0.0942589343, -0.1515416354, -0.1911843270, -0.1956821084, 0.0328252465, -0.0698693544, 0.1393386424, 0.1255013645, -0.1359865367, -0.1153906658, -0.2013411373, 0.1948916912, 0.1798245609, -0.1803007573, 0.1591883600, 0.1799423993, -0.0448904485, 0.1550146639, 0.0960927308, -0.0381173640, 0.0505827665, 0.0100210309, -0.1992234588, 0.2105712891, 0.1631121039, -0.1470948756, 0.0464096367, -0.0892922506, 0.0061459243, -0.1188981086, 0.2076775134, -0.0202621520, -0.1745906472, 0.0017700940, -0.1732509434, -0.1283423007, -0.2061740905, -0.1173758730, 0.1094646454, 0.0291360766, 0.1319639087, 0.0616571903, -0.1173392236, 0.0388348997, 0.0463386178, 0.0711835325, 0.1015142202, 0.2081853747, 0.0392340720, -0.0313192159, 0.1544469893, -0.1229915842, -0.0897011310, 0.0191840380, 0.0172591656, -0.1115615144, -0.0446022749, -0.0246111602, -0.1259313822, 0.0429498255, 0.0209326744, 0.1083736420, -0.1967430562, -0.0494222790, -0.1241185591, -0.2087697238, -0.1070556492, 0.1874563396, -0.1921684742, -0.0546354055, 0.0826970339, -0.1646238118, 0.1755934060, 0.1608643532, 0.0891706645, 0.1062918007, -0.1836696267, 0.0712143481, 0.0263563842, 0.0245463997, 0.1114870608, -0.0054905117, -0.1699474901, 0.0511034727, -0.0389646143, 0.1326921284, 0.2091339231, -0.1154052541, 0.1012003720, -0.1097671837, 0.0535662770, -0.0994428918, -0.0913146585, -0.1386704594, 0.2016600966, 0.0887771845, -0.1257243603, -0.0820882767, 0.1031100452, -0.0497890711, 0.0502878428, 0.1775922179, 0.1025641263, 0.1124098301, 0.1815298498, 0.0270941556, -0.1643512994, -0.1529047638, 0.0486496985, -0.0657847375, 0.1740065515, 0.1092291474, 0.1655963063, 0.0181917548, -0.0301538259, -0.0105724931, 0.0343169272, 0.0566281378, 0.1327677667, 0.2033062577, 0.0455288291, 0.0444711447, 0.0478150547, -0.0963646695, 0.1863059402, -0.2023345679, 0.1783591509, -0.0955072045, -0.0467385054, -0.0059748739, -0.0564950109, -0.1791038364, -0.1472482979, 0.0740091801, -0.1851411313, 0.0521834791, -0.0583557785, -0.1822416335, -0.1446902156, 0.0449821949, 0.1829200089, 0.1103640497, -0.0638640821, 0.0577831566, 0.1330929101, 0.0252168626, 0.1610595286, 0.1414406896, 0.1278419197, -0.0865726322, -0.0298154354, -0.1893062741, -0.0276203007, -0.2051651925, 0.1729630530, -0.1191663966, -0.0101634115, 0.1196340322, -0.2021226138, 0.0506027341, -0.0275796354, -0.2118948251, 0.0645498037, 0.0415663421, 0.0208124965, 0.0297508389, -0.1058726087, -0.0960093141, 0.0323980153, 0.1219114363, 0.0073639899, -0.0621746629, -0.1616859287, 0.2098265588, -0.0894307122, 0.1868473291, -0.0518244058, 0.0832658112, -0.0944210961, 0.1686597764, -0.2128241658, -0.0369138420, 0.0180789083, 0.2084040940, 0.0804129243, 0.0320252180, -0.2106931210, -0.1005151719, 0.1411907077, 0.1748240590, 0.1631378233, 0.0596881211, 0.1924263835, -0.0611590594, -0.0674935132, -0.1090021208, -0.0104370862, -0.1327804625, -0.0579845607, 0.1376307607, -0.0479622185, 0.1878094971, 0.0128329992, -0.0724753141, -0.0014405549, -0.0314305872, -0.1874136925, 0.1370508671, -0.0533346981, 0.1863775849, -0.0191536844, 0.0459181368, 0.1270267069, -0.1028755605, -0.0549217910, -0.0981757790, -0.0725408345, 0.0917052329, -0.1448445469, 0.0885515809, 0.1468529701, -0.1390465051, -0.1744889915, 0.1972120702, 0.1607232392, -0.0518392920, 0.1493856907, 0.0715863705, -0.1714482307, 0.1151228249, 0.1040072143, 0.1014150381, -0.1442594230, -0.1425091177, 0.1732893288, 0.0037401915, -0.0359322429, -0.0604691803, -0.1113087833, 0.0732270181, -0.0263893753, 0.0746116340, -0.1455382407, -0.1982153356, 0.1978387833, 0.1625904143, 0.0273582637, 0.0730413198, -0.1056326926, 0.0026047826, 0.0402204394, 0.0023018867, -0.0022009313, 0.0595671237, -0.0149376094, 0.0018262118, 0.0813457966, -0.1641079187, -0.0237189680, -0.1038066894, 0.1900723577, 0.1491495371, 0.1897017062, -0.0005613714, 0.1973762214, 0.1174893677, -0.0404330194, -0.1657633334, -0.0062251240, -0.0278593600, -0.0390315652, -0.2048531473, -0.0512534678, -0.0491373241, -0.0703801662, 0.1991268694, -0.0515239984, 0.1231005192, 0.0469681025, -0.1932683587, -0.1080608368, -0.0281383246, 0.0494581759, -0.1514368653, 0.0292558372, -0.1003489047, 0.0911124647, 0.1564387381, -0.0335830301, 0.1455479562, -0.1816011071, -0.1823195070, 0.1514663398, 0.1406163275, 0.1885030866, 0.1242824793, -0.1546808034, 0.0902919769, 0.1428492665, 0.1209816337, 0.1254950166, 0.0104650855, -0.0278489888, 0.2117148340, 0.0476858020, -0.0285566598, -0.0231694877, 0.0942659080, 0.1007203162, -0.0654558539, -0.0197696090, -0.0360016674, -0.0822589099, -0.1410555989, -0.0435803235, -0.1660849452, -0.0906480104, -0.0888994262, 0.1141942441, -0.0609730631, -0.1611536741, -0.0345421582, -0.1260350943, 0.0602631271, 0.0068634599, -0.0013623685, 0.0577225685, 0.0498258770, -0.0454781502, 0.1336076856, -0.1478631496, -0.0520296097, 0.1747241914, -0.1216610819, 0.1275118887, 0.1920532286, 0.1035468876, 0.2099753916, 0.0930824578, 0.0928864479, 0.0606037974, 0.2127641439, -0.1250537485, -0.1049612612, -0.0707738549, 0.0462386906, -0.1050541848, 0.2092462778, -0.1090416685, 0.0559493899, 0.1075286865, -0.0880913138, 0.0391494930, 0.1240768135, 0.1675392091, -0.0021153390, 0.1942414045, -0.0543267131, 0.0014681518, -0.0163033903, 0.1526921391, -0.0191472322, 0.1401652992, -0.0621625632, -0.2075629979, 0.1902502179, -0.0940558240, 0.1499597728, -0.0059809238, -0.1281908303, -0.0047522932, -0.1359102726, 0.0226327628, -0.0899245366, 0.0602328181, 0.0490871668, -0.1129359379, 0.1284369528, -0.0491100848, -0.0632094890, -0.1382881999, -0.0992899984, 0.0823422670, -0.0516955405, 0.1959424615, 0.1074351966, -0.2029730082, -0.0280252695, -0.1267211139, 0.2108168900, 0.0787534416, 0.1409596801, -0.0079249591, -0.2029214650, 0.1065075397, -0.0624595284, 0.1264002025, -0.0331930071, -0.0036305487, 0.0398704708, -0.0536184311, 0.0965144336, 0.1448169947, -0.1047319099, -0.0682462305, -0.0593087673, 0.0430641770, 0.0490980446, -0.0456942320, 0.1098040938, 0.0605421364, 0.0756760538, -0.1713852435, -0.1462914050, 0.1456372142, 0.0425437689, -0.1593762636, -0.0411698669, -0.0468895286, -0.0404934138, -0.0533497930, -0.2037094980, -0.1210984290, 0.0971468687, -0.0182767957, 0.1336697638, 0.1266036332, -0.1628730297, -0.0623703599, 0.1259144247, -0.2109924704, 0.0345640779, -0.2010063082, -0.0547237545, 0.1184599996, 0.0638903081, 0.0830134451, 0.2000322342, 0.1686373353, -0.1161610633, -0.1020248532, 0.1424554884, -0.0655421168, -0.0307706594, -0.0887754485, -0.1944266409, 0.1821271181, 0.0132096559, -0.0968938693, -0.1559327245, 0.0559995472, -0.0802386403, -0.1336320937, -0.1590941101, 0.1365468502, -0.0255953968, -0.0536271185, -0.0097687095, -0.1681897640, -0.1241566315, -0.0073689669, 0.1953168511, 0.0262402445, -0.1826559603, -0.0381529480, -0.0196370333, 0.0424892902, -0.0236828327, 0.0686831176, -0.1641728282, 0.1568455398, -0.1511853039, -0.0903801322, -0.0461353958, 0.0670965314, -0.1016566381, 0.1658084691, 0.1047852933, -0.1087132022, -0.1448681355, 0.1455472410, -0.0213940144, 0.1067807972, 0.1495614052, -0.0840581208, -0.1165622175, -0.1263452619, -0.0158583075, -0.1421947777, 0.1319160759, 0.1434713006, -0.0974691808, 0.0908687115, -0.0406492501, 0.2123927176, -0.1030678079, -0.0699986815, 0.0642950237, -0.0251826495, -0.0854823589, -0.1096509323, -0.0907092616, -0.2105641663, -0.1021737903, 0.0008561462, -0.2098904550, 0.1004408002, -0.0734445602, -0.0726897717, 0.1675332189, 0.1239057779, 0.0097715557, 0.0667681992, -0.1043640971, 0.1285540164, -0.0009112954, 0.1687436104, 0.1890211105, -0.0713083297, -0.0517095178, -0.0946692005, 0.1738456786, -0.1756263822, 0.1022707820, -0.1381054819, 0.0597068667, 0.1020123959, -0.1869646460, 0.1419177353, -0.1837271750, 0.0649304092, -0.0428975075, 0.0641330183, -0.1485097110, -0.0235622525, 0.0734207630, 0.1333397627, 0.0865913332, 0.0552074015, 0.1373053789, 0.0575802624, -0.0595466942, -0.0077782124, -0.1688821316, 0.0683797002, 0.0604126155, -0.1187862828, 0.1183215976, 0.0236799270, 0.0590337217, 0.0101673752, -0.1912313998, -0.1972816139, -0.0144357085, 0.1284356415, -0.1677064002, -0.1458736658, 0.0945150852, 0.0660020411, -0.2040407658, -0.0652025193, -0.1958839595, -0.0476699769, -0.1194568947, 0.0389118493, 0.1122297049, 0.0849995613, -0.1303817034, 0.1943291426, 0.0884832144, -0.1713939905, 0.1361604333, 0.1700559258, 0.0888699889, 0.1491132975, 0.0110910237, -0.0082112402, -0.2113815248, 0.1223022044, -0.1369983256, -0.0939085633, -0.1901251674, -0.1781198978, -0.1601606905, -0.1569926441, 0.1607081890, -0.0785849988, 0.1184020936, -0.0174237043, 0.1962739825, 0.0148686767, -0.1977183521, 0.0811325610, -0.2109922618, -0.0841675103, -0.0702919215, -0.0306952149, 0.1349979043, 0.1646722853, -0.0834002197, 0.1565574706, 0.0698181689, 0.0968342423, 0.0466661155, 0.1813298166, 0.0681289136, 0.0577867925, -0.1417659670, 0.0790274739, 0.0039386451, 0.0658430755, 0.1567339599, -0.0266019553, -0.0230122209, 0.1224775314, 0.1286482215, -0.0073128492, -0.2068894356, -0.0707175732, 0.1901448369, -0.1007148921, -0.2069893181, -0.2129065543, -0.2112892717, -0.1419645101, -0.0425458103, 0.1253262460, 0.0262898952, 0.1234650314, -0.0945816711, 0.1455450356, -0.1626341790, 0.1400247514, 0.1259462237, 0.0135621727, -0.1350647509, -0.1089950055, -0.0118958801, 0.1709047556, -0.1979926378, -0.0529204160, 0.0565693378, 0.0054066479, -0.2076760978, 0.1579419076, -0.1331384778, 0.1450648904, 0.0945485234, 0.1897557676, -0.1987455487, -0.0204036236, -0.1410997212, 0.1950822473, -0.0571822971, 0.1841697991, -0.0832832009, -0.0292502493, 0.0540054739, -0.0874012262, -0.1223381013, -0.0359581560, 0.1441550851, 0.1913868487, 0.0666281581, 0.1085380316, -0.1803641915, -0.2118480057, -0.0779354274, -0.1355263591, 0.0061643273, 0.0883840919, 0.0734911263, -0.0222379565, -0.1470552981, 0.0930044353, 0.0301488936, -0.1041629091, 0.1124871969, -0.0324787796, 0.1621141732, -0.0302986354, 0.0320253670, -0.0254642069, 0.0735721886, 0.1294092536, 0.1970367730, 0.1374342442, -0.0098119080, -0.1765737236, 0.0717885792, -0.1637127101, 0.0017922521, -0.1634298861, 0.0551188588, 0.1021533012, -0.1480292082, -0.1404761374, 0.0176453292, -0.2029290348, -0.1242469549, -0.1500332206, 0.0987029970, 0.0664662719, -0.1982329637, -0.0825024992, 0.0352124721, 0.1985097826, 0.0569595098, 0.0618391335, 0.1393162012, -0.0402746350, -0.0187438279, 0.0287175924, -0.0901775211, -0.1571455002, 0.0820456743, -0.1526470482, -0.0679484606, -0.1871128678, -0.1030577943, 0.1164523661, -0.1777411997, 0.2028335333, 0.1062799096, -0.1306673586, 0.0193794817, -0.1056451425, -0.0782839805, -0.1838641018, -0.1612155437, 0.1994944513, -0.1032967493, -0.0007423908, -0.1928774118, -0.1026488543, 0.0221969932, 0.0957674682, -0.1590662003, -0.1756756902, -0.1925190091, 0.1713214517, -0.1357954144, -0.0678046048, 0.1436020434, 0.1913373470, -0.0668297112, 0.1408542097, 0.0131400675, -0.0122715235, 0.0858298540, 0.0434364676, 0.0581994653, -0.0372000188, 0.0917010307, -0.1772421449, 0.2118621469, 0.2043992281, 0.0180346370, -0.1003166810, -0.1554493606, 0.1346953809, -0.0091408342, 0.0495243967, 0.1684330404, 0.0888979435, 0.1670624614, -0.1518383324, 0.0951341093, 0.0481031239, -0.0930296481, 0.2053811252, 0.0390005410, 0.1204590797, -0.1965785623, -0.2108087689, 0.0492499173, -0.1559493393, 0.0439987779, 0.0180086643, -0.0299904495, -0.0337069035, 0.0596897304, -0.0415356904, 0.1043559611, 0.0512758791, -0.1627185047, 0.0060975403, 0.0107195526, 0.0437085629, 0.2009048462, -0.1879913360, -0.1152206361, 0.0925723314, 0.1455665529, -0.0639835298, -0.0555260181, 0.1588294208, -0.0340011120, -0.1726251692, -0.1559307873, 0.1641682684, -0.1031779572, -0.0363223106, -0.2074585408, -0.1596251428, 0.0819325745, 0.1213523746, 0.0321856886, 0.0748675764, 0.2040767074, -0.0269059688, -0.0252219886, 0.1771601140, 0.0397257209, 0.0009780973, 0.0286276191, -0.2082468867, 0.1639084220, -0.0625818223, -0.1664599180, -0.0204231888, 0.1186442077, 0.0199112147, -0.1199412122, 0.1855714321, -0.1853042543, 0.0248175263, 0.1296752989, -0.1034716070, 0.1024605334, -0.1043592170, -0.1110985950, 0.1371198595, 0.2005972564, 0.1089456379, 0.0813475251, 0.1458572149, -0.1875934303, -0.0878109336, -0.1656404734, -0.0481218696, -0.0147879571, -0.0365189314, -0.1881186664, -0.0101490766, -0.1450003982, 0.0966188908, 0.0816202760, 0.0858395994, -0.0378078520, -0.1166864485, -0.2124664634, -0.1445667446, -0.1350740641, 0.0993289948, 0.0006026477, -0.0420859903, 0.1917885542, -0.1255790293, -0.0350225717, -0.2000366598, 0.1605901718, -0.1603719890, -0.0448665023, -0.0817638189, -0.1180410981, 0.1242516339, -0.2098187208, -0.1168854013, -0.1516601741, 0.2077189088, -0.2060550451, -0.0837537944, 0.1635324657, -0.1471616328, 0.0553687513, 0.1319250762, -0.1697462499, 0.0211914480, 0.2054221630, 0.0742321312, -0.0818149596, 0.1701242328, 0.0754314959, -0.1620253772, 0.0616166890, 0.0198826492, 0.0850143135, -0.0293497741, 0.0385374427, -0.1875057369, -0.1260208488, -0.0509605855, -0.2069230825, -0.1423363388, 0.0270057023, -0.0100039542, 0.0066857487, 0.0064863414, -0.1084620431, 0.0748348832, 0.1903536022, -0.0189216882, 0.0647348762, -0.1130325645, -0.0280791521, 0.1684472561, -0.0679326504, 0.0550275743, -0.2121178657, -0.1230209097, -0.2067865580, -0.1724447161, -0.0941479802, -0.2128460258, 0.1200295091, 0.1585270762, 0.0048917681, -0.1262075007, 0.2128604949, 0.1981873214, -0.0792624801, 0.0499543250, -0.1759408712, 0.0397666395, -0.1297239959, 0.0539006889, 0.0158702582, 0.0525951087, 0.0104503036, -0.1166705415, -0.1007425413, -0.0335223973, -0.0363929272, -0.0247373134, -0.0816320181, 0.0663042665, 0.0471885502, -0.1701354086, 0.0133253038, -0.0290323794, -0.0628939718, 0.1963127851, 0.1712224483, 0.1359584332, 0.0572720766, 0.0033609420, -0.1027953550, -0.0740710050, 0.1231857538, 0.0393924117, 0.0514275730, 0.1134273708, 0.1358176172, -0.0179544836, -0.0428474993, -0.0171023011, -0.2041860372, -0.1511560827, 0.0329139382, -0.0457010418, 0.1883136630, 0.1534592807, -0.0542723686, -0.1335345954, 0.1261513531, 0.0454059839, -0.1233780980, 0.1302312016, 0.1201035678, 0.1464537084, 0.0493889451, -0.1329772770, 0.1709606051, -0.1870940626, -0.1035034806, -0.0046339035, 0.0043433607, 0.1246011853, 0.0860475600, 0.0112697929, 0.0109259784, -0.1088009328, 0.0451144576, 0.0881381333, 0.0288242400, 0.0178651661, 0.2085936964, 0.1395792663, 0.0561457574, -0.1421446502, 0.1660542786, -0.0913557336, -0.1580511034, -0.0692827702, 0.1781054735, -0.1359718442, 0.1693622172, 0.1706989706, -0.1860644817, 0.0008527339, 0.1799221635, -0.0847420543, -0.1547217220, -0.0242664218, 0.0821223855, -0.0366279185, 0.1579120159, 0.0282838047, 0.0498765707, -0.1640301049, -0.1360980570, 0.0567750931, -0.0627196282, 0.0094111115, -0.0854918212, -0.0437347442, 0.1329703629, -0.0725088567, 0.1103307307, -0.0504474938, 0.0505414307, 0.1265490353, -0.2080813795, 0.1661646962, 0.0103915930, 0.0793212950, -0.0289316922, -0.0177615285, 0.0827395320, 0.0938742459, 0.0911233425, -0.1122500226, 0.0554215610, -0.1822759956, 0.1217783391, 0.1194887161, 0.1549885869, -0.1796352714, 0.0217099786, 0.1249144673, 0.1293254197, -0.2064816654, -0.0156392753, 0.1515989304, -0.0573394150, -0.0397448242, -0.0883652940, 0.0087602139, -0.1320590675, -0.0012755543, 0.0074295104, 0.0264889598, -0.1099150479, 0.0306335688, 0.1872678101, -0.1059957743, -0.1681141704, 0.0320923179, -0.0743228644, -0.0371268243, 0.0887113512, 0.2068048120, -0.1959859282, -0.1684667319, 0.2029729187, -0.1361901611, -0.0789012164, -0.1442584097, -0.1696847975, 0.0996335745, 0.1952257156, 0.0415257215, -0.2088347971, 0.1613855064, 0.0910006762, -0.2028978318, -0.1083787307, -0.0743597150, -0.1370799541, -0.1911847442, -0.1457047611, -0.0623703152, -0.1246905029, -0.0984734967, 0.1318724751, 0.1303057075, -0.1093793437, -0.0508935899, -0.0765071809, -0.0111884177, -0.1807311922, -0.0703602433, -0.1799080819, -0.1261800528, -0.0470359623, 0.1881902814, 0.0471602082, 0.0792753398, 0.2045003772, 0.1398940086, -0.1819617003, 0.1283333600, -0.0361667722, -0.0006352365, 0.1356659532, -0.2093663812, 0.0505688190, -0.0889607742, 0.1192332506, -0.0245460868, 0.0301766992, 0.0701677799, 0.0392634571, 0.0366925746, 0.1453541815, -0.1476673931, -0.0009120107, -0.0534066707, -0.1067317575, -0.2066733539, -0.0566889346, 0.0450963676, 0.0414687097, 0.1335349977, -0.1520926356, -0.1424853206, -0.0996622816, 0.1847671568, -0.0335486233, -0.0234564245, -0.1365759075, 0.0068013966, 0.0895885527, -0.1611822844, 0.1875145733, 0.1700508296, 0.1791161299, 0.0502313972, 0.1339436173, -0.1496843696, -0.0048265010, -0.0859003514, 0.1516091824, -0.0743022263, 0.1891787946, -0.0211467147, -0.1220617816, 0.1598131657, -0.1144109517, 0.0861026943, -0.0619688481, 0.0408543050, -0.1235215962, -0.0368760228, 0.0546551347, 0.0205015689, 0.0478628278, -0.0267687291, 0.2078846097, -0.1167297587, 0.0474349558, -0.0933977664, -0.0598359853, 0.0006468296, -0.1521905959, 0.1903777421, 0.1955339909, -0.1681201756, -0.0718923360, 0.1000526547, 0.1975592673, -0.0782697946, -0.0607591271, -0.0573827773, -0.1979690492, 0.1500097513, -0.0116083771, -0.0183549225, -0.1110346541, -0.1526011080, -0.0931197703, 0.0978282094, 0.1528442800, -0.1779505312, 0.0492412746, 0.0135434717, -0.1821183711, -0.0539662242, 0.0648232102, -0.1835660934, 0.0774909556, -0.1061648875, -0.0018143058, -0.1021513268, -0.0782599300, 0.1797921360, -0.1122998893, -0.0137408972, 0.0591432452, -0.0047023296, 0.0441930890, 0.1600920558, 0.0812759399, 0.0577342212, 0.0126988590, -0.0504227877, -0.0159302801, -0.1607423425, 0.1282382011, -0.0441544652, -0.0640320778, -0.1724980921, -0.1329568923, 0.0787885785, -0.1252467930, -0.1387143284, -0.0785312206, 0.0326679200, 0.0394001901, 0.0371861458, 0.2077334225, 0.1461085975, 0.1211211979, 0.0385516584, 0.0018767864, 0.0775760412, -0.0718859732, -0.1748803854, -0.2082360983, -0.0951147377, -0.0277354270, 0.1811922789, -0.2120816261, 0.1423982084, 0.0527060628, 0.0443730950, 0.1091656983, -0.1891245544, 0.1849547327, -0.0563776344, -0.1372431815, -0.1792159081, 0.0771172941, -0.1128707677, 0.1613407731, -0.0392446369, -0.1591635942, 0.0720368326, -0.0328554362, -0.1781554818, -0.0167741776, 0.0256045461, -0.1106735989, -0.1167926863, -0.1380546987, 0.0477854609, -0.1729764640, 0.1947746873, 0.0698388219, -0.1423616111, -0.0137424171, 0.2067546248, -0.1112923175, 0.0375417471};
#endif

#endif
