//Numpy array shape [100, 32]
//Min -0.212462544441
//Max 0.212987929583
//Number of zeros 0

#ifndef W2_H_
#define W2_H_

#ifndef __SYNTHESIS__
model_default_t w2[3200];
#else
model_default_t w2[3200] = {-0.1726605892, 0.0265499502, -0.1677168310, -0.0949103981, 0.1344936788, 0.1543242633, 0.2108261883, -0.1814248264, -0.2092249244, -0.0385422558, 0.0968057811, 0.1693833768, 0.1360692680, 0.1471741796, 0.2103229761, -0.0716460049, -0.1787810624, 0.0181686878, -0.0940918624, -0.0134986788, -0.1839535236, -0.1276602149, 0.0716573000, -0.1921970844, 0.2105822563, 0.0884311199, -0.1891699433, 0.0893799961, 0.0566185415, -0.1556644291, 0.0006065220, 0.2046452463, 0.1075926423, -0.0109383762, -0.0461027622, -0.1308728307, -0.1352029145, 0.1172673404, -0.0193861872, -0.0215731412, 0.0030333400, 0.2018412650, -0.0709041208, -0.0193324536, 0.1832296848, -0.0896246806, -0.0213274658, -0.1287777722, -0.1776220053, 0.0899018049, -0.1241304502, -0.1461911201, -0.0479341000, 0.1623668969, 0.1591942906, 0.0701704323, 0.1108300686, 0.0189599693, -0.2051128894, 0.0436668992, -0.1156373993, 0.2066398561, -0.0700700879, 0.1065906882, -0.0883390158, -0.1487270594, -0.2039324492, 0.1211304665, -0.1138022989, -0.0533955395, 0.1747449636, -0.0254627317, -0.0577192307, -0.0366307646, -0.2017676085, -0.0173380077, -0.0196459293, -0.0216095895, -0.0721991956, 0.0364874154, -0.0851805806, 0.1021818817, 0.0779994726, -0.1828185618, 0.1853209138, 0.0744238198, 0.0689380467, 0.0708837509, -0.0823671371, -0.0278886408, 0.0642526448, -0.0132094026, 0.0798847377, -0.0602176636, -0.0354521424, 0.0897412896, 0.2096575797, 0.0245483220, -0.0301298797, 0.0711100399, 0.1591303051, -0.0024628192, 0.0090392828, -0.1416455507, 0.1250593364, 0.0366268456, -0.0487567484, -0.1849572808, -0.0400426835, 0.0509462357, 0.0763466656, -0.0270265490, -0.0239340812, 0.1342435479, -0.1252662688, 0.0544705689, -0.0045371205, 0.0219780058, 0.0313130170, 0.1657683253, -0.1193538085, 0.1226662993, 0.1720892489, -0.0671167672, -0.0776039064, -0.1715939045, 0.1301496029, 0.1693593860, 0.0392321348, -0.0261689276, -0.0006502867, 0.1441280246, 0.0655671656, 0.1301978827, -0.1510031819, -0.1869135648, -0.1755685806, 0.2102454603, -0.0517052561, -0.0699900389, -0.1192065030, 0.0696748197, 0.1551157534, -0.0784566998, 0.1678594053, 0.1144818664, 0.0642421246, 0.1494807899, 0.0340568274, 0.1105873883, -0.0106977373, 0.0299464315, -0.1512324214, 0.0191218108, 0.0890159905, 0.0510864854, -0.1586641669, 0.1477756202, 0.1436914802, -0.0012848079, -0.0112311691, 0.0933967531, -0.1808115989, -0.2068722546, -0.0374983996, -0.0763256103, 0.1977588534, 0.0192283541, -0.0628190935, -0.0426122993, -0.1616890728, -0.0548410267, -0.1440911293, -0.1665682495, 0.0343645662, -0.0517303199, -0.0656763613, 0.0803105533, 0.1837310195, -0.0530776381, -0.1006943509, 0.0676755011, 0.0245758742, 0.1473837495, -0.1759139299, 0.0724092722, -0.1505880356, -0.1239246875, 0.1742478013, 0.1392247081, 0.0105375201, 0.1483750641, 0.1532954574, 0.1882728338, 0.0488084555, -0.0283405781, 0.1944679618, -0.0234480351, 0.0894251168, -0.0095032603, -0.0596141517, 0.1257678270, 0.1592760682, -0.1921174377, 0.1666523218, -0.0718774945, 0.1044910848, 0.0364640355, 0.0707172155, 0.1736932695, -0.1611617059, -0.1466792822, 0.1423725784, 0.0171625316, 0.0502705872, 0.1363571882, -0.0103477240, -0.0909220427, -0.1571825445, -0.0257743150, -0.0965252444, -0.1712909639, 0.1276219189, -0.1030765474, 0.1901061535, -0.1738056242, 0.1722156703, -0.0752626359, -0.1100614443, -0.1740644425, 0.0166931599, 0.1507713497, 0.1252163649, 0.1359781921, 0.1704016030, -0.1371548325, -0.2017752826, -0.1707137674, 0.1548281014, -0.1172720268, -0.0829997212, 0.0527802706, -0.1100915819, -0.1282060295, 0.0642823279, -0.0870430321, 0.0342620313, 0.0723657310, 0.0786215961, -0.0135165304, -0.1323738694, -0.0001619458, 0.1937563419, 0.0112765580, -0.1910525858, 0.0115641057, 0.1501372755, -0.0366530269, -0.0740085244, 0.0258677453, 0.1465075314, 0.1658784747, -0.0565784276, -0.1663087010, -0.0904376730, 0.2129635513, 0.1930325925, 0.0712502301, -0.1630777270, -0.0337790400, 0.0307338089, 0.1139056385, -0.0633157641, 0.0198864639, -0.0896013975, 0.1687796414, 0.0019725412, 0.0043778718, 0.1503567994, -0.0365583301, 0.0396154523, -0.0135500282, -0.0399614125, 0.1878130734, -0.1877433211, -0.0032769293, -0.0999397188, -0.1903775483, 0.0881188214, 0.0405541956, -0.0604587644, -0.1043442264, 0.1010535359, -0.1299263537, 0.0188139826, -0.0666292906, 0.0443264842, 0.2076707482, 0.0409978628, -0.1887180060, -0.1614083946, 0.1506189108, 0.1260965466, 0.1405408978, -0.0446731448, -0.0862425864, -0.0276893824, 0.0594954491, 0.1905259192, -0.1302695125, -0.0032954812, 0.1145791411, -0.1437428892, 0.0556917191, 0.1542541385, 0.0488093495, 0.0427776575, -0.0060995668, -0.1269719601, -0.0971940830, 0.1366910338, 0.0224967450, 0.0307758451, 0.0187313855, 0.0090574771, -0.1526697278, -0.0189206749, -0.1545022875, -0.1897136420, 0.0552791357, -0.0454675853, 0.1661384106, -0.0958456844, -0.1206464395, -0.1255591512, -0.0704595149, -0.1662255973, -0.0324511230, -0.0733336508, 0.1077158451, -0.1597784460, -0.0959121734, -0.1525389403, 0.0812946558, -0.1321925521, -0.0023840219, -0.1489820778, 0.1528923213, 0.1738591492, 0.0120574683, -0.1093798503, -0.1889716089, -0.1139422879, 0.1664080322, 0.0812943578, -0.2121692598, 0.1234930754, -0.1385062635, 0.2021023333, -0.1801526845, -0.0827140510, 0.0584475696, 0.1374887824, -0.1291000992, -0.0745167881, -0.1238398999, 0.0811770856, -0.0157318860, -0.0415923297, -0.1751013547, -0.1967979521, 0.0576712787, 0.1963553727, 0.2115663886, -0.1992914677, -0.0694765449, -0.1895164698, -0.0679018945, -0.1754560471, -0.0833237171, 0.1604783237, 0.0393055975, 0.1855714619, 0.0438192189, 0.1662777364, 0.0359203964, -0.0660009682, 0.1927019954, 0.1604337692, 0.0461377203, -0.1231900752, 0.0402880609, 0.0630875528, -0.1294521540, -0.1390399486, -0.0717057884, 0.1782783270, -0.0259510130, 0.0271356851, 0.0390597284, 0.1137565970, -0.0877528787, -0.1282239258, 0.0878407061, -0.0079681128, 0.0361049622, -0.0570600927, -0.2023338675, 0.1204463840, 0.0051906556, 0.0717326701, 0.0912525952, 0.0327514857, 0.1646137834, 0.0593019128, -0.1720647067, 0.0373490155, -0.0351273268, 0.0180711895, 0.1387948990, -0.1792477369, -0.0030034035, 0.1306001842, 0.0264047831, -0.0772643536, 0.1288313568, -0.1607703567, -0.0012638569, 0.0244066119, -0.0860792696, 0.0440947413, -0.0138644576, -0.0109900236, 0.0930645764, -0.1699631512, 0.0155632943, 0.1314589977, -0.1869635284, 0.0297147483, -0.0418183208, -0.1009749919, -0.1878824979, 0.2009103000, 0.0096471161, 0.1131148636, -0.0101656467, 0.1264314055, 0.0567106307, 0.0448677242, 0.1106860638, -0.1376726031, 0.2120989561, 0.0382601917, -0.1676878929, -0.1370779276, 0.0378389657, -0.0954971910, 0.0596032739, 0.0485903919, 0.1042997539, 0.0795377195, 0.0029404759, -0.1962299198, -0.0840567499, 0.1792810261, -0.1376095116, -0.1738482118, -0.0800902098, -0.1269547641, 0.0427456796, -0.0511814356, 0.0690056980, 0.1525324881, 0.0906043053, 0.1644942760, 0.1435884237, 0.1485189199, -0.0963064209, 0.1046546102, -0.1289248317, 0.0158315748, -0.2079125196, 0.0744737983, 0.0247240067, 0.1717055738, 0.0974711180, -0.0549401343, -0.0368510634, 0.0758939087, -0.1138556749, -0.0711360127, -0.2067537755, -0.0736393929, 0.0061496347, 0.1195562780, 0.1078800261, -0.0845907331, -0.0133233666, 0.0525205731, -0.2111612707, -0.0673018396, -0.1523656547, -0.1546947360, -0.0492508262, 0.0669050515, -0.0905311033, 0.1914919019, -0.1200102940, -0.1529997289, -0.1052525267, 0.1788848639, 0.0273578167, 0.0969062150, 0.0633447468, -0.1076773182, -0.1001186445, -0.0773628652, 0.1035955846, 0.0121556222, 0.0648645461, -0.1553912163, 0.1306098700, 0.2056283355, -0.1248705015, -0.1073995754, 0.0009136349, 0.2116459608, -0.1718001813, -0.1704855412, -0.0042806268, 0.0832096040, 0.1231148839, 0.2001477182, 0.0091941655, -0.0335256010, -0.1163556948, 0.1477241814, -0.0481639653, -0.0608972311, 0.1747476757, 0.0541247129, -0.1174436286, 0.1537592411, 0.1225033104, -0.1970805824, -0.0669060200, 0.1711012125, -0.1864122599, -0.0898945928, 0.0769187212, -0.0513059795, -0.1466212422, -0.1268512905, -0.0550341308, 0.0595410466, 0.0314229131, -0.0292686969, 0.0382450521, 0.0275518298, -0.0944082886, 0.2121818066, -0.1851962805, 0.1490386724, 0.2062455118, 0.0617039800, -0.1506104171, 0.0162289143, -0.1585295200, -0.1519267261, -0.0121188760, 0.1433727443, -0.0565845221, 0.0807509124, 0.2036209106, -0.1915609837, 0.0029319823, -0.1676861644, -0.0486661196, -0.1281844378, 0.0516797304, -0.0879550427, -0.0737368315, 0.1593733132, 0.1950932741, 0.1987230778, 0.0777862966, -0.1042918190, -0.1236895397, -0.1821869314, 0.0977239907, 0.1591650248, -0.1665781140, 0.0215286613, -0.0292041451, -0.0131498873, 0.0006280690, -0.1649542153, -0.0240855664, 0.1903937161, 0.0917158127, 0.2057491839, -0.0174803734, -0.0165490061, 0.0218821913, 0.0985924006, 0.1953277290, 0.0377864540, -0.0156193078, 0.0058145523, 0.1185354292, -0.0965619981, -0.1614028960, -0.0067704916, 0.0421835780, -0.0488778353, -0.0012805313, 0.1320535243, -0.0804314315, -0.1339677274, -0.0876601189, -0.1136568710, -0.1826862544, -0.2122798562, -0.1002198979, -0.1602618396, 0.0690645576, 0.1937321723, 0.0476675928, -0.0092271566, -0.0560530871, 0.2064082623, -0.0729592294, 0.0138335079, -0.1090484336, -0.0381331146, 0.0176859945, 0.2066658437, -0.0460499972, 0.1048363745, -0.0272598565, 0.1984628737, 0.0123492479, 0.1373837590, 0.1235738397, 0.0017483830, 0.1194365025, -0.1019716337, -0.0275993645, -0.1783026308, 0.1695998013, 0.0125199258, -0.1274080873, 0.1858874857, 0.1688159406, -0.1887980700, 0.1921184957, 0.1954953671, 0.1572926044, -0.0328812599, -0.1810035408, -0.0638264120, 0.0986721814, 0.1620576680, 0.0993199348, -0.0493767411, -0.0758465230, 0.0556085706, -0.0214277059, -0.0861919075, -0.0145149976, -0.1509759426, 0.0411617756, 0.1793434918, 0.1139822900, 0.1320510805, -0.1289848685, 0.0837323368, -0.0068271160, 0.0598134995, 0.1988244951, 0.0640464723, -0.0747221410, 0.1470505595, 0.0429978967, 0.1133466363, -0.1308290660, -0.0796274990, 0.1188153923, -0.1932118833, 0.1485977471, 0.1219177246, 0.1429360509, 0.1055574119, -0.0914624780, 0.2093487382, -0.1900870949, -0.0518718213, 0.0281181335, 0.1559609175, -0.0111988783, -0.1974198818, -0.0903900415, -0.0149626732, -0.0673105717, 0.2019543946, 0.1624976099, 0.1425283253, 0.1232112348, 0.0582518876, 0.1456843317, 0.1396518648, 0.0830563903, -0.0364426374, 0.1112493575, 0.0852676630, 0.0791540146, 0.1621710956, 0.1561123133, -0.0404883772, 0.0645825863, 0.2099547386, -0.1297259331, -0.1179749146, -0.1480992585, -0.1512544900, -0.0680750757, 0.1255199611, -0.1711791307, -0.1667430550, -0.1214196831, 0.0468675792, 0.1897153556, -0.1168463677, -0.0634851456, 0.2098115683, -0.0374595076, -0.0583713800, -0.1197544560, 0.0158292800, -0.1380265355, 0.1571571827, -0.0905011594, -0.0009770691, 0.2068881094, 0.1077851653, 0.1343078911, -0.1962454766, 0.0108576119, 0.1478305757, -0.0156869590, -0.2047319114, -0.0314048678, -0.0442074239, 0.0445521772, 0.0831555128, -0.1841751486, -0.0355220288, -0.0292373896, -0.2063964754, 0.1470649838, 0.1699317396, 0.1700574756, -0.1199535131, 0.0009719878, -0.1447176635, -0.0282645822, 0.0973472297, 0.1603401303, 0.0554279685, -0.0333275497, 0.1163977385, 0.0721383691, -0.1517782509, -0.0036002547, -0.1197618321, -0.1963414401, -0.0409679711, -0.1347862035, -0.1648034900, -0.0321875662, -0.1169742048, 0.0323147923, -0.0314740539, -0.1188171357, -0.1977126598, -0.0803951919, 0.0973266363, 0.2047826350, -0.1885461509, 0.0058782548, 0.1205922067, 0.0968080759, 0.1796858013, 0.1593133807, 0.0057047158, -0.0240960866, -0.1673580110, -0.0500915796, 0.0783855319, 0.0442970991, -0.0148529708, 0.0492193103, 0.0188928694, -0.1534191221, 0.0353451967, -0.1096476763, -0.0674066991, -0.1300198436, -0.1244158670, -0.1037851349, -0.1101523265, 0.1524157226, 0.1373615563, -0.0475189686, -0.0179850757, -0.1813237816, 0.0924640894, 0.0518349111, 0.1742015481, -0.0480177701, -0.1778154671, 0.1491681933, 0.0689164400, -0.0851776749, -0.2017968297, -0.1303101778, -0.0001518279, 0.0139811188, 0.1448890269, 0.0248927027, 0.1304183006, 0.0660501719, -0.1049580574, -0.0994493514, 0.1187113523, 0.1836915314, -0.1479749233, -0.0612565577, -0.1302905083, -0.0098388046, -0.1169913337, 0.0942254961, 0.1817419529, 0.1941943467, -0.0962069407, 0.1671378016, -0.0309584737, -0.0836866498, -0.0410853922, 0.1224364042, -0.1000600308, 0.0494023561, 0.0104204565, 0.1653036773, 0.0105343759, 0.1279507577, 0.0237729996, -0.1400648952, -0.1844979674, 0.0854267478, 0.0817493200, -0.0164654851, -0.0981848761, -0.1098061204, -0.1022939533, 0.1516731977, -0.0746169239, 0.1377432048, 0.1881752014, 0.0333744735, -0.1004368439, -0.1701024771, -0.2066057026, -0.0100362748, -0.1794367731, 0.1359954774, 0.1668155789, 0.0599578619, 0.1519471705, -0.0966261476, 0.0331879705, 0.0021874607, 0.1140281856, -0.0267141312, 0.1735827625, 0.0987936854, 0.1251750886, -0.0098541528, 0.1299241185, 0.1610020995, -0.0037156940, 0.0381162465, -0.0366273075, 0.0044885278, -0.1837207675, -0.1612312496, -0.1194017902, 0.0042973012, -0.0592549890, 0.2116518021, 0.0982698798, -0.0754191428, -0.0031721592, 0.0631263852, 0.1321960092, 0.0652619004, -0.1947749853, 0.0223032236, 0.2032805383, -0.0684860945, -0.0540903956, -0.1823350638, 0.0393110812, -0.1180882677, 0.0313351899, 0.1033788025, 0.0672770441, -0.1163159981, 0.1081714928, -0.0144598037, -0.1146371514, 0.1807362139, 0.0814302564, -0.1844823658, -0.1983832717, 0.1611513495, -0.0108071268, 0.0354933143, -0.0034286082, -0.1498950720, 0.1255990565, 0.2071526051, 0.2017612457, 0.0083747655, -0.1830782145, -0.0704897046, -0.1411774457, -0.0333669037, 0.1402556598, 0.0844958723, 0.1284953654, 0.1699261963, 0.1633567810, 0.0917416811, -0.1991875768, 0.0407519937, 0.0380895138, 0.0941083729, -0.1764771342, 0.0898771584, -0.0817398280, 0.0593834817, 0.1801413894, -0.0030187517, -0.1756180972, -0.1032482088, -0.0538574457, -0.1533554345, -0.0664216429, -0.1966906488, 0.1540204585, -0.1224164292, -0.0537113994, 0.0509520471, 0.1561262310, -0.0944220126, 0.1363831162, -0.0781533867, 0.0706163645, -0.0878353268, 0.1619103551, 0.1845797002, -0.0933627412, 0.0939893425, 0.1562423706, 0.0078141540, 0.1588557661, -0.1973584145, -0.0810372978, 0.0807394087, -0.0958872661, 0.0173726678, -0.0438809842, -0.1720527112, 0.1574194729, 0.1897874475, 0.1449099779, -0.1232336909, -0.0858964324, -0.0127720088, 0.1707218885, -0.1641692221, 0.1702552140, 0.0763340592, -0.0215684623, 0.0496479273, -0.0267249644, -0.0013360977, -0.0388752967, -0.0097915232, -0.0008761734, 0.1864941418, 0.0975311399, 0.1538434625, -0.1067413166, 0.1502892673, -0.0740014613, 0.0267421007, 0.1012435853, -0.1659827232, -0.1783424318, 0.1547729969, 0.0176836550, 0.1897172034, 0.0680460930, 0.1723341048, 0.1654014289, -0.0838195831, -0.0962883234, 0.0949489772, -0.1641542315, 0.0547382832, -0.1210343838, 0.1108395755, 0.0336279720, 0.0426541865, -0.1692007333, -0.0910109952, 0.1630463302, 0.0820432305, -0.0927060544, -0.1211771145, -0.0856399387, 0.1718360186, 0.2012344301, -0.1781913191, 0.1939837635, -0.1026419476, 0.1029836237, 0.1091646850, -0.2034711987, -0.1123486385, -0.1519984007, -0.1333382428, 0.0078803897, -0.0808067769, -0.2001384646, 0.0186614841, 0.1353626251, -0.0006566793, -0.1375966966, 0.1621077657, -0.1299699694, -0.0611583441, -0.0593954325, 0.1514256299, -0.2025065273, -0.0492309481, 0.0182843208, -0.0905523971, 0.1314694285, -0.0257776231, -0.1881182492, -0.1638267785, -0.1262090802, -0.1373474300, 0.0762293935, -0.0403036028, -0.0693382323, -0.1373259723, 0.1566554308, 0.1442065239, -0.1017640904, 0.0601368546, -0.0407992005, -0.0320557207, -0.0910696536, -0.1472347677, 0.1544687748, -0.1455993950, 0.1170955896, 0.0393868685, 0.1105768681, -0.0643007755, 0.1240758002, 0.0110118836, -0.0205298811, 0.1248575449, -0.1954657733, 0.1902704835, 0.1865075231, 0.1150534451, -0.0982296616, 0.0811357498, 0.0461270511, -0.0826319158, 0.0364147723, 0.0456664860, -0.0986435264, 0.0194451958, -0.0296033770, 0.2053819001, 0.1686130166, -0.0294923037, 0.1597141325, -0.0341604799, -0.0647068173, -0.0138678253, -0.2060290724, -0.1300149560, 0.2076353729, 0.1829018891, -0.1120838076, -0.2124625444, 0.0745166838, -0.0839498043, -0.1145681739, -0.0498578548, 0.1223060191, -0.0530533493, -0.1063797548, -0.2049624324, -0.2084162533, 0.1700503826, 0.0196707845, 0.0257324874, -0.1303362548, -0.2089104354, 0.1285632253, 0.1269388497, 0.1083586514, 0.0983886719, 0.1692480445, -0.2036712319, 0.1662666202, 0.1086754203, -0.0350425988, 0.0579630733, 0.0300691426, 0.1834583879, -0.0743971318, -0.1527426243, 0.0415845513, -0.2058216780, -0.1414233148, 0.0486561954, -0.0504679829, 0.2015168071, 0.0043477863, 0.0728616416, 0.1092798710, 0.0612833500, 0.0968826413, -0.0389032662, -0.1774669290, 0.1560949683, -0.0970091075, 0.0342752486, 0.0521231294, 0.2003843784, 0.2029317319, -0.2018958479, 0.1271508336, -0.0943217725, 0.1852692664, 0.0486610234, -0.0655550808, 0.1579474509, 0.1372461617, 0.1131666005, -0.1701576263, -0.0395550132, -0.1585511863, 0.0207480937, 0.0192073137, 0.0325301737, 0.1213952303, -0.1699367613, 0.0981541276, 0.0853733718, 0.1351974905, -0.0606670678, -0.0822241455, -0.0395555794, 0.1931303442, 0.1605254114, -0.0486063957, 0.0605435073, 0.1763164103, -0.0615417659, 0.1039382517, 0.1613890827, 0.1342747509, 0.1003766060, 0.0516201258, -0.0806548446, -0.1499961168, 0.1190615892, -0.0211092085, 0.0614814162, -0.0233507454, 0.0449205339, -0.1651457846, 0.1235087812, 0.0431531966, -0.0597320348, 0.0878286064, 0.1418823600, 0.2022498846, 0.0841638148, -0.0799906850, 0.1380279064, -0.1389425546, 0.1728284359, 0.0126133561, -0.0120382607, 0.0856337249, 0.0550401211, -0.1569339335, 0.0897432268, 0.0999244153, 0.1897191405, 0.1828870773, -0.1743035614, -0.0611583441, 0.1797235608, -0.1082693413, -0.0259455740, 0.0894297957, -0.0441979766, 0.1262038946, 0.0035979748, 0.0648813546, 0.1015326977, 0.0372193754, 0.0946983397, 0.1771655381, 0.1375603974, -0.1856344491, 0.1045515537, 0.0540688932, -0.1347847879, 0.2062973678, 0.2095758021, -0.1123417690, 0.1070833504, 0.0606999695, -0.1320317686, 0.1630586684, -0.0078732669, -0.0357421786, 0.0455929637, 0.1093752682, -0.0130657107, -0.0284021348, -0.1644791961, 0.1356965303, -0.1522790343, 0.1159028411, -0.0838489085, 0.1376045942, 0.0069346279, 0.0499795973, 0.1726834178, -0.1994957626, -0.0081031173, -0.0185014755, -0.1822690368, 0.2047033608, 0.1007527113, 0.1600466371, 0.1896679997, 0.2121168077, -0.1365308762, 0.0907517672, -0.0532614440, -0.1886875182, -0.2123072147, 0.1604825556, -0.1167188287, 0.0199998617, 0.0263237506, 0.1724132001, 0.0567247272, -0.1658093929, -0.0537260473, 0.1610547602, -0.0167276263, -0.0761246234, 0.0273574591, -0.0774174631, 0.2035582364, 0.1776500046, -0.0265740007, 0.0316629410, -0.1576020122, -0.0136214346, 0.0383454859, 0.1446769536, 0.0243911594, -0.0024606287, -0.0438651741, -0.0869792253, -0.1082143486, -0.1287017316, 0.0884169340, 0.2047167122, -0.0960929766, 0.1947319806, 0.0802290142, 0.0344235301, 0.0681042075, 0.0071679801, 0.2101023793, 0.1285669208, 0.1642882824, 0.1692123115, 0.1395341754, -0.2076159120, 0.0058985353, -0.1773378104, 0.0750506222, -0.1203681901, 0.0512132049, 0.1218927801, 0.1334064007, -0.0821956843, -0.0773645937, -0.0838359892, -0.0870794207, -0.0256359130, 0.0310585052, 0.0657798648, -0.1079340652, 0.0456206799, -0.0386928171, 0.1306033731, -0.0604522079, -0.1294618547, -0.0663344264, 0.0855264366, 0.1546054780, 0.0544285178, -0.1856479198, 0.1459917128, 0.0748201013, -0.0249634087, 0.0374366939, 0.0953940153, 0.1558539271, -0.0563644320, 0.1147509515, 0.0270263851, 0.0269415528, 0.0466023684, -0.0454118103, 0.0687972903, 0.1530751586, -0.0317485482, 0.1728392243, 0.2025178075, -0.2031503618, 0.0758712888, 0.1273718476, 0.1266011000, -0.0579526871, -0.2064817250, -0.0636201948, 0.2057883739, -0.0194127262, 0.0396186709, 0.0272471011, 0.0234751850, -0.1379665434, -0.0215356201, 0.1496007442, 0.1319677234, -0.0272932500, -0.0598852932, 0.1349493265, -0.0317736566, 0.1524824202, -0.0762910396, 0.1421617270, -0.1517875493, -0.2064258158, 0.1330679059, -0.1348860860, -0.0749983191, 0.0997368395, 0.1387951970, 0.0693198144, -0.1033237427, 0.0688712895, -0.1931888014, 0.0776296258, -0.2089642137, 0.0332544595, -0.0626824200, 0.1704306304, 0.1832050979, -0.1292877197, 0.2003711164, 0.0025820136, -0.0347996205, -0.0113446712, -0.1808271110, 0.2019276321, 0.0617660880, 0.0396524966, 0.0017672926, 0.1911444664, 0.0116046220, 0.0560694635, 0.0739547908, 0.0413785279, 0.0731543303, 0.0426148474, 0.0696766973, -0.1677437723, -0.2107698768, -0.1365153193, -0.0394663215, -0.1033048853, -0.2075206041, 0.0144922286, 0.1298482418, 0.1865473688, 0.1393811405, 0.0779710114, -0.0499876291, 0.0299257934, -0.0804818571, 0.1108808815, 0.0837876499, 0.0694840550, 0.0200360119, -0.2089490592, 0.1278641522, -0.1318006963, -0.1998145282, -0.1322137415, -0.1694100052, 0.0146266222, 0.2105378807, -0.1907499880, -0.1403381824, 0.2035997510, -0.0711017549, 0.1616643667, -0.2040590197, -0.1937215179, -0.1144593954, -0.1412243545, 0.1387104094, 0.1791002750, -0.0990721360, 0.0324892551, -0.1113748178, -0.0171447992, 0.0266609192, 0.0143533498, -0.1856270283, -0.0423769504, 0.0898763835, -0.1108141989, 0.1594117880, -0.2018709928, 0.0058377832, -0.0995994061, 0.0464311838, 0.0119440705, 0.0991449356, -0.0553340316, 0.1020073295, -0.0527624935, 0.0790221989, -0.0216591954, 0.1280955374, -0.0947124064, 0.1131009459, 0.0084908605, 0.0756815970, -0.1497869939, 0.1651982963, 0.0001083761, -0.1742325425, 0.0953892171, -0.1594055891, -0.1893301159, -0.0090242773, -0.1712496281, 0.0206286013, -0.0362881571, 0.0634331405, 0.0544655323, -0.1212004498, 0.0427044034, -0.1396113932, 0.1288532615, -0.1948849261, 0.0873895288, -0.0963808894, -0.0684509277, -0.0375199020, -0.2067078203, -0.0111499876, 0.0141736716, -0.1681814194, -0.1682478040, 0.2042305768, -0.1120724678, 0.2008894980, 0.1223739982, -0.0375230461, 0.1969718635, -0.2035673708, -0.0737254024, -0.0680224746, -0.1053450853, 0.1424265206, 0.1058721542, 0.1099288762, 0.1688450277, -0.0784032792, -0.0837582201, -0.1512831151, 0.1247456670, 0.0756355822, -0.1481544971, -0.2045364231, -0.0267754346, 0.1694091260, 0.1086583436, -0.1723047197, -0.0439140350, -0.1795660853, 0.0855940282, 0.0218029022, 0.2032142580, -0.1640846431, -0.1611289680, 0.1225532591, -0.1991619617, -0.1455586255, -0.2081819624, -0.1148869842, 0.0155696422, 0.1669255793, -0.1390860528, 0.1421083212, -0.1597430110, 0.1447757781, 0.1807311773, -0.0446542352, 0.1367231607, 0.0795723498, 0.1459907293, -0.0386417806, -0.1609499454, 0.1045934558, -0.1225127503, -0.1329909563, 0.0973050296, -0.0768261999, 0.1973157227, -0.1916207224, 0.0670886040, 0.0511468351, 0.1217616200, 0.1372841895, -0.0129547864, -0.0235003978, -0.1526661664, 0.0269993544, -0.0477828830, -0.0832797587, 0.0446957052, 0.0659879148, -0.0924036130, 0.2097511590, -0.0405205488, 0.1848407686, -0.1900165379, -0.0395009369, -0.0215508193, 0.1560201049, -0.0198859572, 0.0817621946, 0.0533044636, -0.1269677281, 0.0720313191, 0.0774689913, 0.1664405465, 0.1941089928, -0.1617471278, -0.1529962122, -0.1951311529, 0.2128298581, 0.1072747409, 0.1645980477, 0.0909720659, 0.1672168076, 0.1612120867, 0.0525116324, -0.1648593098, -0.0126614422, -0.0037273318, -0.1044021174, -0.1316632926, -0.1913572550, 0.1125595272, 0.1289395094, -0.1352787614, -0.1949435920, -0.0203343332, -0.1933701187, -0.0745020956, 0.1097861528, -0.1326295435, -0.1975999177, 0.2005505562, -0.1651009619, 0.0950430632, -0.1337682605, 0.0865322351, -0.0278994590, -0.1741603166, 0.1810260117, -0.1898534745, 0.0304934680, -0.2089385390, 0.0973749459, -0.1549292654, -0.1516931653, -0.0221545398, -0.1040540338, 0.1341586411, -0.1582311392, 0.1773081720, 0.1641461849, 0.0247721374, -0.1135746762, 0.0440826416, 0.0938973427, -0.0990743190, 0.1471391618, 0.1320696473, 0.1418972015, 0.1453716755, 0.1595517397, 0.1411051154, 0.1251655817, -0.1083876267, -0.1930569410, 0.0524685383, 0.1406013370, 0.0200130790, -0.0645363182, 0.1632055342, 0.0712138414, 0.0580617785, 0.0897169411, -0.0806143731, -0.1800072491, -0.1808263958, 0.1150913835, 0.1163378656, 0.0721231997, -0.0856128484, 0.0467374921, -0.1815682203, 0.0233748406, 0.0661487877, -0.0873318017, -0.0069572926, -0.0350855440, 0.0882346630, -0.0684499592, 0.1262423396, 0.0276011378, 0.0403490961, 0.1879808605, -0.0132777244, -0.1543650329, -0.0488781333, 0.0900090635, 0.1369728446, -0.0382731110, 0.1245941818, -0.1769039184, 0.0291284621, 0.1534479856, 0.1215570867, -0.1100660190, 0.0108055025, 0.0385760665, -0.0921527594, -0.0175792426, -0.0371834934, 0.1803494990, 0.0432038605, -0.0187859684, 0.0388248265, -0.1352072358, 0.0078354031, 0.1365165412, -0.2021086216, 0.0622976124, 0.0569799244, 0.0003030598, 0.1024179459, 0.0189321637, 0.0509314537, -0.0647498667, -0.0156525522, 0.2121706307, 0.1573067307, -0.2076538354, 0.1326649189, 0.0492061973, 0.0899641812, -0.1754721701, 0.1713738143, 0.1009746790, -0.1384110153, -0.2011547834, 0.1780985892, -0.1079426557, -0.1723267883, -0.0598241836, -0.1623052508, 0.1761322916, 0.1043911874, -0.0285882801, -0.0644584000, 0.0549979806, -0.0796725303, 0.0786134005, 0.0618374944, -0.0241112858, 0.0891335905, -0.0402961820, 0.0636219680, -0.1692787558, -0.0025107414, -0.0121203065, 0.0449855924, -0.0631103665, -0.0047509223, 0.0386645496, -0.1451491714, -0.1410815716, 0.0161393583, -0.1967537850, 0.1059460640, 0.1373670101, -0.0572796911, 0.0174258947, 0.0432835817, 0.1775225401, -0.1434462965, 0.1127304733, -0.1321356744, 0.0867620707, -0.0932735354, 0.0825521648, -0.1215690747, 0.1314944327, 0.0918843150, -0.1063037068, 0.0241916031, 0.1639502347, -0.1738437861, -0.1045984849, -0.0691539645, -0.1212134138, -0.1246595979, 0.0399068296, -0.1380987614, 0.0138184130, -0.1793515384, 0.1105499864, 0.1537655294, 0.1237049401, 0.0503408611, 0.1549511850, 0.0918803215, -0.1420733929, -0.1893194020, 0.1575409174, 0.1279155910, -0.0892221481, -0.1726445854, -0.0771678835, -0.0166699290, -0.0447619408, -0.0514956266, 0.1281720698, -0.1858087480, -0.1757105589, 0.1897217333, 0.0001966655, 0.1931500733, -0.0550388098, 0.0390509367, -0.0630500317, 0.0466714501, 0.2041050196, 0.1660101712, -0.1414026767, 0.1932443678, 0.0850589275, 0.1020817757, 0.1646036804, -0.0899769887, -0.0290826112, 0.2054840624, 0.1450361907, 0.1155848503, 0.0265332311, -0.1800314486, 0.0061879605, -0.1924223155, 0.1953313351, -0.2023487538, -0.0643301606, 0.0700431466, -0.1809007078, -0.1416469216, 0.1756370068, 0.0272439420, -0.0546648353, -0.1863023639, 0.0131394118, 0.1308405995, -0.0361777991, 0.1055817008, 0.1003282666, -0.0861036628, -0.0800345540, -0.0954107791, -0.0619572103, 0.1956666708, 0.1673758924, -0.0026681721, 0.1483463347, -0.1268289685, -0.0450382084, 0.1972802877, -0.0911737531, 0.0169388205, -0.2080049813, -0.0418100804, -0.1753606945, -0.1343937814, -0.0539145172, -0.0210128278, 0.0330482423, 0.1202712953, 0.0815609396, 0.0510253012, 0.1452009082, 0.1674978435, -0.1033777744, -0.0197341293, -0.1619372815, 0.1369694471, 0.1377615929, 0.1784878671, 0.1070187390, 0.1025797129, 0.0842073262, 0.0503973365, 0.0740051866, 0.0532894433, 0.1735349000, 0.0522620678, 0.1874687970, -0.1726726443, -0.1643265486, 0.1599210203, 0.1062406898, -0.0851456076, -0.1656193286, -0.1499333382, -0.1034463942, -0.1397598684, -0.1748568565, 0.0129512399, -0.0278937221, 0.0519020259, 0.1776069999, 0.0096086860, -0.1647581458, 0.0021280348, 0.0810953379, -0.0947130173, -0.1440732330, 0.0091795772, -0.0120396763, -0.0147503465, -0.0526380539, -0.1263310760, 0.1571998894, 0.0221349299, -0.0388627499, -0.1078445986, 0.0480762124, 0.0042060167, -0.1861851066, 0.0452835262, -0.0622102469, -0.0622319579, -0.1096677035, 0.0796367526, 0.1878143251, 0.0316503346, 0.1772328913, 0.1722387969, -0.0711701810, 0.1132373214, -0.2068184316, -0.0479501188, 0.0389969945, 0.2021727264, 0.0117667168, -0.0562715083, 0.0787754059, 0.0546080470, 0.0459443629, -0.1810989082, -0.0919730216, -0.0389118493, 0.0746790469, -0.1484841406, -0.0567139387, -0.0167600513, -0.2003397048, 0.1210280359, 0.1320930719, -0.0688342899, -0.1487676352, 0.1227583289, -0.0818547606, 0.0448642075, -0.1499572396, 0.1059246659, -0.1215287670, 0.0915240347, -0.1867378950, 0.1822038591, -0.0881172419, -0.0535848886, 0.1366954148, 0.1531617641, -0.1064950377, -0.1085172966, -0.1192585006, -0.1827419698, -0.0691791326, -0.0647825003, -0.0890917182, 0.0775863826, 0.1471856236, -0.0891122520, 0.1159049869, 0.2005467415, 0.1050330997, 0.0360303372, 0.0748128891, -0.1142233312, -0.0335110575, 0.1274962127, 0.0604742169, 0.1393452883, 0.1940801144, 0.0559504628, -0.0334025323, 0.0573042035, 0.0756808221, -0.0440810025, -0.1309949160, 0.1686252654, -0.1111860275, 0.0872260034, -0.0514681339, -0.1117531508, -0.2038435489, -0.0001615435, -0.0394630134, 0.0935738087, 0.0613935888, 0.1521637440, -0.0052440763, -0.1478624344, -0.0474840403, -0.1796487421, 0.0833092928, 0.1241922677, 0.0178403705, -0.1501673162, -0.0893073976, -0.1277481019, 0.1052001119, 0.0486199260, -0.0313189626, 0.2047448754, 0.1065579653, 0.0386798680, 0.1647613943, 0.1822199225, -0.1627795994, -0.0768483132, -0.0865362436, -0.0071662068, -0.0692710280, -0.0512059927, -0.0354362875, -0.1793949902, 0.0329008847, -0.0191472769, 0.1431030631, -0.1595058888, 0.1376826167, -0.0208800137, -0.0116278976, 0.2111527920, -0.1816817224, -0.0399479866, 0.1998616457, 0.0546679497, -0.1209279448, -0.1207181141, 0.0490927398, -0.0115088075, 0.1484743953, -0.1873988509, 0.1243405342, -0.1851502359, 0.1444396377, 0.1172940433, 0.0632063746, -0.0391853750, 0.1679493785, -0.1539994180, 0.0905302763, 0.1344833076, 0.1329261363, 0.0949675739, 0.1689307094, -0.1615439057, -0.0702452064, 0.0076327920, 0.1474608779, 0.0640298426, 0.0372895896, 0.1049797237, 0.0114914626, -0.1623684317, -0.1915295720, -0.0309236497, 0.0191151053, 0.1748180091, 0.1737501025, 0.2129879296, 0.0069886595, -0.0225535631, -0.0493446589, -0.0583422631, -0.1416863203, 0.0601024330, -0.0510128289, -0.1321908832, 0.1622668207, 0.0012069792, -0.2042963505, -0.1462228298, 0.0456057787, -0.0528035611, -0.2098129392, -0.2050482929, 0.1625783741, -0.0913613215, -0.1252282560, -0.2046934813, -0.0729853064, 0.0376837254, 0.0471671224, -0.0940314755, 0.0274311602, 0.1489912271, -0.1239499971, -0.1104819179, -0.0804699659, 0.0419601500, 0.1112315357, -0.1637084931, 0.1091498435, -0.0293989331, -0.1029947102, -0.1651777178, -0.1529193521, 0.1835984588, 0.0740995705, -0.1333354861, 0.1583732069, 0.1204353869, 0.1812754869, 0.1172742546, -0.0231369585, -0.1651552916, 0.0233466774, -0.0442204922, 0.1112673581, 0.1963200867, 0.0952840447, 0.0129111260, -0.1961023808, 0.1712726653, 0.1371972859, 0.1854796708, 0.1357025802, 0.1158993244, 0.2059309781, 0.0982021689, 0.0451477468, 0.0061306208, 0.0435450971, 0.0788165927, 0.0988946259, 0.1934305131, 0.1933899820, -0.1765621901, 0.1932443678, -0.1261998713, 0.1182437539, 0.1342687905, -0.0643822551, 0.1669356525, 0.0913762748, 0.1260858774, 0.0312077552, 0.1448215246, 0.0444539189, -0.1161758527, 0.1342060268, 0.0611986518, 0.1278395355, -0.1207410395, 0.1564197242, -0.0391978323, -0.0350454897, 0.0686999559, 0.1177192330, 0.1019607484, 0.1410350204, -0.0701788664, -0.1087616459, 0.1596755087, -0.0620466769, 0.1968414187, -0.1058008894, -0.0610727519, -0.1809533685, 0.0926172435, -0.0915204212, -0.1937895268, 0.2108737826, 0.1036317348, 0.1567054093, 0.1584503949, 0.1864635050, 0.1888201833, -0.0097315013, -0.0151069760, -0.0826770961, 0.1057530046, 0.0093612373, 0.0125788003, -0.0690391362, 0.1777391136, 0.1252498031, -0.1715479493, 0.1085996926, -0.0354772061, -0.0689418018, -0.1345650405, 0.1207545102, -0.1604678035, 0.0249962509, -0.1262857914, 0.0766555965, -0.1083097011, -0.0550376326, -0.1628137678, 0.1627705991, -0.0864691436, -0.1192501113, -0.0561487973, 0.0525348783, -0.1408580244, -0.1973712295, 0.1465116441, -0.0690518469, -0.1780983955, 0.0184170455, -0.0750384629, 0.1819315255, 0.1018247306, 0.1092273593, 0.0238232315, -0.0092477351, -0.1640963852, -0.2068271190, 0.0681206286, 0.1024134159, -0.0427470952, 0.1321284473, 0.1435307562, -0.1147411019, -0.0060815215, 0.2020652592, -0.0811416954, -0.1286912560, 0.0037999302, 0.1481088698, -0.0343808234, 0.1113732457, 0.1874966919, 0.1692048013, -0.1426820904, 0.0394981503, -0.1345398277, 0.0937872231, -0.1826716661, -0.0712195337, 0.1010833085, -0.0478596389, -0.1497548819, 0.0397970676, -0.0900057107, -0.0050948411, -0.0741873085, 0.1840406060, 0.0875737667, -0.1639020592, -0.0810427815, 0.2096451819, -0.0112675577, 0.0840142071, -0.1395713836, 0.0524058640, 0.0539544225, -0.0584376156, -0.0174631923, 0.1488945484, 0.1715441048, -0.0509275347, -0.0104023665, 0.1649666727, -0.1866042614, -0.0382253826, -0.0328557938, -0.0963147059, 0.0852354169, -0.1647844315, 0.0320153087, 0.1463513374, 0.1669616401, 0.0243633986, 0.1121463180, 0.0848834813, 0.1371537149, 0.0142266899, -0.0355351418, 0.1899824739, -0.0103789270, 0.1226711571, -0.1849815845, -0.0497797281, 0.1924033165, 0.1039810479, -0.0819608867, -0.1038007364, -0.1537244171, -0.0106989592, 0.0472579002, 0.0786641538, -0.1168111935, 0.1745518744, 0.0503205657, 0.0658239722, 0.0593045354, 0.0975915194, 0.0879808664, -0.1524584740, 0.0675157309, -0.1432017982, 0.1636402905, 0.1729050875, -0.1123385206, 0.0842636228, 0.1522662938, -0.1113482788, -0.1201124638, 0.1332909465, 0.1615569592, 0.1953059137, -0.1484638155, -0.0640784949, 0.0634786785, -0.1941854507, 0.1331326663, -0.2019514591, 0.0213877559, -0.2022656500, -0.1142314151, 0.1081334352, 0.2109124064, 0.1476714611, 0.0356637537, 0.0029901415, -0.0437624007, 0.0301590562, -0.1921452880, -0.0525484383, 0.1674216092, 0.1195064187, -0.1400032938, 0.1785784960, 0.0960751474, -0.1122877896, -0.1777699292, 0.1889538169, -0.1418882161, 0.0973584056, 0.0118754506, 0.1126314104, 0.0501680374, 0.1826313436, -0.0976008773, -0.0010121465, 0.0965918303, -0.1772667468, -0.1610311270, 0.0724943876, 0.1594974399, 0.0519742966, -0.0276700109, 0.1251141429, 0.1122475863, -0.1600600481, -0.0211602896, -0.1868126690, 0.0912125409, 0.1648471951, 0.0755132437, 0.0546093285, 0.1760895550, 0.0663029552, 0.0285454839, 0.0461113155, -0.1230879053, 0.1821488142, 0.1897589862, 0.0876255631, 0.1169589162, 0.0340572298, 0.0872323215, -0.0022134930, 0.0659330487, -0.1722087115, 0.1152887940, 0.0834917128, -0.0598101020, -0.1205730960, -0.0184031576, -0.1183443591, 0.0888051987, 0.1862354279, -0.0525359362, 0.0604705513, -0.1847336292, 0.0777027905, -0.1670234352, 0.0771314800, -0.1682464331, 0.0222239345, 0.1837184131, -0.0452880412, -0.1628533602, -0.1400652528, 0.0547175109, -0.0692080557, 0.0650066733, 0.0835525095, 0.1186092496, 0.0924289227, -0.0512670428, 0.0594553649, 0.0847004354, -0.0894584134, -0.0694487393, -0.0806916952, -0.2111480087, 0.1397904158, 0.0948751569, 0.1617343724, -0.0292455703, -0.1048555374, -0.1641097963, -0.1066813320, -0.1531132311, 0.0141450465, -0.0203195959, -0.0524121076, -0.1130030304, 0.2118894160, -0.0855413228, -0.1114993468, 0.1149600148, -0.1346659958, 0.0787576139, 0.1995510757, 0.1017680466, -0.1924313754, 0.2063600719, 0.0670804679, 0.0897506773, 0.0319923311, -0.0862286687, -0.0615441501, 0.2002757788, -0.0423763990, 0.1025580168, 0.0706082880, -0.0891470239, -0.1294459403, 0.0979684293, 0.0708002746, -0.0532314628, 0.0609114170, 0.0556840599, -0.1848143935, 0.1055934429, 0.1085639000, -0.1158999950, 0.0285733789, -0.0993124619, -0.0594052374, 0.0158445388, 0.0103128552, -0.0375198424, -0.0868757963, 0.0405234098, 0.1313825250, 0.1158326864, -0.1946550310, -0.1499754190, 0.1252284944, 0.2079900801, 0.0007607937, -0.0487360060, 0.1748343408, -0.1882048249, -0.1815143973, -0.1441502869, -0.1629353464, 0.1820431948, 0.0215750188, -0.0869500488, 0.1968632340, 0.2012340426, -0.1542073190, -0.0936778933, 0.0093857944, -0.0060721189, 0.0916448534, 0.0247366577, 0.0142928213, 0.1791968048, -0.0100254565, 0.1924171746, 0.1899898946, -0.1465617716, 0.0418523848, 0.1988544762, 0.1894759536, 0.0372094810, -0.0089192688, -0.0613055080, -0.1660456061, -0.2098835409, 0.0991615355, -0.1726697981, -0.0853832960, 0.0704611242, 0.0448431075, -0.0607566386, 0.0579767823, 0.0060691237, 0.0107955486, -0.1742121130, 0.0989397168, -0.0516759753, 0.1623806953, 0.0818320215, -0.0694375038, 0.0147300214, -0.1865811795, 0.2042522132, 0.0979149640, 0.1380164027, 0.0086298287, -0.0312620848, -0.1559861004, 0.0874745846, -0.0870633572, -0.0886375457, 0.1666530967, -0.0534037799, -0.1749022454, 0.0846154988, 0.0172985047, 0.0947858691, 0.1109719276, -0.1026508883, 0.1493228674, -0.2081983835, 0.0658637285, 0.0928303897, 0.0426327884, 0.1800386608, 0.0423952937, -0.1618861556, -0.0051718503, -0.1740888506, -0.0115465671, -0.0531056523, -0.1945845187, -0.0299550742, 0.0587022007, -0.0812376142, 0.1458063126, -0.1942161471, 0.1299551725, -0.0871834159, 0.1871517003, 0.0277059078, 0.2020191550, 0.0379697382, 0.1864086092, -0.0817932487, 0.0566665232, 0.0180004239, 0.0757510066, 0.0410387218, -0.1584481895, -0.1619197428, -0.0125345737, -0.0972980261, 0.1131849587, -0.1065763161, 0.0678679943, 0.2031483352, -0.0692822635, 0.0441935062, -0.1003047824, -0.1540281773, -0.0155098587, -0.2053140849, -0.1582773030, 0.0585425794, -0.0439926088, -0.1437626183, 0.0256105512, 0.0019974560, 0.0627126694, 0.0675407946, -0.1930216700, -0.0101573020, 0.1560916305, 0.1558222771, 0.0019074380, -0.1256831288, -0.1859442145, 0.1220268011, 0.2036098242, -0.1970968395, 0.1901585162, 0.0618238151, 0.1011098921, -0.1121726036, -0.1784920394, 0.0978731811, 0.1521899700, 0.0496406555, -0.1062804312, 0.2017782331, -0.1895981431, -0.2043253630, 0.0052804798, -0.1925405562, 0.1143693328, -0.0170395225, -0.0700634867, 0.0981335342, -0.1515119970, 0.1508390605, 0.1322286427, -0.1747639328, 0.1417629719, -0.0920706689, 0.1257650852, 0.0076568723, 0.1663329601, -0.1516172737, -0.0380751193, 0.0500251949, -0.2009773850, -0.0150756687, 0.0558473766, 0.0882604718, 0.0043085366, -0.0869689137, -0.1311882883, -0.1802786887, -0.0130138546, -0.1661704481, -0.1633148491, -0.1697791368, 0.1983944476, 0.1373046935, 0.1060343087, -0.0640740693, -0.0708755106, 0.1461679935, -0.1585084349, 0.0729539394, -0.1285721660, 0.0057818294, -0.0365117639, -0.0995514691, 0.0059093088, 0.1674758792, 0.0969609618, -0.0429786891, 0.2074946463, -0.0786581933, -0.1640309691, 0.1470462978, 0.1186011434, 0.1565196216, -0.1482286155, -0.1510538161, -0.2050354332, 0.1058996022, -0.0571432561, 0.1500499845, -0.0680164695, 0.1954315603, 0.0524657965, 0.1481622458, -0.0149280578, -0.2122941017, 0.1348824799, 0.0700263679, 0.0977652073, 0.1495848894, -0.0635491312, 0.1613022685, -0.1782015264, 0.0923146009, 0.0299552679, 0.0236110091, -0.1956641227, -0.1204424575, 0.1527280807, 0.0341065973, -0.2041811645, -0.0014411658, 0.0403689146, -0.0351847112, -0.1152898669, -0.0389969945, 0.1547778547, 0.1515898108, -0.1835411787, 0.0279488713, -0.1278257072, -0.1752734184, 0.1097139120, 0.1216493845, -0.1735894829, 0.1498325467, 0.2094642222, 0.0088092685, 0.0724132955, 0.0604360402, 0.1192761958, -0.0638767928, 0.1609762609, 0.1136856377, -0.1510964036, -0.1935923994, 0.0913532972, -0.1599688530, -0.0771427751, -0.1285020113, 0.2056222856, -0.1103829518, -0.0295439512, 0.2055197954, 0.0665282309, -0.1706853509, -0.0078522712, -0.0679051429, -0.1877098233, 0.1049647331, -0.1179327294, 0.1403843760, -0.1073849872, -0.1342059225, -0.0913685411, -0.0628175288, 0.0405185819, -0.1402534842, 0.0911164582, 0.0379540324, -0.0892480761, 0.1791889369, -0.1426793039, 0.0822890997, -0.0086412281, 0.1697150469, 0.0574131608, -0.1059585661, 0.1375434697, -0.0961268842, -0.0624580979, 0.0013361424, 0.0568565726, 0.1943069696, -0.0434114635, 0.0951053798, -0.0285676420, -0.1121345833, -0.0816314071, -0.1811846495, 0.0180284381, 0.1169130504, 0.1679205596, -0.0441831350, 0.1764385998, 0.0759315193, -0.0947128683, -0.0387531072, 0.1340264380, 0.1506320536, 0.1820062995, 0.1103760898, 0.0906576216, -0.0059222728, 0.0676795244, -0.0948687121, -0.0438282341, -0.0035224855, -0.1718938649, 0.0103578418, 0.0638969243, -0.1101863831, -0.1936203539, -0.0319436342, 0.1290207505, -0.0816780180, -0.1312966049, -0.1380151510, 0.0658495426, 0.1899466515, 0.1040623188, 0.1421480179, 0.1385363042, 0.0028049052, 0.2019628584, 0.1092943549, -0.0508742630, 0.0132352263, -0.1445793062, 0.0247615725, -0.0837473422, -0.0822877288, 0.0059754848, -0.1527440399, 0.0738537610, 0.1613788605, 0.1032027006, -0.0232660621, -0.0127773881, 0.1198109388, -0.1088108495, 0.1508651674, 0.0895485282, 0.0386436582, -0.1336471885, 0.1765538454, 0.0253403783, -0.1034651026, 0.0562423766, 0.0463393331, -0.0336364508, 0.0269143134, -0.1318587363, -0.1087832972, -0.1391277909, -0.1156444177, 0.0734031200, -0.0069192201, 0.0307457000, 0.1279241145, -0.1147933006, -0.1674833000, 0.1488191783, 0.0513466001, -0.1778195351, 0.1175750792, -0.0216236711, 0.0986816585, -0.0859318525, -0.1883153319, 0.1470366716, 0.1095940471, -0.0804875493, 0.0329279304, 0.1796018779, -0.0150881708, -0.1473225057, -0.1337356269, -0.0392273664, 0.1934625804, -0.0685162842, 0.1236137152, 0.0973307192, 0.1608036160, 0.1022306681, 0.0138973445, 0.0349439830, -0.0941982493, -0.0204396546, -0.1534130275, 0.1604386270, -0.1852177829, 0.1252057850, 0.0485355258, -0.0845348239, -0.1525193155, 0.0837309659, 0.0003137290, 0.1449882388, -0.1709167361, 0.1728256941, -0.1534852535, -0.0329480469, 0.0835964680, -0.1793585420, -0.0246630609, -0.1585654020, 0.0457171202, 0.0449739695, 0.2027980089, 0.1865671575, 0.0054312497, 0.1824513078, 0.0098964870, 0.0064262599, 0.0033746660, -0.1607214063, -0.0870299637, -0.1153731793, 0.1965740025, 0.2053196132, 0.2082847357, 0.0829640925, 0.1759035587, -0.0863620490, -0.0308479220, -0.1228448302, 0.1905675530, 0.0708950162, 0.1482949555, -0.1688378006, 0.0878188610, -0.0380467027, -0.0700671971, 0.0366512388, -0.0191492140, -0.1348633766, 0.0482435226, -0.1650604010, -0.0179498047, 0.0387449265, 0.1465460062, 0.1284332871, 0.0276224911, -0.1480351985, -0.1037183926, -0.1025077477, 0.1227806807, -0.1884491146, -0.1027724817, -0.2069756985, 0.0163129419, 0.0402186513, 0.1483440995, 0.1589891911, 0.0683784485, 0.2026028037, 0.0021072030, -0.1591544449, 0.0976173580, -0.0067412555, 0.0756419301, -0.1642906666, 0.1173818111, -0.1507892311, -0.0793993175, -0.0740919411, 0.1724250019, -0.0992762223, -0.1452217698, -0.0659046471, 0.1236021519, -0.0706487000, 0.1253229380, 0.0787639618, 0.2096438706, 0.1566078663, 0.1269214153, 0.0457950234, 0.1624502838, -0.1827213168, -0.0025627911, 0.0077127367, 0.0400968194, -0.1586975157, -0.0030204803, -0.0966833308, 0.1761404872, 0.1667301953, 0.1422733963, -0.0196238160, 0.0503638685, -0.0720223635, 0.1305533051, 0.1388359666, -0.1293767691, 0.0660271049, 0.0587172508, 0.1213848591, 0.1280976534, -0.0152652711, 0.2066354454, 0.0210970491, 0.0399541557, -0.1934850514, 0.0867397189, -0.0190180689, 0.2117541134, -0.0486527532, -0.0419019312, 0.2074281573, -0.0840314478, 0.1529973745, -0.0787104964, -0.1305024624, -0.1975112259, 0.0690900087, -0.1506989002, 0.1005610228, -0.1191018373, 0.0396611989, 0.0197702646, -0.0469021350, 0.1398556828, -0.0558212399, -0.1786579937, -0.0753527582, 0.0498420298, -0.1151542515, -0.1199651062, 0.0337904245, 0.1193461716, -0.0106143802, 0.1871235371, -0.0400302410, 0.1685743928, -0.1269286573, -0.0628819764, -0.0030377656, 0.0994757414, 0.1344490051, -0.1476089954, -0.2046967447, 0.2015501559, -0.0722066760, 0.0314794481, 0.0053527653, -0.1020688266, 0.0068841428, 0.0151409805, -0.0701328218, -0.1845686734, -0.1088918746, 0.1177175641, -0.0189103037, 0.0803508759, 0.0863960981, -0.0824742764, 0.1062139273, -0.0127942711, -0.1138666496, -0.1871924251, -0.1129726395, -0.1084133461, -0.1947377324, 0.1851177514, 0.0352954268, 0.0092282742, 0.1143940389, -0.0403346121, 0.1587074697, -0.1816741079, -0.1539698243, -0.1838459671, -0.0662356615, -0.0535734445, 0.1231367588, 0.0758099258, -0.1235742569, 0.1635767817, 0.0565032959, -0.1184506416, -0.1536536664, 0.0637890995, 0.1434206665, 0.0063266307, -0.0637798607, 0.1707978547, 0.0123942792, -0.0990774184, 0.1688299775, 0.0599853694, 0.0329527259, 0.0931106210, 0.0077556968, -0.0862422287, 0.0180935562, -0.1780124456, -0.0524967462, 0.0873583257, -0.1333178580, 0.1005474031, 0.0890037715, -0.2078620344, 0.1241224706, -0.1475557685, 0.1792181134, -0.0473410040, 0.0917857587, -0.2089710683, -0.0182426870, 0.0750752687, -0.0898208916, -0.0065712333, 0.1682118773, -0.1594351828, -0.0419979542, 0.1729900241, -0.1356230974, 0.0321628153, 0.1682097316, -0.1863131523, 0.1708755493, 0.0274795443, -0.1324488968, 0.0391498506, -0.0503983349, 0.1998453736, 0.1329001784, -0.0457780510, 0.1683416367, 0.1332118213, -0.2062863261, 0.1088735163, -0.1661635339, -0.0440776497, -0.1699474901, 0.1076090634, 0.0039883554, -0.0433763415, -0.0137757063, -0.1809901744, -0.1712969542, 0.0220584273, 0.1247398257, -0.0690246969, -0.0637469739, 0.1111736298, 0.0765972137, -0.1189071089, -0.1734765321, -0.0628780127, 0.1914469302, 0.1818293035, -0.2005665749, 0.1282042563, 0.0665418506, 0.0190272629, -0.1562257707, 0.0860397220, 0.1797368824, -0.1250469387, -0.1251986027, 0.0206546187, 0.1613737345, 0.0588380098, 0.1914016306, 0.1085917056, -0.1143727228, 0.2054258585, 0.0452760458, -0.0352433324, 0.1772248745, 0.0650022924, 0.1625724733, -0.0684993118, -0.0831889659, -0.1911832094, 0.0654033422, 0.1593796313, 0.0097369850, 0.1291493475, -0.0680671930, 0.0173804462, 0.1070218086, 0.0160385072, -0.0711024255, 0.0299677253, -0.0624604374, -0.0039304048, -0.0687146783, -0.1385138929, 0.1240726113, 0.0098819584, -0.2048105448, -0.0473413169, -0.0385399163, -0.1518204957, -0.2091173083, -0.0219769478, -0.0891415328, 0.0067638755, -0.0578119904, -0.0676568449, 0.0292578191, 0.2017995715, 0.1124961376, -0.1421271712, -0.0356009752, -0.1575255692, 0.1559640467, 0.0121028125, 0.1812009811, 0.1384971142, 0.1337174475, -0.0920722932, -0.1018584892, -0.0851013809, -0.0005241185, 0.0896944106, 0.0156945288, -0.1441685855, -0.0674912781, 0.0995688438, -0.2122748345, -0.1725032777, 0.1112776399, 0.1535434127, -0.1500345469, -0.2112507969, -0.1473955512, -0.1616009921, 0.1542723179, -0.0083754808, -0.1450891495, 0.0757191479, -0.1185440198, 0.1815376878, 0.0838966370, 0.1112581491};
#endif

#endif
