//Numpy array shape [32, 16]
//Min -0.351662844419
//Max 0.351501613855
//Number of zeros 0

#ifndef W4_H_
#define W4_H_

#ifndef __SYNTHESIS__
model_default_t w4[512];
#else
model_default_t w4[512] = {0.3027490675, 0.2571755946, 0.1894741952, -0.2979409695, 0.2703911364, -0.0366702974, -0.3137999773, -0.2014207095, 0.1318430007, 0.0258302987, -0.1959223151, -0.0213788152, 0.1171597242, -0.0668463409, -0.1834781319, -0.0979542434, 0.2350526154, 0.1869864166, 0.2118293941, 0.3301424086, -0.2606722713, 0.1291649938, 0.1279404759, 0.1243301630, -0.0529756248, 0.1713460982, -0.2159404755, 0.0774006546, -0.1366841644, 0.3436171114, 0.0260218978, 0.2058555782, -0.1064582169, -0.2805335522, -0.0619935393, -0.1645698696, 0.2582137883, -0.3232511580, -0.1237226576, -0.1678774655, -0.3368920684, 0.1998265684, -0.0364552438, 0.0438857377, -0.0825724900, 0.3307895958, 0.0853448510, 0.0722288191, -0.2822030783, 0.2406022847, 0.0948031843, -0.3190310001, -0.2963328063, 0.3105513155, 0.1634166539, -0.2212690115, 0.0241426528, 0.2002543509, -0.1903547198, 0.2046713531, 0.0244970024, -0.1731171608, 0.1794800460, -0.0342169106, 0.0873548090, -0.0436442494, 0.2109247148, -0.0006014407, 0.3508408964, 0.0567502975, 0.0141194463, -0.0098848641, 0.3001264632, 0.2892826498, 0.3342545927, -0.0328940153, 0.1565384567, -0.2963485718, -0.0333791971, -0.0833134353, 0.1225918531, -0.2821167707, -0.3271394372, 0.0215609670, -0.0625579655, 0.1318109035, 0.3052453697, -0.2835460305, 0.1745633781, -0.2808377743, 0.2319161594, -0.3448050618, 0.0167474747, -0.2195757180, -0.1474978626, 0.1846489012, -0.2767420113, 0.0102815628, -0.1706670076, 0.0026262403, -0.0915666521, -0.1438995451, 0.2649025619, 0.0742688179, 0.2659379542, -0.0698777139, -0.1631601453, 0.0541923344, 0.2227657139, -0.0916393101, -0.2124493569, 0.0417373478, -0.1140690148, -0.0710051358, 0.2985937893, 0.1282859147, -0.0283624828, -0.2270642817, 0.0850219131, -0.3137135804, -0.3259602785, 0.2892216146, -0.3195154965, 0.2133297026, -0.3131285608, -0.1096422374, -0.0050054491, -0.1288548857, -0.0227204263, -0.0190834999, -0.1186300516, 0.2057966292, -0.2333788127, -0.0733065307, 0.2909750044, -0.1025517881, 0.1251406372, 0.1605837047, -0.3143861592, 0.0471460521, -0.1297661811, 0.2434553802, -0.3394178450, -0.3448699415, -0.0779584348, -0.1394594461, 0.0479592383, -0.0593760610, 0.0662576258, 0.1207507253, -0.0220122933, 0.0611954629, 0.1350594163, 0.1665784419, -0.2439987212, -0.2744451165, -0.3074962497, 0.2869866788, 0.0449227989, -0.2172331214, -0.1765522212, -0.1849077493, 0.0745869279, 0.1103611887, -0.0055172741, -0.2359768301, -0.0085521936, 0.0492473245, -0.1977507323, 0.3446348011, -0.3159083128, 0.0681749582, 0.0422418416, -0.2654962242, -0.0896542668, 0.3492138684, 0.2672046125, 0.2362127006, -0.1148027033, 0.2013919652, -0.2636973858, -0.2873411775, -0.0188454688, -0.3505376875, 0.1364636421, -0.3417645693, -0.1768240631, -0.1933929175, -0.2977579534, 0.2768154442, -0.2660363913, -0.0037181973, -0.2218720466, 0.0739657879, 0.1027302444, -0.3211036921, 0.3323786557, -0.3356363475, -0.3313445151, 0.3400401771, 0.2977410853, -0.1737519801, 0.1943247616, -0.0952018797, 0.1042481065, 0.1110529006, -0.0078961253, -0.2166787088, -0.2363479733, -0.3514563143, -0.2436956763, -0.2953414917, -0.2337575555, -0.0755966008, 0.3111307919, -0.1572066396, 0.0011918247, 0.0740478039, 0.0850186944, -0.1959898323, -0.3036048114, 0.1566058099, 0.3053608239, -0.2321150005, 0.0590495169, 0.2626607716, -0.0101481080, -0.2915723920, 0.2083145082, 0.3195163310, -0.0873589516, -0.1696630567, -0.0373361111, -0.2628364265, 0.0976894796, 0.2985688746, -0.0364232957, 0.2797208726, -0.1177172363, 0.1821466982, 0.3033818901, 0.0081300437, 0.2984472215, 0.2096794546, -0.1619099826, 0.2667375505, 0.3050014675, 0.0981644690, -0.1770382524, -0.1107440442, 0.3009472787, 0.2238548696, -0.2308917344, -0.2402328253, 0.2436762154, -0.2320792675, -0.3159406185, -0.0214649737, -0.1245576739, 0.3192342818, 0.0625199676, 0.2367418110, 0.0212366283, 0.0124732852, 0.0426370203, -0.2783263922, -0.1757310331, -0.0229486227, 0.1557804644, 0.1299293637, 0.0188543797, 0.3507273495, 0.2762350738, -0.2630109787, -0.0230962932, 0.1792536080, -0.1521963924, 0.1655379236, 0.1603630483, 0.3096685112, 0.2059352100, -0.1176428944, 0.3237086833, -0.1373451948, -0.2457592785, 0.2294193804, 0.2204465568, -0.3108808696, 0.1664068997, -0.2792126536, -0.0757045746, -0.3178047538, -0.2597505152, -0.2672696114, 0.3338628113, 0.1333722770, -0.3342315853, -0.0318307281, 0.1251315475, -0.1608393639, -0.2680473924, 0.0868462026, -0.0479361415, -0.1303502470, -0.1846750975, -0.3395496607, -0.1747801900, 0.1515711248, 0.2461941540, -0.2556573153, 0.2291552722, 0.0280910432, -0.3186447620, -0.0989867747, -0.2176826596, -0.0259406269, 0.2984457314, 0.0563274026, 0.0804035366, -0.0445952415, -0.2021667957, -0.2909741700, 0.2948928177, 0.1067344546, 0.1078512669, -0.1730381846, -0.2281379402, -0.2935252190, -0.0035637617, 0.2190737426, 0.2464703619, -0.0965240300, -0.2354825288, 0.0617813766, 0.0284133852, 0.1916264594, 0.0217263699, 0.3162063658, -0.2098527849, -0.2538663149, 0.2224345505, -0.3050221205, -0.1890066117, -0.1156199276, 0.2401251495, 0.1740835011, -0.2589918673, 0.3401100338, -0.3276606500, -0.1412466466, 0.1646431983, 0.2105540335, -0.1935556829, 0.1026888490, 0.0492057800, -0.1783642769, -0.2732475400, 0.0957670808, -0.3229744136, -0.1000743210, 0.1516478360, 0.2140437663, -0.0408072472, 0.0820766985, 0.2597641051, -0.0584456325, -0.2560833097, 0.0262675881, -0.1182407886, 0.3122639954, -0.1269730330, -0.2852403522, 0.2488419712, -0.0238217413, 0.2752185762, -0.3516628444, -0.2990015447, -0.3253106177, 0.3515016139, -0.0375320315, -0.1570146233, -0.1095620841, -0.3395091295, -0.1821167767, -0.1609486938, 0.0648569167, -0.1564475745, -0.1739472002, 0.2183440030, -0.2860547006, 0.1388652623, 0.3079667389, -0.1622917503, 0.0325078666, 0.1884102523, -0.1089982390, 0.0866384804, -0.3012440801, 0.2184974253, -0.3257268667, -0.2955076396, -0.0652274787, 0.2727781832, 0.2480610907, -0.0923600197, -0.2689293325, 0.2253912389, -0.1710388213, 0.2178117931, -0.2485262156, -0.1288291812, 0.3425727189, -0.1723371148, 0.1528144181, 0.1055221260, -0.3502553999, 0.1886874139, -0.2807002664, 0.2472283542, 0.0842482746, -0.1357043386, 0.1613114178, 0.0881672502, -0.1710558534, -0.3239316642, 0.0675083697, 0.2500418127, -0.0525915027, 0.0695867240, -0.1709649861, 0.2740653455, 0.1878352463, -0.0154810548, -0.3008897901, 0.0419445336, -0.0179438591, 0.0971018672, -0.2945687175, 0.0195123851, 0.2063682377, -0.0093800426, -0.2519381642, 0.0546721220, -0.0010060370, -0.0744721293, -0.1919879168, -0.0035277903, -0.0891195238, 0.2659036219, 0.3131171763, -0.2241890281, 0.3389630020, 0.1680941284, -0.1023555696, -0.3083572090, -0.2335100472, 0.0712950230, -0.3495066166, 0.1169141829, 0.2569012344, 0.0447332263, 0.0904725790, -0.0225524306, -0.2521391511, -0.0007656515, -0.0202436447, 0.1521218717, -0.2481442094, -0.0184332728, -0.0200346708, -0.2549518347, -0.3411263824, 0.3378621042, 0.3484508097, 0.0641940236, 0.3120802939, 0.1291128993, 0.2990488112, -0.1813719571, 0.2980969250, 0.0013484359, 0.2767082751, -0.1992074102, -0.2483502179, 0.0659179986, -0.3509405255, -0.3310720921, 0.0368690491, 0.0283063352, -0.2704266608, -0.1513274163, 0.2291000783, 0.1731248200, 0.0110924542, 0.0174193680, -0.2255257666, 0.2816812694, -0.1404334605, -0.1890512854, 0.3250916898, -0.0978852212, -0.3318543434, 0.1356459260, -0.2811566591, 0.0541560948, -0.0625941455, 0.2335537970, 0.2157177031, -0.0914954841, 0.2551439703, 0.3065617383, 0.0532327294};
#endif

#endif
