//Numpy array shape [32, 16]
//Min -0.352499961853
//Max 0.353389114141
//Number of zeros 0

#ifndef W4_H_
#define W4_H_

#ifndef __SYNTHESIS__
model_default_t w4[512];
#else
model_default_t w4[512] = {0.2522660792, 0.0472463667, 0.1366372108, 0.2024352849, -0.2969901264, 0.3026663959, 0.0501541495, -0.1666901112, 0.2365196049, -0.0680378973, 0.0250868201, -0.0102412701, 0.1578937471, 0.2143684924, 0.1382856667, -0.2827171683, -0.2178026885, -0.1142235249, 0.1740548313, 0.0864422619, -0.0083185136, -0.2549129725, -0.2811457813, 0.1996429861, 0.2537213266, 0.0755288303, -0.2856190801, 0.2722628415, -0.2152007967, 0.2796703875, -0.0390861332, 0.2643250525, 0.2879633605, 0.1524617374, -0.2781186104, -0.2174984664, 0.1841109097, -0.1897617131, 0.0214126110, 0.2756588161, -0.1361463666, 0.1854020655, 0.0136580169, -0.1739453524, -0.2037086934, 0.2331032455, 0.1544366777, -0.0310810208, -0.0868646502, -0.2883892059, -0.2525816858, 0.1857602298, 0.0431617498, 0.2765824497, -0.3404836357, 0.0003150105, 0.1946421564, -0.1096425802, -0.3405165970, -0.1051194668, 0.2566929162, -0.2409150898, 0.1303486526, 0.0781851113, 0.3473711908, 0.2372477949, 0.2216028273, 0.2779108584, -0.2513145804, 0.2903170288, 0.3386500180, -0.1601095498, -0.3490774035, 0.2755789459, 0.1389393508, -0.1227984726, -0.0264718533, -0.2903637886, -0.0323203206, 0.2590620816, -0.2555358410, 0.2278597653, -0.3334189057, 0.2058431208, -0.1453105360, -0.1349785626, -0.1803222597, -0.2586718798, -0.0149415731, 0.2688183486, 0.0923562944, -0.2271783352, 0.0151425898, -0.0040425658, -0.0834903717, 0.2663768232, 0.1177851856, -0.1448882222, 0.1516865790, -0.0677892566, -0.2597764134, -0.1776642203, 0.0130518675, 0.3164511025, 0.2171913683, -0.1280924529, 0.0447063446, 0.0007674992, 0.1074218750, -0.1904782057, 0.2392567694, 0.2407195866, 0.1239655912, 0.1567451656, -0.2986667156, -0.3082947433, 0.1370418370, 0.2036338151, 0.1176812351, 0.0793665648, -0.2416863739, 0.0658439100, -0.0042414963, 0.2246252596, -0.1606845260, -0.1458802670, -0.0203119218, -0.2208561450, -0.0018605292, -0.3000907004, 0.0556296110, -0.0187504590, 0.0039853156, 0.1782450974, 0.3197682202, 0.1932768524, -0.3468171358, 0.2785635889, -0.1033156514, 0.2557075322, 0.0357322693, -0.2575861216, 0.2878656089, 0.1693320572, 0.2661882937, -0.1037750691, 0.3428892195, -0.0092120469, 0.2229680121, -0.1772950143, 0.1566817462, -0.0867876112, -0.2931596637, 0.2108038366, 0.1972967088, 0.0510829985, 0.0109108090, -0.2986655533, 0.3506550491, -0.2754515707, 0.0859443247, 0.1196147799, -0.1255364120, 0.0313510895, -0.0342764258, 0.2372231185, 0.0517332256, -0.0320222378, -0.1739752740, 0.0907683074, 0.2277970612, 0.0720131099, -0.0111514628, -0.2736310661, -0.2916364670, -0.1986997128, -0.0493109822, -0.1552847475, 0.0752177238, -0.0267810225, 0.0310347378, 0.2626370490, -0.0739502609, 0.3480634987, 0.1504200995, -0.1583263129, -0.2957593501, 0.0977295935, 0.3265363872, 0.1874836981, -0.3121306300, 0.0761997402, 0.1020076871, -0.0558571219, 0.1340036392, 0.0658659935, 0.0709926486, 0.2931231558, -0.2477214634, -0.0701777041, -0.0623439550, 0.0492672920, -0.1126132607, -0.0644860268, 0.3442813456, -0.2212160826, 0.1822416484, 0.1112949848, 0.1972921193, 0.1835783422, 0.3243238032, 0.0618469715, 0.3063533604, -0.1380225867, -0.3301715851, 0.3108427227, 0.1856992543, 0.2242860496, -0.2146092206, -0.3459119201, 0.3325545490, 0.1590670645, 0.0243660212, 0.2870775163, 0.3194306791, -0.1597813070, 0.2897755206, -0.3396409750, -0.2740365267, -0.1033969223, -0.3348458409, 0.0241163373, 0.1685589850, 0.2897036970, 0.2423589528, 0.1232318282, 0.0188603699, -0.2729655802, -0.2506482303, 0.3415875733, 0.1460860372, 0.1749170721, 0.3239216506, 0.0686807334, 0.3138040006, 0.1273040473, 0.1480102837, -0.2858326733, -0.3041563630, 0.1362886727, -0.1188396066, 0.1265843511, -0.0437925160, -0.0460978746, 0.0250332057, 0.0310298502, 0.1010590494, -0.1512655467, -0.1869540662, 0.2947747409, 0.1565559804, -0.0110582411, 0.2990426719, 0.0243928134, -0.2788370550, -0.0378508270, -0.1655397564, -0.1651211530, 0.0375331938, -0.0802819133, 0.2527566850, 0.1229048371, -0.3034744859, 0.3424619138, -0.0362816155, 0.3064639866, -0.3251633644, -0.0561561286, -0.1386810839, -0.1873771250, 0.0740217566, 0.2217447460, 0.0608623326, 0.3106425703, -0.0348601639, 0.0098693669, -0.0500967503, -0.2298890650, 0.2280974686, -0.1228047013, -0.0474307835, 0.1570421159, -0.2000223696, 0.3173082769, -0.0201079249, -0.0429591835, -0.1831246763, -0.3160712719, -0.3423962593, 0.2645605505, -0.1021868885, 0.2297706306, -0.2341932654, -0.0551784039, -0.1758562922, 0.0193399191, -0.2074202299, -0.2002149820, 0.2020036280, 0.2011649907, -0.1258551180, -0.1963172406, -0.0541504323, -0.2374510467, -0.1404965967, 0.1057842970, -0.2965692282, -0.0469761193, -0.2354142517, 0.3440479934, -0.3496401310, -0.1808980703, -0.0749126375, -0.2124531567, -0.2248300910, -0.2251703739, 0.2554413378, -0.2482712269, -0.1724860519, 0.0195343196, -0.0451986194, 0.2286693156, 0.3279499114, 0.1889200509, 0.1138151884, 0.0180296600, 0.3073146641, 0.1673120558, 0.1094814837, 0.0772020817, 0.1157795787, -0.2533926666, 0.3259659111, -0.3439531624, -0.2726703882, 0.1366222203, -0.2442966104, -0.0172941983, -0.1452773958, 0.3104448020, 0.0460897684, 0.3134374321, -0.3222556412, 0.1772699058, -0.0520446002, 0.3183539212, -0.1666575670, -0.3412561119, 0.0105834901, 0.1279655099, 0.2878932059, 0.0738310814, 0.2275222838, -0.2160684317, -0.2329547405, 0.3475213349, -0.1518996060, -0.0212351084, 0.0370311439, 0.1768586338, 0.2853400409, 0.0003355742, 0.3533891141, 0.0291419327, -0.0319198370, -0.2350160480, -0.2694121003, 0.3449537456, 0.1738234460, 0.1465523541, -0.0850296617, 0.2064615786, -0.1789806336, 0.1943366826, 0.2031005323, -0.3257991672, 0.1745655239, 0.2438239157, -0.0586784482, -0.2174407244, -0.3220714629, -0.2972910404, -0.0591732562, -0.1358150095, -0.0827436149, 0.1265739799, -0.1989234239, -0.0939453244, -0.0588552058, 0.0682870746, -0.3098084033, -0.0157452226, -0.0021830499, 0.3469319642, -0.2003855854, -0.2258851081, 0.3224907219, 0.1821571887, 0.1104185879, 0.0827558339, -0.1566830128, 0.0639002621, -0.3315552473, 0.2171516120, 0.2829327285, 0.1397499144, -0.2708459198, 0.1771211922, -0.1542973369, 0.0393754542, -0.1321950257, -0.0920447409, -0.3313350081, 0.1874585450, -0.2397718132, 0.0502000153, -0.3381247818, 0.0151134431, -0.3485126197, -0.2904728651, 0.0406396687, -0.0385329127, -0.0673590899, -0.1004101336, 0.0190165639, -0.2463100553, 0.1502141654, 0.0003126562, -0.2063763440, -0.2296684682, -0.3240451813, 0.2523455918, 0.2038686574, -0.1221953481, -0.1350431293, 0.1033753455, -0.0860537589, 0.0074554384, -0.2160798907, -0.0049291551, -0.2326308787, 0.1721382439, -0.2278418094, -0.3524999619, 0.3021522462, 0.1995970309, -0.1933335811, 0.2864403427, -0.1117373556, 0.0926416516, 0.0749163628, -0.2053885907, 0.2132308781, -0.2657345235, 0.1126402318, 0.2304289639, 0.0244826078, 0.1861351430, -0.2552723289, -0.0431680679, -0.1194522530, 0.1484715641, -0.0338370800, 0.2611546814, -0.3070992231, -0.1069100350, 0.0886633992, -0.1055363864, -0.2920034826, 0.3076080382, 0.0623235703, -0.1591702700, 0.2652751505, 0.2327668369, 0.0326506495, -0.3495071232, -0.2017550170, -0.3147802353, -0.0597256124, 0.0144264400, -0.3209062815, 0.0751461387, -0.1128112674, -0.1978781819, 0.2890134156, -0.2863400280, -0.0341001749, -0.3328914940, 0.2770535648, 0.2997204959, -0.1577824503, 0.0649192929, 0.1549009383, -0.2546662688, 0.0934955180, 0.2874326408, 0.0660888851, 0.2617536485, 0.2178303301, 0.0496521890, -0.0221074522, 0.0447048247};
#endif

#endif
