//Numpy array shape [16, 8]
//Min -0.497239112854
//Max 0.490790724754
//Number of zeros 0

#ifndef W6_H_
#define W6_H_

#ifndef __SYNTHESIS__
model_default_t w6[128];
#else
model_default_t w6[128] = {0.4605281353, -0.3382247686, 0.3129224777, 0.0374710560, 0.4458700418, 0.0250396729, -0.1742321253, -0.3305903673, 0.1892066002, -0.1229372025, -0.2177265882, -0.4853667021, -0.2035775185, 0.4539639950, 0.0621238947, -0.2389928102, 0.0178509951, 0.4099005461, 0.3379505873, -0.3037717342, 0.3822640181, -0.2816611528, -0.4833478928, 0.2857823372, -0.1749615669, 0.2456128597, 0.2294898033, 0.0986549854, -0.1422634125, 0.3277136087, -0.2074971199, -0.1978632212, 0.3921175003, 0.0730564594, -0.4622159004, 0.0449750423, 0.3799880743, 0.4039814472, -0.1539173126, -0.3604613543, -0.2254347801, 0.0341542959, 0.4845112562, 0.0139827728, -0.2286559343, -0.0507465601, -0.0283719301, -0.3392204046, 0.0774818659, 0.3566920757, -0.3032069206, -0.3549798727, -0.2420208454, -0.1398419142, 0.0940042734, 0.3086705208, -0.1845698357, -0.3284602165, -0.3123675585, 0.2085368633, 0.0331597328, 0.2058405876, -0.0498926640, -0.3601264954, 0.4344584942, -0.2053991556, -0.2912064791, -0.4752413034, 0.3313312531, 0.4334944487, 0.0677270889, -0.3430949450, -0.0070530176, 0.0407686234, -0.4875938892, 0.0241042376, 0.3998308182, -0.3850784302, -0.2817833424, 0.1964720488, 0.3661093712, 0.2312026024, 0.4221189022, 0.0500528812, 0.3075503111, -0.3309580088, 0.1589004993, 0.0372689962, 0.0955419540, 0.0361452103, 0.0284708738, -0.4607915878, -0.0294220448, -0.2542798519, -0.1361185312, 0.4842783213, -0.2975770235, 0.1103053093, -0.2777312994, -0.0111885071, -0.0717613697, 0.2408300638, 0.4076709747, -0.1268208027, -0.2500175238, -0.1689566374, 0.1020103693, -0.1643590927, -0.3956851959, -0.3563030958, -0.4956074953, -0.2233049870, -0.4972391129, -0.0725851059, -0.4492280483, 0.0017976761, 0.4907907248, 0.3964750767, -0.1851551533, 0.2513165474, 0.2761849165, 0.4846825600, 0.4158772230, 0.2092890739, 0.0581011772, -0.0611479282, -0.3503977060, -0.0700789690};
#endif

#endif
