//Numpy array shape [128]
//Min -0.289923638105
//Max 0.964105486870
//Number of zeros 21

#ifndef B10_H_
#define B10_H_

#ifndef __SYNTHESIS__
model_default_t b10[128];
#else
model_default_t b10[128] = {0.0563411936, 0.0901205912, -0.0054596392, 0.0423877910, 0.0410075411, 0.0000000000, -0.0099724857, 0.0093818828, -0.0412447155, 0.1745020151, 0.1347084790, 0.0000000000, 0.0081430422, 0.0593126677, 0.2021944523, 0.0369338579, 0.5248419046, 0.0464899316, 0.0509243272, 0.0000000000, 0.0091477828, 0.4828712344, 0.0436681658, -0.0866716281, 0.1132095754, 0.0907230154, 0.0285819340, 0.1767815500, 0.0334526151, 0.4540293217, 0.0171458665, 0.0428425111, 0.6175319552, 0.1585544944, -0.2828673124, 0.9581031799, -0.1228909865, -0.0138136949, 0.0498096608, 0.1533503830, 0.2496771961, -0.0163597651, 0.7668238282, 0.0334771127, -0.0039314935, 0.8062980175, 0.0271378439, 0.5407310724, 0.0000000000, 0.3267443776, -0.2138318717, 0.2864348590, 0.0971224979, 0.6271553040, -0.0201856587, 0.0809063092, 0.0787378922, 0.0377311446, -0.0117548723, -0.0189392474, 0.0652147606, 0.0034164668, -0.1215668619, 0.3549564183, 0.0965118408, 0.9641054869, 0.0704768449, 0.0727795437, -0.0377357751, 0.0000000000, 0.0000000000, -0.1845853329, 0.0000000000, 0.0791801289, 0.2522611320, -0.0165859498, 0.0062663299, 0.0000000000, 0.2137696296, 0.0694802329, 0.1285533011, -0.0143099083, 0.0080002071, 0.0802555680, 0.0000000000, 0.2866473198, 0.3114060163, 0.0000000000, 0.0000000000, -0.0036031767, 0.0000000000, -0.1256172806, -0.2899236381, 0.0000000000, 0.0277307946, 0.0663242266, 0.1003493816, -0.2711140811, 0.0625475273, 0.0882070884, 0.4724733531, 0.0000000000, 0.0643851832, 0.0000000000, -0.0158664808, 0.0621246286, 0.0443842709, -0.0058661262, 0.0000000000, 0.3025134504, 0.0276738722, 0.2164741009, 0.0000000000, 0.0000000000, 0.0000000000, 0.6037406921, 0.0000000000, -0.0053245081, 0.0572495125, -0.0869827718, -0.0077316896, 0.1063261330, -0.2023086399, 0.0000000000, 0.0766916424, 0.1522105038, 0.1098891050, 0.3478351533};
#endif

#endif
