//Numpy array shape [128]
//Min -0.529143035412
//Max 0.855295717716
//Number of zeros 13

#ifndef B10_H_
#define B10_H_

#ifndef __SYNTHESIS__
model_default_t b10[128];
#else
model_default_t b10[128] = {0.1356404424, 0.1276292503, -0.0084402375, 0.2035006583, 0.0000000000, 0.2510462403, -0.1469707191, -0.0045067267, 0.0151187927, -0.0052882889, 0.0151401749, 0.0150513258, -0.0558212139, 0.0458151028, -0.0052449130, 0.0000000000, 0.0332352035, -0.0231863279, 0.0498024970, 0.0909490064, 0.1231581271, -0.0393584669, 0.8552957177, -0.0519942380, 0.0000000000, 0.1621189266, -0.0128888553, 0.0000000000, 0.1654891074, 0.0665806606, 0.0103238886, -0.0407192148, 0.0000000000, 0.0939573795, 0.2780138254, 0.0112567842, -0.2311030924, -0.0061838226, 0.0000000000, 0.6764747500, -0.0182826035, -0.0129377982, -0.0044894130, -0.0286422167, 0.7017387152, -0.2307227999, 0.4086465538, 0.0762394667, 0.0947008580, 0.3845613897, -0.0758425295, 0.1155249104, -0.0099049173, 0.0041423920, 0.1336642206, 0.0919578075, -0.0082928250, 0.1728248894, 0.0540673435, -0.0478244722, 0.1657203287, -0.0383648351, 0.0303550940, 0.0409616716, 0.4109127820, 0.1092474908, -0.0077804909, 0.1220602170, 0.1733352095, 0.0651940852, 0.0574846342, 0.2034875304, -0.0926140919, -0.0384869948, -0.0089558838, 0.5020482540, 0.0611932278, -0.0059661213, 0.0134001737, 0.1021720767, -0.0011398228, 0.0000000000, 0.8134045601, -0.0138425836, 0.0592850372, -0.0155783920, 0.0081466353, 0.0745922700, 0.0000000000, 0.4008705914, -0.2225545049, -0.0453405045, 0.3032542467, 0.0000000000, -0.0568621084, 0.0139690768, 0.0000000000, 0.1400777847, -0.5291430354, 0.0654221326, -0.0073998990, 0.2479826659, 0.4643263519, 0.7091377974, 0.0000000000, -0.0054917596, 0.6733642220, -0.0643214583, 0.2105207741, -0.0092416601, 0.1215672120, -0.2598757148, -0.0030663298, -0.0080823898, 0.0000000000, -0.0975362435, 0.0000000000, 0.0050188201, 0.0461159535, 0.1114881262, -0.0517976955, 0.1221531183, 0.0791146383, -0.0566673279, 0.4541645944, 0.1067479625, -0.2837640345, 0.0911947861};
#endif

#endif
