//Numpy array shape [128]
//Min -0.372153937817
//Max 0.740155339241
//Number of zeros 0

#ifndef B2_H_
#define B2_H_

#ifndef __SYNTHESIS__
model_default_t b2[128];
#else
model_default_t b2[128] = {-0.0159076545, 0.3537502587, 0.0350487418, 0.1070150435, 0.1077778637, -0.0167995431, 0.1079417616, 0.1483102143, 0.0360456444, 0.6670153141, -0.2667517364, 0.1540724933, 0.1861016899, -0.0136832409, -0.1279028952, 0.4381679296, 0.1522240788, -0.0171369445, 0.1881253272, 0.1425249428, 0.2355151474, 0.0300067663, 0.0557061657, -0.0241414141, -0.2589327097, -0.0172147583, 0.2516817153, 0.1358118206, -0.0227994639, -0.0157579985, 0.3096978366, 0.4709223211, 0.1767027676, -0.0144620975, 0.0994442105, -0.0145926811, 0.4506802857, -0.0139673175, 0.2189942747, -0.0173691902, 0.0453611836, 0.0391293243, 0.0956988111, -0.0760397241, 0.1652096063, -0.0670340434, -0.0185385626, 0.1548633426, -0.0219991580, 0.1528024822, -0.0175007917, -0.0161746535, 0.2828319073, 0.2378503829, 0.1253592223, 0.1160033867, -0.0265171453, 0.0921318233, 0.7401553392, 0.0354856178, -0.0579514876, 0.0899377912, 0.0855800360, -0.0120199053, 0.2225090563, 0.2388966680, 0.2650041282, -0.0251975432, 0.2794161439, 0.2614513338, 0.1841154397, 0.0929609537, 0.1727735102, 0.4082507491, 0.2864688933, -0.0157372598, -0.0339476205, 0.1435472667, -0.0169724878, -0.0001539622, 0.2587320805, -0.0177119058, 0.6146150827, 0.0136253871, 0.0549077988, 0.1556056440, -0.0148502011, 0.0157464296, 0.3479851484, 0.0698142797, 0.2968578041, -0.0085641686, 0.1802492887, 0.0737154186, 0.4622211158, 0.1829001456, -0.0164566990, 0.1703426391, 0.1675969809, -0.0156947616, -0.0183128193, -0.0184801370, 0.2179798037, 0.2764606774, 0.1078149080, -0.0132545549, -0.0197760295, -0.0244939364, -0.1376467645, 0.0139207635, 0.1198376641, 0.1151235774, 0.1300821602, -0.0154692819, 0.2066581696, 0.1740918458, 0.1191261336, 0.1768275201, -0.0167813879, 0.2113632411, -0.0148023656, 0.0706837773, -0.0167929195, 0.3857131600, 0.6017785668, -0.3721539378, 0.0179192033, 0.0780076161};
#endif

#endif
