//Numpy array shape [64, 128]
//Min -1.913820147514
//Max 0.958133757114
//Number of zeros 0

#ifndef W10_H_
#define W10_H_

#ifndef __SYNTHESIS__
model_default_t w10[8192];
#else
model_default_t w10[8192] = {0.0711485222, 0.1183774024, 0.1268402785, 0.3771098256, -0.1766405702, 0.1474550813, -0.0164577011, -0.1528083682, 0.1002150327, -0.0478152931, 0.0859498382, -0.0684490502, 0.0091116875, 0.0814607814, 0.3133277297, 0.2122834772, 0.0266019553, -0.0938843936, -0.2356852740, -0.0005148202, 0.0291043371, 0.4595880210, -0.1573119164, -0.1995550394, -0.1199680641, 0.2002227306, 0.0287034102, 0.3031578064, 0.0036726324, 0.3382670879, -0.0819384232, -0.2838631272, 0.6767870784, -0.3724706471, -0.0996443331, 0.5014832020, -0.0104604438, -0.1518561244, 0.1520589292, 0.1257798821, 0.1586939991, -0.2167888880, 0.0924798399, 0.1946399957, -0.0975541919, 0.2007210553, 0.1634091139, 0.0371725485, 0.0339954346, 0.5033847690, 0.7780697942, -0.7122339606, 0.1016548127, 0.3809193969, 0.3486288190, -0.0704989806, 0.0246585328, -0.1459894329, 0.1233595312, 0.0937005952, -0.1215899810, -0.1736155450, -0.6664772630, -0.0582048446, 0.3481180072, 0.4063063264, -0.1088707298, 0.0879560933, -0.0738220289, -0.0951740295, -0.1177027822, -0.1963576078, -0.0606654584, 0.1729441583, 0.6476458907, -0.0684715137, -0.0876244083, -0.0554258898, 0.6547592878, 0.0262154564, -0.0652921721, 0.0421446972, -0.1172474772, 0.0247855037, 0.0073167831, 0.4091614485, -0.0437818505, -0.1483482271, 0.0645807236, -0.8892211318, 0.1157585531, -0.3806216717, 0.0631896257, -0.0975487530, -0.2448238879, 0.1719043553, 0.1064912230, -0.6830110550, 0.1361393929, -0.0976390764, -0.9302431345, -0.0704707950, 0.2090707719, -0.1663466543, 0.0607566275, -0.0763797462, 0.0559921376, -0.0777375326, 0.0136490464, 0.3425628543, -0.1276595443, 0.0827431008, 0.1459103674, -0.1701831967, -0.0259103626, 0.9581337571, 0.1565021724, 0.1051282436, -0.1700577289, -0.2881563604, -0.0184501018, -0.0923211053, -0.1852401346, -0.1298733652, -0.1089416891, -0.0711697862, 0.2160963863, -0.8996683359, 0.0058907038, -0.0698408559, -0.0324776471, -0.1174623743, -0.1301241815, -0.1625378877, -0.1519973427, -0.0804246962, 0.1288464516, 0.0584239550, 0.0446808264, -0.0640234202, -0.0570443831, -0.1116168350, 0.3706718087, 0.0170899443, 0.5054997802, 0.1552046686, -0.2583371103, -0.0479618013, 0.1559329480, 0.6027809978, -0.0958353803, -0.0090468638, 0.1136312038, 0.2142695785, 0.4356980622, -0.1973216236, -0.0762193054, 0.1991847157, -0.2237563133, 0.1019178852, 0.3591220975, 0.6372525096, 0.1499971449, 0.5657117367, -0.0593862385, -0.0848867074, 0.4304741621, -0.1925422251, -0.0462423600, 0.2336026132, -0.1421941221, -0.0468251333, 0.0778083056, 0.1184382662, 0.1638597101, 0.1053160504, 0.0249052942, 0.3932701349, 0.1461409032, 0.4799572229, 0.0042702826, -0.1269129366, 0.0976974070, -0.0570705645, 0.2133925706, 0.1040244028, -0.1082497090, 0.1532146931, 0.0094202952, -0.0522377379, -0.2146094590, -0.0806265995, -0.1791776419, 0.6031731963, 0.1761626452, -0.0673816726, 0.0612191744, -0.1651086360, 0.0486733317, -0.1390186399, -0.1505784988, -0.0196387302, 0.2641560137, 0.0704465061, 0.0789258182, -0.0371320099, 0.4922623038, 0.2631997764, 0.1964576840, 0.0561740883, 0.2787259221, 0.3724322319, 0.1587575525, 0.3253241479, 0.1340151578, 0.0545067042, -0.0273172706, -0.1119860336, -0.1073555201, -0.0777302906, 0.0327367932, -0.0675932616, 0.1164573207, 0.0590923317, 0.1083640084, 0.0447361283, 0.0121658202, -0.0554495752, -0.3253154457, 0.0411757827, -0.2815483809, 0.1392745525, 0.1155744344, -0.1395620108, 0.0968681425, 0.0671777278, 0.0675922930, -0.0498413816, 0.3230519891, -0.0226126760, -0.0768622383, 0.0777309686, 0.1677971035, 0.4925158024, 0.1288412660, -0.0659606457, 0.2607370317, -0.0334351733, -0.1346355379, -0.1394234300, 0.0980786979, 0.1055837125, 0.1182124764, 0.1560422182, 0.2369200289, 0.0139408754, 0.0114662619, -0.1485929191, -0.1580806822, -0.0106909508, -0.1229193658, -0.0141901225, -0.1352143884, 0.0319204070, -0.0995625705, 0.0207589809, -0.2140125632, 0.0002305061, -0.1566291302, 0.0526404791, -0.1340456903, -0.1104645804, -0.1967563182, 0.1296459436, 0.0601373203, 0.1180828959, -0.0828689858, -0.0719225854, -0.0528624952, 0.1742886454, -0.1975549012, -0.1832572371, -0.1709485352, -0.1154033691, -0.1370278895, 0.1038858742, -0.0052819955, 0.1026572064, -0.2597521842, 0.0603987239, 0.0448431186, -0.6206460595, 0.2093204558, 0.1513035148, 0.0082484363, 0.0307008196, 0.1090247259, 0.0790561065, -0.2786609232, -0.0357476138, 0.0011974722, 0.0603264906, 0.2582674921, -0.2445187271, 0.0921493322, -0.0542502739, -0.7668892741, -0.1856529713, 0.0511197560, -0.5641655326, 0.0409377553, -0.1090770215, -0.1034352854, 0.0334967636, 0.0293448009, -0.1054531410, -0.0421991348, -0.1559347808, -0.0920356661, 0.0352751501, -0.1313416809, -0.2253618985, -0.0017993317, 0.1452586055, -0.0457165539, 0.0278025866, 0.0299675912, -0.0690882429, 0.0905223638, 0.0395552479, -0.1085227579, 0.1580495387, 0.0192419607, -0.1277254373, -0.0878032222, -0.1862045228, -0.1196812764, 0.0352320112, 0.0372047350, -0.0452297740, -0.0407366157, 0.2043526620, -0.2113220096, -0.0104024708, -0.1275888383, -0.2820619047, 0.1623202413, -0.0457750969, 0.2148567885, 0.0922114998, -0.1139981970, 0.1839523911, -0.0863409340, -0.3039860427, -0.1578835249, -0.1587701887, -0.1221681163, 0.0725313574, 0.1227741167, -0.0601481423, 0.1154168248, -0.1445616335, -0.0581230968, 0.0437477678, -0.0152772218, 0.0600894615, 0.0865314379, -0.1166828945, 0.0644791573, -0.1060123891, -0.1396239549, -0.8118702769, -0.0104853362, -0.0393922627, -0.2004511803, 0.0817051828, -0.0538800806, -0.1322102398, 0.0637746006, -0.1662399024, -0.0735817254, -0.0182412378, 0.1014845967, 0.0954676419, 0.0909853131, 0.0849904791, 0.0890081972, 0.0618839040, -0.0989716053, 0.1063804477, -0.1053978503, -0.1060051024, -0.1171316504, 0.0311561208, -0.1098539978, -0.1523281932, 0.0092946477, 0.0237142555, -0.2009431124, -0.0062896134, 0.1259533614, -0.3487778306, 0.1434434205, 0.1692182571, 0.1333799064, -0.3266291320, -0.1171427220, -0.1576046497, 0.0352502204, -0.0789323747, -0.0318750069, 0.1522992104, 0.1615933180, 0.3967038989, 0.1656897813, -0.0222502518, 0.0185757857, -0.3001782000, -0.4574815333, -0.4017780125, 0.1959928423, 0.1406324208, -0.1904294789, -0.1282738596, 0.2688387334, -0.0584486239, -1.0361814499, -0.1402468085, 0.1276805550, 0.0917421579, -0.2354868948, 0.1166819111, -0.1282604933, 0.0098641217, -0.2080227584, -0.3744165003, 0.1410263628, 0.1292912066, 0.3230203688, -0.0709596574, 0.1971074790, 0.1369492561, -0.0192122255, 0.1341730058, 0.0300856140, 0.1618361324, -0.3189656734, 0.2760095894, -0.1183482632, 0.2234912217, -0.0565204993, 0.1437164545, -0.0132421944, -0.1410961449, -0.0369656980, 0.1233347282, -0.1107395813, -0.1401031315, -0.1232179478, 0.1227027923, 0.1243244335, -0.1197593361, -0.6341339350, -0.1362826675, -0.0902076215, 0.0208458770, -0.0189269055, 0.1431261748, 0.0458523184, -0.0060025044, -0.1280794144, -0.0258549452, 0.1176040024, -0.3258913457, 0.0334468186, 0.0947903916, 0.1627949327, 0.0868995935, -0.1357507557, -0.0468079895, -0.1035069898, -0.0486953892, 0.0203097686, 0.0808935538, -0.1029133946, 0.0523921549, -0.1554267108, -0.0110227466, -0.0124782640, 0.0682329461, 0.0960784554, -0.0482923612, 0.0778385252, -0.0788034350, 0.1653003246, 0.0642833412, 0.0060692281, -0.1511618644, 0.1493836492, -0.6923134923, 0.0296362340, 0.1144271344, 0.1431141049, 0.1918552369, 0.1697719991, 0.0706241876, 0.1888632476, -0.0021212101, 0.0817959905, -0.0443292409, 0.1849539280, -0.1662960202, 0.0082253842, 0.0488375686, 0.0770944580, -0.0805032700, -0.1523186266, -0.0914711803, -0.1263802499, 0.0565958731, -0.0842064694, 0.0256646331, -0.0653713346, -0.0859946609, -0.0176417157, 0.1050102785, -0.1962476224, -0.1467496008, -0.1474503726, 0.0301840287, 0.0337129757, -0.0637610555, 0.1518185437, 0.0922874510, 0.0339936428, -0.1526985317, 0.1302005053, -0.0587218180, -0.1018770561, 0.0217683502, -0.1446039826, -0.2834413946, -0.0031188151, 0.0873875692, 0.1018636823, 0.0095378766, 0.1200947985, 0.0596474484, -0.0484781265, -0.1390429586, -0.0135747604, 0.0309153646, 0.0130411712, -0.0026278123, 0.0623984374, -0.0231264010, 0.0396996066, 0.0835438147, -0.0845985487, 0.2005920708, 0.0222798735, -0.1498113722, 0.0406958796, 0.1476953626, 0.0168510675, 0.0387307107, -0.1058647186, 0.0273348447, 0.1486678571, 0.0332317725, -0.1698207706, -0.1622810960, 0.1152981371, -0.1825509965, 0.2351497412, 0.0017049590, -0.0466326289, -0.0772173554, 0.0848493874, 0.0478976630, -0.0252626948, 0.0250293761, -0.1565483510, -0.1813906729, -0.0803551599, 0.0406941660, -0.2214064598, -0.0939213708, 0.0709138960, -0.1645036936, -0.0087183537, -0.1426573098, -0.1017003730, -0.0401299708, -0.1711582243, -0.1781213582, -0.1023661792, -0.1519542933, 0.1744178087, -0.0275325477, 0.0509257466, 0.0978932977, -0.0044241995, 0.1913571805, 0.1243791208, -0.0121181458, -0.0438080020, 0.0327237770, 0.1432452202, 0.1746588945, -0.0732057467, -0.1214533299, 0.0436210334, 0.0117667317, 0.1359984577, -0.1341239512, 0.0138354357, -0.0240767244, 0.0612253025, -0.0058075250, -0.1315003932, -0.0556110777, 0.1397228986, 0.0636424646, -0.1562644094, 0.0526648015, -0.0363593251, 0.2185531408, -0.0652895942, -0.1301127225, -0.0484813713, -0.0602871478, 0.0225424115, 0.1477086246, -0.1209366843, -0.1104139090, 0.0473389141, -0.0061522354, -0.0920670331, -0.0881277025, 0.0634039938, -0.1067146510, -0.1476008743, 0.1509516537, -0.0683652014, 0.0210623741, 0.0019593090, 0.1730178148, 0.2026230693, 0.0027348045, 0.1451197267, 0.0824207813, 0.0691743717, -0.1558945179, -0.3038685620, 0.0144218020, -0.0811988190, -0.2770816088, -0.0124962013, 0.1260138899, -0.0690481663, -0.3279032409, -0.0834407955, -0.0729521811, -0.0078532463, -0.1222631261, -0.1043090522, 0.1186368540, 0.0673952028, 0.0310399421, 0.0280271024, -0.0580495521, 0.0601389557, -0.2421254218, -0.1143530458, -0.0053598178, -0.1508567035, 0.1550528407, 0.0763334483, -0.1800420284, -0.1497274637, 0.0115518840, -0.1697632223, 0.0541561544, -0.1132408679, -0.0768407136, 0.0029432839, 0.1639436483, 0.0194160342, -0.0448561162, -0.0761021078, -0.2940147519, -0.0029062226, -0.3113679886, 0.1710189730, -0.1460214704, 0.0924770832, 0.0506122299, 0.1576379389, -0.1057145372, 0.1361247599, 0.0153881162, -0.2378986627, -0.4796218574, 0.0172234494, 0.1467740983, 0.0091279829, -0.0394965038, -0.0932841823, 0.0837334245, 0.0909332484, -0.1438901871, -0.1748138368, 0.0502155870, 0.1651897877, 0.0924591869, 0.0832482427, 0.0185658187, -0.5317963362, -0.1231793016, 0.1451683789, 0.1020468622, -0.0768137798, -0.0145460870, 0.0124658644, -0.1108346954, 0.0057764188, 0.0009838790, -0.1681992561, -0.6398217082, -0.1398886740, -0.1216495410, 0.1676153243, -0.0511186868, -0.0898998901, -0.0151554123, 0.0075748591, -0.0994008183, -0.1539460570, -0.0871708468, -0.0209659766, 0.1658326238, -0.0818805397, 0.1044669598, -0.1627802402, -0.0331556648, -0.1303837448, -0.0245946627, -0.0021823645, -0.0368231758, 0.1359545290, 0.0018797031, -0.1135030612, 0.1646035463, -0.0276525468, -0.3854667842, -0.0582632944, -0.1754603237, 0.1030343547, 0.0315694660, -0.1009842008, -0.0035190845, 0.1025243029, 0.0840933770, -0.0284172017, -0.0306422934, 0.1067865789, -0.2493122369, 0.0267622638, 0.1845984757, 0.1053040847, -0.1686748862, -0.0532834157, -0.0107833147, -0.0132086128, -0.0239625964, -0.1437048614, -0.1185301170, -0.0416087918, 0.0932660848, -0.1545617580, -0.3005012274, -0.1393352896, -0.2795744538, -0.4342411160, 0.4563877881, 0.2039959431, -0.0523915216, -0.0288020410, -0.4309213758, 0.0082096336, -0.3188818991, -0.0380218849, -0.0499883220, 0.0302637294, -0.0299474970, -0.0897694379, -0.1198649555, -0.1742480546, 0.0438139364, -0.0226135161, 0.0066931574, 0.0023665575, -0.2397540063, -0.0880150944, 0.1026109681, 0.0560070649, -0.0736654252, 0.2297403514, -0.2368318290, -0.2886833251, -0.0182043556, 0.0634256154, 0.1280728430, -0.0673150569, 0.0321927182, -0.0989798903, -0.2901001871, 0.7152170539, -0.1449998915, 0.1603403687, -0.5147017837, 0.0331631564, -0.0594134107, -0.0729487091, -0.2690981627, -0.0219075084, 0.1359169036, -0.3247744739, 0.1621058434, 0.0368288197, 0.5326655507, -0.3039403558, 0.2875979543, -0.3711126745, 0.0405116975, -0.1194744557, -0.1652129889, -0.0580550060, 0.3651009798, -0.1554567069, -0.1238952875, -0.4188687801, 0.1414891481, 0.2035956383, 0.1602499336, -0.0418748222, 0.0667417198, -0.2794221938, -0.1379498392, -0.3425868452, -0.1934561282, -0.0945964083, -0.1349425763, 0.2040904313, -0.1602703035, -0.1256812215, 0.2724570334, -0.1305625141, -0.7787919641, -0.4391118288, -0.0021870434, -0.4659161270, -0.3041674495, -0.4169894159, 0.0162577238, 0.0219529755, -0.0046640132, 0.1850459576, 0.0488885343, 0.1281211078, -0.0141787827, 0.0792066753, -0.0110854693, -0.2397039980, -0.0856381208, -0.0708521381, 0.2721407413, -0.3282031119, -0.3812742233, -0.0582916588, -0.0751032829, -0.0810053125, -0.5187570453, 0.0545991361, 0.0386133790, -0.0741404444, 0.1465738118, 0.0868158787, -0.2114012390, 0.2534077466, 0.1432224363, -0.1355471611, 0.0434022024, -0.3140609562, 0.2201189101, 0.1943560243, 0.1380501986, 0.0367520899, 0.0029451989, -0.3058231175, 0.0821031481, 0.0308972970, -0.0487921387, -0.2006108910, 0.5515357852, 0.1406100839, 0.0890076905, -0.1448587030, 0.1751083285, -0.1697775871, -0.1726704836, 0.4224629402, -0.1026953831, 0.1038488448, -0.0687856376, 0.0196114779, -0.1112642959, -0.1691217870, -0.1027668491, -0.2916344404, 0.2182829380, -0.0256018266, 0.3104462028, -0.0110137556, 0.7334613800, -0.0459305681, 0.0281706750, -0.3340454400, -0.0865973383, -0.1919170022, -0.3701875210, 0.4569849372, 0.1344704032, -0.0884245262, 0.1856577694, 0.1875796020, -0.3348714411, 0.3946183920, 0.1672073454, -0.0152104646, 0.1768825948, -0.0301404186, 0.0031235304, -0.1540112346, 0.4018238485, -0.3068133593, -0.3131820560, 0.1248412654, 0.9380694628, 0.4084033668, -0.2558345795, -0.2334178090, -0.1256071329, 0.1252436042, -0.0805639625, -0.2313233018, -0.0075372458, 0.0787358284, 0.4367242455, 0.2134757936, 0.0615043938, 0.0150227854, 0.1109874174, -0.1587895751, 0.1241502017, -0.0734695420, 0.2721907198, 0.1452830881, 0.0838616714, 0.2732096612, -0.0834148899, 0.1793475300, -0.1036050022, -0.3999129236, -0.0734054595, -0.1699970812, -0.2696694732, -0.0217337012, 0.0665433109, -0.1649022847, 0.2088593692, -0.2288339883, 0.1160680503, -0.0411079228, 0.1346506625, -0.1696453542, -0.1137245223, 0.3718189299, -0.1233581752, -0.4491337538, 0.3291524649, 0.0997411385, 0.1124828532, 0.0099751940, 0.1745805293, -0.0639851913, 0.0067084283, -0.1757853627, -0.1066491455, 0.2314542979, 0.1608864665, 0.2183302045, -0.0734253749, 0.0254339725, 0.4844382405, -0.0449061729, 0.2583688498, 0.0651637465, 0.0440904498, 0.1017587036, 0.2485510558, -0.1422710717, 0.0657101497, -0.1199137121, -0.2122687250, -0.1177322045, 0.0011507575, 0.1908659488, -0.0643125921, 0.1193175390, -0.3739207089, 0.2296091020, -0.1783498824, 0.1275697500, -0.0111141652, -0.1497571468, 0.0344673991, -0.1282635629, -0.0775148794, -0.1453106105, 0.0721711218, -0.1149965376, -0.1303165853, -0.1356518269, -0.1069718152, 0.0370681137, 0.0650193095, -0.0998996198, 0.0793507844, -0.0985289216, -0.1733632684, 0.0048335344, 0.1300248653, -0.1256660521, -0.1465107501, 0.0745959133, -0.1555459350, 0.1714382321, -0.0339754224, -0.0956721231, 0.0452064574, -0.1288520098, -0.0240319222, -0.0281348825, 0.0501516759, -0.0998382568, 0.0484003425, 0.0247627050, -0.1430279911, 0.0996389538, -0.1762112975, 0.1497526318, 0.0712132901, 0.0190216750, -0.0192651153, -0.0540192351, 0.0482225269, -0.0402942002, 0.1482256502, 0.1352059096, 0.0103897899, -0.0683274195, 0.0603702217, -0.0076432526, 0.0937226266, -0.0564517379, 0.0087413043, 0.0538318157, 0.0507282466, -0.0532282665, 0.1159218401, 0.1224170774, -0.0943114534, -0.0503415465, 0.0483707935, -0.1310343742, -0.0146251321, 0.0159866363, -0.0779911801, -0.0524195060, 0.1531637162, 0.1339575499, -0.1313218176, -0.1339368224, 0.1490924805, -0.1283765137, -0.1282257587, -0.0070172399, 0.0459480286, 0.0283887237, 0.0090880394, 0.0564442426, 0.0850331932, 0.0794849843, -0.0451290756, -0.1588196456, 0.0840580016, 0.0499888659, -0.1220997572, 0.0340613574, 0.0075343400, -0.1110408828, 0.1164148897, -0.1093918905, 0.0339437574, 0.0239811391, -0.0122682303, -0.0139682591, 0.1308561414, -0.1483332217, -0.1517291218, -0.1280064285, -0.0619561598, 0.0675052106, -0.0626691207, -0.0101019293, -0.1280504316, 0.0128683597, -0.1025908664, -0.0303612798, 0.0907522291, -0.0662554801, -0.0857960209, -0.0997615010, -0.1212156415, -0.0693753138, -0.0289517641, 0.1021962017, 0.1710894853, 0.1519538015, -0.0461352915, 0.0036929548, 0.1221450716, -0.1654278934, -0.0903734192, 0.0651293993, -0.0068914741, 0.1748235673, -0.1028603539, 0.0391868353, -0.0191494673, 0.0278087128, -0.0657771081, 0.1080090106, 0.1071012244, -0.1650533676, 0.0561963320, 0.1698163897, -0.1496692300, 0.3917988241, -0.2036225647, -0.0602441207, 0.0966530591, 0.0309359916, -0.3941576481, -0.5194584131, -0.1772676557, -0.6232876778, 0.3360134363, 0.2069906592, -0.0889322087, -0.0813746378, -0.1872549206, 0.1371329278, -0.7916002274, -0.2296776325, -0.2388824970, 0.2120081037, -0.1489757448, -0.1499350816, -0.3957900703, -0.0992240682, 0.1856198162, 0.2382373661, 0.3617021739, -0.0800758973, -0.0600793920, -0.1908856183, -0.1353910267, 0.4597215056, 0.1600837559, -0.4506182671, 0.3616666198, -0.0088670524, 0.2715287209, -0.0702306852, 0.4408544600, 0.1527003050, 0.3565847874, -0.0742290318, -0.3846694231, 0.4075660706, 0.2371645719, 0.2674441636, -0.5107254982, -0.2450833768, -0.1284245551, 0.2046233416, -0.2688740790, -0.0765373260, -0.0559212491, 0.2290929407, 0.0574536398, -0.4325346053, 0.3904767036, 0.0015068935, 0.2231820524, -0.2153205127, -0.1740926057, -0.1244356036, -0.1459227949, -0.1107097417, -0.1769315600, -0.1130426526, -0.2912787795, -0.5740146041, 0.1377430856, -0.2614865899, 0.0669054687, -0.2803616524, -0.0474853739, -0.4558245242, -0.1482360959, 0.1928068846, -0.1187778190, 0.1062660664, -0.2929607630, 0.0403541960, 0.0354137570, -0.1760502905, -0.4117938578, -0.0062425733, -0.2045297325, 0.1067387685, -0.0723727569, -0.2866480350, -0.2832399607, -0.0375043154, -0.0014655051, -0.1134902462, 0.0099118324, 0.3972071409, -0.1447241455, 0.2917505205, 0.0508828759, 0.0506993346, -0.1684723943, -0.0424616076, 0.0629175976, 0.0952100307, 0.1562065333, -0.3546301126, 0.0764824152, 0.0581350476, 0.0251916349, -0.0770811513, -0.0968772471, 0.0863124877, -0.0880546644, -0.0619292594, 0.0739375129, -0.0025317669, -0.3846320212, 0.1701542288, 0.0329784304, 0.1568532884, -0.4689249992, -0.7753343582, 0.2878010273, -0.1864687800, -0.0961052552, 0.0952329263, -0.1246769950, 0.1139341369, 0.0281140506, -0.1151623502, -0.0369807109, 0.0776928887, 0.1140369549, -0.0394585170, -0.1176790148, 0.1502926499, -0.0106808096, 0.0149756325, 0.0686746761, -0.1541205198, -0.0230904929, -0.1024763286, -0.1358026564, -0.0504243672, -0.3500472605, -0.1409372836, 0.0144180376, -0.1046335548, 0.1410379857, 0.0043409495, 0.0736562088, 0.0314294808, -0.1160271168, 0.0022975749, 0.1157431453, -0.1483433843, -0.1565928459, 0.0955665782, -0.2419971824, 0.1180293113, -0.0862068310, 0.1118488088, -0.0668851659, -0.0131861325, 0.0698480383, 0.0890353546, 0.0900401995, 0.0397627726, 0.0110298889, 0.1993804723, 0.1676729172, -0.0906281546, -0.0425979383, -0.0928128213, -0.0172493663, 0.1136002466, -0.1115544066, -0.1949369013, 0.1531648636, -0.0799681544, -0.1751559526, -0.1423650235, -0.1140682697, 0.1036975980, -0.0384452790, 0.2225869596, 0.0934650376, -0.1169767901, -0.2876996398, 0.1415972710, 0.1453655958, 0.1522374749, -0.0521110371, 0.1183997244, -0.1757519692, 0.0537740290, 0.1498665512, -0.2923482358, -0.1762764603, 0.1532434672, 0.0603160113, -0.3577705324, 0.0274198670, 0.1189079508, 0.0227962136, 0.1393034011, 0.0937817916, 0.0125232190, -0.3348190784, 0.1236445010, -0.1005424857, 0.0855097622, -0.0954692736, -0.0050526410, 0.0848054811, -0.1042443067, -0.1562118083, 0.0482618585, 0.0556019358, -0.1381419003, -0.0099132387, 0.1318467706, 0.1579886526, -0.1569057107, -0.1635251343, 0.1022789851, -0.0767492428, -0.0545933284, -0.1218910515, 0.0563727915, -0.2011158019, -0.0566500872, 0.1441622972, 0.0367627740, -0.0517225191, -0.1423095018, -0.0113977790, 0.0059294254, -0.1388279200, -0.1163171232, 0.1507218778, 0.0013303118, 0.0980279222, -0.0173757523, 0.0073461044, 0.0076655727, -0.1613902301, 0.0135514010, 0.0528390147, -0.0011041390, -0.1750763953, -0.0367381908, -0.0839679316, -0.0264793411, -0.0173588805, 0.1061232910, 0.1517948955, -0.0197615847, -0.1717039645, -0.1257479042, 0.0686016455, -0.0285702236, 0.1483343095, -0.0642473400, 0.1343792379, 0.0292870067, 0.1132250130, 0.1876577735, -0.1837547421, -0.1231560037, -0.0924670622, 0.1668806523, 0.0000049958, 0.1739552021, 0.1387321800, 0.1172299534, 0.0359913558, 0.1694610566, -0.0762579292, 0.0259052701, -0.1413317174, 0.0940257385, 0.0453947932, -0.0311108399, 0.1272512227, 0.1351992190, 0.2259456366, -0.0303673074, 0.0522229783, 0.1303166896, 0.0109587768, -0.0869040713, -0.0603345558, 0.2609690130, 0.0242924169, 0.0935829282, 0.1384684592, 0.0798247680, 0.0975405276, -0.0645774826, 0.1049208641, -0.1730841100, 0.0088483617, 0.0322054029, -0.0137399063, -0.2269331515, 0.1072343141, -0.0445219539, -0.1047569066, -0.0218003895, -0.1444736868, -0.0771759450, -0.1825427562, 0.0170430634, -0.1492848694, -0.1491029561, 0.0385912210, -0.1622510254, -0.1620227098, -0.1699719429, -0.1666213721, -0.0525708571, -0.0638794973, 0.1287451237, -0.1294749528, 0.1825954169, 0.0737434328, 0.0292722937, -0.0510416925, 0.2749159634, -0.0983559340, -0.0902644172, 0.0507727340, -0.1272024959, 0.0264107194, -0.1249890924, 0.1530054361, -0.0269440766, -0.0493578762, -0.1523254514, 0.1527176499, 0.1072346419, -0.0587452613, 0.1348603070, -0.1079299450, 0.1107088104, -0.0505952351, 0.0262851622, 0.0581849553, -0.1278035194, 0.1357443929, 0.0679853633, -0.0623621196, -0.0853316486, 0.1751839668, -0.1155303940, 0.1640405357, 0.1401219964, 0.0850548297, -0.0823302865, -0.1258161366, -0.0110309338, 0.0603798814, -0.0562222525, -0.1607130170, 0.0011070222, -0.1020415649, 0.0676231384, -0.1323086023, -0.0370584466, -0.0585608967, -0.0134005649, 0.0878235400, 0.0832628608, 0.0681767464, 0.0309115741, -0.1212333962, -0.1600141227, 0.0804307535, 0.1628368646, -0.1488613784, 0.1076140851, 0.0904318690, -0.0439004749, 0.0654667467, 0.1597735137, 0.1037578732, 0.0800838768, -0.2220567018, 0.1087982878, 0.0920863599, 0.0802091435, -0.1358495951, 0.0888376981, 0.0959980786, 0.1308211535, -0.0326033048, -0.1378851533, 0.0342137963, -0.0085417889, 0.3390417695, 0.1158378348, -0.2443483621, 0.2530956864, -0.0335677564, 0.3925282061, -0.0964222029, -0.0715969056, 0.0139366845, -0.1500894278, 0.1408941448, 0.3064729869, 0.6616272926, 0.0206443649, 0.3244650662, -0.0067116185, 0.0957351699, 0.2896721959, -0.0277861338, -0.1005585343, 0.2875246406, -0.2489924729, 0.1663201600, 0.0791005641, 0.0267074462, 0.0562065430, 0.0580955260, 0.0252786726, 0.0527022146, -0.0367320701, 0.3433013558, -0.1703400165, -0.3669704199, 0.0220009387, -0.0243715085, 0.0725928247, -0.0703968257, -0.0806019679, 0.0058895727, -0.2029246837, -0.0174831394, -0.4221348763, -0.0750279576, -0.2140606493, 0.4610626996, 0.1690456271, -0.0190272480, 0.1079035103, 0.0051747113, -0.1231677532, 0.1273473650, -0.1179286912, 0.1511370689, 0.2828139961, -0.0502798371, -0.1148657799, 0.1754736453, 0.3656853437, -0.0042798552, 0.3079936206, 0.0318298303, 0.1736027747, 0.3878782988, -0.1385815293, 0.2877069116, 0.0183150657, -0.0167788714, 0.1446497589, -0.4920025468, 0.0682024062, 0.0523092151, 0.0452558286, 0.1523077935, 0.3310588300, -0.0592158735, 0.3657862246, -0.0058307415, 0.1185232922, 0.1699827015, -0.6547592282, -0.1281368285, -0.1721135825, 0.0325023383, 0.1186875626, 0.0194758698, 0.0809265152, -0.0043417350, -0.0679076761, -0.3668685555, 0.2716659307, -0.0338402912, -0.0919394717, 0.0845596343, -0.0097301006, 0.5417464972, -0.0232333243, 0.0109967217, 0.2966001630, -0.0302477535, 0.0419919193, -0.0320881493, 0.2836097181, -0.1269559562, 0.0453484505, 0.0781469643, 0.0402601399, -0.1677151918, -0.0666409880, 0.2119446248, -0.1528233141, 0.1774897575, -0.0545529611, 0.0221786052, -0.0258367695, 0.1394681633, 0.2559409440, 0.1781199127, 0.1058097184, 0.0617462695, -0.0756558776, -0.1215148196, 0.2244305909, 0.0542417318, 0.3795497417, 0.0292185992, 0.0806547180, -0.0911610201, -0.0782682523, 0.2708631456, 0.0267628971, -0.2094617784, 0.2658645213, -0.1033814549, -0.1896339357, 0.0898076296, 0.1776645631, 0.1212152913, 0.1202291548, -0.0056998827, 0.3401806056, 0.0961925983, -0.2732581496, 0.3648890257, 0.0277613997, 0.0122917267, -0.2285069227, -0.0329685844, 0.0911734253, -0.0211351104, 0.1537007391, 0.2080295831, 0.1215253100, 0.2664127648, -1.4823634624, 0.0887448862, -0.0165032297, 0.3870697320, 0.2490985096, 0.1023557633, -0.0679295212, 0.2317830771, 0.4899600744, 0.2884626985, -0.0589196160, -0.0227945242, -0.0849008113, 0.0504036620, 0.0467847027, 0.0471824296, -0.0271068215, 0.3233693242, 0.0222951807, -0.0353129245, 0.0221249089, -0.1478202045, -0.0087672528, -0.0308780074, -0.1644821614, -0.1537597775, 0.1009455472, -0.0389551036, 0.1412092745, 0.0761952922, -0.3758713007, 0.1622716337, 0.1294049621, 0.1656094790, 0.0082353344, -0.0422611758, 0.0625477284, 0.1838182509, -0.1281065196, 0.3274762630, -0.0721819550, -0.1203870326, -0.1494419277, 0.2684289813, -0.0025576800, 0.1015207842, -0.1295425296, -0.1760901213, 0.1736558974, 0.2743477225, 0.0092973001, 0.4410772324, 0.1093632802, 0.0226801783, 0.3858241141, -0.1126481593, -0.0187428314, -0.0217683464, -0.0443615541, 0.2000458091, 0.0772900805, 0.0992866829, -0.1760559380, 0.2648522556, -0.1646011770, 0.4795269668, -0.1155364811, 0.0513135791, -0.0557492375, 0.6506776214, -0.0108013451, 0.0719098523, 0.0565537773, -0.3151174784, -0.0063144416, 0.0857035816, -0.2176363915, -0.1445488930, -0.1970748007, 0.1289847940, -0.0422131680, 0.1363925487, -0.1073836610, 0.0235841479, -0.1081298068, 0.0675472096, -0.0430689715, 0.1562113017, -0.0563070476, -0.0634999052, -0.1043774933, 0.0628205910, 0.0280928481, -0.0365772694, 0.0211774781, -0.0696823597, -0.0634620562, 0.1748226285, 0.0795586035, -0.1446591914, -0.0802732706, 0.0267823040, 0.1226713881, -0.3788076937, 0.0532369651, 0.1299458444, 0.1376706362, -0.0306984782, 0.1913947910, 0.1105654165, 0.1265050918, 0.4154452085, 0.0134168379, 0.1311660856, 0.2208807468, -0.2985762656, -0.2829576433, -0.3848756552, 0.1391128153, -0.0589709096, -0.1317309588, -0.1063621938, 0.0675158203, -0.0870695189, -0.6781920195, 0.1017143056, -0.0947382301, 0.2565367818, 0.0679718554, -0.1373011023, -0.1170210987, 0.0601350889, -0.1880840659, -0.2289395630, 0.0166852959, 0.3990141749, 0.2552673817, 0.1627229154, -0.0591918789, 0.1929262877, -0.1075386629, 0.0276630055, -0.0227474477, -0.1766569912, -0.3016831875, 0.0448892936, -0.1374766231, 0.2478788495, -0.0249833446, 0.0468282476, -0.0950218812, -0.0290424675, 0.1294791251, 0.1902965903, 0.1364648789, -0.0912230089, 0.0776217356, -0.1468421817, 0.1047046706, 0.1407550424, -0.6197540760, 0.0830216631, 0.1395875365, 0.1684918106, -0.0098221637, -0.1426808685, -0.1319356859, 0.2402833402, 0.1607853621, 0.1330625266, 0.0257432461, -0.2752813101, -0.1509552598, -0.0880512670, 0.1021047086, 0.0350046903, -0.1159618944, -0.0248317085, -0.0117687993, -0.1296441555, 0.1773790866, 0.1708783656, -0.2651939094, -0.0768315122, 0.0971294492, -0.0354093015, 0.1117955297, -0.0780216008, 0.0050268359, -0.0441068634, -0.0101646036, -0.0248359945, -0.1358157545, -0.1718423516, 0.1369956285, -0.1033358127, -0.0264589041, -0.8232362270, -0.0230590105, -0.0392773077, 0.0375801437, 0.0110694310, -0.0131914234, 0.1310576200, 0.2231328785, -0.1512244493, 0.1572974324, 0.2198382020, -0.1378768981, -0.2170740962, -0.1114021912, 0.1118897721, -0.1322616190, 0.0712845325, 0.0486718677, -0.0572527424, 0.1316464245, -0.0916691348, 0.0520729050, -0.0788761824, 0.0888212994, -0.0577351153, -0.1331247985, 0.0166399684, 0.0801527873, -0.0700459555, -0.1908970624, -0.1837904006, 0.0905232877, -0.1363212466, 0.0585280769, -0.2424895316, 0.1603790224, -0.1679610759, -0.0803661868, 0.0681640059, 0.0301752910, -0.0963312835, -0.0603302121, -0.1023841724, -0.0293243714, 0.0202982500, -0.0438290797, -0.1721817106, -0.0449317880, -0.2248220146, -0.0200684033, -0.1677927673, -0.0956932232, -0.1447439194, 0.0813910365, 0.0571252070, 0.0577062443, -0.0118107283, -0.1533182412, -0.0780231208, 0.2212119102, 0.1551465243, 0.0643817931, -0.3203316033, -0.0070910119, -0.2485794425, 0.1069441363, -0.1285202056, 0.1048133373, 0.1061178520, 0.0867852569, 0.0396378152, 0.0280677192, -0.0220667422, 0.0155636054, -0.1374139190, 0.0697545186, -0.2011440545, -0.0590289719, -0.2722713649, 0.1235688552, 0.0838974267, 0.0033672038, -0.1175091192, 0.0108650327, 0.1281019598, -0.0988591015, -0.0357307047, -0.1099872738, 0.0818477720, -0.0018167283, -0.0963255689, -0.4943159521, 0.0294470247, 0.0680258796, 0.0669258982, 0.1249748394, -0.0460590199, -0.0579013377, -0.2885477543, 0.0867339969, -0.0376386046, -0.0936164111, -0.1060292348, 0.0182726383, -0.1202793717, -0.0613980405, 0.0186095983, 0.1166336760, -0.1137892976, 0.0407269746, 0.1520465612, 0.0812882408, -0.1352862865, -0.0538202859, -0.0245524347, 0.0308307204, 0.0084611923, 0.1137364805, -0.2554602623, 0.1273759604, -0.1825213134, -0.0145917088, -0.0145925712, -0.0639037788, 0.0279921517, 0.0831633061, -0.0273156315, -0.0890881941, 0.0500057004, -0.0512681007, -0.1129025593, 0.1218544468, 0.0667194426, 0.0076293931, 0.1407714039, -0.0675789490, 0.1406645030, -0.1749383211, -0.0307868049, -0.0638748184, -0.2633450329, -0.0701040328, -0.1488130093, 0.0985254496, 0.1073610038, -0.0921537057, -0.0950904936, -0.0957305357, -0.1665216833, -0.0790608674, -0.0695384219, 0.0062175095, 0.1741431504, -0.0876620263, -0.0181710720, 0.1477453858, -0.1217895970, 0.0296762735, -0.1427386850, -0.0235736966, 0.1567206830, -0.0056562275, 0.0477548689, -0.0041441321, -0.0013847351, -0.1120977998, -0.1398738772, 0.0341755748, -0.0270924121, 0.0462082475, -0.0466113836, -0.0443850607, -0.0831236988, -0.0354894549, -0.1564275622, 0.0993905216, 0.0928782076, -0.0528639928, -0.0053301454, -0.0806291550, 0.0898999125, 0.0893000811, -0.0445577353, -0.0123636574, 0.1246884018, -0.0615996867, -0.0497537255, -0.1333293617, 0.0932915062, 0.0445082039, -0.1597157270, -0.1440820694, 0.0790231377, -0.0424553156, -0.0475445539, 0.0195312649, -0.1073376983, 0.1095092148, -0.0025395155, -0.0965272784, 0.0310758054, 0.0102083087, -0.0799233615, 0.0663724393, 0.1559610516, 0.1076771766, 0.0873640925, 0.0602357686, -0.0700397566, -0.1245337352, 0.1626363844, 0.1545069665, -0.0592690036, 0.0802972764, 0.0801134855, -0.0820252672, 0.0053597689, 0.0256934315, 0.0933841318, -0.1664874256, -0.1496385038, 0.1086246520, 0.0103566647, -0.1180905774, 0.1513043195, 0.1389962584, -0.0049988329, -0.1569360644, -0.0655202642, -0.1230450720, -0.0653829128, -0.1154983342, 0.0052487105, -0.0459906459, -0.1493823826, 0.1458293051, -0.0862665027, -0.0263368487, 0.1662420481, -0.1374421716, 0.0093305558, -0.1230957285, -0.1143872142, 0.1687077731, 0.0886650532, -0.0004962832, -0.1527523547, -0.1101162657, -0.0124963224, 0.0629562587, -0.1186264306, -0.1195413619, -0.0591459796, -0.1549507827, -0.0053688735, -0.0179731846, 0.0100122392, 0.0177058876, -0.0581777841, -0.1286894977, 0.0185178965, -0.1383562982, 0.1138705760, 0.1702473909, 0.0449636430, -0.0015218854, -0.0481034219, 0.0772308260, 0.1664616317, 0.0391912200, 0.0576953776, -0.0711106583, 0.1018678173, 0.1282436550, -0.1453302503, -0.0203025229, -0.0806570128, -0.0010147021, -0.1596872061, 0.1703576893, -0.1448130310, 0.0201420952, -0.0449393541, -0.0042995457, -0.0478995144, -0.0910740569, -0.2238942683, 0.1242322549, -0.0399583280, -0.1082075015, -0.0569530167, 0.0241925456, 0.0166012626, 0.1309007704, 0.1309277713, 0.0093549136, 0.0452570580, 0.1854260266, -0.0794930235, 0.0287508778, -0.0110248188, -0.0544472113, -0.0616257191, 0.0740498155, 0.0415294133, 0.0582586192, 0.0207782108, -0.1700893641, 0.1020165533, 0.0191001948, 0.0542287901, 0.0923112333, 0.0214514583, 0.0867497176, 0.0009991793, 0.1331438571, 0.1591283679, -0.0003031194, -0.2087711841, -0.0448539332, -0.2154923826, -0.0584451146, -0.0639096722, -0.1294078380, -0.1795073599, 0.0336348116, -0.0729755983, -0.1363653541, -0.1771480888, -0.1192626059, -0.0754365325, -0.0961659625, -0.1542307138, 0.1506243050, -0.0267368723, 0.0959646031, -0.1459471285, -0.0721264407, -0.1615814418, -0.1213186085, -0.0417448208, -0.1135155410, -0.0596860386, -0.1219297722, -0.0930121690, -0.1043689698, -0.1537748426, -0.2087774426, 0.1447547674, 0.1281477064, -0.0703838095, 0.1329609454, 0.1466365308, 0.0597846359, 0.0411849916, 0.1581506878, -0.1763781458, -0.0594669655, 0.1999371350, -0.1558532715, -0.1093480736, 0.0718501583, -0.0687663332, 0.0472505093, 0.1659456640, 0.0566615090, -0.1079767197, 0.0257681943, 0.1787957996, 0.0158650912, 0.0038943738, 0.0126992511, 0.0677257329, -0.1209179088, -0.1875338554, -0.1163706705, -0.0597864389, -0.0128868222, 0.0205121841, 0.1521135122, 0.1536486596, 0.0022707433, -0.1248163730, -0.0683433488, 0.1353826523, -0.0843465477, -0.1281020790, -0.0663809404, 0.0139153656, -0.0932941958, 0.1368875653, 0.0663751513, 0.1039106399, -0.1068230420, 0.1458142996, 0.0906432047, -0.1407672316, 0.1583284289, -0.0318659656, 0.0904542655, 0.0201074034, -0.1048440859, -0.1220657825, -0.0274851024, -0.0342180096, 0.0108410586, -0.1046375558, 0.2274989933, -0.0589201152, -0.1489770561, -0.2586445808, 0.2051761895, -0.0632027760, 0.3791580796, 0.0366705507, -0.0701819807, -0.0091520250, -0.0199855659, 0.2364602238, 0.1677406579, -0.2902677059, 0.0410737582, 0.0858223289, 0.2046467960, 0.0057805409, -0.3030853570, -0.0592831261, -0.2884992063, -0.0463822745, 0.3692919016, 0.7958205938, 0.1007623523, 0.6836610436, -0.3218354881, 0.0256570969, 0.2396579087, -0.2355104983, -0.0841048360, 0.0655161738, 0.0308062304, -0.0785637498, 0.0287019163, 0.3836318851, 0.0807334259, 0.3152995408, -0.0977947637, -0.0476370342, 0.1387293339, 0.3225537241, -0.3055902123, -0.2603363097, -0.1040967181, 0.1787143648, 0.2081655860, -0.1126738489, -0.0154457688, -0.1601407826, -0.2952902913, 0.1517452002, -0.3289009929, 0.2836643159, -0.0798645243, 0.4780334532, 0.0986551046, 0.0515796281, 0.0003216258, 0.1380623728, 0.0071657598, 0.1010643989, -0.1139095277, 0.1814810485, 0.0076770699, -0.0178724080, 0.0799304321, -0.1745115072, 0.4014461935, 0.1391855776, 0.2626688182, -0.2867899239, -0.0129231839, 0.5475511551, -0.0780862644, 0.3460202515, -0.0438745879, -0.0864343792, 0.0535165519, -0.2668274939, -0.1035811454, -0.1263088286, -0.0332281142, 0.0873952955, 0.0133662336, -0.2157860845, -0.0051051714, -0.1578458697, 0.1156960130, 0.2468439043, -0.7376493812, 0.0590786338, -0.2849117219, -0.1188486740, 0.3367383778, -0.1137734428, 0.1395821124, 0.1031670719, 0.1235506982, -0.3688450456, 0.1389790028, -0.1479166597, -0.0363524109, -0.0106150657, -0.0089001060, 0.4211302102, -0.0504036695, 0.0944271088, 0.1697950810, -0.1993943453, -0.0525395870, 0.0474527292, 0.4672126472, -0.1627609283, 0.0748594701, 0.3348134160, -0.0150885889, -0.4361712337, 0.0406704843, 0.1650969237, 0.1715878397, 0.0892080218, -0.1289033145, -0.0908866450, -0.1487983465, -0.1126535907, -0.0622812435, 0.0880938619, 0.0220016241, 0.1388087124, 0.1563055068, 0.1327455789, 0.0542309880, -0.0006985813, 0.1277481467, -0.0319134295, 0.0984250754, -0.0387007594, 0.0835766941, 0.0735240728, -0.0707689375, 0.0585212708, -0.0898439735, 0.0487203598, -0.0600491017, -0.1729481518, -0.1496325582, 0.0446648300, 0.1485268921, 0.0701788813, -0.1339144409, -0.0073107481, -0.0481663942, 0.1719280034, 0.0330891162, 0.1561686844, 0.0672907233, -0.1743306965, -0.0130110681, -0.1626105905, -0.1558634639, 0.1313678473, -0.0547174439, 0.1097157151, 0.1130759865, -0.1341810226, 0.0986066312, 0.0414126515, -0.0053596050, 0.1557031125, 0.1054268032, 0.0579774082, 0.1141076535, -0.1239406019, -0.1452485323, -0.0088098347, 0.1269793361, 0.0997854024, -0.0368776470, 0.0809389204, 0.0022996515, 0.0028656423, 0.1323883981, 0.1757154018, 0.1630793959, 0.1598153263, -0.0901097953, 0.1715433151, -0.0613631979, 0.1639947742, 0.0794538409, -0.0209185779, -0.1185508668, -0.1234748811, 0.0926751345, -0.0738081932, 0.0584006160, -0.1255714744, -0.0329520106, -0.1170411631, -0.1284594536, -0.1478950530, -0.0912717804, -0.1572734416, -0.0631499738, 0.0463529825, 0.0643087924, 0.0752400905, 0.1671474725, 0.1476474553, 0.1344451159, 0.0699573606, -0.0878529102, 0.0777678341, 0.1070343703, 0.0898997039, 0.1588685662, 0.0253247321, -0.1439059377, -0.0030900836, -0.0793329254, 0.1187206656, -0.0112564117, 0.0064536482, -0.1746658981, 0.1542904526, -0.1475956440, -0.0658117980, 0.0407013446, 0.0443829000, 0.0438655615, -0.0084219575, 0.0092592835, 0.0336285084, 0.0900266320, -0.1602104902, 0.1000777036, 0.0436926633, -0.1674964577, 0.0483852178, 0.1613839418, 0.0433681309, 0.0612481833, 0.0263185948, -0.1311491430, -0.1198808551, -0.1479753852, 0.1498019546, -0.0096002519, 0.0570361018, -0.1184456199, -0.0292845219, -0.1476447433, 0.0642631054, -0.1419568658, -0.1684307754, 0.0634134710, -0.1282720268, -0.1196195409, 0.0024880618, 0.0928140730, 0.0027885586, -0.0189718157, -0.1241037548, 0.0702341795, 0.0831231624, -0.1533692628, 0.1430534869, 0.1505164355, -0.1596512944, -0.0928795114, -0.0741559044, 0.0351152718, 0.0181154311, 0.0190159380, -0.1223854274, -0.0785847381, -0.0900923461, -0.1397845298, -0.1198634058, 0.1010946482, -0.0635814667, 0.0831194371, -0.0806792229, -0.0364060253, -0.0122312754, 0.1708853990, -0.1257299483, 0.0276502222, -0.1241668016, -0.0936038941, -0.1347885728, 0.1687829942, 0.1458661109, 0.0979387909, 0.0712354630, -0.1100804880, 0.0914539248, -0.0784214586, 0.1038065404, 0.0194603354, -0.0559847951, -0.0123186409, -0.0794168413, 0.1005012542, 0.0597493052, 0.0766479522, -0.0791617706, 0.0235838145, 0.0969665796, -0.0270083696, -0.0983158648, -0.0501855612, -0.0206086636, -0.0295252651, -0.0319043696, 0.0332670063, -0.0435242057, -0.0528861210, 0.0285949558, 0.0296022147, -0.1015889049, 0.0388421565, 0.0227353126, -0.0025845319, 0.1707571000, -0.1462883353, -0.0232410729, -0.1627951115, 0.1685620695, -0.0914599225, -0.1116131172, -0.1058301479, 0.0268267989, -0.1701502800, 0.0168450475, 0.1188223213, -0.0079555064, -0.0535324365, -0.1557058394, 0.1729045659, -0.0711969435, -0.1166385338, 0.1759762913, -0.1047446132, 0.1366669983, 0.0742491037, -0.0282094777, -0.1568205804, -0.1420355439, 0.1217857748, 0.1519409865, 0.0618086457, 0.1517747194, 0.1281725615, 0.0436796844, 0.0951825827, -0.1648478657, -0.0546468422, 0.1106031388, -0.1601557881, -0.1631194353, -0.1090920568, 0.0229161233, -0.0776417404, -0.1658842564, -0.0362496674, -0.1065283492, -0.0450217724, 0.0694761276, -0.1070593596, -0.1250128597, 0.0743515640, 0.0099397898, 0.0914582163, -0.1641298234, 0.0446242839, 0.0333926827, 0.1649851352, -0.1668500155, 0.1589029133, 0.1749660671, 0.0914299712, -0.0220892280, -0.0088785226, -0.0721221492, 0.1175399944, -0.0918375030, -0.2463941276, 0.1599622369, -0.4202660024, -0.0748491064, -0.1159626395, -0.0144675374, 0.1104344726, -0.5699726343, 0.1188410297, 0.0977147520, 0.0731678605, 0.0826758891, -0.1774995327, -0.0083914874, -0.1229319125, -0.3714865148, 0.0452395268, -0.0555418879, -0.0919328704, 0.0686756074, 0.2315923274, -0.3903646469, 0.0497484095, 0.0948024988, 0.0088795992, -0.1583716869, 0.0592334904, -0.0635961220, -0.0099026393, -0.1541599333, 0.0678979009, -0.0635227934, 0.0182849485, 0.0755994320, 0.1350907534, -0.5108249784, 0.0125684943, -0.0190075692, -0.1538278013, -0.3009403348, 0.0445798226, 0.1389754862, -0.1485409439, -0.0547118261, 0.1082704961, -0.1336971819, -0.0306569468, 0.0347947665, -0.0119998371, -0.1993717402, -0.0725788772, -0.0627881736, 0.1181403697, -0.1286080331, 0.1452923566, -0.1178402305, -0.1135790572, 0.0942538828, 0.0009231865, 0.0371820852, -0.5064067245, -0.0650004596, -0.1334211975, -0.0549037308, -0.6876416802, -0.0149056567, 0.0216781199, -0.0371525474, -0.1444304138, -0.1166697741, 0.0913060457, -0.3809440136, 0.1606335193, -0.1553244144, -0.1660460681, 0.2154091597, 0.0480467379, 0.1610202491, 0.0020063659, 0.0110540688, -0.0129067656, -0.0134939719, -0.1538761258, 0.0857476965, -0.0432420261, -0.1019565910, -0.1269780993, 0.0521719754, -0.0583696514, 0.0712861717, 0.0898696855, 0.0805606619, -0.0091638891, 0.0704197511, 0.0592922270, 0.1353017241, -0.0041322922, 0.0157560427, 0.0011859238, -0.1638962328, 0.1727902442, 0.0183053911, -0.0397597402, -0.1599229723, 0.1425591111, -0.0847085565, -0.0866077989, -0.1566668898, -0.0859945193, -0.1410463154, 0.1366640776, 0.0136863058, 0.0174559038, 0.1209642887, 0.1283970624, -0.0409038924, -0.0541482493, -0.4052777290, 0.0204232279, -0.0425068736, 0.0764917880, -0.0018283278, 0.0191925224, -0.1909614503, -0.1210803092, 0.0896577984, -0.1480586678, 0.0254175141, -0.1564934105, 0.1006519198, -0.2999452353, 0.1166718975, 0.1846269667, -0.1635676175, -0.0684663355, -0.1777450889, -0.1848646849, 0.1302290857, 0.1310317814, -0.1152937114, -0.0464402772, 0.3238615990, 0.2034749538, -0.0462946035, -0.1119104102, -0.1965433061, -0.0247729514, 0.0774773061, -0.2312963158, -0.4878753126, 0.4282314479, 0.1508325636, 0.0557950586, -0.0901039541, 0.0442599505, 0.0482160896, -0.1281775683, -0.1339651942, -0.1568191499, 0.0074132821, -0.6103664637, -0.0265816059, 0.0588236004, -0.1433954090, 0.0805556476, -0.1318030655, -0.1928949654, -0.0738409683, 0.1038566232, 0.0717069730, -0.1638129503, 0.1821618825, 0.0658019781, -0.0823711529, -0.1153612733, 0.1656538099, 0.0711362362, 0.3210639656, -0.1884463131, -0.0659008399, 0.1750937551, 0.0601857007, -0.0339492448, 0.0789105743, -0.0174101889, 0.2460651994, 0.0496081114, -0.0677798688, -0.5102690458, -0.0674391836, -0.0072984109, 0.0289619714, -0.4439948499, -0.0904162601, -0.1897421032, 0.2284191251, -0.0182164498, 0.1705285311, 0.1466376632, -0.3587008417, 0.0315541290, 0.0277639478, -0.0846873447, 0.2823892534, 0.1280534714, -0.2106937021, 0.0667653158, -0.0426178426, -0.0923693255, -0.1931297183, -0.1463927180, 0.4728392363, 0.2604808211, -0.1398704648, -0.0632492229, 0.0895792991, -0.0498308912, -0.1116990075, -0.0354667231, -0.0758310035, -0.0536101125, 0.1154721975, -0.0064871609, -0.0818552673, 0.1821084768, 0.0100063160, 0.0311312675, -0.1455919445, 0.0679135770, 0.3035636246, 0.0883262604, 0.1011136919, 0.0610442348, 0.2045624852, -0.0113707185, 0.0885832608, 0.2237545997, 0.1293036193, -0.2494200021, -0.1259796917, 0.0735338256, 0.2336830348, 0.2237904668, -0.1166139618, -0.0700513050, -0.0170311239, -0.0472696461, -0.0665381551, -0.0753260702, -0.0966628566, 0.0660836473, -0.2539811730, 0.1248804107, 0.1016630977, -0.0079415618, 0.2174547464, 0.3601418138, 0.0534661524, 0.2741091847, 0.6981200576, 0.1331372857, -0.1182484627, 0.0748018920, 0.4421155751, -0.0495556630, 0.1208932474, -0.0654389933, 0.2344559580, 0.0892566815, -0.1739625931, 0.3311192393, 0.0725972205, -0.1231603399, -0.0048993626, -0.2872952521, 0.3504678011, -0.0057541546, -0.3637970388, 0.4184657931, -0.1127731875, -0.2008541971, 0.2777951062, 0.1065731347, 0.0374462605, -0.2224937379, -0.2005470395, 0.0261403173, -0.0087819537, -0.0170871280, 0.0301218182, 0.0298182666, 0.3454500139, 0.1365392804, 0.3493330479, -0.0534707010, 0.2933081686, 0.1813194007, -0.1420764327, -0.1697209626, 0.2687811255, -0.0499118119, -0.0551631674, 0.1898581833, 0.0089434227, 0.1689920425, 0.1119474843, -0.1209445074, 0.3744233251, -0.1676720381, 0.2531554401, 0.0993974432, -0.0499303192, -0.0142178982, -0.4956656396, -0.1497079134, -0.3109876215, 0.3684588373, 0.0111678867, -0.2284896225, -0.1576084346, 0.3955971599, -0.0134322261, -0.1559540033, -0.0334914811, -0.0389224030, -0.1071669534, -0.0802998170, 0.1807720661, 0.1835560352, -0.0545313209, -0.0454490930, -0.0138677359, -0.0538403243, -0.0426001735, -0.0600459427, -0.0576900989, 0.1691400856, 0.1635423452, -0.0682469904, -0.1502137929, -0.1552238017, -0.1337476224, 0.7752132416, -0.0614578202, 0.0111359013, 0.1237041503, -0.0643251985, 0.1590271741, -0.0018514288, -0.0800542384, -0.1570466161, -0.0903280079, -0.0174175240, -0.0567619018, -0.0467733890, -0.0847997516, -0.0117682368, -0.0872598067, -0.0821888819, -0.0054313289, -0.0663365051, -0.1787418127, 0.1539674550, -0.3150688708, 0.1371397227, -0.1560334861, 0.0997439325, -0.4446560144, -0.2781601846, 0.4376813769, 0.1717787385, -0.1666485220, -0.0719019100, 0.0476513095, -0.1495252550, -0.1635646671, -0.0498367175, -0.0588962957, -0.0038628678, 0.0622081570, -0.1580332369, 0.1009431034, -0.1689099222, 0.0646458566, -0.0145628545, 0.0103600509, -0.0527107976, -0.3123930097, 0.0878898576, -0.1003354639, 0.0370464548, -0.1661747694, -0.0329844058, 0.1107420996, 0.0398500226, 0.1866897494, -0.1298503876, 0.1889047772, -0.1562170684, 0.1214848310, -0.1184850633, -0.0617687665, -0.0765041336, -0.4330859184, -0.0321551003, 0.2120345980, -0.1585130692, -0.0348932222, 0.0560111664, 0.1788004786, -0.0455278754, -0.0259781983, 0.2801142037, 0.0057396679, -0.1501646787, 0.1137125045, 0.0009979556, 0.1410069168, 0.1375080198, 0.2005370557, -0.1402566880, -0.4368249774, -0.0430607907, -0.1753542572, 0.2839496136, 0.0800575912, -0.0578217916, 0.0453287438, 0.1088339910, -0.0601813272, 0.1714732349, 0.0371292681, -0.2254505008, -0.5057284832, 0.1576540470, 0.1888526231, 0.1302088350, -0.0573881939, 0.1025257111, -0.1108857021, -0.0060532093, 0.1442057192, 0.0013356805, -0.1540322900, 0.3630750477, -0.0200320631, -0.1387144625, 0.1658564955, -0.2383538783, -0.0971693471, -0.0787253976, -0.1500453800, -0.0879823193, 0.0846881568, -0.0570710450, 0.2922545373, -0.0232160334, -0.0049555451, 0.1700323075, -0.3362763524, -0.1473325640, -0.1731120348, 0.0395663828, -0.1225620657, -0.1811215580, 0.0200362150, 0.0263038259, -0.6267802119, -0.1348837316, 0.0685358495, -0.8152760863, -0.1648544371, -0.0686883330, -0.1329205036, -0.1235266551, -0.0105545968, 0.1296701729, 0.0998765826, 0.0111682415, 0.1912542284, 0.1326099485, -0.1015456170, 0.1324659437, -0.0151147842, -0.0796878859, -0.4442050457, 0.1050548404, 0.1142161041, 0.0843431801, 0.0680908412, 0.0565185621, -0.0796662271, -0.1597346365, -0.0312059522, -0.0349952132, 0.1373638809, 0.1695223302, -0.4171179235, -0.1565167904, 0.0943559557, -0.0854832456, -0.0122821331, 0.0295506269, 0.1409665793, 0.0301137120, -0.1033160463, -0.0871547908, 0.1389662176, -0.1372038424, -0.0526859164, 0.0067934841, -0.1325540692, -0.0333455354, -0.1511534750, 0.1669965535, 0.1623382717, -0.1112863943, 0.0503673404, -0.0089492500, -0.1223377138, -0.0787405148, -0.1232314408, -0.0509299189, 0.0881122798, 0.0046653599, -0.1611110419, 0.1704354137, -0.1430726200, -0.0494655669, 0.1551594883, 0.0165745914, -0.1056473926, 0.1405381709, 0.0102667212, -0.1682945490, -0.1365714669, 0.1238089651, 0.0334664881, 0.0564001948, -0.1013063937, 0.1282808036, 0.1539561599, 0.1024162620, -0.0496006012, -0.1305955499, 0.0135975480, -0.0732327178, 0.1238640696, 0.0466621667, 0.1468282789, -0.1025669277, 0.0703654736, -0.0767747834, 0.0330365896, -0.1369344294, -0.0498673022, -0.0305655748, -0.0752606541, 0.1118387729, -0.0955853835, 0.0125171989, -0.1274716258, 0.0159344226, -0.0303845406, 0.1119470745, 0.1067064553, -0.0444093347, -0.0426195264, 0.0229903013, -0.0571987927, -0.0014207214, -0.1323346496, 0.0071610063, -0.0591459349, 0.0596762747, -0.0163510740, 0.0253870636, 0.0047177523, 0.0595605820, 0.1187384576, -0.0184242427, 0.0789507776, -0.0082659721, -0.0645699799, -0.0669422150, -0.1140833423, -0.1194237247, -0.0741100907, -0.0677373186, 0.1216546744, -0.0321433395, -0.1330520362, 0.1437287480, -0.1361188889, -0.1015183106, -0.1496361792, 0.0203482807, -0.1229615733, -0.1006961092, -0.0044418573, -0.0902364403, -0.1490484029, -0.0450031459, -0.1515959352, -0.1175497025, 0.0288328230, 0.1453767866, 0.1169424504, -0.0266458243, 0.1150304228, -0.1488965899, -0.1302779764, -0.0180636346, 0.0192853808, -0.1613593698, 0.1627312154, 0.0646457672, -0.0163510740, 0.1578093022, -0.1538300067, 0.0207944065, -0.1258400381, 0.0039853156, -0.0152928531, 0.0235794336, 0.0543302745, -0.0478805006, 0.0492186248, 0.1214366108, 0.0691539645, 0.1458781511, -0.1147678494, 0.1488396078, -0.0482695699, 0.1440315396, 0.1541309506, 0.0702250004, -0.1298066378, 0.1193157583, -0.0368015319, -0.0619784966, 0.0168379247, 0.1348251253, -0.0033485293, -0.1134444401, -0.0130645931, 0.1675080210, 0.0837053210, 0.0161623508, 0.0577303022, 0.1255113333, 0.0584905148, 0.0280897766, 0.0703287572, -0.0461031795, 0.1408277005, 0.0366362780, -0.0748774186, -0.0365733951, -0.1423869729, 0.0683310032, -0.0305815488, -0.0527925938, 0.1109741181, 0.1163304299, -0.1373398006, 0.1409640163, -0.0658058152, 0.0260712355, -0.0281340778, 0.1247117072, -0.0508640409, -0.1047405675, 0.0734575838, 0.1467201263, -0.0713620335, 0.0078604221, 0.0068625212, -0.0368223041, -0.0848512575, 0.0808624774, -0.1131969467, -0.1308679879, 0.0811978132, -0.0704680979, 0.1658655852, 0.1175011843, 0.0826030523, -0.0095315129, -0.1671152860, 0.1097521633, 0.0704122484, 0.1258457154, 0.1585599333, 0.0800078660, 0.1047261804, -0.0473656356, 0.0273497254, 0.1137852222, -0.0760966390, -0.0366998315, -0.0924335569, -0.0680208430, 0.0903697163, -0.1505354792, 0.0432184786, 0.0943975598, 0.0865683109, -0.0625510216, -0.0762999952, 0.0517748296, 0.0903883427, -0.0976450592, 0.1131502241, -0.0779441074, 0.1598305851, -0.0440853536, -0.1140039787, -0.1190072745, 0.1142197400, -0.1230266094, 0.1050991565, 0.0537382066, 0.1621443480, -0.0092360228, 0.0633974969, -0.1629456580, 0.0004952252, 0.1359569281, 0.0763706416, 0.1641136259, 0.1128446907, -0.0514484942, -0.1418318152, 0.0685254633, -0.0117149204, -0.0588797331, 0.0501543283, -0.0947375596, -0.0229030550, 0.1047711521, -0.0285829753, -0.1567170322, -0.0426029116, -0.0870096385, -0.0976789892, 0.1007873267, 0.0187781453, 0.0328317136, -0.1185696200, -0.1136060730, 0.0969489962, -0.1061433777, -0.1113302261, -0.0401510075, 0.1212558001, 0.0454112180, 0.1336007118, 0.0741819143, -0.1367226541, 0.0369090401, -0.0460251272, -0.0369049795, -0.0176309235, 0.0473920330, -0.1598768234, -0.0205018055, -0.0092936624, -0.2368561625, 0.0481657162, -0.0642160922, -0.2950410247, 0.0796902850, 0.1413570791, -0.1760873646, -0.1403324008, 0.0973994881, 0.0549563691, -0.0830582976, -0.0818981528, 0.1558819264, -0.1070961282, 0.0461441018, -0.2077822685, 0.0429168902, 0.0861815885, -0.0161276367, -0.3096789420, -0.0360701084, -0.0931390449, 0.1950315386, -0.1401159018, 0.1627432108, 0.1653781533, -0.0199887026, 0.1249457970, -0.0661399215, 0.1340736747, 0.1057917327, -0.1090419218, 0.0145350834, -0.0510597117, 0.0732928663, -0.2671116292, -0.0910797119, -0.1937425882, 0.0321061425, -0.1283857971, 0.1589404196, 0.0002641677, -0.1212990358, 0.0798823163, -0.0114270868, -0.1177461967, 0.0383727401, -0.0823198333, 0.0000456330, -0.0851036012, -0.0125029525, -0.2696648240, 0.1170107573, -0.1206803322, 0.0044377572, -0.0019429624, -0.0225256830, 0.0188607723, 0.1766323000, 0.1192373559, -0.2565129101, -0.1193628162, 0.1177320555, -0.1201901287, -0.4724685848, 0.1349372417, 0.1584664434, 0.1174131259, -0.0886657238, -0.1183082908, -0.0435361415, -0.2036619633, -0.0993688107, -0.0232573897, 0.1014277488, 0.1970037371, 0.1156778485, 0.1718325019, 0.0653382018, -0.0827949569, 0.0073186271, -0.0759218186, 0.0166634675, -0.1152038500, 0.0462935492, 0.0964145735, -0.1599986404, -0.0993368328, -0.0694935471, -0.1348526329, 0.1159122884, -0.0818177015, 0.0987528116, -0.1772174537, -0.1144149080, 0.0584669113, -0.0204486828, 0.0484783687, -0.1332062483, -0.0712378249, 0.0634606332, -0.2142704725, 0.1330725104, -0.0685823187, 0.0584490187, -0.1115773916, -0.0711384788, 0.0910522118, -0.0627879873, -0.0481341481, 0.0703771040, -0.1848268211, 0.1486089677, -0.1407313496, 0.0445482917, 0.1413579732, -0.0366973206, 0.2349430323, -0.0068171481, 0.1269978136, 0.0840564296, -0.0000362723, 0.1526085138, -0.0415384062, 0.0730976984, 0.1524395496, 0.0767069608, 0.1113675833, -0.1252706498, 0.1327015907, -0.5409702063, -0.6405724287, 0.0260934513, -0.0338293761, -0.1318097115, -0.5248542428, -0.0238198601, 0.1390413046, -0.1268343031, 0.0332473926, -0.0962622240, 0.0935822502, 0.1841237843, 0.1718742102, -0.0022225694, -0.1246991083, -0.0151842386, -0.4962877929, -0.2069594711, 0.1728117019, 0.0939509049, 0.0453788303, 0.0577338897, 0.1075548008, 0.1140875369, 0.1651490927, 0.0022753030, 0.1507454813, -0.1019018814, 0.2007498145, 0.0381804109, 0.0966297239, 0.0827633888, -0.2057732940, -0.9013521075, -0.7823466659, -0.0762808919, -0.5270900726, 0.2334019393, 0.1568289697, -0.0000545463, 0.1238294914, 0.0810986385, -0.0752388984, -0.0528971255, -0.0129307536, -0.1048634201, -0.2316110134, 0.0644723177, -0.0105666602, 0.0124823460, 0.0684346035, 0.0781844556, -0.0499383658, -0.1128998548, -0.0490250178, 0.1767155677, 0.0344217122, -0.0772879571, -0.1532182842, -0.0613372065, 0.1553994864, -0.5561584234, 0.0237276219, -0.1892843843, -0.2233761400, -0.0305174291, 0.1532688588, -0.1331633478, -0.2894255221, -0.0710172057, -0.0405850112, -0.1372396201, -0.2192098498, -0.1462528557, 0.1768828928, 0.1728270501, 0.0465346724, 0.1555955708, -0.0973973423, 0.1219463721, -0.3019764423, 0.0484429747, -0.1281891763, -1.5050299168, 0.0665906668, -0.1093382239, 0.0110801160, -0.1274469197, -0.0414177515, 0.1227686927, 0.1007295698, -0.0835356861, -0.0628085881, 0.0203132257, -0.0750534385, 0.0084953755, 0.0437778831, -0.0242688656, -0.4043763578, 0.0680211335, -0.1532206237, -0.0554710105, 0.1396649927, -0.1510377079, -0.1524112523, 0.0826114714, 0.1051070839, -0.0006806754, -0.0270434003, -0.0805071220, -0.8286238909, -0.0197849125, -0.1197159737, -0.1672963053, -0.1675429940, -0.0465220213, -0.1055395454, 0.0116045475, 0.1483479589, -0.0893439427, -0.0785803124, 0.1738035828, 0.0832711309, 0.0684992522, -0.1307920814, -0.1100490838, 0.1584616154, -0.1466648728, -0.1168044209, 0.1669858843, -0.0685064569, 0.0516245812, -0.1656386256, 0.1356124133, 0.0810600966, -0.1486577988, 0.0839030892, 0.0723043978, 0.0355466455, -0.1410419345, 0.0267312974, -0.0044732988, -0.0086095482, 0.1465815455, -0.1255696118, -0.0590619817, -0.0578647554, 0.0081962496, 0.0998894721, 0.0691931546, -0.1482894719, -0.0417410582, 0.1235636920, -0.1301108152, 0.0942018181, -0.1438815892, -0.0712256879, -0.0829455033, -0.1311825663, -0.0128294528, -0.0064702183, -0.1521434635, 0.0235125870, -0.0598288402, -0.1471987963, 0.0222690105, -0.0239601880, -0.0750756338, 0.1622214168, 0.0508802682, -0.1226958781, 0.0150921047, 0.0122299641, -0.0355743915, -0.1301353425, 0.1744817942, 0.0377779454, 0.1165701002, 0.1629740149, -0.0266883969, -0.1182677597, 0.0235641301, 0.1304789335, -0.0234346241, -0.0933860317, 0.0386595279, 0.1044624001, -0.0899263248, -0.0165882409, -0.0568815544, 0.1332881004, 0.0364746898, -0.1220426410, -0.0275218934, 0.0174533874, 0.1230397075, 0.0796469599, 0.0294442028, 0.0207823515, -0.0342386663, -0.0929257944, 0.0908960849, -0.0523184836, -0.0632964298, -0.0127917379, -0.1208096445, 0.0956826657, 0.1765692979, 0.1476557106, -0.0263360888, 0.0943201631, 0.0591195971, 0.1441369206, -0.1074019670, -0.1592115313, -0.0790004283, 0.1002778858, 0.0142503977, -0.1392194629, -0.0681678057, -0.0141484439, 0.1676735133, -0.1414180100, -0.0271573216, 0.0784146637, -0.1632009447, 0.0195574909, -0.1124949530, 0.0351562053, 0.0118342042, 0.0289390385, -0.1181429252, -0.0933529511, 0.0904599577, -0.0358918756, -0.0488878191, -0.0435957760, 0.0365350842, 0.1225291044, -0.1437652856, 0.0191205721, -0.0842760056, -0.0129709672, -0.0220582727, 0.0883053094, 0.1463227570, 0.1054107621, 0.1478847116, 0.1506205946, 0.0062974351, -0.0025981069, -0.0418419391, 0.0290866289, -0.1073961258, 0.0951426104, -0.2326810807, -0.0699734315, 0.1186995059, -0.0682570338, -0.0045420839, -0.3615276217, 0.1349020004, 0.0421279036, -0.0876173452, -0.1569489390, 0.0561865345, -0.0868903920, 0.0576584898, -0.1975162476, 0.1651267558, 0.1165445521, 0.0305906776, -0.0414372571, 0.2291934937, -0.2311525345, -0.0545742251, -0.0946642086, 0.0138304885, 0.1085532159, 0.1519290656, -0.0557832345, 0.0845280364, -0.0304977000, -0.1131702662, -0.0614587255, 0.0669456571, -0.1031559408, -0.0744581372, -0.0144893955, -0.0035357098, -0.0438983515, -0.1368597001, -0.2323742509, 0.0730883852, -0.0816618949, 0.1376259625, 0.0465928428, -0.0490795746, -0.0107880831, 0.1197610125, 0.1392834783, 0.1049560532, -0.2311006933, 0.0336146206, -0.2527570724, -0.0581713095, -0.0746169984, -0.1664096117, -0.0500814170, -0.0220623165, 0.0505180210, -0.1539066285, 0.0699761510, -0.3660677969, -0.0629499108, -0.0782667398, 0.0417612940, -0.2708891630, -0.0977335721, -0.1241934821, 0.1460896134, 0.1079838425, 0.0552641675, 0.0636010319, -0.0924805105, 0.1909251064, 0.1172580570, -0.1727097780, -0.0044311313, 0.0244532675, -0.1037485674, 0.0606850870, -0.1153967232, -0.0480053574, -0.0009422112, 0.0480295047, 0.0082285246, -0.0095489677, 0.1213305667, -0.0287206229, -0.1446512341, 0.0856999755, -0.1401768774, 0.0814159214, -0.1073160321, 0.0318707526, 0.0532585233, -0.1363748461, -0.1075130478, -0.0685504824, -0.0993865952, 0.1071006507, -0.0415425003, -0.0419380516, -0.1021398306, -0.1419027895, -0.0300747417, -0.0030324163, -0.0597661696, -0.0485547855, -0.0134263877, 0.0246673506, -0.0066065192, -0.0667599589, 0.0049913339, 0.0264296811, 0.0520807654, -0.0836071670, 0.0908119231, -0.1624301970, -0.0233404189, 0.0089985132, -0.0692808181, 0.0652936846, -0.0971773565, -0.0634653568, -0.0596292317, 0.0922025889, -0.1485976428, -0.0897729546, 0.1202169210, -0.0394353718, -0.0434584618, -0.1593035758, -0.0957354680, -0.0294667929, -0.0809456781, -0.0709919408, 0.0715170950, 0.0179518610, 0.1491641551, 0.0187467486, 0.0834339708, -0.1306685507, -0.0346887112, 0.0018498600, 0.1174968928, -0.1565295160, 0.0036898702, -0.0959946290, 0.0663852841, 0.1101144701, 0.0110591203, 0.1333848387, -0.0339972079, -0.0878945142, -0.0376356542, 0.1451942474, -0.1558291167, -0.0827099457, -0.1066369191, -0.0642216802, -0.1642371267, 0.1316392273, -0.0171103925, -0.1100190356, 0.0026538968, 0.1486657113, 0.0949948579, -0.1318483204, 0.0589649081, -0.1026813984, -0.0228674114, 0.1587656885, -0.0736174360, 0.1319912821, 0.0542507023, -0.1237194985, 0.0546538830, -0.0762234181, 0.0050838441, 0.1521007270, -0.0812990814, -0.0573817566, 0.0135115236, 0.1581176370, -0.0792954564, 0.1240826696, 0.0696556270, -0.1405178905, -0.0452995151, -0.0010862052, 0.1471858174, 0.0622509420, -0.1189246625, -0.0543348342, 0.0020343065, 0.0863877684, 0.1009070128, -0.1464702487, 0.0032929778, 0.0332120061, 0.1750583202, -0.1444867700, -0.0236358196, -0.1324960738, 0.0365086049, -0.1135365665, -0.0266878009, -0.0265944898, -0.0640751794, -0.0512159616, -0.0658249483, 0.1629257947, 0.1466690153, 0.0875176340, 0.1370563358, -0.1258599758, -0.0074330568, 0.0267680883, 0.1216775328, -0.0803141445, -0.1640087217, -0.1324490905, -0.1312800944, 0.1392374188, -0.1414961219, 0.1136894375, -0.1223549098, 0.0553807914, -0.0132085234, 0.1386379749, 0.1047886461, 0.1633310765, 0.1268845648, 0.1283400208, -0.1338309497, 0.1285834461, -0.0882265046, -0.0760333762, -0.1756733656, 0.0864866525, -0.1470546871, 0.0239258409, -0.0681696609, -0.0632668510, -0.0239943322, 0.0583426952, 0.0993664339, 0.1424416751, -0.1494303346, -0.1264877170, 0.1553599089, 0.1367961913, -0.0598819777, 0.1159463972, 0.1023300141, -0.0163998492, 0.0379347354, 0.0502431691, -0.0785322562, 0.1194629893, -0.8259221315, 0.1789612323, -0.0977511033, -0.1478461474, -0.1498538554, -0.0650987998, 0.0703382194, 0.1321610510, 0.1623774767, 0.0151184713, -0.0281282626, 0.1896030903, 0.0112597626, -0.0515686385, 0.1183426604, -0.1506361663, -0.0384829119, 0.1597592980, 0.5389531255, -0.0632180721, 0.0104115708, -0.1276679337, -0.1180536151, -0.1567143947, 0.1434428543, 0.2030121237, 0.1086099520, 0.0937462598, 0.0829514936, 0.2406692654, -0.0809880868, -0.0301979184, 0.1647529453, -0.3490399122, -0.3004840314, 0.0212295111, 0.0860783458, 0.1265799403, 0.0750007555, -0.0112152863, 0.1353355944, -0.0133222323, -0.0717041492, -0.1104298458, -0.0539295524, 0.0617832765, -0.3012789786, 0.1367971003, 0.3883309662, 0.1155707166, 0.1321218163, 0.1526536196, 0.1345102042, 0.1136617810, -0.0562222861, -0.1678052694, -0.0993905142, -0.0516753457, 0.0704674572, 0.0948428363, -0.1452358961, -0.3005745113, 0.0918665081, 0.0150469206, 0.0488099083, -0.0803898722, 0.0488456339, -0.1556741893, 0.1357957274, -0.0787925497, -0.1192342788, 0.1052080244, -0.0733704492, 0.0562474579, 0.0926585719, -0.0154302381, 0.0707930028, 0.1160899699, -0.1624060720, 0.1068604589, 0.0460095592, 0.1589102894, 0.1495324969, -0.6456845999, 0.0332409292, 0.0001429522, -0.1084075496, -0.0877355114, 0.0279776379, -0.0505359545, -0.1154949293, 0.0011206865, 0.1207850650, -0.0516521335, 0.2059794962, 0.0277104974, 0.1627806872, 0.1477499157, -0.1936454028, -0.1437649131, -0.0715751424, 0.1527052969, -0.0494027510, 0.1216981560, 0.1656615883, -0.0755952224, -0.1456766129, -0.0282313470, -0.1599170715, 0.1653647721, -0.5854478478, 0.2170497328, -0.2790354788, -0.0872959420, 0.2356089652, -0.2439574897, 0.1164694875, -0.1171281114, 0.1357394904, 0.2978219688, 0.0648099557, 0.0827809423, 0.0198675245, 0.1131122112, -0.0069434838, 0.0442317054, 0.2470603585, 0.0390528627, 0.1090114042, -0.0283989664, -0.0813307315, -0.1517041177, -0.1061890870, -0.1542568207, 0.2946652174, -0.0616635233, 0.0448597036, -0.1316600889, 0.1911392957, -0.2931835949, 0.2395149171, 0.2067226768, 0.0564309545, 0.3412983716, 0.0113667790, 0.1150661036, -0.0561175682, -0.6214666367, 0.0991157964, 0.0324889086, -0.2616772354, -0.1487742960, 0.2167540193, -0.0802486688, 0.2170441151, 0.0193344802, 0.3016014695, -1.9138201475, -0.0665981993, 0.0309976637, 0.2536626458, 0.3956836462, 0.1797164232, -0.1863281727, 0.3549353778, 0.1800629944, 0.3393932581, 0.1370577365, -0.1371160746, 0.0671803504, -0.0185120106, 0.0349011458, -0.0553975478, -0.2239178270, 0.2711129189, 0.3755704165, -0.0107161114, 0.2442680895, -0.2550130785, -0.0570692085, -0.0489975214, -0.0163729191, -0.0454940312, -0.0202724636, 0.0916613266, 0.0707408413, -0.0225018244, 0.0558073781, 0.0718503445, 0.1053083241, 0.0323890112, -0.0567130856, 0.3538793027, 0.0329727717, 0.0081756758, -0.0518649817, -0.0528869145, 0.0356314480, 0.1250237375, -0.0578858331, -0.2471588999, -0.0132802129, -0.4701861739, -0.1858049631, -0.1157674864, 0.0067367186, 0.3065592349, 0.3241968453, 0.5031743050, -0.0373783819, -0.1058596298, 0.3297472894, -0.1765831113, 0.1452986151, -0.0022738278, 0.0375387222, -0.1582472622, 0.0157894511, -0.1355590075, 0.0581394285, -0.0594206080, 0.0797892809, -0.1798223704, -0.0609045550, -0.1103664115, 0.0673280656, 0.6572560668, 0.0021089017, -0.1386478394, -0.1441990137, -0.5608229637, -0.0428752303, -0.1222900972, -0.0694985315, -0.1286922842, 0.0853458866, -0.1794836223, 0.2566705346, 0.1535325497, 0.0600731671, -0.0089192837, 0.0491001010, 0.0914641768, 0.0529031008, -0.1632145941, 0.1207644194, 0.0006833225, 0.1387663335, -0.0755901635, -0.0473028868, 0.1140690893, -0.1567668915, -0.0520626977, -0.1345191300, 0.1501983851, 0.1538430899, -0.0893173888, -0.0072839409, -0.0664145425, 0.1204058677, 0.0431979001, -0.1763083935, -0.0237340629, -0.0908708796, -0.0340968817, -0.1230143830, 0.0640356094, 0.1019650549, 0.0777439922, 0.1638529152, -0.0834600702, 0.1686001569, -0.1726887822, -0.1612456590, -0.1515747756, -0.0450085700, 0.1137983352, 0.1139409691, 0.0371728837, 0.0914152116, 0.0205540061, -0.1559100747, 0.0390249044, 0.0138202012, 0.0366910249, -0.0459818244, -0.1533783674, 0.0569309443, -0.1372370869, 0.1494041830, -0.1732619405, -0.0932225883, 0.1106000692, -0.0684312209, -0.0614311770, 0.0990356058, -0.1129883677, -0.1487957388, -0.0354673266, 0.0250645131, -0.1160801724, -0.0319587290, 0.0101556182, -0.0083146840, 0.0674978346, 0.0264491737, 0.0461127460, -0.0239743441, -0.1662899703, -0.0067120939, 0.1438937336, -0.1516317129, -0.0000182092, 0.0934753567, -0.1681072116, 0.1280700713, -0.1069329157, -0.1155669540, -0.0564704984, -0.1377603859, -0.0528159887, 0.1448854059, 0.0462127924, 0.0393463522, 0.1658229083, 0.1245395988, -0.0350663513, -0.0418030918, -0.0750985146, 0.0933572203, 0.1010052711, -0.1451230198, -0.1580342799, -0.0989004001, 0.1189937741, -0.1604450345, 0.0883134454, 0.1473809034, 0.1687925309, 0.1274454147, -0.1609264910, 0.0050202012, -0.1262370199, 0.0290806890, 0.0308616012, -0.1260674149, 0.0383461714, 0.1265052706, -0.0453835577, -0.1325355768, 0.1095528156, -0.1623337716, 0.1502050012, 0.1031800061, -0.0886163637, 0.0148802847, -0.1283681691, -0.0444789231, -0.0637156665, 0.0475012660, -0.0423681587, 0.0230049342, -0.0785223991, -0.0940674618, -0.0777264163, 0.1518513113, -0.0305930972, 0.1331553757, -0.1194850206, 0.0509925447, 0.1250866950, 0.1737858653, -0.1092184111, -0.1687726378, -0.1568746269, -0.0864355862, 0.1320231557, 0.0324049145, 0.0712108016, -0.0148660736, -0.0630585626, -0.0850561336, 0.0071166120, 0.0927423611, -0.0981260836, -0.0352735259, 0.0003674328, -0.0932765752, -0.2932150066, 0.0646899566, 0.0319241062, 0.0621781163, -0.1357724369, 0.1639361531, -0.0148683051, 0.0119970152, -0.0691515058, -0.1690373421, 0.0904330388, 0.0959730670, -0.0651547015, 0.1378012449, 0.0825191289, -0.0925449952, -0.0935694426, -0.1723585576, -0.0123212663, -0.0462181866, -0.0977736115, 0.2352465838, 0.0495110042, -0.0190270357, -0.2157101482, -0.0534399338, 0.1744518131, -0.0621014014, 0.0025957800, 0.1054815426, 0.0984940603, -0.1079814211, -0.0773838907, -0.2315763831, 0.1048654392, 0.0432363972, -0.0051982803, -0.1171287000, -0.1553250998, 0.0172547363, 0.1078210622, 0.0244304296, -0.0244214721, 0.1695331633, -0.1668559909, 0.0646024495, -0.0976435095, -0.1173039079, -0.0024913847, -0.1336615980, 0.0702212453, -0.0825013146, 0.0027013852, -0.2972909212, -0.1904219687, 0.0261034705, -0.1409995407, -0.1531824172, 0.1533261538, 0.0939665958, 0.0413627736, 0.0933133960, -0.0891948938, -0.1639075726, -0.0944496170, 0.0069453688, -0.0408574939, -0.0375205129, 0.1700335741, -0.0526440293, -0.0389719754, -0.1092777699, -0.1051306352, 0.0708658323, 0.0239590164, 0.1307339519, -0.0233591460, 0.0655006766, -0.0500291623, 0.1339773685, 0.0569732189, -0.1381025165, 0.0367167294, -0.1817996800, -0.0326430686, -0.1708342433, -0.0008119434, 0.0261551589, -0.1547423303, 0.1644066125, 0.1648795605, -0.0074163675, -0.0128105730, 0.1152813584, 0.1287527084, 0.1508130580, -0.0505594835, 0.1682447791, 0.0333121195, -0.1513802707, -0.0700919107, 0.0914959311, -0.1698238552, 0.1746630818, -0.0083902767, 0.0772124454, -0.1923018992, -0.0338779315, -0.0678687319, 0.0161435008, 0.1144351512, -0.0678954571, -0.0918780640, 0.1433484703, -0.0177245662, 0.2323031574, -0.6117264032, -0.1611129194, -0.1320755780, 0.0761995986, 0.1446050107, -0.2181439549, -0.1667083204, -0.1421671510, 0.6480464935, 0.0373752341, -0.0825933665, -0.0671103671, -0.0894132480, 0.1193212941, -0.6726118326, -0.1922133714, -0.0613491014, 0.0583896898, -0.4144394398, -0.0161176939, -0.3342050016, 0.1803405136, -0.3817839622, 0.1933197379, 0.3694233894, 0.1068134457, 0.1986976266, -0.2444359660, -0.0597073138, 0.1475664824, -0.2302313000, -0.3239798248, -0.0701269954, -0.1116262674, -0.1436703652, 0.0259716064, 0.2137098312, 0.1672442406, 0.2017170936, -0.1481583565, -0.2135465294, -0.0376766510, 0.0907070115, -0.3847506344, -0.4437147677, -0.2296180278, 0.0518566370, 0.0390962251, -0.1231001318, -0.1599179953, -0.1706678867, 0.0273981132, -0.0253703445, -0.3805710077, 0.2043320239, -0.1678492129, 0.2325682640, -0.0892046243, -0.2034250498, -0.0322399437, 0.0036076009, -0.1071541905, -0.4379032850, -0.1347034276, 0.1252137721, -0.2736825645, -0.1414882988, -0.0763136372, -0.0618532002, 0.1013654917, 0.2371712774, 0.0871601328, 0.1689027101, -0.1852277070, -0.1820766926, 0.1167204231, 0.0157535635, 0.3977089524, 0.1518786103, -0.0580059513, -0.4790574312, -0.0985861570, 0.1165898591, -0.0301649906, -0.1277793795, 0.1799152941, 0.1978139430, 0.2643683553, -0.3011269271, -0.3666549325, -0.3320976794, 0.1246357709, -0.0683989823, 0.3219972253, 0.0495193899, 0.3099096119, 0.0646563768, -0.0583297759, 0.1142587811, 0.0036843121, 0.0053532408, -0.1395172924, 0.1769783348, -0.1137468815, -0.0778597295, 0.1020921022, 0.3346515298, 0.0423880070, 0.1233217940, 0.2186152637, -0.2434767932, 0.0912569016, -0.3181958795, 0.5091705918, 0.0385315269, 0.2275454551, -0.4137125313, -0.2727933824, 0.1204644740, 0.0207754821, 0.0527467728, 0.1189863235, -0.1077785492, -0.1713008434, -0.0889521018, 0.0307938010, -0.1076360494, -0.1199128404, 0.1688146442, -0.1089130566, -0.0231180042, 0.1725046486, 0.0623320341, 0.0403113961, 0.0789508671, 0.1143117696, 0.1272648424, -0.0716297477, 0.0646084994, 0.1016600877, 0.0967475325, 0.0155320466, -0.0364464074, 0.1236045212, -0.0029187053, 0.0235338658, 0.0353639871, -0.0316763520, -0.0513252467, 0.0696735382, 0.1101183444, -0.0729660168, -0.1212150455, 0.0338462740, -0.0508468896, 0.0299491286, -0.0894503593, 0.1442829818, 0.1030188948, 0.1541218907, -0.1047482789, 0.0448946059, -0.1023221761, 0.1123175174, -0.1755989343, 0.0352331996, -0.1668260396, -0.0924394578, 0.1428073496, 0.0140741020, -0.0094336420, -0.0357441902, 0.1670745164, -0.0059989244, -0.1261176169, 0.0691243708, 0.1398818344, -0.1321618110, 0.0214013308, -0.1495917290, 0.0872314721, -0.1667586863, -0.0399406701, 0.1430488378, -0.1449072361, 0.1046699136, 0.1139665991, -0.0648055375, -0.1152271628, -0.1024585664, 0.0435764641, -0.0550202206, 0.1486373097, -0.0936683789, -0.1056223214, 0.1197474450, -0.0523171797, 0.1668141037, -0.1266445369, -0.1517632157, -0.0231309980, 0.0299506932, 0.0034795105, 0.0577840507, 0.0568055212, -0.0230177790, -0.0093865693, 0.0697977990, -0.0075153708, -0.0443037897, -0.1435696185, -0.0977059603, 0.0788481683, -0.0331171751, 0.1614527255, 0.0091380626, -0.0612610728, -0.0303634256, -0.0913493335, 0.0121394247, -0.0607343689, -0.1596630067, 0.1467065066, 0.1533095390, 0.1660470217, 0.0063444078, 0.1201765388, 0.0787030309, -0.0071231127, -0.1107086018, 0.1000981778, 0.1347228140, -0.0444183052, -0.0129602849, -0.1323046386, 0.0187656283, -0.0965078920, 0.0257758796, -0.0529726446, -0.0658008829, -0.0227826536, 0.0993597955, 0.1202621013, -0.1594634354, 0.0572066307, 0.0623492599, -0.0855152830, 0.1293913573, 0.0202394091, 0.1038317084, 0.0859090164, 0.0749432594, -0.1313559115, 0.0238664113, 0.1332822889, -0.0803230479, 0.1661244333, 0.0222300049, -0.1625850499, -0.0500923395, 0.1248009205, -0.2587376237, 0.0352228433, -0.1559757143, -0.9074940085, -0.1103048623, 0.0798618346, -0.1626888514, -0.4093168080, -0.0155642042, 0.0512246341, 0.0546493866, 0.0877480656, 0.0564879514, -0.0857608244, 0.1480052918, 0.1543663889, 0.1025528014, -0.1334498376, 0.0116293179, -0.5709198117, 0.0762749463, 0.3048782945, 0.0814966485, -0.1668044329, 0.0999454409, 0.1636114269, 0.0880753770, 0.1121269092, 0.1621226519, -0.0224093925, -0.1131206527, 0.2268567979, 0.0866664425, -0.0809353441, -0.0087888390, 0.1922294647, -0.8705351949, -0.8344931006, -0.1146721244, -0.4017119110, 0.0627244487, 0.0831468627, 0.1458814889, -0.1292736083, -0.1231355146, 0.1351847351, -0.1019341052, -0.0496588461, -0.2693625987, 0.0564164035, 0.1637571454, 0.2406170368, -0.0115486048, -0.0359590873, 0.1514016688, 0.1043100208, -0.0567240119, 0.1170577109, -0.0490476340, 0.1319591403, -0.0355758294, 0.0157512873, 0.1300453246, 0.0522949249, -0.4579767287, 0.0682278201, 0.0433915295, -0.0731574669, 0.1089991778, 0.0199539587, 0.0459407419, 0.1442568004, -0.0352895781, 0.1135868579, 0.0647754967, -0.2476011068, -0.1402666569, 0.0326675214, 0.0797386840, -0.0578483641, 0.0708448440, -0.0872141868, 0.0836881325, -0.3562136889, 0.0805673301, 0.1797487140, -1.1746274233, 0.1068846732, -0.0069321361, -0.1553746462, 0.0845248848, -0.0989787355, 0.1502587646, 0.1406501681, -0.1237526238, 0.0511106849, -0.0875659958, -0.1218821034, -0.0499222279, 0.1012127548, -0.0890018344, -0.4043286145, 0.1128645390, -0.1543931216, -0.0080417255, 0.1257138252, 0.0135165434, 0.0465455391, 0.1505853385, -0.0348850787, -0.0388139673, 0.0307346918, 0.1433314681, -1.0836148262, -0.1001548246, 0.0094636539, -0.1692272276, -0.1324132085, 0.2844461501, -0.1096387058, -0.1314964741, -0.1522818357, 0.1779095531, -0.2803789973, -0.1104058623, -0.1462637186, -0.0763713866, 0.0112930108, 0.3732186258, 0.1330880821, 0.5498939157, 0.2542963922, 0.0361635908, -0.0564092994, -0.1100686565, 0.3209209740, 0.1092096418, 0.5208678246, -0.1264169216, 0.1038157418, 0.0350785293, 0.0467164256, -0.0223114807, -0.0279770605, -0.0291132051, 0.0416252352, -0.2139868438, 0.5181269050, 0.0993521661, 0.6545652151, 0.2290307134, -0.1057939902, 0.1315352470, -0.3849974573, 0.2142592669, 0.0818165243, -0.0135116177, -0.1753272712, -0.1391401887, 0.2969796658, 0.7202500105, 0.0397324860, 0.1585375220, 0.6448584795, -0.0044420753, 0.6200874448, 0.0632427707, 0.7234302759, 0.4820611477, -0.1027032211, -0.2151791602, -0.0273323990, -0.0181968212, -0.0732285753, 0.0929888263, 0.0466805883, 0.0434840731, 0.1969381273, 0.3235970140, 0.3069480360, -0.0088944277, 0.2205188125, -0.0485565402, -0.1108685508, 0.1721235961, -0.0472666845, -0.1673848629, -0.1412044913, 0.4995494187, -0.0889055505, 0.0722447261, -0.1128446832, 0.2742116749, 0.0418836847, -0.0174647849, 0.1111689880, -0.0125398859, -0.0912799090, -0.0841088817, 0.3347777724, 0.0238631014, -0.0128859729, 0.1155022234, 0.1400160044, -0.1420333087, 0.4762300551, -0.3200874925, 0.0118775666, 0.4252365828, -0.2819617391, -0.0970426276, 0.1842724383, -0.0383484699, -0.1519031823, 0.4430907369, -0.0164646655, -0.0180166587, -0.1379316747, -0.0242349524, 0.2452590764, 0.0992152989, -0.1262712777, -0.0450056642, -0.4406318963, 0.3639447093, -0.1342821717, 0.0112338662, -0.0817390457, -0.1458743215, 0.5161328316, -0.0954122022, 0.1094315574, 0.5138698816, -0.0550720319, -0.0781024918, 0.0257300045, 0.1241851151, -0.1003292650, 0.2097892463, -0.0035084423, 0.2200347632, 0.5861540437, 0.1607456654, -0.1644113511, 0.0475124717, 0.1364680678, 0.1482578963, -0.0843048245, 0.1232127398, 0.0800237507, 0.0634762645, 0.0088982880, 0.0017814189, 0.0097263157, 0.1659103483, -0.1456428170, 0.0113805383, -0.0419474542, 0.0613017529, -0.1236378253, -0.0580669343, -0.0435784459, 0.1178486496, 0.0876332968, -0.1039744169, -0.1353634596, 0.0076904446, -0.0091241598, -0.0746144205, 0.0212575644, -0.1537634134, 0.1627239734, 0.0014047176, 0.0202003866, 0.1759277731, 0.1357400864, 0.0083446503, -0.0371556431, -0.0953770131, 0.1682070941, 0.1238621622, 0.0553765297, 0.1283261627, 0.0903013200, 0.1336125880, -0.1228341237, 0.1173118204, -0.1588652134, -0.0529062673, -0.0411920100, -0.1217273921, -0.0333338082, -0.1153579503, 0.0215882063, -0.1753579825, -0.1068020537, 0.0133368224, 0.0701344609, -0.0184748620, -0.1531422138, 0.1151761264, -0.1170328557, -0.0076174587, -0.1477931887, -0.1269349754, -0.1160380691, 0.1504060775, -0.1088607982, -0.1548338234, 0.1158116609, 0.0432118922, 0.1134203225, 0.1435148567, 0.0518496037, -0.0177752674, 0.0541324466, -0.0783346817, 0.0164245367, -0.1431813985, -0.0490985960, 0.1188303083, -0.1585494429, 0.1211407334, -0.1461634934, -0.1267022789, 0.0763238817, -0.0355258286, 0.0975506455, -0.1519801021, -0.1480327100, 0.0576600879, 0.0262313187, -0.0494809449, -0.0506801456, 0.0580135733, 0.0333701521, -0.0074277073, 0.0278983861, -0.0557112619, -0.1606163681, -0.0039839745, -0.0730903894, 0.1076694876, 0.0935730785, 0.0535291135, 0.0306012183, -0.1116100401, 0.0281867534, 0.1708806306, 0.0671475530, -0.0254043937, 0.0604252219, 0.1286598295, -0.0381874889, 0.0234314203, 0.1168838590, -0.1619199663, 0.1079829186, -0.1453995407, -0.1304644346, 0.0273884535, -0.0552586913, 0.1289972216, 0.1433458179, -0.1532073319, -0.0533980355, 0.1648951024, -0.1495967805, -0.1024415791, 0.0240393877, -0.0489528738, 0.1695093662, -0.0834204182, -0.1803789139, -0.1655398905, 0.1582966894, -0.0532260165, 0.0621754788, -0.2172851115, 0.2848243713, 0.1777737290, -0.1365560442, -0.0208287984, 0.1851222813, 0.0034011535, -0.0732703134, 0.3909567893, -0.0423864126, -0.0079293726, -0.1216611713, 0.0534934215, 0.3595874310, -0.1453830004, -0.2003091276, -0.1090245098, 0.1420750618, -0.1466177404, 0.4187976122, -0.0385926850, 0.4515272081, -0.1214197055, -0.0857061073, 0.3463998437, 0.1195448264, -0.0758808553, 0.3085825741, 0.1091585532, 0.0233711451, -0.1433199644, 0.4823855758, 0.2041019946, -0.2514225245, 0.3843607903, -0.1383126676, -0.1615094543, 0.1863033026, -0.1537001282, -0.0535905138, -0.1344361305, 0.2443297654, 0.2333891988, -0.0725848675, 0.1379620731, 0.3622528911, -0.1344378442, 0.0135597698, -0.0792152435, 0.1532736570, 0.0757182315, -0.1160114855, -0.0332436934, -0.1405692846, 0.3079837859, 0.2327873111, 0.1123078838, 0.2568312883, 0.1045439616, 0.3068983257, -0.0386503935, -0.0971357152, -0.1121732891, 0.0004622395, -0.1224532872, 0.0897325650, 0.1209535673, 0.0213073585, 0.0940791741, -0.0394115597, 0.0662132055, 0.0267622340, 0.1430825740, -0.0963369757, -0.0923327282, 0.1978950351, 0.0460318625, 0.3148756921, -0.2503664196, -0.0793650821, 0.1560157984, 0.4161543548, -0.1475154459, -0.2637182772, 0.1907284260, 0.1279240400, -0.2186336517, 0.2067320943, 0.1314205825, 0.0834899023, 0.0038839632, 0.1360613406, 0.2811867893, 0.1506722718, -0.1491332799, -0.0325518698, 0.1119941100, 0.1207733229, 0.0101148076, -0.0589479394, -0.0315947980, 0.2109212726, -0.1382599622, 0.1398798376, -0.0508103073, -0.0599554107, 0.0069930404, 0.1864874959, -0.1719049811, -0.0930691212, -0.1494973302, -0.1966562122, 0.1404051483, 0.2383570075, -0.0221006535, 0.0173452049, -0.0903450176, 0.1081601158, 0.1004602611, 0.2445315272, 0.0719778240, 0.3067606986, 0.0016817003, -0.2289337814, -0.0773817897, -0.0987751409, 0.1680798233, 0.0038894298, -0.3292849362, 0.1368449926, -0.0496565290, 0.1387027353, -0.0265300274, -0.0541669279, -0.0324240550, 0.0453971066, -0.1195829585, -0.0810430646, 0.0611777008, 0.1317659169, -0.1103083342, -0.3968756795, -0.1007194743, 0.0791066587, -0.0334941410, 0.1148246080, 0.1118894368, 0.3088192046, 0.1563574374, 0.4928735793, -0.1390347332, 0.1432226300, 0.1336178035, -0.1846047193, -0.4605051279, -0.2469859719, 0.1248804107, 0.0059937630, -0.0518196225, 0.0653574318, 0.2768597007, -0.2337584198, -1.0801066160, -0.1790541410, -0.0432806760, 0.2589532733, -0.3693378270, -0.1397502124, -0.0560599864, 0.2288784981, -0.2033295035, -0.2909452915, 0.0535309762, 0.0723543838, 0.4980441928, -0.0603782050, 0.1455992907, 0.1489728093, -0.0872918144, -0.1059280559, -0.1418671608, -0.1216862500, -0.4183392525, 0.0317533985, -0.2379738837, 0.0410883501, 0.0140440473, 0.2757581174, -0.0459654331, -0.1476932168, 0.0855810195, 0.1707187593, -0.0688427463, -0.1065905988, 0.1661715060, -0.1091882810, -0.1500207633, 0.0165521204, -0.6641007662, -0.0988978744, 0.0041896859, -0.0632474497, 0.0062282477, 0.0469457656, 0.0467596054, 0.2611927986, -0.1071922481, -0.1726471037, 0.0207447261, -0.2903741598, -0.1119810119, 0.0921948105, -0.1038901731, -0.0178209096, 0.1002559513, -0.0358141959, -0.2231481671, 0.2301089764, 0.2978479266, -0.0993466526, 0.0456752814, -0.0846199095, -0.0577652454, -0.0669454634, 0.0267722160, 0.1610859334, 0.1926526129, 0.0034593905, -0.1252914071, 0.1314637959, 0.2153716832, -0.1159466803, -0.1679441929, -0.0548357889, 0.1207431406, -0.9274051189, -0.1438713819, 0.0872410685, -0.2210465521, -0.0613777377, 0.1447940618, 0.0426606610, 0.2725731134, -0.1227317899, -0.1530382335, -0.0554713421, 0.1877277493, -0.1861066073, -0.0265500247, -0.0881717056, 0.0248036683, -0.1317630857, -0.0514658578, -0.1377205551, 0.0255637337, -0.0967299342, 0.0291083064, -0.2384268194, -0.1956810057, -0.0836215764, 0.0040935148, 0.0809941590, 0.1517678946, -0.0426192135, 0.0504659712, -0.7935728431, -0.1205463931, -0.0597896054, -0.0110419095, -0.0792120844, -0.1873288602, -0.0071569490, 0.0568880066, -0.2002398968, 0.0758113116, -0.2101217955, -0.1136499569, -0.3219718635, 0.0974324122, -0.0517282374, -0.2909418046, -0.7666305304, 0.1518295407, -1.0681834221, 0.1437642574, -0.1037818044, 0.1168181598, -0.2732714117, -0.1541643143, 0.0421663225, -0.2938481271, 0.1407402754, 0.0479931682, -0.4587432444, 0.1995429546, -0.1215645224, -0.1294691712, -0.2288735658, -0.3533598185, -0.7238889337, -0.0543779172, -0.5505264997, -0.0585620403, 0.0081032729, -0.0524876527, -0.0173707083, 0.1429430842, 0.0197009891, -0.1964346915, -0.0381296575, -0.0043091993, -0.4221534431, -0.0277109910, -0.4530377984, -0.2505320311, -0.0832098424, -0.1037321612, -0.1060512885, 0.1269204766, 0.0891946629, -0.0996552557, -0.1567721665, 0.1389408708, -0.0934141502, 0.0507778116, -0.0251910090, -0.1607614756, -0.0741800591, -0.0344960839, -0.1480596662, 0.0772562921, 0.0322543904, -0.0702389032, -0.3185692728, 0.0050947331, -0.1356183589, 0.1745317727, 0.0332619883, 0.0089076906, -0.0115750525, 0.0724067986, 0.0113379657, 0.0133572705, 0.1543951482, -0.0215823911, -0.1943366528, -0.0453439020, -0.1494207382, -0.6235130429, 0.1710310727, -0.0559938848, 0.1104387194, -0.0526447892, 0.0466661006, -0.0560109727, 0.0944575444, -0.0180042833, -0.1272168308, -0.0271333251, -0.0270324834, 0.1514407843, 0.1032802612, -0.0129234940, -0.4634813964, 0.1386130899, -0.0736584887, 0.0945213065, 0.0308698285, -0.0552485734, -0.2086809576, 0.1974453181, 0.0525006354, -0.0623216219, -0.2037018836, -0.1315342486, -1.1085014343, 0.0410188697, 0.3447666466, 0.0894403309, -0.0367021412, -0.4854181409, -0.1505240500, -0.0632117167, 0.0148015916, -0.0930118486, 0.2665797472, -0.0096984953, -0.0043870211, 0.1591906995, 0.0983578563, 0.5154345036, 0.1055518165, 0.8109483719, -0.0398503132, -0.1228738204, -0.1663198024, 0.0588784367, 0.6805237532, -0.3049658835, 0.3507119119, -0.0648346990, 0.4099974036, 0.0797461346, 0.1573682129, 0.5089260340, 0.0906178504, -0.2571341991, 0.3663061559, 0.2735474408, 0.5251287818, -0.0427005775, 0.0196088403, 0.5222210884, 0.0508577786, -0.1271737069, 0.0559268147, 0.4458405375, -0.0360441357, -0.1298090518, 0.2644736171, -0.0685997680, -0.1408277601, -0.0887176543, 0.0042117871, -0.1707281917, 0.5510219336, 0.3151650727, 0.3177309036, 0.0770258680, 0.5905623436, 0.4408694506, -0.1961062402, 0.2456331104, 0.4726451337, -0.1190619767, 0.1495467126, -0.2740881145, 0.0661616325, 0.1684385240, 0.1526862383, -0.1508451402, 0.3139549494, -0.1087526008, 0.5238985419, 0.0727659762, -0.0053846836, 0.0634766519, 0.2285971493, -0.1017118469, -0.4281599522, 0.5777743459, -0.1541215777, 0.1056859642, -0.0164575428, 0.1987381279, -0.4184188545, 0.0701531544, -0.1636155546, 0.1078134403, 0.3281415403, -0.0891693309, 0.4219860435, -0.5002236366, -0.1678473353, -0.0532302037, -0.0241289809, 0.1442546695, -0.5734556317, 0.0423265696, 0.0382470042, -0.0286269542, 0.0201036353, -0.0045619244, -0.1229731888, 0.3884057701, 0.3566035032, 0.1153590977, 0.0543914288, -0.6408013701, 0.1227761358, -0.2871514857, -0.0688008070, 0.1345833987, -0.0434148684, -0.1067221835, 0.0528851971, 0.0712000355, 0.2181850970, 0.1467591077, 0.1369707733, 0.0533881336, 0.2037562281, -0.0955093950, -0.1430218369, 0.2024787068, 0.0303481799, -0.0704614818, -0.0382238477, 0.1218201742, -0.0127659440, -0.3893333077, 0.1556958407, 0.0376388021, 0.4361414313, -0.0236501098, 0.0798040479, 0.0070716888, 0.0383514464, -0.0472014844, -0.0616184399, -0.0881854519, 0.0454239398, 0.0539806336, -0.1433631331, -0.1438941807, -0.1647925377, -0.0323901474, 0.0627027452, 0.1296142787, -0.0442281812, 0.0256525129, -0.1545143425, -0.1514209360, 0.1459213346, 0.1218936592, 0.1217259616, 0.1628190428, 0.0004705638, -0.0681804046, 0.0219053626, 0.1221158057, 0.1620706767, -0.1608835012, -0.1581807435, 0.0724606663, 0.0595662594, -0.1426468045, 0.0798933953, 0.1680533439, -0.1193121225, 0.0866763443, 0.1353296191, -0.1527398825, -0.0019195825, 0.0854889005, -0.1177979559, 0.0498872399, -0.0168006122, 0.1596444100, 0.0940573066, -0.0515349358, 0.0621246696, -0.1735440344, 0.1139200777, 0.1265680045, -0.0278920233, 0.1585309356, -0.0841666237, 0.1704413742, -0.1475698054, -0.0447954386, 0.0882312506, 0.0652720630, -0.0359295905, -0.0567157939, -0.1218096614, 0.0854119211, 0.1166765839, 0.0871688277, 0.1265108436, 0.1114302427, 0.0706647485, 0.0926452130, -0.0780396909, 0.1513036340, -0.0536359549, 0.0905391127, -0.0144387484, -0.0470879823, -0.1663318574, 0.0257815272, -0.0910223573, -0.1027094647, 0.1590653211, 0.0427570492, -0.0291967690, -0.1086975634, -0.1589796841, -0.0198219121, 0.0580226034, 0.0733085722, 0.1589916497, 0.0760981590, -0.0500490516, 0.0511814505, -0.0973835364, -0.0460998863, -0.1701297164, -0.0947158560, 0.1274053305, -0.0886951759, -0.0687740445, -0.0762957409, -0.0018149316, -0.0464428365, 0.0326138586, -0.1496839821, -0.0848947912, -0.0122886747, -0.0198746771, -0.1455994099, 0.0111823231, -0.1565399617, 0.0734805316, -0.1709435284, -0.0476821214, -0.1199266165, -0.1613666266, -0.0012590587, 0.1564043313, 0.0152448118, -0.1565662622, 0.0399423540, 0.1233240813, -0.1218134910, -0.0949219540, -0.1444643885, -0.0433896780, -0.0726424083, -0.0721130073, 0.0804136246, 0.1297539920, -0.0776472613, 0.1076156050, -0.1316574812, -0.0614582375, 0.0413543582, 0.0965351313, 0.0899777561, -0.1120875627, -0.0211812407, 0.0560918897, 0.1657705158, -0.1313422173, 0.1018592268, 0.0745539814, 0.1311376840, 0.1763202697, 0.1118143648, -0.0428324491, -0.0472844243, 0.1286191195, 0.0090412647, -0.0694520622, -0.0905917436, -0.0892217606, -0.0803254470, 0.0413347185, -0.1053084061, -0.1013806164, 0.1036347300, 0.1328192502, -0.0338262618, -0.0032857656, -0.1176506877, 0.0514288098, -0.1394919008, -0.0397553891, 0.0877093524, -0.1336955279, 0.0377259851, 0.0747315139, -0.0745539367, 0.1238092631, -0.0755999386, -0.1071850806, -0.0047557205, -0.0269706100, -0.0892359614, -0.0293954015, 0.1655972749, 0.1656555682, -0.0872533321, -0.0680628195, 0.0892269462, 0.1385564655, -0.0998646766, 0.1066516787, 0.1029251367, 0.1350822896, 0.0665147156, -0.1234221980, 0.0512154996, -0.1362976730, -0.1620879322, 0.1739389449, -0.0028331578, -0.0861004069, 0.0179811120, -0.1337827742, -0.1474030316, -0.1572238505, -0.0821568072, 0.0355861485, -0.1033562124, 0.0866531879, 0.1246819943, 0.0653380305, 0.1427472979, 0.1565257162, -0.1062763929, 0.0890321285, 0.1498460025, 0.1356124431, -0.0036033094, 0.0570125878, 0.1211134642, -0.1549356878, 0.0664313138, -0.1415581107, -0.1420833021, 0.0517467260, -0.0308291614, 0.1489153057, 0.1444646567, 0.1512873322, -0.1148252487, -0.1021589041, 0.1250950843, 0.1338555366, 0.0234330595, 0.0225252211, -0.0564028472, 0.1122054309, -0.1322500259, -0.1539172530, -0.1762949079, 0.0586841702, 0.0926562697, -0.1049434990, -0.1413235217, -0.0015108734, -0.1592092961, -0.0369039923, -0.0001910925, 0.0052721053, -0.0743375570, -0.1481198221, 0.0663327277, -0.0253131390, -0.0302150697, -0.1355063319, 0.0542177409, 0.1663415879, -0.0462018400, 0.0793090314, -0.0499189794, 0.0288059413, 0.1364157647, -0.0501783043, -0.0039401310, -0.1082537174, -0.0423325896, -0.1388430148, 0.2201445848, -0.0799908787, -0.1134835556, 0.1210627928, -0.0310369208, -0.0242932513, -0.0122273779, 0.1201718599, -0.0073930374, 0.0092060249, -0.1476540565, -0.0827217400, 0.0427998938, 0.1304256320, -0.1282398552, -0.1509373486, -0.0271215979, -0.1117022708, -0.0792727843, 0.1858833283, -0.0002816745, -0.0434673280, -0.0019830021, -0.1956819147, -0.1667528003, -0.3552822471, -0.1071387753, -0.1143095940, 0.2508729398, 0.0568904243, 0.2109884918, 0.2056447119, -0.2358329743, -0.0404348820, 0.0799228549, 0.0716603920, -0.1953312308, 0.0578366183, 0.1037458256, -0.0035041606, -0.0744893700, 0.0801507980, -0.0622397438, 0.1058088243, -0.0368354619, -0.0377809815, -0.0956686735, 0.1449548453, 0.0728022456, 0.2596397400, -0.3546563983, 0.0504294112, 0.0573584512, -0.0489179976, -0.0492235124, 0.0715034828, 0.2272541374, 0.1011576504, 0.3004349172, 0.1884828657, -0.0558927357, 0.0194122661, 0.0254861116, -0.0494947769, -0.0869442895, -0.0645476878, 0.1080615968, -0.0624753162, -0.1598600894, 0.1607177109, 0.0374634601, 0.1264949441, -0.0796839744, 0.0537486076, 0.0377925895, 0.0250267796, 0.2206349373, 0.0424512550, -0.0583186783, -0.0578778945, -0.1676149815, -0.0569102541, -0.0612674728, 0.0014402419, -0.1435887069, 0.2279814631, -0.1053442359, 0.0872878581, -0.1862665862, 0.0935472101, 0.0162032247, -0.1557515711, 0.1264393032, 0.2532227337, -0.2244960368, 0.2094321549, 0.2408393621, -0.1065506041, 0.0761805400, 0.0201481283, -0.0043633282, -0.1346028298, 0.0019094325, 0.0717624351, -0.0507786125, -0.0344263427, 0.1349629313, -0.1287295967, -0.0440964699, 0.0038267225, -0.1214198470, 0.1787001938, -0.1036761478, 0.0722846687, -0.0900319815, 0.1545143276, -0.0956242755, 0.1819764823, -0.1953759938, -0.1365862191, 0.2378471494, 0.1658297032, -0.2070836723, 0.0994294211, -0.1653245986, 0.1708449572, -0.0392712057, 0.0748591572, -0.0611487553, 0.0132918954, -0.1224387437, -0.0662499964, 0.0301354229, -0.0237455815, 0.1765253395, -0.0134906620, 0.1199716479, 0.0548786521, 0.0231446475, 0.0009354055, -0.0721758008, -0.0584974661, 0.0944915861, -0.0015452653, 0.0610259324, -0.0396609902, 0.0951008350, -0.1649588048, -0.0796360075, 0.0573199242, 0.0698774904, -0.1596043408, 0.1166816801, -0.0994173735, -0.0235609263, -0.0924663469, -0.1076871753, 0.0437310189, 0.0154158026, -0.1063682735, 0.1136132032, -0.1012484059, 0.0475700498, -0.0166241527, -0.0915506259, 0.1733823568, -0.1288872510, 0.1751329750, 0.1326708645, 0.1445417255, 0.1344646662, 0.0136221200, 0.1565013081, 0.1124868542, 0.0328048766, 0.0111995190, -0.1500155032, 0.0146504194, -0.0107646883, -0.0594580770, 0.0579456836, 0.1079077274, 0.1141614765, -0.1106817126, -0.0139195025, -0.0575528294, 0.0627614260, -0.0993289948, 0.0810401291, -0.1031464860, 0.0666474849, 0.0183505267, 0.0330182165, -0.1224571168, 0.0239302218, 0.0872490853, 0.0350970775, 0.1320098788, 0.0025727749, -0.1448258013, 0.1065548509, -0.1633688062, 0.0469152927, 0.0955578536, -0.1745269001, 0.0194664896, -0.0961019322, -0.0121591091, 0.1356865913, 0.0187795460, -0.1439993382, -0.0275220573, 0.0627576709, 0.1198146790, 0.0962361842, -0.0498075038, -0.0783117115, -0.1060922965, -0.1385942698, 0.0117029101, -0.0516357869, 0.1067471355, 0.0092938393, 0.0324318707, 0.1170279831, 0.0176566690, -0.0951927453, 0.0549814850, -0.0065832585, -0.0767255574, -0.0237470567, -0.0857866630, 0.0057164580, 0.0672153682, 0.0748197287, -0.0867431015, 0.0644248277, -0.1682105064, -0.0484375954, 0.1566381603, 0.1618224531, -0.0970137864, 0.0670491010, 0.1089265198, 0.0419072807, 0.0932481438, -0.1556593031, 0.0061031580, 0.0624320358, -0.1610234678, -0.0280360430, -0.1585759968, -0.0814455897, -0.0332779214, -0.0450818688, -0.5015254617, -0.2196480185, 0.1083818525, -0.0986853689, -0.1724256277, -0.0762950033, 0.0464122929, -0.0997911170, -0.0639814436, -0.0123077845, 0.1334671527, 0.1402350217, 0.1371463239, 0.3898061812, 0.2219155431, 0.1480168253, -0.1180121899, -0.0810924694, 0.2430219948, 0.1339067817, 0.1116740927, 0.1857317537, 0.1954293102, 0.0196303464, 0.1520875990, 0.2801679075, 0.1763555259, 0.1041674167, -0.0251442809, 0.4631157517, -0.0366768390, -0.3311429322, 0.5368108153, 0.1097567379, 0.1173424423, 0.0959320962, 0.2777454555, 0.2467622459, 0.0439089462, 0.3918132186, 0.0514818281, 0.0529024750, 0.1721054316, -0.3423214853, 0.1619736403, -0.1563350856, 0.2418758869, 0.3082018793, 0.0901856646, 0.1555850357, 0.5253044367, 0.2656363845, 0.1357568353, 0.0780069605, 0.0994371697, -0.1468960643, -0.0494060479, -0.0378248692, -0.1689118743, 0.2165212333, 0.3494354188, -0.3675860167, 0.2878959179, -0.1280599385, 0.2623274028, 0.0814429447, -0.0129473358, -0.0070989579, 0.0141302310, 0.1482005268, 0.2244300842, 0.3749593496, 0.1259724051, -0.0598422065, -0.1256754547, 0.3331587017, -0.1039525196, 0.1989525557, -0.2228375375, 0.1090184748, 0.2135768384, -0.0844555795, 0.4649584889, -0.0756772757, 0.0113310516, -0.0782147273, 0.3618247211, 0.1063339263, -0.1580018401, -0.0387355424, -0.0622839406, 0.1047569960, 0.0953219309, -0.0275258739, 0.1670039445, 0.0391855054, 0.2277925014, 0.1032694429, 0.0972006172, -0.2260335684, -0.0505777299, -0.0892272294, -0.0321881399, -0.0636654273, -0.1629906297, 0.0674920678, 0.3907407224, -0.1725855321, 0.3379925489, 0.0910068005, -0.0522357896, -0.1468021870, 0.3586143553, -0.0433944315, 0.0286097564, -0.0132502764, 0.0715331286, -0.0904759914, 0.1273713112, -0.0592587851, -0.1526261270, -0.1462282091, 0.0633694232, 0.2539821863, 0.1692822427, -0.1267374754, -0.0042918175, 0.0749005228, -0.1001565903, -0.1145163178, 0.0201700926, 0.0245672315, 0.0469059050, 0.0023831129, -0.0742804483, 0.1017840058, -0.0196029246, -0.1176685616, -0.1755099744, -0.1415079981, 0.1513568014, 0.0308679342, 0.0862977654, -0.0602507293, -0.1132369041, 0.0804354399, 0.0392994136, 0.0683485270, 0.1579678506, -0.0019124597, -0.1328469962, 0.1624187082, 0.0296458751, 0.1236504763, 0.0027208328, 0.0069231242, -0.1028449237, 0.1528364271, -0.0103964061, 0.1521201879, -0.0525306091, 0.1337677389, 0.1514972597, -0.0713117495, -0.0483255386, -0.0251954347, 0.0709681660, 0.1308293492, -0.0125966817, 0.0254724622, 0.0771787912, -0.1409560442, -0.1513112336, -0.0489432812, -0.0282126367, -0.1100388467, 0.0172323734, 0.0121530890, -0.1630891263, -0.0549499616, 0.0229576826, 0.1570757478, -0.0526496768, -0.1448720694, 0.0530441701, 0.0681337565, -0.1444054693, 0.0863641948, 0.0260646194, -0.0943546146, -0.0218664557, 0.0653519779, -0.0120390356, 0.0309577882, 0.1468659490, 0.1613108963, 0.0386727303, -0.0064557195, -0.0439779609, -0.1135604233, -0.0982327536, 0.1121900231, -0.0436075777, 0.0902417451, -0.0222330093, 0.1644953936, 0.0399371684, 0.1405601650, 0.1749627441, -0.0000981987, -0.0994363800, -0.0091038048, 0.0460339189, -0.0783823878, -0.1098478362, -0.1431599855, 0.0151944458, 0.1495446414, 0.0169515461, -0.1408476830, 0.0215582401, 0.1518229693, 0.1499923319, -0.1451381892, -0.1544952095, -0.0856880844, -0.1586516500, -0.0757997558, 0.1461998671, 0.1093024164, -0.1353872716, 0.1645209044, -0.1111694723, 0.0333242863, 0.0788017362, -0.0340274274, 0.1636257321, -0.0151879042, 0.0807631463, 0.1242522448, -0.0986573026, -0.0746671855, -0.0708475411, 0.1107155532, 0.0453538448, -0.1622512043, -0.1209374666, -0.1299985051, -0.0498448014, 0.0089458823, 0.0133479536, -0.1741258651, -0.0736377537, 0.0283443592, 0.0030516712, -0.1431113929, -0.0687303618, 0.0382908620, 0.0481819808, -0.0130773028, -0.1573332697, -0.0827492699, -0.0364274792, -0.1163542643, -0.1756071597, -0.1056981012, -0.0868151784, -0.2489392310, 0.0800781846, -0.0151415560, 0.0611512624, 0.0378196202, -0.0851826593, 0.0503000990, -0.0621058904, 0.1261258572, -0.0039151362, 0.1270188838, 0.1273816973, -0.0687651783, -0.0050583761, -0.0301700346, -0.1496971846, 0.1524271518, 0.0874917805, 0.1845575124, 0.0032048339, -0.0410108492, -0.2264507413, -0.0465837643, 0.1040565893, 0.0216418076, -0.0684322193, -0.0391025431, 0.0083388686, -0.0638296381, -0.0231020134, -0.1093988940, -0.2148033231, -0.0429877974, 0.0244109742, -0.0178733021, -0.1752274036, -0.0491916388, -0.1101156101, 0.0486550294, -0.2430756390, -0.1335600019, 0.0256533325, 0.0825676471, 0.1629434228, 0.0442477427, 0.1255199164, 0.0958885029, 0.1199244633, 0.0886802003, -0.0184489246, 0.0804211721, -0.1334854215, -0.0529847778, 0.1014610603, -0.1570924819, -0.0004162043, -0.0722714365, 0.0980250686, 0.1255709678, 0.0248919819, -0.4842997193, -0.0798626244, 0.0562846325, -0.0223718435, -0.3725401163, 0.1561546773, 0.1083937138, 0.1184199080, 0.1455586106, 0.1115235537, -0.1322761476, -0.2352152020, -0.0070381854, 0.1280891448, 0.1620026678, 0.1337210238, -0.0272892416, 0.1356489956, -0.0147578660, 0.0302424729, 0.1560919583, 0.0127064129, -0.0663590282, 0.0414760076, 0.0103155971, -0.1425392777, -0.1911564022, -0.0647588447, 0.0347979181, -0.1215188503, 0.0647066459, -0.0944721028, -0.0809370652, 0.0390937813, 0.0244030207, -0.1268593222, -0.0615304932, -0.0543918461, -0.1520684361, -0.0017215312, -0.0557126552, 0.0269784220, -0.1544264704, 0.0173910409, 0.0079557002, 0.0848541856, 0.0567058474, 0.0691151768, 0.1238345876, 0.1360660344, 0.0927586481, 0.1279081106, -0.1846624017, -0.0821431726, -0.0288233906, -0.0199892819, -0.1418322772, 0.1199031025, 0.0096483380, -0.1111905053, -0.1357719004, 0.0629461110, 0.0145173073, -0.1118714735, -0.1739925593, 0.0864276439, -0.0899326876, -0.0142785460, 0.0242415965, 0.0902583450, 0.1610912234, -0.0012900680, 0.0283570737, 0.1010683626, 0.1633208543, 0.0097677410, 0.0082174093, 0.1475729197, 0.1068409234, 0.0458498299, -0.0648178905, -0.1707703918, -0.1426270008, 0.1314445585, 0.0228085667, -0.1329393685, 0.1285184771, 0.0424920321, -0.1072606519, 0.0169927627, -0.0099568069, 0.1199218184, 0.0746561736, -0.0602553710, -0.0925510675, -0.1184605807, -0.0372354686, 0.1143556088, 0.0129143000, -0.0160162300, 0.0297677219, -0.1495675296, 0.0989893228, -0.0843344927, -0.0966146514, 0.0169630945, -0.0055898130, -0.0703560263, 0.0876276344, -0.1271862388, 0.1617106646, -0.1455019563, 0.1543411762, -0.0754563883, 0.0341667235, 0.1302983612, -0.0068089068, 0.0158231109, -0.0415725559, -0.1029410213, 0.0948042721, -0.1432938427, 0.0467328876, 0.0578305274, 0.1728339344, 0.1729223281, -0.1540908217, -0.1728290468, -0.0839623362, 0.0386414081, 0.0851620883, 0.0128769577, -0.1060227975, -0.0819013566, -0.0382223874, -0.1169840544, -0.1446449906, 0.0577791631, 0.0238854587, 0.0587254018, 0.0852458328, -0.1011716947, -0.0331927538, -0.0347196907, -0.1529823989, -0.0036741495, -0.0664493963, -0.1262587309, -0.0405061096, -0.0904243365, 0.1736581773, -0.1193092912, 0.1340212077, 0.1506282538, 0.0086365640, -0.1200805828, -0.0861037746, 0.0759489983, 0.1550916880, -0.0071807653, 0.1263158768, 0.0056416541, -0.1127380580, 0.0112497509, 0.0087414235, -0.0702983290, 0.0323038697, -0.0741516501, -0.0110870600, 0.0570340008, -0.0101624131, 0.0629020184, 0.1298416108, -0.0408214927, -0.1216622740, -0.1258960068, 0.1667315811, 0.1228402704, -0.0793927759, -0.0004221052, -0.1371147782, 0.0134039670, -0.0583245754, 0.0113736689, 0.0215171874, -0.0276183188, 0.0347320437, -0.1164452061, 0.0629131049, -0.0673843771, -0.0105435848, -0.1735229492, 0.0522744358, -0.0819794536, 0.1076344401, -0.0590018332, -0.0633334368, -0.0082474202, -0.0174901038, 0.0350126028, -0.0205289721, 0.0440822244, 0.1083349437, -0.1654830277, -0.1238707602, 0.1388400942, -0.0625746697, -0.0216470063, 0.1395834833, -0.1208097190, 0.0050464571, 0.1759984046, -0.1257642508, -0.0685217530, 0.0589173287, 0.0262411684, -0.1746235788, -0.1182684377, -0.0081354827, -0.1546164304, -0.0216116756, 0.0701506883, 0.1019834727, -0.1532756090, -0.0441543907, -0.0966544002, 0.0182884932, 0.1472464055, -0.0002685636, 0.1172227412, 0.1499438137, -0.1178444028, 0.1330307573, -0.0389179289, -0.0542965606, 0.0927391201, -0.0784346089, -0.1619221270, 0.0750998706, -0.1636893749, -0.0393431187, 0.1154410094, -0.0875363871, -0.0957256928, -0.1475907564, -0.1128117293, 0.1378955990, -0.0195925087, 0.0539824814, -0.1687771827, -0.0763899833, -0.0862810910, -0.1121879518, -0.0970381871, 0.1543874890, 0.0415515602, 0.0298181772, 0.0390344262, 0.0603750199, -0.0475377291, -0.0313653499, -0.0444377810, -0.1346585453, -0.0960615203, 0.1000926644, 0.0855729729, -0.0580837056, 0.1659498960, 0.0223090053, -0.0539530665, -0.1352300197, -0.1334363669, -0.0602297410, 