//Numpy array shape [128, 784]
//Min -1.363693475723
//Max 0.879533886909
//Number of zeros 0

#ifndef W12_H_
#define W12_H_

#ifndef __SYNTHESIS__
model_default_t w12[100352];
#else
model_default_t w12[100352] = {0.0173804201, -0.0116362385, 0.0055091167, -0.0225353725, -0.1345671415, -0.1092823967, 0.0162994713, -0.0920720696, -0.0542295650, -0.0762427449, -0.1048944592, 0.0008194585, -0.0539914183, -0.0127806421, -0.1203708425, -0.0085554896, -0.0011040531, -0.0558743887, -0.1316006333, 0.0043540229, 0.0203408021, -0.1325465739, -0.1269409060, -0.0530030392, -0.0751334056, -0.0516581051, 0.0165245738, -0.0549922474, 0.0205936506, -0.0722833648, -0.0077703334, -0.0834201574, -0.0510318987, -0.0546326451, -0.1052487642, -0.0579861552, -0.0296425372, -0.0468590856, -0.0310303029, -0.0721606910, -0.1323537230, 0.0094664991, 0.0053926073, -0.0874589831, 0.0037661239, -0.0051658233, -0.0707362369, 0.0026423440, 0.0224698670, -0.0978164598, -0.0864556059, 0.0061367620, -0.0227128137, -0.1012374833, 0.0258194897, -0.1087630317, -0.0496169962, -0.0837327465, 0.0223353561, -0.0121314619, 0.0170463808, 0.0183342658, 0.0060180170, -0.0118729323, -0.0135772172, -0.0095774774, -0.0118212346, -0.0239254944, 0.0295162760, -0.0338284634, -0.0132799912, -0.0922440141, -0.0493116006, 0.0056830840, -0.0566290319, -0.1324471980, -0.0663088933, -0.0918563902, -0.0396698490, -0.0444692820, -0.1082069576, -0.1005553156, -0.0461556613, 0.0118825026, -0.0850168988, -0.1026694328, -0.1268773675, -0.0407908373, -0.0935639367, -0.0992838591, -0.0473656468, -0.0447627604, -0.0660330355, 0.0224397779, -0.0609565228, -0.1109223589, -0.0290364586, -0.0870931670, -0.1387167424, -0.1114551723, -0.1074870676, -0.0767504424, -0.0562203154, -0.0186903626, -0.0683231950, 0.0126703195, -0.0390408486, -0.0016883841, -0.1263839602, -0.1285038143, -0.0933217183, -0.0293574408, -0.0313665308, -0.0394429788, -0.0471337028, -0.0777672380, -0.0221480038, 0.0250850003, -0.1147032380, 0.0005424058, -0.0785043910, 0.0104152178, 0.0096082399, -0.0797742531, -0.0521907173, -0.1411226094, -0.0678893030, 0.0232917182, -0.0143846180, -0.0909640118, -0.0870733038, -0.0339803137, -0.0603360236, 0.0009216361, 0.0194055438, -0.0120622972, 0.0216804314, -0.1050627083, -0.0959588140, 0.0254405439, -0.0882909894, -0.0184205323, 0.0236215070, -0.0349095799, -0.1301794052, -0.0100377249, -0.1095966101, -0.0308046415, -0.0498762503, -0.0464414172, -0.0355627872, 0.0169233233, -0.0524382852, -0.0969203040, -0.0096480809, -0.0230446048, 0.0531037673, -0.0484691374, 0.0555471405, -0.0901292562, -0.0898188725, -0.0847968534, -0.0624755062, 0.0340812467, -0.0966918021, 0.0049975379, -0.0702450201, -0.0034635512, -0.0526638217, -0.0575999618, 0.0075261691, -0.0625907108, 0.0175536200, 0.0233030133, -0.1222731024, -0.1352072060, 0.0071186768, -0.0236356761, -0.0658219829, 0.0222840644, -0.1045687348, 0.0148741631, 0.0241792388, -0.0315252803, 0.0581506453, 0.0062362845, -0.0309113897, -0.0528054796, -0.0779229924, 0.0460358486, 0.0278747752, -0.0231593121, 0.0177844223, -0.0970434472, 0.0124428887, -0.0351908058, -0.0341178440, -0.0851732567, -0.1109036282, -0.0813588724, -0.0319693796, -0.0861509144, 0.0152432695, -0.0284069702, -0.0179292653, 0.0452499166, -0.0471370444, 0.0372901969, 0.0533065349, -0.0126685780, 0.0256183594, -0.0013873960, 0.0610858202, -0.0705560967, 0.0511451699, -0.0300006531, 0.0215752721, -0.0530308224, 0.0269650389, 0.0625097379, 0.0214109942, -0.0841939896, -0.1109106541, -0.0155116068, 0.0192742050, -0.0112510901, -0.0364367813, 0.0059876428, -0.0519104078, -0.0956567377, -0.0688901395, 0.0163410902, 0.0934535563, 0.0243535973, 0.0772508904, 0.0163219180, -0.0735830218, 0.0468040556, -0.0176139418, 0.0632254630, -0.0410223231, 0.0144158835, 0.0314224958, 0.0311992634, 0.0733734220, -0.0048715444, -0.0793499947, 0.0252136216, -0.0141861960, -0.1080546603, -0.0900934711, -0.1288868487, -0.0149742551, 0.0011818726, -0.0682257563, 0.0219240654, -0.0590447113, -0.0205891170, 0.0245936457, 0.0687385425, 0.0168898515, 0.0016048000, -0.0345653221, -0.0019054521, -0.0410446152, -0.0438908897, 0.0703342408, 0.0813847780, 0.0012206888, -0.0648809075, 0.0042971852, -0.0326945819, 0.0221694428, 0.0101284813, 0.0317895524, -0.0127519956, 0.0044441554, -0.1065661535, -0.0409111269, -0.0850515664, -0.0208091438, -0.1192309335, -0.0025942544, 0.0340920724, 0.0087443693, 0.0225090850, 0.0198608078, -0.0486839786, -0.0364084095, -0.0218198840, 0.0769813657, 0.0565945022, -0.0213062167, -0.0192187801, 0.0441404432, -0.0592064969, -0.0620386899, 0.0466146320, -0.0167732127, -0.0520455875, 0.0200640894, -0.0450376160, -0.0477215536, -0.0418229215, -0.0707416832, -0.0740156844, -0.0470296331, -0.0633018762, -0.0221390445, -0.0186597873, 0.0199577529, -0.0253591128, -0.0943310857, -0.0388452820, -0.0452442020, 0.0496380106, 0.0684735253, -0.0012486123, 0.0062870458, 0.0730412453, -0.0225840192, -0.0098591205, 0.0203401670, 0.0708553270, 0.0133738164, 0.0536327623, 0.1050073579, -0.0111878123, -0.0683279037, -0.0004527292, -0.0902297273, 0.0060225059, 0.0080622975, -0.0184630491, -0.1318195611, -0.0900365859, -0.1013502851, -0.1278185993, -0.0267172754, -0.0603398904, 0.0019864026, 0.0312043317, -0.0514436625, -0.0231900495, 0.0227516536, 0.0521629266, -0.0636896268, -0.0590534881, -0.0529558286, -0.0298707765, -0.0010393580, -0.0237201937, 0.0516336262, -0.0200757701, -0.0424272828, -0.0391074456, 0.0394017100, 0.0594936162, -0.0053508505, -0.1079515219, -0.0559413619, -0.0115044098, -0.0949904695, -0.1076921225, -0.0683219805, 0.0128993839, -0.1023779958, -0.0549663827, -0.1039502248, -0.0589343831, 0.0911009684, -0.0516887344, 0.0157772563, 0.0306027997, -0.0269638114, -0.0680058524, -0.0032040661, 0.0090977335, -0.0820472315, -0.0235027503, 0.0810862929, 0.0768918470, 0.0630424768, 0.0692516640, 0.0228676666, -0.0359853022, -0.0981478989, 0.0285683628, -0.0088047106, -0.1103382483, -0.0598984994, -0.1162246168, -0.1028052866, -0.0066319820, -0.0885282084, 0.0046807569, 0.0207789671, 0.0603749529, 0.0449262671, -0.0451032221, 0.0397436358, -0.0534311756, 0.0265031233, 0.0280566663, -0.0774664655, -0.0029510236, -0.0752596557, -0.0423287377, 0.0589281172, 0.0120891593, 0.0800677165, -0.0358801633, -0.1046228185, 0.0357462764, -0.0175641235, -0.1212758124, -0.0553987846, -0.0442252085, -0.0180239175, -0.0798285827, -0.0729930848, -0.0875626430, 0.0300345253, 0.0310389381, 0.0251047444, -0.0313388295, -0.0176157355, -0.0358393490, 0.0065347161, -0.0615189411, 0.0176371764, 0.0274911281, 0.0179264396, -0.0233882423, -0.0422619954, -0.0501251481, 0.1007469818, -0.0064226300, -0.0343714692, 0.0481772125, -0.0640214682, 0.0463094302, 0.0358154476, -0.0929446891, 0.0040818849, -0.0812400058, 0.0322101489, -0.0677380860, -0.0611208864, 0.0221557766, -0.1099936068, -0.0710414499, 0.0287439227, 0.0143761700, 0.0227765106, -0.0299783107, 0.0902510956, 0.0328542963, -0.0550221540, -0.0182158556, -0.0182980150, 0.0247752890, -0.0695197359, 0.1062424704, -0.0085561806, -0.0341095887, 0.0116931917, -0.0795162469, -0.0373274088, -0.0642919540, -0.1172612384, -0.0951970518, -0.1102326438, 0.0196341909, -0.0909985304, -0.0792870224, -0.0401486456, -0.0143285999, -0.0514029898, -0.0278216563, -0.0250630826, -0.0710556954, -0.0178878326, -0.0052090259, -0.0289523732, -0.0506734475, -0.0640871078, 0.0659787133, 0.0243363343, -0.0703654587, -0.0755175650, -0.0653928742, -0.0416115969, 0.0730515271, -0.0031509246, -0.1157684699, -0.0823060721, -0.0048900088, -0.1302262247, -0.0414166003, 0.0261286385, -0.0653972477, -0.0968880132, -0.0440514423, -0.0659322515, 0.0176500231, -0.1267425120, -0.0934233665, -0.0346037336, -0.0251159035, -0.0433034636, -0.0001419709, 0.0435689166, -0.0126732234, -0.0072418838, -0.0696527660, 0.0605846792, -0.0047471155, 0.0327002108, 0.0620503575, -0.0426682197, 0.0722890571, -0.0687085539, -0.0801097080, -0.0798496455, -0.1702769697, -0.1245687082, -0.0060182745, -0.0085718744, -0.0172036216, 0.0216451492, -0.0713209435, -0.0332006738, 0.0225935541, -0.0045889793, 0.0123546794, -0.0675571561, -0.0049833297, -0.1251755059, -0.0873919576, -0.0494247340, -0.0028670030, -0.0817008838, 0.0155548509, -0.0498256125, 0.0219694488, 0.0125485417, 0.0296924748, -0.0686727092, 0.0458719879, -0.1037421376, -0.1337466836, -0.0629370064, -0.0857310668, -0.1464609653, -0.0762047693, -0.0186763331, -0.1216229796, -0.0810868815, -0.0024186927, -0.0885434672, -0.1315270215, -0.0486749038, -0.0023757792, -0.1325893849, -0.0744945779, -0.1048190743, 0.0056743328, 0.0271310043, -0.0790461153, 0.0197872892, 0.0618462451, -0.0107393060, 0.0982732400, 0.0804756209, 0.0332064256, -0.0453494526, 0.0255662892, -0.0181374364, -0.1205725893, -0.1416163146, -0.0254271235, -0.0938465223, -0.0363523997, -0.0293137450, -0.0144786919, 0.0136729535, -0.0066211009, -0.0047627916, -0.0904733688, -0.0843477473, -0.1184728891, -0.0345590636, -0.0569785759, -0.0622753054, -0.0405525006, 0.0335260220, -0.0363880768, -0.0202820711, -0.0652507842, 0.0235064067, 0.0604227036, -0.0547912493, -0.0705022141, -0.0347839445, -0.0558005422, -0.0527990311, -0.0128270546, -0.1148662120, -0.1582879871, -0.1307285279, -0.0813224837, -0.0805617496, -0.0402556434, -0.0998491123, -0.0728386566, 0.0036253158, -0.0360060632, -0.0430330113, -0.1083849445, 0.0013463042, -0.0617094971, -0.0686337724, -0.0674463138, 0.0107262395, -0.0195882805, -0.0754358172, 0.0770875514, 0.0918294415, 0.0913535431, 0.0082272384, -0.0684782937, 0.0223380122, 0.0416814163, -0.0947200879, -0.0017916127, -0.0808497816, -0.1041750014, -0.0931796581, -0.0971632376, 0.0033109714, -0.0860462189, -0.0665675402, -0.0997929350, -0.0100325681, 0.0189256743, -0.0862497687, 0.0257182866, -0.0655059218, -0.0233178735, -0.0248288941, -0.0405897908, -0.0124451704, -0.0668562576, -0.0425719656, -0.0825504959, -0.0114688510, -0.0210875887, 0.0156886335, -0.0741127431, -0.0576018095, -0.0928861275, -0.1256627440, -0.1488723159, -0.0940638334, -0.0384357311, -0.1073175371, -0.0023147105, -0.0951419249, -0.0113929743, -0.0657056794, -0.0707344115, -0.0600839965, -0.0925191715, -0.0028270977, 0.0086627714, -0.0739123076, -0.0971056074, -0.1235140041, -0.0848163441, -0.0508462265, -0.0167584065, 0.0039667203, -0.0519946590, 0.0589857139, 0.0946133509, 0.0828807577, -0.0709690973, -0.0214819275, -0.0628159046, -0.0075030616, -0.0703884810, -0.0964385644, -0.0091279885, -0.0171387233, -0.0357163958, 0.0275803898, -0.0655181929, 0.0017238221, -0.0732058659, -0.0118761156, 0.0168123040, 0.0057044425, -0.0486129038, -0.0326242037, -0.0599941686, -0.0937951431, -0.0946472138, -0.0692535341, -0.0548774898, -0.0649418831, -0.0004778681, -0.0217489898, -0.0113413110, -0.0515027680, -0.0854715630, 0.0162793901, -0.0783354118, 0.0066957562, -0.0810020193, -0.0887092575, -0.0793158337, -0.1000213400, -0.0953774974, -0.0188087728, -0.1103168055, -0.0893355310, -0.0686505511, -0.1235795394, -0.0314255320, -0.0244672615, -0.1153789163, -0.0956941172, -0.0465344600, -0.0621586256, -0.0580742173, -0.0879322886, -0.0759917274, -0.1089028269, -0.0540739261, -0.0420727693, -0.0423873514, -0.0116883460, -0.0802262276, -0.0267568268, 0.0325279087, -0.0807152539, -0.1018793732, -0.0000847446, 0.0066572009, -0.0493638255, 0.0165615510, -0.0237412807, -0.1338778883, -0.1097222120, -0.0872891247, -0.0229676533, -0.0115885958, 0.0081522316, -0.0151099954, -0.1204157323, 0.0087348893, 0.0233082790, -0.0954317972, -0.1175646111, 0.0177506451, -0.1316763461, -0.0339610539, -0.0477341376, -0.0063007460, -0.1278747618, -0.0234361738, -0.0033267243, -0.1179314405, -0.0924173594, -0.0366377234, -0.0792015567, -0.0704652220, -0.0184626747, -0.0161866695, -0.1256641299, -0.0468631499, -0.0888850689, -0.0670098588, -0.0829149857, 0.0113298381, -0.1144216880, -0.0327979997, -0.0061747083, -0.0752244219, -0.1069416106, -0.1311994791, -0.0550506227, -0.0811627060, -0.1120669395, -0.1239749715, -0.0259714741, -0.0575482622, 0.0133325113, 0.0156701617, -0.0704958141, -0.0984156281, -0.1318715215, -0.1265906096, -0.0893662348, 0.0198636502, -0.0789377093, -0.0882398635, -0.0782590434, -0.1343445927, -0.1151919067, -0.0547500551, 0.0298934728, -0.0519609302, -0.0418673493, -0.0677828565, -0.0306570251, -0.0407413952, -0.0476082973, -0.1018427089, -0.0703177154, -0.0526671447, -0.0607259236, -0.0001818073, -0.0217003692, -0.0955054536, -0.0623732284, -0.0083436863, -0.1156722605, -0.0782342553, -0.0880477875, -0.1212696135, 0.0180517137, -0.0709654018, -0.0020461234, -0.1026543155, -0.1093563586, 0.0022133759, -0.0802291855, -0.1073310673, -0.1189630926, -0.0450265929, -0.0305969026, -0.0901370049, -0.1228831559, -0.0217064098, -0.1044457778, -0.1252769530, -0.0837018266, -0.0937094167, -0.1315945238, 0.0150347576, -0.1186764538, -0.0993193015, -0.1096700951, -0.0363289118, -0.1294940561, -0.1219822764, -0.0974343717, -0.0135585023, -0.0932836980, -0.0519813783, -0.0488232709, -0.0036510888, -0.1246449500, -0.0126074795, -0.0396723673, -0.1355757415, -0.0968143344, -0.0629892871, -0.0764683485, -0.0583826192, -0.0588071384, 0.0051636095, -0.0133299362, -0.0067224028, -0.0821037218, -0.1295016855, -0.0866309851, 0.0021765914, -0.1260472238, -0.0821963474, -0.0457393527, -0.0542959534, 0.0110621974, -0.0440532938, -0.1175800636, -0.1123706102, -0.0454342254, -0.1237940788, -0.0632386580, 0.0124403900, -0.0430601165, 0.0064069605, -0.0184028894, -0.0800879970, -0.0242896080, -0.0933257118, -0.0378586315, -0.0643353835, -0.0220196676, -0.0332448520, -0.0661608577, -0.0957289785, 0.0161206722, -0.0132750552, -0.0217510778, -0.0278289784, -0.0712440535, 0.0333561562, -0.0819089711, -0.0098968698, -0.0088709444, -0.0240730178, -0.0170695502, 0.0225939583, -0.0211061370, -0.1394081414, -0.1287118644, -0.0315265208, -0.1024209857, -0.0298448317, -0.0863402784, -0.0655611753, -0.0302801561, -0.0998047143, -0.1175021678, -0.0085391821, -0.1235574111, -0.0520084314, 0.0025083176, 0.0154030155, -0.1145266965, 0.0014961160, -0.0429987200, -0.0641595051, -0.0900517330, -0.0665905252, -0.0667989403, 0.0034875211, 0.0149474582, 0.0234058574, -0.0144150695, -0.1032447070, -0.0055500846, 0.0226847064, -0.0782775953, -0.0406712256, -0.1072442308, 0.0233882163, -0.0208385047, -0.1277456880, -0.1113713533, -0.0567283742, -0.1277226806, -0.0932975635, -0.1198896989, -0.1164187565, -0.0413302332, -0.1009635404, -0.0206173044, -0.0690090358, 0.0533210151, 0.0232711006, -0.0735775530, -0.0409550592, -0.0511060208, -0.0219490156, -0.0581299365, -0.0250792429, 0.0434431843, -0.0837613121, -0.1026319787, -0.0801530108, -0.0485824384, 0.0369218290, -0.0878632367, -0.0407953486, -0.0489064828, -0.0296139978, -0.0761068910, 0.0142421350, -0.0881085917, -0.0344016887, -0.0144692520, -0.0437324755, -0.0629923567, -0.0042216135, -0.0494624972, 0.0087749418, 0.0429354273, 0.0392001569, -0.0146688167, -0.0819191709, -0.0421414822, 0.0379477888, -0.0452622548, 0.0692733377, 0.0730081722, 0.0350713655, -0.0664630607, 0.0490605235, 0.0255232546, -0.0485429615, 0.0381396823, -0.1006988063, -0.0479389653, -0.0495641790, -0.0967345983, -0.1277110875, -0.0309142414, 0.0101400660, 0.0298416521, -0.0531313270, -0.0589400195, -0.0523624532, -0.0773794949, 0.0528341271, -0.0365629829, -0.0598452203, 0.0103259562, 0.0770578980, 0.0776931942, 0.0579163507, 0.0599406436, -0.0104888985, -0.0388789475, 0.0017211839, 0.0229407381, 0.0327311717, -0.0683126077, 0.0533014275, -0.0530865937, 0.0096806912, -0.0227784403, -0.0042715725, -0.0051525948, -0.0956887007, -0.0170248095, -0.0723578334, -0.0813177377, 0.0388275646, 0.0153328003, -0.0920913666, 0.0262038596, -0.0150533151, 0.0757291690, 0.0961203650, 0.0421313420, 0.0253852662, -0.0640848950, 0.0059811850, -0.0617481954, 0.0876959711, 0.0345138758, 0.0040437337, 0.0319432579, 0.0045892084, -0.0330744348, -0.0727598071, -0.0163541809, -0.1180927604, -0.0602408797, -0.1184273437, -0.1193223074, -0.0786135942, -0.0663958564, -0.0073827626, -0.0964551196, -0.0686020032, -0.0458799191, -0.0703908578, -0.0346966907, 0.0637390688, 0.0876858979, -0.0360958800, -0.0754725412, -0.0614443198, -0.0751079991, -0.0967895463, -0.0721428692, 0.0833411217, 0.1028818786, 0.0006787866, -0.0508802645, 0.0371103436, -0.0100732744, -0.0332425758, 0.0037622335, -0.0704880655, -0.0713941827, -0.0085013788, -0.1216347441, -0.0700047165, -0.0612389259, 0.0117017906, -0.0810563341, -0.0760182664, 0.0032695893, -0.0448895060, 0.0085532339, -0.0553569570, -0.0449971519, 0.0236733984, 0.0433243439, 0.0492309630, -0.0123693794, 0.0088103274, 0.0128513230, -0.0132032754, 0.0439064242, 0.0246042460, 0.0472157076, -0.0354734212, 0.0024613037, 0.0168714318, -0.0465140156, -0.0269436128, -0.0649850294, -0.0371669978, -0.0412012599, -0.1176263466, -0.1067477167, -0.1101739705, 0.0406608842, 0.0255746450, -0.0568852983, -0.0200369842, 0.0156019693, -0.0253579766, 0.0650151819, 0.0343360379, 0.0487719290, -0.0562965162, -0.0048300261, -0.0502437279, 0.0283879582, 0.0616740994, 0.0369854532, 0.0306067131, 0.0027074118, -0.0058734752, 0.0238031205, -0.0717625692, -0.0175197143, -0.0472799130, -0.0703296363, -0.0049704402, -0.0450221747, -0.0894214734, -0.1104865298, -0.0527224243, -0.0901586339, -0.0773028284, 0.0246541575, -0.0428999625, -0.0476785563, 0.0419681333, -0.0273363553, 0.0250939596, 0.0240435433, 0.0436375104, -0.0441685095, 0.0140532469, -0.0196954086, -0.0460743941, -0.0229639858, -0.0286884420, -0.0739589706, 0.0248004887, -0.1294424832, -0.0638023838, -0.0924008414, -0.0640535951, -0.0128409052, -0.0794207305, -0.0042167474, -0.0295506772, -0.0572767369, 0.0052993963, -0.1230812222, -0.1043435112, 0.0283699464, 0.0582786612, 0.0149381105, -0.0102099171, 0.0209742319, 0.0514338762, -0.0453677475, 0.0015519856, -0.0221367199, 0.0563230775, 0.0471629128, -0.0399285033, 0.0823251531, 0.0259874966, -0.0377990492, -0.0084863398, 0.0206443444, -0.0458742492, -0.1130954251, -0.1154039875, -0.0209612064, -0.1166634038, -0.0156810451, -0.0485798754, -0.0455289148, -0.0514139012, 0.0113813020, -0.0656809062, 0.0220758710, -0.0638906658, -0.0544430092, 0.0415768251, 0.0528609678, -0.0491050258, 0.0588138252, -0.0710910410, -0.0463998392, -0.0014025070, 0.0733866692, 0.1019092649, 0.0021918300, -0.0623136312, -0.0844606161, 0.0374491401, -0.0129043097, -0.0929588526, -0.0236143395, -0.0270294007, -0.0770454854, -0.0679221824, -0.1166767925, -0.0370528698, -0.0253446829, -0.0984071046, 0.0087348241, -0.0031477460, -0.0612579398, -0.0002960277, -0.0013442996, -0.0755302683, -0.0729162171, -0.0763674304, -0.0746884793, -0.0502248108, 0.0484887213, -0.0339183845, -0.0521759167, 0.0171912499, -0.0133500965, 0.0599426068, -0.0346605331, 0.0424761921, -0.0132450247, -0.0047130636, -0.1011087894, -0.0434219539, -0.0137792118, -0.0887767151, 0.0040303604, -0.1244256720, -0.0610124171, 0.0032972463, -0.0630597249, 0.0341816992, -0.0444717780, 0.0550146438, 0.0614164807, 0.0617177188, 0.0395983607, -0.0508525334, -0.0160476230, -0.0159707982, -0.0064965091, -0.0548182838, 0.0614133030, 0.0296144355, -0.0710588843, -0.0528807305, 0.0338728987, -0.0072459630, -0.0661112070, -0.1046365425, -0.0079434104, -0.0503702126, -0.0980813727, -0.0802919418, -0.0595487468, -0.1063115001, -0.0451130234, -0.0311999135, -0.0129878465, -0.0378642306, 0.0432589240, -0.0589152128, 0.0499770977, -0.0409453623, -0.0405904911, 0.0160890054, -0.0498491488, -0.0591582917, -0.0032570790, 0.0429766513, -0.0245580431, 0.0078786397, 0.0365723856, 0.0647298098, -0.0588462017, -0.0631659552, -0.0225536469, -0.0124019897, -0.0141097307, -0.0244160946, -0.0511042774, 0.0132272383, -0.0345850252, 0.0023478391, -0.0990422741, -0.0578693487, -0.0736523643, -0.0523450151, -0.0756281540, -0.0853727087, -0.0116982553, -0.0484269634, -0.0303886291, 0.0631694421, -0.0499484986, -0.0284447074, 0.0214619618, -0.0352678448, 0.0338509791, -0.0749215856, 0.0633299947, 0.0560973994, -0.0700127110, 0.0231228527, -0.0838429332, -0.0512066856, -0.0496516563, -0.0257132445, 0.0018932628, -0.0817840323, -0.0736707225, 0.0105876373, -0.1069471017, -0.0804573745, -0.1237029508, -0.0152572701, -0.0065943375, -0.0964500234, -0.0924308300, -0.0252345875, -0.0834397897, 0.0633747578, 0.0194864422, 0.0395405851, -0.0161468852, 0.0831981897, 0.0184974801, -0.0359890051, 0.0365665294, -0.0885456204, 0.0161337331, -0.0271322876, -0.0354844332, -0.1158280522, -0.0827841312, -0.0130784623, -0.0843135864, -0.1179081574, -0.0287397653, 0.0082069179, -0.0657762811, 0.0178609565, -0.0678813159, -0.0516200848, -0.0440670103, -0.0018362871, 0.0431458801, 0.0067340806, -0.0757812262, 0.0640335456, -0.0185477231, -0.0893785432, 0.0529854558, 0.0383006670, -0.0600653328, -0.0850257576, 0.0239946693, 0.0206898395, -0.0684967712, -0.0046234340, -0.0731260851, -0.0474918485, 0.0115134222, -0.0276629068, -0.0821188688, 0.0178659391, 0.0172530040, -0.0839153528, -0.0768330768, -0.0975017920, -0.0107851075, 0.0089756222, -0.1163724735, 0.0346442163, -0.0482709669, 0.0026105708, -0.0026210819, -0.0652959868, 0.0206006318, -0.0167515613, 0.0678565577, 0.0548425280, -0.0824045390, -0.0574700534, -0.0385730527, -0.0842490941, -0.0177741162, -0.0283415057, -0.0022112413, -0.0379374027, -0.1178380176, -0.0822758302, 0.0228867494, -0.1001959667, -0.0127646290, -0.1144135147, 0.0074170819, -0.0244190674, 0.0130273309, 0.0246340502, -0.1249980703, -0.0613239184, 0.0172818471, -0.0827944279, 0.0326486416, 0.0207290705, -0.0025261191, 0.0126750795, 0.0158373639, 0.0660812110, 0.0097378921, -0.0654100403, 0.0312922746, 0.0287772678, 0.0255506765, -0.0421982743, -0.1245029643, -0.1036735550, 0.0026479936, -0.1118805930, -0.1075823456, -0.0082973875, -0.1306750178, 0.0155593902, -0.0715047941, -0.1262292117, -0.0778131932, -0.0177963581, -0.0087294234, -0.1204524189, -0.0903454721, -0.0035123839, -0.0583465919, 0.0648929104, 0.0485789441, -0.0605158508, 0.0069995373, -0.0183195025, 0.0611336753, -0.0581196994, -0.0648412779, 0.0460593924, -0.0774664432, -0.0189062357, -0.1146970540, -0.1126053557, -0.0407791585, -0.0633602366, -0.0520357415, -0.1109903604, 0.0163310934, -0.1251319647, -0.1014916375, -0.0589544773, 0.0009540537, -0.0328686349, -0.0673184544, -0.0121020069, 0.0129848868, -0.0611162484, 0.0298834182, -0.0690043271, -0.0222844370, -0.0665594488, -0.0189279728, -0.0735200644, -0.0305225067, -0.0987069085, 0.0027427895, -0.0840856209, -0.0982733145, -0.1041098610, -0.0922981501, -0.0785929710, -0.1098999307, 0.0016092977, -0.1049011126, 0.0042052590, -0.1336448044, -0.0091230813, -0.0777795464, -0.0274695996, -0.0389284045, 0.0176562518, -0.1056416631, -0.0944989771, -0.0129960794, -0.0112823872, -0.0252051298, -0.0099049490, -0.0184235126, 0.0144182546, -0.0721346736, -0.0856021568, -0.0592440441, -0.0273586325, -0.0790253133, -0.0237478614, -0.0646843091, -0.0039341846, -0.0606080592, -0.1239602566, 0.0156514887, -0.1029583216, 0.0161914807, -0.0132011408, -0.1032822579, -0.1001143232, 0.0063727517, 0.0051064352, -0.1227816865, 0.0157580338, -0.0776328519, -0.0932051763, -0.0932238325, -0.0872886032, -0.0799538791, -0.0768965110, 0.0044656275, -0.1305929571, 0.0099216243, -0.0660104826, -0.0009607135, -0.0772065297, -0.0145423263, 0.0051043760, -0.0710019022, -0.0967543796, -0.1031927839, -0.0438396558, -0.1287098229, -0.0046051010, -0.0016120949, -0.1202520877, -0.0622099191, 0.0322993286, 0.0039360533, 0.0689272061, -0.0316045880, 0.0753836483, 0.0741681904, -0.0750077367, -0.0291462298, 0.0162774865, -0.0452209488, -0.0084402952, -0.0124244159, -0.0339020342, -0.0755316764, -0.0217743684, 0.0672130510, 0.0194804780, -0.0378288589, 0.0389071703, 0.0335498415, -0.0639742240, 0.0485054292, 0.0495724306, 0.0767953247, -0.0568536073, -0.0558139533, -0.0100870719, -0.0005254374, 0.0356053300, -0.0387634709, -0.0805174336, -0.0160987005, 0.0137982359, 0.0304772481, 0.0216219816, 0.0047324887, 0.0404049680, -0.0788158625, -0.0065587554, 0.0226125140, 0.0208212323, -0.0488778166, 0.0342954770, -0.0326741487, -0.0773349479, -0.0356584936, 0.0295655541, 0.0714055002, 0.0175435357, 0.0059578540, 0.0327081569, 0.0065260748, 0.0033325937, -0.0593244247, 0.0066207582, 0.0255919080, -0.0550494716, 0.0797918141, -0.0287214257, 0.0216206815, -0.0121761654, 0.0800734013, -0.0564425178, -0.0193550233, 0.0404168740, -0.0366711803, -0.0301863514, 0.0668145791, -0.0676090494, 0.0713063702, 0.0161795579, 0.0339243561, -0.0526349843, -0.0657954067, 0.0452701785, 0.0734690502, -0.0467305146, -0.0055629532, 0.0493034124, 0.0198371802, -0.0688318014, 0.0512283146, -0.0020323645, -0.0431130640, 0.0086311344, 0.0408052728, 0.0388512574, -0.0151876872, 0.0220455695, -0.0304927696, 0.0088023320, -0.0126021802, 0.0716700554, 0.0100846142, -0.0059864265, -0.0083090439, -0.0024916769, -0.0657565072, -0.0226491615, 0.0417044088, 0.0748827681, -0.0790584311, -0.0161677860, -0.0494525395, 0.0197713934, -0.0634924993, 0.0003360337, 0.0228802171, -0.0574297719, -0.0576014034, -0.0629033968, -0.0418201089, -0.0067188372, -0.0598459393, 0.0743323341, 0.0644816086, -0.0377839133, 0.0419663340, -0.0393217020, 0.0028909852, -0.0500195585, 0.0664084256, -0.0809253678, -0.0010975223, 0.0641048476, -0.0689059570, -0.0045768265, 0.0769533962, 0.0579122826, 0.0138517069, -0.0215064678, 0.0295608491, 0.0445112661, 0.0110902404, 0.0397581607, 0.0476943851, 0.0343467817, -0.0583561473, -0.0732925385, -0.0033450876, -0.0533814430, -0.0784877539, 0.0229855664, 0.0525685400, 0.0744674727, -0.0757343471, 0.0552119464, -0.0081379320, 0.0675693676, -0.0391815640, 0.0562369339, -0.0131401876, -0.0608726479, -0.0586668439, -0.0511551425, 0.0056601111, -0.0135760400, -0.0583247505, 0.0007237603, 0.0385510512, -0.0678100809, -0.0770588368, 0.0641666278, -0.0621557459, -0.0027442821, 0.0599344894, -0.0153079685, -0.0664538816, 0.0534202456, 0.0393201895, 0.0346152037, -0.0070332214, -0.0616126396, -0.0133002466, 0.0200746451, 0.0647506565, 0.0280731134, 0.0705774054, -0.0066079767, -0.0633320138, -0.0092207948, 0.0286000166, 0.0221809186, 0.0165880378, 0.0238577537, 0.0720316023, -0.0688695908, -0.0634836927, -0.0747104213, 0.0631817356, 0.0639369041, -0.0168855228, 0.0057391943, 0.0180566553, 0.0186914112, 0.0392468870, 0.0153689226, 0.0005993468, -0.0351924598, -0.0213264972, 0.0043816101, 0.0112108262, -0.0810229555, -0.0548731759, 0.0585435554, 0.0536648333, 0.0311481319, 0.0853575394, -0.0020067773, -0.0690394491, -0.0537142195, -0.0347872749, 0.0638590083, -0.0759059936, -0.0887256488, 0.0472791679, -0.0345337577, -0.0020579342, 0.0411951467, 0.0732720047, -0.0495141819, 0.0350497141, 0.0279742684, 0.0729007274, -0.0550298579, 0.0751225501, -0.0761974752, -0.0465094559, 0.0219272841, 0.0689244345, 0.0073520625, -0.0684537292, 0.0840465873, -0.0217343438, 0.0408332311, 0.0758068338, -0.0586736314, 0.0031486396, -0.0103836246, 0.0478905626, -0.0346092358, 0.0581889600, -0.0154031161, 0.0015487629, -0.0174950436, 0.0098699313, 0.0124700908, -0.0229207538, -0.0192860607, -0.0569030941, 0.0700141042, -0.0515611656, -0.0568631329, 0.0524391457, -0.0513933301, 0.0403076671, 0.0166571140, -0.0263962410, 0.0548234545, 0.0769907385, -0.0806513727, -0.0111944927, 0.0363976210, -0.0882027671, 0.0233170278, -0.0274491142, -0.0706211701, -0.0310724042, 0.0920771509, -0.0012475000, 0.0441662259, -0.0386332013, 0.0544265062, -0.0742205679, 0.0073327338, -0.0218556095, 0.0129549401, -0.0119547471, 0.0067111459, -0.0739913285, -0.0047030482, -0.0366942696, -0.0645896047, -0.0215436574, -0.0795247853, 0.0609718673, 0.0706664100, 0.0766068250, -0.0216485225, -0.0587391816, 0.0823482871, 0.0183750205, -0.0063181832, -0.0464820042, -0.0139460042, 0.0030298037, -0.0105999373, -0.0721997842, -0.0221343916, -0.0627457127, 0.0483409576, 0.0754470602, 0.0717478022, 0.0488843694, -0.0532649830, 0.0450710654, 0.0317666084, -0.0780601278, -0.0655763373, -0.0527919196, 0.0704923794, -0.0495271087, 0.0586220920, 0.0590866953, 0.0365188457, 0.0220812056, -0.0263518337, -0.0122770872, 0.0367516652, -0.0100019835, 0.0006022184, -0.0171448179, 0.0760274976, 0.0732283518, -0.0693487972, -0.0802920237, -0.0194164608, 0.0468539149, 0.0258308481, 0.0316367112, -0.0041061915, 0.0748750716, 0.0494062267, 0.0067678308, -0.0088837259, -0.0027174510, 0.0033538649, 0.0768959224, -0.0004025187, 0.0775962546, 0.0532457866, -0.0433347188, -0.0731258616, -0.0620544627, 0.0301952586, 0.0655140057, -0.0286496412, 0.0468472131, 0.0144214602, -0.0821623728, -0.0515376665, -0.0607218668, -0.0639697760, 0.0514516272, 0.0080938032, -0.0294481907, -0.0572313890, 0.0029784630, -0.0544169545, 0.0667887256, -0.0796034113, 0.0251565054, 0.0471863672, -0.0734234154, 0.0401641503, 0.0313402303, -0.0637333617, -0.0787284598, -0.0158406273, -0.0509946942, -0.0325304680, -0.0102075581, 0.0800787732, -0.0025532120, -0.0177911110, 0.0419458896, 0.0432693362, -0.0477049910, 0.0669453368, 0.0218331553, -0.0121279489, 0.0546402112, -0.0034752267, -0.0186636262, -0.0517517962, 0.0277673285, -0.0780140907, 0.0555319451, -0.0232386813, -0.0210147891, 0.0469107367, 0.0629613176, -0.0502102152, -0.0674207583, 0.0067902082, -0.0119670322, 0.0730749667, 0.0791775659, 0.0615388975, -0.0319892727, 0.0144889671, -0.0349876210, -0.0479990281, -0.0065983380, 0.0576699749, -0.0153100798, 0.0213856511, -0.0388628207, -0.0628637895, -0.0507336669, 0.0336550847, 0.0264165699, -0.0557529144, 0.0668736771, 0.0616635270, -0.0617607646, 0.0421091989, -0.0273939371, 0.0075316308, 0.0536523424, -0.0555897951, -0.0259458572, 0.0053105508, -0.0695373490, 0.0655015782, 0.0686920732, -0.0467497706, -0.0732846037, 0.0762527958, 0.0652741492, -0.0554394387, 0.0373878106, -0.0610799342, -0.0025218108, 0.0701376647, -0.0222062431, -0.0387978852, -0.0714134723, -0.0168480985, 0.0144693563, -0.0757111609, -0.0574718677, -0.0174202025, 0.0296589527, -0.0745372698, 0.0580071807, -0.0126065724, 0.0789167657, -0.0163188484, 0.0586307906, 0.0413723141, 0.0572391152, 0.0672819391, 0.0255618934, -0.0638303831, 0.0763873383, -0.0064252722, 0.0777821094, 0.0038946795, -0.0019429908, -0.0331180617, 0.0610710084, -0.0706814677, -0.0585506968, -0.0788207799, 0.0477159098, -0.0080080703, 0.0738320500, 0.0345853008, 0.0441612937, 0.0520841666, -0.0303527638, 0.0397407413, -0.0307063311, 0.0694859475, 0.0300979596, 0.0424620323, -0.0037113416, -0.0770963728, 0.0671502501, -0.0175193977, 0.0125532849, 0.0833152682, 0.0033735512, 0.0775006264, 0.0021565517, -0.0808875412, 0.0133256493, 0.0025433102, 0.0286939684, -0.0210696068, -0.0499929264, -0.0561087802, -0.0052382383, 0.0022783754, 0.0426219143, 0.0257558227, -0.0308830645, 0.0083333943, 0.0199946929, -0.0496676639, -0.0801889375, 0.0423108488, 0.0403329991, 0.0353908613, -0.0792047977, -0.0221119672, -0.0210261252, -0.0672956109, 0.0149504393, 0.0103175798, 0.0701724440, -0.0447368436, -0.0151273627, -0.0354334190, -0.0580282286, -0.0926320478, 0.0724785924, -0.0555444099, -0.0440375954, 0.0604100749, -0.0404406525, -0.0018330313, 0.0624985062, 0.0337511450, -0.0591027997, -0.0317952670, 0.0166672580, -0.0496387184, -0.0768539011, -0.0744477883, 0.0044207573, 0.0719928220, -0.0191368069, 0.0268523078, 0.0574894473, -0.0024325955, 0.0417759158, 0.0663256720, 0.0717253610, 0.0670184046, -0.0773438290, -0.0268866699, -0.0080450261, -0.0596810095, -0.0631885007, -0.0354809463, 0.0574374199, -0.0560115464, -0.0688688979, -0.0134558231, -0.0610616729, -0.0616823435, -0.0611389354, -0.0156271867, -0.0211504921, -0.0406688303, 0.0128112426, 0.0499821864, 0.0608745590, -0.0222914182, 0.0198433641, -0.0388757661, -0.0452174582, 0.0047064177, 0.0803417116, -0.0207534861, -0.0593141653, -0.0662015080, -0.0249567479, -0.0250803661, 0.0285481736, -0.0286168661, 0.0250309203, 0.0248860363, 0.0619862303, -0.0419394821, -0.0557995588, -0.0662744567, -0.0119953202, -0.0264510997, -0.0252410974, 0.0674846917, 0.0658548623, -0.0467097685, -0.0195941795, -0.0016336705, -0.0687783360, 0.0102266874, 0.0037516963, -0.0427800789, 0.0791301131, 0.0722134262, 0.0255917907, -0.0802792087, -0.0145804277, -0.0409111008, -0.0630883127, 0.0252412353, -0.0911413580, 0.0591193512, 0.0405205935, -0.0494181439, 0.0269497689, 0.0762509108, -0.0233411919, 0.0715613291, -0.0758380368, 0.0153929768, -0.0335203484, 0.0215532854, -0.0384671651, 0.0121538937, -0.0094533209, -0.0318936147, -0.0008993763, -0.0282518342, -0.0159301125, -0.0303068198, -0.0741175488, 0.0262933690, 0.0179616939, 0.0410836972, -0.0742916837, -0.0080629988, -0.0638794228, -0.0844528526, -0.0309752636, 0.0508426204, -0.0082715750, 0.0753874406, -0.0363216475, -0.0780213773, 0.0562228374, -0.0134292385, 0.0548677407, 0.0667301565, -0.0331796370, 0.0665938780, 0.0229513012, 0.0456117019, 0.0606195554, -0.0148735614, -0.0083920434, 0.0590657406, 0.0773606598, 0.0529351756, -0.0777135864, 0.0537813082, -0.0336572975, -0.0181568116, 0.0161744859, -0.0468795225, -0.0794658735, 0.0136383129, 0.0441291258, -0.0684741214, 0.0165523365, -0.0001774519, 0.0794956461, -0.0512577333, 0.0043954607, 0.0606409945, -0.0276762526, 0.0429612361, -0.0182921197, -0.0744053572, 0.0409913585, 0.0276542474, -0.0237000678, 0.0295083523, 0.0208294336, -0.0652518570, -0.0692788810, 0.0413246118, 0.0494312830, 0.0403926298, -0.0165615529, 0.0213882104, -0.0617561154, -0.0686438233, -0.0330151431, -0.0349965319, -0.0027377149, 0.0151947578, 0.0664684772, -0.0656197220, 0.0378566720, 0.0739460662, 0.0457720570, -0.0275404714, 0.0738187730, 0.0485364720, 0.0545028113, 0.0624123961, -0.0201696474, -0.0242007412, -0.0101904767, 0.0689078569, -0.0584579073, 0.0425119251, -0.0680837259, 0.0250473265, -0.0147860702, 0.0106694726, -0.0004795401, 0.0740287676, 0.0125253713, 0.0261018649, 0.0136942780, -0.0505951196, 0.0621911548, -0.0525942333, 0.0716558993, -0.0008434463, -0.0442622602, 0.0144769801, -0.0395447016, -0.0777622536, 0.0565767474, 0.0027075922, 0.0269916411, -0.0120463362, 0.0309243798, 0.0386673771, -0.0526955985, 0.0305621028, 0.0512053743, 0.0685063824, 0.0224123709, 0.0649792477, 0.0488622338, 0.0540347323, 0.0636603609, -0.0204554107, -0.0010649182, -0.0780148581, 0.0639353320, 0.0607511140, -0.0041404446, -0.0221086256, -0.0527293086, -0.0507511497, 0.0559404083, -0.0780256391, 0.0766142085, -0.0579592474, 0.0541796759, 0.0085971728, 0.0226415042, 0.0679335222, -0.0543753281, 0.0339439511, -0.0412638560, 0.0301632248, -0.0465206318, 0.0656824484, 0.0738047659, -0.0699859336, 0.0749818534, -0.0614572167, 0.0548955239, -0.0410838649, 0.0505935960, 0.0449167676, -0.0703506544, -0.0815887079, 0.0424099974, 0.0508089326, 0.0287517179, 0.0289584082, -0.0644794777, -0.0062220725, 0.0343138836, -0.0548019111, 0.0723321214, -0.0225314368, -0.0001510428, 0.0535503402, 0.0249436609, -0.0221857876, -0.0140344165, -0.0130317053, -0.0798036978, -0.0151358498, -0.1328595877, -0.1161656529, -0.0534972399, -0.0209037215, -0.0743438154, -0.1390870363, -0.1033219099, -0.1360368580, -0.1230382249, -0.0917213261, -0.0478900187, 0.0055629318, -0.0775385574, -0.0601427779, -0.0780444965, -0.0904590935, -0.0644210204, -0.1009105369, -0.0750795826, -0.0239065271, -0.0003509640, -0.0332688279, -0.1284565181, -0.0882806331, -0.0215755422, -0.0230465624, -0.0974609256, -0.0336194411, -0.1206395328, -0.1054209918, -0.0168501828, -0.1290367842, -0.1323107332, -0.0311332941, -0.1081537008, -0.0817061216, -0.0032576141, -0.0307734665, 0.0076273703, -0.0853344798, 0.0128258634, -0.0288262460, -0.0654251724, 0.0108937062, -0.0294399932, -0.0934817046, -0.0740066618, -0.1249720007, -0.0401845351, 0.0024922690, -0.0535370409, -0.0764983967, -0.0400638282, -0.1315750480, -0.0019175063, 0.0131335221, -0.0417528786, -0.0090984069, 0.0075162747, -0.1311789900, -0.0623364598, -0.0051721316, -0.0569150597, -0.0152826002, 0.0069036735, -0.0073025650, -0.0507431664, -0.0913991481, -0.0530554503, -0.0612498336, -0.0705906898, -0.0147650568, -0.1007195562, -0.1024026945, -0.0529626310, -0.0644032583, -0.1418011785, -0.0016260694, -0.0580209829, 0.0033398890, -0.1182269529, 0.0054428359, -0.0546847694, -0.0533811525, 0.0122338971, -0.0779267177, -0.1031206921, 0.0114818290, -0.1280585974, -0.1030085236, -0.0705191344, -0.1032194272, -0.0309378002, -0.0008009148, -0.0981864184, 0.0252412595, 0.0359600671, -0.0561955869, 0.0287013128, 0.0420415513, -0.0116276154, -0.0526109636, -0.0350928232, -0.0279910546, -0.1074394360, -0.0581028797, -0.0799277127, 0.0064826589, -0.1086138338, -0.0504474081, -0.0513934530, -0.0141308326, -0.0689580813, -0.0239083767, -0.0391344838, 0.0025113965, -0.0348458774, -0.0030396045, 0.0004455529, -0.1273906529, 0.0090162400, -0.1446382701, 0.0038953503, 0.0256275684, -0.0137803387, 0.0130488956, 0.0054321536, 0.0034835159, -0.0828255489, -0.1052074805, -0.0233014449, -0.0707034394, -0.0095118973, -0.0390797481, 0.0106050624, -0.0023641400, -0.0472724251, -0.0584104061, 0.0042189932, -0.0990506187, 0.0141878892, -0.0074142157, -0.0428094566, -0.1245082170, -0.0799740106, -0.0214562397, -0.1061361060, -0.1238153055, -0.1211798117, -0.0263418201, -0.0138502046, -0.0499734022, -0.0255517066, -0.0870853662, -0.1126183867, 0.0093455836, -0.0477264151, -0.0750850141, 0.0129519887, -0.1457555443, -0.0957851484, -0.0409190245, -0.1226990744, -0.0831661373, -0.0872031301, -0.0563554652, -0.0835087597, 0.0089640841, -0.0079727881, -0.0044422359, -0.0114458771, -0.1099513248, 0.0111493999, -0.1310707480, -0.1301197708, -0.0139681157, -0.1014094874, -0.1036544144, -0.0866380334, -0.0452436693, -0.0557610355, -0.0005678932, -0.0374416225, -0.0464265347, -0.0206141695, -0.0479460172, -0.0431183353, -0.0892329514, -0.0615632758, -0.0710620061, -0.0504800193, -0.0641870797, -0.1096665785, -0.0317058153, 0.0045205769, -0.0201156326, -0.1170185581, -0.1084926799, -0.0374349281, -0.0202546269, -0.0079063028, -0.0101668909, -0.0294356178, -0.0118678370, 0.0450839475, -0.0291566253, 0.0317720324, 0.0661540627, -0.0595884584, -0.0522361882, 0.0685565621, -0.0146949431, -0.0222155433, 0.0054509533, -0.0744178668, -0.0685930401, -0.0319474228, -0.1004935354, -0.1173504815, -0.0249981061, -0.0288141575, -0.0755778775, -0.0779977441, -0.0331052020, -0.0198833346, -0.0325538032, -0.0329533778, -0.0652609468, -0.0377458334, 0.0014504427, 0.0334430784, 0.0382127836, 0.0512842312, 0.0286451727, 0.1013266593, -0.0333129764, 0.0883376002, -0.0046851812, -0.0439486951, 0.0537998118, -0.0325130448, 0.0013741428, 0.0595079809, 0.0222777333, -0.1192881837, -0.0880180299, 0.0057450160, -0.1187056899, -0.0880046189, 0.0125821019, -0.1442272216, -0.0425099805, -0.1361967027, -0.1303646564, -0.0419126078, 0.0509938300, 0.0042765099, 0.0282756537, 0.0847513676, 0.0380489528, 0.0810834318, 0.0234922450, -0.0317027681, 0.0697032139, 0.0328387655, 0.0747421011, 0.0023005006, 0.0686475635, 0.0938466117, 0.1104077399, -0.0381848626, 0.0342765898, -0.0252500307, -0.0143603953, -0.1318456680, 0.0032703551, -0.1422521323, 0.0002299951, -0.1172214523, -0.0803377554, 0.0000370760, -0.0127324304, 0.0362833664, -0.1057229787, -0.0826050639, 0.0669603944, 0.0797626004, 0.0500945970, 0.1042882800, 0.0670247376, 0.0651876926, 0.0208926778, -0.0379325002, 0.0161198508, 0.0131118624, 0.0523407161, 0.0733954087, -0.0024927955, 0.0981467590, -0.0144174779, -0.0384563021, -0.0637142733, -0.0467594154, -0.1295390129, -0.0770246312, 0.0089318743, -0.0617180988, -0.0446599461, -0.0796301141, -0.0654269159, -0.0856825933, -0.0029623287, 0.0258914270, 0.0416230075, 0.0030795354, -0.0156993214, 0.0642412677, -0.0123494994, -0.0176103804, 0.0415717214, -0.0959179401, -0.1054366231, 0.0632201433, 0.0944288522, -0.0159909576, 0.0441762283, 0.0718261302, -0.0598691292, 0.0251955725, -0.0168405380, -0.1480572969, -0.0277576298, -0.0913427100, -0.0078582428, -0.1192722321, -0.0504507720, -0.0127951456, -0.0487727113, -0.0820029452, 0.0084046545, -0.0661734417, -0.0116545893, 0.0946879238, -0.0571788438, 0.0164632648, -0.0260585938, 0.0120398887, -0.1017431617, -0.0591826402, -0.0782232359, 0.0620953590, -0.0543917306, 0.0182288401, 0.1205248311, 0.0848058537, 0.0266503897, 0.0233481098, -0.1080869958, -0.0074523273, -0.0523376204, -0.0127254752, -0.0106160268, -0.0176767465, -0.1416851282, -0.0469335467, -0.0863685235, 0.0033571965, -0.1078942940, -0.0022745782, 0.0443390235, -0.0076702526, 0.0310798790, -0.0185573734, -0.0242108312, 0.0063650385, -0.0171164535, -0.0882023424, 0.0149085205, 0.0200083777, 0.0548494235, 0.0518751107, 0.0092014885, 0.0728691816, -0.0673674047, -0.0876534358, -0.1510742456, 0.0089343628, -0.1311152875, -0.0402456038, -0.0020020388, -0.0868359283, -0.1382479817, -0.1279785931, -0.0715947971, 0.0029297643, 0.0273776557, -0.0223781280, -0.0419558026, -0.0352457613, 0.0131183546, -0.0355250351, 0.0378239788, -0.0476199463, 0.0331356563, -0.0694124028, -0.0490212180, 0.0883201435, 0.0337058306, 0.0681287050, 0.0516734757, 0.0343220830, 0.0079704970, 0.0640042052, -0.1242590398, -0.1068153828, 0.0093259867, -0.0237205122, -0.1129785329, -0.1189878583, -0.0579254068, -0.0781592280, 0.0021686656, -0.0978823975, -0.0768594146, -0.0271605588, 0.0883662105, 0.0958151370, -0.0083024520, 0.0169317145, -0.0399442092, -0.0561898127, 0.0345420502, 0.0320736244, -0.0042132004, 0.0470971540, 0.0553410053, 0.0216093510, -0.0689557716, 0.0342495665, 0.0028904381, 0.0435668789, -0.0929882005, -0.1393668801, -0.1018196717, -0.1187349632, 0.0146348542, 0.0106596695, -0.0365386643, -0.0224371850, -0.1197908819, -0.1306335628, -0.1057142466, 0.0141224433, 0.0506168529, 0.0211294945, 0.0339012556, -0.0324832089, 0.0035331270, -0.0687676147, -0.0454046689, -0.0861448497, 0.0301372595, 0.0007191735, 0.0707623884, 0.0892048627, -0.0674860924, -0.0854886249, 0.0330421440, 0.0145119624, 0.0145037547, -0.0762313306, -0.1205309406, -0.1408163458, -0.0404470712, -0.0979438350, -0.0932042822, -0.0447205454, -0.1357662976, -0.0009586386, -0.0787434131, -0.0533701554, -0.0375300646, 0.0795255676, -0.0580947660, -0.0228072517, 0.0268970486, -0.0970364213, 0.0161182247, -0.0152756022, 0.0640765876, 0.0894741789, 0.0046603149, 0.0264203083, 0.0471094511, 0.0244896021, -0.0917170122, -0.0402595960, -0.1315152049, -0.1068119481, -0.1216256022, -0.0452491678, -0.0644039065, -0.0740037933, -0.0447056070, 0.0035345037, -0.1326155365, -0.0542961583, -0.0596583299, 0.0009714632, 0.0267511569, -0.0008902188, -0.0780033618, -0.0824088529, -0.0142266192, -0.0361325331, -0.0679297149, 0.0355147533, 0.0454029143, 0.0217651408, -0.0070454977, -0.0554474257, 0.0166634098, -0.0531466901, -0.0050333305, -0.0006479020, 0.0039087040, -0.0069907904, -0.0298617240, -0.1143366992, -0.1392845213, -0.0151960282, -0.0337273180, -0.0048709768, -0.0841755271, -0.0654664561, -0.1264191568, -0.0801488608, -0.0654194281, 0.0461824648, -0.0418808535, 0.0152821457, 0.0363259502, -0.0586362630, 0.0233750194, 0.0062582088, 0.0909376144, 0.1061115041, -0.0418729112, 0.0545464531, -0.0599938855, 0.0274540521, -0.0622371845, 0.0361684263, -0.0973280743, 0.0174528845, -0.1366582215, -0.0683974996, -0.1320057213, -0.0687207729, -0.0544744283, -0.0743049905, -0.1430585980, -0.0361171551, -0.1449097693, -0.1035613865, -0.0829389170, 0.0120869698, -0.0572686791, 0.0169689208, -0.0735503733, -0.0751963630, -0.0080822390, 0.0091027999, 0.0003583959, 0.0040958999, -0.0584667362, 0.0349601172, 0.0272145495, -0.0270159561, -0.1214870289, -0.0207129288, -0.0870056003, -0.0144979507, -0.0136767402, 0.0165060256, 0.0156556964, -0.0088815726, -0.0441493765, -0.0874025151, -0.0277332868, -0.1411301345, -0.0561883003, -0.0335972160, -0.1357437223, -0.1217840984, 0.0263722390, -0.0203213003, 0.0061762761, 0.0634913370, 0.0813820884, -0.0246416293, 0.0439903811, 0.0585408844, -0.0584426150, 0.0426495858, 0.0687345043, -0.0959575325, -0.1081328243, -0.0069345832, 0.0202338528, -0.0471396074, -0.0821170807, -0.0738701224, -0.0522474833, 0.0054514734, -0.0943955034, -0.0068631936, -0.0527685434, -0.0657252148, -0.1048597842, -0.1500588208, -0.1476659477, -0.0518582687, 0.0139716454, -0.0001195920, 0.0151594514, -0.0210953373, 0.0346784666, 0.0072888420, -0.0401960351, 0.0286114141, -0.0619583987, -0.0044262563, 0.0042703114, -0.1062864289, -0.0969687030, 0.0096415039, 0.0121024828, -0.0851245672, -0.1117307097, -0.0965414941, 0.0011020561, -0.1442012191, -0.0776469782, -0.0581602491, -0.0634580106, -0.0459614210, -0.1362789273, -0.1134707704, -0.0951917246, -0.0015558370, -0.0642115027, 0.0089025535, 0.0214409679, 0.0875770077, -0.0256900322, 0.0430465117, 0.0276851058, -0.0962231755, -0.0430746339, 0.0659463927, -0.0796385854, -0.1203144938, -0.0406250879, -0.0280010216, -0.0878786817, -0.1372217089, -0.0303021166, -0.0126307923, -0.0527346618, -0.1302651018, -0.1411682367, 0.0052930526, -0.1125566289, -0.1177745014, -0.0306303147, -0.0736687481, -0.0074557266, 0.0279170219, -0.0313165113, -0.0176330507, -0.0014931096, -0.0007806009, 0.0985595807, 0.0478353426, 0.0587451272, 0.0994720161, -0.0203113873, -0.0604943633, -0.0396541543, 0.0149961123, -0.0714571327, -0.0818179250, -0.0050182920, -0.0976278484, -0.1441808194, -0.0427139029, -0.0095640374, -0.1382195204, -0.1126641855, -0.1170928106, -0.0501951724, -0.1330263913, -0.0001145894, -0.0295408014, -0.0711509213, -0.0266023204, -0.0816956013, 0.0287876595, 0.0012926899, 0.1111131385, 0.0389220677, -0.0490327664, 0.0088160783, -0.0243990198, -0.0737447217, -0.0304395258, -0.0660088956, -0.0564810894, -0.0068650828, 0.0261236504, -0.0522534028, -0.0274404809, -0.0691103190, -0.1365983635, -0.0697493181, -0.0707419738, -0.0244488530, -0.1052310318, -0.0747882873, -0.0466656983, -0.0170055907, -0.0381333604, 0.0013457836, -0.0940031931, -0.0657984316, -0.0187248327, -0.0301522687, -0.1174613088, 0.0073017403, 0.0336748026, -0.0315884165, -0.0569529869, -0.0653472841, 0.0263002533, 0.0135792280, -0.0558393374, -0.0067914673, -0.0563484058, -0.1169949397, -0.0933013409, -0.0829607621, -0.0633201003, 0.0074727274, -0.0186313409, -0.0210671891, -0.0054431753, -0.1170351058, 0.0000143047, -0.0969057530, -0.0697813928, -0.0373751260, -0.0128657846, -0.1428194493, 0.0096881371, 0.0063185403, -0.0795542076, -0.0635903776, -0.0695857629, -0.1046401188, -0.1329697073, -0.0219791550, -0.0332463384, -0.1385918707, -0.1135233194, -0.1225779429, -0.0491653346, -0.0668316185, -0.0408102088, -0.0863912106, -0.0345615409, -0.1444913149, 0.0035765246, -0.0459396802, -0.0267271735, 0.0186591744, 0.0298905522, -0.0039662048, -0.0759469345, -0.0411183499, -0.0777122378, 0.0271115452, -0.0423871949, 0.0455682799, -0.0120909810, 0.0363456756, 0.0269219875, -0.0066642910, -0.0765815973, 0.0412280783, 0.0232113972, 0.0278093070, -0.0243547335, 0.0531556532, -0.0640009344, -0.0009820163, -0.0021455809, -0.0457162037, -0.0486715212, 0.0583430901, 0.0548545793, 0.0494349673, -0.0359787717, 0.0539275631, -0.0112415701, 0.0520019308, 0.0336359739, -0.0278809369, 0.0326502621, -0.0361089781, -0.0772044137, -0.0775299296, -0.0726496205, -0.0231252238, 0.0493706092, 0.0156860277, -0.0501867756, 0.0408663750, -0.0259691142, -0.0377106518, 0.0742596909, -0.0473116338, 0.0470270738, -0.0665924996, 0.0525377318, 0.0808789805, 0.0361676663, 0.0054821968, 0.0302613080, -0.0302557945, -0.0321270265, -0.0476731621, 0.0496525988, -0.0395164825, -0.0748039484, 0.0137817115, -0.0742737651, 0.0733129010, -0.0603651218, -0.0175873935, -0.0248868056, -0.0135196969, 0.0053670555, 0.0497617349, -0.0299053453, 0.0590599850, 0.0806579664, 0.0182411447, 0.0131272078, 0.0320581794, 0.0742469504, 0.0548629537, -0.0719891042, -0.0489140823, -0.0788749531, -0.0402908437, -0.0026884079, -0.0354611240, -0.0216920599, 0.0299134329, -0.0004280731, -0.0052788109, -0.0072173998, 0.0367727280, 0.0289436355, 0.0774051026, 0.0202099904, -0.0437594205, -0.0672812536, -0.0661805719, 0.0533024892, 0.0281724781, 0.0464256629, 0.0069742575, -0.0138731599, -0.0691332966, 0.0055900812, 0.0128687844, -0.0781366900, 0.0222292989, 0.0121451691, 0.0524818823, -0.0001200140, 0.0505579337, -0.0591506772, -0.0358285904, 0.0405235440, 0.0335386619, 0.0502789393, -0.0566189662, 0.0258649960, -0.0537304021, -0.0211804286, -0.0126058087, 0.0261492655, -0.0323926583, -0.0756327510, 0.0361659825, 0.0068296716, -0.0425793976, 0.0134411603, -0.0320453607, 0.0481889769, 0.0010660812, -0.0302907005, 0.0167175382, -0.0500579625, -0.0632428750, -0.0167122781, -0.0677170753, -0.0798532739, 0.0800095275, -0.0348203108, 0.0511796996, 0.0200851038, 0.0755720064, -0.0685849637, -0.0203256160, 0.0162688866, -0.0135640204, 0.0600620136, 0.0198188201, -0.0113772079, -0.0575412065, 0.0192148834, -0.0099343732, -0.0694957972, 0.0238456503, -0.0201132633, -0.0260351934, 0.0012599900, -0.0731494576, 0.0402412638, 0.0794267729, -0.0252367146, 0.0274638310, 0.0566693470, 0.0642045662, 0.0733852312, -0.0708573684, 0.0546678081, -0.0225178637, 0.0163354129, -0.0496814251, -0.0634569526, 0.0790799931, 0.0064472929, -0.0702198818, 0.0438671336, -0.0068900213, -0.0090198666, 0.0516663417, 0.0467958972, -0.0360213369, 0.0037612617, 0.0598329827, -0.0140421763, -0.0673360974, -0.0751598850, 0.0184686184, -0.0342115983, -0.0576517656, -0.0258147940, 0.0111599565, 0.0774216577, -0.0435481109, -0.0166183487, -0.0634838641, 0.0130613372, -0.0741038024, -0.0400779694, 0.0158355758, 0.0347371772, 0.0149338841, 0.0707113370, 0.0470666215, 0.0764074847, -0.0727320239, 0.0383646116, 0.0257928073, -0.0341804847, -0.0512905270, 0.0270519257, 0.0312842801, -0.0638030246, 0.0584096089, -0.0364813916, -0.0678904504, 0.0037549734, -0.0650240630, 0.0004701540, 0.0544990227, 0.0114055201, 0.0469949767, -0.0798222572, -0.0719558820, -0.0210616328, 0.0490661636, -0.0724883378, 0.0345008001, 0.0132166222, -0.0499387607, 0.0122185200, 0.0182417631, -0.0628647879, 0.0761940256, -0.0401984453, 0.0202722251, -0.0173018426, 0.0773643330, -0.0251295976, -0.0704702511, 0.0638073757, 0.0178669468, 0.0126028657, -0.0034921840, 0.0686041787, 0.0639013425, -0.0228305645, 0.0468348637, 0.0758055970, 0.0349986255, 0.0633575842, -0.0237701945, -0.0153080598, 0.0168408751, -0.0055520087, -0.0728754699, 0.0340856090, 0.0510711744, -0.0239680447, -0.0774526969, -0.0210256428, -0.0247994550, 0.0679061934, 0.0439656451, 0.0166014433, 0.0747050121, 0.0494039729, 0.0523659959, 0.0583024397, 0.0189583972, 0.0137122497, -0.0230873972, -0.0629201755, -0.0283169746, 0.0408145487, -0.0025925115, -0.0673394948, -0.0100772232, 0.0090699345, 0.0706365481, 0.0308473930, -0.0057067871, -0.0390362516, 0.0016573146, 0.0326402485, -0.0238273181, -0.0395392813, 0.0779832974, 0.0390630960, -0.0132637173, 0.0097732693, -0.0465657189, -0.0627820194, -0.0539777800, 0.0789230838, -0.0265362486, -0.0698293075, 0.0260092169, -0.0398209840, -0.0585750341, -0.0713833272, 0.0569383726, -0.0167907104, 0.0574428216, -0.0481958576, 0.0152204409, -0.0082139447, -0.0093775839, 0.0045771226, 0.0218127146, -0.0718619525, 0.0117916465, -0.0236121044, 0.0674104169, -0.0020875856, -0.0571851321, -0.0069920123, -0.0487663560, -0.0029977858, 0.0099964887, -0.0006496087, 0.0300313905, -0.0747752115, -0.0755993873, 0.0799641535, 0.0708333477, -0.0419633575, 0.0417640731, -0.0534099080, -0.0222387537, 0.0011680499, -0.0467152037, -0.0439651608, -0.0697651803, 0.0265603438, -0.0702892244, 0.0090868324, 0.0204872042, -0.0673110709, -0.0591165647, 0.0776643082, 0.0693190768, -0.0567079186, 0.0558434203, -0.0041412786, 0.0607451573, -0.0560709760, -0.0119227171, -0.0578553788, -0.0674421042, 0.0529274568, 0.0688057467, -0.0196022876, -0.0516669452, 0.0612394884, 0.0384429917, 0.0578339919, -0.0683660358, 0.0202710032, -0.0359090939, 0.0800546035, -0.0672577396, -0.0194737054, -0.0531854481, -0.0772011057, -0.0249814466, -0.0641336516, 0.0741997436, -0.0407209285, -0.0771324933, -0.0237109996, 0.0600916371, 0.0275161788, 0.0642867759, -0.0807416961, -0.0475105084, -0.0423653610, 0.0750069097, -0.0455525629, -0.0183311775, -0.0292221829, 0.0450016186, -0.0362952240, 0.0698039755, -0.0268020891, -0.0127505735, 0.0684970692, 0.0599999353, -0.0220295712, 0.0612023994, -0.0774050429, 0.0492663905, 0.0036801919, 0.0128138661, -0.0378480889, 0.0736988559, -0.0791270211, -0.0243067741, 0.0341317505, 0.0523960665, -0.0255815908, -0.0774164572, 0.0486820415, -0.0265501887, -0.0001086816, 0.0554900840, 0.0067671686, 0.0447190627, -0.0509096012, 0.0043230951, 0.0362277329, -0.0612510666, 0.0611130521, -0.0155038610, 0.0344307572, 0.0357163697, -0.0729423091, 0.0014952198, -0.0062909201, -0.0078963488, 0.0115986839, 0.0564490780, 0.0309106484, -0.0176993236, -0.0769183040, -0.0599028617, 0.0688373521, 0.0433276370, -0.0767648146, -0.0250704810, 0.0654354468, 0.0228484124, -0.0613374338, 0.0345552191, 0.0326131135, -0.0201169364, -0.0794414058, -0.0107065141, -0.0654657558, 0.0748892501, 0.0739818439, -0.0432115272, -0.0046733692, -0.0155347660, -0.0699149743, 0.0758826062, -0.0437602513, -0.0766427517, 0.0322916731, -0.0743349567, -0.0650434643, -0.0334786959, -0.0226998590, -0.0075498074, 0.0095379949, 0.0722082481, 0.0508980379, -0.0301205441, -0.0360645354, 0.0115730986, -0.0302873738, 0.0039753914, -0.0235749148, 0.0686978474, 0.0021954179, -0.0205672495, 0.0036062822, -0.0245186426, 0.0541220680, -0.0106447116, -0.0582039319, 0.0522307977, 0.0399094969, -0.0607703365, 0.0664484724, 0.0530099496, -0.0091190115, 0.0777627006, -0.0344331972, 0.0590814129, -0.0099814087, -0.0096660554, 0.0353938043, -0.0052929148, 0.0107713342, 0.0599696413, 0.0080021098, 0.0345252827, -0.0104821101, -0.0727412254, -0.0603291132, -0.0260152742, 0.0681536868, 0.0555035099, -0.0680504292, 0.0761560425, -0.0390090235, -0.0637809783, 0.0045249090, 0.0196750760, 0.0725250766, 0.0105825365, 0.0033829436, -0.0004610047, 0.0469616279, -0.0285998173, 0.0289113224, 0.0134606138, -0.0599420369, 0.0085469112, -0.0119426176, -0.0144929141, -0.0360254534, -0.0130278096, 0.0209966153, 0.0479006246, 0.0051659569, 0.0430637822, -0.0572106391, 0.0348744020, 0.0169525370, 0.0188750923, -0.0055584833, -0.0455103479, 0.0481649414, -0.0392769203, 0.0189986229, 0.0142439753, 0.0766536370, 0.0282208994, -0.0255594514, 0.0580152646, 0.0177033022, 0.0348005071, -0.0134023726, -0.0337074511, -0.0742985234, 0.0012850463, 0.0606921092, -0.0052963719, -0.0561010465, 0.0378231630, -0.0767266974, -0.0348603614, 0.0087759495, -0.0177717432, -0.0612794384, 0.0439377800, -0.0451002605, -0.0109657049, -0.0590157732, -0.0645039454, -0.0451542549, -0.0240622014, -0.0377959348, -0.0017149225, -0.0477407128, -0.0546931401, 0.0528525040, 0.0521259978, -0.0182546005, -0.0720339492, 0.0235013738, -0.0231720209, 0.0453275964, -0.0154897496, 0.0769245997, 0.0570538417, 0.0310065821, -0.0753531754, 0.0765755847, 0.0589766726, 0.0462823138, 0.0620825216, 0.0176785886, 0.0501779690, 0.0749167725, -0.0310907662, -0.0099261552, -0.0337677449, 0.0495111123, 0.0752793923, -0.0055197924, -0.0402443744, -0.0294559635, -0.0752556697, -0.0371814221, 0.0267247409, -0.0457056835, 0.0162517503, -0.0327920504, 0.0347174108, 0.0809596255, -0.0183059648, -0.0356226750, 0.0312746167, 0.0178174600, 0.0540560260, -0.0635609478, 0.0734070316, -0.0756605938, -0.0790299252, 0.0510765836, -0.0260558650, 0.0347078592, -0.0036406666, -0.0359177776, -0.0539476685, 0.0009755567, 0.0549198762, 0.0236696154, 0.0631948039, 0.0753581598, 0.0026645437, -0.0178974196, -0.0332914069, -0.0043865070, 0.0626895800, 0.0681128427, 0.0067584440, -0.0497559160, 0.0556833968, 0.0575160608, -0.0647157580, 0.0034215450, -0.0203069374, -0.0292293578, 0.0480070338, 0.0736863241, 0.0047549009, 0.0396499336, 0.0699711516, 0.0612552390, 0.0545767173, -0.0388689376, 0.0692452863, -0.0456249267, 0.0003534108, -0.0118122771, -0.0415721424, -0.0602431372, 0.0301626250, -0.0196470544, -0.0797085688, -0.0042405799, -0.0653045475, 0.0032142177, 0.0579674467, 0.0682252869, 0.0502556190, 0.0216354579, -0.0055823699, 0.0778895691, 0.0277441740, -0.0250311270, 0.0328452885, -0.0107498094, -0.0108385384, -0.0358956158, 0.0567676947, -0.0305496007, -0.0562331267, 0.0700927451, 0.0450379774, 0.0704334900, -0.0345724113, 0.0623662099, -0.0490543246, -0.0229063332, 0.0276925191, -0.0787522644, -0.0756614432, -0.0401185974, -0.0511004515, 0.0433447659, -0.0759995580, 0.0256587341, -0.0001496971, 0.0753130689, -0.0302768163, 0.0243444666, 0.0421382934, -0.0520863011, -0.0614744239, -0.0545112044, -0.0401416682, 0.0529149845, -0.0163905621, 0.0067360103, -0.0039999932, -0.0316975228, -0.0510266572, -0.0101537481, -0.0021696240, -0.0709163696, 0.0090840310, -0.0055161938, -0.0315874107, 0.0776043311, 0.0791481063, -0.0757011101, -0.0357706137, 0.0753554031, 0.0441399142, -0.0706720278, 0.0576867089, -0.0109424442, -0.0146649852, 0.0707202926, -0.0261286721, 0.0450818315, -0.0579232350, 0.0675423369, -0.0791816711, 0.0575121865, 0.0493206307, -0.0566052534, -0.0443743020, 0.0008099303, 0.0224429891, 0.0532063916, -0.0360135995, 0.0087355971, 0.0154228956, -0.0639616027, -0.0353632905, 0.0661476925, -0.0555922352, 0.0630798861, -0.0300716572, 0.0742861256, -0.0389412232, -0.0643043146, -0.0259993002, 0.0709744170, 0.0594916269, 0.0316761732, 0.0479853675, 0.0615601912, -0.0766154602, -0.0476242378, 0.0355356559, 0.0186357945, -0.0379307233, -0.0212394670, 0.0131965354, 0.0380025655, 0.0010491833, -0.0237695165, 0.0632613972, 0.0572936907, -0.0746014938, -0.0581064448, 0.0252819434, -0.0105604306, 0.0483643487, 0.0170461684, 0.0528568402, 0.0611842349, -0.0757065788, -0.0554094911, 0.0087208748, -0.0195481777, -0.0210561417, 0.0294057205, 0.0211964995, 0.0538459644, -0.0681080446, 0.0763273761, -0.0140057802, 0.0387224481, -0.0132025704, 0.0116508976, -0.0376211926, -0.0024733916, 0.0294218287, 0.0334800333, -0.0215998739, 0.0654412135, 0.0329869017, -0.0045965761, -0.0086802095, -0.0599087961, -0.0248536393, -0.0596515127, -0.1425670236, -0.0219300278, -0.0669625625, -0.0448631085, -0.1621140391, -0.1412697881, -0.0552543625, -0.1389316618, -0.0519577041, -0.0905864611, -0.0247779954, -0.0797561258, -0.0535441637, -0.0797406659, -0.0494914278, -0.0139729306, -0.0745662451, -0.0842933655, -0.0148173077, -0.1312022656, -0.0395343229, -0.1441255361, -0.0460702516, -0.0760898963, -0.1079686806, -0.1513287276, -0.1154089347, -0.0522466265, -0.0526186675, -0.0437020138, -0.1170702577, -0.0902061313, -0.1571946442, -0.0775409043, -0.0298376679, -0.1319117099, -0.0999224707, -0.0391241573, -0.1397397965, -0.0838453248, -0.0907342955, -0.0206037257, -0.0975937471, -0.1221800968, -0.1658215374, -0.0866628513, -0.0453643538, -0.1275453568, -0.0141851865, -0.0201975182, -0.0067581036, -0.0128747150, -0.0546707995, -0.0670788065, -0.0375132263, -0.0421540067, -0.0678709820, -0.1367913485, -0.0716373697, -0.1100221574, -0.0103334524, -0.1369587630, -0.0461007655, -0.0334274545, -0.0756592378, -0.0389049016, -0.0219032429, -0.0559556000, -0.1299716830, -0.1180396453, -0.1144394651, -0.0361264721, -0.0374847129, -0.0883854851, -0.0673379675, -0.0360738523, -0.1464975476, -0.0202705711, -0.1081546918, -0.0505461320, -0.0839142054, -0.0417095460, -0.0485330485, -0.1533957422, -0.1235013381, -0.1501528621, -0.1148106977, -0.1307020187, -0.0547732152, -0.0632855594, -0.1242951229, -0.0910308585, -0.0136738885, -0.0138030974, -0.0806282908, -0.0777240917, -0.1131331623, -0.0687413216, -0.0397920310, 0.0152759086, -0.0628174245, 0.0228685047, -0.0397965647, -0.1571756303, -0.1097019836, -0.0361093655, -0.0985981748, -0.0455203764, -0.0733334124, -0.0117874648, -0.1262665689, -0.0830632970, -0.1628381461, -0.1189105436, -0.0557138473, -0.1191625074, -0.0215132907, -0.1376309991, -0.0924340263, -0.0590762943, -0.0714243948, -0.1229188442, -0.0195865892, -0.0509142615, -0.0739129335, -0.0728500113, -0.0956161991, -0.0929533914, -0.0928782001, 0.0277275853, -0.0462940112, -0.0255451128, -0.0237456672, -0.1095978543, -0.1429104209, -0.1337697804, -0.1086513773, -0.0571370982, -0.1211812124, -0.1411573738, -0.1480725855, -0.0646151155, -0.1147679314, -0.0169502422, -0.0764693543, -0.1234964803, -0.0534945391, -0.1316317171, -0.0084867300, 0.0119489580, -0.0471094511, -0.0094696339, -0.0697913021, -0.0790862069, 0.0061024143, -0.0545576327, 0.0104741612, -0.0207113605, -0.0116510857, 0.0057402342, -0.0269545354, -0.0973524302, -0.1595059782, -0.1236691028, -0.1467572600, -0.1180378273, -0.0235872082, -0.1386628151, -0.0769638345, -0.0210450236, -0.1164392307, -0.0628605410, -0.0843287036, -0.0241265185, -0.0962811187, -0.0781275854, -0.0468841158, 0.0375509635, -0.1301085949, -0.1059480533, -0.0002340650, -0.1016122326, -0.0226384345, -0.0241839346, -0.0768795684, -0.0262715183, -0.0523835123, -0.0097663756, -0.0785671473, -0.1400309950, -0.0648681000, -0.0301905051, -0.0804195032, -0.1516147554, -0.1495482326, -0.1184253916, -0.1489780247, -0.0917217135, -0.1194214299, -0.1082888171, -0.0876683369, -0.0674416795, -0.1056275144, -0.0165579766, -0.0255877171, 0.0377081633, -0.0029657863, 0.0079864543, -0.0570699200, -0.0097054755, 0.0044597294, 0.0320229195, 0.0541642904, 0.0729228929, -0.0367851146, -0.0125960084, -0.0699122623, -0.1004331037, 0.0022216202, -0.0332414322, -0.1033824459, -0.0680719391, -0.0415408686, -0.0486003347, -0.0307506528, -0.0204972923, -0.0201696437, -0.1118927225, 0.0098394612, -0.0049987226, 0.0475498997, 0.0800472572, 0.0644653961, 0.0816052482, 0.0955654010, -0.0293111149, 0.0688012913, 0.0519469120, 0.0840117708, 0.1099797934, -0.0221762992, 0.0460457988, 0.0622432195, 0.0755767152, 0.0382156335, -0.0872308314, -0.0997170433, 0.0020734211, -0.0249892678, -0.0205739886, -0.1381336898, -0.0315897539, -0.0421122238, -0.0670168027, -0.1342839748, -0.0647450686, -0.0536095090, -0.0923395678, 0.0511973985, 0.0690592900, 0.0306065716, 0.0215993188, 0.0984961912, 0.0674396977, 0.0252714548, -0.0289336927, -0.0093998853, 0.0062952028, 0.0046555754, 0.0516833551, 0.0062076221, -0.0495593771, 0.0002512796, -0.0698710829, -0.0405265056, -0.0255125817, -0.0212113317, -0.0358977057, -0.0325530916, -0.1007286087, -0.0285054035, -0.0970701501, -0.1009113416, 0.0149158509, -0.0925754905, -0.0319559835, -0.0616496392, 0.0070132469, 0.0281370450, -0.0029541936, 0.0998946503, 0.0034379899, -0.0165120885, -0.0624302514, -0.0526209027, -0.0365092419, 0.0933844298, 0.0997283831, 0.0634774268, -0.0034734560, -0.0047131502, -0.0678048730, -0.1215966046, -0.1913093925, -0.1205815300, -0.0554130264, -0.1379985064, -0.0704344809, -0.1153994352, -0.1545995474, -0.1185494140, 0.0367350951, -0.0918302089, -0.0139487414, 0.0632210076, 0.0298349690, 0.0654400289, 0.0375877246, 0.0302782934, 0.0718430877, -0.0700708404, -0.0472577102, -0.0320445821, -0.0277317539, 0.0273412168, 0.0211888570, -0.0036442876, 0.1103319004, 0.0086069489, -0.0250664502, -0.0041307164, -0.0527146161, -0.0854810327, -0.0743172690, -0.0737143978, -0.1137856096, -0.1023869663, -0.0871221274, -0.0265728533, -0.0540727675, 0.0076418729, -0.0377305336, 0.0789805427, 0.0530678071, 0.0834343657, 0.0933458433, -0.0409405157, -0.0464866832, 0.0306803528, -0.1128480509, 0.0325718671, 0.0288017467, 0.1070612594, 0.0201475043, 0.0281049479, 0.0043464573, 0.0597242191, 0.0503136702, -0.0111934319, -0.1297981590, -0.0214198604, -0.1640953571, -0.0225630905, -0.1057255641, -0.1253157109, 0.0052701789, -0.0279684328, -0.0171665028, 0.0021360563, 0.0733146518, -0.0198218022, 0.0469590314, 0.0215115808, -0.0369102955, 0.0234615859, -0.0531912446, -0.0924642012, -0.0207725875, -0.0174556188, 0.0925994143, 0.0160036981, 0.1183207780, -0.0233974513, -0.0172852762, 0.0043836930, -0.0086176582, -0.0799317658, -0.1217822954, -0.0371774621, -0.1284285933, -0.0165381357, -0.1265459359, -0.1473247409, -0.0495137684, -0.0384758525, -0.1349061430, -0.0250992663, 0.0176161472, 0.1144151911, 0.0408039689, -0.0405391864, -0.0005351362, -0.0020084963, -0.0024794484, 0.0073125670, -0.0045939023, 0.0403334051, 0.0239595678, 0.0757960528, 0.1338468939, 0.0218022317, 0.0525571778, 0.0650142953, -0.0251129959, 0.0267001390, -0.0816636533, -0.1456117332, -0.0966672227, -0.0621410720, -0.0376476459, -0.1060111299, -0.1114876643, -0.0759490877, -0.0208382811, 0.0191586260, 0.0377384312, 0.0124027962, 0.0769245550, 0.0905067697, 0.0059142327, -0.0092749726, -0.0565308370, -0.0009641440, 0.0136276754, 0.1096889153, -0.0133088110, 0.0746989399, 0.0412103161, 0.0966450498, -0.0231413133, -0.0175338965, 0.0789582878, 0.0242273230, -0.0339333601, -0.0668728799, -0.1347676814, -0.1096387953, -0.1119074821, -0.0773167759, -0.1166150048, -0.1028989777, -0.1391104758, -0.0213337112, 0.0318031162, 0.0790596828, 0.1193617210, 0.0136170089, 0.0548951365, 0.0420416556, -0.0906579792, -0.0188460648, 0.0162595361, 0.0437004901, 0.1132812425, 0.0331669115, 0.0604134239, -0.0354869887, 0.0406685323, -0.0259103309, -0.0574256591, 0.0104651144, -0.0179617833, -0.0523985438, -0.1179336458, -0.0167731009, -0.0478919484, -0.0435601845, -0.1458896995, -0.1318258196, -0.0540997311, -0.0131362677, 0.0446618870, -0.0029827091, 0.0041014748, 0.0213130470, 0.0084172189, 0.0240860898, 0.0361918025, -0.0370550342, -0.0240652673, 0.0035233870, 0.0526007973, 0.0394544490, -0.0065736054, 0.0294982195, -0.0327820703, -0.0180173703, -0.0296594668, -0.0308793765, -0.0211823136, -0.1163822114, -0.1076392084, -0.0993799865, -0.0200898238, -0.0295357052, -0.1198874265, -0.1573450118, -0.1036304235, 0.0231041126, 0.0617382415, 0.0430972092, 0.0962079912, 0.0643313155, 0.0054469714, -0.0109576844, -0.0588168390, -0.0379098170, 0.0535098612, 0.1437331587, 0.0483932830, 0.1165467873, -0.0173023380, -0.0422523804, 0.0522472411, -0.0297889337, -0.0472648367, -0.0192796551, -0.0146302488, -0.0648006052, -0.0662679002, -0.0455252528, -0.0404028818, -0.1433751732, -0.0353660844, -0.0205728151, -0.1474523395, -0.0732501671, -0.0920924321, 0.0534813106, -0.0139705865, 0.0102060027, -0.0778151751, -0.0554294065, 0.0566050224, -0.1060280427, 0.0374802537, 0.1498057991, -0.0217247624, -0.0427466631, 0.0630404726, 0.0540683344, -0.0650924817, 0.0597077757, -0.0814290345, -0.0562025085, -0.0896422714, 0.0042593312, -0.1281428039, -0.1027828678, -0.1340456605, -0.1271049529, -0.1610873491, -0.1716025472, -0.0374893844, -0.0930500478, 0.0094023403, -0.0757183731, 0.0470840037, -0.0083362637, -0.0547404625, -0.0837516412, -0.0435969792, -0.0129161123, 0.0984930769, 0.0334091894, 0.0301028863, -0.0578784272, 0.0472410433, -0.0631864518, 0.0066542970, -0.0772265345, -0.0163403209, -0.0017681557, -0.0603952296, -0.1207188070, -0.1514785588, -0.1501700282, -0.1478454173, -0.0473461263, -0.0337555595, -0.1123280376, -0.0894703791, -0.1675890684, -0.1389521956, -0.0772354826, -0.1148350313, -0.0269309971, -0.0694413036, 0.0394006371, -0.0649125651, 0.0485968255, 0.0242204275, 0.0245566778, 0.0806377679, 0.0572129153, 0.0632110909, 0.0452300459, 0.0572228655, -0.0021637778, -0.0758473799, -0.0874249637, -0.0146272089, -0.0330749974, -0.1579050571, -0.0268946178, -0.0483630635, -0.1120634302, -0.1444378048, -0.0899200141, -0.0714736432, -0.1329467446, -0.1779776067, -0.0381542444, -0.0873979703, 0.0005616959, -0.0692862421, 0.0119669912, 0.0551717021, -0.0103122098, -0.0008720689, 0.0850807354, -0.0799066201, 0.0364373997, 0.0242046844, 0.0540136732, -0.1049062461, -0.0050177514, -0.0700490922, -0.1370657980, -0.1433930099, -0.1626171321, -0.0820543766, -0.1353051960, -0.0189805590, -0.0308758970, -0.1353423744, -0.0746083930, -0.1462560892, -0.0537109114, -0.1606996655, -0.0947078690, -0.1040200517, -0.0332166366, -0.0769489631, -0.0474449322, 0.1209722087, 0.0391022526, 0.0788970292, 0.0471115448, 0.0501768366, 0.0171877090, -0.0356569290, -0.0084580444, -0.1071845442, -0.0891191214, -0.0787989795, -0.0314568318, -0.1617369950, -0.1581193060, -0.0520901866, -0.1270697862, -0.0093489960, -0.0762606114, -0.0649681315, -0.1333916485, -0.0998184532, -0.1287778616, -0.0567314848, -0.1224953905, 0.0669716522, -0.0055762581, 0.0800251737, 0.1109332591, -0.0105425371, 0.0631041378, 0.1210239306, 0.1274615973, 0.0617779382, 0.0917426646, 0.0699483231, -0.0006740004, 0.0561151803, 0.0089872237, -0.1489215940, -0.0307076909, -0.0579621010, -0.1161843315, -0.0170805156, -0.1215739399, -0.0638987646, -0.0474429317, -0.1237800419, -0.1427410096, -0.0842591971, -0.0823948011, -0.1612519771, -0.0210738275, -0.1661069691, -0.1173240170, -0.0320417620, 0.0693083107, 0.0437667482, 0.0258927885, 0.1004554704, -0.0252002627, 0.1528067291, 0.0147386938, -0.0243123528, -0.0682348087, -0.0725261569, -0.0847380459, -0.0790980756, -0.1266113073, -0.0350699611, -0.0700506866, -0.1647899002, -0.0967328474, -0.1553362459, -0.1416088492, -0.0547197275, -0.1147913113, -0.1477395743, -0.0309535507, -0.1142365262, -0.0126546063, -0.0853541568, -0.1181094125, -0.1077028364, -0.0763557479, 0.0041799895, -0.1555168629, -0.0195918698, 0.0502655767, 0.0004737057, -0.1070863977, -0.0902267694, -0.0322631784, -0.0079708071, -0.1315955073, -0.0575117245, -0.0690163225, -0.1643997133, -0.0359978862, -0.1679535061, -0.1492537707, -0.1293760091, -0.0602699257, -0.0875872225, -0.1664097011, -0.1214045361, -0.1364874244, -0.0214554276, -0.0754394382, -0.0345856138, -0.0913266465, -0.1673842072, -0.0728022978, -0.1027582362, -0.0811295807, -0.0581171364, -0.1060143262, -0.0673070103, -0.0393442512, -0.1483048052, -0.1190624014, -0.1455466747, -0.1400483102, -0.1701203585, -0.0091747632, -0.0242534634, -0.1152105480, -0.1397593617, -0.0712071806, -0.0549027845, -0.1062862948, -0.0897295699, -0.0212048832, -0.0796085596, -0.0470349118, -0.0656280369, 0.0400928110, -0.0115577811, 0.0101092709, -0.0355013944, -0.0627674013, -0.0925589949, -0.0951992422, 0.0001303821, -0.0568952300, -0.0161658414, -0.0973414928, -0.0451592989, -0.0311367195, -0.0949388817, -0.0473174788, -0.0615209825, 0.0083990106, -0.1113228127, 0.0257868487, 0.0031935403, -0.0049419291, -0.0417836495, -0.0199479535, -0.0946822092, 0.0338737182, -0.0151168332, -0.1129649431, -0.0250936691, 0.0162990149, 0.0209941864, 0.0204558708, 0.0085571073, 0.0167237800, 0.0120021095, 0.0592973828, 0.0354371406, 0.0446405075, 0.0349578671, 0.0294050574, -0.0551003441, -0.0544137321, -0.0255819149, 0.0426755324, -0.1132260710, 0.0390985869, -0.0318425037, -0.0819199383, -0.0286628604, -0.0221977886, -0.0129420785, -0.0825630799, -0.0648046136, -0.0327889621, 0.0455530472, 0.0029627299, -0.0951839611, -0.0945918038, -0.1813241243, -0.0810429752, -0.1015917659, -0.0637961850, -0.0793784931, -0.0630181208, -0.0322353281, -0.0381586142, 0.0215719268, 0.0029605515, 0.0282006804, 0.0292684715, 0.1324788630, 0.0891093239, -0.0594412126, 0.0026518034, -0.0988834649, -0.0818943977, -0.0466184951, -0.0423877127, -0.0802495554, 0.0342547894, 0.0475488901, -0.0852198079, -0.1042402834, -0.0847743154, -0.0153776240, -0.2000473738, -0.1655272096, -0.0284043532, -0.0381773710, -0.0284073818, -0.0824517682, -0.0271393210, -0.1007243246, -0.0595398173, -0.0409407243, -0.0230164528, 0.0406983681, 0.0040096813, 0.0978530422, 0.1283160895, 0.1518247873, 0.0362637155, 0.0331683904, -0.0401777551, 0.0371184759, 0.0172069576, -0.1035562232, 0.0113479113, 0.0378517956, 0.0114233037, -0.0340650417, -0.0401493944, -0.1683008075, -0.0162788741, 0.0242383443, 0.0818137452, 0.0875500217, 0.0186017286, 0.0306916013, 0.0183991641, -0.0399594307, 0.0007797895, -0.0060602510, 0.0267824531, 0.0004200820, 0.0568962134, 0.0033832991, 0.1301854104, 0.1489867121, -0.0503223576, -0.0505794473, 0.0083169788, -0.0307961516, -0.0652539656, 0.0069409530, -0.0426337719, -0.0975988805, 0.0185034294, 0.0395986736, -0.0437946618, 0.0146175157, -0.0178234074, -0.0154317897, 0.0233630389, -0.0259464514, -0.1555616111, -0.1549142450, -0.1452301741, -0.1626856029, -0.0849055648, -0.1535357982, -0.0430448353, -0.0305696800, 0.0542225428, 0.1122606322, 0.0459125265, 0.1689505875, 0.0794023573, 0.0899295285, 0.0296399854, -0.0938625485, 0.0115302643, -0.0291788001, -0.0636944920, -0.0240944866, -0.0879070833, -0.1170863435, 0.0487148874, 0.0090721669, 0.0024696023, -0.0131070586, -0.1231905520, -0.1363364160, -0.1670662463, -0.1751732975, -0.2413018495, -0.2610404789, -0.2429674715, -0.2264782935, -0.1495075077, -0.1300670356, -0.0644714311, 0.0031781290, 0.0261195041, 0.0344695225, 0.0513081625, -0.0872024968, -0.0662338436, 0.0211908277, -0.0816784799, -0.0196504239, -0.1081850529, -0.0002014926, -0.0343502201, 0.0076995832, 0.0198472850, 0.0371324234, 0.0051878458, 0.0183669515, -0.0434624441, -0.1104455814, -0.2198735923, -0.1949713975, -0.2043744475, -0.1540354788, -0.1687154919, -0.1717071086, -0.0628593192, -0.0182476882, -0.0004602813, -0.0000232912, 0.0319118872, 0.0353519320, 0.0745823905, -0.0007584633, 0.0239089560, -0.0016070425, -0.0854750276, 0.0134723634, 0.0065899258, -0.0157028455, -0.1252982020, 0.0988379419, 0.2324286699, 0.1655681431, 0.1551252306, 0.1149161756, 0.0157062318, -0.0757076517, -0.0489756502, -0.0478883497, -0.0087171718, -0.0192212351, -0.0131074283, 0.0032262162, 0.0906079486, 0.1626160890, 0.1159076989, 0.1161844954, 0.0180654861, 0.0729243681, 0.0008457685, 0.0466540307, -0.0012858185, -0.0934019461, -0.0972942188, 0.0255670566, 0.0087638553, -0.0722333267, -0.1692311615, 0.1788228005, 0.3055115342, 0.1643403918, 0.1533040851, 0.0724760517, -0.0504022948, -0.0033260989, -0.0167900696, 0.0078100953, 0.0444582589, 0.0687114671, -0.0062843636, 0.0309917014, 0.1318170875, 0.2543122172, 0.2637664378, 0.1974398643, 0.1157914624, 0.0175613090, -0.0722535625, 0.0720748231, -0.0443534851, -0.0804420933, -0.0929226056, 0.0032139882, 0.0089703705, -0.0093935579, -0.0836535692, -0.0763764754, -0.0343700126, -0.0176131167, 0.0022610931, 0.0063598137, -0.0625393391, -0.0476297326, -0.0175801050, -0.0127089238, 0.0482901596, 0.0360458121, 0.0141091654, 0.0418181345, 0.1924931556, 0.2548604012, 0.2573067844, 0.2347703725, 0.1120450720, -0.0070392848, 0.0148638180, 0.0354013257, 0.0005473585, -0.0888756961, -0.0750238970, 0.0094265351, -0.0211721100, -0.0041870060, -0.1306317300, -0.0707648918, -0.0312908255, -0.1360572428, -0.0469467975, -0.0237351414, -0.0282494538, 0.0087955836, -0.0440149345, -0.0049999487, 0.0612297915, 0.0258220192, 0.0627102032, 0.1086470336, 0.2500483394, 0.3094746768, 0.2610194981, 0.2393683642, 0.1252242029, -0.0281327888, -0.0636931211, -0.0750340000, 0.0505683012, -0.0923798680, -0.1000171602, 0.0063275970, -0.0082144039, 0.0481133796, -0.0741958767, -0.0421250463, -0.0484918095, -0.0539469123, -0.0571840443, -0.0706149936, 0.0731242001, 0.0259898305, -0.0501309820, -0.0683118254, 0.0165524334, 0.0059334380, 0.0563790649, 0.2235898376, 0.3562900722, 0.4469833672, 0.2674183547, 0.2485014498, 0.1306420267, -0.0444971398, 0.0083667366, 0.0128676249, -0.0474493764, -0.0888161436, 0.0006732849, -0.0434558131, 0.0146033429, -0.0020262799, -0.1232094765, 0.0767410547, -0.0600815229, 0.0284451544, 0.0668227151, -0.0785501674, 0.1072110310, 0.0119801164, -0.1200551614, -0.1488726288, -0.1796940863, -0.1055380031, -0.0027032190, 0.2483783662, 0.4634290934, 0.4749886394, 0.3148938417, 0.1906876862, 0.0772881806, -0.0399300084, -0.0008390613, 0.0263428986, 0.0187752806, -0.0214248132, -0.0435650498, -0.0835178718, -0.0191164725, -0.0939753428, -0.0643211380, -0.0293734930, 0.0382399671, 0.0522464588, 0.1900887638, 0.0238448866, 0.1006763130, 0.0197316241, -0.1301236898, -0.2555729151, -0.3435669243, -0.3393933177, -0.1806693077, 0.1138233021, 0.3938756287, 0.4599999487, 0.3234485686, 0.2141991109, 0.0981497318, -0.0615919009, -0.0089926161, -0.0529619828, -0.0314377807, -0.0693480074, -0.0561326444, -0.1057236642, 0.0280139036, -0.0014522440, -0.0770254508, -0.0344971307, 0.0782769546, 0.1548690498, 0.1858040392, 0.2018848807, 0.1310242712, -0.0665812269, -0.1666880697, -0.3128619194, -0.3643462658, -0.4065313339, -0.2309890091, -0.0704607889, 0.1507313102, 0.3007870317, 0.2656217515, 0.2123290747, -0.0575302392, -0.1005205289, -0.0655464530, -0.0763874128, -0.0604971834, -0.0266201217, 0.0272820815, -0.0901291370, -0.0201564617, -0.0030028990, 0.0417049490, -0.0285844356, 0.0556606911, 0.1169196442, 0.1424722522, 0.2522354126, 0.1118419766, -0.0104362043, -0.1994097829, -0.3074242175, -0.4227717519, -0.4494421482, -0.1931828409, -0.1491037011, -0.0046818350, 0.0780007169, 0.1137548536, 0.0461165048, -0.0282149240, -0.0931804404, -0.1402585804, -0.0637189448, -0.1004201025, 0.0460108779, -0.0477483794, 0.0135722524, -0.0405293927, -0.0697980523, 0.0191414673, 0.0291080531, 0.0066858297, 0.0593331531, 0.1492361575, 0.1816458106, 0.1327002645, -0.0837028325, -0.3055367172, -0.4056150317, -0.3297931850, -0.2710153162, -0.0111162085, -0.0855286941, -0.1008922160, -0.1525845081, -0.0540716946, -0.0836574957, -0.1031274125, -0.1372352988, -0.1063382253, -0.1516160071, -0.0719269067, -0.0555665232, -0.0965506434, 0.0145879351, -0.0071549341, -0.0810208693, 0.1484886110, 0.0378986485, -0.0170621593, 0.0355856456, 0.0475488007, 0.1507272273, -0.0508883372, -0.2014133632, -0.3749249578, -0.3340362906, -0.2435162812, -0.0029311439, 0.1509882808, 0.0142036853, -0.2446751744, -0.2419768125, -0.1858258843, -0.0945920199, -0.1489832401, -0.1398295909, -0.1263086349, -0.1971086562, -0.0103139384, -0.0256164912, 0.0343122147, 0.0317857414, -0.0968031436, -0.0214733761, 0.0976685956, 0.0789836869, 0.0081847394, 0.0668490082, 0.0252662636, -0.0108972667, -0.0876207426, -0.2164258063, -0.3405628502, -0.1877004951, -0.0076914192, 0.2696320415, 0.2804614305, -0.0306710508, -0.2646693587, -0.2673320770, -0.1826047003, -0.1750893444, -0.1274840534, -0.1868993491, -0.1325421482, -0.1168510541, -0.0389277078, -0.0438660495, -0.0726867840, -0.0408260450, -0.0547871105, -0.0858686790, 0.0911929682, 0.1351273209, 0.0686755851, 0.0450819135, 0.0119765121, 0.0577758439, 0.0175222419, -0.1468181312, -0.1606780440, -0.0717263669, 0.2070907652, 0.3169322908, 0.2632187009, 0.0199139062, -0.2179125398, -0.2435747683, -0.2032994032, -0.1714668572, -0.1144713461, -0.1676010191, -0.1266101897, -0.0201916788, 0.0436250716, -0.0245759487, -0.0811410397, -0.0377842933, -0.0348958820, -0.0798431039, 0.1360758990, 0.0860033408, 0.0732593089, 0.1027485877, 0.0730057657, 0.1787106991, 0.0671823546, -0.1086865440, -0.0969875008, 0.0855480954, 0.2911916971, 0.3865710497, 0.2637088597, 0.0294984486, -0.1776178628, -0.1688150018, -0.1506228596, -0.1748765111, -0.1930149943, -0.1465933323, -0.0069277743, -0.0478703082, 0.0435987599, 0.0200289451, 0.0276718363, -0.0183974449, -0.0513739586, 0.0130863460, 0.0657439306, 0.0640714839, 0.0941354260, 0.0949161053, 0.1407935768, 0.1320820302, 0.1271004826, 0.0773074627, 0.1462092847, 0.2270253003, 0.3069365025, 0.2676125169, 0.0676872581, -0.0625874773, -0.1740203053, -0.1908130199, -0.2531758547, -0.2326639742, -0.1482048035, -0.0847580880, 0.0472623371, 0.0599574260, 0.0564271361, -0.0391400456, 0.0155977234, -0.0377862379, -0.0246442221, -0.0602339134, -0.0874537006, 0.1111778170, 0.1056514606, 0.1164395362, 0.0558357053, -0.0158763807, -0.0520122834, -0.0491358079, -0.0401056819, -0.0537423715, -0.0563518628, -0.0599836335, -0.1330324560, -0.0990391150, -0.1954710782, -0.2405105382, -0.3013088703, -0.2649856210, -0.0370214693, -0.0371285565, -0.1126349643, 0.0057344204, 0.0289107505, -0.0107839406, -0.0902369022, -0.0247468334, -0.0356771871, 0.0365705043, 0.0229015592, -0.0273494236, 0.0239285547, 0.0452108048, 0.0359517373, 0.0772769675, -0.0296176784, -0.0540039577, -0.1008659378, -0.1630085111, -0.1332221776, 0.0040511894, 0.0524002202, 0.0023857607, -0.1145309284, -0.2957839966, -0.5141327381, -0.3126193881, -0.1547871679, -0.0725333169, -0.1428790987, 0.0067315889, -0.0299978256, -0.0893152133, -0.0758563206, -0.0772975981, -0.1043819562, -0.0559128821, -0.0634674430, 0.0237464588, -0.0369464420, -0.0858699530, -0.0054518725, -0.1093251035, -0.0515253246, -0.3006238937, -0.2023113221, -0.3383166790, -0.3060729504, -0.2821756303, -0.2993407547, -0.3561937213, -0.5280879140, -0.6291810870, -0.4125683010, -0.1759873480, -0.1045791581, -0.0375113599, -0.0752307475, 0.0381196886, 0.0402171835, 0.0127154104, -0.0739456192, -0.0642944649, -0.0307201929, 0.0243424363, -0.1067465097, -0.0308904331, 0.0235507935, -0.0080721332, 0.0383910947, -0.0510044843, -0.0453027636, -0.0743942335, -0.0514526293, -0.0274171606, -0.0195821337, -0.2439056486, -0.2169089019, -0.2370322943, -0.2928708792, -0.3443779349, -0.1606765538, -0.0946795866, -0.0098381955, 0.0057254201, -0.0952895731, -0.0361143909, 0.0040870705, 0.0256947428, -0.0617254600, 0.0249389280, -0.0391031355, -0.0715126768, -0.0654491261, -0.0331579894, -0.0925249010, 0.0395330600, -0.0878248587, -0.0097403126, -0.0087412680, -0.0784409717, -0.1045008004, -0.0970109478, 0.0232531335, -0.0939533114, -0.0896407813, -0.0702547207, -0.0545719340, -0.1050660089, -0.0968448222, -0.0230241157, 0.0239519272, -0.0746297240, -0.0618652068, -0.0935378224, -0.0562302731, -0.0729728192, -0.0731482729, 0.0551280007, 0.0571637191, -0.0590292774, 0.0755264387, -0.0571065657, 0.0571146533, -0.0098352432, 0.0079573309, 0.0353832021, 0.0775731429, -0.0212021749, -0.0506273285, 0.0300610065, 0.0520005152, 0.0621014759, 0.0532630980, -0.0158390813, -0.0646650791, -0.0120154405, 0.0052504297, 0.0032536117, 0.0607660338, -0.0015698433, -0.0534154847, 0.0611141846, 0.0806338713, 0.0041154674, 0.0654798374, 0.0747851729, 0.0477254912, -0.0563054606, -0.0125021655, 0.0178086460, -0.0463165715, 0.0184785295, -0.0616309568, 0.0526620671, 0.0790982619, -0.0703801289, 0.0562350228, -0.0316459239, 0.0013016673, 0.0556607768, 0.0510727987, -0.0005981745, 0.0640107170, 0.0677835718, 0.0087688416, -0.0014456327, 0.0402152464, -0.0119909812, -0.0090103457, -0.0392469540, -0.0700447410, -0.0338160023, -0.0384935103, -0.0114469538, -0.0477555953, -0.0589573756, -0.0694624707, -0.0023181015, -0.0260406248, -0.0254441649, 0.0778523162, -0.0079839453, 0.0078894123, -0.0779002160, 0.0302862395, 0.0024401085, -0.0137854982, -0.0201797206, 0.0395127609, 0.0242031831, 0.0469832793, 0.0433609262, -0.0117924903, -0.0708376542, 0.0678855851, -0.0703227893, 0.0643209964, 0.0233821850, -0.0278622881, 0.0480868295, 0.0691211522, 0.0792381838, -0.0455857255, -0.0498167314, 0.0437464342, 0.0109229907, -0.0431415103, -0.0604373366, -0.0726122335, 0.0719519109, 0.0658276081, -0.0369621180, 0.0335772783, -0.0798343122, 0.0692353323, 0.0731427148, 0.0810463652, -0.0635672063, 0.0738174692, 0.0663820878, -0.0231714342, 0.0022234814, 0.0455754772, 0.0384008288, 0.0773253664, 0.0461132899, -0.0750818476, 0.0007471913, 0.0007917451, -0.0594017878, -0.0659016520, 0.0770743266, -0.0329868533, -0.0797490254, -0.0672233626, 0.0558788925, -0.0050934432, 0.0672185794, -0.0693806261, -0.0280565526, 0.0365997963, 0.0734664202, -0.0274215061, -0.0317636952, -0.0067014955, 0.0756772533, -0.0207214355, 0.0000514973, 0.0030384632, 0.0148387458, -0.0293882508, 0.0447988287, 0.0206518173, -0.0465390943, -0.0052115917, 0.0671814829, 0.0528587475, -0.0640405491, -0.0073065720, 0.0530534908, -0.0223224461, 0.0410593450, 0.0592884831, 0.0114125246, -0.0191079732, 0.0640482754, -0.0531751998, -0.0074505182, 0.0590134375, -0.0507229753, 0.0798762068, 0.0446277224, 0.0180201307, -0.0808795840, -0.0260709114, 0.0313204005, 0.0530922972, -0.0422469191, -0.0716578811, 0.0212605558, -0.0125747398, -0.0620790273, -0.0668919533, 0.0359973609, -0.0483203270, 0.0773846135, -0.0254015084, 0.0697005466, -0.0164994672, -0.0615484640, -0.0758590251, 0.0725531578, -0.0020273991, -0.0165291429, 0.0059731840, -0.0165074877, 0.0043853619, -0.0492739342, 0.0700073615, 0.0796984360, -0.0810972080, -0.0565558113, 0.0780830756, -0.0061233360, -0.0669144541, 0.0529995300, -0.0421849228, 0.0686808452, -0.0635001808, -0.0450112596, 0.0243085027, -0.0715903342, 0.0208083093, -0.0702571720, 0.0085104387, -0.0320553705, 0.0442759097, -0.0122194597, 0.0299854279, -0.0313743837, -0.0440529995, -0.0750259236, 0.0152823571, -0.0394021869, 0.0312110260, 0.0017970171, 0.0160319060, 0.0404375754, 0.0308429729, -0.0257782750, 0.0228293743, -0.0803338438, -0.0417343825, -0.0196230598, -0.0404093489, -0.0603494421, 0.0431362018, 0.0185099114, -0.0300748739, -0.0142499451, -0.0553089157, 0.0068392395, -0.0637696013, 0.0698604807, -0.0588452220, 0.0015754499, -0.0280829147, -0.0708862990, 0.0657814965, -0.0027520286, -0.0040875189, -0.0327523239, -0.0284222439, -0.0353674851, -0.0589572303, 0.0291285310, -0.0393839367, 0.0008337884, -0.0482622832, -0.0224831998, 0.0308201872, -0.0002159377, 0.0439743139, 0.0004273558, 0.0799763277, -0.0425357185, 0.0344159380, -0.0402704887, 0.0509406328, 0.0496302433, -0.0733585581, 0.0067148018, 0.0386848599, 0.0719861612, -0.0338418111, 0.0009063458, 0.0201088917, 0.0076317033, 0.0682894960, 0.0152747035, -0.0080452869, 0.0651963949, 0.0245735571, 0.0263745524, 0.0420625098, 0.0074597229, 0.0587493144, 0.0769054070, -0.0578875095, -0.0702032372, -0.0011269368, -0.0549654216, -0.0772822574, 0.0723184422, -0.0121234059, -0.0085962191, -0.0286840107, -0.0355716497, -0.0766953528, -0.0514111854, -0.0227185078, -0.0397181921, -0.0555201992, 0.0393845215, 0.0786979869, 0.0151382219, 0.0291445144, -0.0740901306, 0.0586628504, -0.0436624587, 0.0523717329, 0.0617336668, 0.0377142802, -0.0619519725, -0.0467672870, 0.0384580605, -0.0639953911, -0.0172250904, 0.0207429118, -0.0514075309, 0.0334565453, -0.0394504294, -0.0195798874, -0.0628458112, 0.0795403495, 0.0195513181, 0.0198391695, 0.0230923146, -0.0389998145, -0.0000632094, 0.0430102162, -0.0222945120, 0.0015863152, 0.0243848693, 0.0533537157, 0.0549413711, 0.0152637837, -0.0653352290, 0.0065590059, 0.0365022607, 0.0792723298, 0.0502429940, -0.0704774335, -0.0544098318, -0.0191433262, 0.0335561372, -0.0399064124, 0.0301897880, 0.0062199533, 0.0630926862, 0.0736366734, 0.0609703586, -0.0047666524, -0.0087152049, -0.0251018573, -0.0784304440, 0.0807631016, 0.0243393909, -0.0715797469, -0.0780753791, 0.0235180911, 0.0443036407, 0.0202047210, 0.0797032267, 0.0625167415, 0.0483764224, 0.0592958517, 0.0207057074, 0.0601765253, 0.0743387416, -0.0783213899, 0.0471828468, 0.0667421818, 0.0655749217, -0.0175196156, 0.0719940886, -0.0653267801, -0.0113569349, -0.0212057605, 0.0355915725, 0.0045250095, 0.0727478415, -0.0749973580, 0.0785438940, -0.0690029338, 0.0277534537, 0.0748061016, 0.0439480357, -0.0605261251, -0.0215029139, 0.0735210255, 0.0579681210, 0.0321196392, -0.0556168519, -0.0718992651, -0.0530236810, -0.0561717488, 0.0613089353, 0.0546371266, 0.0280731320, 0.0581067763, -0.0244219285, -0.0282963123, 0.0753812939, 0.0189583302, 0.0701377466, -0.0342448540, -0.0097635780, -0.0435521677, 0.0095055914, 0.0267362669, -0.0239457209, -0.0040351860, -0.0769289136, 0.0756920204, -0.0799200982, 0.0223331172, -0.0127595020, -0.0755299926, -0.0384433754, -0.0275222193, 0.0033198379, -0.0276991650, 0.0323633850, -0.0023554601, -0.0616427921, -0.0418523103, 0.0275439601, -0.0087094111, -0.0355762951, -0.0436330959, 0.0222607125, -0.0097655887, -0.0658644065, -0.0099077383, -0.0395228490, 0.0241274759, -0.0422182977, -0.0765072405, -0.0589120686, 0.0534079894, 0.0410894938, -0.0775591657, 0.0591783747, 0.0588675216, -0.0328867845, 0.0084678130, -0.0809461176, 0.0472991467, 0.0302785784, -0.0108163515, 0.0775630176, 0.0426224023, -0.0664006993, -0.0022766066, -0.0037735878, 0.0074049085, -0.0391894840, -0.0203748271, -0.0569706187, -0.0176387988, 0.0679265484, 0.0544983223, -0.0042027105, 0.0671190098, -0.0609449670, -0.0486005209, -0.0405573584, -0.0472341143, -0.0193382539, 0.0455700234, -0.0125559494, 0.0080597010, 0.0289706644, 0.0166207403, 0.0003400410, -0.0449049100, 0.0300052855, -0.0643494055, 0.0470517054, -0.0351857357, -0.0223688819, 0.0367212445, 0.0512483120, 0.0792452469, 0.0278145894, 0.0499344990, -0.0257541407, -0.0649224147, 0.0323301665, 0.0440804735, 0.0402880162, 0.0428128466, 0.0432657823, 0.0089876344, -0.0147972200, -0.0466877855, 0.0279046893, -0.0116134603, 0.0542652309, 0.0028915619, 0.0163674802, -0.0799026340, 0.0251540374, 0.0354367420, 0.0046735355, 0.0742061660, -0.0446926802, -0.0608191602, 0.0658765957, -0.0639621019, 0.0304670446, 0.0204489492, -0.0018476155, 0.0012188583, -0.0234972090, -0.0617521740, 0.0357055366, -0.0664726496, -0.0205023047, 0.0185057782, -0.0486005843, -0.0522188954, 0.0093349144, 0.0182429627, -0.0613742843, -0.0126270000, -0.0653764978, 0.0419626907, -0.0786037818, 0.0321255326, -0.0114925504, 0.0539131798, 0.0406549536, 0.0503066815, 0.0262231864, 0.0105018280, 0.0127501404, 0.0327467360, 0.0033918282, 0.0513259582, -0.0254276954, -0.0499547683, 0.0564469546, -0.0626441315, -0.0029227922, -0.0612710156, -0.0001286424, -0.0515871271, 0.0581213385, 0.0616780370, 0.0791332349, 0.0406722426, 0.0480564162, -0.0154065136, 0.0527759790, 0.0388428271, 0.0197589304, 0.0531339161, -0.0189961866, 0.0599461719, 0.0655449480, 0.0425960384, 0.0209912956, -0.0445234701, -0.0173139237, 0.0299279615, 0.0757070184, -0.0682375878, 0.0175949223, 0.0654728785, 0.0067148968, -0.0787383318, 0.0031261719, -0.0275052451, -0.0176119804, 0.0703959391, 0.0571480691, -0.0093210349, -0.0070594070, 0.0484557450, -0.0315939970, 0.0310929958, 0.0045218552, 0.0791603029, 0.0067763776, -0.0066669961, 0.0444029942, -0.0663594455, 0.0504802316, 0.0727648214, -0.0381482989, -0.0225345120, 0.0333595276, 0.0054378333, 0.0407183543, -0.0072929505, 0.0562811866, -0.0406405441, 0.0654080883, -0.0604285374, 0.0012095164, -0.0123392055, -0.0411042199, -0.0302298144, -0.0206658468, 0.0019947244, 0.0743695423, 0.0741191283, -0.0326962844, 0.0786989555, 0.0502946675, -0.0688830540, 0.0516956300, 0.0519761518, -0.0207380541, 0.0784820393, 0.0306186471, -0.0124708954, 0.0565386005, -0.0214291252, 0.0695835799, 0.0278407056, -0.0376008824, 0.0315768570, -0.0568673685, 0.0184051916, 0.0634403601, -0.0499181971, -0.0413279645, -0.0779218525, 0.0723748282, -0.0185394622, 0.0698894188, -0.0245377626, 0.0638555214, -0.0756860152, 0.0773126408, -0.0175257288, 0.0502344370, 0.0031027184, 0.0096867215, -0.0149716139, 0.0144431088, -0.0259510633, 0.0162054673, -0.0397738591, 0.0311302375, -0.0435076281, -0.0124583254, -0.0500576124, -0.0762243047, -0.0791107193, 0.0551475212, 0.0486898646, 0.0654303655, 0.0687486157, -0.0725518391, -0.0420465358, 0.0601551160, -0.0175840501, 0.0365750417, -0.0594128706, -0.0622087494, 0.0332946256, -0.0356692299, -0.0736109167, -0.0250785742, -0.0375512317, 0.0574226007, 0.0482926294, 0.0525195450, 0.0253236406, -0.0139267985, 0.0434882492, -0.0666124076, 0.0700023249, -0.0626469627, 0.0759721994, 0.0357217714, 0.0260547400, 0.0006696081, 0.0622807592, 0.0699109063, -0.0359895863, 0.0370957591, -0.0290205535, 0.0644147471, -0.0239505544, -0.0119339675, 0.0184443556, 0.0222075526, 0.0602200255, 0.0270142965, -0.0238111056, -0.0362087861, -0.0744676068, -0.0387237556, 0.0505618528, 0.0434229486, 0.0731362030, 0.0044962307, -0.0575443320, 0.0598997921, -0.0190884098, 0.0730738416, -0.0458096638, -0.0012587656, -0.0390991271, 0.0292093474, -0.0179017670, 0.0039135888, -0.0288015082, 0.0736969188, 0.0203066319, 0.0578437001, -0.0160999801, -0.0117065553, -0.0249910317, -0.0329083987, 0.0736275688, -0.0338935927, -0.0595081560, 0.0722729191, -0.0024272287, 0.0762801394, -0.0341724008, 0.0639502704, 0.0758225098, 0.0271033347, -0.0665885583, 0.0463734455, 0.0724741518, -0.0361492522, -0.0094920089, 0.0552182049, -0.0425369367, -0.0733253807, -0.0016760140, 0.0067994054, -0.0347766317, 0.0396354571, -0.0623008534, -0.0216312166, -0.0660102889, 0.0367855579, -0.0280203745, -0.0383193679, 0.0111423861, -0.0723096579, -0.0584277958, 0.0133451130, 0.0535100214, 0.0395409018, -0.0589945726, 0.0026587411, -0.0529571809, 0.0263176654, -0.0520527810, -0.0447891280, -0.0153955640, -0.0108644757, -0.0689557418, -0.0244868957, 0.0532834381, -0.0278484412, -0.0471342318, -0.0764617920, 0.0482211038, -0.0387601107, 0.0681185052, -0.0702587441, 0.0715287253, 0.0111749899, -0.0152334878, -0.0105435494, -0.0787887499, -0.0310448706, 0.0214450974, 0.0492781773, -0.0561280847, -0.0591675080, -0.0641039982, 0.0079252627, 0.0230945218, 0.0285550375, -0.0016584521, -0.0030018806, 0.0468042865, 0.0603310093, 0.0657327175, 0.0704742596, 0.0021770701, 0.0572460145, 0.0060798638, -0.0208444130, 0.0797114372, 0.0545004159, 0.0540766940, -0.0734950230, -0.0646546185, 0.0315234140, -0.0353577584, -0.0080738757, 0.0168659147, 0.0244506113, -0.0576877482, -0.0847982690, -0.0433590598, -0.0484827794, -0.0283647664, 0.0357438475, -0.0273703523, 0.0329169780, 0.0222524088, -0.0612091422, 0.0172527805, -0.0225688014, 0.0405284911, 0.0249440148, 0.0393172987, -0.0268995352, 0.0280816909, -0.0517712012, -0.0563960820, -0.0287260395, 0.0742892399, -0.0469918624, 0.0592066050, -0.0217155293, -0.0448017605, 0.0706257150, -0.0217328370, -0.0150762107, -0.0029510884, -0.0775773376, -0.0059906007, -0.0283658989, 0.0078879707, 0.0303845070, -0.0262244660, 0.0068506985, 0.0016106799, 0.0013976987, -0.0295870267, -0.0674517751, -0.0426406190, 0.0412933938, -0.0069029909, -0.0829668939, 0.0133321518, 0.0105084907, 0.0497543998, -0.0836267993, -0.0273438897, -0.0065160911, -0.0237293113, 0.0208902378, 0.0270758308, -0.0412663147, 0.0071231164, 0.0595699623, 0.0254537165, -0.0215746593, 0.0080553843, -0.0824311301, 0.0299285445, 0.0711964890, 0.0081366310, -0.0402574204, -0.0318144001, -0.0144114345, -0.0398696251, -0.0676669776, 0.0059841126, 0.0173804965, 0.0238988828, -0.0223617088, -0.0479659364, 0.0235006846, 0.0698976964, -0.0699802339, 0.0365165062, -0.0676410124, -0.0546644181, 0.0144991623, -0.0729436651, 0.0019221226, -0.0346155725, -0.0272764266, -0.0163848531, 0.0492974631, 0.0727493837, 0.0473359860, 0.0095951622, 0.0181664024, -0.0401895419, -0.0234204512, 0.0393428244, 0.0085037593, -0.0744264126, -0.0285206996, 0.0321995690, -0.0821664631, 0.0006693491, -0.0084094508, 0.0280829258, -0.0604975410, -0.0322400853, -0.0455986522, 0.0020478496, 0.0237857644, 0.0742568672, -0.0690602586, 0.0215077214, -0.0029182560, -0.0242446549, -0.0787604749, 0.0591802076, -0.0378011577, -0.0475884303, 0.0641266778, 0.0100619439, 0.0176737141, -0.0767466500, 0.0376888290, -0.0154109225, -0.0182898268, -0.0592115857, -0.0212907977, -0.0727392286, 0.0418295227, -0.0225338899, -0.0632297248, -0.0702273473, -0.0362884142, 0.0395125709, 0.0585138686, -0.0532148890, 0.0348002166, 0.0070231394, 0.0465930849, -0.0304231998, -0.0078110443, -0.0191279314, -0.0518013798, -0.0641634315, 0.0081282407, 0.0419614427, -0.0014209069, 0.0584386364, 0.0175703820, 0.0624032803, -0.0799203366, -0.0781813413, 0.0315165706, 0.0695536286, -0.0690339655, -0.0510725081, 0.0477744304, -0.0312555209, -0.0170014575, 0.0384291224, 0.0368370041, 0.0754616335, -0.0596280880, -0.0397726223, -0.0521097593, -0.0165451355, 0.0272009782, -0.0757020712, -0.0501750261, 0.0231449381, 0.0261584483, -0.0211294815, 0.0475450940, -0.0841369256, -0.0078447191, 0.0163700413, 0.0299985092, -0.0745017529, -0.0052859099, -0.0409101285, -0.0259983279, -0.0040836064, -0.0480962060, -0.0157788694, -0.0649401024, 0.0472199656, -0.0436150320, -0.0147363562, 0.0458481424, -0.0420034043, 0.0171136037, 0.0125338519, -0.0037343374, 0.0542158745, 0.0207986664, 0.0699289963, 0.0100660957, -0.0585530326, -0.0480121225, -0.0092483964, 0.0714214444, -0.0791784674, 0.0087202173, -0.0313961580, -0.0456590131, -0.0207339153, 0.0074467165, -0.0092325918, -0.0025892635, 0.0502496883, 0.0465908609, -0.0723442733, -0.0701209009, -0.0668597668, 0.0777595714, -0.0424208418, -0.0039264718, 0.0539172962, 0.0001831856, -0.0532461554, 0.0214246400, -0.0384751856, -0.0240112916, -0.0615788139, 0.0151333483, 0.0375962928, 0.0392947979, -0.0103823794, -0.0402212925, -0.0590221062, 0.0644479021, -0.0083202962, -0.0040432233, 0.0264568143, -0.0053792032, -0.0073304549, -0.0207102522, -0.0220851600, 0.0391161293, 0.0379226729, 0.0250490885, -0.0419304296, -0.0216807425, -0.0504572988, -0.0709213093, 0.0041652005, -0.0469264723, -0.0679716691, 0.0462509058, -0.0503395088, 0.0494602434, 0.0196066182, 0.0426833667, 0.0308721792, -0.0564852431, -0.0332628749, 0.0030399484, -0.0435434580, -0.0408445597, -0.0120468549, -0.0203216970, 0.0143377157, -0.0138404835, 0.0061886064, 0.0149936453, 0.0515207686, 0.0369826518, -0.0803970695, 0.0421217680, -0.0768252462, -0.0768465251, 0.0213939846, 0.0027678006, -0.0362491943, -0.0771773756, -0.0375685766, -0.0295066908, -0.0283701755, -0.0841863677, -0.0680389553, 0.0438364930, 0.0304691028, -0.0126477024, 0.0309158042, -0.0255443901, -0.0088045383, 0.0621282496, -0.0409227423, -0.0485388748, -0.0746205896, 0.0599690527, -0.0602693483, -0.0234876554, 0.0479475781, 0.0066624493, -0.0192360543, -0.0562358424, -0.0344593190, 0.0167905558, -0.0168271400, -0.0151641658, 0.0584538616, -0.0442592911, 0.0333889946, -0.0149656655, -0.0530624017, -0.0199985337, 0.0064822622, -0.0262232739, 0.0322807916, -0.0344142877, -0.0103147840, -0.0373605527, -0.0606331527, 0.0395541489, 0.0228123050, -0.0257019233, 0.0740779415, -0.0079323566, 0.0556129068, 0.0241646450, 0.0395013951, 0.0192788206, 0.0285447016, -0.0004380967, -0.0751601383, 0.0571422949, -0.0168073364, -0.0034483001, -0.0419326313, 0.0673066527, -0.0087045263, -0.0458291098, 0.0165140443, 0.0535929017, -0.0731433108, -0.0388762169, -0.0508153327, 0.0538652912, -0.0160600841, -0.0419984460, 0.0375539921, -0.0043802965, 0.0535628572, 0.0681793764, -0.0188406259, -0.0259480961, -0.0631138757, -0.0547586530, -0.0677263737, -0.0817277953, -0.0505918674, 0.0438394882, 0.0099401092, -0.0659006014, -0.0745970532, -0.0353007764, -0.0810811669, -0.0847762823, 0.0461132564, 0.0736759827, 0.0127942320, -0.0331413783, -0.0621302091, 0.0180913415, -0.0404006876, 0.0074732858, -0.0740324780, 0.0284072012, -0.0221379884, 0.0740772262, -0.0488740094, -0.0059828134, 0.0131311091, -0.0123844044, -0.0298756752, 0.0363738239, 0.0224440396, 0.0205335636, 0.0735134333, 0.0459014326, 0.0747388005, -0.0107993707, 0.0498947278, 0.0024267763, 0.0531534404, 0.0537952110, 0.0603063256, -0.0401472487, -0.0608547144, -0.0129964724, -0.0509816371, 0.0309067760, 0.0283482317, 0.0511588641, 0.0037249725, -0.0104932226, 0.0552979819, 0.0542149283, -0.0600584857, -0.0058477852, 0.0012842130, -0.0082478663, -0.0553340018, -0.0173068866, 0.0518081263, 0.0070916656, -0.0281558577, -0.0020494421, 0.0393734425, 0.0358528495, -0.0363983028, 0.0453098789, -0.0542432554, -0.0317532569, -0.0131298564, 0.0108651435, -0.0470061339, -0.0379968621, -0.0031087371, 0.0389033034, -0.0832419246, -0.0042243833, -0.0157045778, 0.0035004760, -0.0490742326, 0.0266329776, -0.0304557588, -0.0189558305, -0.0109282369, -0.0315125659, -0.0280511305, 0.0793633088, -0.0005760362, -0.0124842823, 0.0116368346, -0.0156224091, 0.0104047032, -0.0247170944, 0.0764916092, -0.0597996190, 0.0292995758, 0.0538172871, -0.0023094956, 0.0510585979, -0.0039703869, -0.0722432807, 0.0422369614, 0.0698570460, -0.0655022115, -0.0656288192, 0.0344779156, 0.0079498291, -0.0045038778, -0.0373290405, 0.0692957640, -0.0382639207, -0.0399850234, 0.0591370054, 0.0632879883, -0.0523833036, 0.0217013117, 0.0663072094, 0.0324206017, -0.0348567367, -0.0607471131, -0.0774486735, -0.0799816921, 0.0736378804, -0.0090804147, -0.0701591149, -0.0496081151, -0.0660383850, 0.0465931185, -0.0255932659, 0.0565220304, 0.0231464654, -0.0436873622, 0.0504202805, 0.0520466827, -0.0562029406, 0.0182466675, -0.0402046330, 0.0325465053, -0.0579581559, 0.0373445228, 0.0730275139, 0.0332386009, -0.0253584050, -0.0620216765, 0.0423383601, -0.0068938048, 0.0513570718, -0.0018935453, -0.0553703904, 0.0640334934, -0.0493134968, -0.0469560251, 0.0748928487, 0.0549308918, 0.0132234171, -0.0656341463, 0.0242347158, -0.0386547931, 0.0738932490, 0.0407784544, 0.0372575261, 0.0245208330, 0.0471208245, -0.0632014275, 0.0419433564, -0.0026045491, 0.0563792177, -0.0417806283, 0.0542535074, -0.0357374027, -0.0368428566, 0.0534160994, -0.0673305765, -0.0267190803, 0.0434924848, -0.0128502315, 0.0503588207, -0.0205201004, -0.0496653579, -0.0137777133, -0.0551703908, -0.0119946664, -0.0567523092, 0.0277340058, -0.0159357972, -0.0364870839, 0.0339850485, -0.0676284432, -0.0247544181, -0.0534429699, -0.0123622920, -0.0398987122, -0.0173694212, 0.0293404628, 0.0474679731, -0.0715828538, 0.0304498635, -0.0536691099, -0.0789651573, -0.0175884869, -0.0543046147, -0.0514886938, 0.0519705340, 0.0084596779, -0.0323705450, 0.0586495139, 