//Numpy array shape [784, 128]
//Min -0.547916889191
//Max 0.397570192814
//Number of zeros 0

#ifndef W2_H_
#define W2_H_

#ifndef __SYNTHESIS__
model_default_t w2[100352];
#else
model_default_t w2[100352] = {-0.0192668624, 0.0446047559, -0.0646891892, -0.0189052559, -0.0089508295, -0.0419758298, 0.0347925425, 0.0554389730, 0.0695094094, -0.0783094615, -0.0622412637, -0.0214769989, 0.0220236182, 0.0154753178, -0.0580357462, 0.0632107928, 0.0553914681, 0.0744730160, -0.0333975516, 0.0448774025, 0.0388684571, 0.0036774129, -0.0637671947, 0.0787078664, 0.0240928158, -0.0600598864, -0.0408510566, 0.0268848389, -0.0537463762, 0.0256378055, -0.0175835043, 0.0673248246, 0.0437169373, 0.0516346470, 0.0399718434, 0.0738694444, -0.0288312770, 0.0760660991, 0.0409106165, 0.0639964715, 0.0043564960, 0.0207949579, 0.0583284870, -0.0422705859, 0.0469819680, -0.0594068132, 0.0390067026, -0.0171747506, -0.0651700124, -0.0651212186, -0.0587259494, 0.0515338853, 0.0741416290, -0.0664237514, -0.0502698347, 0.0158037022, 0.0157287642, 0.0552594289, 0.0181797221, 0.0354632884, 0.0546549037, -0.0673075914, 0.0798743591, 0.0683925077, 0.0189518854, 0.0391056389, -0.0360605903, 0.0033082813, -0.0352775268, -0.0557040311, 0.0493140891, 0.0788804665, 0.0525841191, -0.0204717740, -0.0588409528, -0.0149796009, 0.0232813954, 0.0768312141, 0.0332502499, -0.0485807098, 0.0607935414, -0.0344831273, 0.0061072856, -0.0139293373, 0.0595075414, -0.0318155847, 0.0781733915, 0.0542078838, -0.0709017888, 0.0074154660, -0.0515902117, -0.0245901383, 0.0150595456, 0.0514249131, 0.0213818923, -0.0560097694, 0.0089644790, -0.0122689903, -0.0393714234, 0.0644433573, -0.0072335526, 0.0442776904, -0.0520065278, -0.0597062483, 0.0586554185, -0.0201537199, -0.0188913718, -0.0378124304, 0.0052634776, 0.0799931213, -0.0367794149, 0.0303788260, 0.0215661675, 0.0357455909, 0.0274373144, -0.0665948167, 0.0159422606, -0.0494197011, 0.0251530558, -0.0483119264, 0.0778835341, -0.0632618070, -0.0714457929, 0.0008800700, 0.0205001459, -0.0494560376, 0.0458182767, -0.0602995083, 0.0469298586, 0.0379572734, -0.0483277068, -0.0040178820, -0.0474276431, -0.0136499777, 0.0531642213, -0.0748304054, -0.0165028200, 0.0084359273, 0.0157348588, 0.0179938227, 0.0534275398, -0.0600887015, -0.0431321822, -0.0384159759, 0.0719564185, 0.0050325021, 0.0041536167, 0.0278245434, -0.0145728961, 0.0569888726, 0.0012869239, -0.0005481467, -0.0670767501, 0.0118844658, 0.0129407868, 0.0772906765, -0.0087789521, -0.0235636421, -0.0740741417, -0.0435102060, 0.0291444212, 0.0282428935, -0.0524369031, -0.0076284185, 0.0569806919, 0.0731282458, -0.0073710084, 0.0718829557, 0.0227982327, 0.0546083227, 0.0797194019, -0.0414917357, -0.0124298483, -0.0664400533, 0.0275002047, 0.0771491751, 0.0146401152, -0.0273935348, -0.0312943794, -0.0421101935, -0.0679676458, 0.0096922964, -0.0054734573, -0.0217010714, 0.0084232017, -0.0462933369, -0.0271708928, 0.0015227944, 0.0614611581, -0.0048650503, 0.0310982838, 0.0730123147, 0.0526574180, 0.0120149851, 0.0519721881, -0.0057560652, -0.0202471428, -0.0657994002, 0.0375668705, 0.0256234631, -0.0119205341, -0.0526255667, -0.0782339051, 0.0761149451, -0.0393551216, -0.0066620633, 0.0490301475, 0.0304962695, 0.0616568998, -0.0568060800, -0.0639807433, -0.0625652224, 0.0741001144, -0.0371895246, -0.0715453476, 0.0150415823, -0.0615908802, -0.0123077258, -0.0539357737, 0.0073927417, -0.0459483601, 0.0012362227, 0.0452839509, 0.0247008875, 0.0103099793, -0.0031176060, -0.0247233398, -0.0271437019, 0.0672867075, -0.0168914050, 0.0690727904, 0.0640779212, -0.0507522449, 0.0394728333, -0.0169188678, -0.0558061749, -0.0490462035, 0.0029088482, -0.0448253676, 0.0425134152, -0.0170224383, -0.0611829758, -0.0044877827, 0.0495883301, 0.0352545530, -0.0357469432, -0.0485077836, 0.0624952987, -0.0617498010, -0.0041836873, 0.0067552775, -0.0735872984, 0.0434219465, -0.0052874759, -0.0311465561, -0.0077984408, 0.0505183116, -0.0063748881, 0.0024884939, -0.0488087870, 0.0507400706, 0.0405441970, -0.0639737099, 0.0772981867, -0.0281046815, -0.0175192654, -0.0625869930, -0.0518413410, 0.0463777259, -0.0344051160, 0.0309003592, 0.0017962158, 0.0363346711, -0.0079013184, 0.0563214198, -0.0399314240, -0.0358956158, -0.0707216486, -0.0726264343, 0.0123501942, 0.0183844939, -0.0458275937, 0.0705491379, -0.0392651036, -0.0156425610, 0.0224698856, 0.0704656765, 0.0080707446, -0.0118719786, 0.0052798390, 0.0070314631, 0.0302689821, -0.0181910172, 0.0731306002, 0.0160873756, -0.0041005090, 0.0133515671, -0.0729488656, -0.0128033459, 0.0103764832, 0.0682455823, 0.0571158007, 0.0446229205, 0.0208019614, 0.0753606930, -0.0226558037, 0.0263309330, -0.0238468125, 0.0311196968, -0.0232673399, -0.0326546729, 0.0311020985, -0.0500298664, -0.0172533393, 0.0287990198, -0.0732856989, -0.0340175405, 0.0149076059, 0.0051877871, -0.0682970360, -0.0007283762, -0.0259828605, 0.0044436678, -0.0681595951, -0.0467932522, 0.0066777691, -0.0211631581, 0.0456871614, -0.0185591578, 0.0762489215, -0.0304092653, 0.0230941102, -0.0170934722, -0.0602834374, 0.0137366503, 0.0553517267, -0.0749112740, -0.0679718778, 0.0042076111, -0.0411387533, -0.0316936560, -0.0693047568, 0.0112341195, -0.0680004433, 0.0635972843, -0.0766112283, 0.0234405920, -0.0348454490, -0.0430311970, 0.0781226829, 0.0248731896, 0.0725427195, 0.0443083569, 0.0027986765, -0.0723406151, -0.0745771304, 0.0399651527, 0.0553268716, 0.0036455989, -0.0536885746, -0.0707059875, -0.0676647872, 0.0076162517, 0.0284500048, 0.0034590811, 0.0083241165, -0.0287874378, -0.0292158574, 0.0745984390, 0.0272897035, -0.0282922052, -0.0250924490, -0.0296713151, -0.0333454572, -0.0048909634, 0.0017873794, 0.0238715857, -0.0733974725, -0.0187922232, 0.0293033049, -0.0574398749, 0.0285922736, 0.0262780637, -0.0753994733, -0.0627166629, 0.0554439649, -0.0066155717, 0.0532534793, -0.0409168079, 0.0377142504, 0.0382968113, 0.0042261332, -0.0122885033, -0.0266618691, 0.0389026999, 0.0171629563, -0.0671858937, -0.0039151162, 0.0038468167, -0.0742860883, -0.0450519919, -0.0177547261, 0.0438481420, 0.0377422720, -0.0145800933, 0.0300632417, 0.0678221658, -0.0455181226, 0.0225348845, -0.0750366822, -0.0487062335, -0.0477989018, -0.0179238394, -0.0193224996, -0.0810787976, 0.0787883475, 0.0805384293, 0.0280397385, -0.0651219562, -0.0731233358, -0.0235725157, 0.0358800292, 0.0629655495, 0.0331797823, 0.0377874598, 0.0737620965, -0.0400577411, 0.0735679194, 0.0772516951, -0.0217636116, -0.0357427672, 0.0514044687, 0.0010803938, -0.0547505356, 0.0066674203, 0.0382578447, -0.0684185773, -0.0432684980, -0.0651169717, 0.0207121521, 0.0141004622, 0.0212137476, 0.0681433305, 0.0090859681, -0.0076689497, 0.0095063820, 0.0061664805, 0.0496491268, 0.0519990847, 0.0639496371, 0.0291834697, -0.0065498054, 0.0763003305, -0.0544036254, 0.0746341571, -0.0644333214, 0.0119105726, 0.0011725798, 0.0651547983, 0.0080428794, 0.0694358721, 0.0147115514, -0.0021384880, -0.0310991369, 0.0307055488, 0.0258573964, -0.0566440672, -0.0468296669, 0.0730390772, 0.0016442388, 0.0176788419, -0.0426126011, -0.0555571541, 0.0197598338, 0.0412404686, -0.0553655140, 0.0168924704, -0.0220505148, -0.0249072276, -0.0016327500, 0.0542800352, 0.0217221901, -0.0444889590, 0.0260037482, -0.0487665311, -0.0691992268, 0.0194509849, 0.0365682617, 0.0015492514, -0.0530166626, 0.0416386500, -0.0525835641, 0.0531431809, -0.0237655118, -0.0721791238, 0.0342228562, -0.0320455171, 0.0296090096, -0.0490741059, 0.0060980991, 0.0157965124, 0.0156757608, 0.0043687895, 0.0702475682, -0.0212847181, 0.0712962821, 0.0534477606, 0.0612226799, -0.0631747469, -0.0588293895, -0.0263417996, 0.0649047866, 0.0011497959, -0.0014579520, 0.0519347265, -0.0364177115, 0.0617011115, -0.0202404298, -0.0171869546, -0.0216163695, 0.0734997019, 0.0485629067, 0.0486650839, 0.0303822905, 0.0076975152, -0.0656203851, -0.0255709179, 0.0575785711, -0.0034509599, -0.0001538396, 0.0794837698, 0.0104030967, 0.0757939592, 0.0086415485, 0.0388384983, -0.0305470861, 0.0467386022, 0.0560356304, 0.0321415663, 0.0514693633, -0.0375757292, 0.0407237113, -0.0749204382, -0.0658533275, 0.0006565750, -0.0150218010, 0.0291231722, 0.0240542367, 0.0604253486, -0.0488521419, -0.0311852135, -0.0304354280, -0.0391101465, 0.0376929566, 0.0453469232, -0.0810924917, 0.0409619585, -0.0028589964, 0.0102756396, 0.0030573681, -0.0413314588, 0.0247013122, -0.0093552694, 0.0705755875, -0.0222035199, 0.0597591624, 0.0504480526, -0.0656162053, 0.0584120378, -0.0481209606, 0.0487095490, -0.0733751729, -0.0170707330, -0.0341656692, -0.0542049259, 0.0711048469, 0.0756686255, -0.0346514285, -0.0540760159, 0.0618279055, 0.0373791903, 0.0751375481, -0.0245736018, -0.0392802842, 0.0039295256, 0.0538195297, -0.0245561227, 0.0015399829, -0.0287176445, -0.0739096478, 0.0728638396, 0.0051252842, -0.0565131232, 0.0178704634, -0.0064153299, -0.0157065839, 0.0314384252, -0.0321514495, -0.0550012589, 0.0382576585, -0.0114730820, 0.0208732560, 0.0199345797, -0.0802771524, -0.0738162249, -0.0463896208, 0.0174069479, 0.0760055110, -0.0176035762, -0.0039285198, -0.0682799593, 0.0218811706, 0.0265844390, 0.0427655056, -0.0589193925, 0.0671726540, -0.0479529314, 0.0013186410, -0.0324597247, 0.0515461639, -0.0189449191, -0.0446213298, 0.0231603608, -0.0312822349, -0.0219534747, -0.0190853737, 0.0377566591, -0.0395777635, 0.0186622888, 0.0667098090, 0.0216161758, -0.0564818755, -0.0119379014, -0.0215895101, -0.0380982310, 0.0740361437, 0.0435351953, -0.0714233443, 0.0777934566, -0.0106233433, -0.0730344504, 0.0648411885, 0.0386271700, -0.0421214290, -0.0567527637, -0.0081602186, -0.0462390929, 0.0672712550, 0.0620621964, 0.0606337711, 0.0297877491, 0.0543475971, 0.0503434762, -0.0478741266, -0.0037465245, 0.0622095242, 0.0099042282, 0.0276756436, -0.0058750510, 0.0161845535, 0.0698104128, -0.0486726649, -0.0321541578, -0.0805823505, 0.0791147128, -0.0615538284, -0.0406369828, -0.0485597104, -0.0304229744, -0.0553992018, -0.0711197332, -0.0422202833, 0.0271476060, -0.0652020723, 0.0388505086, -0.0657997653, 0.0419541523, 0.0711291060, -0.0616809577, -0.0570808575, -0.0704002678, -0.0023482665, 0.0375251174, 0.0450440273, -0.0696867257, 0.0100492090, -0.0694226399, -0.0291580744, -0.0002639890, -0.0756528005, 0.0732313022, 0.0528023019, -0.0650570169, 0.0718093738, 0.0774022862, 0.0162907615, -0.0689444616, 0.0447748527, -0.0547552332, -0.0610408783, -0.0280601047, 0.0481439307, -0.0676401109, -0.0334921181, 0.0103112608, 0.0700608566, 0.0710582808, -0.0047973692, 0.0510426536, -0.0756123438, 0.0096952170, -0.0793192461, -0.0274510644, 0.0466110632, 0.0781079009, -0.0154922381, -0.0360665657, -0.0120872706, -0.0698062330, 0.0672976449, 0.0275528431, -0.0332158506, -0.0409578234, 0.0649392530, -0.0396467261, 0.0334197357, -0.0572096147, -0.0201808326, -0.0532779247, 0.0498148873, 0.0330723971, 0.0125150532, -0.0795385242, 0.0357012302, -0.0076456070, -0.0088753104, 0.0028674453, -0.0011804327, 0.0471857414, -0.0168085396, 0.0385485590, 0.0193773806, -0.0505354442, 0.0301591605, 0.0478822365, -0.0496887937, -0.0712118745, -0.0333168358, -0.0067291856, -0.0686225742, 0.0680333897, -0.0278032944, 0.0712544397, -0.0396092087, -0.0205693766, -0.0660288483, 0.0330705419, 0.0007462427, 0.0516134426, -0.0672405064, -0.0371553339, -0.0374993421, -0.0010650009, 0.0187363550, 0.0175908878, -0.0794514418, 0.0618636087, 0.0692737326, 0.0749232247, 0.0515077040, 0.0387103260, -0.0776418447, -0.0620930195, 0.0698126182, 0.0564540699, 0.0368252248, -0.0410276540, 0.0126333609, 0.0232020319, 0.0591933504, -0.0228529386, -0.0423192792, -0.0665434003, -0.0226304904, 0.0085264891, 0.0124093667, 0.0420404598, -0.0273011550, 0.0559842065, -0.0462764949, -0.0325046256, -0.0685000718, 0.0281197652, 0.0219996721, 0.0783990100, 0.0167970955, 0.0299760252, -0.0582880154, -0.0076651573, -0.0345406793, -0.0730826259, -0.0734178573, -0.0205644816, -0.0205738060, -0.0600281321, -0.0569595098, -0.0368158296, 0.0565476194, 0.0119274557, 0.0496120974, -0.0560724661, -0.0612126999, 0.0259828791, 0.0687440261, -0.0697997734, -0.0419108719, 0.0426837057, 0.0449499115, 0.0092281774, -0.0740634426, -0.0133244917, 0.0764112547, -0.0570026562, -0.0414800718, -0.0670245960, 0.0710204318, 0.0105880648, 0.0047601983, -0.0056168064, 0.0608850345, -0.0081891119, -0.0271351747, 0.0221131518, -0.0138574988, 0.0345904380, -0.0759986266, -0.0626537725, -0.0184956491, -0.0682784468, 0.0041146502, 0.0450500622, 0.0632938817, -0.0299121141, -0.0716292337, 0.0754657760, 0.0472580865, -0.0709812120, 0.0174689069, -0.0675437897, -0.0177116394, 0.0413998961, 0.0574473664, 0.0747712478, -0.0727357343, 0.0607657507, 0.0699643120, -0.0801095814, 0.0276958868, 0.0131084248, 0.0571000800, 0.0392945334, 0.0692825541, 0.0028912127, 0.0749535039, 0.0757090822, -0.0456459485, -0.0441145487, -0.0709447786, 0.0244419649, 0.0603229627, -0.0310060419, 0.0462369695, 0.0355596542, 0.0589835569, 0.0030681789, -0.0668126643, 0.0079937577, 0.0791028962, -0.0780141652, -0.0639898926, -0.0194566324, -0.0809473991, -0.0269563720, -0.0677997097, -0.0176170394, -0.0059341490, 0.0018186122, -0.0735910311, -0.0394231342, -0.0134798959, -0.0335615426, -0.0596338809, -0.0417170636, -0.0700639933, -0.0024636388, -0.0314858072, 0.0056622326, 0.0373459905, -0.0796675310, 0.0516811833, -0.0783502832, -0.0498495139, 0.0587362126, -0.0140649229, 0.0127205402, 0.0109628215, 0.0488967374, 0.0245684385, 0.0332280323, -0.0217944756, 0.0427077040, 0.0380498841, -0.0478644595, -0.0697949380, -0.0023873150, 0.0094566047, -0.0211096294, -0.0242665485, -0.0144511089, -0.0629829839, 0.0183297321, -0.0792661607, -0.0189321749, 0.0763440654, 0.0736543611, -0.0009127110, 0.0528611615, -0.0629961938, 0.0706435814, 0.0514967963, -0.0303566828, -0.0757087097, -0.0277282037, -0.0242384300, 0.0032497421, 0.0348018631, 0.0418972000, -0.0766398460, 0.0805993602, 0.0534159020, -0.0196318179, 0.0158222467, 0.0303450003, 0.0642082170, 0.0450044647, 0.0035335943, -0.0574204586, 0.0662177280, -0.0020108148, 0.0748803094, 0.0242644772, -0.0039545074, 0.0587570444, 0.0257382914, -0.0787037686, -0.0251990221, 0.0627574399, -0.0420903116, -0.0405090190, 0.0037314966, -0.0370535366, -0.0367865115, 0.0758303925, -0.0237261392, -0.0614297725, 0.0279858038, -0.0768001080, -0.0564405881, 0.0361190885, 0.0630547330, 0.0778354928, 0.0058634132, -0.0401337221, -0.0643903688, 0.0625991598, -0.0494835563, -0.0498932786, 0.0615966097, 0.0732194111, -0.0130498707, -0.0741968006, 0.0136914998, -0.0191210136, -0.0565541238, -0.0113318339, 0.0703851506, 0.0779114738, 0.0068287402, -0.0642301291, 0.0506722853, -0.0627702624, -0.0551101901, -0.0428567082, 0.0524492338, 0.0155885294, 0.0119116008, -0.0380483568, -0.0404705368, -0.0793675706, 0.0686679110, 0.0118211731, -0.0751473606, -0.0363078527, 0.0639920607, 0.0212731734, -0.0651051104, -0.0032154545, 0.0093649402, 0.0005407408, -0.0205962770, -0.0343934558, -0.0801988468, 0.0441972837, -0.0317635648, 0.0728388503, 0.0161438435, -0.0599628091, -0.0548589081, -0.0769384131, -0.0583397076, 0.0378805771, -0.0542416871, -0.0497120395, 0.0792042837, -0.0657460988, -0.0490250848, -0.0501952060, 0.0314880908, 0.0299687758, 0.0375263020, 0.0805620030, 0.0092364326, -0.0424583405, -0.0327290483, -0.0254872814, 0.0764698014, 0.0461250618, -0.0136824101, -0.0777363852, -0.0705589205, 0.0057207942, -0.0076373890, -0.0681152567, -0.0008962750, 0.0134993866, -0.0246997066, 0.0425960124, -0.0015144423, -0.0152779743, 0.0653387383, -0.0340217166, 0.0719890669, -0.0366096646, -0.0287147276, -0.0091051087, -0.0439637676, -0.0246081427, -0.0632132068, -0.0414570607, 0.0165543407, -0.0756926388, 0.0702927336, -0.0663012043, -0.0419277921, 0.0444851145, 0.0161384121, 0.0002913922, -0.0715364739, 0.0009274483, -0.0159724504, 0.0390705392, -0.0137059987, 0.0685595497, 0.0272621661, -0.0420234986, -0.0355269909, 0.0357798561, -0.0708050355, -0.0074697658, -0.0422845446, -0.0239637122, 0.0000525638, 0.0144050419, 0.0005879626, 0.0732608065, -0.0450034738, -0.0407076813, -0.0190466791, 0.0261537954, 0.0767959282, 0.0751225278, 0.0532538071, 0.0159269869, 0.0363458693, 0.0382677093, 0.0122697279, 0.0601143613, -0.0063668638, 0.0682217106, -0.0284039006, -0.0288831256, 0.0464755222, -0.0286892951, -0.0558274686, 0.0543737039, 0.0433871597, -0.0446863063, 0.0423632115, 0.0651655272, 0.0200803876, 0.0754732266, -0.0057362840, 0.0719267800, -0.0436320975, 0.0544542596, 0.0318525210, 0.0643245205, -0.0804300159, -0.0532296561, 0.0039096251, -0.0416845754, -0.0427227914, -0.0698697045, 0.0380305052, 0.0327108726, 0.0436365232, 0.0152513459, 0.0088321492, 0.0785374567, 0.0300581157, 0.0217270851, 0.0563182160, 0.0785117969, -0.0180410445, -0.0655665249, -0.0529538319, -0.0691403970, 0.0658317730, 0.0315106735, -0.0296538323, -0.0784071013, -0.0630034804, 0.0419370532, 0.0248943642, -0.0552419424, 0.0402909443, -0.0650070310, -0.0032844916, 0.0008987263, -0.0411585942, 0.0032223985, 0.0265396312, 0.0109038427, -0.0159334838, -0.0314217769, -0.0237201452, 0.0573472604, -0.0390987359, 0.0538513437, -0.0750859007, 0.0579148307, -0.0231677666, 0.0790501162, 0.0026519746, 0.0622451976, 0.0628019944, 0.0465117618, -0.0385147780, 0.0175088570, -0.0350233838, 0.0497613922, -0.0608097278, 0.0466103628, 0.0589682534, 0.0769914165, -0.0487184562, -0.0723159984, 0.0525081232, -0.0417638607, 0.0768104270, 0.0236700028, -0.0666735470, 0.0603391752, -0.0128512681, -0.0115253776, -0.0701689795, 0.0562120900, -0.0493887998, -0.0640272498, -0.0111841708, -0.0516964383, 0.0013633147, -0.0277127884, 0.0684887543, 0.0474452451, -0.0047370121, -0.0796825737, -0.0787789375, -0.0274251141, -0.0368232764, 0.0139257833, 0.0141000599, 0.0697858557, 0.0180689916, -0.0143617988, -0.0464617535, 0.0243396461, -0.0486726053, 0.0096466616, -0.0424196646, 0.0521891341, 0.0455710664, 0.0550338402, 0.0798782632, 0.0410939828, 0.0577756837, -0.0435977131, 0.0364793614, -0.0690479428, 0.0607312545, 0.0794019029, -0.0507408753, -0.0408527181, 0.0756435022, -0.0672268569, 0.0513918772, 0.0227925852, 0.0501018986, 0.0458912328, -0.0750600621, 0.0381238908, 0.0733945891, 0.0442718789, 0.0766812935, -0.0346164852, -0.0055298433, -0.0614995286, -0.0300091170, 0.0480073914, -0.0033713207, 0.0290954560, 0.0687015280, -0.0754881725, 0.0461107865, 0.0469170287, 0.0299539268, -0.0561367273, -0.0686724856, 0.0192652047, -0.0562076569, -0.0308549739, -0.0415810384, 0.0512346551, 0.0680020228, -0.0410479009, 0.0329269916, 0.0649649426, 0.0212329105, 0.0791094527, -0.0206041075, 0.0678732917, -0.0631407872, -0.0029841512, -0.0279341564, 0.0654151067, -0.0112394765, -0.0598411113, 0.0221550167, 0.0281897113, -0.0554142073, -0.0307660550, 0.0243242383, 0.0732724741, -0.0182579458, 0.0226779878, -0.0178538337, 0.0538133606, 0.0320350528, 0.0653871819, -0.0656384230, -0.0713762343, -0.0419651344, 0.0550247505, 0.0248397142, -0.0116499737, 0.0731159076, 0.0110239908, -0.0054808632, 0.0550367758, -0.0707796291, -0.0226753168, 0.0060560182, 0.0783006772, -0.0610310361, 0.0549448505, -0.0392736681, -0.0736073107, 0.0182495117, -0.0452370010, -0.0367028564, 0.0554932579, -0.0070701018, 0.0198231339, 0.0314953253, 0.0400912762, 0.0178097412, -0.0365483239, 0.0355262384, -0.0300893895, 0.0514641479, 0.0543634072, 0.0047556534, 0.0343941525, -0.0513496473, -0.0507840589, -0.0318117365, -0.0050812736, -0.0168986544, -0.0367314778, -0.0552370697, -0.0539963618, -0.0735504553, -0.0638006330, -0.0257231481, 0.0218840539, -0.0637359023, -0.0700001419, -0.0217314549, 0.0365407243, -0.0740401819, 0.0789123699, -0.0807160139, -0.0434942134, 0.0730147734, 0.0387995541, 0.0073132217, 0.0472739115, -0.0228113048, 0.0438073426, 0.0740759894, -0.0176353678, -0.0298374891, -0.0416554324, 0.0784585997, 0.0494268760, -0.0734848827, -0.0289902017, 0.0277557597, -0.0471568704, 0.0432817265, 0.0600480959, 0.0034953207, 0.0236053541, 0.0744882748, -0.0483203568, -0.0702371523, -0.0692157745, -0.0153265893, -0.0268296078, 0.0588898584, 0.0268236548, -0.0798850060, -0.0111838058, 0.0018984005, -0.0242597423, 0.0328333378, 0.0125807226, -0.0318158157, 0.0230485275, 0.0790592507, -0.0585007928, 0.0562244579, 0.0184850767, -0.0637519732, -0.0529680848, -0.0145547763, 0.0169109926, 0.0090443268, -0.0411551110, 0.0511083379, -0.0742339864, -0.0524943173, -0.0046427175, -0.0544777885, 0.0117951259, 0.0665433779, -0.0116303787, -0.0269560814, -0.0459088907, 0.0468956456, -0.0693419203, -0.0691131502, 0.0471087769, -0.0776483417, 0.0680381581, 0.0325132161, 0.0221776068, 0.0512087420, 0.0314356834, 0.0184822679, 0.0140344054, -0.0143898055, 0.0286041498, -0.0525508076, 0.0063575208, -0.0616248772, 0.0644436106, 0.0544848666, -0.0164827704, 0.0131776407, -0.0242392644, 0.0176556185, -0.0454776287, 0.0400604680, -0.0318262018, -0.0087023303, -0.0414912105, -0.0160685778, -0.0031234622, 0.0488183573, -0.0763776004, 0.0137692913, 0.0772555843, -0.0225595571, 0.0608751252, -0.0679612234, 0.0544620827, -0.0406384133, 0.0545205697, 0.0042137578, -0.0027017742, -0.0190307647, 0.0740507916, -0.0578188077, 0.0501684770, -0.0066877082, -0.0572916269, 0.0168408528, -0.0762837157, 0.0126559511, -0.0309378169, -0.0161746666, 0.0522920266, -0.0801676363, 0.0008026958, 0.0683053061, -0.0499078035, -0.0642519891, 0.0558846071, -0.0151968449, 0.0193573460, -0.0362022631, 0.0578960702, -0.0718457103, 0.0438289419, -0.0679551959, -0.0064768195, -0.0475489721, 0.0538325831, 0.0174333453, 0.0488516465, 0.0394499153, 0.0015146732, -0.0093360469, -0.0695044771, 0.0411224887, -0.0552530624, 0.0428977609, 0.0517639145, 0.0180878267, -0.0098622218, -0.0343080573, -0.0774194300, 0.0653237328, -0.0519767255, 0.0539169386, 0.0803503022, 0.0091215894, -0.0269409195, 0.0226565748, -0.0009023249, -0.0528149456, 0.0376672000, 0.0724157766, -0.0553879291, -0.0025603101, 0.0370664895, 0.0360994786, -0.0325628929, 0.0701070204, 0.0277238861, 0.0430039540, -0.0213479362, 0.0320139751, 0.0775165483, 0.0378794372, -0.0603563040, -0.0317892246, -0.0233053602, -0.0543576777, -0.0095761344, 0.0032450855, 0.0798089877, 0.0193187669, -0.0591998324, -0.0405781530, 0.0006218404, 0.0597417131, -0.0576705635, 0.0273403525, 0.0109046549, -0.0273392908, -0.0090697780, 0.0492019579, -0.0726758987, 0.0714253560, -0.0004184023, 0.0236772373, -0.0178148076, 0.0582298860, 0.0046392754, 0.0023215413, -0.0005774572, -0.0695717782, -0.0014473572, 0.0196947828, -0.0724737048, 0.0586921498, 0.0595168546, 0.0002536029, -0.0607818067, -0.0408234224, 0.0547515228, 0.0299829319, -0.0466430113, 0.0787032321, 0.0403958298, 0.0488704368, 0.0395153388, 0.0580672137, 0.0787551329, -0.0394315869, -0.0777600780, -0.0560517348, 0.0596216992, 0.0418858305, 0.0388417318, -0.0127589609, -0.0032661632, 0.0271981582, -0.0804341212, 0.0372790210, -0.0564256385, 0.0360218212, -0.0283762719, 0.0568561628, 0.0626580790, 0.0792515054, -0.0415719114, -0.0313434824, -0.0601645447, 0.0390014052, 0.0175299570, -0.0091940975, 0.0236062836, -0.0697542503, -0.0219148621, 0.0668132827, 0.0186063591, -0.0455082208, -0.0525537506, 0.0108543020, 0.0687876418, -0.0364563800, 0.0060535939, -0.0287593752, -0.0572071783, -0.0690129176, 0.0688418075, -0.0091164736, 0.0383260325, 0.0572162606, 0.0222742185, -0.0334909372, 0.0067812875, -0.0599436909, -0.0359254479, 0.0444684476, 0.0470512770, 0.0553264730, -0.0014220012, -0.0532006323, 0.0711966529, -0.0650455505, -0.0215207562, -0.0107025877, 0.0395235941, -0.0317531116, 0.0015193149, -0.0743506029, -0.0610319078, 0.0610179678, 0.0398747139, -0.0159413889, -0.0141777107, 0.0518559366, -0.0544697009, -0.0032077094, -0.0599526167, 0.0580144003, -0.0526910275, -0.0361667983, 0.0719244555, -0.0169958547, -0.0288757943, 0.0037589660, -0.0373407491, 0.0168476999, -0.0478230678, -0.0697171018, -0.0565438569, 0.0147597389, 0.0281743668, -0.0198820308, -0.0374141075, 0.0139942523, 0.0519607291, -0.0115317861, -0.0272901915, -0.0238407403, 0.0426399931, 0.0446276292, -0.0718545467, 0.0143310949, 0.0716476440, 0.0042578503, 0.0534475334, -0.0560250357, -0.0314276256, -0.0532926619, 0.0718992949, 0.0247936621, 0.0629351884, 0.0675062910, 0.0267104246, 0.0023277020, 0.0382334590, -0.0114622572, 0.0617283508, 0.0086977528, -0.0561736040, -0.0702169985, 0.0776726678, -0.0445823483, 0.0183365121, -0.0422625020, -0.0678540841, 0.0708982125, -0.0525530092, -0.0250081420, 0.0647426620, 0.0043272590, -0.0367055684, -0.0534032099, -0.0301940255, 0.0776558891, 0.0170556344, -0.0350234248, 0.0515041277, -0.0327824391, -0.0239649490, 0.0353208631, 0.0132485703, 0.0005956963, -0.0290553905, -0.0006752166, 0.0777406767, 0.0656281337, -0.0066208164, -0.0335508734, 0.0877395496, 0.0141675696, -0.0388781019, 0.0386221781, 0.0580023304, -0.0559835657, -0.0653495491, 0.0216212589, -0.0520326979, 0.0326981246, -0.0439664759, 0.0100133549, -0.0420538299, 0.0281748399, 0.0333092399, -0.0745343715, 0.0811256543, 0.0662902668, 0.0277406387, -0.0410421267, -0.0701168254, -0.0571742356, -0.0599225536, -0.0437094346, -0.0717810020, -0.0194481183, 0.0771436617, -0.0129100513, 0.0480950102, 0.0444731191, -0.0053132921, -0.0003805980, 0.0026679859, 0.0205367040, 0.0643132031, 0.0362892188, 0.0325969607, 0.0471484959, -0.0424828008, -0.0582285896, 0.0618135259, 0.0060286215, 0.0506028682, -0.0342441648, 0.0843910202, 0.0260468312, 0.0563031659, -0.0131803211, -0.0367165655, -0.0645033643, -0.0528240278, 0.0463752672, -0.0770445019, 0.0515822731, -0.0431258604, 0.0121590244, -0.0441690460, -0.0573019534, -0.0380129479, -0.0331090204, -0.0652562231, 0.0602321550, -0.0014169738, 0.0189757328, 0.0287896618, 0.0604242757, -0.0739985332, 0.0206004865, -0.0118100569, 0.0491823368, 0.0531905405, 0.0050762189, -0.0104375323, 0.0429090299, 0.0564404652, 0.0408811346, 0.0111330003, -0.0016982928, 0.0003559618, -0.0041702688, 0.0680587441, -0.0267174840, 0.1097278595, 0.0678040013, -0.0052915365, -0.0051185256, 0.0036272197, -0.0699234232, 0.0152549464, 0.0619290620, -0.0004349707, -0.0053888052, 0.0318704136, 0.0530805700, 0.0012612045, 0.0854373351, -0.0707815215, 0.0288037676, 0.0797833726, 0.0012935176, -0.0156852007, -0.0127738751, -0.0234526340, -0.0316936970, 0.0087657915, -0.0434560813, -0.0174524263, -0.0519541204, -0.0452055968, -0.0566680096, 0.0841020420, 0.0678274557, 0.0456882678, -0.0274701528, 0.0046074931, 0.0676760375, 0.0312946178, -0.0718103051, -0.0809199736, 0.0150978817, -0.0455592535, 0.0757661238, -0.0797876567, -0.0893478543, -0.0238835551, -0.0593299791, -0.0624926016, 0.0877358690, 0.0853157267, -0.0648620725, -0.0726473108, 0.0344282240, 0.0099167004, -0.0424338579, -0.0359052457, 0.0670573786, 0.0209840015, -0.0199142322, 0.0293408036, 0.0403789394, 0.0047590937, 0.0661720112, -0.0468003638, -0.0140051097, -0.0261501577, 0.0246631168, -0.0138081098, 0.0327403769, 0.0548365936, 0.0042842003, 0.0046526566, 0.0410098284, -0.0039199516, 0.0055677057, -0.0759372115, 0.0503507107, 0.0160381198, 0.0235955771, -0.0364942551, 0.0256197453, -0.0675578862, -0.0203851666, 0.0599964447, -0.0543794930, -0.0516601205, 0.0631203130, -0.0217624307, 0.0347486809, -0.0192335844, 0.0095261410, 0.0398604907, -0.0296590738, -0.0671852529, -0.0575690866, -0.0673176050, 0.0119794440, 0.0787336454, -0.0166973099, 0.0458957553, -0.0246420428, 0.0401334055, -0.0224674288, -0.0693374425, 0.0483358279, 0.0094109848, 0.0423944071, 0.0793019161, 0.0096908733, -0.0565980002, -0.0254919007, 0.0485832468, -0.0701871291, -0.0140544400, -0.0034446183, 0.0581673123, -0.0691984743, -0.0480837561, -0.0375577770, -0.0413090102, -0.0389115065, -0.0176996365, 0.0498896092, 0.0779764876, -0.0552552193, -0.0602930188, 0.0327567980, -0.0558962189, -0.0522140115, -0.0101516815, -0.0006656423, 0.0187181924, -0.0341031104, 0.0044614645, -0.0761383101, 0.0585074052, 0.0197458565, -0.0418930650, 0.0432102717, -0.0727738589, 0.0167267229, 0.0811560899, -0.0307759587, 0.0753676966, 0.0358878262, 0.0115496069, -0.0707719699, -0.0439675599, -0.0602708310, 0.0077991560, 0.0429215916, 0.0298642553, -0.0597559288, -0.0150341550, 0.0743388161, -0.0049514547, 0.0069522904, 0.0174556375, -0.0443834327, -0.0348107331, 0.0171222892, 0.0403563567, 0.0788632557, 0.0454168841, 0.0562721565, -0.0743987337, 0.0611321405, 0.0253123417, -0.0728471056, 0.0221718028, -0.0068706051, -0.0333158486, -0.0644133911, 0.0135294050, -0.0107433125, -0.0270590745, 0.0776993334, -0.0717660934, 0.0257682875, 0.0630639717, 0.0718704388, -0.0089318380, 0.0807368085, -0.0797909051, -0.0390303060, -0.0299689658, -0.0425618961, 0.0273735747, -0.0251674801, -0.0095497929, 0.0738547072, -0.0295402650, -0.0559782684, 0.0321951658, 0.0737714991, -0.0099410079, -0.0784083530, -0.0644642413, 0.0017211277, 0.0689609721, -0.0090300264, 0.0145571157, -0.0062685646, -0.0074717402, 0.0586110614, -0.0134957358, -0.0217853282, 0.0346762761, 0.0633065030, 0.0106314644, 0.0397703238, -0.0231329929, -0.0671135262, 0.0223852843, 0.0555019937, 0.0256922543, -0.0272810794, -0.0454870276, 0.0386034884, 0.0571951829, -0.0333708078, 0.0655357614, 0.0732853934, 0.0669624433, -0.0318859071, 0.0348899290, 0.0004557818, -0.0090707242, -0.0591899306, 0.0586803295, 0.0165284388, -0.0155111747, 0.0777547583, -0.0369516797, 0.0398622900, 0.0199139267, -0.0591214523, -0.0146833807, 0.0761378780, 0.0617728010, -0.0339391753, -0.0206690840, 0.0410579257, -0.0237819348, -0.0605879053, 0.0645624176, -0.0642168447, -0.0032322945, -0.0512129553, 0.0451190397, -0.0306293778, -0.0524537265, 0.0272146165, 0.0063738236, -0.0610668287, 0.0521717295, -0.0734857544, 0.0605392978, 0.0484168902, 0.0697906837, -0.0645217150, 0.0017177634, 0.0111996001, 0.0089044645, 0.0101161525, 0.0749126226, 0.0067476286, -0.0015391990, 0.0160321593, 0.0114878099, -0.0217226520, 0.0083781034, -0.0717050731, -0.0331750065, 0.0145925386, -0.0073848143, 0.0382851139, -0.0546833947, -0.0697976425, -0.0704546049, 0.0589190535, 0.0774457455, 0.0245094225, -0.0294814110, 0.0196146835, 0.0578592494, -0.0193257257, -0.0302554145, -0.0122026186, 0.0615277812, -0.0690922663, -0.0649635345, -0.0195880346, -0.0473715253, -0.0157407746, 0.0730742887, -0.0767198280, 0.0309808254, -0.0146955028, -0.0255818442, 0.0369776338, -0.0689336732, 0.0743683651, -0.0721615255, -0.0610316172, 0.0785496458, -0.0117973089, -0.0052740797, 0.0219982266, -0.0506899208, 0.0172696412, -0.0467744172, 0.0411310345, -0.0620219707, 0.0424279794, -0.0073997602, 0.0559019223, 0.0777319446, 0.0619083717, 0.0355090797, 0.0555305704, -0.0235607401, -0.0530656651, 0.0503981188, 0.0298923105, 0.0686225370, 0.0065985769, 0.0465760604, -0.0505887605, 0.0678266957, -0.0483932830, 0.0220209509, -0.0034743547, -0.0521471202, -0.0056428164, 0.0571359470, 0.0759007409, 0.0179339349, 0.0453195348, 0.0572202727, 0.0098537505, 0.0246243626, -0.0556697622, 0.0731384680, 0.0292677060, -0.0421883576, 0.0190272033, 0.0130467936, 0.0101563781, 0.0325699300, -0.0166739300, 0.0152754560, 0.0766742304, -0.0120977536, 0.0244085118, -0.0404649489, 0.0362812057, -0.0225934200, -0.0363192596, -0.0169267729, 0.0183715597, 0.0491502658, 0.0060383230, -0.0548107773, -0.0232577473, -0.0592493042, 0.0738861188, 0.0179018527, -0.0180494413, 0.0127987266, -0.0247856677, -0.0168014467, 0.0184276402, 0.0787366405, -0.0757035837, -0.0434551910, -0.0353577211, -0.0237380527, 0.0558563992, -0.0445624813, -0.0496567897, 0.0618497059, -0.0691098273, 0.0333177447, 0.0635438040, 0.0536780283, -0.0727999955, 0.0121008605, -0.0522001460, -0.0350301303, 0.0315849185, -0.0091482699, 0.0185306743, -0.0283518247, 0.0804666057, 0.0607237294, -0.0248708725, -0.0267735682, -0.0043662563, 0.0151088238, 0.0308358073, -0.0617170259, -0.0291477293, 0.0182347819, -0.0149857327, 0.0599043891, -0.0014143437, 0.0239701867, -0.0307780467, -0.0138122812, -0.0444484241, -0.0484112091, 0.0778389350, -0.0237878896, 0.0405753478, -0.0612724349, 0.0198982209, -0.0386777036, 0.0249871910, 0.0280990154, 0.0776958093, 0.0217020959, -0.0474386849, 0.0347710922, 0.0229915529, 0.0676768199, -0.0099562481, -0.0225858949, 0.0592862442, -0.0326508246, 0.0756006315, -0.0284545496, 0.0263803005, 0.0782666579, 0.0222380385, 0.0403603688, -0.0451537520, -0.0255525075, 0.0447481945, 0.0383713096, -0.0442200005, 0.0656628683, 0.0599840209, -0.0241417997, 0.0714175478, 0.0551510975, 0.0477200821, -0.0574785694, 0.0338699669, 0.0354008302, -0.0198349655, 0.0243176818, -0.0513643622, 0.0308854729, -0.0014918745, -0.0000239015, -0.0119879469, -0.0613093339, -0.0071472973, 0.0372594669, -0.0221510157, -0.0755176097, 0.0474031791, 0.0688611194, -0.0295363143, -0.0466835834, -0.0200530812, -0.0339292586, -0.0760934055, 0.0133960247, 0.0420170575, -0.0387281738, -0.0218639188, 0.0073689967, 0.0135015398, 0.0771614835, 0.0506389663, -0.0738724396, 0.0197158009, 0.0030464754, -0.0536767170, -0.0488497652, -0.0286778659, -0.0162719786, 0.0327537060, -0.0085796118, -0.0368348397, -0.0195008591, 0.0336343497, 0.0780617967, -0.0781781748, 0.0259434879, -0.0025220588, 0.0362078324, -0.0128877014, 0.0406621397, 0.0175095350, -0.0082070604, 0.0109649897, -0.0618928447, 0.0534668043, 0.0569484159, -0.0385761373, -0.0748633519, -0.0296352692, 0.0716411844, 0.0795135573, -0.0220618658, -0.0038588643, 0.0342046395, -0.0277544633, -0.0465056710, -0.0753272250, -0.0804936066, -0.0130257383, 0.0108560547, -0.0742514879, 0.0804902390, -0.0209967121, -0.0103801787, -0.0559740886, 0.0423510149, 0.0631834641, 0.0478175953, 0.0140623301, -0.0341010019, 0.0570682660, 0.0759281442, -0.0254569203, -0.0596806630, 0.0152006969, 0.0377203971, 0.0690165982, -0.0710270405, -0.0798366442, 0.0399672985, 0.0276929885, -0.0432641655, 0.0074571595, -0.0658168942, 0.0281263366, 0.0571691170, 0.0050446689, -0.0073255002, 0.0146428049, -0.0490820371, -0.0595034063, 0.0098246485, 0.0066948608, -0.0023614019, 0.0407833904, 0.0117347687, 0.0203989074, 0.0655231848, 0.0298271999, -0.0262242816, 0.0300707296, -0.0024849921, -0.0419544429, -0.0579479337, 0.0411704481, 0.0629954860, -0.0628967360, -0.0349521004, -0.0095617250, 0.0224054679, -0.0044414103, -0.0793028846, -0.0705313832, 0.0782289281, 0.0224790499, -0.0620806813, 0.0037120655, 0.0385906398, -0.0533152893, -0.0512416810, -0.0412052386, 0.0153823793, 0.0238894150, 0.0509197488, 0.0180673897, 0.0421367213, -0.0008708611, -0.0387742780, 0.0807007179, -0.0655036196, 0.0762317553, -0.0284222141, 0.0193751752, -0.0368438512, 0.0582916960, -0.0124113038, 0.0047278851, 0.0230122879, 0.0623797849, -0.0082722306, -0.0367950983, -0.0260449946, 0.0224383622, 0.0058597177, -0.0088353381, -0.0645871535, 0.0422671437, -0.0404541939, 0.0645744875, 0.0744995102, -0.0134897605, 0.0759126469, 0.0770062581, 0.0435724556, 0.0344193131, 0.0079095811, 0.0304363146, -0.0557368286, -0.0454973355, -0.0646733046, 0.0018587187, 0.0336338282, 0.0644387081, -0.0144596696, 0.0080576316, 0.0506782606, -0.0146844238, 0.0084085613, -0.0581955761, 0.0615127906, -0.0190750659, 0.0518862233, -0.0260709487, 0.0650388971, 0.0406865999, 0.0354890898, 0.0549201593, -0.0186461434, -0.0498659313, 0.0340304598, 0.0107776225, -0.0767910928, -0.0392833762, -0.0398138463, -0.0351034217, -0.0648159683, 0.0639293864, -0.0505939238, 0.0249757618, -0.0523035824, -0.0062961802, 0.0392437130, 0.0153966323, -0.0683197603, 0.0174918622, 0.0266427025, -0.0768668801, -0.0085248649, -0.0113749430, -0.0314219147, -0.0536393970, -0.0383073725, 0.0621045306, -0.0653766394, -0.0670588017, -0.0595669337, -0.0795518458, -0.0089607686, -0.0770482942, -0.0748735070, -0.0082397237, 0.0452027991, 0.0490685627, -0.0311666280, 0.0370696634, 0.0430003926, -0.0300039127, 0.0436119661, -0.0010408238, 0.0296616852, -0.0408646502, 0.0652290359, -0.0616651028, 0.0687548891, 0.0743731335, 0.0564061925, 0.0732849166, 0.0198562369, -0.0745119974, 0.0003980175, 0.0307010412, 0.0289401710, 0.0446791425, -0.0493722260, -0.0379847735, -0.0507301837, -0.0722820982, 0.0338963047, -0.0757225752, -0.0592799708, -0.0609029010, 0.0145746768, 0.0679651573, 0.0785924718, 0.0739523992, -0.0306069404, 0.0468604788, -0.0264956765, -0.0018226132, -0.0506156608, 0.0052308366, -0.0133327320, 0.0295809433, -0.0559724085, 0.0170363635, -0.0545301773, 0.0075286329, 0.0515493527, -0.0302403830, -0.0677218586, -0.0472144596, -0.0083933249, -0.0293487310, -0.0523919798, -0.0030606911, 0.0598280057, -0.0361938328, 0.0401875749, -0.0326921903, -0.0465771668, -0.0435365662, -0.0217771307, -0.0805910900, 0.0116262808, 0.0806264356, -0.0551231280, 0.0641636476, -0.0007209331, 0.0656036809, -0.0325822681, -0.0447872505, -0.0721695274, -0.0261716247, -0.0385236926, -0.0152093023, -0.0671076551, 0.0525297001, -0.0313363411, -0.0776331574, -0.0438853912, -0.0621761344, 0.0095002130, -0.0393388979, 0.0132114589, -0.0655342117, 0.0298874602, 0.0280092657, 0.0800129250, 0.0494538173, 0.0388252512, -0.0416330956, -0.0384803563, -0.0257205963, -0.0133543909, -0.0244635493, 0.0287354589, -0.0579258054, -0.0056977421, -0.0377978869, 0.0518273935, 0.0366994292, 0.0492671952, -0.0177118927, 0.0748767182, 0.0363266468, -0.0173040628, -0.0443940833, 0.0002936125, 0.0621510968, -0.0073565617, 0.0244830400, 0.0287739784, -0.0387209021, -0.0587280951, 0.0586682782, -0.0024260059, 0.0228933394, 0.0794555172, 0.0185649842, 0.0546446219, 0.0030412972, -0.0554231629, -0.0528386161, -0.0142462775, 0.0148477703, -0.0643682480, 0.0070685148, 0.0251280740, -0.0272287317, 0.0370382220, 0.0204076320, -0.0550128594, 0.0294077322, 0.0710127577, 0.0055932775, 0.0451939180, -0.0319095105, -0.0695484951, 0.0442598537, 0.0232671648, -0.0050867647, 0.0114357844, 0.0415533632, -0.0378921032, -0.0423796922, -0.0720759705, 0.0120966285, 0.0392231420, 0.0712857321, -0.0330525190, 0.0092319101, 0.0336005837, -0.0478763133, 0.0112256706, -0.0175385028, 0.0414869413, -0.0068005249, 0.0205907226, 0.0496621206, 0.0066627190, 0.0496711358, 0.0117862895, 0.0695493296, -0.0602125600, 0.0045494512, -0.0689409450, 0.0373087451, 0.0350068286, 0.0494621620, 0.0031671077, -0.0083590001, 0.0216033012, 0.0140581727, 0.0720699504, 0.0585778728, 0.0702115670, -0.0785227418, -0.0107336491, -0.0580475405, -0.0133332536, -0.0320552438, -0.0023979098, -0.0467853211, -0.0277520083, -0.0652302727, 0.0778607950, 0.0518938228, -0.0208509602, -0.0344338939, -0.0777156577, 0.0685289726, 0.0350780711, -0.0529672578, 0.0168057755, -0.0609897897, 0.0114710182, 0.0189128220, 0.0428195000, -0.0042505562, 0.0244237334, 0.0649724677, 0.0296840221, 0.0128521547, 0.0398157015, -0.0057650357, 0.0133285522, -0.0681306869, 0.0183778033, -0.0774773136, 0.0463517532, 0.0229737237, -0.0767174140, -0.0144865364, 0.0711520240, 0.0590122566, -0.0783096701, -0.0175906047, -0.0293383263, 0.0044498369, -0.0746182054, -0.0462097190, -0.0021435916, -0.0501743220, -0.0346555673, 0.0369920582, 0.0536503419, 0.0633601621, 0.0498917922, -0.0160894468, 0.0367216915, 0.0206010714, -0.0217192136, -0.0593603812, 0.0516181365, 0.0199902505, -0.0368828773, -0.0504079834, -0.0478851497, 0.0177265853, -0.0259444378, 0.0435467362, -0.0226319022, -0.0416166410, -0.0332307033, -0.0303382352, -0.0143622458, 0.0437375307, 0.0674486980, -0.0664803162, 0.0369631872, 0.0236818790, -0.0483441427, 0.0030835271, 0.0351354852, -0.0396158434, 0.0753943399, 0.0558416024, -0.0762756914, 0.0539202467, -0.0135984197, -0.0210360102, 0.0633302256, -0.0369434804, -0.0085661933, 0.0446996465, -0.0801319405, 0.0407349840, 0.0184775516, 0.0046882033, -0.0709836632, -0.0406478308, 0.0676767603, 0.0551016107, 0.0420759618, -0.0123154968, 0.0171484277, 0.0704851821, 0.0348180458, 0.0403448567, 0.0278132930, 0.0646249279, -0.0055033490, -0.0525123775, 0.0495463684, -0.0194482952, 0.0757921413, 0.0294925719, -0.0671716258, -0.0458353870, -0.0601164326, -0.0176654607, 0.0105862319, -0.0437086970, -0.0766645819, -0.0533995032, 0.0602205917, -0.0626367703, 0.0203038007, -0.0105931759, 0.0355429277, 0.0425798818, -0.0456301123, -0.0727385581, -0.0261079408, 0.0734683499, -0.0429991931, 0.0716266409, 0.0381638259, 0.0658452883, 0.0515104011, -0.0222823806, -0.0649550110, -0.0382016897, -0.0736102909, -0.0757300407, 0.0690538809, 0.0134806931, 0.0166234151, 0.0612095073, -0.0808151811, -0.0641649440, -0.0109238178, -0.0204435028, 0.0066855997, 0.0271840021, -0.0155226588, 0.0337871239, -0.0579160415, -0.0421908535, 0.0708402023, 0.0185086653, 0.0417933315, -0.0114337876, -0.0222678781, -0.0714551955, 0.0433408022, 0.0504676029, 0.0474909022, -0.0752248466, 0.0689850971, 0.0717463121, -0.0412179604, 0.0268705860, -0.0808007121, 0.0339126512, 0.0652624443, -0.0673041493, -0.0464504212, 0.0791902468, -0.0032580569, 0.0453427061, 0.0306106135, -0.0713743418, 0.0204358101, -0.0290155523, 0.0585761592, -0.0697670355, -0.0280929208, -0.0470061675, 0.0505195484, -0.0197054371, 0.0336899087, 0.0355837122, 0.0768372789, -0.0236345939, -0.0319972858, 0.0535972342, -0.0031177402, 0.0408000797, -0.0175017789, 0.0335320905, 0.0665557757, 0.0713255927, -0.0761297792, 0.0357413739, -0.0348254740, 0.0770145431, -0.0279206969, -0.0686444864, -0.0518674664, 0.0783198699, -0.0437352844, 0.0590151474, 0.0248635262, 0.0121243373, -0.0352779701, 0.0581429824, -0.0212136507, -0.0594956130, -0.0454308093, 0.0212117732, -0.0752224103, -0.0306229517, 0.0810879543, -0.0495851412, 0.0057032928, 0.0383150876, -0.0085390583, 0.0436374545, 0.0145803466, -0.0564405471, 0.0219637826, 0.0491643324, -0.0030836686, -0.0485112853, 0.0314347968, -0.0617019758, 0.0181332529, -0.0464394577, -0.0650730133, -0.0737754181, -0.0119830742, -0.0263022333, 0.0158010572, 0.0114500150, -0.0524299219, -0.0099833980, -0.0624523237, -0.0605904907, 0.0527215824, -0.0552051216, -0.0009770468, -0.0617568605, -0.0368612371, 0.0523021892, 0.0109001473, -0.0077525303, 0.0658495054, 0.0214205310, -0.0454982817, -0.0572369397, -0.0645335913, -0.0211046785, -0.0733914003, 0.0205136016, 0.0455207005, 0.0422518998, -0.0636871904, -0.0620653629, -0.0715015680, -0.0508289635, 0.0009824038, 0.0128549412, -0.0136908963, -0.0765817389, 0.0403718352, 0.0125245675, 0.0762463883, 0.0093898848, 0.0580597296, 0.0326535478, 0.0187719986, -0.0441897735, -0.0311164446, 0.0696067438, -0.0626665726, -0.0124178752, -0.0310777873, 0.0673865154, 0.0182441995, -0.0150889605, 0.0689463243, -0.0289721973, 0.0533164665, 0.0469112769, 0.0512616560, -0.0273231789, 0.0252733007, 0.0504754409, -0.0074761659, 0.0153519213, -0.0329026282, -0.0476569571, 0.0051235482, 0.0123734921, -0.0368026420, 0.0098314360, -0.0212092809, -0.0207591243, 0.0738367811, 0.0703327581, -0.0632122234, 0.0307280570, -0.0379786044, 0.0480005220, 0.0659540072, -0.0072505698, 0.0572236851, 0.0074655861, 0.0803357437, 0.0381486043, -0.0450259820, -0.0539245792, 0.0765607134, -0.0609784164, 0.0534072444, -0.0634124875, 0.0321552977, -0.0694693252, -0.0000215620, 0.0760255083, -0.0772642419, -0.0451057144, 0.0109722838, 0.0632295534, -0.0180305317, -0.0535060614, -0.0535373874, -0.0068733171, -0.0141283125, 0.0217672288, -0.0139163658, 0.0054679438, -0.0126512349, -0.0590436757, 0.0792246684, 0.0282245949, -0.0411502980, 0.0743474886, 0.0049239919, 0.0632489249, 0.0758259371, -0.0144705772, -0.0567172393, 0.0409277305, 0.0175830200, -0.0151206553, -0.0218344107, 0.0261803865, -0.0143165290, 0.0442696437, 0.0375168845, 0.0735317990, -0.0683677197, -0.0560949147, -0.0521809012, 0.0226077884, -0.0056532994, 0.0545814857, -0.0031216443, -0.0379802100, -0.0133730918, 0.0238595158, 0.0108128339, -0.0359242558, 0.0515281335, -0.0786760747, 0.0225255042, 0.0086195022, -0.0185077563, 0.0534777120, 0.0802691504, -0.0613594800, 0.0075324029, 0.0553124920, -0.0556994863, -0.0803942233, -0.0042644441, -0.0230210647, 0.0673231557, 0.0487381592, 0.0722511932, -0.0367710441, -0.0206151493, -0.0568362102, -0.0200234763, -0.0023905411, -0.0120373592, 0.0634155795, 0.0757300928, 0.0137954578, 0.0432249308, 0.0273300633, -0.0103634521, 0.0780874416, -0.0567945763, 0.0152834803, 0.0490091667, 0.0556848273, -0.0534383729, -0.0128166676, -0.0184280425, -0.0644471496, -0.0021050498, 0.0062887371, 0.0179540291, 0.0676150694, -0.0499721766, -0.0631755963, 0.0066756383, -0.0793077201, -0.0453697219, -0.0652672499, 0.0397622138, -0.0106196478, 0.0039994344, 0.0307038650, 0.0519586727, 0.0115440786, -0.0250711963, 0.0191875547, 0.0003092214, -0.0336033329, -0.0147718862, -0.0258032307, -0.0167698264, -0.0254715383, -0.0257865600, 0.0418067127, 0.0600851551, 0.0404963121, -0.0713991672, 0.0637389049, -0.0199553668, -0.0374165364, -0.0682963803, 0.0182731673, -0.0401373357, 0.0199152753, -0.0280062109, 0.0256110653, 0.0768902525, -0.0177437589, 0.0456735119, 0.0542021170, 0.0570325479, 0.0120797083, -0.0241455510, 0.0249628797, 0.0686888024, -0.0014819503, 0.0501641557, -0.0512312166, -0.0271248482, 0.0156497508, 0.0648219660, 0.0263408720, 0.0553234294, 0.0079726204, 0.0438042432, 0.0254999623, -0.0706652626, -0.0031899512, -0.0288096368, 0.0569163337, -0.0132486895, -0.0016281903, -0.0810695142, -0.0618650988, 0.0424664244, 0.0020005107, 0.0236549601, -0.0521059483, 0.0267392620, 0.0248305723, -0.0024399161, -0.0621723458, -0.0574300513, 0.0691810623, 0.0151003897, -0.0545055978, -0.0549323745, -0.0050797090, -0.0767978802, 0.0061056986, 0.0325774327, 0.0780278668, -0.0597350597, -0.0414753370, 0.0006662011, -0.0550524294, 0.0563388541, -0.0732737482, 0.0469074473, -0.0278141238, 0.0515047237, -0.0397912003, 0.0546807870, -0.0551087037, -0.0254186466, -0.0568347424, 0.0448442921, 0.0560127273, 0.0183027163, 0.0104211196, -0.0457180403, -0.0588270873, -0.0294017009, 0.0738474503, -0.0220799111, 0.0721534714, -0.0008941442, -0.0117649361, 0.0084663481, -0.0573124550, -0.0511846505, -0.0430493951, 0.0526967570, -0.0260902084, 0.0636614636, 0.0630275682, -0.0712954551, -0.0491836593, -0.0282588825, -0.0569541156, -0.0701447129, 0.0206434801, 0.0323839188, 0.0384527966, -0.0767779425, 0.0140133426, 0.0163154155, -0.0303491428, -0.0152561367, 0.0043645948, 0.0478597209, 0.0261963159, -0.0252435990, -0.0238844045, -0.0170499831, -0.0372738950, -0.0079737008, 0.0705718026, -0.0318069570, 0.0031582117, -0.0128052607, 0.0439137444, -0.0270975977, -0.0746657178, 0.0047655180, -0.0350956880, 0.0801124200, 0.0793190673, 0.0054287836, 0.0270567387, 0.0610860214, 0.0319168568, -0.0012736022, -0.0523105860, -0.0556089059, 0.0286341012, -0.0200508013, 0.0223320797, -0.0580347218, -0.0013529882, -0.0435454622, -0.0775472373, -0.0087575242, -0.0086817369, -0.0368162356, -0.0268794447, -0.0546348765, -0.0116829798, 0.0425693616, 0.0769401565, -0.0495609865, -0.0631653816, -0.0271630771, -0.0510252453, 0.0654714331, 0.0288167149, 0.0039427131, 0.0178032666, 0.0787141845, -0.0619721338, -0.0443416014, -0.0669106916, -0.0755687952, 0.0078676492, 0.0159915388, 0.0285136253, 0.0542378798, 0.0516799018, -0.0764675811, 0.0290318951, 0.0521530733, 0.0236349404, 0.0195274502, 0.0659155473, 0.0199502781, 0.0278942809, 0.0043291897, 0.0382466689, -0.0180244967, 0.0756063834, -0.0314131342, -0.0231455080, 0.0242210627, -0.0569443703, 0.0116030350, -0.0271880254, 0.0243252814, 0.0033843368, -0.0150480047, 0.0740681067, 0.0153517649, 0.0555165634, -0.0602876320, 0.0487988815, 0.0257206559, -0.0563805401, 0.0311711952, -0.0796575546, -0.0381105468, -0.0647049993, -0.0206637084, 0.0788537338, -0.0302893855, 0.0073295608, 0.0016305670, 0.0254033357, 0.0146503672, 0.0318902507, 0.0683316365, 0.0716924891, -0.0213804618, 0.0659084246, -0.0746154934, 0.0796219334, 0.0618589446, 0.0078055188, 0.0652172491, -0.0530562475, 0.0177560598, 0.0579433814, -0.0808619782, -0.0289659500, -0.0503975824, -0.0177398324, -0.0124927759, -0.0439198911, -0.0760648027, -0.0795527175, 0.0745393261, -0.0204284377, 0.0332058147, -0.0603386462, 0.0789979026, -0.0030468628, -0.0044770464, 0.0354740396, -0.0053474233, 0.0289934278, -0.0508230999, -0.0021025538, -0.0799929351, 0.0111784264, -0.0241247416, -0.0394024812, 0.0809913650, -0.0487256311, -0.0392695330, -0.0454609394, 0.0642825440, 0.0574973300, 0.0100785047, -0.0700259358, -0.0237297378, 0.0185291693, -0.0677525252, -0.0182429776, -0.0674570575, 0.0285651460, -0.0374021269, -0.0671794936, -0.0088516846, -0.0395146832, 0.0257420391, -0.0020350069, -0.0632662326, 0.0582024083, 0.0369407386, -0.0702096671, -0.0447337404, 0.0373154953, 0.0431094989, -0.0691016465, -0.0683707148, 0.0479508415, -0.0647929162, 0.0597109124, -0.0209033303, -0.0525796004, -0.0077401549, -0.0328324102, -0.0442538634, -0.0715423673, 0.0777188167, -0.0385226868, 0.0711425617, -0.0362538584, -0.0678093061, 0.0176909268, 0.0203106478, 0.0619842038, 0.0756891593, 0.0427343324, 0.0179351494, 0.0231503397, -0.0423313640, -0.0675302148, -0.0603883080, 0.0071066692, -0.0746887848, -0.0567060858, -0.0078297853, -0.0431111604, 0.0466297343, -0.0728601813, -0.0526879355, -0.0518544130, 0.0202200860, 0.0591113493, -0.0622626543, 0.0645658299, -0.0270598717, -0.0464810170, 0.0570624545, 0.0717987940, 0.0009631664, 0.0074226558, 0.0464974865, 0.0227978602, 0.0700908229, 0.0555739179, 0.0202629194, 0.0181036070, 0.0226310492, -0.0528414398, -0.0493345559, 0.0081671998, -0.0350075252, 0.0701726004, 0.0322794914, -0.0280875079, 0.0191880763, -0.0202790871, -0.0217870325, -0.0687588304, 0.0677572712, -0.0756004751, -0.0606744774, -0.0383713841, -0.0441921540, -0.0489467829, 0.0543325767, -0.0771745294, -0.0697493777, 0.0358540565, 0.0592719540, 0.0066831782, 0.0424553230, -0.0678551570, -0.0684478953, -0.0000002533, 0.0741527900, 0.0433603525, -0.0798151568, 0.0030934289, -0.0711114928, 0.0560333058, 0.0599583462, 0.0156529024, -0.0031080917, 0.0785140917, -0.0480683409, 0.0141622275, -0.0724772811, 0.0376774445, 0.0781376734, 0.0172299966, 0.0713125393, 0.0288849026, -0.0383338667, 0.0675449744, -0.0644474775, 0.0282091275, 0.0348726586, 0.0577923581, -0.0366214588, -0.0725038275, -0.0456574932, -0.0773824751, 0.0766404644, 0.0702678040, 0.0275983810, 0.0693824813, 0.0759316757, -0.0807763115, -0.0222550184, -0.0719268173, 0.0608728155, 0.0437035337, 0.0645738766, -0.0158760101, 0.0503041223, 0.0237081349, -0.0164799616, -0.0411201864, -0.0115905628, 0.0056780130, 0.0423360988, -0.0093324482, 0.0521529987, 0.0381681398, 0.0514433160, 0.0686058030, 0.0208605900, 0.0077162161, -0.0665019751, 0.0439378545, 0.0528337434, -0.0092560872, -0.0565055236, -0.0067310408, 0.0161452144, -0.0600177273, 0.0382654667, 0.0414086953, -0.0510909371, 0.0363869071, -0.0476098508, 0.0379309356, -0.0043758526, 0.0189733654, -0.0614049435, -0.0069680735, 0.0089563802, 0.0703478977, -0.0638937429, -0.0023457929, 0.0064925253, -0.0472788550, 0.0660569593, -0.0550989732, -0.0631655753, -0.0597400106, -0.0415990017, -0.0443273485, 0.0576826110, -0.0160134882, 0.0631705448, -0.0155700743, -0.0527837537, 0.0591290370, -0.0768260211, 0.0242437720, 0.0017800108, -0.0421620570, -0.0459310934, -0.0361931957, -0.0658230856, 0.0443028882, -0.0394614637, -0.0064408928, 0.0391779840, 0.0524065867, -0.0683385357, -0.0788797289, -0.0610138997, 0.0050815418, 0.0398425609, 0.0146793723, 0.0664677545, 0.0504508242, 0.0348373652, 0.0295391381, -0.0754724741, 0.0047084689, 0.0083344579, -0.0673001111, -0.0095296800, -0.0653915554, 0.0722813830, 0.0411384404, -0.0507761315, 0.0781353340, -0.0273055620, 0.0478242710, -0.0565255210, -0.0410628282, 0.0623268560, -0.0493607409, -0.0448652022, 0.0296486914, -0.0629098117, 0.0697621480, -0.0305300318, -0.0735108703, -0.0598478019, 0.0261417106, -0.0627166405, 0.0209178552, -0.0114340410, -0.0456245206, -0.0756705552, 0.0541299358, 0.0714097843, 0.0414290205, -0.0214734413, 0.0728056058, 0.0770013258, 0.0222422779, 0.0113725066, -0.0487990007, -0.0574711636, -0.0402533077, 0.0463906899, -0.0276048444, -0.0731394440, 0.0073423833, -0.0722369850, 0.0111365020, -0.0038263351, 0.0399381369, -0.0783484653, 0.0657222047, 0.0681668296, 0.0554707870, 0.0113848597, -0.0758241192, 0.0656717494, 0.0694008693, 0.0349854231, 0.0723547563, 0.0033164397, -0.0760588124, 0.0569135621, -0.0499104112, 0.0752262697, -0.0099665374, -0.0777521655, 0.0198692158, -0.0613161214, -0.0469107889, 0.0646738634, 0.0037902892, -0.0768183395, -0.0000886470, 0.0488361046, 0.0097283423, -0.0447404124, 0.0465937331, 0.0508100167, 0.0446464643, 0.0353707001, 0.0254246071, 0.0295803696, -0.0202823579, 0.0757373646, 0.0012393743, -0.0561055690, -0.0431215838, -0.0603846349, 0.0107064918, -0.0595743209, 0.0044870302, 0.0769490227, 0.0201583579, 0.0096661299, 0.0300789475, 0.0548975989, 0.0283918530, -0.0350759439, 0.0519477651, 0.0651635602, 0.0689646378, 0.0361254513, 0.0259673521, 0.0393347219, 0.0310699940, -0.0231759287, 0.0548089966, 0.0244091898, -0.0198909119, -0.0383675732, -0.0727157965, -0.0437874012, -0.0392057933, 0.0165517703, 0.0671915784, -0.0244559683, 0.0116764829, 0.0121292323, -0.0798495635, 0.0499007180, -0.0384211987, 0.0711000189, 0.0375882611, -0.0483846776, 0.0500439629, -0.0265499018, -0.0417402908, -0.0254054405, -0.0777444318, 0.0423387513, 0.0010414049, -0.0190757439, -0.0357154794, 0.0388332233, -0.0361181051, 0.0728335157, -0.0781654269, 0.0251804218, 0.0615641102, 0.0222118199, -0.0199960545, -0.0639870092, -0.0281940028, -0.0600280352, 0.0330100730, 0.0710805282, 0.0699599609, 0.0055167526, -0.0612312630, -0.0533825457, -0.0028443709, 0.0621046647, 0.0093935207, 0.0126611143, -0.0346997753, 0.0190203190, 0.0147047862, 0.0732995793, -0.0106462762, -0.0428610593, -0.0622990653, -0.0559263639, 0.0363414213, -0.0493245758, 0.0199759826, -0.0607519671, -0.0591739044, 0.0781557783, 0.0059900805, -0.0033633336, -0.0805530474, -0.0146257281, -0.0761348084, 0.0269288942, -0.0753341615, -0.0156640410, 0.0060601979, 0.0706613287, -0.0316396244, 0.0554574504, -0.0370844565, -0.0705891252, -0.0424908847, 0.0341522694, 0.0615977123, 0.0640616193, 0.0038883537, -0.0761386156, 0.0222135931, -0.0573744178, 0.0810915902, -0.0775999948, 0.0671711937, 0.0283861458, -0.0779056400, -0.0062241256, -0.0030041486, -0.0477196351, 0.0769683644, 0.0725503787, -0.0434011407, -0.0474146865, -0.0343259647, -0.0245074667, -0.0301351249, -0.0259033032, 0.0367782936, 0.0443081781, -0.0424772538, -0.0602901280, -0.0152154490, -0.0390915982, 0.0187832937, 0.0458164737, 0.0277705714, -0.0031177029, 0.0293267816, 0.0359455869, 0.0190805197, 0.0304512680, -0.0273844823, 0.0217110291, -0.0218923874, -0.0290670879, 0.0540729240, 0.0534131750, 0.0533726588, 0.0212658048, -0.0245457962, 0.0075128749, 0.0235388130, -0.0471504703, -0.0735924244, -0.0182422027, 0.0044011101, -0.0186845511, -0.0344899334, 0.0748529360, -0.0636883527, 0.0231639743, -0.0461932234, 0.0559616312, 0.0245151073, -0.0557933375, -0.0794576928, 0.0035095140, 0.0148441792, -0.0123529956, -0.0798094347, -0.0179971308, -0.0499133691, 0.0214174539, -0.0611749515, 0.0338031128, -0.0515046790, 0.0629473999, -0.0676416233, -0.0455941409, -0.0203670785, 0.0179740414, -0.0572494343, 0.0133182481, 0.0130844489, -0.0193569213, 0.0533657447, -0.0515150838, 0.0295603499, 0.0803431943, -0.0634007528, -0.0390415341, 0.0146434456, -0.0778604448, -0.0143937096, -0.0445962287, -0.0567385331, 0.0522325709, 0.0013084114, -0.0707575083, 0.0653788522, 0.0453672335, -0.0661481619, 0.0617822483, -0.0631413087, -0.0562465861, 0.0680848882, -0.0366211720, 0.0150414854, -0.0789690688, -0.0673111305, -0.0015686080, 0.0328219309, -0.0780351833, -0.0302133486, 0.0709131733, -0.0284250751, 0.0008690208, 0.0533560589, -0.0218728930, 0.0068255886, 0.0650214627, -0.0315264389, -0.0330902860, -0.0176461190, 0.0794309601, -0.0736748576, 0.0411937535, -0.0556963906, -0.0810244381, -0.0518227369, 0.0236067623, 0.0295289829, -0.0806351230, 0.0562260672, 0.0469098017, 0.0432112962, 0.0694906786, -0.0658622086, -0.0395878777, -0.0456628688, -0.0410976596, 0.0067580044, 0.0626466498, 0.0561014935, -0.0177393481, -0.0240782723, -0.0021660849, 0.0078678280, -0.0055549070, -0.0753566772, 0.0462415889, 0.0558915511, 0.0797537789, -0.0546533242, -0.0480463915, 0.0739322677, 0.0615176484, -0.0656143501, 0.0219298676, -0.0075017512, -0.0239062011, 0.0322481841, -0.0381466337, 0.0253092721, 0.0494699255, -0.0554862842, -0.0372060575, -0.0114692524, 0.0773589388, 0.0458923504, -0.0111933202, -0.0142906755, 0.0207058489, 0.0296624601, -0.0027765930, -0.0734382793, -0.0264955014, -0.0490528755, 0.0021989197, 0.0151592940, 0.0243156478, 0.0223906189, -0.0781202316, 0.0093630403, 0.0371269435, 0.0808634833, 0.0598956868, 0.0360795408, -0.0533135273, -0.0307491347, 0.0621301159, -0.0463943034, 0.0166220218, 0.0744422451, 0.0177033618, -0.0764814690, -0.0653872043, 0.0356378406, 0.0711792484, 0.0314653665, 0.0088137239, -0.0123156533, -0.0399124734, -0.0085429847, -0.0642816275, 0.0083301291, -0.0730423480, -0.0109971687, 0.0485345051, 0.0454887226, -0.0162589625, -0.0286859311, 0.0382274464, -0.0492100380, -0.0789017305, -0.0195129253, -0.0056923628, 0.0042296499, 0.0487267599, -0.0491000004, 0.0234953165, -0.0499869138, 0.0633795336, 0.0704720840, -0.0026856661, -0.0745949745, 0.0028934926, 0.0690611079, 0.0537002161, -0.0302141011, -0.0511180684, 0.0426917523, 0.0002701208, 0.0750068054, 0.0692032054, -0.0793400779, -0.0004246086, -0.0162092820, -0.0529978871, -0.0342345908, 0.0348244458, -0.0344299078, -0.0119359493, -0.0771708786, 0.0545435771, -0.0023237094, -0.0298637897, 0.0362415016, -0.0039238781, 0.0567230806, -0.0025853366, -0.0064418167, 0.0069914162, 0.0222298950, -0.0225980617, -0.0600114055, -0.0038944408, 0.0692969337, -0.0629725456, -0.0279250853, -0.0594272316, 0.0468942747, 0.0053086132, 0.0712129995, 0.0287301615, -0.0135029256, 0.0795092657, -0.0355940759, -0.0761783943, 0.0412333533, -0.0062391385, 0.0289761201, -0.0440995023, 0.0122593418, -0.0763874650, 0.0325172916, 0.0363542661, 0.0325843766, -0.0577753186, 0.0624106303, 0.0614801273, 0.0084396973, -0.0073741227, 0.0315635651, 0.0541401282, 0.0098043829, 0.0310131758, -0.0477692373, -0.0730855614, -0.0156519338, -0.0355799012, -0.0251114778, -0.0151906013, 0.0102373064, -0.0513281599, -0.0091155693, -0.0595342517, -0.0547482744, 0.0422219262, -0.0554013290, 0.0269222781, 0.0551514402, -0.0129336491, 0.0008692145, -0.0809995160, -0.0398247726, 0.0478252843, 0.0287742317, 0.0114699528, -0.0807028636, 0.0550336912, -0.0471810214, 0.0267807618, 0.0187569931, 0.0200631022, -0.0635011345, -0.0431803353, 0.0754632428, -0.0166879669, -0.0359104872, -0.0089959800, -0.0798751861, -0.0554359257, 0.0776328072, 0.0537301376, -0.0075382069, 0.0756841674, 0.0410809517, -0.0347914770, -0.0535106622, -0.0468128398, 0.0175321251, -0.0254943371, -0.0805947632, 0.0194112659, 0.0330716819, -0.0145425200, 0.0064789131, 0.0780063644, -0.0402043834, 0.0261323079, -0.0394472703, -0.0785558447, 0.0801308230, 0.0174552351, -0.0233740695, -0.0753085986, -0.0165281519, -0.0356889665, -0.0016782954, -0.0725549012, -0.0779947639, -0.0728989914, -0.0051494762, 0.0286884680, 0.0278306752, -0.0143099129, 0.0407994241, -0.0490086265, -0.0396178141, 0.0439600125, 0.0553779230, -0.0575227812, -0.0258243643, -0.0065173358, -0.0657912195, -0.0000897720, 0.0731285289, 0.0048867315, -0.0710149929, 0.0242979378, -0.0344961993, 0.0436650887, 0.0628264174, 0.0708080903, -0.0656915829, 0.0628667846, 0.0126198232, -0.0411451161, -0.0048022643, -0.0397679769, 0.0416328460, 0.0690553412, -0.0414634049, -0.0092036203, -0.0732689723, -0.0361222029, -0.0137096941, -0.0349950306, -0.0702718422, 0.0366427153, 0.0731962547, 0.0015208572, -0.0463485867, 0.0646183863, 0.0758545324, 0.0005453750, -0.0810374171, -0.0539889336, 0.0614273027, 0.0357446074, -0.0425429828, 0.0336135030, -0.0719667897, 0.0550559685, -0.0599645860, 0.0358310491, 0.0765086785, -0.0715600848, -0.0074610859, -0.0061730370, 0.0439529940, 0.0182442144, -0.0121500418, -0.0081555992, 0.0475501791, 0.0078839511, -0.0766814649, 0.0482942387, -0.0335687734, 0.0321095288, 0.0307249203, 0.0416042805, -0.0398427770, -0.0309235454, -0.0291509219, 0.0496697687, 0.0665310994, -0.0565685928, -0.0653290525, 0.0234903917, 0.0459333584, -0.0035285279, 0.0485659689, -0.0419097319, -0.0533305034, -0.0030771121, 0.0019942906, -0.0100319535, 0.0314956307, 0.0295567438, 0.0083946316, -0.0035981184, 0.0541594662, 0.0725892186, 0.0478312895, -0.0617346615, -0.0460361168, -0.0693051219, -0.0372888669, 0.0394357182, -0.0631627366, 0.0182382241, 0.0182287656, 0.0473242141, 0.0494936332, -0.0127050653, 0.0504411384, 0.0261024740, 0.0546359532, 0.0486093387, 0.0370899886, -0.0805591419, -0.0484097116, 0.0011081845, -0.0636612028, -0.0705784485, -0.0292650983, 0.0162135325, -0.0623075813, 0.0048647597, -0.0428081974, -0.0289821178, 0.0145095438, 0.0458628610, 0.0634649172, 0.0498587266, 0.0138419122, -0.0784647614, -0.0357881486, 0.0155775091, -0.0793406740, -0.0500320308, 0.0613573827, 0.0259528328, -0.0054667220, 0.0262733996, 0.0443960801, -0.0806152001, 0.0250772387, 0.0080944300, 0.0584804639, -0.0326095372, 0.0743678734, 0.0293270592, -0.0264190175, 0.0760555491, -0.0086443257, 0.0791746601, -0.0644379631, -0.0798892230, -0.0627402067, 0.0457304344, 0.0387372673, -0.0760443434, 0.0150759695, 0.0294266269, -0.0327932164, -0.0648986846, -0.0667704865, -0.0240584873, 0.0101184268, -0.0497135147, 0.0262810364, -0.0016058702, -0.0062446622, 0.0229035839, 0.0187546834, 0.0166443661, 0.0533947423, 0.0149282217, 0.0091092661, 0.0640910938, -0.0594389513, -0.0393436700, -0.0519818142, 0.0785002634, -0.0606721267, 0.0567491464, -0.0359384529, 0.0593449511, 0.0611268654, 0.0255913250, 0.0496612974, -0.0378433466, -0.0420150198, -0.0653278902, -0.0270187724, 0.0639274940, 0.0733336434, -0.0089587346, -0.0503528938, 0.0249305665, -0.0459358878, 0.0317830220, 0.0218227990, -0.0278024394, 0.0617381856, -0.0090147033, 0.0665886104, -0.0509097949, -0.0451432168, 0.0053735990, 0.0631938428, -0.0451856889, -0.0136385262, 0.0149181010, 0.0263038464, 0.0041700923, -0.0499649048, 0.0144604445, -0.0796288028, -0.0343828388, 0.0809899941, 0.0794891343, 0.0444340967, 0.0163956285, 0.0379310921, 0.0697512552, 0.0422060266, 0.0067462665, 0.0579006262, -0.0446888097, -0.0806082413, 0.0576754287, -0.0159328654, -0.0216749869, -0.0206666701, -0.0074351551, -0.0468219481, 0.0618428364, -0.0530155450, 0.0485566035, 0.0558354333, -0.0326509438, 0.0734728947, 0.0701941922, 0.0416725129, 0.0557587333, -0.0098067597, 0.0788508877, 0.0349616371, 0.0608185306, -0.0626156852, 0.0266517922, -0.0119328853, 0.0321916267, -0.0634312183, 0.0527660921, 0.0784632340, -0.0263927765, 0.0755481049, -0.0575890504, -0.0456125960, -0.0585801601, -0.0055865133, -0.0729168653, 0.0672480464, -0.0155870384, 0.0398356654, -0.0801843107, -0.0358346738, 0.0044120932, 0.0248829946, -0.0765020624, 0.0116148693, 0.0249084234, -0.0383872464, 0.0138087049, -0.0794745162, 0.0758829936, -0.0044261292, -0.0628943965, 0.0265861005, 0.0415587872, -0.0406981036, -0.0138962865, 0.0554196611, -0.0275254212, 0.0057255030, -0.0381024443, -0.0799768046, 0.0493163243, -0.0549110621, -0.0761370361, -0.0630065650, -0.0710043386, 0.0149314385, 0.0390571952, 0.0448873751, 0.0813647360, -0.0261844490, 0.0590197220, -0.0383293778, 0.0488181189, -0.0449188128, -0.0540815070, -0.0265221484, -0.0729807690, 0.0445794091, -0.0552148707, -0.0402289033, -0.0404610112, -0.0768676549, -0.0782038942, 0.0461975038, 0.0745687708, -0.0123295039, -0.0612710342, -0.0708975866, 0.0247373544, 0.0232434738, 0.0452359766, 0.0112923281, 0.0500757918, 0.0430961438, 0.0716037527, -0.0505483299, 0.0291824415, -0.0371491835, -0.0183534399, 0.0746714249, -0.0304425023, -0.0366038121, 0.0792244300, -0.0173178539, 0.0082133785, -0.0648139715, -0.0413052365, -0.0347625390, -0.0159360915, -0.0270361193, 0.0214175619, 0.0593925007, 0.0054932316, 0.0433993973, -0.0444163978, -0.0028295442, 0.0418987051, 0.0438022129, -0.0017107055, 0.0356637314, -0.0528844744, -0.0357200913, -0.0256956480, 0.0120602129, 0.0463288985, -0.0650651529, -0.0587269180, -0.0630773753, -0.0472884141, -0.0282594450, 0.0499520525, 0.0648837313, 0.0281192437, 0.0609922744, 0.0252165701, -0.0595738441, 0.0444689281, 0.0552272610, 0.0596852563, -0.0729161575, 0.0618928075, 0.0493694469, 0.0059197005, -0.0262453891, 0.0284161046, -0.0579672679, 0.0340946764, 0.0012961583, -0.0115420511, 0.0354747623, 0.0012554601, 0.0561197847, -0.0264754780, 0.0316510089, 0.0188907646, 0.0159253236, 0.0189558323, -0.0142681450, 0.0800215229, 0.0497512817, -0.0013433769, 0.0450332835, -0.0789835602, -0.0272612609, 0.0040578800, -0.0498367064, 0.0495062396, -0.0110954298, 0.0774974003, 0.0054856166, 0.0259792879, -0.0301042236, -0.0325776488, -0.0050055874, -0.0384846292, -0.0003378019, -0.0003375247, 0.0015628791, 0.0012889045, 0.0493980385, 0.0492900051, -0.0477919057, -0.0046993196, -0.0729308948, -0.0565837473, 0.0266094152, -0.0460297279, 0.0072585884, -0.0234094970, -0.0602476001, -0.0533508509, -0.0497242361, 0.0303284526, -0.0419748016, 0.0234951228, 0.0312354304, 0.0582582764, 0.0341035128, -0.0122575257, 0.0015326532, -0.0175670311, 0.0744446665, 0.1120631695, -0.0714163706, -0.0255971234, -0.0698986575, 0.0110075884, 0.0384817496, 0.0259396210, 0.0103826253, -0.0277808439, 0.0839105695, 0.0272732228, 0.0658344701, 0.0271188188, -0.0315070674, 0.0967076793, -0.1225688756, -0.0867058858, 0.0212760810, 0.0067854971, 0.0136797754, 0.0733009502, 0.0524195582, 0.0346482545, -0.0132262744, -0.0672479421, -0.0365549773, -0.0210076198, 0.0380416363, 0.0304754898, 0.0799158886, -0.0532669313, -0.0697906390, -0.0001945684, -0.0782405138, 0.0667785779, 0.0407866053, -0.0340107605, 0.0329614133, 0.0857256651, -0.0712513626, 0.0487853177, 0.0089631071, 0.0353736579, 0.0669160411, 0.0719057396, 0.0071535893, -0.0467781648, -0.0251363069, 0.0228652954, 0.0233381055, -0.0462706722, 0.0879784450, 0.0607204624, 0.0659460202, 0.0556047857, -0.0759745315, -0.0608460456, 0.0771979913, 0.0266795829, 0.0136488937, -0.1199979708, -0.0296134539, 0.0290492959, 0.0326941647, -0.0121288765, 0.0564178340, -0.0410105847, 0.0663158670, 0.0143436464, 0.0356409848, 0.0859133825, -0.0057801045, -0.0033881888, 0.0335085839, -0.0228453986, -0.0417171642, 0.0050071701, -0.0737824216, 0.0630477592, 0.0365954489, 0.0078485794, -0.0741323978, 0.0143015208, 0.0722212568, -0.0309225023, 0.0439425446, -0.0141905649, 0.0722260475, -0.0079250596, -0.0617188215, 0.0445643254, 0.0344883911, -0.0204741172, -0.0705382675, -0.0606018677, 0.0549324974, 0.0050673373, 0.0106278313, 0.0061779320, -0.0423016064, -0.0185020119, -0.0263860859, -0.0732399076, 0.0547516607, 0.0432142578, 0.0758094564, -0.0939317271, -0.0173107758, 0.0722671300, -0.0415597484, -0.0239035301, -0.0185284652, -0.0770105273, 0.0521613397, -0.0794121101, -0.0842062756, -0.0155271441, 0.0268388391, 0.0240868628, -0.0261696149, -0.0542953685, 0.0175482407, -0.0353601202, 0.0233388711, 0.0519101396, -0.0017600172, 0.0313208103, -0.0313722193, -0.0208303537, -0.0309426207, 0.0679692701, 0.0666354075, -0.0340843238, 0.0373292416, 0.0213962402, 0.0251723919, 0.0811217129, 0.0562213361, -0.0216174517, -0.0021317974, 0.0953785256, -0.0491781421, 0.0970024541, -0.0299168956, -0.0097199026, 0.0170355719, -0.0226236843, -0.0648765787, 0.0074171498, 0.0640231892, -0.0180432275, 0.0202419329, 0.0637716353, 0.0376024656, -0.0149468658, -0.0090687377, 0.0431272164, -0.0315781981, 0.0554390140, -0.0346226059, 0.0547609515, -0.0542659238, 0.0271248315, -0.0291973706, 0.0176047795, 0.0737957656, 0.0648907050, -0.0261902120, 0.0246401280, -0.0361275077, -0.0475162156, 0.0424435884, -0.0322430581, -0.0554883592, 0.0782269016, -0.0002028651, 0.0733989552, 0.0542904884, -0.0671590492, -0.0343552232, 0.0312472209, 0.0058065928, -0.0529564023, -0.0751003623, 0.0721900687, 0.0204968005, -0.0027927011, -0.0219238158, 0.0384105109, -0.0654247850, 0.0598866418, 0.0690435469, 0.0142523507, 0.0605453774, 0.0962745920, 0.0376423523, -0.0520913191, -0.1024305746, 0.1013788208, 0.0174034517, -0.0136170238, -0.0624137633, 0.0153085878, 0.0418150760, -0.0605990179, 0.0544302911, -0.0289165396, -0.0674981177, -0.0414600708, 0.0286931936, 0.0076577030, -0.0758554488, -0.0636236817, 0.0160968322, -0.0387882143, 0.1253959388, 0.0227161162, -0.0541782267, -0.0396111012, 0.1158540621, -0.0448869802, -0.0547208376, -0.0222033765, 0.0184199661, -0.0442893691, 0.0897215605, 0.0084537193, 0.0953644142, 0.0653117374, 0.0723805502, 0.0350865684, -0.0540193692, 0.0609713607, 0.0425119475, 0.0715156421, -0.0323075280, 0.0046406761, -0.0223610103, -0.0236842744, -0.0352523699, -0.0304204095, -0.0139740482, 0.0106959939, -0.0524134785, -0.0234502219, -0.0043051811, 0.1443239450, -0.0212125108, 0.0616981909, 0.0002915477, 0.0131424284, -0.0957686752, 0.0694236010, 0.0492241830, 0.0621452704, 0.0236826669, 0.0070622810, -0.0437370613, -0.0088375788, -0.0714366511, 0.0881474540, -0.0548642650, -0.0243079662, 0.0688181445, -0.0177463014, -0.0649193600, 0.0041605006, -0.0514485016, -0.0816143677, 0.0213243365, -0.0526921861, -0.0702162087, 0.0831612796, 0.0501747243, -0.0752782375, -0.0385227278, 0.0333068147, 0.0272575580, 0.0510992967, 0.0091790687, 0.0716980249, 0.0695948377, -0.0016825428, 0.0574183315, -0.0125939008, 0.0129245715, 0.0759309158, -0.0911785066, 0.0403265096, -0.0724588782, 0.0508483462, -0.0071779890, 0.0007394053, -0.0156670548, 0.0622318275, 0.0070578349, 0.0316439122, -0.0589086413, 0.0578867272, -0.0263915285, 0.0482565686, 0.0549729094, 0.0804529935, -0.0061920458, -0.0447444953, 0.0255930647, 0.0013238807, 0.0527729020, 0.0384692885, -0.0431116261, -0.0726364553, -0.0568474680, 0.0252400395, 0.0513944551, -0.0371443108, 0.0205328576, -0.0498821177, -0.0767718703, 0.0037983535, 0.0178919155, -0.0767996460, 0.0726749972, 0.0376449078, 0.0330951214, -0.0787851587, -0.0502002761, -0.0348285399, 0.0808490664, 0.0091868341, -0.0224340912, 0.0217256323, -0.0200059377, -0.0287722386, 0.0001211610, -0.0612645820, 0.0633718371, -0.0519626811, 0.0106778443, -0.0542635322, -0.0628111288, -0.0348362848, 0.0012539952, -0.0265374742, 0.0896792114, -0.0701255798, 0.0580206737, -0.0269530565, -0.0382203571, -0.0226417873, 0.0494305901, 0.0601347201, 0.0322185755, 0.0524321795, 0.1106505170, -0.0448975936, -0.0240055453, -0.0060857013, -0.0795993209, -0.1209095493, 0.0588614531, 0.0244889744, 0.0569042973, 0.0544968322, 0.0123519348, 0.0367687345, -0.0438490137, -0.0145002082, 0.0521851517, -0.0488539003, 0.0630725250, 0.0080454648, 0.0035184901, -0.0386308469, -0.0281731468, 0.1393652409, -0.0196884591, 0.0285121575, 0.0032042975, -0.0326368473, 0.0374054536, 0.0317338184, -0.0085419249, -0.0592373833, -0.0056199669, -0.0450934321, -0.0637498051, 0.0229211133, -0.0559108071, -0.0250071790, -0.0772158802, 0.0629782602, 0.0718654692, -0.0181494243, 0.0556175113, 0.0290479977, 0.0558282584, -0.0285635535, -0.0892377496, 0.1017969996, -0.0156025887, -0.0072677610, 0.0352507345, 0.0266216844, 0.0655072331, -0.0396074280, -0.0225061756, 0.0317057408, 0.0051220083, 0.0006219398, -0.0598108023, 0.0554496720, -0.0329338796, -0.0044775181, 0.0512112677, -0.0715236291, -0.0128094153, 0.0177133400, 0.0654161647, -0.0079984516, -0.0064598382, 0.0503041856, 0.0567471571, -0.0110645089, -0.1018841639, 0.0445214473, 0.0085189743, -0.0318594351, -0.0278446451, -0.0052828770, -0.0067406707, -0.0142839476, -0.0873974711, -0.0135516087, -0.0785205960, -0.0349165276, 0.0518422313, -0.0643270239, -0.0314916708, 0.0203846153, -0.0248894673, 0.0422389172, 0.0371829644, -0.0103072748, 0.0528887250, -0.0025775896, -0.0757084191, -0.0451950431, 0.0504917614, -0.0335068852, -0.0390891396, -0.0503036715, 0.0638304129, -0.0518027022, -0.0389859267, -0.0683514848, -0.0045545464, 0.0436935723, -0.0478546098, -0.1162816137, 0.0354393162, -0.0713101625, -0.0444422625, 0.0233620033, 0.0107040256, 0.0248256754, -0.0507816151, -0.0603996888, 0.0240361169, 0.0750646815, 0.0310238358, 0.0512391590, 0.0709988028, -0.0683563277, -0.0997280106, 0.0356062353, 0.0468707606, -0.0310482457, 0.0203021914, 0.0400253870, 0.0534461662, -0.0359084457, 0.0200060885, -0.0687439591, 0.0105930390, -0.0152779659, -0.0555991605, -0.1037916169, 0.0194089040, -0.0620551854, -0.0212221127, -0.0520240739, -0.1449459642, -0.0568759702, -0.0191038437, -0.0381012596, -0.0446100160, -0.0247334186, -0.0675700903, 0.0228822380, -0.0131138414, 0.0276447386, -0.0974651948, 0.0443580709, 0.0049116639, -0.0143472366, 0.0497660451, -0.0504980013, -0.0174409244, 0.0460005067, 0.0392058119, 0.0113099571, -0.0516807958, -0.0824795887, -0.0017827572, -0.0071590664, 0.0546409674, 0.0269183628, 0.0025803298, 0.0067880508, -0.0743724704, 0.0026503529, 0.0141294217, 0.0748823285, 0.0594980121, 0.0631643981, -0.1217526421, 0.1339345127, -0.0403857194, 0.0414269976, 0.0179131180, 0.0140690580, 0.0967098400, -0.0520247743, 0.0093180770, -0.0140317725, 0.0058272677, 0.0338739678, 0.0692114383, -0.0522791147, 0.0509494580, 0.1173815131, 0.0178346951, -0.0244898684, 0.0013014628, -0.0401114784, -0.0252806265, -0.0051323548, 0.1085238680, 0.0851006508, -0.0233181231, 0.0357763730, 0.0304009132, -0.0382240266, -0.0450835712, -0.0672879517, -0.0777408406, 0.0654649660, 0.0212574564, -0.0236522574, -0.0794513375, 0.0380283259, 0.0412377231, -0.0117142210, 0.0332447886, 0.0004949021, 0.0121598057, 0.0433338284, 0.0539900921, 0.0280078351, -0.0458498336, 0.0418054760, 0.0527954251, 0.0292813964, 0.0127143636, 0.0360913426, 0.0430861823, -0.0473219790, 0.0275391396, -0.0829214379, -0.0113411332, -0.1413777024, 0.0544367358, -0.0107031576, 0.0484856144, -0.0585266873, 0.0894336030, 0.0271348953, -0.0541194491, -0.0195970144, -0.0018240367, -0.0766191036, 0.0140508320, 0.0191899035, -0.0875507295, 0.0302875787, 0.0281270370, 0.0109168589, 0.0424015559, 0.0266498830, -0.0345968492, -0.0327100866, 0.0030694646, -0.0859883875, -0.0420501456, -0.0801721737, -0.0689557567, 0.0345358364, -0.0514453128, 0.0889472440, 0.0059558460, 0.0805823132, -0.0934336260, 0.0692327991, 0.0025939047, -0.2005580217, -0.0154698864, -0.0612317435, 0.0000075813, -0.0232499577, -0.0080617387, -0.0102079632, 0.0691640899, 0.0270667840, 0.0240570959, 0.0406267494, 0.0283168405, -0.0712590665, 0.0231035296, 0.0798766539, 0.0160453524, -0.0113170985, 0.0098277172, -0.0191558432, -0.0670006722, 0.0089681642, 0.0502689481, 0.0719859749, 0.0058500711, 0.0177656803, 0.0204621833, -0.1115066856, 0.0072420505, 0.0645913482, -0.0242956467, 0.0074116830, -0.0524910875, -0.0398546681, -0.0544515476, -0.0367995761, -0.1110315248, 0.0365477689, 0.0142945964, 0.0391856432, -0.0406893343, 0.0170043483, -0.0549669378, 0.0352135338, -0.0212496798, 0.0232183561, -0.0148614105, 0.0176790655, 0.0849524587, -0.0707725883, -0.0232409872, -0.0218169242, 0.0247272421, 0.0450863428, -0.0490710326, 0.2361904681, 0.0022970976, -0.0769362077, -0.0001114035, -0.0087936418, 0.0077700177, -0.0911745504, -0.0145546459, -0.0417685211, 0.0096232751, -0.0412945561, -0.1734810919, -0.0015813333, 0.0665238127, -0.0555444807, 0.0084365355, 0.0593783781, 0.0358313620, 0.0097701037, -0.1282295585, 0.0765092447, -0.0275267549, -0.1626183838, -0.0861694962, 0.0246288981, -0.0597973615, -0.0264137127, 0.0602930225, -0.0662781522, -0.0494006909, -0.0500509068, -0.0803449228, 0.0693424791, 0.0052078217, 0.0433458053, -0.0634034276, -0.0036456631, -0.0557505302, 0.0250384230, 0.0067735021, -0.0831951275, -0.0518572927, -0.0123664709, 0.0137753543, 0.0230703428, 0.0874935389, -0.0739213675, 0.0255828034, -0.0463281833, 0.0631979182, -0.0437395647, 0.0642065853, -0.0656572357, -0.0192962475, -0.0281952657, 0.0746341124, 0.0593454167, -0.0193449296, 0.0303316545, -0.0697665513, -0.1038820222, -0.0833291337, 0.0114002032, 0.0958214328, 0.0243447889, -0.0480698943, 0.0665942058, 0.0706295595, 0.0659141690, 0.1106549427, -0.0384984761, -0.0333136208, -0.0058256239, -0.0757335946, -0.0780486688, 0.0494909026, 0.0617817231, 0.0494611487, -0.0693905577, -0.0454963259, -0.0019956529, 0.0078269467, 0.0357592180, -0.0557834506, 0.0241712853, 0.0562045984, -0.0012722090, -0.0973679498, -0.0206402503, -0.0068843458, -0.0757926479, -0.0564592257, -0.0553542599, -0.0187102780, 0.0430126674, 0.0033097842, -0.0473946333, 0.0097560957, -0.0608487912, 0.0378340259, -0.0084477626, -0.0568236634, 0.0720687658, -0.0017913593, 0.0342311859, -0.0805888623, -0.0276344959, 0.0076544769, -0.0963666141, -0.0159575827, 0.0378133841, 0.0036392645, 0.0448362269, -0.0113922553, 0.0950871855, 0.0550013743, -0.0362924673, 0.0174864903, 0.0543141738, 0.0054986915, -0.0535870492, 0.0464886017, 0.0190272909, -0.0623048320, 0.0741333142, 0.0000253419, 0.0788699165, 0.0032040006, 0.0267787147, 0.0713884383, 0.0180326663, -0.0816002339, -0.0231268927, 0.0110960649, -0.0198850706, 0.0337549709, 0.0051557473, 0.0477764979, 0.0343995802, -0.0762157962, -0.0387132429, 0.0694413856, -0.0708423853, 0.0421082713, -0.0152441589, -0.0570209809, 0.0317682996, -0.0164803043, -0.0049056946, 0.0089475242, -0.0981409177, -0.0048653260, -0.0829603076, 0.1030432805, 0.0082510794, -0.0264719650, -0.0124429390, -0.0281456970, 0.0443820879, -0.0471497960, -0.1046369970, 0.0029912225, -0.0495850369, 0.0399885848, -0.0157376975, 0.0589190163, -0.0532946959, -0.0396342613, 0.0192346293, -0.0704704598, 0.0621494167, 0.0761876032, 0.0641592816, 0.0169693697, 0.0803545937, 0.1252464801, -0.0166835561, 0.0356184430, 0.0561804585, 0.0422501042, -0.0409218520, -0.0395486951, -0.0489531942, 0.0193887595, 0.0422425270, -0.0676632449, -0.0848822519, -0.0326258801, -0.0749015883, 0.0145490477, -0.0196768437, 0.0331513919, 0.0526476167, -0.0287175179, -0.0238413122, 0.0260421503, 0.0433115214, 0.0984449163, -0.0458546095, 0.0094795730, -0.0096805990, 0.0722475275, -0.0853977054, -0.0414569266, 0.0429377295, -0.0186838936, -0.0615996271, -0.0534427129, 0.0696494952, -0.0284365639, 0.0493627563, 0.0424549840, 0.0724145174, 0.0559878089, 0.0566195101, -0.0687842071, 0.0061382875, -0.0281269662, -0.0687142015, -0.0227888394, -0.0629726797, 0.0725011081, 0.0443889424, 0.1037680134, 0.0290132035, 0.0998758301, 0.0039441474, -0.0280658994, -0.0310873110, 0.0551132225, -0.0596556626, 0.0294135623, -0.0358919166, 0.0724072531, 0.0058715059, -0.0523632430, -0.0115124248, -0.1556068659, 0.0671477541, -0.0394238122, 0.0842306018, 0.1071889549, 0.0611030534, 0.0548699610, 0.0104541453, 0.0005876516, -0.0490788445, -0.0083821155, -0.0432678983, 0.0451570638, -0.0511172004, 0.0452577509, -0.0338935778, -0.0571932942, 0.0228033271, -0.0484793447, 0.0632956997, -0.0749694183, -0.0637414232, 0.0407626852, 0.0644671619, -0.0454932898, 0.0149984267, -0.0296733491, 0.0366210602, 0.0087550627, 0.0451223440, 0.0402195305, 0.0370362252, 0.1289818436, -0.0531114042, -0.0686816722, 0.0800204203, 0.1270034164, -0.0737744570, 0.0368009061, -0.0556274652, -0.0359730609, -0.0080091767, 0.0489090160, 0.0634039715, 0.1719257087, 0.0122914556, -0.0102316067, 0.0154755907, -0.0200215988, -0.0621138066, 0.0062277056, 0.0286815204, -0.0660131797, -0.0554988161, -0.0246248990, 0.0291495323, 0.0537747443, -0.0578992367, -0.0078238398, 0.0868522972, -0.0108169802, -0.0523251183, 0.0163336489, 0.0495697521, -0.0335505344, 0.0187353827, 0.0955854058, -0.0643732771, -0.0388712622, 0.0772249326, 0.0119934762, -0.0275655501, 0.0653011277, 0.0767742917, -0.0026725898, -0.0220119953, -0.0659298524, 0.0499757715, 0.0149137462, 0.0476570502, 0.0160678625, 0.0440610908, 0.0138330692, -0.0697225183, -0.0028759902, -0.0415129960, 0.0445566773, 0.1601891816, 0.0722249374, -0.0146060437, -0.0307104383, -0.0567528717, -0.0391473696, -0.0420407206, 0.0077733835, 0.0808604881, 0.0683936179, -0.0406905115, 0.0342694111, 0.0466158688, -0.0527793281, 0.0787179768, 0.0429639257, 0.0263817739, 0.0583555996, 0.0568940789, -0.0687363520, -0.0281639341, -0.0709158033, -0.1076485291, -0.0645674467, -0.0741330981, -0.0096664475, 0.0345943980, 0.0681994930, 0.1132106483, 0.1267421097, 0.0053713447, 0.0021445632, -0.0672127753, 0.0042372230, -0.0837475732, -0.0270793457, -0.0000177363, 0.0157949999, 0.0829195231, 0.0646037459, -0.1433437169, -0.0206969883, 0.0984068736, -0.0797142088, 0.1090482846, -0.0074924147, -0.0142930457, 0.0578229837, -0.0091437465, 0.0592646413, 0.0373385474, 0.0126987770, 0.0001480356, -0.0373305157, 0.0625037327, -0.0316252373, -0.0507031158, 0.0247221645, 0.0488263331, -0.0171138644, 0.0394618399, -0.0428630263, -0.0424805470, 0.0693895966, 0.0770135522, -0.0302140340, -0.0211235341, 0.0196088664, 0.0103596812, 0.0100184819, 0.0117808627, -0.0531644784, -0.0466548875, 0.1384814829, -0.0222247932, 0.0131752295, -0.0708123893, 0.2617633045, -0.0420200676, 0.0356129743, 0.0451370142, -0.0554026626, -0.0018765369, 0.0624714382, -0.0224477574, 0.2700836658, 0.0008625842, -0.0325231142, 0.0656349584, 0.0462696925, -0.0107794032, 0.0477758981, 0.0218519345, -0.0268637855, -0.0209312569, 0.0152461519, 0.0204573479, -0.0254588202, 0.0352825895, -0.0599106215, -0.0330981016, -0.1045731902, 0.0053411881, 0.0125194397, -0.0573482513, -0.0069126110, -0.0620956756, 0.0492203310, -0.0229883268, -0.0557705499, 0.1194291189, -0.0082591856, 0.0085351989, -0.1115668267, 0.0487082787, 0.0670130253, 0.0500649288, -0.0105270939, -0.0939512402, 0.0185953155, -0.0110213505, -0.0424956977, 0.0240354463, 0.0065324884, 0.0491060689, 0.0524311177, 0.1011718288, -0.0079218242, 0.0753715038, 0.0538842417, -0.0720945522, -0.0493746251, 0.0709574297, 0.0086575598, -0.0525928587, 0.0315809995, 0.0364037044, 0.0886150599, -0.0617637150, -0.0909412503, -0.0217267536, 0.0249579418, 0.0168031026, 0.0086139878, 0.0693432540, 0.0548932292, -0.0526998788, -0.0170659199, -0.0551848598, -0.0597149394, -0.0832355395, 0.0195380207, 0.0490820035, 0.0394192934, -0.0094143478, 0.1089393795, 0.0426193401, 0.0435802303, 0.0728097111, 0.0670913011, -0.1210976914, -0.0177671313, -0.0561048388, 0.0461787023, 0.0569759347, 0.0578786954, 0.1193049774, -0.0353579633, -0.0734834522, -0.0400652587, 0.0604484566, -0.0446270145, 0.0385275260, -0.0322318152, -0.0595743619, 0.0521674119, -0.0063474821, 0.1162550673, -0.0201154873, -0.0287451465, -0.0063617602, 0.0009790682, -0.0643420368, 0.0373853333, 0.0195156280, 0.0834948793, -0.0249236356, -0.0025082806, 0.0800532773, 0.0850946829, -0.0186181385, 0.1111188009, 0.0171247032, -0.0033212265, 0.0192826129, -0.0408011749, -0.0207369626, 0.0351436064, 0.1388300806, -0.0702117831, -0.0172760505, 0.1914819479, 0.0412111245, 0.0615894496, -0.0065175891, 0.1294221133, -0.0525877215, 0.0416932292, 0.0039020255, 0.0139450375, 0.0055633788, 0.0284693856, -0.0469588861, 0.1478995383, 0.0332910642, -0.0254201964, -0.1026956663, -0.0173239633, 0.0293276906, 0.0327213816, -0.0507736877, 0.0722850561, 0.0144197010, 0.0220437646, -0.0564737171, -0.0687183365, 0.0794633031, -0.0080622938, -0.0553253703, 0.0691896006, -0.0851752013, 0.0083964858, 0.0671406388, -0.0759638548, -0.0663073882, 0.1138380095, 0.0250132382, -0.0049533681, 0.0371140726, 0.0533989146, 0.0202781204, -0.1133935302, -0.0531334989, -0.0621653907, -0.0381062180, -0.0521408804, 0.0134832850, -0.0983571112, -0.0225048512, -0.1273780316, 0.0311037209, 0.0569238067, 0.0778437480, -0.0367603824, 0.0539207570, -0.0210121032, 0.1376975030, -0.1324255615, 0.0531825349, -0.1144085377, 0.0272013284, 0.0575949922, -0.1414386332, 0.0657854825, 0.0478601232, 0.0022150490, -0.0587958619, 0.0457965657, -0.0782296807, 0.0231460389, 0.0405656397, 0.0511605255, -0.0391546749, -0.0647133589, -0.0534952916, -0.0547681078, -0.0312104039, -0.0553681366, -0.0268151294, 0.0153997960, 0.0811099485, -0.0312858224, -0.0771401823, -0.0127384597, 0.1396272331, 0.1039264947, 0.0353264585, 0.0472622775, -0.0144813880, -0.0239692014, 0.0911509097, -0.0444402508, -0.0133386087, -0.0422053561, -0.0729087293, 0.0631860048, -0.0113359122, 0.0233414341, -0.0445080549, -0.0493842736, 0.0675901100, 0.0007436714, 0.0680315048, -0.0040616221, -0.0375146270, -0.0556738377, 0.0232777074, -0.0250115357, -0.0216348208, 0.0721855089, -0.0639638156, -0.0334566832, -0.0203193165, 0.0482933223, -0.0003688479, 0.0247788727, 0.0136193801, 0.0502929613, 0.0053973747, 0.0736701116, -0.0651004836, 0.0320727602, -0.0215903707, 0.1360948980, 0.0041035214, -0.0354408398, 0.0533067025, -0.0513102375, 0.0352754816, 0.0808245167, 0.0548119955, 0.0227569472, 0.0636729524, 0.0520829931, 0.0238882378, 0.0518715493, 0.0531363040, 0.0314418674, -0.0262003783, 0.0290214363, 0.0064076027, 0.0414622538, 0.0052502546, 0.0514291301, 0.0599611178, 0.0019738376, -0.0071015432, -0.0666212291, -0.0557831414, -0.0033749002, -0.0048527340, 0.0775757059, 0.1032324135, 0.0538580082, -0.0353204086, 0.0714706630, 0.0181483645, -0.0496296957, 0.0300482251, -0.0890768468, -0.0344838053, 0.0249111224, -0.0439447202, 0.0185823347, 0.0016041100, -0.0233372860, 0.0630716234, -0.0015491172, 0.0498237163, -0.0022519382, -0.0261414144, -0.0496957190, 0.0273755491, -0.0506947115, -0.0493813269, -0.0584553629, -0.0378156155, -0.0218377132, -0.0431960262, -0.0619849898, 0.0188520998, 0.0023021011, 0.0050738105, -0.0299433470, 0.0749339536, 0.0433818661, 0.0508431122, -0.0313603431, 0.0612229481, 0.0551615134, -0.0347989500, 0.0074651442, 0.1093718484, -0.0842246786, -0.0784154907, -0.0920349732, -0.0307582449, 0.0546076223, -0.0294088256, 0.0281158388, -0.0494202897, -0.0442298986, -0.0157832466, -0.0833320841, -0.0671462342, 0.0233322065, -0.0015651389, 0.0345246419, 0.0316684544, 0.0554093495, -0.1108712628, -0.0242553949, -0.0335929990, 0.0065229004, -0.0602455102, 0.0118119400, 0.0353084467, 0.0786076933, 0.0486372560, -0.0455433019, -0.0104549024, -0.0157097951, 0.0037772469, -0.0086155292, 0.0845445171, -0.0326339602, -0.0755663365, 0.0313171595, -0.0121074459, 0.0694999620, 0.0470155962, 0.0114237880, 0.0065328702, 0.0768915117, -0.0397000797, 0.0547565557, -0.0208912604, -0.0274841245, 0.0551535822, -0.0471409224, -0.0107205790, 0.0800204277, -0.1257993877, 0.0877185836, 0.0213658717, -0.0194751825, -0.0009822367, 0.0529271588, -0.0172279589, 0.0358768888, -0.0354415625, 0.0253829211, -0.0310914330, 0.0579075888, -0.0653511137, -0.0189405270, 0.0418455265, -0.0590340793, -0.0066782907, 0.0311249271, -0.0331698656, -0.0307885762, 0.0029108226, 0.1036903933, -0.0670238435, -0.0586173087, -0.0183838885, -0.0690704063, -0.0206139237, 0.0437950008, 0.0097207250, -0.0760915726, -0.0441482663, -0.0426371023, -0.0355021581, -0.1097931266, 0.0065839984, -0.0055628195, -0.0255166404, 0.0214295536, 0.0517832153, -0.0149436742, 0.0551395044, 0.0426928774, -0.1074207649, -0.0459738001, 0.0040758210, 0.0126332035, 0.0447271839, 0.0140741114, 0.0930014551, -0.0224485006, -0.0132175311, 0.0618546978, 0.0520810448, -0.0750080496, 0.0660192296, -0.0274376646, -0.0346887149, -0.0628974512, -0.0211395286, -0.0527007580, -0.0444089621, 0.0408867449, -0.0407821722, -0.0825814307, -0.0160754733, -0.0559461080, -0.0369733199, 0.0133710029, -0.0147786327, -0.0013974234, -0.0212785508, 0.0168679319, -0.0356386490, -0.0630235374, -0.0674910694, 0.0068462193, -0.1002322063, 0.0308773220, -0.0286884792, 0.0409781076, -0.0273468979, -0.0171702486, -0.0371473841, -0.0174925551, 0.0556536093, -0.0030099552, -0.0195711926, 0.0405137800, -0.0079979748, -0.0395304449, 0.0601337180, -0.0653483346, 0.0532504432, -0.0210511722, -0.0420179665, 0.0311040040, -0.0495738797, -0.0574365258, -0.0530528612, 0.0624457076, -0.0113135800, 0.0638073608, 0.0088322693, -0.0705069751, -0.0556270853, 0.0011778995, -0.1111809462, -0.0023543239, 0.0038173655, -0.0175904483, 0.0380831510, 0.0376454554, -0.0452624336, 0.0701086447, -0.0641491190, -0.0314549059, -0.0240435600, 0.0261384249, -0.0519259684, 0.0885454863, 0.0239881948, -0.0494192317, 0.0067038536, -0.0080405306, -0.0402919874, -0.0416083038, -0.0066774413, -0.0899107009, -0.0549931563, 0.0253774337, 0.0040464867, -0.0806916654, 0.0470565483, -0.0198690090, -0.0188431442, -0.0454648957, -0.0681600049, -0.0093948934, -0.0226926040, -0.0758563951, 0.0672817752, -0.0248005483, 0.0184230637, 0.0760397315, -0.0145786777, -0.0036104864, 0.0460560396, 0.0957781821, 0.0761735067, 0.0202018693, -0.0665686578, 0.0566549674, 0.0014888416, -0.0683149546, -0.0328194983, -0.0518894084, 0.0152894901, -0.0391688570, -0.0153991329, 0.0193387885, 0.0561760142, -0.0896311402, 0.0479244329, -0.0090824440, -0.0143496897, -0.0341747254, 0.0527831502, 0.0435366035, -0.0393992476, 0.0135687739, -0.0504815057, -0.0555908941, -0.0370658226, 0.0442565046, 0.0156040192, -0.0351028033, 0.1286493242, -0.0465945154, 0.0689067170, -0.1007925570, -0.0088494243, 0.0223978404, 0.0425357297, -0.0413489789, 0.0707111657, -0.0216196775, -0.0796117559, 0.0192817394, -0.0216527376, -0.0510219261, -0.0598565303, -0.0559050441, 0.0474242419, 0.0759939700, -0.0333438329, 0.0012597633, -0.0613784343, 0.0012568906, 0.0411674380, -0.0666839182, -0.0646136850, -0.0550664887, 0.0586540475, -0.0301201157, -0.1132004485, -0.0154246138, -0.0819464773, -0.0169516727, -0.0998135954, 0.0449243672, -0.0522615016, -0.0309739411, 0.0465152487, -0.0397426710, -0.0045927037, 0.0103411917, -0.0019911719, -0.1493728757, -0.0397321619, 0.0599855706, -0.0686873943, 0.1046237200, 0.0049994364, -0.0231528692, -0.0709266290, 0.1160210371, 0.0486747809, 0.0203615464, 0.0650852099, 0.0113621233, 0.1180800423, 0.0776638761, -0.0528297424, -0.0215028170, -0.1099032015, -0.0758780167, -0.0126812179, -0.0301366244, -0.0091591934, 0.0537469350, -0.0426947102, -0.0509347022, 0.0436475053, 0.0451701358, -0.0577448830, 0.0480761044, 0.0293741170, -0.0369999148, 0.0071591362, 0.0846050754, 0.0742916241, 0.0083592255, 0.0792228654, -0.0367385820, 0.0352739096, -0.0024586376, 0.0560441092, 0.0302331187, -0.0374704041, 0.0039584762, 0.0797186196, 0.0883455873, -0.0386084430, -0.0477217771, -0.0904162005, 0.0694877282, -0.0508111827, -0.0790441334, 0.0576505065, 0.0000155719, 0.0576591976, 0.0842639804, -0.0728175789, -0.0423609763, 0.0000875667, 0.0797741637, 0.0213365797, 0.0172786769, -0.0319781601, -0.0747595653, 0.0369374156, 0.0322110318, -0.0555126779, -0.0619240105, 0.1787570268, -0.0207740702, -0.0383712091, -0.0502279997, -0.0171427652, 0.0146334115, 0.0008420646, 0.0803790763, 0.0447873771, -0.0536020137, 0.0960631669, 0.0600220039, 0.0205642842, 0.0731352493, -0.0074720914, -0.0391492918, 0.0378319137, 0.0286339987, 0.0549442992, 0.0220517796, 0.0944680646, 0.0622669198, 0.0557859465, 0.0198418368, 0.0127265956, -0.0076121041, -0.0383011661, -0.0288849622, -0.0060601626, -0.0152556151, 0.0083688796, 0.0192829929, 0.0221383236, -0.0170752313, -0.1323455423, -0.0128116254, -0.0082107410, 0.0813929215, -0.0101136789, -0.0396499969, 0.0598833896, 0.0054411590, -0.0202663746, -0.0703762472, 0.0141347274, 0.0169831961, 0.0015006140, -0.0278051868, -0.1141154915, 0.0367783308, 0.0224398710, 0.0914708897, -0.0592798106, 0.0272255819, 0.0719476342, -0.0792290568, -0.0051408312, -0.0190717280, -0.0509908721, 0.0389533676, 0.0285389349, 0.0076943701, 0.0332324803, -0.0197215658, -0.0189716443, 0.0496360809, -0.0168986395, -0.0963633507, -0.0600066334, -0.0127314171, 0.1223684847, 0.0369247496, -0.0233956091, -0.0341323204, 0.0250360258, -0.0612510256, -0.0764741823, -0.0809096918, -0.0097855357, -0.0111756772, -0.0481284782, -0.0675943941, -0.0243134536, 0.0045149866, 0.0451055393, -0.0158582553, 0.0060717002, 0.0745867565, 0.0022872726, 0.0249555632, -0.0390961692, -0.0117695285, -0.0626192912, 0.0570967123, -0.0603725873, 0.1132080778, 0.0732091665, -0.0275902674, -0.0110950023, -0.0851631463, -0.0549848713, 0.0699073300, -0.0632367730, -0.0188927129, 0.0582011156, 0.1437282264, 0.0547801033, -0.0960643068, -0.0487296358, 0.0485651307, -0.0721488744, 0.0763829201, 0.0512115248, -0.1546679139, -0.0559272319, -0.0044655972, -0.0343691111, -0.0152147803, 0.0263399258, 0.0349895433, -0.0228945762, 0.0310518704, -0.0164527744, 0.0594160594, 0.0180794150, -0.0463393033, -0.0092251310, -0.0534786060, 0.1162643358, 0.0056940690, -0.0383615345, 0.0350890905, -0.0067407489, -0.0646638423, 0.0474696346, -0.0116658509, 0.0129942968, -0.0989227369, 0.0407913774, 0.0447633490, 0.0596070886, 0.0705305710, -0.0769182742, -0.0927598178, -0.0333436728, -0.0639856979, 0.0686779097, 0.1358065307, 0.0017443079, 0.0070363753, -0.0627425313, -0.0311958417, 0.0077635744, 0.0403051525, 0.0556392893, 0.0068432339, 0.0005090386, -0.0119057596, -0.0283701941, 0.0938616395, 0.0488933213, -0.0428953469, -0.1428743005, -0.0867052451, 0.0924905017, -0.0231055580, -0.0790397152, 0.0099831242, 0.0106106596, 0.0158886015, -0.0460783541, -0.0479812361, 0.0158983842, 0.0487584732, 0.0450365022, -0.0134066045, -0.0860569328, -0.0792720243, -0.0607903898, -0.0247879848, -0.1092261896, -0.0618476123, -0.0106806224, 0.0775074437, -0.0046062842, 0.0559796467, -0.0020454028, -0.0443284810, 0.0502003953, 0.0057404265, 0.0119701549, -0.0543756671, -0.0013403053, -0.0430839881, -0.0142519772, -0.0401818678, 0.0161745213, 0.0278921351, 0.0893600285, 0.1026540846, -0.0322260968, -0.0060779541, 0.1078970134, 0.0025479794, 0.0176142398, -0.0731857717, -0.0263058282, 0.0094276369, -0.1480701119, -0.0623126812, 0.0178279467, -0.0042229928, -0.0054320367, 0.0431609601, 0.0248416848, 0.0369783230, 0.0259832535, 0.0373133831, 0.0136410855, 0.0494258180, 0.0439324453, -0.0663522929, 0.0706916824, 0.1353446543, 0.0396229550, 0.0654997155, -0.0025122389, -0.0123222070, -0.1271687448, 0.0594658181, 0.0458102152, 0.0156164682, 0.0061235051, 0.1305821091, -0.0195218176, 0.0475948341, 0.0121888509, 0.0553539246, 0.0762084350, 0.0315460414, 0.0474066362, -0.0752476975, -0.0141011011, 0.0739124492, 0.0563564822, -0.0043600975, -0.0634843707, 0.0457839593, 0.0341036916, 0.1070711315, 0.0136227459, -0.0006471676, -0.0503808558, -0.0319296233, -0.0251551270, 0.0380547866, -0.0177643802, -0.0724899098, 0.0332649052, -0.0369302370, 0.0424276516, 0.0717029572, 0.1395651847, 0.0525489226, -0.0261431783, -0.0458705537, 0.0232701283, -0.0223480351, -0.0472736806, -0.0605651177, -0.0878274515, -0.0566723458, -0.0365911089, 0.0708374232, -0.0228513516, -0.0043100822, 0.0255041737, -0.0529827736, 0.0554997846, -0.0158931706, -0.0455134213, 0.0555702373, 0.0363346934, 0.0266218316, 0.0738585219, 0.0720197484, -0.0401767679, -0.0082889497, -0.0462419651, -0.0362521596, -0.0151387677, -0.0808078349, -0.0152785657, 0.0714747608, -0.0615838021, -0.0083237868, 0.0592397191, -0.0233891532, 0.0582419448, 0.0537726097, -0.0691534728, -0.1053724140, 0.0081043169, -0.0155460015, -0.0285240952, -0.0425349772, 0.0169718955, -0.0339807272, -0.0476849787, -0.0319556817, -0.0772995129, -0.0378620699, -0.0013212860, -0.0881236196, -0.0277913380, -0.0353267044, -0.0669746846, 0.0823332444, 0.0386212692, 0.0049042189, 0.0904352218, -0.0388050675, -0.0613124445, 0.0055254400, -0.0822438076, -0.0239145290, -0.0192876384, 0.0402031429, -0.0217479095, -0.0713959858, 0.1070326269, 0.0242373645, 0.0280155800, 0.0050374568, 0.0282046441, -0.0053984821, 0.0264973734, 0.0075988099, -0.0086609619, 0.0132116703, -0.0075377841, -0.0287703425, 0.0002979694, -0.1195105910, -0.0681938604, -0.0311090779, -0.1123389453, -0.0222777594, -0.0550029017, 0.0197963733, 0.0058496073, 0.0688989460, -0.0178388916, -0.0008599758, -0.0238840170, -0.0422094427, -0.0250627063, 0.0263725631, 0.0187705904, 0.0050812340, -0.0460494831, -0.0754006729, 0.0663779378, 0.0893674120, -0.0490897745, 0.0969548374, 0.0801630616, -0.0003029183, -0.0654484555, -0.0388344303, -0.0527456589, -0.0760965347, -0.0479684211, 0.0263781697, -0.0603567101, -0.0149072409, -0.0206909366, 0.0017486147, -0.0051462129, -0.0500429198, -0.0618687831, -0.0285965372, -0.0504882373, 0.0809354633, 0.0743874088, 0.0288787335, -0.0263820030, -0.0563792065, 0.0075974166, -0.0102372142, 0.0633331761, -0.0710971206, 0.0548185036, 0.0371736102, 0.0145123238, -0.0057573617, -0.0873081610, 0.0336136818, 0.0155955451, 0.0270741079, 0.0409906581, -0.0385783613, 0.0670488402, 0.0500651598, 0.0644790605, 0.0290410426, 0.0171459392, 0.0260891654, -0.0409429595, 0.0648260266, -0.0698950589, 0.0507510975, -0.0727500841, 0.0632073358, -0.0056854784, 0.0766988695, 0.0103042424, -0.0476396419, -0.0447725430, 0.0179098770, -0.0498882569, 0.0544367284, 0.0660571530, 0.0020061017, -0.0779528692, -0.0262267180, -0.0155406250, -0.0390112922, -0.0121581256, -0.0847363845, -0.0694522485, 0.0171802789, 0.0694222599, 0.0333471745, 0.0695779473, 0.0096704643, 0.0088304821, -0.0709859878, -0.0296438523, -0.0330028795, 0.0673327520, 0.0211369451, -0.0383890793, -0.0492903888, -0.0771350414, 0.0176100582, 0.0465433821, -0.0296214987, 0.0094793616, -0.0167540703, 0.0188527331, 0.0682584494, -0.0891483948, 0.0677320957, -0.0016572038, -0.0673036128, 0.0543767437, -0.0383549295, -0.0093283281, 0.0030505210, 0.0775322020, 0.0355363116, 0.0117495228, -0.0669195279, 0.0264518131, 0.0715193227, -0.0389229655, 0.0604913160, -0.0256864391, -0.0594210066, -0.0965364054, -0.0918358788, -0.0104608014, 0.0349299870, -0.1065165699, -0.0900348276, 0.0676375255, -0.0417521894, -0.0332765356, -0.0037583937, -0.0058290288, -0.0228529572, -0.0384565480, 0.0620363355, -0.0068236627, 0.0542797893, -0.0742779598, 0.0678113922, 0.0589400455, -0.0772550926, -0.0752238631, 0.0409763791, 0.0619778819, -0.0025973234, 0.0661667213, 0.0388022214, 0.0381549522, 0.0099364817, 0.0309177861, 0.0779124871, -0.0025975183, 0.0491143838, -0.0171286687, -0.0468004271, -0.0176162049, 0.0275517032, 0.0438664779, 0.0444862321, -0.0227210708, 0.0285244733, -0.0227529220, -0.0202801339, -0.0808295310, 0.0589674786, 0.0501534417, 0.0537692532, 0.0596105829, -0.0777109936, 0.0322225764, 0.0777376518, -0.0262929909, -0.0769095048, -0.0796398595, -0.0170001462, -0.0222468004, -0.0524148941, 0.0613087192, -0.0379854664, 0.0545498654, 0.0729525611, -0.0693990663, 0.0529908910, -0.0522897393, 0.0192863941, 0.0628819838, -0.0010052994, -0.0232874304, 0.0146092549, -0.0572561994, -0.0014710426, 0.0716776922, -0.0010329932, -0.0247414969, 0.0197262242, -0.0398494676, 0.0538336113, -0.0047367588, -0.0012905002, -0.0439096391, 0.0252254009, -0.0435793996, 0.0671054050, 0.0604153052, -0.0797294304, 0.0754741356, 0.0491130129, -0.0772541091, -0.0111149549, -0.0558499396, -0.0805900842, 0.0467925891, -0.0657587871, -0.0467342325, 0.0062199309, 0.0366249010, -0.0073810220, -0.0724426806, 0.0295219049, 0.0193403512, -0.0643585175, 0.0151976049, -0.0401829183, 0.0620726123, -0.0277642682, -0.0353398733, -0.0351382308, 0.0700077042, -0.0792526826, 0.0014512613, -0.0368220583, 0.0750814453, -0.0751779079, 0.0313139856, -0.0066426471, -0.0142700225, 0.0619487539, 0.0308405086, 0.0433288515, -0.0467056669, 0.0685156956, -0.0196008570, -0.0624170527, 0.0809018686, -0.0123728588, 0.0672199950, -0.0758679584, 0.0380601883, -0.0697361305, -0.0544003993, -0.0418895036, -0.0200498514, 0.0615217909, -0.0552675650, -0.0496683717, -0.0328810848, -0.0409174263, -0.0645418316, 0.0736940578, -0.0268549807, -0.0004664809, 0.0677924231, 0.0455954596, 0.0736071542, 0.0380282253, -0.0619069040, 0.0740634874, 0.0742686614, -0.0584326237, -0.0118227601, -0.0034749731, -0.0674616769, 0.0112276599, -0.0707011893, 0.0024737567, 0.0165965557, 0.0474374667, -0.0289709978, -0.0741793364, -0.0801136866, 0.0550838485, -0.0350702181, -0.0460981168, 0.0296847522, -0.0059613958, 0.0024855733, -0.0007420331, 0.0450644270, -0.0154536590, 0.0762104020, -0.0177293569, -0.0207986906, 0.0610420033, -0.0718713552, 0.0534625128, -0.0709690675, -0.0265733376, 0.0440619811, 0.0631518289, -0.0582005084, 0.0139160901, -0.0227035694, 0.0451351926, -0.0145907849, 0.0079290718, -0.0362062864, 0.0556321517, -0.0519428477, 0.0194368884, 0.0779848322, -0.0615650043, -0.0219631270, 0.0280157626, 0.0513240173, 0.0590944961, 0.0398405939, 0.0028956980, -0.0028505400, -0.0740892440, 0.0196702778, 0.0296843275, 0.0135852173, 0.0724510774, 0.0504911020, 0.0730073676, 0.0382888094, -0.0696348771, -0.0129678994, -0.0353238024, -0.0505198389, -0.0424811393, -0.0471368916, 0.0421856120, -0.0628481060, 0.0661615655, 0.0462845042, 0.0681839660, -0.0042344108, -0.0635153875, 0.0674978271, -0.0747590661, 0.0026101097, 0.0330397785, -0.0556550659, -0.0091908947, -0.0420574173, -0.0041322112, 0.0097060278, -0.0739405528, -0.0708396956, -0.0115274638, 0.0297041535, -0.0543435067, 0.0275601894, -0.0496319979, 0.0254186690, -0.0809935182, -0.0741735548, -0.0223159529, 0.0287044793, 0.0238521695, -0.0428041667, 0.0080539212, 0.0802355334, 0.0590883419, -0.0082819164, -0.0713836029, -0.0032715350, -0.0334275290, 0.0150833875, 0.0769762322, 