//Numpy array shape [128, 64]
//Min -1.067228198051
//Max 0.958092570305
//Number of zeros 0

#ifndef W4_H_
#define W4_H_

#ifndef __SYNTHESIS__
model_default_t w4[8192];
#else
model_default_t w4[8192] = {-0.1428028047, -0.0749345720, 0.0969709381, 0.0118644768, 0.0642034262, -0.0011570833, 0.1969394386, 0.1675084084, -0.1167354211, -0.0724615976, 0.0503039956, -0.0909893736, 0.0260340404, -0.1258298159, -0.0716174468, -0.0638715178, 0.1308481544, 0.0146781132, -0.0410281494, 0.0974327326, 0.0159451179, -0.1412202865, -0.0664757788, -0.1040399149, 0.0028725425, -0.1279353201, 0.1011341289, -0.0271648131, -0.2584188282, 0.2059668303, -0.1608698219, 0.0739660934, -0.1070187092, -0.0406513512, -0.1079035029, 0.0738460049, -0.0098931408, 0.0856850594, 0.1668518335, 0.0144677339, -0.0533022769, 0.0495543368, 0.0950070098, -0.3684934378, -0.2365641296, 0.0999581814, 0.0961971506, 0.0316057727, -0.0058191917, 0.1176747829, 0.1891431808, -0.0678029880, 0.1147195622, -0.1075203419, -0.1746168286, 0.1268278211, 0.2530408204, -0.0471255593, -0.1331157982, -0.0323341116, 0.1437463909, -0.1487013698, -0.1569613516, -0.4031845033, 0.1007877290, 0.1180478036, -0.1399965137, 0.1075899675, -0.0505266674, 0.0958733335, 0.1568956673, -0.0062114210, -0.1369142234, -0.0067075761, -0.0632674024, -0.1529405862, -0.1123726144, -0.1712345779, -0.0364175811, -0.0878468752, 0.0518326834, -0.0122297695, 0.0787130669, -0.0382459126, 0.0535992682, -0.1410541683, 0.1210896224, 0.1475535184, -0.1698167920, -0.0603477024, 0.1504882574, -0.1588867903, -0.1978433877, 0.0818012357, 0.1091495231, 0.0042818543, 0.1821046919, 0.0712782517, 0.1311635822, 0.1837757975, -0.0022802439, -0.1012835279, -0.0111038964, 0.0656198114, 0.1473683268, -0.0921770558, 0.0644599944, 0.1443348825, -0.0427122153, -0.1365397424, -0.1372437179, 0.1435726732, -0.0545750186, -0.1144951433, -0.1013032347, -0.1414946467, 0.0617779382, -0.1206406280, 0.0892376527, -0.0576674938, 0.0713071004, 0.0599849969, -0.1042080075, 0.0646944866, 0.0415285118, 0.1385399103, -0.1537496001, -0.1013892218, 0.0239322018, -0.0141365668, -0.0107938731, -0.0573441833, 0.0085118953, 0.0449635871, 0.0797471851, -0.1231836826, -0.1253771335, -0.1338879764, -0.1010004878, 0.1406945139, -0.2852928638, -0.1062935069, -0.1830699742, 0.1432556361, -0.0467876159, -0.1034492329, 0.0059084008, -0.1484457105, -0.1741430014, -0.1874386519, -0.1036649942, 0.1300273538, -0.0897067636, 0.0126726013, -0.0240686070, 0.1470321119, -0.0094805388, -0.0691867024, -0.0914793164, 0.0867325664, 0.0492139794, 0.0486980230, -0.0701040030, 0.0449512154, 0.1451644897, 0.0839545578, 0.0459693447, 0.0486756526, -0.2057026476, 0.1301147044, -0.1390112042, -0.0802910924, 0.0991190970, 0.1749497801, -0.1341629475, 0.0572652370, 0.1588490307, -0.2347949892, 0.1650395244, -0.1242412850, 0.0128689883, -0.1855035126, 0.1075621992, -0.1209775135, -0.1110426784, -0.1569095850, 0.1283496469, 0.0987398103, 0.0154144140, -0.0513404272, -0.1432068944, -0.0492729470, -0.1462799460, 0.0609754175, -0.1940253973, -0.2065189928, -0.0738222674, 0.1323558688, 0.1172727793, 0.2841944993, 0.1442597657, 0.0011181756, 0.1122108400, 0.1113989055, 0.0793187022, 0.1262906343, -0.0842241049, 0.1750583947, -0.0668844506, -0.0441729128, -0.0170734059, 0.0681877658, 0.1464786530, -0.1570095271, 0.0632821172, -0.1031959802, 0.0434529707, 0.0592072383, -0.0507150888, 0.0990427062, -0.1462248266, 0.0258883331, -0.1240389422, 0.0556662269, -0.1921348423, 0.2577194273, 0.0222591385, -0.0759854764, 0.0459087156, 0.0712702349, 0.1117214710, -0.0145528764, 0.1492737681, 0.1803293079, 0.0721302778, -0.2429805398, 0.1355692148, 0.0074579339, 0.0971707031, -0.1264135689, -0.0979371667, -0.0450465605, 0.1150734797, -0.1288619637, 0.1304628998, 0.1327657700, -0.0404753648, 0.0773585960, 0.0496766120, -0.0952496976, 0.0518639535, -0.2388904989, -0.1376781911, -0.0257655978, 0.1495145112, 0.0350400396, 0.0064774989, 0.0060182097, -0.0584849454, -0.1301642805, 0.1237600744, -0.1388527453, -0.1787773371, -0.0351414420, 0.0804301426, -0.0235106926, 0.0879350752, -0.0775366575, -0.2645021677, -0.1065871119, -0.0869361684, 0.0683790445, 0.0729776397, 0.0649705231, 0.0758681819, -0.5627816319, 0.0741115659, -0.0103074461, 0.1521936506, 0.0311414879, -0.1096891686, 0.0694562495, -0.0646280199, -0.0584591217, 0.0644713268, 0.0669556260, -0.0474516191, -0.1479318440, 0.0359867811, -0.2770566046, 0.0100442888, -0.1475053430, 0.1325329691, 0.0819267854, 0.1682991832, 0.1934320033, 0.0594956055, 0.0733554661, -0.0035993659, -0.0974822342, -0.0080287363, -0.0225273892, -0.1381358504, -0.0442196392, 0.1161755919, 0.0142425299, 0.0355585702, -0.0255907793, 0.0626488626, -0.1394568384, 0.1142926440, -0.0290853698, -0.2431582063, 0.0882828608, 0.1716123968, -0.0919912234, -0.0400880463, 0.0202281345, 0.0572086163, -0.2122614235, 0.1164201349, 0.1150452346, 0.6750873923, -0.0641921833, 0.0016746966, 0.1670913547, 0.3261224926, 0.4090766013, -0.0345516391, -0.0746389106, 0.3759331107, 0.4927925467, -0.0326137170, 0.1312008351, -0.1133913770, 0.2028800249, 0.2527080178, 0.1389476955, 0.4194634259, -0.2240937054, 0.3696416318, 0.1018309221, 0.0368284434, 0.2337620258, 0.1178597435, 0.2175956964, -0.1495242864, -0.1688966304, 0.3817155659, 0.2662318647, -0.1733947098, -0.1653051227, 0.2052010745, 0.1420053691, -0.0041579530, 0.3259566724, -0.0203690138, 0.5446847677, 0.1431921422, 0.5696073174, 0.4067850709, 0.1321333498, 0.1449981034, -0.4311994016, 0.0645081177, 0.2399222851, -0.0090306392, 0.4732293785, 0.3226838112, 0.1357814521, 0.3767199218, 0.1871512681, 0.5202099681, 0.0882338211, 0.0839920118, -0.1821964830, 0.4647824466, -0.1815919131, 0.2966317534, -0.2682061791, -0.1327414811, -0.0379925445, 0.4007559121, -0.3915588856, -0.0282631963, -0.0465393625, -0.0542597920, 0.1160780862, -0.0759661049, 0.0273818094, 0.0033797063, 0.0030209820, 0.1550905704, 0.0851792172, 0.1456601173, 0.0682871714, 0.0060483511, -0.1513200104, -0.1068389416, -0.0741161853, -0.1500683576, 0.0644885227, -0.0171913113, -0.0236614607, -0.0929529741, 0.0571458712, 0.1318640411, -0.1588623971, 0.1657871753, 0.1819315702, -0.0951385424, -0.0268328022, 0.1694660336, -0.1347548515, 0.1545259356, 0.1208120659, -0.1012624502, 0.0637793317, -0.0645361394, 0.1247712076, -0.0131327687, 0.1090759486, 0.0772902891, 0.0001291085, -0.0848926380, -0.0106639303, 0.0833693296, 0.0742505640, 0.0918362513, -0.1063181609, -0.1023724824, -0.0000094890, 0.1795291752, 0.1460376978, -0.0454334319, 0.0269437674, -0.1191521659, -0.0952846929, 0.1149781421, 0.0202505980, 0.0453174785, -0.1573567539, -0.0632078871, 0.1274935454, 0.1200930402, 0.1408948898, 0.1721226573, -0.1515791416, 0.0499146841, 0.0707713142, -0.0522132851, 0.1603138000, -0.0170130804, 0.0923259556, -0.1080935895, -0.2706877291, 0.1080967635, 0.1533626467, -0.1514908820, -0.1324790865, -0.2258646488, 0.1586767286, -0.1696562320, 0.0151654305, -0.0148156807, 0.0824360773, -0.1762231290, 0.0094896806, 0.0349266455, -0.1729943156, 0.1038341969, 0.1235339046, -0.1240790188, -0.0324933603, 0.0171112865, -0.1407996416, -0.0720935315, 0.0115630366, 0.1262841523, 0.0104381377, -0.0320701785, -0.0534183122, 0.1216148734, 0.1319650710, 0.0671691820, -0.0145860370, 0.1234083176, -0.1090707108, 0.0252498537, 0.0717038885, -0.1249018162, -0.0481079556, -0.0317625739, 0.0811743215, 0.0977088287, -0.0382771716, 0.1597831547, -0.0418210924, 0.1159405038, 0.0256462377, 0.0595776662, -0.1789010912, -0.1285242438, 0.0342592485, -0.1946516633, 0.1359431446, 0.0322023593, 0.2003731281, 0.0498234630, 0.0111711789, 0.0565363877, -0.1954626739, -0.0444759279, -0.1639741361, 0.1115175560, -0.0531802997, 0.0653469115, -0.0573743992, 0.0796665922, -0.0939913839, -0.0344228670, 0.1495929509, -0.1206098199, -0.0289904773, -0.0741940364, -0.1640247405, -0.1209903508, -0.0007458840, 0.0374081917, -0.1243928373, 0.0827564150, -0.0573537350, 0.1373945624, 0.0891578570, -0.0160622206, 0.1356917024, 0.0033446439, -0.0566553809, 0.1286656410, -0.1791193783, 0.0602977909, 0.0085149808, 0.0358932614, -0.0013747748, 0.1615583897, -0.0428752862, -0.1422163248, -0.1336295456, 0.0225437153, 0.0397477672, -0.0185338538, 0.0040571159, 0.0774896815, -0.0036056356, -0.0268780459, 0.0317975879, 0.1032467559, 0.0232212879, -0.1687724739, -0.1297364086, -0.0723301694, 0.0790968686, -0.1121001020, 0.0804808512, -0.1463903636, 0.0398652218, -0.1678867787, 0.0879764780, -0.0426773243, -0.0312921815, -0.0278732032, 0.1014403850, -0.0997707993, -0.1818078756, -0.0628221184, -0.0490220673, 0.0178117473, -0.0975074768, 0.4949136972, -0.1490664780, -0.0723494887, 0.1542857885, 0.1916096509, 0.5435925126, -0.1216283515, -0.0769622996, 0.4957538843, 0.2203626186, 0.2351345569, 0.0014005445, -0.1838522106, 0.4898900092, 0.2849296927, -0.0416613631, 0.2758668959, 0.0872107893, 0.3006865084, -0.1673004031, 0.0231540240, -0.0531955659, 0.1459334642, 0.4673071802, -0.2407087088, 0.1537556052, 0.5600235462, 0.2238369137, 0.1438114047, -0.0017850238, 0.3623640239, 0.0415465459, -0.0287247598, 0.3654580712, -0.0565587431, 0.4440961778, 0.2120095938, 0.4291798770, 0.4537780285, 0.2113560140, 0.0424241535, -0.6522243023, -0.0076580411, 0.5076491833, 0.1167722642, 0.4055615366, 0.1441065520, -0.1574423313, 0.2756991982, -0.0595073402, 0.3130162954, -0.0045285462, 0.1171186492, -0.0334911533, 0.4071983695, 0.0532547757, 0.4139945209, -0.3836537302, -0.0475153215, 0.0440563485, 0.3149889708, -0.5913752317, -0.1053687707, -0.0338369161, -0.0872139484, -0.0796052739, -0.0308003034, -0.1653258502, -0.1676190794, -0.1533232033, -0.0108203441, 0.0603935942, -0.0078143459, 0.0170075241, 0.0123414109, -0.0612308122, -0.1302265674, -0.0679662377, -0.0217588656, 0.0885177329, -0.0933264270, -0.1150045171, -0.0660314560, 0.0580976792, -0.0783507898, 0.1448652148, -0.0716811046, -0.1502634138, 0.1388671994, 0.1429263204, -0.0649482980, -0.1432664543, 0.0846014172, 0.0148557173, -0.1548814774, 0.0579546504, 0.1617304236, -0.0953771919, 0.0943702087, 0.0676737130, -0.0376940779, 0.1278931499, 0.0785437077, 0.1857160777, -0.0078504439, 0.1338423491, -0.0086840466, -0.0310393535, -0.0545337833, 0.0963332877, -0.0849958435, 0.0844707787, 0.1451346278, -0.1202011481, -0.0255999174, 0.0168091487, 0.1301587969, 0.1353864372, -0.0509286337, 0.1426744461, -0.0102707176, 0.1548904926, 0.1631544828, 0.0153978188, 0.0528208800, 0.0289937649, -0.1293733418, 0.0983865783, 0.3793892860, 0.2485438883, -0.0510245711, 0.1297573745, 0.0422118045, 0.1464098096, 0.0039748079, -0.1099648178, -0.0261475816, 0.1386639327, 0.1472678334, -0.0483430512, -0.1526697725, 0.1933033168, 0.2423992753, 0.1260333508, 0.2196460813, 0.1576749384, 0.0517986603, -0.1188673899, -0.0119355870, 0.1932388991, -0.0690191984, 0.1608218402, 0.1835142374, 0.0202313755, 0.4684241414, 0.0271429066, -0.1270582676, -0.1732802689, 0.3865757287, 0.0855824128, -0.1227347255, 0.2369855940, 0.0403709225, 0.2312278301, 0.0579752661, 0.2010685652, 0.2134662420, 0.2672162950, -0.0804979950, 0.3676626682, 0.1444783360, 0.3495782912, 0.0463126600, 0.1172823608, 0.3446232378, 0.1545305550, 0.2980157137, -0.0039525842, 0.0653275847, -0.1079510897, -0.0340009332, -0.2505283356, 0.2948829234, 0.0242541786, 0.4111490250, -0.0516732186, 0.0915184766, 0.1082340330, 0.1891230345, 0.1871464849, -0.1472605020, -0.1107465774, 0.1669364721, 0.1513821781, -0.0995796621, -0.1161256805, -0.0253759176, -0.0483425073, 0.0837318599, -0.1332222670, -0.0776397735, 0.1887715459, -0.0097729592, -0.0536835529, 0.0787099972, -0.1511764824, -0.0498206057, 0.0864372253, 0.1407206506, -0.0630147532, 0.0138013130, 0.0178705137, -0.1291635036, -0.0669999793, -0.0177684315, 0.1184311882, 0.1229174510, 0.1249092221, 0.0529185385, 0.0462479144, -0.0479299538, -0.0271146763, -0.1526684910, -0.1685647666, -0.1568009704, 0.0490462743, 0.0956039131, 0.0393658988, 0.0914354622, -0.0661569834, 0.1440752149, -0.0820817873, 0.0306007452, 0.0515209436, -0.1750255972, 0.1214930341, 0.0354976766, -0.1082153842, -0.1060309708, 0.0660591051, -0.0807285681, 0.0087851128, -0.1296245456, -0.0781494081, -0.0823890865, -0.0307478551, 0.1006268933, -0.0313873030, -0.0865269080, 0.0218335725, 0.0385303497, 0.0562678166, 0.1512072682, -0.1713168174, 0.0084824776, -0.0479032435, -0.1330720186, -0.1284832656, 0.0220085122, -0.0605558082, 0.0285590943, -0.0806762725, 0.1531895399, 0.0326882526, -0.0058358992, -0.0867137834, -0.1420997530, -0.0171580650, -0.1450476199, 0.0648538321, 0.1642124057, 0.1198340505, 0.1124035195, 0.0338637419, -0.0614878163, 0.0182936639, -0.0614027157, -0.1902396828, -0.1291765571, -0.0644857660, -0.0873538330, -0.1427813172, -0.0427453332, 0.1493978351, 0.0504837930, 0.0143936733, -0.0850983262, -0.1862442493, -0.1679178476, -0.0193761811, -0.0928292051, 0.0608359240, 0.0582429916, 0.0726449341, -0.0857114494, -0.1133742258, -0.0422898047, 0.1209830269, -0.1287730485, -0.0483987592, 0.0617513806, 0.0164147820, 0.1937721670, 0.1485330909, -0.0565247796, 0.0486216992, 0.0887678415, 0.0686400831, 0.0238186847, -0.1005489305, 0.0758579522, 0.0767863542, -0.1234736666, -0.0990172252, -0.0644154549, 0.0476592556, -0.1284867525, -0.1085336357, 0.0031446114, 0.1140534133, 0.0645547882, 0.0954617858, 0.0638414174, 0.0351597965, -0.0131130405, 0.2773997188, 0.1438610554, -0.1909219772, -0.1223467290, 0.0355569534, -0.2254598886, -0.0210848637, -0.0351152830, 0.0470137000, -0.0615169667, -0.0336900353, 0.1174866334, 0.2740289569, 0.0354803465, -0.1583507657, -0.0182807539, 0.1025842652, 0.0559121333, -0.0712700114, 0.1260419339, -0.1716806442, 0.1777552664, 0.0895246938, -0.1674102396, 0.0250818226, 0.1938391179, 0.1672389358, -0.0683956742, 0.0736341476, -0.0486455299, 0.1052246317, 0.0562990420, -0.0063077430, 0.1890030205, 0.0277883913, -0.0385921560, 0.1287962943, 0.0575268082, -0.1603048742, -0.0427356884, 0.0293743331, 0.1176195815, -0.1391736865, 0.1041891947, 0.1088568866, 0.0026693963, 0.1270186752, 0.0974115431, -0.1825306714, 0.2911002338, -0.0186956935, 0.1889414787, -0.0129986573, 0.1097518057, -0.1086152866, -0.1175619066, 0.1113344952, -0.0299033709, -0.0484144576, -0.0881748572, 0.1079601645, -0.0196473859, -0.1585185379, -0.1234136447, 0.0448186994, -0.0257871728, -0.0458901003, 0.0731347054, 0.0625737533, -0.0040476727, -0.1624889523, -0.1117027551, -0.1336065084, 0.1480845064, -0.1654591709, 0.0913715437, -0.0340302214, 0.1074922010, -0.1266550273, -0.1908007115, -0.1784954816, 0.0857538506, 0.1024938449, -0.1844613850, -0.1024338156, 0.0558525957, 0.0400899276, -0.0089018019, -0.0077391886, -0.0634485632, -0.0881068856, 0.0301985815, 0.0822480172, -0.0259138141, -0.1010864154, 0.1312026531, -0.1132117286, 0.1385432035, -0.1271630824, -0.0992361158, 0.0266083051, 0.0786159486, 0.1266982108, -0.1927345097, 0.1057484969, 0.0392037220, -0.0117886076, -0.0765795335, -0.1220834106, -0.1672048122, -0.0864552557, -0.0715108141, -0.1165544763, -0.1769660264, 0.0758040026, 0.1250409484, 0.1941843182, 0.0328155309, 0.0279205106, 0.0196188558, -0.1845552921, -0.1239491403, -0.1730703712, -0.1965736151, -0.3994361758, 0.0600836277, 0.1896049678, 0.2572395504, -0.0444272719, -0.0333742537, -0.0448704958, -0.0256441142, 0.0213986840, 0.2160920352, -0.0499449000, 0.0645135120, -0.0204139389, 0.0426149890, -0.0487870872, -0.1785614043, 0.0829375088, 0.1388293952, -0.1724008322, -0.1806300581, -0.1603254527, 0.1359742135, 0.0756047368, -0.3487090170, -0.1090969667, -0.0313299410, -0.0179006942, -0.0293289460, 0.1449712664, -0.0743175074, 0.1465295702, -0.0992537141, -0.0196079109, 0.1048260331, -0.1062017009, -0.0705694407, -0.1512252241, -0.0001960623, -0.1016227826, 0.1004623324, -0.5765615106, -0.2734617889, -0.0022893604, -0.0383838527, 0.1244929805, 0.1379186064, -0.0705973506, 0.1290425360, 0.1032298952, 0.1012451872, -0.0179783218, 0.0426083021, 0.0886022672, 0.2223194838, 0.1055299863, -0.2056587040, -0.2177022696, 0.1310150623, 0.1395291388, 0.0235550292, -0.4204785526, -0.0887873992, -0.1491298229, 0.4612084031, 0.1279193312, -0.0305068083, -0.1596598029, 0.3024089634, 0.3535910547, 0.0979750752, -0.0344945341, 0.0920486003, 0.2890518904, -0.0498189889, 0.0672631413, -0.0101884175, 0.1419943720, 0.2758240104, -0.1970374882, 0.1363424212, 0.1233607084, 0.0291175079, 0.0125729619, 0.0643415898, 0.1978111863, 0.0415623635, 0.2913619876, 0.1557348520, 0.0270651951, 0.4296169877, 0.0020659741, -0.0937129110, -0.1118167266, 0.3057271838, -0.0553284772, 0.1555226147, 0.2193778306, -0.0284715574, 0.2106719166, -0.0147679253, 0.1746720225, 0.0997637287, 0.1202503070, -0.0777625293, -0.5690243840, 0.0201249868, 0.0536649637, 0.0539151989, 0.0040156962, 0.2181882262, -0.0380196311, 0.0455774739, 0.0027948327, 0.2052910328, -0.1533768475, -0.0615184158, -0.0357841253, 0.6091116071, 0.1344952136, 0.1340384483, -0.1827202588, 0.0690102726, 0.0638135374, -0.0184210557, -0.5186866522, -0.0014377832, -0.0885830224, 0.0993586779, 0.0018819855, -0.1744889021, 0.0379526131, -0.0970958471, -0.0055632107, 0.0876480415, 0.1127366498, 0.1519942731, 0.1876547039, -0.3041977286, -0.1424578726, 0.0093491077, 0.1106299460, 0.1198929548, -0.0271412358, -0.0422417335, -0.1233639568, -0.0824599043, -0.0685191825, 0.0394921154, -0.0292398110, -0.0270089880, -0.1346072555, 0.1258556247, -0.0012662397, 0.1730230749, 0.1150111929, 0.0986848027, -0.0920088440, 0.1648877859, -0.0010684564, -0.1318029910, 0.1756154001, -0.0652133897, 0.1161967441, 0.1312785298, 0.0548774451, -0.0139019089, 0.0142991357, -0.0781989098, 0.2131310701, 0.2159151882, -0.1485498548, -0.1100539342, -0.1319010556, 0.1786482632, 0.0175572876, -0.0631780028, 0.1262969077, 0.1269910038, 0.0437358692, -0.1676576138, 0.0995434597, 0.0406663530, 0.0798407421, -0.0455268621, -0.0702085271, -0.1247877851, -0.1927896589, 0.0233939551, 0.0411528312, -0.0343975797, -0.0544036776, 0.1556232423, 0.0750288516, -0.0224570166, 0.0722558275, 0.1157140136, -0.1369489878, 0.0709818751, -0.1557613164, -0.1007117778, 0.1293553412, -0.0490586236, -0.0121028861, 0.1110927090, 0.1084165946, 0.1459414810, -0.0916501209, 0.0414937437, -0.0035900476, -0.0802643672, -0.1181900576, -0.1335376203, 0.1385129392, 0.1601050198, -0.0159887783, 0.0045484523, 0.1054779068, -0.0129952263, -0.1427170187, 0.0657252967, -0.0086132502, 0.1425095797, 0.0401308611, -0.1528211385, 0.0288218111, 0.1312863082, -0.1142211035, 0.0880493596, -0.1165511981, 0.0324090645, 0.1574616879, 0.1151207089, 0.1156761199, 0.0723339990, 0.0937846377, 0.1102085561, -0.0039136936, -0.1544762254, 0.0705281049, -0.0725405067, 0.0282685775, -0.1267215163, -0.1305583268, 0.0278795082, 0.0059156190, 0.1695394963, -0.0862543061, -0.1644148231, 0.0395857058, 0.1478729546, 0.0623850599, 0.0178047474, -0.1640887409, -0.1052240729, 0.1177547500, -0.0417180434, -0.6577777863, 0.0711489692, 0.0014916916, 0.2154858708, 0.3341865540, -0.0587169118, 0.0682512969, 0.0322825760, -0.5463827848, 0.4141445160, -0.0993229449, 0.0517066456, 0.0356032513, 0.1983493418, -0.0757760182, -0.2615728974, 0.2178333700, 0.3281131089, -0.1354467869, 0.0732770339, -0.6299089193, 0.4343999326, 0.2316181511, -0.4697844982, 0.0662915185, -0.1987588853, 0.3597643077, -0.1669813991, -0.1248546094, -0.3030321300, 0.1906839460, 0.0482161753, 0.2033887506, -0.0855817497, -0.3493468165, 0.1963602453, 0.1068908647, 0.1243738085, 0.5586935282, -0.1137792170, -0.6837321520, -0.6092928648, 0.1729118079, 0.2158562243, 0.2072912455, -0.2174434513, -0.0180557836, 0.3209912479, 0.4119953513, 0.2458188683, -0.1700859517, 0.1508777142, -0.0273245703, 0.7767095566, 0.1224288344, -0.4055572748, -0.2276850343, -0.0559819974, 0.4001424611, 0.0069263522, -0.5244641304, 0.0864524990, -0.0339014977, -0.1312589645, 0.0694713965, -0.1012007371, 0.1314883828, 0.1260749698, 0.0951440707, 0.0349563919, 0.0928458050, 0.0618973970, 0.0991929248, 0.1262399405, 0.1437118500, -0.1286319345, -0.1046028212, 0.1384109259, -0.1192419231, 0.0107190935, -0.1443609893, -0.0888388604, -0.0016510980, -0.0647808239, -0.1482722610, -0.1601659805, 0.0289089158, 0.1464673877, 0.1544650644, 0.1671503484, -0.1372006834, -0.0960764065, -0.0395608097, 0.1042525470, -0.0448317379, 0.0075647724, -0.1332765073, 0.1158820093, -0.1420383304, 0.0340065621, -0.1293604374, 0.0805762410, -0.0861430541, 0.0655143484, 0.0183341559, -0.1260154247, 0.1753861457, -0.0581051446, -0.1373493224, -0.1268395782, -0.0935047790, 0.1098429114, 0.1671260893, 0.1366912723, 0.0253873877, -0.0907005519, 0.1610267460, 0.0133367982, -0.1081667617, 0.1333064288, -0.0959691405, -0.1699357629, 0.0029497598, 0.0748649389, -0.1347535700, -0.1109538153, 0.0198914688, 0.1493507177, -0.1534805298, -0.0486621186, 0.0895534977, -0.0481207557, -0.1724086851, 0.1187007576, -0.1263120770, -0.0818820074, -0.0177189782, 0.1145113781, -0.0391938537, -0.0315273255, -0.0471562482, -0.1364998370, 0.1221647784, 0.1734961420, -0.0414503142, -0.1054527760, 0.0455348007, -0.1146962717, -0.1002834365, 0.0492135286, -0.0775843561, -0.0124849286, 0.1370558590, 0.0225725286, -0.1193076521, 0.1594139040, -0.1757025868, 0.0946889594, -0.1073537916, -0.1154651940, -0.1061185971, 0.1627426744, -0.0806661546, 0.0105222883, 0.1475936025, 0.0399616063, -0.0358250104, -0.1310443729, -0.1493395567, -0.0771447495, -0.0238993764, -0.0902041942, -0.0909167826, 0.1104198322, -0.0514995009, 0.0210304782, 0.1338455081, 0.1288972795, -0.0113391392, -0.0996116176, -0.1217539087, 0.1333602965, 0.1490009427, 0.0724140629, -0.0694344193, -0.0640938431, 0.0447783545, -0.1437033862, 0.1219265983, 0.0739146546, 0.1598822922, -0.1346453279, -0.0821561664, 0.1271328479, 0.0754758939, 0.0530291088, 0.0490870774, -0.1649453491, 0.0525588393, -0.0841631144, -0.0110769635, -0.0158738922, -0.1470596492, -0.0761591271, 0.1851986349, 0.0977321491, -0.0122460602, -0.0074788374, 0.0359483548, -0.0896199942, -0.1548165530, -0.0156775285, 0.1802636832, -0.0994599834, -0.1435846984, -0.0175412055, -0.0396338999, 0.1658992767, 0.0235092342, -0.1481378078, 0.0595761240, 0.1150289997, 0.1228051186, 0.1387835294, -0.0455372632, 0.1048011631, 0.0299500171, 0.1354053020, 0.1079477221, 0.0556257144, -0.1342670619, 0.0417266339, 0.0865078047, -0.2957976758, 0.1342872530, -0.0149991261, 0.1556402743, 0.1929946542, -0.1000227109, -0.1054471955, -0.1619658470, 0.1639397442, 0.1449387968, -0.0876579359, 0.1368160546, 0.0277033672, 0.1272604764, 0.1433260888, -0.1189148352, -0.2001135051, 0.0423379727, 0.0300211981, 0.1869056225, -0.0757477507, -0.0313763916, 0.1309043020, 0.0477791540, -0.1875501126, 0.0299581103, 0.0099595152, 0.3781024516, -0.1156447381, -0.0990325809, 0.1227364838, 0.0897203684, 0.2353816628, -0.0404678248, -0.1708384156, 0.1930525601, 0.0687239096, 0.1082661673, 0.2408251911, 0.1853888631, 0.1769740880, 0.0759325325, 0.1254672408, 0.0814959854, -0.0656701028, 0.0988072157, 0.1714269966, -0.1030031443, 0.4831909537, 0.0785355642, 0.0157049391, -0.1708273441, 0.0535370149, 0.1382352710, -0.0708826408, 0.1044109687, 0.1631423682, 0.0320791118, -0.0912669152, 0.1964813322, 0.2265151143, 0.1006690040, 0.1093425527, 0.2093007118, 0.3595397174, -0.0919869021, 0.0267798696, 0.2187313437, -0.0276956949, 0.1543480307, -0.0620974973, -0.1093140095, 0.2608771622, -0.1645825356, -0.1299445182, -0.1112531945, 0.4341144860, -0.0425331146, 0.0890908241, 0.1235115007, 0.0697026029, -0.1082820520, 0.1765502840, 0.1688494682, -0.0510309935, -0.0328483433, 0.0270506386, 0.0763122439, 0.0625225827, 0.0461240932, -0.1284891665, -0.1680763960, 0.1051675379, 0.1091109738, 0.1116975993, -0.0911519900, 0.0000689026, -0.0765763670, 0.0289070457, -0.0406244285, -0.1262814552, -0.0572202764, -0.1287740618, 0.0966650844, -0.0340015143, 0.0505152084, 0.1330081671, -0.1213868037, -0.1497459412, -0.0384691432, -0.1413403153, -0.1275300980, -0.0463110469, 0.1131822541, 0.0278924853, -0.0100869071, -0.0365580171, 0.0288893916, -0.0448657908, 0.1286040992, 0.0053225420, -0.1316646338, -0.0018870104, 0.1247923598, 0.0023052772, 0.1768594682, -0.0999094397, -0.1172433794, 0.0333088115, -0.0854313299, 0.0566091724, 0.0840239823, -0.1046778113, -0.1730853021, -0.0476026572, -0.0758516192, -0.0423488729, -0.0621688105, -0.0548122823, -0.0096985949, 0.1588656753, -0.0856335238, 0.0269852858, -0.0828595310, 0.0104161305, 0.0344773084, -0.1277755350, -0.1766573489, 0.0472919568, 0.0431303121, 0.1612317115, 0.0841017962, -0.0510243960, 0.1188867167, -0.0718597323, -0.1424406171, -0.1342350841, 0.1039024442, 0.0856689662, -0.1103046760, -0.0891855732, -0.0637691990, 0.0017247319, -0.1120707616, 0.0910974368, -0.1363320649, 0.0010425411, 0.0867676437, -0.0224683601, -0.0278967302, -0.0464270338, -0.1314172298, -0.0563276857, -0.0591796711, 0.0305645037, -0.1213172227, 0.0564885847, 0.0762379542, -0.1350926161, -0.1794469059, 0.1423568130, 0.1302952021, 0.0041279006, 0.0774104074, 0.1066172495, -0.1239042580, -0.0579809546, 0.1490511894, -0.1185072288, -0.0744418949, 0.0831993669, -0.1590028256, -0.0651992336, 0.1499615759, 0.0822041780, 0.0647157952, -0.1434579492, 0.0037134204, -0.0755650625, -0.1556893587, 0.0205883030, -0.0591095425, -0.1701719165, -0.0995842516, 0.0893740654, 0.1440402865, 0.0757809207, -0.0010126865, -0.1481287926, -0.1786125451, 0.0460053422, -0.0695819631, -0.0678526610, 0.0690629631, -0.0285826325, -0.0393538475, -0.1413516104, 0.1126852706, 0.1435355097, 0.0618334077, -0.0150778284, -0.1737870425, -0.0544629395, -0.0769100115, -0.0149470065, 0.0949854180, 0.0025406843, 0.1473259628, 0.0293368995, -0.1758647263, 0.0646298900, -0.1143116578, 0.0949216783, -0.0613148883, -0.0699288249, 0.0391064771, -0.0213635005, -0.0290159564, 0.0257089455, -0.1810732484, -0.0459912233, 0.1629527211, -0.1074187458, 0.0426740795, 0.1875603050, -0.0774106234, -0.1451920569, 0.1061758846, 0.1539022028, -0.0264594071, 0.1458766907, 0.0311092827, -0.1130722910, -0.1205685213, -0.1620452255, -0.0681721121, 0.0938299894, 0.0784377530, -0.0441503078, 0.1061628163, 0.0679699033, 0.0416964553, -0.0028067974, -0.0245676804, -0.0535737798, -0.0890123993, 0.0329439342, 0.1197417155, 0.0723327845, 0.1083328724, -0.0272311755, 0.1629299968, -0.1387298107, -0.0451252311, 0.0366751552, -0.1844033152, -0.1676437408, -0.0319325030, 0.3462075591, 0.2757689059, -0.1065562367, 0.1529196501, -0.0506497025, 0.1886510402, -0.0363880657, -0.0141406832, 0.1934892535, 0.2495783567, 0.0451723114, 0.0419728868, -0.1655113548, 0.0545672625, 0.1652673334, -0.0664314553, 0.4110767841, 0.0886992514, 0.1851150542, -0.0739774927, -0.0830471143, 0.0515274070, -0.0024686763, 0.1470243037, 0.0726830810, -0.1762586832, 0.3307879865, -0.0102311531, -0.0468439907, -0.0538293310, 0.0738820806, -0.1503020376, 0.0518222339, -0.0387960151, -0.1021137387, 0.3281115890, 0.1225363314, 0.1443216950, 0.1790441573, 0.2702906132, -0.1321875304, 0.2666556239, 0.1795002967, 0.2309322506, -0.1656380147, 0.2116325051, 0.0739400536, -0.1510610580, 0.1024476141, 0.0108699761, 0.1736941785, -0.1279947460, 0.1049433723, 0.0906604975, 0.3705329001, -0.1263411939, 0.2842972875, -0.0663042516, -0.0013052217, 0.0990768373, 0.1667810977, 0.0553698130, -0.1345259398, -0.0094259148, -0.0430497117, -0.1279731840, 0.1123722792, 0.1141178682, -0.1799087971, -0.1229485720, -0.1407041550, -0.0857713893, -0.0696529746, 0.0533051342, 0.0931094885, 0.1061928570, 0.1134442762, -0.0915669203, -0.0720079318, -0.1389394403, -0.0828114673, 0.1520375609, 0.1942093521, -0.0704406723, -0.0762616992, 0.0883369446, -0.0021510641, -0.1545700282, -0.1298146546, -0.1628385484, 0.0871890783, -0.0685612932, -0.0492175519, 0.0779926404, 0.1595767438, -0.1587394029, -0.1099039987, -0.1283046603, 0.0294226930, -0.1048853174, 0.1059219018, 0.0003880479, -0.1422978193, 0.0558132194, 0.0907367319, 0.1225273907, 0.1416765302, 0.0691237450, -0.1587179750, -0.0150170848, -0.1344853342, 0.0027289398, 0.0933213532, -0.0822920129, -0.0283432715, -0.0675561354, 0.0110839363, -0.0502866209, 0.0416746810, 0.1370486766, 0.0190936252, -0.1731900722, -0.1718813032, -0.0731551573, 0.0427838489, 0.0550505146, -0.0128669040, 0.0291166324, 0.0457567610, 0.1017094553, -0.0521681830, 0.0161706712, 0.0462003835, -0.1308718771, 0.0682926551, -0.0411235131, -0.0881766826, 0.1496255100, -0.0224396978, 0.0855413005, -0.0367222428, 0.1046469882, 0.0981642529, 0.0268666744, 0.0517547540, 0.0413252637, 0.1199715883, 0.0016699962, 0.0980738997, 0.1058547348, -0.1612280905, 0.1666910499, -0.0903367102, -0.1867219061, -0.0890119001, -0.1418780535, 0.0065337201, -0.1136775166, -0.0934558362, -0.0851010680, -0.0440095514, 0.1833513528, -0.1244389564, 0.2029186189, 0.0260698795, -0.0291897207, 0.1069860160, -0.0542795472, 0.0817582682, -0.7386023998, -0.0667402744, 0.1904841512, 0.0936866924, -0.0489143431, 0.1042322218, -0.0147635117, 0.0227903798, 0.0781624541, -0.0222070515, 0.1066486165, -0.0404465497, -0.0519056544, -0.2596981823, -0.1986271292, -0.0815693513, -0.1142340451, -0.1865678281, -0.0909118727, -0.0974241644, -0.3965964615, 0.0512592532, -0.1718797088, 0.0257826168, -0.0271712784, 0.1521284431, 0.1081005186, 0.1489565670, -0.1113433912, 0.0853239819, -0.0331104249, -0.1574189663, -0.1454100609, -0.1667681634, 0.0621963814, 0.0430184267, -0.0965798274, -0.1150476784, -0.0236215666, 0.1063531488, 0.0534181744, 0.0827459767, 0.0753071383, 0.0122214733, -0.0991503596, -0.1329688728, -0.0602371767, 0.1191170514, -0.0248273965, 0.1062687784, -0.0338988826, 0.0596621595, -0.0356722958, 0.1193958446, 0.0071180742, -0.0073937345, -0.0423150025, 0.0296448488, 0.1070336103, 0.0551738292, 0.0030684380, -0.0866568461, 0.1282607764, 0.1202473789, -0.0133661535, 0.1577479839, 0.0234000962, -0.1398526579, -0.0481440835, 0.1633210033, -0.1875983924, -0.0784705803, 0.1641565263, -0.0737089813, 0.1417779177, 0.1568930596, 0.1323934942, -0.1356284618, -0.0116091389, -0.0352408364, 0.0177724492, -0.0054789628, -0.0491426885, -0.0017814465, -0.0555093773, 0.0021152319, -0.1086505055, -0.2192540169, -0.2209674269, -0.1821983010, 0.1245998815, 0.0112065952, -0.1364094317, -0.0674580336, 0.0824346691, 0.0037847278, -0.0681460798, 0.1074823812, -0.1011379734, -0.0891596004, 0.0002163237, 0.0725312978, 0.0432602242, -0.0726191923, -0.1458504945, -0.1734335274, 0.1168219820, -0.1625500023, -0.1045140028, 0.2086073160, -0.0499518439, 0.1242915541, 0.0730509385, -0.1852984577, 0.0525105558, -0.0291729905, -0.0151519114, 0.0378855914, -0.1418418735, 0.0600897707, 0.0884991363, -0.0817695111, 0.0357751548, 0.1575113386, -0.1168846563, 0.1791980863, -0.0340555236, -0.1206884608, -0.6850396395, -0.2900786400, 0.1299169213, 0.0669391230, -0.0307108760, -0.0875590667, -0.2431552410, 0.0212568883, 0.0820311904, 0.0660451353, -0.1112753674, -0.1516179442, 0.1421318054, 0.0004476747, -0.1761736870, -0.0967238173, -0.0777542517, 0.0365837924, -0.1816249192, 0.1172521561, -0.5404368043, -0.0725975633, -0.1471015662, 0.0898506492, 0.1994602531, 0.0857215822, -0.0084256735, -0.0392055325, 0.0313885361, 0.2060694247, -0.2019299567, 0.3534707427, 0.2738317847, 0.2402508557, -0.1741626114, -0.0236766450, 0.4113587737, 0.4720687568, 0.1190551147, 0.1207073480, 0.4368948936, 0.5885174274, -0.0116363000, -0.0070913597, -0.0544296503, 0.0075297672, 0.4970963895, 0.1767185628, -0.1361169666, 0.1358319372, 0.2412779331, 0.0576035902, -0.0390121602, 0.2945681214, 0.3402803540, -0.1086424962, 0.3068066835, -0.0682271123, 0.2115020752, 0.3714779615, 0.2819916606, 0.1344457716, 0.4314265251, -0.0372279063, -0.0249812342, 0.2371412218, 0.1824931949, -0.0384529121, 0.6676846147, 0.2488303930, -0.0304521155, 0.2276810557, 0.1729993820, 0.5112055540, -0.0474670902, 0.0235430431, 0.0373965912, 0.4810974300, -0.0994332507, 0.0743474588, 0.2815842628, 0.0836182088, 0.0047674794, 0.3265452981, 0.1336396635, -0.0080239084, -0.0678181276, -0.1131525338, -0.0850365013, -0.1291331053, -0.1274038106, 0.0654569641, -0.1218684390, 0.0948960111, -0.0502017513, 0.1051413119, -0.0676591694, -0.1122816056, -0.0124812638, -0.1497670561, 0.0899438933, -0.1609725058, 0.0478471629, 0.1638596207, -0.2941730022, 0.1678671986, -0.0814810023, -0.0324830078, -0.0719405785, 0.1875400990, -0.0280064549, -0.0077429004, 0.0673308074, -0.1136747599, -0.0911410302, -0.1803219914, 0.0356026813, 0.1489163190, -0.0597386099, 0.0095239487, 0.0373125710, 0.0865508169, -0.1889844388, 0.1458843946, 0.1518734992, 0.1039330438, 0.0704787150, -0.0381665155, -0.6655119658, -0.3066941500, -0.1375361383, 0.0286731478, 0.1297997385, -0.1173637509, -0.2128596157, -0.0699729845, 0.1879619062, -0.1047238633, -0.1469004005, 0.1312566549, -0.1248168498, 0.0059285276, 0.0410763249, 0.1058003306, 0.0744966045, -0.0090753948, 0.0829460323, -0.0262850728, -0.3660223484, 0.0747064427, 0.1329624355, 0.2248714715, 0.1745838076, 0.1447912008, 0.1887628585, 0.1165779233, 0.1716832370, 0.1190846413, 0.2614763081, 0.2291096896, 0.4342982769, -0.3886890411, 0.1377541423, 0.0581616051, 0.3227507472, -0.0903426856, 0.0698533431, 0.4933322966, -0.3399387300, -0.0569504872, 0.0148744220, -0.0865731314, 0.2788873017, -0.4335656762, 0.2259912193, -0.0145752020, 0.1378162950, 0.1863522381, 0.2094786018, 0.1398452073, -0.0012544659, 0.1510784030, -0.3369970918, -0.1038006768, 0.2760245204, 0.0146102449, 0.2826346457, 0.0056941705, 0.2733574510, 0.3523365855, 0.0240795463, -0.0136953304, 0.0010376622, 0.1359856576, 0.1831008941, -0.1433208585, -0.1279171705, 0.1411886811, 0.0086198226, 0.0849703252, -0.5396617651, -0.0051315874, 0.0355295613, 0.0380278900, 0.1733675152, -0.0592980087, 0.0312540978, 0.3433939517, -0.1352803111, -0.1099924818, -0.2485435754, 0.3484404683, -0.1667024791, -0.0934927687, 0.1164037138, -0.1704674959, 0.0527042076, -0.0037551210, 0.0872388333, -0.0548313744, -0.0649855956, 0.0899847820, 0.0815348774, 0.0255916454, 0.0925930887, 0.0053232331, 0.1380271465, -0.1641969681, 0.0417746566, 0.0750790909, 0.0362603143, -0.0754567236, -0.1471129507, -0.1024706215, 0.1069484651, -0.0239517465, 0.1230545267, 0.0810981616, 0.0001031330, -0.0080539547, 0.1341478974, 0.0298705362, 0.1944580823, 0.0815924332, 0.1330068409, 0.0396075659, 0.1223917678, -0.0722386017, -0.1052843928, -0.1169981062, -0.0933881924, -0.0717110783, -0.0531219393, -0.1727329195, -0.1233576536, -0.1099066585, 0.0731527880, -0.1105762944, 0.0049065766, -0.1269114614, -0.1114115119, -0.0062687229, -0.1248652339, 0.0266020261, 0.0202381145, 0.0568829551, 0.1480294019, -0.1210980564, -0.0904852599, 0.0665189549, -0.0078786463, 0.1570486128, -0.0442900732, -0.0670795590, 0.0905685052, -0.0748045594, 0.0163593963, -0.0671229288, -0.0271519963, 0.1803945154, 0.2409693152, -0.0269866474, 0.0612205788, 0.0406634510, 0.2291970849, 0.0865736976, -0.0539005026, 0.2727539837, 0.4985678494, 0.1015026271, -0.0104671642, 0.0394736864, 0.2347904891, 0.2473287731, -0.1199366674, 0.3447266221, 0.3067134917, 0.0863952413, -0.1322760582, -0.0647704154, 0.0458197854, -0.0515778027, 0.5005183816, 0.1607659608, -0.1346580088, 0.3159807026, -0.0362749137, -0.1050472781, -0.1441461742, 0.0937740728, 0.3046774268, -0.1698306352, 0.0154342204, 0.0139336381, 0.3600517809, 0.2308915108, 0.4060516953, 0.3152770400, 0.2327274084, -0.1622894853, 0.1993007064, 0.2643809319, 0.1695124209, -0.1277201474, 0.3379420936, 0.0237179548, 0.0940644816, 0.1750814319, 0.0801216215, 0.1675910056, 0.0045715887, -0.0706605315, 0.0417711735, 0.1976312548, -0.1715294272, 0.0749911293, 0.0779612735, 0.0793781504, -0.1319897622, 0.2342208773, 0.0692152604, 0.0728123337, -0.1729552001, 0.2537431419, 0.0064735087, 0.0872257948, -0.0065702936, -0.0950432792, 0.0697454512, -0.0693055615, -0.0198790003, -0.3334274292, -0.0940111578, 0.0848722011, -0.0012848789, 0.0679108053, -0.0872750506, -0.0058909561, 0.1354562640, 0.2659124434, 0.0341795795, -0.0524320938, -0.1634113789, -0.0967393294, 0.2077066153, -0.1388152838, 0.1118159220, -0.0326711535, -0.0916286558, 0.3707250953, -0.1480628699, 0.0371214226, 0.0153470188, 0.1429427415, 0.0397459827, 0.0632066131, -0.0453320369, 0.0708649158, 0.3088366985, -0.0871116966, -0.0122385081, -0.4198814034, 0.1212735847, -0.0655120611, 0.2789365053, -0.0347896367, 0.0880187973, -0.2151018679, -0.0864618048, 0.2362366170, -0.0279752221, 0.1403539330, -0.1391922832, -0.0814295262, -0.0006404847, 0.1427320391, 0.0283482317, -0.1925703138, -0.1254488975, 0.1050041541, 0.0089974003, 0.0024011717, -0.1012817845, -0.0695523098, 0.3400749564, -0.1167421564, 0.1169197410, -0.1442971230, 0.1758031994, 0.1462270319, -0.1541122049, -0.1894776821, -0.2034428865, -0.1392969191, 0.0164623000, -0.1345385611, 0.0822386444, 0.1460161507, -0.1557596922, 0.1381502599, 0.1899612993, 0.0167971514, 0.1322352588, 0.0483905487, 0.1159550473, -0.1026771143, 0.1321919262, 0.0637123585, -0.0003021490, 0.0520277470, -0.1398938596, 0.0340765417, -0.0878863558, -0.1653012931, 0.1650421917, -0.0156021426, 0.0336326957, -0.0394304954, -0.0069342246, 0.1340880543, 0.1152215376, -0.1573408097, 0.1346680820, 0.0991766229, -0.0177193843, 0.1423024237, 0.0739848167, 0.1397368312, -0.3054961860, -0.1036607847, -0.0143023748, 0.1012848914, 0.1406443864, 0.1386454254, -0.2105800956, -0.0096764052, 0.0184487719, -0.0682634190, 0.1303446740, 0.1160576269, -0.1901554763, -0.0355833992, -0.1062356904, -0.1011294425, 0.0607956983, -0.0315828212, -0.0084326947, 0.1352264434, -0.2474093586, 0.0573328584, 0.0999356583, 0.1567639261, 0.0633684769, -0.1099404767, 0.1239347607, 0.0172650516, -0.0514252745, -0.0179078542, -0.0130328583, 0.0810947642, -0.1089932770, 0.1588557512, -0.1737107038, 0.1370145082, 0.0045924294, 0.0521822162, -0.1403648406, -0.0276065022, -0.1314236075, -0.0866723582, -0.1252650768, 0.0788838789, 0.0020932800, -0.1744005531, 0.0305681042, 0.0272020642, -0.0013280321, -0.1696843505, 0.0304804724, -0.1343427151, 0.1181166545, 0.0925725624, -0.1351129711, -0.1738077551, 0.0620564260, -0.0911994055, 0.0546961389, 0.1014182270, -0.0517234318, 0.1680948734, 0.1527336389, -0.1501169950, -0.0661552697, -0.0217197705, 0.0146043934, 0.0832516253, -0.0143523794, -0.0870321617, 0.0010540426, -0.0587184504, -0.0016020786, -0.0286147706, -0.0518961586, -0.0641097575, 0.1295194328, 0.1815150827, 0.0581798814, 0.1746494770, 0.1341314316, 0.1477132142, 0.1132000536, -0.0729815587, 0.0767591372, -0.0948227346, 0.0952854306, -0.0905029029, -0.1623657644, 0.0730182528, -0.1670841426, -0.0260170791, -0.1323818713, -0.0127235455, -0.1218995377, 0.1204551384, 0.0711616054, -0.0333271846, -0.1030835882, 0.0853885338, 0.1441064775, 0.0137244621, -0.0948871523, -0.0119493874, -0.2631543577, -0.0791656300, -0.0470043346, -0.1011528596, 0.1838023812, 0.0905786008, -0.1524622440, 0.0644630417, -0.0451028198, -0.1995183229, 0.1619922668, 0.1045899093, 0.0351690389, -0.1926121861, -0.0864951685, -0.0439324938, 0.1019314080, -0.1756367981, -0.0447776355, 0.0755394399, -0.1902169734, 0.1297897846, 0.1557406038, -0.1885906309, -0.1564522237, -0.0303514209, -0.1049793884, -0.0260969959, -0.0190505236, 0.0422200970, -0.0794963613, 0.0978563428, -0.0000060045, 0.0957735181, -0.1352301985, -0.1151141524, -0.1613504440, -0.0550226308, 0.0099402973, -0.1659815758, -0.0822062045, -0.0934554338, -0.0359856673, 0.0665422380, -0.1237705350, 0.0795793682, -0.0206615012, 0.6781915426, -0.1175213233, -0.0048228381, -0.1522690952, 0.0822076723, 0.2237910032, 0.0184162650, 0.0360587165, 0.4209047556, 0.3266001344, -0.1154349670, -0.1009716615, -0.0275330953, 0.4251010418, 0.4795527160, 0.1147753447, 0.5047613382, -0.0988010690, 0.3761284351, 0.0539107397, -0.0077508260, 0.2530550659, 0.1118774563, 0.3593548834, 0.0790621266, 0.0109791178, 0.4932333529, 0.2736243308, -0.0115478551, 0.1376613230, 0.3377658725, -0.0711168870, 0.1583974808, 0.2018532753, -0.0765401572, 0.4377331734, 0.3772957325, 0.5146187544, 0.3780845106, 0.2683306634, -0.0556605980, -0.2153716087, 0.0490404591, 0.4029672444, 0.0818609297, 0.4646840990, 0.3005651832, 0.1267212033, 0.2875464261, 0.0679732114, 0.4186016321, 0.0107299332, -0.0406028144, 0.0708316341, 0.3414386511, 0.0977152735, 0.4221263230, -0.2022341341, 0.0616509393, 0.0960689932, 0.2385073751, -0.1757559627, -0.0272404701, 0.1320897043, 0.2564555109, -0.2846027017, -0.1160075441, -0.0997443721, -0.0582377911, 0.4110895991, 0.1365793347, 0.0157230254, -0.0910211578, 0.1847006381, -0.0335299261, 0.0492757969, -0.1152900606, -0.0404538773, -0.0400489345, 0.0794823915, -0.1055749580, -0.0742127225, 0.0495296530, 0.0779917240, -0.1741130650, -0.1586748213, -0.0149429524, 0.1714929044, -0.3657099605, -0.0340022445, 0.4837408066, 0.1996274441, -0.1518422663, 0.1334869266, 0.0078863837, -0.0410631150, -0.0505824275, 0.0479356535, 0.1172928885, 0.0656792447, 0.0431221984, 0.1669307500, -0.0762508735, 0.1864666939, -0.1124249399, -0.2540528178, -0.2021159083, 0.1181627363, 0.0202532746, -0.1166939884, -0.0644500926, 0.0619560666, 0.1758114845, 0.1706085056, 0.1882396489, -0.0146727506, -0.1434533149, 0.0523894839, 0.6713782549, -0.1936562806, -0.0631744787, -0.1367226094, -0.0171519909, 0.0639061257, -0.0526794940, -0.0366767868, -0.0498463400, -0.0046780417, -0.1736200452, 0.0682435036, 0.0182830542, -0.0575554110, -0.1156201661, -0.1304389983, -0.1890095919, -0.0370611139, 0.0106861573, 0.0103324559, 0.0464546569, -0.0282889586, -0.0378060341, -0.0281748306, 0.1066418141, -0.0557787493, -0.0171611551, -0.0458828881, -0.0998408124, 0.1306431592, -0.0221211668, -0.1477853060, -0.1606984586, 0.0819397643, -0.0167818796, 0.1140640229, -0.0721010044, -0.0610526428, 0.0938759148, 0.0834041014, -0.1552685499, 0.0947843567, 0.1542553306, 0.0697666630, 0.0431162380, -0.1520985216, -0.0772051960, 0.1577501148, 0.1763199717, 0.1436647773, -0.0900733247, -0.1255068034, -0.0393201746, 0.0520367101, 0.1047401950, 0.0652638227, -0.0904671475, -0.0383369029, -0.1422397494, -0.1393862665, -0.1585862041, -0.0744182169, 0.0620466098, 0.1580165923, -0.1723795086, -0.0654176176, 0.0042858478, 0.0150038674, -0.1005108207, 0.0627845302, -0.1457413137, -0.0008614143, -0.0935696065, -0.1018133610, -0.1487296522, -0.0714920461, 0.0958311185, -0.2253222615, -0.0134682897, 0.0291325971, -0.0431155302, -0.0224978533, 0.0442651324, -0.0160285793, -0.2242862582, 0.0381826945, 0.1281398982, 0.0223706197, -0.2009636164, -0.0453133509, -0.1359868646, -0.1401847601, -0.0128311180, -0.0501716509, 0.0895306170, 0.0124271167, -0.0496352129, -0.1939455122, 0.0632877275, 0.1051589251, 0.0998120084, 0.1256205738, 0.1416819096, -0.1626659334, -0.0733617172, 0.0084920954, -0.1229762733, 0.1223440915, -0.1408784986, -0.0038347444, 0.0959822685, -0.2193023413, 0.2240104824, 0.0104751978, -0.1860789508, -0.7644501328, -0.0958049074, 0.0651143044, -0.0008153142, -0.0644080937, 0.0480824262, 0.1085966900, 0.1163234040, 0.1470526308, -0.0576363020, 0.1492560357, -0.1058400199, -0.1182024330, -0.1250161380, 0.1085045040, -0.0962356254, -0.0859577581, 0.0938689932, -0.0983212367, 0.1123530865, -0.7621697187, 0.0031045056, 0.0277322754, -0.0464743599, 0.0559972376, 0.0016258863, -0.1127075255, -0.0833500847, 0.0931198001, 0.1147197336, -0.1680706143, -0.1257785559, -0.0414603204, 0.1468498260, 0.0848332122, 0.0593055226, 0.0139587931, -0.0246795490, -0.0300272349, -0.0112064090, 0.0263470858, 0.0932519510, -0.0462495573, 0.1047164202, -0.1185835674, -0.0113283414, -0.0893737897, 0.0635645315, 0.1079324633, 0.0161034577, -0.1488822997, -0.1088133454, -0.0377630144, -0.1481555849, -0.1340444386, 0.1319382787, -0.1211928278, 0.1348097026, -0.0633166432, -0.0105207460, -0.0911996514, -0.1133111343, -0.0832551494, -0.0771653056, 0.1642842144, -0.1351712644, -0.1546564102, -0.1288350523, -0.0778259411, -0.1222292110, -0.0456072204, 0.1088186428, 0.0913055241, -0.1382925063, 0.0213840771, 0.1333299577, 0.1542402655, -0.0940837860, 0.1597504020, 0.1259571314, 0.0145749971, 0.0228714012, 0.0061848564, -0.0565799884, 0.1172394007, -0.0662370771, 0.0475401543, 0.1322664618, 0.1069219634, -0.1518405676, 0.0801687166, -0.0226869043, -0.0381381288, 0.0057601812, -0.0151806176, 0.1238039136, -0.1427096874, 0.0987044275, -0.0728622451, 0.0445325784, -0.1106660068, 0.1936839074, -0.1897745132, 0.0201218780, -0.1546648592, -0.0030014573, -0.1770879030, -0.0426536277, 0.1341025531, -0.0187429860, -0.0764680281, -0.1392436922, -0.1259275675, -0.1508104056, 0.0855630338, 0.0844451413, 0.0278883465, -0.0398659147, -0.1828423887, 0.1218508258, 0.0066757631, 0.0880914778, 0.0286411159, 0.1763564497, 0.1110781059, 0.1280054450, -0.1525817066, 0.1352411658, 0.0791387260, 0.0031089117, -0.0982218906, 0.1452021003, -0.1316168904, 0.0441490933, 0.0851456672, 0.1722361892, 0.0543670505, -0.1434243023, 0.0360785611, -0.1695105582, 0.1329696476, 0.1467877924, -0.1436086148, -0.1008021012, -0.0251371954, -0.0634413138, 0.1340582073, 0.0668744892, -0.1708391309, -0.0616327673, -0.0345899761, -0.1402560323, 0.0114794215, 0.1017739624, 0.1506039202, -0.0533257239, -0.1464584172, 0.0137360506, -0.1416877508, 0.1161407456, -0.1303315759, 0.0984830335, 0.0753730088, 0.1003280655, 0.0824329108, -0.0382173806, -0.1569871008, 0.1353328228, -0.1134794727, 0.1877847463, -0.0693413466, -0.1660551727, 0.0038209367, 0.0792306736, -0.0153832491, -0.0493579470, -0.1308345646, -0.0722366050, -0.1517973989, 0.1454936862, 0.1337498128, 0.0579053797, 0.1129441857, 0.0047863894, 0.1446255445, 0.1457724422, -0.1543214172, 0.0761470795, 0.0845014527, -0.1507306546, 0.0493582040, 0.0848474205, 0.1007861868, -0.1787016690, -0.0098349219, -0.0463210978, 0.0636452138, -0.1265597343, 0.0944194123, 0.0318615846, 0.0060265730, 0.0245392732, 0.1033648476, -0.1698112190, 0.0515734181, -0.0705076084, 0.1165370047, -0.0054968647, -0.1833668798, 0.1376533210, -0.0565413609, -0.1026051715, -0.0652381331, 0.1146495566, 0.1342339516, 0.2798777819, 0.0381415822, -0.1615904868, -0.1837107092, -0.0373695716, 0.4091700613, 0.0647682399, 0.0651444718, 0.0474611782, 0.1995911002, -0.0935998112, -0.1266700327, -0.1268300563, 0.0123071000, 0.2269868106, -0.0002563826, 0.0185131952, 0.0210149158, -0.0917320400, 0.0980834588, -0.1092352718, 0.0817482769, -0.0375226028, 0.2511109412, 0.2233977616, 0.1233299598, 0.3495728672, 0.1002804264, -0.1282837242, -0.0950189084, -0.0536045767, -0.0210684873, 0.1547192037, 0.1894501597, -0.1504713595, 0.1791263819, 0.2093287259, 0.0740513578, 0.3437429667, -0.0597421303, -0.1474278867, -0.4885106087, -0.0413868167, 0.0159890801, -0.1352688223, -0.0671930984, -0.0182966068, -0.1976419687, 0.1011055037, 0.0949792862, 0.0836615115, 0.0585078187, 0.0913576037, 0.1149004251, 0.2532720864, 0.0660543367, 0.2618932426, 0.0237632710, -0.0867619514, 0.0675066561, 0.0437067039, -0.2938112319, 0.0324153528, -0.0682895631, 0.2170502096, 0.1771787405, -0.0928050652, 0.1076707467, -0.0552464686, 0.0973983407, -0.0543010384, 0.1161114722, -0.1170683280, -0.0464222319, -0.1528832316, -0.0830257908, -0.1457048506, 0.1832140982, -0.1154413596, 0.1195804328, 0.0153896911, 0.0826998577, -0.0435273126, 0.1559216380, 0.0716636926, 0.2112727612, -0.0873117223, 0.0397646129, 0.0674184933, -0.0783011913, 0.1943915635, -0.0899920017, -0.0788040906, 0.0098300427, 0.1720571369, 0.1384578347, -0.0828059614, 0.1575765014, -0.0043072449, 0.0909106880, 0.1224043965, 0.1542960405, 0.0875259191, -0.0798704624, 0.1183525696, -0.1077678800, -0.0039740312, 0.0633843690, 0.1377221644, -0.0912766308, 0.0916740373, 0.0129153319, -0.0596001185, -0.1362438053, 0.1203218177, 0.0937876776, -0.0397207513, -0.1313326508, 0.1523373872, 0.0742911696, -0.0536811948, 0.1519200057, -0.1765095890, 0.1256146580, -0.0818023384, 0.0713425577, -0.0695301443, -0.1653731018, 0.2750032842, -0.2046062946, 0.0362439081, -0.2358491719, -0.1269813031, 0.3755696118, -0.0620734170, 0.0183350220, -0.0833107680, -0.0866150782, -0.0061735888, -0.1790815443, 0.0871778801, -0.0460871458, 0.1336508244, 0.0901484564, 0.1024290398, -0.0507422946, 0.0962570086, -0.1772632897, -0.0126139680, 0.0887142345, 0.0167238247, 0.1773251742, -0.0810118392, -0.0941046476, 0.4345386028, 0.0606798492, -0.1381261200, -0.1042812169, 0.0789434835, -0.1932398081, -0.0881379917, 0.0869865268, -0.0193796773, 0.0075589847, 0.0830856115, -0.0450600013, 0.0387627855, -0.1244131550, 0.0568681285, -0.3847522736, -0.1902268231, 0.0315928869, -0.2023767084, 0.0950104669, -0.0493425503, -0.0348179713, -0.0680231750, -0.0902788341, -0.0925243199, -0.0310597904, -0.0982542634, -0.1706801951, 0.2972680926, 0.0728810281, -0.0752959251, 0.1565688998, -0.0244262367, -0.1286510080, 0.1907856464, -0.2518272698, 0.0830927938, 0.0169949532, -0.1629730165, -0.1093117967, -0.1064297184, -0.0676148161, 0.2134247273, -0.0371965207, -0.0974155813, 0.1840130836, 0.3484621942, -0.2398516387, 0.0689643025, 0.1330881566, -0.0636360049, -0.2537526786, 0.1256570667, -0.1263674796, -0.1702221632, -0.0569453575, 0.0731167868, 0.0424750410, -0.0787246823, -0.1398458034, 0.1029317304, -0.2085644156, -0.1574542373, 0.0439651944, -0.2708728015, 0.1838600039, 0.1034637839, -0.1634690911, -0.3093689978, -0.0539116301, 0.0703498051, -0.1663064659, -0.1170758605, -0.4054918587, 0.0927247182, -0.1496122181, 0.2131804228, 0.1465886980, 0.0635794699, -0.1330976784, 0.0274952520, -0.1402463317, -0.1355485320, 0.2547375560, -0.3274340928, -0.0898188278, -0.0670560375, 0.1261747926, 0.0607605912, 0.1107233241, 0.1144843102, 0.0112036178, 0.2475335896, -0.1649157107, -0.0786472112, -0.0083955610, 0.0159464367, -0.0456249639, -0.3621534407, -0.1038831621, 0.1219083592, -0.0667671412, 0.4588148296, 0.1354993880, -0.0843134075, 0.0594987608, 0.1369606107, 0.4281960130, -0.1680237800, 0.1159761846, 0.0502158552, 0.1919409335, -0.2234487981, -0.0732664540, 0.0762078837, 0.1271639764, 0.0437622927, -0.0687156469, 0.2680346668, -0.2620272338, 0.0755357519, -0.0288266689, 0.1044183746, 0.2243370414, 0.2261522561, 0.1153132021, 0.0450541936, -0.1192553416, 0.4472729564, 0.0747285262, 0.1551685333, 0.0835211128, 0.1396957338, -0.2024917901, 0.0762932524, 0.0469274633, -0.0665847659, 0.1287351847, 0.0238408428, 0.0174386315, 0.2459155619, 0.0093526859, 0.1016488746, -0.1181246191, 0.1840154976, 0.1796501875, -0.0659935921, -0.0780398920, 0.2076752484, 0.0665150955, 0.0069315499, -0.0035969480, 0.2959225178, 0.1107685119, 0.1259633750, 0.1030302867, 0.6049677134, -0.0397755839, 0.0925474092, 0.0140192164, 0.0615874156, -0.1377714127, 0.0455291755, -0.2379417717, -0.0942037553, 0.0396276638, 0.1181441098, -0.0653343201, -0.1779031903, 0.2060321271, 0.0359797925, 0.0717284009, -0.1447666138, 0.0230326727, 0.0140744010, -0.0298278313, -0.1629716307, 0.1138605475, -0.0987605006, 0.0127930408, 0.0301725697, 0.0012082143, 0.1365239620, -0.2961423695, 0.0130682848, 0.1050578132, 0.0896444172, 0.0669281557, 0.0010505107, 0.0797965750, 0.0180315170, -0.0306468625, 0.0308434572, 0.1812879294, -0.1167009100, -0.1721259505, -0.0262139160, -0.2058236003, -0.0130373295, 0.0327029899, -0.1298055053, 0.0177838989, 0.1457453519, 0.0261428654, 0.1828902364, 0.1408888400, -0.0980024934, -0.8529676199, -0.2253100276, -0.1129703969, 0.0109531842, -0.1163268685, 0.0562353730, 0.0503843725, -0.0218548123, 0.0202642903, 0.0194229148, -0.0598936640, 0.1132284999, 0.0535520315, 0.0910114348, 0.0316588655, 0.1661042124, -0.2144919932, 0.0298030842, 0.0271289833, -0.0517680943, -0.5176101923, 0.0392663442, -0.0385582894, 0.9580925703, -0.2437356114, -0.0264818761, -0.2684489191, 0.1168971509, 0.6472917795, -0.1782565415, 0.1031398252, 0.3246836364, 0.3432751298, -0.0728456602, 0.0777236298, 0.1424274445, 0.3281035721, 0.4433892369, -0.1132946312, 0.2051006407, -0.0765476301, 0.4968121648, -0.1504219919, -0.0770181492, -0.1869695634, -0.1014022455, 0.6231975555, -0.1599599868, 0.0825802833, 0.5542325974, 0.3688033819, 0.0589165948, -0.0063847802, 0.2169200182, 0.0278487056, -0.0112853907, 0.2813213766, -0.0019685726, 0.0960995480, 0.3692621887, 0.5752833486, 0.2050436288, 0.4322087467, -0.1336498559, -0.3318332732, -0.2266485393, 0.4174283147, 0.0097196875, 0.4849844277, 0.4974475503, -0.0306562372, 0.4304799736, -0.0345189311, 0.4253104925, -0.0635850504, 0.0417568758, 0.0430748723, 0.8682079315, 0.0006046621, 0.2478058487, -0.3866508007, 0.1252806783, -0.0176256374, 0.5502592921, -0.2537516356, 0.0156047810, -0.0291499663, -0.0353262424, 0.0857466981, 0.1738079786, -0.1276935190, -0.0220514797, 0.1260301024, 0.1042307466, -0.0674445704, 0.1184972227, 0.1849594861, -0.1422745734, 0.1186765209, 0.1181300133, -0.1420453638, -0.0300867688, 0.1642318368, -0.1475369781, -0.1148781404, -0.1004664823, -0.0394893177, 0.1319315284, -0.1197430342, 0.0364409126, -0.0144445458, 0.1566260904, -0.0076465658, -0.1383200437, -0.0897652581, 0.1404861808, -0.1120232940, -0.0732528493, -0.0348330401, -0.1246649325, 0.1891838908, -0.1288451552, 0.0809576213, -0.0278925113, 0.0777698830, -0.1535579413, -0.0594503172, -0.0392314717, -0.1315111071, -0.1382294148, 0.0215972159, 0.0572941266, -0.0906372666, -0.1006527171, 0.1127152964, 0.1162998974, -0.0641033277, -0.0321457833, -0.0756714195, 0.0237286352, -0.0354976691, 0.1173056290, -0.0542581938, 0.0020418500, -0.0006603893, 0.1574431658, 0.1480301470, -0.0065750843, 0.0738279223, -0.1330218464, -0.0050951787, -0.2131667733, 0.2046899348, -0.0100781545, -0.1263907105, -0.0265024733, 0.0502515510, 0.0774574131, -0.0584859140, -0.0239074361, -0.0105056968, 0.0902854204, -0.1620992571, -0.1548648030, -0.0960712209, 0.1214654148, -0.0955657288, 0.1247561797, -0.3607559502, 0.1002306715, 0.0033731926, 0.0386206657, 0.0811453313, -0.0043223258, 0.1211176887, -0.0517460182, 0.0857628137, -0.0602160580, 0.1336741596, -0.1545001119, -0.0527410917, 0.1323880851, -0.2584568560, -0.0149903400, -0.1163621247, -0.0958502963, 0.0560288280, 0.1401571333, -0.1865793318, 0.1267290711, 0.0135528520, -0.1835728139, -0.3697716296, -0.1905505508, -0.0536331646, 0.0095298989, 0.1479161978, 0.0173025355, 0.0388344415, 0.1150040552, -0.1903191954, 0.1341887563, -0.0244336184, -0.0274068732, -0.0128727145, 0.0153736910, 0.0047745532, -0.0770201832, -0.1293429136, 0.0350799412, -0.0084588397, -0.1399366111, -0.3652808666, 0.1446822584, -0.0595060922, 0.3498617113, -0.2698254883, -0.0621209927, -0.1387416422, 0.3022086322, 0.2101511955, -0.0609745495, 0.1214302108, 0.0599629767, 0.0151385022, -0.2430525273, -0.0012633648, -0.0352898352, 0.1360511035, -0.0465986915, -0.0018265960, 0.2286603749, 0.1598673463, -0.1134693101, -0.1184752285, -0.1922055632, -0.0331606865, 0.1370248944, 0.2087481171, 0.1191407368, -0.0373398811, 0.4082541168, -0.0471569076, -0.1765930504, 0.0822573677, 0.1956237257, 0.1654482633, -0.1381634921, 0.0727352425, -0.0628709942, 0.0635837689, 0.1144151017, 0.1823693961, 0.0109144682, 0.0206695814, -0.0065728556, -0.5188251138, -0.0903531238, 0.0556293130, -0.1110476181, 0.1339988559, 0.0073443991, 0.0864457116, 0.0034596298, 0.3151769042, -0.0716900676, -0.0798603967, -0.1358136535, -0.0211423002, 0.4522374868, 0.1396391094, 0.1942536831, -0.3478276432, 0.0516706966, 0.1520048678, 0.1056909710, -0.4523440003, 0.1290540695, 0.0666517988, 0.1597186625, 0.0333635248, -0.1691825539, -0.1011535525, 0.1715090871, -0.1097964495, -0.0800862461, 0.0808254406, 0.0313158557, -0.0759152696, 0.1662431806, 0.0564462543, -0.0910087451, 0.0409091115, 0.0307781268, 0.0585972592, -0.0280357320, -0.0875556171, -0.1383913308, 0.1406511813, -0.0642782524, 0.1290177256, 0.0364013761, -0.0894148350, 0.0014728378, 0.1478596926, 0.0144502874, -0.0602095872, -0.1709648967, -0.1451070756, 0.0939147770, 0.1154199913, -0.0663049370, -0.0535876043, -0.1631066352, -0.0478492081, -0.1454173326, -0.0569474176, -0.0235544648, -0.1606425494, 0.0826824009, 0.1696373224, -0.1654369533, 0.0122357318, -0.0976660177, 0.0206981953, 0.1313569695, 0.1557711214, 0.1766736358, 0.1397828460, 0.1040653884, 0.1092398241, 0.0232849382, -0.0187000278, -0.0085586682, 0.0005360826, -0.1162579656, -0.1197688654, 0.0679461136, 0.0822245479, 0.0323491842, 0.0511784665, 0.0999797657, 0.0927590057, 0.3837530911, -0.0651901364, -0.1657520682, 0.1017709151, 0.1590496451, 0.0769006535, 0.0665558502, -0.0099675301, 0.3997568488, 0.2764208615, -0.1428874880, 0.0968516618, 0.0027746328, 0.2154363543, 0.3481441438, 0.1070412397, 0.4957404733, -0.0220766254, 0.1497960240, 0.1034155861, 0.0072465744, 0.1825852990, 0.1778569669, 0.2470184267, 0.2163625360, 0.1237365529, 0.5656398535, 0.2692891657, -0.0644344911, 0.1105521470, 0.1952884048, -0.0183158815, -0.0719073415, 0.2518074214, -0.0608472079, 0.2221376449, 0.0584953651, 0.5232362151, 0.4136155546, 0.0210011136, -0.0877499878, -1.0672281981, -0.1357530057, 0.0745898485, 0.1267013699, 0.2641716599, 0.2562203407, 0.0336668566, 0.2604759037, 0.0076815253, 0.2349828929, 0.1172492430, 0.1034686714, -0.1461091191, 0.1335768104, -0.1351651847, 0.2030018717, -0.2246433496, -0.1496332586, 0.2376491427, 0.1913066059, -0.6408619285, 0.0093552116, -0.0083836326, 0.4929944873, 0.1007070988, -0.0150447413, 0.0215837434, 0.0700702891, 0.2955776155, 0.0351941697, -0.1026545241, 0.2015796751, 0.4909642935, -0.1723136902, -0.1237026230, -0.0932218507, 0.3311220706, 0.2718687952, -0.1900521070, 0.4003885388, -0.2688867748, -0.0411669314, -0.0726457164, -0.1050541922, 0.2477783561, -0.1879309565, 0.1406261027, 0.1337438971, -0.1059403121, 0.3793625534, 0.1919312328, -0.0428587496, -0.1589740962, 0.3029801846, -0.1188424453, -0.1704767793, 0.1120543927, 0.0676984414, 0.3728559911, 0.0839441568, 0.3994337022, 0.3462123573, 0.2811771631, -0.0436995812, -0.1066619679, 0.2216238081, 0.1663246900, -0.1662724912, 0.1128622741, 0.0871447921, -0.2002196461, 0.0192354526, -0.1575513184, 0.1799059063, 0.1280472726, 0.1120998934, -0.0129107926, 0.3516875803, 0.0287974179, 0.2480415106, -0.0806042552, 0.1406217813, 0.0035679461, 0.3475076854, 0.0529987253, -0.0076087886, -0.1550331265, -0.1591195613, 0.1086939722, 0.1234530658, -0.1788192689, -0.1158868819, 0.0611159541, 0.0468488671, 0.1599854827, 0.0231555384, -0.0998834148, -0.0489098020, -0.1768078804, -0.1136494949, 0.1583362669, -0.1153720841, -0.0965604484, -0.0674377531, 0.0342899002, -0.0085364832, -0.0992723033, -0.1702263802, 0.0932419375, 0.1148181185, 0.1364170313, 0.1664205939, 0.0768203214, -0.0679360852, -0.1423226744, 0.1209998429, -0.0589112192, 0.0459544919, -0.0303560812, -0.0231709778, 0.1013532281, 0.0897819474, -0.0459329747, -0.1480237991, -0.0922373831, -0.1716008633, -0.0971012488, -0.0514411256, 0.0801503509, -0.0654607639, -0.1459682137, 0.0549383685, -0.0595918782, -0.1400545985, 0.1415794641, 0.1552616358, 0.0868793204, 0.0557939783, 0.0052679810, 0.0707446262, 0.0943073928, -0.1533615887, -0.0867030248, -0.0805312619, 0.0550536700, -0.0694953874, -0.1573330611, -0.1579179764, 0.1003551260, -0.1368428767, 0.0036462247, -0.1286173016, 0.0039944700, 0.1075556502, -0.0239802171, -0.0526631624, 0.0834075361, 0.1280455291, -0.1320739090, 0.0075034858, 0.0675269812, -0.1023211256, 0.0639808849, -0.0588721074, -0.0980581045, 0.0854779780, -0.1838720590, 0.1421076804, -0.2915382981, 0.1345124096, -0.1389593035, -0.0820478722, -0.1046895459, -0.0613843165, -0.2014196962, 0.0432566665, -0.1842555255, -0.0489060022, 0.0046940725, -0.1591553390, -0.1281367093, 0.0310048535, -0.4726307690, -0.0664626062, 0.0872539729, -0.1717306226, -0.0982622728, -0.1191412136, -0.1852439493, -0.0830984712, 0.0552206486, 0.1498327553, -0.0229762159, -0.1949525177, 0.0645669475, 0.0207891464, -0.1322333962, -0.1216025949, 0.0862527192, 0.1296007484, -0.0852455348, -0.1219611242, 0.0206335578, -0.1708906442, -0.0734154731, 0.0008510593, -0.1206276193, 0.0252895430, -0.1376181990, -0.1909331530, -0.1674330533, -0.1448712945, 0.0517782606, -0.1632072181, -0.1244651228, 0.1663208008, 0.1232030839, 0.0500432923, -0.0770672709, -0.0435203761, 0.1540292650, 0.1119000092, -0.1534476429, -0.0214875937, -0.0396002233, -0.1393548250, 0.0350518152, 0.0209885668, -0.1218813509, -0.0510633439, 0.0549405292, 0.0661277846, 0.1282699108, 0.1654855460, 0.0076826578, -0.1136182174, -0.1537319273, 0.1474847943, 0.0020281319, 0.1549406052, 0.0883937478, 0.1718839705, 0.0198229179, 0.1578574181, -0.0419561639, -0.0871219113, -0.1256025434, -0.0702496096, -0.1501333117, -0.1626360565, 0.1718306541, 0.0651431233, 0.0674998239, 0.0090888254, -0.1614444703, 0.0302773416, 0.0175161976, -0.1040309593, 0.1153908074, 0.0361875817, -0.1103482693, -0.1220492348, 0.1636721939, -0.0363516398, -0.0784557387, -0.1680082083, -0.1272652298, 0.1470870525, 0.0695113316, -0.0379445627, -0.0573330112, 0.1423271000, 0.1201738790, -0.1808312982, -0.1383355260, 0.0655325279, 0.0459544361, -0.1525960267, 0.0820858777, 0.1601377577, -0.0496216901, -0.1220199689, -0.0405582748, -0.0006369633, 0.1651531905, -0.1224727929, -0.1735937893, -0.0563320778, -0.0152077433, -0.1379702538, -0.0267190896, 0.1679099202, -0.0154392142, 0.1302432418, 0.1317718625, -0.1535423100, 0.0036033718, -0.1462193727, 0.0331007652, -0.1373275667, 0.0353411920, 0.0977372378, -0.0451214314, -0.0146996574, -0.0488070510, 0.0034792505, -0.1454434842, -0.1009273678, -0.0170410089, 0.0994478166, 0.0874495059, -0.0987059027, -0.1484312415, 0.0162858907, 0.0595651083, 0.1094386801, 0.1418109089, -0.0796464235, 0.0574859418, -0.1624990255, -0.0717343241, -0.0394803584, -0.1107388362, -0.0376244932, -0.1626341194, -0.0776126012, -0.1694699526, -0.1126898602, -0.0753109306, -0.1406408399, 0.1279777437, 0.0797978938, -0.1380963624, 0.1205470487, -0.0215199012, -0.1545663774, 0.1612019092, 0.1519086510, 0.1374054551, -0.0471266359, 0.1521286219, 0.0813428536, 0.0774345994, 0.2180630416, 0.1282106936, 0.0391720422, -0.1381734610, -0.1877506673, 0.2286549807, -0.1716028452, -0.1334801614, 0.5918881893, 0.4260157645, 0.2057789266, 0.1482031792, -0.0164956991, 0.2743621767, 0.5168201923, -0.0948978886, 0.4911743402, 0.2732034326, 0.3215357959, 0.0496213771, -0.1291978955, -0.0539680459, -0.0395483226, 0.3746755719, 0.2593910694, -0.0501002967, 0.1511027664, 0.2229044288, -0.0767480209, -0.0763239115, 0.2709791362, 0.0255801249, -0.1315652430, -0.0221164804, 0.0289927255, 0.0781286806, 0.1195130944, 0.2967120707, 0.3600818813, 0.3619132638, -0.0340168476, 0.0812657177, 0.1772718728, 0.1210705191, -0.0124834282, 0.5086364150, 0.0954854190, 0.0077928784, 0.1732588708, -0.2867213488, 0.4013839960, -0.0186180510, 0.1100151390, 0.0011382165, 0.5322034955, 0.0636003241, 0.1310426742, 0.2601273954, 0.0051321839, -0.2968251109, 0.1461841166, 0.2442809939, 0.0258975755, -0.0727889016, -0.0234825257, -0.0671918690, -0.0110426955, -0.0224969052, 0.0916468129, -0.0058018677, 0.0724087581, -0.0800228566, -0.1249974817, -0.0732010305, 0.1514166147, 0.1090700328, -0.0478751622, -0.0527215600, 0.0705623701, 0.1339146942, -0.1279948354, 0.0282104369, 0.0649851784, 0.1574828923, -0.1288200915, -0.0265289918, 0.1663773209, -0.1329243779, 0.0875283927, 0.0082935616, -0.0104721831, 0.1589508653, -0.0094378106, -0.0386030711, -0.1487757117, -0.1167077869, 0.1116891429, 0.0774192959, 0.0440367274, -0.0592943728, 0.0695382431, 0.0129999379, -0.1406392604, 0.1674546599, -0.1637449712, -0.0126525722, -0.0332275666, 0.1012766659, 0.1316766143, -0.0501701608, 0.1007905230, 0.0609299205, -0.1487865895, 0.1153233722, -0.0070845219, 0.0323460624, -0.0413833447, 0.0817847624, -0.0865699202, -0.1110034138, 0.1003477350, 0.1376684010, -0.0718824342, -0.1199599281, -0.0440688282, -0.0374071859, -0.1003950313, 0.0210127886, 0.1785753965, 0.1733550578, -0.1125815585, -0.2408491522, 0.0207903273, 0.0717133880, 0.0709220544, 0.0790737197, 0.0430063009, 0.1466173232, -0.0276568104, 0.0946671069, 0.0957864225, 0.1768962592, -0.0749138892, -0.0254962984, -0.1349743009, -0.3267749250, -0.0889436752, 0.0486164205, -0.0035552066, 0.0564003587, -0.2191113234, -0.0937109962, -0.0296298210, 0.1327305436, -0.0901972428, 0.0349313915, -0.1061330959, -0.1674323529, -0.0612638853, -0.0699840710, -0.1189238429, 0.1148259267, -0.1015005186, 0.1397486627, 0.0824355334, 0.1650376618, 0.0390296280, 0.1304083467, 0.0167423598, -0.2084957808, -0.2702723145, 0.1683088541, -0.1464056671, -0.1044745445, 0.0389121808, -0.1446274668, -0.0747713596, -0.0919472501, -0.1497920305, -0.0210076999, -0.0126338387, -0.0024084940, -0.0941284820, 0.0813779756, 0.0739246532, -0.0499000549, -0.1651124656, 0.0907672346, -0.0549328849, 0.0881409869, 0.0350748785, 0.1148873121, -0.1031153649, 0.0953312069, 0.0890607163, 0.0002735414, -0.1632984579, -0.0332426578, 0.1044366434, 0.0625565648, 0.0138263255, 0.0579580031, -0.0221092701, -0.1633643806, -0.0032830029, -0.1247137636, 0.1367895156, -0.0432313606, -0.0105336308, -0.0832050219, 0.0515106320, -0.1043108031, -0.0583843440, 0.0769527704, -0.1059288979, 0.1758460402, -0.0043973629, 0.0172623321, -0.0171982776, 0.1637350172, 0.1007394791, -0.0223747697, 0.0544284247, 0.0649749786, -0.0198540334, 0.0854831338, 0.1532340199, -0.0147555675, -0.1200991943, 0.0707123727, -0.1060897112, 0.0055796681, -0.0388817191, 0.3066547811, -0.0279949158, -0.1235095263, -0.1529265195, 0.0736668557, 0.1676508337, -0.0317445435, 0.0479188226, 0.0046944739, 0.0667863712, 0.0513439514, 0.1042318270, 0.1148898900, 0.1952197850, -0.2002954632, 0.1656248569, 0.0144521473, 0.0769794211, -0.1291105151, 0.1009587348, 0.1254019439, -0.1010257006, -0.0025980803, -0.1555748582, -0.5618301630, -0.1187867671, 0.2001851797, 0.2702297866, 0.3888516128, -0.0501333028, -0.1279583573, 0.0002202590, 0.0059911618, 0.2642129660, -0.0001335466, 0.0172800887, -0.0551789403, 0.2322497070, -0.1961461604, -0.2013124675, 0.1987162083, 0.0406164713, -0.0832561553, -0.1037813723, -0.5053040385, 0.2678843737, 0.0217196923, -0.4123034477, -0.1552712470, -0.0019197513, 0.1485909373, 0.1256228238, -0.0785277188, -0.0305209775, 0.2885958850, -0.1373292208, 0.0139755523, -0.1323707551, -0.1691016704, -0.0008769904, -0.1019583568, -0.0517757498, 0.1380121559, 0.0401713848, -0.6954647303, -0.4830667377, 0.1662433892, -0.0375954695, 0.1870896220, -0.1080397367, -0.0128327366, 0.2071756572, 0.2387873232, -0.0543206632, -0.0500496551, -0.1410530806, 0.0263943877, 0.5788850188, 0.1455642134, 0.0498008654, -0.4425733685, -0.1465186179, 0.2324071825, -0.0746164098, -0.4053839743, 0.1319269240, 0.0946726650, 0.0729198083, -0.3236674368, -0.0054999036, -0.0889939815, 0.0041009090, 0.1322225183, -0.1518465877, 0.0555285402, -0.0627189428, 0.0534900054, -0.1408346444, -0.1678196043, 0.1420365572, 0.0107780881, -0.0004664697, 0.1278497875, -0.0008158511, -0.3667897284, 0.0618857592, 0.0124599067, -0.1220462918, -0.0178804062, 0.0243232716, -0.2304242849, -0.1379869580, -0.0725061148, 0.0227939337, 0.2071916312, 0.0598572083, -0.1465843916, 0.0681525692, 0.2196787149, 0.1462585181, 0.0179754905, -0.0109939994, -0.1622508764, -0.0554156974, -0.0901282653, 0.1520566195, 0.1752813458, -0.0028181805, -0.6173406839, -0.7034471631, -0.1205880269, -0.1065514460, -0.0778146163, 0.1558353454, -0.0570909083, 0.0145748165, -0.2225377411, -0.0643529519, 0.0961051583, 0.0156742781, 0.1447966099, -0.0948179364, -0.0761298314, -0.0183657426, -0.1535865664, 0.1494883448, -0.1840151697, -0.0341306888, -0.5709896088, 0.0916167572, 0.0884142965, 0.2418003380, -0.1964739114, 0.0302150734, -0.0620755926, -0.1433076113, 0.2496258020, -0.0456174351, -0.1187992617, 0.3634177744, 0.1846075505, -0.1844328791, -0.1506795138, 0.1588985473, 0.0150386728, 0.3044530153, 0.1215882897, 0.1843346506, 0.0043421919, 0.0934785903, -0.0141838761, 0.0425675437, 0.0190077834, -0.0082592396, 0.3219210505, 0.0178637132, 0.1579997987, 0.3131027818, -0.1142180935, 0.0282022916, -0.1794777811, 0.1910390109, -0.0940573290, 0.0963306949, 0.0529357232, -0.0365789644, 0.1245105863, 0.1669905186, 0.2015942186, 0.0335517004, 0.0710862130, 0.1649296135, -0.1074882522, 0.0963144973, 0.1390395910, 0.1301376671, 0.2378417403, 0.1937754750, 0.0087654162, 0.1538090557, 0.0195356477, 0.2220074981, 0.1058504283, 0.0186347496, -0.1754106581, 0.4109071195, 0.0658092424, 0.0263215974, 0.1577642262, 0.1661714315, -0.1620312780, -0.0023170135, 0.1722949743, -0.0669560283, 0.0461059660, 0.0487907082, -0.1220401078, -0.0140463589, 0.0306623131, 0.0078602908, 0.0826938823, 0.0604402386, -0.1102628857, 0.1335734129, 0.1344055682, 0.0429216102, -0.0698646456, 0.1270044893, 0.1018459573, -0.0643526241, -0.0820678920, -0.0291849878, 0.1100031212, -0.0949254856, 0.0824923962, 0.0860155225, -0.1752657890, -0.1465370208, 0.1555041224, 0.1083348244, -0.0334890857, -0.1137492508, 0.1433773041, -0.0550079793, 0.0481784716, 0.1554524601, -0.1639892459, -0.1157272384, -0.1299107373, 0.0075990949, -0.0456769131, -0.0735132173, -0.1513130218, 0.0538214557, 0.1526159197, -0.0168700553, -0.1319995970, 0.0590478331, -0.0864194110, -0.0091585414, 0.1165014654, -0.1185620055, -0.0273659024, -0.1592234075, -0.1685603261, 0.1488246173, 0.0474544019, 0.1675382704, 0.1098393872, -0.0532861575, -0.0407357253, 0.0834358484, -0.0601091683, -0.1037567481, 0.1483675390, -0.1316131204, 0.0655359328, -0.0391232260, 0.0111036031, -0.0320667624, 0.1655389965, 0.1449443400, 0.0457390398, 0.1155987680, 0.1312980652, 0.1411149502, -0.0109115215, -0.0787605271, -0.0201015975, -0.1538134813, 0.1109161451, 0.0616043508, 0.1392096579, 0.1207248345, 0.0163072664, 0.1534830928, -0.0049347184, -0.1539205015, 0.1458301842, -0.0172195639, 0.0565103032, -0.0135453111, -0.1677444577, -0.1400894970, 0.0193395838, 0.1123061329, 0.1380089819, -0.0440332890, 0.1205536723, 0.1613369137, 0.0860493481, -0.1591960192, 0.1626356244, 0.0239890441, -0.0138819227, -0.0971321687, 0.0989565179, -0.0623966940, -0.0712020770, 0.0516606569, 0.0864264518, -0.0270751286, -0.1599858254, -0.1236636639, -0.1072649434, -0.0355517417, -0.0945662633, -0.0351015553, 0.0252543390, 0.0390441902, 0.0891297683, 0.0013013309, -0.1301835179, -0.0971703604, 0.1260888278, -0.1205521673, -0.0072487169, 0.0363119245, 0.1321785897, -0.0212912150, 0.1568053067, 0.0947725996, -0.0010348638, -0.0146058779, -0.0283731800, -0.1325207651, -0.0268668421, -0.1241047606, -0.0790572390, 0.1060176492, -0.0395790115, -0.0545489974, -0.1400866210, -0.0921851397, -0.0839446709, -0.0681405291, 0.0869405344, -0.1442992687, 0.0803381577, 0.0707830116, -0.0616730154, -0.0648060963, -0.1094204485, -0.0388018712, 0.0297376048, -0.0798207894, -0.0212262105, -0.0546578132, 0.1039823741, -0.1818837523, 0.1497140229, -0.1003636122, -0.0217382573, 0.1282503605, -0.1409997344, 0.0912175402, 0.0342914015, -0.0887934268, 0.1308112144, -0.1685111970, -0.0110430988, 0.0908638909, 0.0391547121, -0.0119666383, -0.1135959253, -0.0870786160, 0.1118109897, -0.0670092776, -0.0693921149, 0.1434056163, 0.0594674200, 0.1648767442, 0.0797763988, -0.2032410353, -0.0171144772, -0.1057917774, 0.0799360052, -0.1467245519, 0.1304568201, -0.0775616243, 0.0145080015, 0.0216506496, -0.1041811630, -0.0628689900, 0.1356932521, -0.0896732584, -0.1145068407, 0.1302734315, -0.0624902137, -0.0204935428, 0.0291955937, 0.0780311152, -0.1328551173, 0.1054829732, -0.0039423080, 0.0297680944, -0.1344478428, 0.0004321835, -0.0227431767, -0.0413713716, 0.1796525866, -0.0830812529, -0.0374882817, 0.1432344168, 0.1198353395, -0.1102285087, 0.0453317799, -0.1011711881, -0.1853571981, 0.0300442334, -0.1415013671, 0.0596219487, 0.1570649743, 0.0399717055, -0.0331363417, -0.1256478727, -0.1039491445, -0.0922614336, 0.1264753640, 0.0953513011, -0.0230773911, -0.1112135053, -0.0456300341, -0.1173725277, -0.0836859718, -0.1059094071, -0.1208186373, -0.1659897119, -0.1767911464, -0.0497975871, 0.0171589945, -0.1196718663, -0.1168583259, -0.0618000515, -0.0810970664, 0.1596130133, -0.1601669937, 0.1554846764, -0.1012638062, 0.1360121965, 0.1180632040, 0.1315659881, 0.0022845797, -0.0243869107, 0.1512448788, 0.0394393653, -0.0756814703, -0.1042927876, 0.0859147683, -0.1278891414, -0.1163946688, -0.0533062257, 0.1668249369, 0.0941878185, -0.1906729937, -0.0330098942, -0.0032474061, 0.1156964526, 0.1677916646, 0.0403441824, -0.0987941250, 0.1549156308, 0.0427293479, 0.0247372575, -0.0725107118, -0.1159814969, -0.0192772821, -0.1064333767, 0.0135547323, -0.2892804444, 0.0618104711, 0.1215635985, 0.0644723028, 0.0202643964, -0.0696101040, -0.0378289521, 0.0081413751, -0.0606066585, -0.0053480295, 0.1077763513, -0.0633591935, 0.1650677472, 0.1655508131, -0.0964166299, 0.0603598095, 0.1317471117, -0.1067758054, 0.1326401681, -0.0356942527, 0.1408571750, -0.1454291642, 0.1065107360, 0.0965807140, -0.0263334755, -0.0968971774, -0.1415200979, -0.0882256255, -0.0993679538, 0.0240940172, 0.0513804853, 0.0988591239, -0.1084118932, 0.0395309590, 0.0446001291, -0.0981678367, -0.3181619942, -0.0733759329, 0.1884937882, -0.0512401611, 0.0586540774, 0.1283040792, -0.0004446965, -0.1480615735, 0.1382235438, 0.1046898067, -0.1144072041, -0.0496820398, 0.0560541116, -0.1000998169, -0.0928157046, 0.1227930561, 0.1221385747, -0.0192880202, 0.0018593211, -0.0886335596, 0.1182668507, -0.1692631841, 0.0497618727, -0.0103311474, 0.1483860463, -0.1157034636, 0.1225236580, 0.1535182446, -0.0533877425, -0.0976677760, 0.0000883830, -0.1215144917, -0.0674245954, -0.1092135012, 0.0984315649, -0.1503144354, -0.0699173957, 0.0546013787, 0.1084852219, 0.1366204470, -0.0891328305, 0.0169419553, -0.1037469879, -0.1322745830, -0.1371907443, 0.0185674634, -0.0613072962, -0.0426340401, -0.1164486408, 0.0217980798, -0.1279938668, 0.0364648364, -0.0636021569, 0.1424250752, -0.0847545937, -0.0127249230, 0.0024575288, -0.1685147434, 0.0747812241, -0.0340347737, 0.1875822842, -0.1206192672, 0.1541636884, -0.0346779898, -0.1119968891, 0.1134404168, 0.0741157681, -0.0913356021, 0.0691234544, 0.0686689392, 0.1248237118, 0.1034484655, 0.0891794488, 0.0406064987, 0.4077261984, 0.0562692620, -0.1281687766, -0.0046067024, 0.0702575967, 0.1704473048, 0.0209376942, -0.0123447534, 0.2248938084, 0.0255314596, 0.0955243260, -0.0404584743, -0.0831811801, -0.0067883488, 0.3927568793, 0.0065492857, 0.0621512458, -0.0070722029, 0.2530770600, 0.0977982655, -0.0916198045, 0.2877443135, 0.0130034173, 0.2518008649, 0.1906626821, -0.0046357359, 0.3106041849, 0.0767036751, -0.0110052777, -0.0787816197, 0.2559775114, 0.2841448784, -0.0767343268, 0.2443416268, -0.0236249063, 0.2494729459, 0.2211481482, 0.3209416866, 0.3535562456, 0.1603765637, 0.1220864579, 0.0487652980, 0.1589468718, -0.0462203808, 0.0966944695, 0.0620495565, 0.0447439402, -0.1753260344, 0.0514754690, 0.0665029138, 0.1604231298, 0.0785866752, 0.1170507371, -0.1612796336, 0.2294641137, 0.0572939515, 0.2144442797, 0.0331197716, 0.0456175283, -0.0986323506, 0.0136848781, -0.2522838116, -0.1103144586, -0.0225383099, -0.0406143554, 0.1438107938, -0.0417948663, 0.1284839809, -0.0237639714, -0.0966565087, -0.0235410295, 0.1512523144, 0.0324869752, 0.1114149839, -0.0302689001, 0.0864750892, 0.0316239819, -0.1192175075, -0.0852115974, -0.1728219688, 0.0606918111, -0.1201114655, -0.1302804798, 0.1575335711, 0.0002026745, -0.1049393192, -0.0815347433, -0.1277746558, -0.1753343195, 0.1222653911, 0.1724002361, 0.1383831799, 0.0811340287, -0.1653657556, -0.0800062343, 0.0269662719, -0.1061947048, -0.0593608730, -0.0632477552, 0.0239400491, -0.1121641994, 0.0437758565, -0.1108707413, 0.0913479775, 0.0712378621, 0.1317869276, 0.1140301451, -0.0324043110, -0.1636954993, 0.0068986174, 0.0412344001, 0.1022188067, -0.0484360456, -0.1062919423, 0.1133157015, -0.1185676306, 0.0416410081, 0.1200846136, 0.0563578978, -0.0000657612, -0.1626341641, -0.1569171548, 0.0443247445, 0.0530392900, 0.0382289998, 0.1618999541, -0.1443228573, -0.0375741795, -0.0249726232, 0.0081739472, -0.1200105846, -0.0488209575, -0.1563441902, -0.1756566018, 0.0699793547, -0.0619125403, 0.0843348056, -0.0826523751, -0.1924677193, -0.1176900342, -0.1159015819, -0.1553280652, 0.1121172532, -0.1303628832, -0.1156462133, -0.1640591323, -0.0324274413, -0.1009897515, -0.0930396467, 0.1255483031, 0.0744392052, 0.0461591929, 0.1182361916, -0.0681709945, -0.1328980476, 0.1343667954, -0.0135864075, -0.1167124882, 0.0229024589, -0.0198461879, -0.1550433636, 0.0357301161, 0.0918305814, -0.0484062210, 0.0800616592, -0.1557388008, -0.2789119184, 0.1306412071, 0.0525569730, 0.2353910208, -0.1377759874, -0.0026402513, 0.0050567538, -0.1449549347, 0.0760072768, -0.2038420737, -0.0911933705, 0.0662542433, 0.0996865779, -0.0443814360, 0.0228033308, -0.1281345338, -0.2591265738, 0.0049893362, 0.1111241803, 0.0055488287, -0.1785308719, 0.0243262593, 0.1365354359, 0.0932562500, -0.1339525431, 0.0553167649, 0.1409619153, -0.0031580622, 0.0714055672, 0.1718855202, -0.0442438759, -0.0448416881, 0.1205477715, -0.1375872791, 0.0790996701, 0.1027380452, 0.1389796883, 0.1366706342, 0.1437489241, 0.0327697359, -0.1938267946, -0.0749583840, 0.1318612248, 0.0309104417, -0.1192815378, -0.0814018920, -0.1566523015, 0.1859111935, -0.0162488669, 0.0454620831, 0.1379188746, 0.1053195298, 0.1966647208, 0.1326715201, -0.0773974434, 0.0825461447, 0.1664940566, 0.0562921539, -0.0876033455, -0.0535310097, -0.1846005470, 0.0314842500, -0.0376822352, 0.0301239546, 0.0153115783, 0.0080574648, -0.0760230124, -0.2844375670, -0.0863790289, 0.1885583550, -0.0613398030, 0.0511300899, 0.1336244792, -0.0832142755, -0.1259744018, -0.0177653693, -0.1314835101, 0.0951001644, 0.0653811991, 0.0285342950, -0.1452591121, 0.0695850775, 0.0842012912, 0.0721718371, -0.0394895487, -0.1267721355, 0.1016286984, -0.1870153546, 0.0120188259, -0.1811551899, 0.2213011682, -0.2540003359, -0.1751250774, 0.0392711870, 0.2081982940, 0.1587966979, 0.0682255775, 0.0081290333, 0.0021823910, -0.0340071954, 0.2247459441, -0.1311954111, -0.1647288501, -0.0515253209, 0.2200140804, 0.1188942716, 0.2216368318, 0.1364532262, 0.0247752313, 0.0218599867, 0.0281952545, -0.0541650057, 0.0996201709, -0.0357513763, -0.3003149331, -0.1217840239, 0.4517625570, 0.2084802985, 0.0284820907, -0.1078622714, 0.0002805425, 0.0328309312, -0.1828608066, -0.0535230450, -0.1611270010, 0.1526048332, 0.1757437140, 0.1316651404, 0.1974297762, 0.1688192040, -0.0771729499, -0.5992353559, -0.3644827306, 0.1363794804, -0.0089064026, -0.0297308844, 0.1848517954, -0.1319023967, -0.0711855516, 0.3419789374, 0.1505199224, -0.0362761952, -0.1121030524, 0.0564566925, 0.6578444242, -0.1972498745, -0.0669114962, -0.2167818546, -0.1119727641, 0.2247944623, 0.1572183967, -0.4593871534, -0.0744767115, -0.0841613859, -0.0925624743, -0.0272704680, -0.1691234708, -0.1769948304, 0.0641618147, 0.0915299505, -0.0470665656, 0.1242907867, 0.0134558734, -0.1192008406, 0.0519290939, 0.1039873138, -0.0542547591, -0.0986307636, -0.0088031031, 0.0189752076, -0.0612201802, 0.1025669724, -0.1192965433, -0.1550047547, 0.1174974293, -0.0254409313, -0.1102977023, -0.1499690711, -0.1527895033, -0.0488681570, -0.1539606750, -0.1396439672, -0.1093260199, 0.1215204969, 0.0849725381, 0.0865748674, -0.0309397336, 0.0082406383, -0.0047276192, -0.0511672758, -0.1103703603, 0.0048308740, 0.0756325647, 0.0387739651, 0.1330562532, -0.0824299455, -0.1081869975, 0.1300580204, -0.1601506323, 0.1357842386, 0.1929526478, -0.1920735091, 0.1966874748, 0.1311284453, -0.1307406574, -0.0625487342, 0.0185158141, 0.0719214082, -0.0271692555, -0.0992337391, -0.0366308205, -0.1526691318, -0.1481641382, -0.0663648844, 0.1039114371, -0.1533758342, -0.1341439635, 0.1252882779, 0.4177049100, -0.1843609810, -0.0403767154, -0.1731233746, -0.2507807612, 0.7966375947, 0.0808563381, 0.0898094028, 0.0660837516, 0.0656644404, -0.2186737210, 0.1483578086, -0.0616614297, 0.2154571116, 0.0034664888, 0.0453514308, -0.1767009646, -0.1583320946, -0.0989010260, -0.0885197371, -0.1615964472, -0.2508888543, -0.0202587675, 0.0754500628, -0.0263815559, -0.0672061592, 0.2416127920, -0.0134800160, 0.0961910710, -0.0991418958, 0.1027995273, -0.2335870117, 0.0175746083, 0.1286087483, 0.0552511737, 0.1585766375, 0.1783901304, 0.2251729667, 0.1827898324, -0.0159226842, 0.1612610221, -0.3209702671, -0.2526180446, 0.1096654981, 0.0361106433, 0.0291889403, -0.1414924413, 0.0199485160, -0.0552988276, -0.2270060778, 0.1203826740, -0.0604494400, -0.0862315297, 0.0675378889, 0.9339692593, -0.0699547976, -0.0506566688, 0.0012698249, -0.1205338985, -0.0884854421, -0.0946409553, -0.2973301113, 0.1459952444, -0.1556419581, -0.1278543472, -0.2700623274, 0.0859974921, -0.0350022577, 0.0470861681, 0.0424614958, -0.2171256393, 0.0536679216, 0.0162502676, 0.0581219457, -0.2255152464, -0.0994484350, -0.1737427264, 0.0212016068, 0.0239765886, -0.0562228784, 0.0111032268, -0.2661746144, -0.0803710520, -0.2101970017, 0.1293767691, 0.1614063084, 0.0538235493, -0.0650223196, -0.1300472021, -0.0973799899, -0.0532156155, -0.0293970816, 0.0268384423, -0.1194832847, 0.0525031053, 0.0491411574, -0.0024709662, 0.0242879428, -0.1506018490, -0.1768539697, -0.1621104330, -0.1486798525, 0.1285340935, -0.1585087329, -0.1677072644, -1.0387986898, -0.3911788166, -0.0114836339, 0.0494809151, -0.1545545608, 0.0358314216, -0.0354005992, 0.1226675287, -0.0556069165, 0.0668044016, -0.0783256888, -0.1881527156, -0.0774485841, -0.0195432510, -0.1828313470, -0.0497750565, -0.0404048562, -0.0641233101, 0.2000465542, 0.0516261011, -0.8338786364, 0.0331041738, -0.1667221040, -0.2534011006, -0.0923064724, 0.1364768445, 0.0594749115, 0.1190941334, -0.1898062676, 0.0615741238, 0.0398453772, 0.0611736700, 0.1479568183, 0.1423150897, 0.0385239497, 0.0498308316, 0.0694299042, -0.1629082263, 0.1571451873, 0.0971901864, -0.0337273963, 0.0955949202, 0.1036868915, 0.0663242415, -0.0373737626, 0.0762842372, 0.1669603884, -0.0901067555, -0.1409937292, -0.1643758863, -0.0278226715, -0.1348534226, 0.0940970853, -0.0228027366, 0.0032163935, 0.1641675234, 0.1235034466, 0.1172167659, -0.0152370064, 0.1729114801, 0.1102256402, -0.1630410701, 0.0584804788, -0.1096735150, 0.2293588966, 0.0508883782, -0.0546176173, 0.0874355435, -0.1528889537, 0.1223058924, -0.0159465317, 0.1951540709, 0.1971223503, 0.0829496458, -0.0082431519, 0.1202184856, 0.0859643593, 0.1750614941, 0.1055513918, 0.1377494335, -0.1458793133, 0.0543811470, -0.0723881423, -0.1525768042, 0.1284259558, -0.0316995904, -0.1669028848, -0.3044489622, -0.0105366595, -0.0806818083, -0.0030614471, 0.0700638741, -0.0775043592, -0.0849485695, -0.0232555326, -0.0872005224, -0.0548826866, 0.2323131114, -0.1222269833, 0.1377999485, -0.1613671482, -0.1319722980, -0.1068905517, -0.0351084918, -0.0241419971, 0.1630994976, 0.0719870329, -0.1373905689, -0.0399711728, 0.2166801989, -0.1117371246, -0.0862348899, 0.1110428572, -0.5119341016, 0.1746898890, 0.1273814440, -0.1396489739, 0.0649859309, 0.1224954352, -0.0184613299, 0.0035188685, -0.0226077754, -0.2190561593, -0.0221408997, -0.0341734551, 0.0451338962, -0.0113293901, 0.0136516206, 0.1061096936, -0.1468519121, 0.1520339251, -0.1020195186, 0.0309558250, -0.1190369055, -0.1155589744, 0.0232845806, 0.0237072837, 0.1173769608, -0.0821848214, 0.0089248018, -0.0778972954, -0.0948465392, 0.0570112504, -0.1635409594, 0.0903883055, 0.0431241393, 0.0573534258, 0.0483944975, 0.3041998446, -0.1650796682, 0.0492975935, 0.3179998398, 0.2143180370, 0.0553904399, -0.0331528746, 0.2450545728, 0.5147268772, -0.0879397765, 0.0090750391, 0.1678750217, 0.1672493666, -0.0476783626, 0.0103471633, -0.1489739269, -0.0979211256, -0.0104796588, -0.1404199749, 0.0881403685, -0.0178751424, -0.0355552360, 0.0043407064, -0.0848695710, 0.2711246014, 0.2313836962, -0.0267867148, 0.1828454137, -0.0326837264, 0.4843221605, -0.0407139733, -0.0709144622, 0.0668736175, 0.1983080655, 0.1379515827, 0.0125907287, 0.1609893739, 0.1304664314, 0.1121559963, -0.0858389512, 0.1490504146, 0.2579911351, -0.1959872842, -0.1671611667, 0.0602635071, 0.0703694746, 0.1958249211, -0.0229844041, 0.1459952593, -0.1181827337, -0.1034716889, 0.1719669551, -0.0095829070, -0.0900655612, 0.0940993279, 0.0351310633, -0.1378702521, 0.3608576059, -0.0168935526, 0.1787298769, 0.1032881215, -0.1395836920, -0.0340430364, 0.2080866992, -0.0422601774, 0.0018895598, 0.0017809446, -0.0173059814, -0.0200522467, 0.0146961678, 0.1168159917, -0.0590081625, 0.1272628307, 0.0491103977, -0.1610561907, -0.1399942338, 0.1392842531, -0.1461818218, -0.0159976240, 0.0414336734, -0.0695237815, 0.1237231195, -0.0158192795, 0.0947082713, -0.0722336024, -0.1450794190, -0.0577563792, -0.1718787253, -0.1506519020, -0.1594253033, -0.1106287688, 0.0787225813, 0.0122743258, 0.0281247646, -0.1234206408, -0.1054234654, 0.1243002489, 0.0002253131, -0.1477833539, -0.1157982722, 0.1976139843, -0.1712379456, 0.1786715984, -0.0825353861, -0.1568297744, -0.1008517593, -0.1009165645, -0.0555543341, 0.0400010459, 0.1215252429, -0.0662413612, 0.0027787597, -0.0675137267, 0.1033486873, -0.1238141581, -0.0585164689, -0.0486266166, 0.0866900980, -0.1026849225, -0.0986325294, 0.1553836465, -0.1025550589, -0.0176050253, -0.1318468004, 0.0018396284, -0.1700401157, 0.1440625489, 0.0903260931, 0.1507044137, 0.0013178948, 0.0192875154, -0.0823438093, 0.0270727165, 0.1138057411, -0.1778787822, -0.0448692739, 0.1213546544, 0.0410751179, 0.0057638027, -0.0174152479, -0.0204946250, 0.0472798571, -0.1069839522, -0.0398629121, 0.0294231586, -0.0057473369, 0.0619131364, -0.1133304089, -0.4378021061, -0.1265560538, -0.0205830485, 0.1033743918, 0.0022852211, -0.1641090959, -0.1044587716, -0.0927737355, -0.1120891199, 0.1772531718, 0.1758663654, 0.0419482850, 0.1355912685, 0.1324258149, -0.0286333263, -0.1812550575, 0.0735022947, 0.0032000670, 0.0713394582, 0.1762038320, 0.0234541465, -0.1149500832, 0.1938770860, -0.0535637774, -0.1949944198, 0.0493196137, 0.1425154358, 0.0811466575, 0.0535423532, 0.1000019312, 0.1179462299, 0.0996402279, -0.1266538948, 0.1557347476, 0.0608257242, 0.0080807842, -0.2007436752, -0.0393735580, -0.1645444930, -0.0691365525, -0.0453549549, -0.1185088977, -0.0217142999, -0.1164107695, -0.1242254898, 0.0792586058, -0.0969358906, -0.0953316465, 0.0769075975, 0.0867414549, -0.0070594675, 0.0676249191, -0.1376480460, -0.0370121337, 0.0743470415, 0.0573652685, -0.0215153135, 0.0933768675, 0.0121322423, -0.0255368967, -0.1066006795, 0.0866799131, 0.0649041235, 0.1372763962, -0.0808812454, -0.1599327177, -0.0155310659, 0.1387676895, 0.0698913634, -0.3556976020, -0.1591945291, -0.0487224087, 0.0814936236, 0.1156536564, -0.1153133661, -0.1760514677, -0.0591422729, 0.0364559032, -0.1282366365, 0.0145207932, -0.0618893579, -0.0377098992, -0.1996899396, 0.0913641825, -0.1714102924, -0.0156286173, -0.0952604041, 0.0081133256, -0.1870898008, 0.1707370132, 0.0721307248, -0.0046676062, -0.1389672458, 0.0010598318, -0.1739263833, -0.1231292933, -0.1339654028, 0.1148497537, -0.1595277041, 0.1306867003, -0.0602418482, -0.3100022078, -0.1024675220, -0.0744303018, -0.1237227619, -0.1769409776, -0.2396652102, 0.0734713674, -0.1893095970, -0.0241574701, -0.0931015015, -0.1167634651, 0.0265340433, -0.1231142581, 0.0039115665, -0.1732041985, -0.0099092498, -0.0732698813, 0.0847842842, -0.1016444191, -0.0246136375, 0.0181517173, -0.1830779612, -0.1846627593, 0.0683124214, 0.0856972858, 0.0712569654, -0.0398387276, -0.1689279079, -0.0859515965, 0.0958268419, 0.1557355672, -0.1884357333, 0.1344237924, -0.0385594778, 0.0430061668, 0.0948835090, -0.0014692427, 0.1755909622, 0.1117696539, -0.0108321635, -0.0641862676, -0.0481821150, 0.0739032254, 0.0291703902, 0.0783172995, -0.0166604426, -0.1237420142, -0.1114098281, -0.0477650352, 0.0123546170, 0.1370666176, 0.1130387112, -0.1106966436, -0.1420484930, 0.0338731594, -0.1307056993, 0.1057304591, -0.1891519278, 0.1050156355, -0.0552525334, 0.1513375342, -0.0620134436, 0.1494396776, -0.0939251333, 0.1683398634, -0.1953150183, 0.1799293309, -0.1892203838, -0.1057105511, -0.0851503611, -0.0782138482, -0.1778340489, -0.1812526584, 0.0190430861, 0.5211022496, -0.4827201664, -0.0221417844, 0.0888606980, 0.2146620750, 0.3080816567, -0.1907245517, 0.0885546878, 0.3253503144, 0.2973670959, -0.0702588409, -0.1858506650, 0.0702688843, 0.0922360197, 0.1825257987, 0.0372880846, -0.0007266407, 0.1267145425, 0.2102404833, 0.0514657944, 0.0957926065, -0.0489314273, 0.2440764159, 0.4271416664, -0.4016390145, -0.0133331260, 0.2278485596, 0.2648371160, 0.0294581093, 0.1497395188, 0.1414042860, 0.0653073937, 0.1704159230, 0.4528132975, -0.1488703787, 0.0338380039, 0.3627715111, 0.4767315984, 0.1714411676, 0.2567379475, -0.1322582960, -0.7683338523, -0.3441578448, 0.4875017405, -0.2162261009, 0.2012318373, 0.3558358550, -0.1051080227, 0.3410514891, 0.2427744865, 0.4464369416, 0.0588418804, -0.2243796885, -0.1112735048, 0.6710485220, -0.0385151356, 0.2370598912, -0.4150528610, -0.0666136965, 0.1989218593, 0.2388234586, -0.5970556736, -0.0856618062, 0.1549279988, -0.0693737045, -0.0993036404, -0.1193245128, 0.1178803891, 0.0598007292, -0.1519026905, -0.1662133932, -0.1651536226, -0.0324758887, -0.1275378019, -0.0333614349, -0.1448587179, -0.0778360590, -0.0990395322, -0.1094115227, -0.0385581255, -0.1073035672, -0.0296691563, -0.0122782532, 0.0427212156, 0.1064747348, -0.0066425377, 0.0492828116, -0.0054067699, 0.1262149960, -0.1160408705, -0.0897677913, -0.0146306092, 0.0782532170, 0.0867392346, -0.1337412149, 0.1125804037, 0.1028963327, 0.1432094276, -0.0875152200, -0.1020873785, -0.1266288161, -0.1359973252, 0.1112375483, -0.1141804159, -0.0014690750, -0.1407749057, 0.1510603577, 0.0792940184, -0.1364330649, 0.1905770749, 0.1719206274, -0.1707955450, 0.0202390924, -0.1972294301, 0.0413813405, -0.0087600425, 0.0219160635, 0.0768491700, -0.1207978874, -0.1966312975, 0.0063137286, -0.1219353825, -0.0378173850, -0.1134701595, 0.0459099449, 0.0772001296, -0.1464323848, -0.1178678498, -0.1877533495, 0.0418059863, -0.0725962594, 0.0618258119, -0.0779502839, -0.1396056116, -0.0448381677, -0.1564761996, -0.0034694353, 0.0569485128, -0.1263866723, -0.1041765809, 0.1273863763, -0.0726205483, -0.0462662503, -0.0301927291, 0.0649150535, -0.2389582694, 0.1509501636, 0.1308445334, 0.0288338587, 0.1293529123, -0.0027732938, -0.0091223205, -0.0597721450, -0.1395474076, 0.0070295879, 0.1723092943, 0.0989106223, -0.0936917961, -0.0214511417, -0.1061774120, 0.0445240475, 0.1602303982, 0.0575996377, -0.0913995728, 0.0404390804, 0.1428736299, -0.0054940279, 0.1563443840, 0.1038508788, -0.2145816535, -0.0727222711, 0.1636920720, 0.0241129156, -0.0254030824, 0.1358615011, 0.1643576622, 0.1193052232, -0.0114414645, -0.1837529391, -0.1498971432, -0.0427716933, 0.1365688294, -0.1500088125, 0.1430615634, 0.0525627322, 0.1285700947, 0.0366549008, 0.0522398390, -0.1485865116, -0.0557212494, -0.0434314609, -0.0368649140, 0.0675625876, -0.1522468477, -0.0545221455, -0.0765217319, -0.0115928464, 0.1462216377, -0.1681903601, 0.0618962273, -0.0825473741, -0.0324642472, 0.0356396474, -0.1463748515, -0.0789143145, -0.1582534909, -0.0656248778, -0.1713598818, 0.0516843870, -0.1540885717, -0.0715940595, -0.1585181653, -0.1277410090, 0.0249393899, -0.1713937074, -0.1580023021, 0.1524928361, -0.0986475497, -0.1032573506, -0.1499241889, 0.1087923050, -0.1155736223, 0.0274348427, 0.0538558438, -0.0757189691, 0.1375952065, -0.0486741588, 0.0398225635, -0.0502230711, -0.1077027768, -0.0953994095, -0.0502892546, 0.1330934614, -0.1333392859, -0.1291683018, 0.1189953610, -0.1902721375, -0.1536276639, -0.1441628933, -0.1010152102, -0.0259820763, 0.1569337994, 0.1265157610, -0.1515999287, -0.0983570367, -0.0652827099, -0.1318876296, 0.0039609270, 0.0212407112, -0.0925517827, 0.1150665358, 0.0515720882, 0.1103960425, 0.0689458102, -0.1235429719, 0.0814466923, -0.1501380652, -0.1500406116, -0.1033479497, 0.1322146952, -0.0264827125, -0.2552788556, -0.0868481398, -0.1069263890, -0.1836856157, 0.0222062543, 0.0349291041, -0.1696275622, -0.0083737820, 0.1170781404, -0.0731743872, -0.1835826784, 0.1879620254, -0.1870608479, 0.0006620742, 0.0942981020, 0.0769002810, -0.2309849709, 0.1022105664, 0.0297536142, -0.1100228578, 0.0600093044, -0.2234873474, 0.0744298175, 0.0353579670, -0.0527419411, -0.2067525536, -0.0743316412, -0.1838556528, -0.0519300066, -0.0487329811, -0.1335335672, 0.0859082565, -0.0406293310, 0.2109061033, 0.1533304006, -0.1706404537, -0.0685419291, 0.0938788727, -0.1812736839, 0.0488386378, -0.0371989794, -0.0495915636, 0.0724784136, 0.0566822141, 0.0016266021, -0.0214745235, 0.0296525452, 0.1508491933, 0.0100530451, 0.0544649586, -0.1579121947, 0.0677001774, 0.1628209949, -0.0208373796, -0.0073213740, 0.1357099116, -0.2170412987, 0.1638773829, 0.0246949680, -0.0606232062, -0.0383025482, -0.0724653676, 0.1394872069, 0.0972676650, -0.0854070932, 0.0373118557, -0.1792477965, -0.0040205577, 0.1965470761, 0.0162093453, -0.0083080046, -0.1213553399, 0.0629278421, 0.1369572282, -0.0235889032, -0.0323603898, -0.0865445435, 0.0107344007, 0.0709415376, 0.0813392922, 0.0131301759, -0.1202535778, 0.0216839630, -0.0213507060, 0.1072049215, -0.0015874773, 0.1793920398, -0.0800515562, -0.1446490288, 0.0415033177, 0.0911139175, -0.0460258573, 0.0710460842, -0.1551634371, 0.1905146539, -0.0705624744, 0.0433982611, -0.1355503350, 0.1259728521, 0.1501965821, -0.1657950282, -0.1353368014, -0.1391804665, 0.0144757601, -0.1329129934, -0.1543279588, 0.0138821257, -0.0525573753, -0.1226937771, -0.0956883356, -0.0164402705, 0.0026864170, 0.1591374576, -0.0531411991, 0.0093123121, -0.0368804708, -0.0776275024, -0.0458570495, -0.0492165461, -0.0682874918, 0.1659989506, 0.0403298773, -0.1625344306, 0.1128488779, 0.1558702290, -0.1136438400, 0.0193867367, -0.0593084060, -0.1494792104, -0.1863802671, -0.1377816200, -0.0223721899, 0.0661520734, -0.1385528445, 0.0735380426, -0.0494297557, -0.0711845756, -0.0106363567, -0.0258239638, 0.1542089283, -0.2431460321, -0.1803982258, 0.1431006938, 0.1186112463, -0.0416271053, 0.0658021867, -0.1705649793, 0.0756930411, -0.1591492146, 0.1318924725, 0.1384142637, 0.0330023579, -0.1610160619, -0.0726062208, -0.1223701015, -0.0864788517, 0.1319695264, -0.1898768991, 0.1508997083, 0.0163878892, -0.0581211299, -0.1378802657, 0.1511649042, -0.1398046762, 0.0979651138, 0.1058304906, 0.0623949841, -0.1236487031, -0.1539719254, -0.0098151797, -0.0243378878, 0.1234094128, -0.0897786617, 0.1123886853, -0.1745512784, 0.1466690749, -0.0252926722, 0.0485955141, -0.1688537598, 0.1439943463, 0.0621398389, -0.1252251118, 0.0982798189, -0.0099056745, -0.1437239498, 0.0215197578, -0.1801141798, -0.1087267399, -0.0733024552, -0.1338405758, -0.1542642564, 0.0925067291, -0.2970402837, 0.0053480635, 0.1239032596, 0.0836734176, -0.1571623981, -0.0668379962, 0.0400736891, 0.1278501600, -0.0592726171, 0.1011984572, 0.1315967888, -0.1776651144, 0.1063919440, -0.1054902747, 0.1199753210, 0.0236327164, 0.0150913680, -0.0111752180, 0.1064433530, -0.0029383148, 0.0704227835, -0.4094169736, 0.1287401915, 0.0940515399, -0.1056461409, 0.0296235755, 0.1579027921, -0.0378046967, 0.1464618295, -0.0533117130, -0.2792042196, 0.0606647693, -0.0158608463, -0.1475584656, 0.1940045655, -0.0574816354, 0.3343060613, 0.1779351234, 0.0180025343, -0.0750814900, -0.0590718649, 0.0181689113, -0.1167079881, 0.0709465817, 0.0648312047, -0.0195238106, 0.1014887244, 0.1428079009, -0.0885700807, -0.0880416706, 0.0675856173, -0.1843042374, 0.0555790253, 0.0592254214, 0.0235905517, 0.0940491557, 0.2816192508, -0.0410255939, -0.1788376421, 0.5664405823, 0.1310550869, 0.1314657480, -0.1978646219, 0.4040028155, 0.3167164922, -0.0628265813, 0.0047884625, 0.1128304452, -0.0694837198, -0.0409025699, 0.0534375124, 0.0539099388, -0.0630092770, 0.1728169322, -0.1305435300, 0.0973740891, 0.0722600296, 0.2076257765, -0.0059059188, -0.0823569000, 0.0728270486, 0.1955929846, 0.0157918911, 0.0608846955, -0.0438523963, 0.6205649376, -0.0190203879, -0.0761993527, -0.0805260763, 0.0909794047, 0.0189386103, -0.1669375002, 0.2085188627, 0.1120900288, 0.0905808210, -0.0428795516, 0.2743884325, 0.2464467585, -0.0230513047, 0.1453836858, -0.3911954761, 0.0320785418, 0.0280843005, -0.1003253832, 0.0143371038, 0.0413811468, -0.1439307481, 0.0175560731, -0.0895931572, 0.2587325275, 0.1469757408, -0.1280114055, -0.0263911653, 0.4625474811, -0.1166717708, 0.0132928602, -0.3726935685, -0.1026917845, 0.0016389631, 0.0583520792, -0.2476705313, 0.0207079872, -0.1128061712, 0.1045397446, 0.1613220572, -0.0627863258, 0.0774071962, 0.0595686771, 0.0235277917, 0.1624078155, 0.0188644212, -0.0137889674, 0.1123933122, -0.1523360163, 0.1643407643, -0.0746214017, -0.1143647507, 0.0305084586, 0.1495828182, 0.0246809348, -0.1124827936, -0.1126470268, 0.0683656037, -0.0949037373, 0.1213713884, 0.0087118531, 0.0591538213, -0.1474688053, 0.0723815411, -0.1664146483, 0.0465661958, -0.0763283968, 0.1607667953, 0.0484750010, -0.0936556906, -0.0103353662, 0.1856824756, 0.0574354082, -0.1680959463, -0.0935572833, 0.1374261677, 0.0122849150, 0.0414958112, 0.0235654768, 0.0134783518, -0.0885372609, 0.1874962300, -0.0915132016, -0.1206452474, -0.1533697844, -0.0271044355, -0.1251426786, -0.0125868767, -0.0627394989, 0.1101962999, -0.0993440747, -0.1590062231, -0.1136629134, 0.0637303814, -0.1566256583, 0.0861167163, -0.0851987079, -0.1229841784, 0.1261415780, -0.1587656587, -0.0654240474, 0.0755769759, -0.2037649304, -0.0004785414, -0.1221664995, -0.3151520491, 0.0566227064, 0.0259285308, -0.0709106401, 0.1375125945, -0.1383485794, 0.0866500661, -0.0816491991, -0.0284350626, 0.0784609616, 0.0541921854, -0.1419758648, 0.0431410521, -0.0858680829, 0.0456724130, 0.1389038116, -0.0508500300, -0.1407600343, 0.0241007600, -0.1198604926, -0.0130785136, 0.1243913099, -0.0697270855, -0.2032996118, 0.1096646264, 0.0162438564, 0.0053424304, 0.0905193910, 0.0031585512, -0.0623678230, 0.1371114254, -0.0699157566, -0.1161458567, 0.1153331995, -0.0377007090, 0.0817988813, 0.0620077215, 0.0284569114, -0.2482307851, -0.1177514717, -0.0811786428, -0.0754532591, 0.0876514167, -0.0243388452, 0.1479616165, 0.0271932893, 0.1029569432, 0.0462734625, 0.0380196199, 0.0400310196, 0.0840584785, -0.2726573944, -0.1392777413, -0.0003935618, 0.2061032355, -0.1507311463, -0.1946135610, -0.0476841405, -0.2716566026, -0.1681753546, -0.0025824367, 0.1043377146, 0.0411087610, -0.0966811776, 0.1576472670, 0.0416735709, 0.2240634859, 0.1168750152, 0.1130518988, 0.1544316113, 0.0428910293, 0.0879229680, 0.0612731613, -0.0319453850, 0.1342916489, 0.0404944383, -0.1647942513, 0.1163771227, -0.2328500301, -0.0811475739, -0.1201299876, -0.0524603128, 0.1255364269, -0.0256698281, 0.0401211455, 0.1273934692, 0.0762294009, 0.1197716221, 0.0191328339, -0.1606924236, -0.0702681467, -0.0267660916, -0.1162226424, -0.1473114341, -0.1650637537, 0.0160081927, 0.2489653528, 0.0631468892, 0.0674148798, 0.0885680020, -0.1068663970, -0.1553452909, -0.3418233693, -0.1034814343, 0.1263277382, 0.1236143857, 0.0519448780, 0.1762364954, 0.0539094768, -0.0364634991, 0.1434642673, 0.1706974804, 0.0770080462, -0.0624212548, -0.0309040844, 0.3868063092, 0.0629946589, 0.1532876045, 0.0213656593, 0.0505033545, -0.1228347421, -0.0918118358, -0.0249899831, 0.1101818532, -0.1425553113, 0.1341505200, 0.1590916663, -0.0904974043, -0.1023872644, -0.1231253520, 0.0523098335, -0.0331900492, 0.0767688900, 0.0780925453, -0.0285298582, -0.4819929600, -0.0347057059, -0.0351567119, 0.1354020536, -0.1652476341, -0.1498118490, 0.1638636589, -0.3030393422, 0.0652542114, -0.0484003425, -0.0274353828, -0.0098841200, -0.1198381037, -0.1548376679, 0.0673352480, 0.0175287668, -0.1536540091, -0.0149216400, 0.0971997827, -0.0735591948, 0.1473633796, -0.3069139421, -0.1059422642, 0.1188075244, -0.1586259753, 0.0213020369, 0.0828814656, -0.0337949954, 0.1015947014, 0.1423336715, -0.1044102833, -0.2480724603, -0.1392588317, 0.1647570729, 0.0846912414, 0.1110849977, -0.0232310425, -0.1513113678, 0.1717771292, -0.2356365472, -0.1364854723, -0.0123903211, -0.0754430667, -0.0279977657, -0.2208743840, -0.0735785142, 0.0759152249, -0.0579416938, -0.1800379604, -0.0450015664, -0.1595699489, -0.1166338772, 0.0061191591, 0.0084578786, -0.1879853010, -0.2111770958, -0.0618410856, -0.1423236430, 0.1048933119, -0.1185192242, 0.0769719705, 0.0887561962, -0.0233258102, 0.0868623257, 0.0022806795, 0.0868281871, -0.1094778627, 0.1078964025, -0.0609390289, 0.0656290278, 0.0224040393, -0.2442806214, 0.0221224762, 0.0719443560, -0.1226284355, -0.0977079645, 0.1192876399, -0.0307956953, -0.0517629087, 0.0261908490, -0.1751673222, 0.0175037738, 0.0408823229, 0.1407011300, -0.0690568611, -0.0090710577, 0.0801320747, 0.0100592552, -0.0364634767, -0.1444009393, -0.0364986062, 