//Numpy array shape [128, 64]
//Min -1.056936383247
//Max 0.945414483547
//Number of zeros 0

#ifndef W4_H_
#define W4_H_

#ifndef __SYNTHESIS__
model_default_t w4[8192];
#else
model_default_t w4[8192] = {-0.1024347320, 0.1580925733, -0.1195079684, -0.0145012653, -0.0662090331, 0.1286663264, -0.1558848768, 0.0030739189, -0.0730843097, -0.1382862777, -0.0001545500, 0.0976648629, 0.0563901290, 0.1284960955, -0.0091955299, -0.1066015735, 0.0921613127, 0.0419771969, 0.0530826822, 0.1530858278, 0.1852529347, -0.0486647040, 0.0217420999, -0.1373990774, 0.0822225660, 0.0972839817, 0.0720267147, -0.1189460903, 0.0331181549, 0.1072639748, -0.0470880009, 0.0101071522, -0.1276854575, -0.1404817402, 0.0258428417, 0.0913370773, -0.0083628772, -0.1545203030, -0.0632796660, 0.0510900915, 0.0050868695, 0.0097615523, 0.0455809049, -0.0206484571, 0.0474385694, -0.1494552940, 0.1270029396, -0.0900770202, -0.1718640029, -0.0390231982, -0.1556255072, 0.0910637081, -0.1229904443, -0.1581456810, 0.1576830000, 0.0439900681, -0.0001465695, -0.1285269111, 0.0260719471, 0.0253946576, -0.0551439747, 0.0621736385, 0.1063646972, 0.0101971263, -0.1550291032, -0.1649144590, 0.0334843062, -0.0721736923, -0.0813735649, 0.0016905335, -0.0427890792, -0.0221679620, 0.1235885695, 0.0370236225, 0.0028481635, -0.0107507575, 0.0484085903, 0.2705814838, -0.0562533662, 0.0350480825, -0.3532820046, -0.0247084145, 0.2034803927, 0.0163809825, -0.1340313107, -0.0338660777, -0.0984106287, 0.0667698458, 0.1000869796, -0.1560789645, 0.0312242527, 0.0742175505, -0.1524832696, -0.0257788189, -0.1949780732, 0.0561794974, 0.0142622860, -0.0290787406, 0.1136192679, 0.1449311376, 0.0673294216, -0.0237872284, -0.0705098957, 0.0862882361, -0.1367717236, -0.3153153658, 0.0930640101, -0.2205559760, 0.2011120021, -0.0342671014, 0.0294580422, -0.1300776601, -0.1601815373, -0.3825761676, 0.0616477467, 0.0084458450, 0.0255329069, -0.1987813711, -0.2496756911, -0.1487367004, 0.0979096740, 0.2294990271, -0.1985695362, 0.0091533260, 0.0983703062, 0.0596871041, -0.1817087680, -0.0750133097, 0.0503472388, -0.0601423122, 0.0072362898, -0.0509955250, -0.1365706027, 0.0797980651, 0.1304394305, 0.1039053202, 0.1367842108, -0.0104854014, 0.1428320706, -0.0573513731, 0.0986651406, -0.0141622126, 0.1568734348, -0.0358629785, -0.1252903044, 0.0325894207, 0.0832024589, -0.0181510039, -0.0020126645, 0.0631255060, -0.0467944629, 0.0911718160, 0.1420565248, -0.1879279166, 0.1035221219, -0.0056489957, 0.0278118737, -0.2027718872, -0.1714926213, 0.1279807240, -0.0029266411, -0.0841365531, -0.1023524925, -0.2257557213, 0.0339432620, -0.0009967829, 0.0106111458, 0.1023837551, -0.0006267572, 0.0605055802, 0.0595174842, -0.0242269114, 0.1143057048, 0.1395690888, 0.0916953236, 0.1029093117, 0.0960233957, 0.1487759799, 0.0581894368, 0.0049218489, -0.0285539795, 0.0546786971, 0.1058907360, -0.1287431419, 0.0311133973, 0.0546370409, -0.0958110988, -0.1590373069, 0.0248308517, 0.1882339269, 0.1480872780, 0.0013426309, 0.1566713005, 0.0608134679, 0.0963715240, -0.1116934344, -0.1336261928, 0.0739193708, -0.1039714962, 0.1099609956, -0.0193711575, -0.2225929052, 0.0859057307, 0.0834226906, -0.0393091775, 0.1832436323, -0.1485290080, 0.0953181684, -0.0181456041, -0.0510379523, -0.1997054368, -0.0758877471, -0.0864811242, 0.0979373679, 0.1479508281, 0.1232464984, 0.0286455285, -0.1517357230, -0.1552917361, 0.1625887007, -0.1118576229, -0.0593751147, -0.1734695286, -0.1836607456, 0.1298294961, 0.1101088524, 0.0235178750, 0.0649442822, 0.1834032089, 0.1238686070, 0.0722135454, -0.0959076285, 0.0834939405, 0.0717269927, 0.1010752246, -0.0329480134, -0.0121187773, -0.1376631856, -0.0074708355, 0.1230157390, 0.1486941725, -0.0903592929, -0.0508253090, -0.0146765495, 0.0364330895, 0.1384030730, 0.0483756438, -0.3414974809, -0.0426185094, -0.1056706011, 0.1085874885, -0.0016912286, 0.1473857164, 0.0877402127, 0.1263922751, 0.0749709383, -0.0074624112, -0.1155049279, 0.0525769405, -0.1347694546, -0.0016176596, -0.1735830158, -0.0550229363, -0.1906915903, 0.1360456049, -0.0729802996, 0.1640222818, -0.0821568593, -0.1627371311, -0.0177193508, 0.1824739277, 0.0110351937, -0.1516533047, -0.0800888017, 0.0379976407, -0.0438119210, -0.1308300793, -0.0011568177, -0.1402386129, 0.1603991538, 0.0975848138, 0.0044184597, 0.1648913473, 0.1512817144, 0.1540916115, -0.1593092978, -0.2423557788, 0.0874984041, -0.0822131336, 0.1166318730, -0.0440634228, 0.0706370771, 0.1770941466, 0.0238599926, 0.1090871692, -0.0048350813, 0.1540426463, 0.1474538893, -0.0431635305, 0.0283710640, -0.0527344793, 0.0697054639, 0.0856995881, 0.1776017994, 0.0510918163, 0.0839806125, 0.0896383002, -0.1557914466, -0.0176797397, 0.1477714330, 0.0519781224, -0.0728604048, 0.1058233157, 0.0036105327, 0.0362953357, -0.0405489355, -0.1340134740, -0.1168867424, 0.0739068687, 0.0328061432, 0.0572377481, 0.0675056726, 0.0556060039, 0.1469628513, 0.0572394058, -0.0500951819, 0.0832371190, 0.1147313043, -0.1615801305, 0.0071194661, 0.1411214471, -0.0360615067, -0.1557811350, -0.0572054386, 0.0757961646, -0.1302435398, 0.0096685356, 0.1369295716, -0.0698533654, -0.0184256658, 0.0966713727, -0.1004930064, -0.1494653672, 0.0421404988, -0.0178687852, -0.0744536445, 0.0467217304, -0.0502722859, -0.1133117154, -0.1088781431, 0.0500371009, -0.1656498164, -0.1516298801, 0.1391101629, -0.0567660369, 0.1365899891, 0.1400393248, -0.0981920734, -0.0491293371, 0.0865157694, -0.0797431096, -0.0918087885, -0.1415680796, -0.0181726832, 0.1380506158, 0.1446146518, -0.0073767006, 0.0736776143, 0.0996409506, 0.1445980072, -0.1504889280, -0.0723799095, 0.0836364999, -0.1344670951, -0.1872297525, -0.1627012938, 0.1567186862, -0.1115782931, -0.0157371778, 0.0150056435, -0.0625984818, -0.0568505116, -0.0797789395, -0.0841584057, -0.0930004418, 0.0556169227, 0.1076701656, -0.1655618101, -0.1551256180, 0.0652347356, 0.0644930899, 0.0622130223, 0.0816666558, 0.1873397827, 0.1987902820, 0.0755403712, -0.0049145059, -0.1472813040, 0.0051345285, -0.2111683637, 0.0974075720, -0.1487327218, -0.1172068939, 0.1137614027, -0.0571211725, -0.1764813513, 0.1100211367, 0.0033386899, 0.0974141061, 0.1432771236, 0.0891933963, 0.1650824398, 0.1605860591, -0.1152800322, 0.1578885466, 0.0398826599, -0.0498981401, -0.0036187822, 0.0123957321, -0.1588606685, -0.0056704227, -0.1085816696, -0.1107984036, 0.0131846610, 0.0589660965, -0.0689880550, 0.0999741778, -0.1014979184, -0.1343597174, 0.1176754832, 0.1506372392, 0.1760272533, -0.1110050604, 0.0377384722, 0.1723476797, -0.0647723749, -0.0749706030, 0.1124363691, -0.0138679147, 0.2202225029, 0.1428126544, 0.0934521109, 0.0505333543, 0.0318613723, -0.0250331890, -0.0773847178, 0.0224327631, 0.0662339479, 0.0638769194, 0.0637972578, 0.0593249463, 0.0574835502, -0.1557616442, 0.0272344239, -0.0534919761, -0.1088670641, -0.0699087903, -0.0578117333, -0.1249060929, 0.0729653537, 0.0677561238, -0.0304989088, 0.1446346939, 0.1660617441, 0.1160825491, 0.1338960826, -0.1559279561, -0.1488975286, 0.0585536286, 0.1341977268, -0.1258986145, -0.1658790261, 0.0205396842, -0.1070691124, -0.1141498014, 0.1800814867, 0.1383051872, 0.0817028582, 0.0349577032, -0.1208745390, 0.0770836323, -0.0403521210, -0.0489341952, -0.0301911402, -0.0759604201, 0.0893188864, -0.0350210853, -0.0468924642, -0.1163409427, -0.0187273454, 0.1141615361, -0.1247641370, -0.2861479223, -0.1191905141, -0.1993850917, 0.1247075126, -0.0929462165, 0.1069211140, -0.0545118675, 0.1381665468, -0.1906607598, 0.1129701659, -0.0390416794, 0.0082148751, 0.0341483578, -0.1966051310, -0.1920606345, -0.0301854853, 0.1555219144, -0.2478516400, -0.0795564502, -0.1813315302, 0.0017003741, -0.0071333540, -0.0972076431, 0.0241774712, -0.1521755606, -0.2132871151, 0.0224473197, 0.1812436134, 0.0062632812, 0.1698732525, 0.0538898446, -0.1916735172, 0.1739800125, -0.1853335947, 0.0385507867, -0.1079845726, 0.6205012202, -0.0592325032, -0.2364262342, -0.5637387633, 0.1762918681, 0.0298210457, 0.0846371725, 0.2014736831, -0.0022083255, 0.0019687247, 0.0297127347, -0.0139797237, 0.3939549029, 0.1155839190, -0.0481364243, 0.0723296702, 0.2176512331, -0.0912053734, -0.0307205915, -0.0224473644, 0.2872039676, -0.1067074388, -0.1022424102, -0.0187307764, 0.2050051838, 0.2828241587, -0.0738245696, 0.5470677614, -0.2964701056, 0.1431288421, 0.0586145595, 0.1531898528, 0.0893930867, 0.2771760523, 0.2542169392, 0.1379729062, 0.1085312888, 0.1309859902, 0.0644376278, 0.2086027563, -0.3451999128, -0.2550815642, -0.0595899895, 0.4984753132, 0.0038817371, -0.3099776208, 0.3966691494, 0.0428727977, -0.0916693434, -0.0111470623, -0.1408246011, -0.0718502775, -0.1032317132, -0.1202193275, 0.0972951204, -0.1265820563, 0.2101345807, 0.1279492974, 0.2803965807, 0.0816825405, -0.1202888489, 0.3639240265, 0.1727536917, -0.7762946486, 0.3086314201, 0.0823299810, 0.2315829545, 0.3950663209, 0.2720055878, -0.0496292040, -0.0578519776, 0.3233880401, -0.3205983043, 0.1222118959, 0.1037846804, 0.1436466277, -0.0181398522, 0.3727672696, 0.0350498632, -0.0393843278, 0.0929223374, 0.2057640105, 0.4102967680, 0.0484525859, 0.2447829843, -0.0283022150, -0.0585423596, -0.1653983891, -0.0687686875, -0.0761009455, 0.1165060550, -0.3262058496, -0.1481268108, -0.2081720382, 0.1171053797, 0.0716211274, -0.0469564795, 0.0306215137, -0.2779356539, -0.4370032549, 0.1128135920, 0.1329871565, 0.0942737013, -0.1315852106, -0.2439124137, 0.1548965871, -0.0015733821, 0.2764261365, 0.2278545797, -0.1048982143, -0.0957848504, 0.0569466874, -0.1796664000, 0.0501931608, -0.1676131785, -0.0136639737, 0.0635965466, 0.1250856221, 0.1127820835, -0.0445207804, -0.0935244709, 0.2418621629, -0.0316038281, 0.1613588631, 0.1562235206, -0.0522787347, -0.2730666995, -0.1393010020, -0.1575010568, 0.1210210547, 0.0954784602, 0.0043342724, -0.0089359125, -0.1323627830, -0.1112747788, -0.2135231048, -0.0277714189, -0.1412874162, 0.0334025994, 0.0067669060, -0.1027776748, -0.0849828348, 0.0564250834, -0.2430508286, 0.0721833929, 0.0084009832, -0.1866083741, -0.0259927921, -0.1285651922, 0.1028443724, -0.1498852968, 0.0486278199, -0.0917855427, -0.2305617332, 0.0075207213, -0.0665245578, 0.0579661913, -0.1317095608, 0.0682848245, -0.0599010587, -0.0701837614, -0.1733564734, -0.0772664696, -0.1854030937, -0.1919304132, -0.0909557939, -0.1675614268, -0.0273914542, -0.1440193206, 0.1710681468, -0.0235814154, -0.0651315153, -0.0808742717, 0.0765718296, -0.0943290964, -0.0745473504, -0.1142092422, 0.0206223913, -0.1206650659, -0.0095473751, -0.1096605137, -0.2220544815, -0.0028843591, 0.0642138571, 0.0711427331, -0.4841531813, -0.1338817328, -0.0975410938, -0.0190902092, 0.1324925870, -0.1485464126, -0.0425419435, 0.0086451750, 0.0335144699, 0.0604998730, -0.0994890779, -0.1173986793, -0.0802748203, 0.1471159607, 0.1148819327, 0.0168154798, -0.0456404164, -0.0232362710, -0.1430097967, 0.0847981721, 0.0932143033, -0.4314883053, 0.0819772780, 0.1138487533, 0.1313105822, -0.0034411117, 0.0731979609, 0.0509755611, 0.0851745978, -0.1357849389, -0.0060766465, -0.1622188687, -0.0274562240, -0.0562891699, 0.0457651727, 0.0779080465, 0.0737387985, 0.0654525757, 0.1895098835, 0.1026876420, -0.0016406127, -0.1408708543, 0.0657343119, 0.0346522257, 0.0338816382, -0.1133624092, -0.2174970210, 0.0210045818, -0.0147076305, -0.1095201522, 0.0962078422, 0.1372124851, -0.1737304628, 0.1262905896, -0.1247044355, -0.0074116164, 0.0673443079, -0.2454290092, -0.1803588718, 0.1219617054, -0.1232529059, 0.0734811276, -0.0185385346, 0.1183485165, 0.1530843973, 0.1087423339, -0.0313965268, -0.0261843801, -0.0027614087, -0.4967774153, -0.0676412731, 0.3492795825, 0.0381267034, 0.0486118980, -0.1240133867, 0.1670391262, 0.0210392140, -0.1034827679, 0.2315374911, 0.2080873847, 0.0575062372, -0.0067384853, -0.1090496927, 0.2935442924, 0.1302743703, -0.0725217909, 0.0656408668, -0.0407193340, 0.1161861420, 0.1701094061, 0.0413017534, 0.0510260276, 0.0574023202, -0.0705838129, -0.1261961609, 0.2450579405, 0.2500648499, 0.2162307799, 0.3591173291, -0.2045853138, 0.0977168232, 0.0435642898, 0.1818206161, 0.0307046752, 0.0610199049, 0.2368246913, 0.0021319599, 0.0429946370, 0.0578851923, 0.0146669149, 0.0159558747, 0.1428472996, -0.3374936581, 0.0100418106, -0.1652694345, 0.0324865878, -0.0075033968, 0.1936197281, 0.1187644005, -0.1243579313, -0.0340447724, 0.0864625871, 0.1151707098, 0.0852417871, -0.0679255649, 0.0082107577, -0.0906684548, -0.0068224934, 0.0418532901, -0.0703101531, -0.0522482619, 0.1447235793, -0.0139346020, 0.0141834319, -0.0231753103, -0.1295087785, -0.0812382847, 0.1251869202, -0.0721542090, -0.1482506841, 0.0544462949, 0.0441170931, -0.0042488528, -0.0577274337, -0.0732036605, 0.1186891869, 0.1293104887, -0.0611613058, 0.0199969597, 0.0536078215, -0.1038220078, -0.1471393108, 0.1210848689, 0.1103332937, 0.1506720334, -0.1159575731, 0.0886023268, -0.1179699972, -0.0713789240, -0.0141801136, -0.0951126143, -0.0109472722, -0.1151669249, 0.1588903368, -0.0083024474, -0.1649845839, -0.0780151114, 0.0375740789, -0.0030785368, -0.0672457889, 0.0262148939, -0.1170602739, 0.1398136765, -0.0973396674, -0.0451038666, 0.1591377854, 0.0710179359, -0.1345999986, -0.0887936279, 0.1166662350, 0.1302976161, 0.1106407940, -0.0206633806, -0.0628667548, 0.1245638877, -0.0613745004, -0.1988398731, -0.0972754434, -0.0000204805, 0.2049365193, 0.0455296002, 0.0855963156, 0.1800446808, -0.0734024569, 0.1189933866, 0.0267325621, -0.1533187777, 0.0534889512, -0.1110168099, -0.0946102515, -0.0062316074, 0.0607279278, -0.1016531438, -0.1271388084, -0.1930238307, 0.0959273800, 0.1633505970, 0.1099329516, -0.1503538489, 0.0932291299, -0.0838552192, 0.1067064404, 0.1231230944, -0.0655761138, -0.0612456538, 0.1311367899, -0.0505844355, -0.0184536390, -0.1349709630, -0.0310485046, 0.1401458681, -0.0838160515, 0.0969943553, -0.1122789085, -0.0051045031, -0.0225381497, -0.0541683771, -0.1835706979, 0.0457054488, -0.0747100115, -0.0814479291, -0.0023511786, 0.1654921174, 0.1108491123, -0.1979872286, -0.0628651753, 0.0316019095, 0.0364843234, 0.1077723280, 0.1091321707, -0.1957860291, -0.1131969243, 0.0025794876, 0.1537498981, 0.1458914429, 0.0310267489, -0.0390210077, -0.0448108427, -0.1809841990, 0.1783475727, -0.0671934187, 0.0725412369, 0.0970785171, -0.1066268459, -0.3590875864, 0.0040974938, -0.5435820222, 0.4587380588, -0.1518280208, -0.2474364936, 0.7677571177, 0.0906604305, -0.1928381771, 0.2239672840, 0.6600998640, -0.2981521785, 0.0410659984, 0.5038897395, 0.1011627540, -0.0788885355, 0.6021538973, -0.2309734076, -0.0955583006, 0.4912689328, 0.1915739179, 0.3487131000, 0.3535084128, 0.3681589365, -0.0661619902, 0.4668280482, -0.2610949576, 0.7039313316, -0.0571320094, 0.4691419303, 0.6695714593, -0.0890405923, -0.0701259077, -0.2713098824, -0.2293438017, 0.3985925019, -0.2010657787, 0.0485050641, -0.4365860820, 0.5449235439, 0.3506633341, -0.0985594243, 0.5097025037, -0.2869295180, -0.1500492096, 0.3978996873, -0.0684048906, -0.1801015884, -0.2491753697, 0.2349227965, 0.6598972082, -0.1401965320, 0.0845165700, 0.3980234265, 0.1252675802, 0.1997517943, 0.4902124405, 0.0303206891, -0.1492472887, -0.0757734329, -0.0039916234, 0.0118847266, -0.2110438496, 0.1729829162, 0.0341055505, 0.1970220506, 0.2542080283, 0.1901109666, 0.2369401455, -0.0994627625, 0.2096363157, -0.1495112181, -0.2763652205, 0.3136696219, 0.1993772238, -0.0038479276, -0.1711381227, -0.0697249696, -0.0019762849, -0.1131811589, 0.0905525982, 0.2168870121, -0.1769455224, 0.1721092314, 0.0806540847, 0.1008276120, 0.0251318663, -0.1093390360, -0.2821788490, -0.0631938353, 0.1263798922, 0.0790174752, -0.1684811264, 0.0149823306, 0.2026351541, -0.1838842630, 0.1202223077, 0.1628458947, 0.0217467304, 0.0570794828, 0.3399261236, 0.0243868306, 0.1851617694, 0.0455184542, 0.0460664779, -0.0044778618, 0.2918180823, 0.0173547100, 0.0241852701, 0.2093986869, -0.0489244126, -0.1408879012, -0.0932737291, -0.2148664296, 0.0560823306, -0.0986503288, -0.0533824861, 0.2462189943, -0.0043687108, 0.0779887214, 0.0488111116, -0.0444998704, -0.0990196913, -0.0509147085, 0.0700076967, 0.0246258397, 0.0037560756, -0.1296357512, -0.1103231013, -0.1549494863, -0.1995201558, 0.1520095766, -0.0935115591, -0.0996064618, 0.0009246404, 0.0304417461, -0.1241981015, -0.0009054914, 0.0899556503, 0.0494198166, 0.1151526794, 0.0864702091, -0.0876358226, 0.1328157932, 0.1621323824, -0.0675927401, -0.1537328959, -0.0773802400, -0.0477427952, -0.1310599148, -0.1369002163, 0.1038764119, 0.1217075139, -0.0257665645, -0.0450778045, 0.0039212662, -0.1401049346, -0.1344040036, -0.1299992949, 0.0109173385, -0.0886645988, -0.0266979765, 0.1029375717, -0.1417192817, -0.1090718657, -0.0329297595, -0.1301908344, 0.0215738285, 0.1811414510, 0.1327872574, -0.0072897794, -0.0548094846, 0.0145732528, -0.1253853887, 0.0363765210, 0.1029599160, 0.0007704233, 0.1287452728, -0.0765354633, 0.1072478220, 0.1305549741, -0.1375591457, 0.1341594607, -0.1563517153, 0.1188541576, -0.0227619857, -0.0300035402, 0.0347984917, -0.0239149462, -0.1367169470, -0.0781373978, -0.0908649117, 0.0870582089, 0.0904081762, 0.1670032293, 0.0088733910, 0.1339692473, 0.1426786929, 0.1135740206, -0.0786513090, 0.1213654876, -0.0975124761, 0.1780770272, -0.0718695447, -0.0994044319, 0.1654228419, 0.0943715051, 0.0678455159, 0.1296449602, 0.0826525688, -0.0468984321, -0.1717408746, 0.0864737853, -0.0552278981, -0.1374696940, 0.0763404146, -0.0135756992, 0.1412093490, 0.1474301815, 0.0164446272, -0.0031171779, 0.1684390754, -0.0377444215, -0.0988326147, -0.0843279287, 0.1526424736, -0.0549503788, 0.1470145136, 0.1814919412, -0.1217452809, -0.0737604573, -0.0797448754, 0.1354694217, 0.1001638770, -0.0381121449, 0.1588935703, 0.1238366365, 0.1495044976, -0.0291336961, -0.0815707669, -0.0383418836, 0.0624335445, 0.1447539181, -0.1500646174, -0.0841191486, 0.1346915364, 0.1336965710, -0.0694189370, -0.0985521898, -0.0844476819, -0.1912339181, -0.1069224775, -0.1143827066, 0.0429002345, -0.0117039671, -0.0929036513, -0.1003116816, -0.1309578866, -0.1651450992, -0.0908498019, 0.0239972025, 0.0337753706, 0.0921413600, -0.1511807740, 0.1095261127, 0.0833940655, -0.0013461632, 0.0319697894, -0.0190586597, 0.1553147137, 0.0038395757, -0.0053801378, 0.0610121675, -0.1195578203, -0.0279584173, 0.0953841284, -0.0626479834, -0.1257563084, -0.0298090484, -0.3604800999, -0.1569906920, 0.1514823139, 0.0282118022, 0.1349501461, -0.0839461759, -0.1216206327, 0.1037599891, -0.0065867719, 0.1504051238, -0.0963547081, 0.0714225471, 0.1775288582, 0.0169626586, 0.0607996024, 0.0827958435, 0.1440709233, -0.0272840206, 0.0960662141, 0.0735022277, -0.1337788552, 0.0358474962, 0.0164274331, 0.1644859165, -0.2037711442, -0.0345527232, -0.0726607144, -0.1021547690, 0.1573114544, -0.0929775611, 0.0662393868, -0.1319451779, 0.1495275944, -0.0258254819, -0.1264531314, 0.1322745383, 0.1487051547, 0.0695486665, -0.0569717214, -0.1075973809, -0.1165730953, 0.2093220502, -0.0562944189, -0.2412453890, 0.1816022545, 0.1098191664, 0.0001699896, 0.0035611840, -0.1256333292, 0.0371278375, -0.0235078894, 0.1802393496, -0.0753244981, 0.0811677426, 0.1719841659, -0.1122619659, -0.1039369851, 0.0909928828, -0.0543543957, 0.1560253203, -0.0364813060, -0.0510629676, -0.0284194257, 0.0339790247, 0.0198814683, 0.0800749809, -0.1225545406, 0.0898941085, 0.2250126600, -0.0420603976, 0.2533779442, -0.0197386835, 0.0595699959, 0.0514682606, 0.1294738054, 0.2036904693, -0.0092091067, 0.0621223636, 0.0742903501, -0.0138901016, 0.0808205977, -0.0665811896, -0.0190563146, 0.2230384946, 0.0143453144, -0.1616647542, 0.1885656714, 0.0585752800, -0.1873322427, -0.1422263682, -0.2711471617, 0.1528376490, 0.0707625598, 0.0537213981, -0.1209058836, -0.0973614231, 0.1054550186, -0.0687360913, 0.0754898712, -0.0732026696, -0.1849043667, 0.0086059561, 0.1359816790, -0.0798019171, 0.0937684104, -0.1787732095, 0.1307726800, -0.1590710580, 0.0734315291, -0.0857459977, 0.0438675918, 0.0003810044, 0.0647455454, 0.2801603973, -0.1186876595, -0.0892459750, 0.2267769128, 0.0248433799, 0.0629631728, 0.0786918849, -0.1812642068, -0.0528084934, 0.0352981612, -0.1060505807, 0.1203953251, 0.1377765238, -0.1177719831, 0.0991557837, -0.1946049780, -0.0132309990, -0.1364324540, -0.1250226498, 0.1906626225, 0.1127189249, -0.0358660892, -0.0599837676, 0.0104202311, -0.0142886750, 0.0117167858, -0.0996480361, 0.1638820618, 0.0909204260, 0.0454997905, -0.1601098180, 0.0075371037, -0.0352518484, -0.0247863960, 0.1512117386, 0.1349903643, 0.1704933047, -0.0191240162, 0.1381831914, 0.0748603195, 0.1425397396, -0.0964961126, -0.1037208661, 0.0291589294, 0.0850347206, 0.0301406700, -0.1098143756, 0.1538214982, 0.1904964000, -0.0991650373, 0.0323309898, -0.0103533939, -0.0675785393, -0.2017529011, 0.0802732259, 0.0663990527, 0.1081691757, 0.1388143003, -0.0166354235, 0.0324782990, 0.0639863908, 0.1112626567, -0.1772656739, 0.1017835289, 0.0178335086, 0.1072404161, -0.1001966521, -0.1563098431, -0.2814186513, 0.0015759723, 0.1149380431, 0.0395021215, 0.0835045278, 0.1522275209, -0.1786454469, 0.1843883693, 0.0779668167, -0.0939849988, 0.1420567483, 0.1118639261, -0.0925498605, 0.0476503074, -0.0200225320, -0.1164841205, 0.0868104696, 0.1641794145, 0.1936690211, 0.0947915912, 0.0799433514, 0.1323537827, -0.0482884161, 0.0768761635, 0.0389172025, 0.0026420092, 0.0340023264, 0.2080790997, 0.1958993822, -0.1331841201, -0.0410699584, 0.0888621882, -0.0635125116, 0.0775486305, 0.0473854356, 0.1105128378, -0.1056075096, -0.1676551998, -0.1150882021, -0.1096641421, 0.1341249496, -0.1159294397, -0.0329876132, 0.0867786109, 0.2203776091, 0.1027860343, -0.0337754972, -0.1653493941, 0.0946944281, -0.0808792710, 0.0395320430, -0.0631866306, -0.0974058583, 0.0938960463, 0.0185719002, 0.1718606502, 0.0590911023, 0.1688497961, 0.0887006149, 0.0590381399, 0.0952058509, 0.1642580032, 0.0495705120, 0.1170700490, 0.1385883540, -0.0951667726, 0.1220887452, 0.0067846626, 0.0721508935, -0.1400728673, 0.0282886773, -0.0598505586, 0.1719093174, 0.1558694839, 0.0107247606, -0.0787654966, -0.0939797834, 0.0807022527, -0.1352921575, 0.1688677073, -0.1253538728, 0.1472045630, 0.0596264265, -0.0097251730, 0.0940249115, 0.0866144300, -0.1460374147, -0.0866161510, 0.1247242019, 0.1489685923, -0.0972936898, 0.0040024486, -0.0700072050, 0.1149070710, -0.0124377757, 0.0679864287, -0.0790872797, 0.1007433385, -0.1210795566, 0.1285602599, 0.1151308268, 0.0612611398, -0.0162224658, -0.0268559214, -0.0300700534, -0.0428202227, 0.1444078982, -0.1309769601, 0.1286292970, -0.0614876002, -0.0787262097, 0.0277896933, -0.1514707357, 0.0554753356, -0.1416572332, 0.0936492160, 0.0211273059, 0.2015068531, -0.1231975481, -0.1153732091, -0.9451135993, 0.2450135648, -0.1537331194, 0.1062544137, -0.2396434397, 0.7090290785, -0.0389446653, -0.6034015417, -0.6988630295, 0.2021372318, -0.1300343573, -0.0138940271, -0.0058423560, 0.2483268529, 0.0827553794, 0.2224501967, 0.1614717096, 0.1233740300, 0.1401488036, -0.0591859445, -0.1000637412, 0.3319950700, -0.2163149863, 0.0114654927, -0.1835068315, 0.0232807267, 0.0456589870, 0.0544278435, 0.1580486000, 0.1699510217, 0.3475539684, -0.0204926524, 0.4619820714, -0.1138459221, 0.0852409750, 0.2083446831, 0.1073673069, -0.1404518038, 0.1608088762, 0.1221411377, 0.0580345616, -0.0943587795, 0.3082356155, -0.0272926185, 0.1229101717, -0.0498651601, -0.1394437701, 0.0804792270, 0.0157922339, 0.1357237995, -0.2781088948, 0.3994312286, 0.0188660976, 0.0360849798, 0.0809750780, 0.1244103387, 0.0431839116, -0.0504506566, -0.1162881106, -0.0966673568, 0.0008680799, 0.1003053039, -0.0742151067, -0.0049070595, 0.1287011206, 0.0179474298, 0.0827498734, 0.1124578714, 0.0717691109, -0.1519279480, -0.1392349601, -0.0645248890, -0.0823073909, -0.0979861990, -0.0740114748, 0.1527651399, -0.0102048060, -0.0766513571, 0.1534150839, -0.1082347035, 0.0471908636, -0.1367588192, -0.0712290257, -0.0061000702, 0.1362071931, -0.0029656140, 0.1624352336, 0.0339628495, -0.1797381043, -0.0659255683, -0.0150736328, -0.0290180836, -0.0876265243, -0.1269440055, 0.0361187533, -0.1000474021, 0.0921845734, 0.1594334096, -0.0548072644, 0.0014051859, 0.0563206188, 0.1060568541, -0.1594422013, -0.1013833433, 0.1558554322, 0.0183871333, 0.1907420605, -0.0365768112, 0.1059248820, -0.0170650445, -0.0119069247, -0.0614936501, -0.0732893869, -0.0020829216, 0.1634114087, -0.0944419131, 0.0452886373, -0.1586003304, -0.1005795375, 0.1079950184, -0.0180749949, -0.0925058722, -0.3217693567, -0.3167040944, 0.0103495764, 0.0719176084, 0.2382703274, 0.3806715906, -0.3882874846, 0.0817264020, 0.5732004046, 0.1065767929, 0.1557924747, 0.7267943621, 0.1699045002, -0.1107922867, 0.2649083734, 0.1549770236, 0.0983915254, 0.0981590897, 0.3106861413, -0.4147590101, -0.1377957761, 0.3240867555, 0.2884353697, 0.4496093690, 0.2614431679, -0.0326205604, 0.0532001220, 0.7093316317, -0.1517528892, 0.5132709146, -0.0433198102, 0.8335769773, 0.4374457598, -0.1769317836, -0.1252430826, 0.2562993467, 0.3066571057, 0.5377603769, 0.0019279516, -0.1203941330, -0.1946391016, 0.3178580999, 0.3564800918, 0.0782765225, 0.9454144835, -0.0816838145, 0.1479880959, 0.2904371917, 0.1209044978, -0.0638686568, -0.1556941271, -0.3084368110, 0.1653561890, -0.1120870560, 0.2043149322, 0.2044869214, -0.0864891112, 0.3780528009, 0.3813659847, 0.1015922502, -0.0726836473, 0.0162005071, -0.0558597557, -0.2027004212, 0.3183533847, 0.1034209430, 0.0041207345, -0.0686696097, -0.0707053393, -0.0570583865, -0.0563854054, -0.0921332762, -0.1292699277, -0.0758473948, -0.0856733248, -0.1671442688, 0.2183032185, -0.0218065884, -0.0922549292, 0.1895879209, 0.1089526266, -0.1819878817, -0.1059776098, -0.0520856194, 0.0563939810, 0.1172615960, 0.2074911743, 0.0717494115, -0.1446777433, 0.2552900314, 0.0346722826, 0.0326476172, 0.2304004133, -0.1215795577, 0.0512465984, -0.1552249044, 0.1890778691, 0.0558955036, 0.1647282094, 0.0674367175, -0.1350864172, 0.1470802128, -0.0913967863, -0.0315490812, 0.0037110520, 0.0417861491, 0.0057596900, -0.0707942024, 0.1053171381, 0.1060063615, -0.1184423044, 0.1495374441, -0.0461347364, -0.1670251936, -0.0633799210, -0.1238226220, 0.0349483341, -0.1130669191, -0.0455156639, -0.1027246341, -0.1469894350, -0.0603698455, 0.0030604519, 0.0129716489, 0.0482578874, 0.0415040702, 0.0401347205, 0.0762765333, -0.1220388189, 0.1224522144, -0.1118456498, -0.0395215340, -0.0167224091, 0.1185173243, 0.0376033708, -0.1180058792, -0.0840729699, 0.1452386081, -0.0776972696, -0.0386979580, -0.0837158039, 0.0122470064, 0.1035011858, 0.0083536888, 0.0023528712, -0.1720308363, -0.0653446242, 0.0991984755, -0.1672337949, 0.1538189054, -0.1152460203, -0.1559464782, 0.0977807790, -0.0723926052, 0.1570143402, 0.0576750301, -0.0669415072, -0.1121063754, 0.0276591554, -0.0795413032, 0.0938279629, 0.0230747685, -0.1056448296, -0.0170400739, 0.1768091619, -0.0892829970, -0.1331130415, -0.0689192414, 0.0713417009, -0.0605259277, 0.0793920234, -0.1354597211, 0.1960374713, 0.1472333223, 0.1334444880, 0.0204144772, 0.0386696011, 0.0455166847, -0.0468001105, 0.1485031694, 0.1362363994, -0.1815653592, 0.0116962045, 0.1140761673, -0.0968845487, -0.0264501665, -0.0341832303, 0.0073639597, 0.0785828233, 0.0316344649, -0.1634711325, 0.0231034216, 0.0817223787, -0.1470748931, 0.0584020913, -0.1376637816, -0.0569334552, -0.1291609406, -0.0694298893, 0.0031308755, 0.1350215077, 0.0953103006, 0.1564208567, 0.0400958881, -0.1237442940, -0.0690763742, 0.0978948250, -0.0410926789, -0.0275172219, 0.0266529992, -0.1629417986, -0.0631709173, 0.0809726641, 0.0960395038, -0.1567134559, -0.1542509645, -0.1250969619, -0.0666478351, -0.0470408350, 0.1373172998, 0.1636532396, 0.1465908289, 0.1436227709, -0.1036562771, -0.1621401757, -0.0196399353, -0.1270372272, -0.0798891708, 0.1298852563, 0.0013647380, 0.1242686510, -0.0790510103, 0.1732398868, -0.1502151936, -0.1095193848, -0.1661052257, -0.1518879086, 0.1758243740, -0.0680722520, 0.0173933879, 0.1669164747, 0.1479491442, 0.0614701323, 0.0116501171, -0.1262525916, -0.1715437472, 0.1572403163, -0.0058962004, -0.1521073580, 0.0906418487, -0.1210730374, -0.1244738325, 0.0251806881, -0.0918524191, -0.0784838945, 0.0661283880, -0.1716002524, 0.1602626294, -0.1131767556, 0.1735296398, -0.1217931733, 0.0681117997, -0.0443556160, -0.0197526049, 0.0214327388, -0.2457894236, 0.1094834507, 0.3544975817, -0.0143382438, -0.3448798358, -0.2170473188, 0.1608314216, -0.1731333286, -0.1489391178, -0.0308979787, -0.1351445913, -0.1620148122, -0.0120622087, -0.0543475635, 0.0872228220, 0.0973951221, 0.0622175261, 0.0092840642, -0.0098461341, -0.0286254305, 0.1103737131, -0.1565261185, 0.1795295328, 0.1692701727, 0.0212011598, -0.0472951494, 0.1960587949, 0.2015437633, -0.1225778311, 0.2309009284, 0.0819651261, 0.0809329674, 0.2452285588, 0.0859438553, -0.0579209551, 0.1705078632, 0.0130264238, 0.1318580508, -0.0259751286, -0.0235156864, 0.0154261356, 0.0388658121, -0.3199286163, 0.0084530720, 0.1767356843, -0.1004870757, 0.2358172387, -0.1726938337, 0.0655741170, -0.0722253621, -0.1034385636, -0.1275915205, -0.2192713171, -0.1445309371, -0.0248263124, -0.0397983827, -0.2202716321, 0.0813070089, 0.1478756368, -0.0378576852, 0.1862139404, 0.0759133995, 0.1476515085, 0.2488853633, 0.0846706852, 0.1597646177, 0.3149989247, 0.1582208723, 0.0530902706, -0.0918995440, 0.0218596905, 0.1112830192, -0.0864641517, 0.0835618675, -0.0870686248, 0.0088612624, 0.1113453656, 0.0910556689, 0.3120243549, -0.0124841463, -0.1481108814, 0.1051307321, 0.0419135056, -0.0545695871, 0.0972429067, 0.1937409043, 0.1750455052, 0.0515660793, -0.0709278807, 0.0506459177, 0.2958004177, 0.2103611529, 0.1080949605, -0.0433616862, -0.1109131351, 0.0539601333, 0.1495700777, 0.2212909162, -0.1463646293, 0.1877548546, 0.0569214933, -0.0698021352, 0.1125580519, 0.0684319586, 0.2075468898, -0.1766745895, 0.0476794243, -0.0784641132, 0.0962474197, 0.0611024573, -0.0681366473, -0.1422313750, 0.2391790152, 0.2116032839, -0.0007798505, -0.2096186727, -0.1295767128, -0.0122243147, -0.1924163997, -0.0475451089, -0.0117025878, -0.1171921194, -0.1125705540, 0.1201598942, -0.1077608615, 0.0417151600, 0.1067787334, 0.0222696066, 0.0703576207, 0.1129221767, 0.1952003986, 0.1546445042, -0.1090866625, -0.0886485502, -0.0204469878, -0.1524580717, -0.1151660457, 0.1230304986, 0.1508144438, -0.0291699413, 0.1885251552, -0.0129950587, -0.0061168172, -0.0442812257, 0.1648982465, 0.1066568866, -0.0702747777, -0.0470335707, 0.0153509425, -0.0094005112, 0.0501976907, 0.0310495012, -0.0882165581, -0.0859238505, 0.1675461084, -0.1543762833, 0.1752297580, 0.0640616938, -0.2192636430, 0.1536387950, 0.0024238836, -0.0579033270, -0.1971586496, -0.0642626137, 0.0335598215, -0.1749427468, 0.0045723212, 0.1074768156, 0.1137418300, 0.0690286085, -0.1634934396, -0.0498159528, 0.1291366965, 0.0879363567, -0.0813866258, 0.1401266903, 0.1624180675, 0.1164572760, -0.1152304262, 0.0738477781, 0.0117375767, 0.1222038046, 0.0945528075, 0.0209280290, 0.0324952006, -0.1085016653, -0.0532838069, 0.1177621558, -0.1063507795, -0.1008176059, -0.1115671173, 0.0522420704, -0.1003092378, 0.0447936319, 0.0373518318, 0.0095064631, -0.1261011362, 0.0437439121, -0.1266267896, 0.1133538038, 0.0291673932, 0.1659576744, -0.1390553415, 0.0642030612, 0.1766829491, 0.1785479188, 0.0183573216, 0.0509707667, -0.1299665421, -0.0006187119, 0.1042085141, -0.0137921823, -0.0136123775, -0.0990104452, 0.0938954353, -0.1143255010, -0.1210499629, -0.0224663019, -0.0001284685, -0.0442516133, -0.1416708976, 0.0866409168, -0.1050226986, 0.1481305510, 0.1320867091, -0.0519231744, 0.1068590283, 0.0877852067, 0.0631518960, -0.0422051959, 0.0085385265, 0.0242361855, -0.1036795378, -0.0142147122, 0.1105111092, -0.0600059740, 0.1206642389, -0.0480816290, 0.1190043911, -0.1529398710, 0.0216334779, -0.1123882905, -0.0420579985, -0.1761635542, 0.0969982669, -0.0251967702, -0.1363108754, 0.1249017492, 0.0928619951, -0.1093879566, -0.0840877220, -0.0530375056, -0.1469646096, 0.1649956256, 0.1088866964, -0.0672679767, 0.2207900733, -0.0944183394, 0.1150633320, 0.0907947645, -0.0152769964, -0.0394340307, 0.1064071730, -0.1792789847, 0.0138637340, 0.1479929835, -0.0575414784, 0.0040349020, -0.1186988801, 0.1780043989, -0.0388311632, -0.1324598491, -0.1783533394, 0.1755395532, 0.0367786735, 0.1121182963, 0.0174081456, -0.1365242898, -0.1130356118, 0.0033796879, -0.1901725829, -0.1163274795, 0.0039426051, 0.1667010337, 0.1087398306, 0.1915055364, 0.1955570877, -0.0473243780, 0.1245851666, 0.1449663937, -0.1827061772, 0.1240098327, 0.1663223505, -0.0141341621, -0.1400019825, 0.0402357876, -0.1344061345, 0.0219684336, 0.1604028046, -0.1423199922, -0.1196079552, -0.0422693789, 0.0592839606, 0.1817865223, 0.0834644288, 0.1712036580, -0.0544426218, -0.0477600060, -0.0334704854, 0.1606127620, -0.1672088355, 0.0102730356, 0.0588168167, -0.1259528995, -0.0418407209, 0.0357530899, 0.0283583980, -0.0359657854, 0.1167644933, 0.0860628784, -0.0041129314, 0.1679274738, -0.0752935782, 0.1245274618, 0.1024783403, -0.0475777127, -0.1282095611, -0.0072077089, 0.0082526766, -0.0651604012, 0.1802877486, -0.0514498204, -0.1229585409, -0.1137425676, -0.0889515951, -0.0484282486, -0.1623699367, 0.1127260029, 0.0780608207, -0.0701090097, 0.1027759761, 0.0239291433, -0.1248650476, -0.0906387269, 0.1459484994, -0.0363804623, -0.0312850252, -0.1616537422, -0.0355138332, 0.0192512516, -0.0866152048, 0.0886609182, -0.0874993205, -0.0263793617, -0.0121963089, 0.0401488766, 0.0792892799, -0.1641485542, -0.1610600948, 0.1088987067, -0.1209729984, -0.1211750358, -0.0548550338, -0.1635174006, 0.0833203271, 0.1180513427, -0.0663773194, 0.1172673330, 0.0669422746, 0.1352106631, -0.0886134952, -0.0712125376, 0.0476385541, -0.0723357350, 0.1088084355, -0.0543054827, -0.1479147226, 0.0925655067, 0.1813726276, 0.2174800187, -0.0286707822, -0.0251115933, -0.1204830334, 0.1922171563, -0.4119697809, 0.1170675680, 0.3148169816, 0.1076029614, -0.0702068955, -0.0996835902, -0.0335195474, 0.1693170667, -0.0588356480, -0.0632423237, -0.0365176946, -0.1083397716, -0.1034722924, -0.0849585086, -0.0192359015, 0.1233212277, -0.0126996748, 0.0147141917, 0.0396993868, -0.1071714312, 0.1596116126, 0.1511780471, 0.0325388461, -0.0091988454, -0.2001767606, -0.0883975774, 0.1664315164, 0.1426237971, 0.0008552276, 0.3381054401, -0.2049683183, 0.0055182399, 0.0671034977, 0.0736803040, 0.0304404441, 0.1407094151, 0.0375589766, -0.1454430073, 0.1119075790, 0.0621565580, -0.0424849056, 0.0106471898, 0.1940184087, 0.0873042196, 0.0319639109, -0.0481771044, 0.1730781794, -0.1505955160, 0.0607478507, 0.0158002637, -0.1832980365, 0.1312888712, 0.1341956556, -0.1704116613, -0.1382305622, -0.1226545572, -0.1137017012, -0.1150057614, -0.1049105227, 0.1038852930, -0.1222822815, -0.1091419309, -0.0196789466, 0.1063222066, 0.0926375315, 0.0894810483, -0.0553198494, 0.1085865200, 0.0688818693, 0.0012392702, 0.0681190118, 0.1590384841, -0.1211655736, -0.0923549905, 0.0002259031, 0.0966397747, 0.0620433837, 0.0074040173, 0.1369573176, 0.0880769417, 0.1019392461, 0.0351857841, 0.0083375676, 0.1528146118, 0.0350055993, -0.0367216207, 0.0267048962, -0.0950561166, 0.1170861796, -0.1555909812, 0.1409427971, -0.1517217904, -0.1268779784, -0.0609442070, 0.1645990610, 0.1091164276, -0.1008699387, -0.0844832137, 0.1413406730, -0.0425993688, 0.0555413365, -0.1530850083, 0.0700190365, -0.1417490542, 0.1242447421, -0.0312313475, 0.0480069444, 0.1631931365, 0.1608581394, 0.0429242253, 0.1640538424, 0.0899327844, 0.0190352928, 0.0584826469, -0.1306674778, 0.1437773257, -0.0939953551, -0.1222200245, 0.1374800950, 0.0337426066, -0.0766314566, -0.0288721956, 0.1804572791, -0.1678510010, 0.1478371918, 0.0070955614, -0.0259468183, 0.2279949784, -0.2326593697, 0.1208035871, 0.0903188363, -0.1235076115, 0.1190430224, 0.1130333543, -0.0157652628, -0.1944720745, 0.1511809230, -0.0463468991, 0.0314861573, 0.1217337996, -0.0368492380, 0.1623285562, 0.1454928964, -0.2206897736, -0.3774092793, -0.0995638892, -0.0236805007, -0.1210973412, 0.0250138678, 0.1754723936, 0.2089790851, 0.1101911068, 0.0806364492, 0.0903881863, -0.0976768881, -0.1493821740, 0.1984938830, -0.0952830687, 0.0865476131, 0.1293039024, 0.0869628042, -0.0719969049, -0.0884660855, 0.0911116824, -0.1462204754, 0.1451656520, 0.0245653689, -0.0870623142, 0.1202837452, 0.0315063559, -0.1914721578, 0.0613049306, 0.0031164919, -0.1713092476, -0.0810790956, -0.1338371783, 0.0854187757, 0.0910735279, 0.0631237850, -0.0277518295, -0.0146231996, 0.0746053681, -0.1277836710, -0.0686802790, 0.2441909313, -0.0120567428, -0.0408888124, -0.1020118147, 0.0716360211, 0.0165426116, -0.1068264395, -0.0565923825, -0.0188810397, -0.1167863607, 0.1316118538, 0.0978558362, 0.0503896438, 0.0072271447, -0.0512635484, 0.0047304370, 0.0005561317, 0.0333060212, 0.0076409173, -0.0620387904, 0.0191106107, 0.1464273334, -0.0363006555, -0.1103264689, -0.0559443012, -0.1604700536, 0.1381025165, 0.1209880561, -0.1402329952, -0.1929235160, 0.1152355671, 0.1578108221, 0.0960363522, -0.0314517021, 0.0541864224, 0.0945584550, -0.0978147909, -0.1093763933, 0.0100389682, -0.1231063306, -0.0199904162, -0.0591013096, 0.0393470190, 0.0963886827, -0.1012828276, 0.0887356699, 0.1240114868, -0.1007281169, -0.2006628811, 0.0021788797, 0.0673877746, -0.0263503660, -0.0777113885, -0.0797216892, -0.1401346624, 0.1748638749, 0.1751723588, -0.0454451852, -0.1897729337, -0.0853328183, 0.0462019145, 0.1003158540, -0.0918623731, -0.4356507063, -0.0449323989, 0.0894194767, 0.0481126755, -0.7562004328, -0.0850201920, 0.1405538023, -0.0257073715, 0.0024463832, 0.2013189197, -0.1148007065, 0.1706610173, 0.2035325766, -0.1624117345, 0.0047629173, -0.0275727455, -0.0185133331, -0.1172323152, 0.0649743900, 0.1450780779, -0.0236112047, -0.1561276615, -0.0733195692, 0.0176582579, 0.0451450087, -0.4413570166, -0.1391333193, -0.0512437411, -0.0343932509, -0.0985073671, -0.1953036934, 0.0582169294, 0.1724059284, -0.1949744225, 0.0661412627, 0.1447168738, 0.0121649690, -0.0557446517, -0.1168914661, 0.1339384466, 0.0857013911, -0.0170662012, -0.1028018519, -0.1842517257, 0.1658498645, -0.0516994260, -0.1669343114, -0.0426080078, 0.0348369628, -0.0053558671, -0.0230364520, -0.1275331676, -0.2975155413, -0.1395160407, 0.3026529253, 0.0418389477, 0.0379501432, 0.1318153441, -0.0358599164, -0.0469036810, 0.1298190802, 0.0971025750, -0.0758114681, -0.0568979792, 0.0759130716, 0.0000721207, 0.1038497314, 0.1403962523, 0.2273311764, -0.0151655115, 0.0518210605, -0.0048639616, -0.0842159539, 0.0821853057, 0.1476940215, -0.0801230818, -0.0356027856, 0.1220573559, -0.0947719142, 0.1644279659, -0.1572411209, -0.0234492421, 0.1472036093, -0.0713037699, 0.0724215358, -0.0631890595, 0.0340128578, -0.1037025079, 0.0780707225, 0.0990552083, -0.2243729681, 0.1289453804, 0.0476028696, 0.0670220703, -0.0119919609, 0.0943420157, 0.1527911872, -0.1718644947, -0.0548316129, 0.1183250174, -0.0014259475, 0.1727416962, 0.0878778175, 0.1001870707, 0.1210667342, -0.1468115449, -0.0499906465, 0.0801370665, 0.0476954021, 0.1280635595, -0.0267228205, 0.1722365022, -0.0840211362, -0.1608860642, -0.0667975768, -0.0972329676, -0.1261036396, 0.0906635970, 0.1033501476, -0.1107472852, -0.1863608211, -0.1271304190, -0.1204326227, 0.1108650044, -0.0216808412, -0.1111906916, 0.1282252669, -0.2052174956, 0.1294735819, 0.1015249267, -0.1257068664, 0.0270830058, -0.0575771183, 0.1163932756, -0.0273233484, 0.1421385556, -0.0702030659, -0.0420518257, 0.0013039892, -0.0441986620, 0.1082854718, -0.0633788183, 0.0896339267, 0.0221833196, -0.1093509495, -0.1970960200, 0.0980275944, -0.1403966546, -0.0986197665, -0.0700411499, -0.0711169392, 0.1354985684, -0.0664167553, -0.0449462347, -0.0854782313, 0.1008975953, -0.0588922575, 0.1333505511, -0.0607787333, -0.0310808513, 0.0288424715, 0.0546019040, 0.1035689414, 0.0189393368, 0.1492461562, -0.1020959765, 0.1150185689, -0.1710840315, 0.0775192082, -0.1197657734, 0.0186740942, -0.0463763140, 0.1624360681, -0.0312432554, -0.0076088896, -0.0241551232, -0.0752487704, 0.1190816686, 0.0071651321, -0.0432995483, -0.0632745773, -0.1390156448, 0.0844581947, 0.0829413012, -0.0586272143, 0.1421145350, 0.0208283886, -0.0901413560, -0.1718815714, 0.0739000216, 0.0893798396, 0.0127262352, -0.2380744368, 0.1870023310, 0.1260870099, 0.1803375930, -0.2156429142, -0.0872842893, 0.0072325766, -0.1112220660, -0.1527263522, 0.3012639284, -0.3279391825, 0.3316078782, -0.0110516297, -0.4012130201, -0.5110705495, 0.1584527194, -0.0861261189, -0.0414234623, 0.1082174629, 0.1541156322, -0.0091552977, -0.0553754345, 0.1129583642, 0.2094669789, 0.2900994718, -0.1809853315, 0.0452406481, 0.1655126959, 0.0596764348, -0.0619417056, -0.0747844800, 0.1083118990, 0.0898720920, -0.0214575063, 0.0252282098, 0.1033583805, 0.0516869947, 0.0084442860, 0.2307240516, -0.2234808356, 0.2334421873, 0.0451485328, 0.1444381177, 0.1229535639, 0.2682182789, 0.1173022315, -0.2560138404, -0.0165123940, -0.0036816872, 0.2748685181, 0.1572688669, -0.2065586001, -0.0795060694, 0.1003388092, 0.3249633312, -0.0208068583, -0.1628586650, 0.1234664097, 0.0300537609, 0.0109340902, 0.1331259906, -0.1769136488, -0.1689252257, -0.1595997214, 0.0500613935, 0.2081756145, 0.0035859244, -0.1424727887, -0.0172499046, 0.1522949785, -0.0408434272, -0.0559605993, 0.0292762760, -0.3120557964, 0.0740347505, -0.1205470785, 0.1341310889, -0.0367038324, 0.0750811249, 0.0258277878, 0.1181739345, -0.1097574234, -0.0996960327, 0.0247055236, -0.1376583278, 0.1159651056, 0.0380827151, -0.0803073496, -0.0019122415, 0.0417272784, -0.1195038781, -0.0512053780, 0.0079840971, 0.1293412000, -0.0834909603, -0.0333833583, -0.0195326786, 0.0602611676, -0.0545248054, -0.0603440590, 0.1057655960, 0.0983723700, -0.0760831088, -0.0117528690, -0.0255653169, -0.0152146779, -0.0266905259, 0.0122311600, 0.0279653780, 0.1821624339, 0.1252799481, 0.1040028557, 0.1155536324, -0.1987085640, 0.1284938157, 0.0806939527, 0.1274788976, -0.0357942507, -0.2016667426, -0.0448127426, -0.3592246473, -0.0371862613, 0.1100310162, -0.0210956801, 0.0781505927, -0.1345208883, 0.1114483699, -0.0703638867, -0.2170584500, 0.0250304639, -0.0362346098, 0.0854961798, -0.1693836153, -0.1644206196, 0.0470824093, -0.1410122961, 0.0317936093, 0.1336876303, -0.2948091328, -0.1165734679, 0.0991763696, -0.1867285818, -0.1381305158, 0.0519500487, 0.1317705214, -0.0714731514, -0.1244979724, -0.1362365335, -0.0814808160, 0.0235873833, 0.0289452970, -0.1214336306, -0.1608128846, -0.1244882122, 0.1327601373, -0.0197276678, -0.1567569524, -0.1322358698, 0.0697195157, 0.0840910301, 0.0415726490, 0.0735036656, -0.0558246486, 0.0999836922, 0.1496625692, -0.0715406984, 0.0263097547, -0.1273410022, 0.1697615236, -0.1601121128, 0.1300335079, -0.0926081166, -0.0268818345, 0.0457958840, -0.0216807500, -0.1901339442, 0.0134727936, 0.0350411125, 0.0532069057, 0.0757684335, 0.0120479371, -0.0319245458, 0.0011863332, -0.0416401885, -0.1140327081, 0.1328431070, -0.1021511108, -0.1615649909, 0.1337860674, -0.0606033802, 0.0007661874, 0.0760046542, 0.1513721049, -0.0151651530, 0.0607406534, -0.0112575386, -0.0921489373, 0.0957446396, -0.0101923943, -0.1468769610, -0.1542282999, -0.1776035875, 0.1439574212, 0.0169867165, -0.1225953996, 0.1060993224, 0.0996588469, -0.0983159319, -0.1272330433, -0.0582507215, -0.0882411078, 0.1731507480, 0.0342616029, 0.1802996844, -0.1258345842, 0.0225588977, -0.1185556129, 0.1240073293, -0.0245373417, 0.0905938745, 0.0512274690, 0.0400179438, -0.0442462377, -0.1591339111, 0.0056615351, 0.0142999953, -0.0570362359, 0.0471350513, 0.0239288975, -0.0751309469, -0.1648115814, -0.1654296666, 0.1662322283, 0.1658060402, -0.0603527240, -0.1025235131, 0.1640049517, 0.0214697141, -0.1263308376, 0.0080420133, -0.0848874748, -0.1683046073, 0.0718416646, 0.0998302251, -0.1334411651, -0.0146537432, 0.0779239461, 0.1048761532, -0.0449236557, -0.1198611110, -0.0353792496, -0.1037426740, 0.0802328512, -0.2328102291, 0.1375849843, -0.2065635622, 0.1026086733, -0.1136702895, -0.0733477324, 0.1559001207, -0.0969315991, 0.0828707591, -0.2448194623, 0.0414058827, 0.0818140134, 0.0064994246, -0.0174601395, 0.2710378766, 0.2541113794, -0.1214103624, -0.2223670781, 0.1365345269, 0.1375747323, -0.1234284267, 0.1677895933, -0.0535385124, -0.0028678137, 0.1685103476, -0.1200420409, -0.0798932761, 0.0207341816, 0.4066389799, -0.1497952491, -0.0211169701, 0.1557289362, 0.2311207652, 0.0214176718, 0.1872289181, 0.1762024760, 0.1262595505, 0.1726064235, -0.0184688643, 0.0705794320, -0.0024665366, 0.1180044487, -0.0501326956, 0.1621661335, 0.0752301961, 0.1705438644, -0.1771590114, 0.1015324965, -0.0845317096, 0.0866835937, 0.1283290684, 0.0133475140, -0.1115702018, -0.2542233765, -0.0405385308, 0.2507516444, 0.0598363504, 0.3125595152, 0.1954144090, -0.1283126771, 0.1281678826, 0.1669184119, 0.0977905318, 0.0586137660, -0.1552828401, 0.0893414915, -0.1586714983, 0.0144541413, 0.0536793694, -0.1166147217, 0.0048747328, -0.0680512711, -0.0530982688, -0.1171596795, -0.0027940711, -0.1366504133, 0.0764597133, -0.0757139325, -0.1188323721, 0.1461995691, -0.1552928239, 0.1104202047, -0.0936373249, 0.0600764267, -0.1024682969, -0.0029355425, -0.0436452851, 0.0413150787, 0.1661104411, 0.1018842384, -0.0828777328, -0.1176739782, -0.0040086363, 0.1001236960, 0.1127367616, -0.0941842049, -0.0487646870, -0.1407757998, -0.1042879149, -0.1102757081, 0.0578455254, -0.0380529054, -0.0204457939, -0.0892101005, 0.0732227117, -0.1608332545, 0.0065298704, 0.0816235095, 0.0687497407, 0.0770721436, -0.1045747250, -0.0358501859, -0.1203185767, -0.1176289022, 0.0470709465, -0.1447528005, -0.1578606963, -0.0607259609, -0.0481989980, 0.1054994911, 0.1486456990, -0.0196225047, 0.0514745265, 0.0563769415, 0.1121585816, 0.1484997422, -0.1213189960, -0.1770518124, -0.1260884404, -0.2104588151, -0.0199968349, 0.1637032628, 0.1822352260, -0.0544540212, 0.0477915667, 0.0946982503, 0.0108885188, 0.0816768482, -0.1316297501, -0.0364300646, 0.2573658824, 0.0265818071, 0.1581360549, 0.1360474974, 0.1549937129, 0.0584869497, 0.1685365736, -0.0967518911, -0.1835449040, -0.1370057166, 0.1044770479, 0.0808605030, 0.0274678357, 0.1616200805, 0.1279773116, -0.0626554042, -0.0460488684, 0.0853880048, 0.0674449354, -0.1342942715, 0.1258941442, 0.0642441362, 0.1314833760, 0.1434870660, -0.1480902880, 0.0350343734, -0.0647167191, 0.1497780532, 0.0117836371, 0.1390623301, -0.2127958685, 0.1084149405, -0.0612812825, 0.0755671635, 0.1215060577, 0.0527538694, -0.1085895225, 0.0198281910, 0.0917534381, 0.0336326174, 0.0268139988, 0.1093110219, -0.0503454022, -0.1446575224, 0.0902832597, -0.0253681969, 0.1222110614, -0.0736857578, 0.0282770228, -0.0347226374, 0.1185159758, 0.0753949434, -0.0444553755, 0.1473889053, 0.0588500500, -0.0661278740, -0.1045605615, 0.1750720292, 0.1674787998, -0.1078308374, -0.0974878818, -0.1504275352, -0.0115888380, -0.0503041893, -0.0119218612, -0.2019515634, 0.0195687413, -0.0805700719, 0.0266326796, -0.1456587911, -0.0894287825, 0.1138800755, 0.0695973635, -0.0428082980, 0.0926635414, -0.1448149681, 0.0931878909, 0.1388602853, 0.1865398288, 0.0442589074, -0.1563801318, 0.0415683016, -0.1432783306, -0.1031636298, -0.1221957952, -0.0818581432, -0.1597753018, -0.1032809392, -0.0879414752, -0.1661024690, 0.0450592488, -0.0641461238, 0.1401766688, 0.0792184696, 0.1384169906, -0.0659639090, -0.0894662738, -0.0327154957, -0.1213905215, -0.0819949806, -0.1009854078, -0.1406500787, -0.1219286919, -0.0595147312, -0.0094425967, 0.1092768088, 0.0352707021, 0.0330711566, 0.1540729105, 0.1456249952, 0.0065860525, -0.1241157502, 0.1799431294, 0.0564113036, 0.1437038481, -0.0099819591, -0.1361251324, -0.0285175387, 0.0877502784, -0.0484807603, -0.0954202563, 0.0592284389, -0.0886369795, -0.0223468039, 0.1383660138, 0.0142349722, 0.0837732404, -0.0603991263, -0.1825190634, -0.1738966703, -0.0839619190, 0.0554774366, 0.1318486035, 0.1544467211, -0.0588741153, -0.0002291661, 0.1488390118, -0.0947834700, 0.0557048246, -0.0906761140, -0.0672957450, -0.1550479233, 0.0378977023, 0.1593831629, 0.0412500985, -0.1621525884, 0.0621193163, -0.1179926768, 0.0621059835, -0.1658481359, 0.1427483857, -0.1144847348, 0.1551559269, 0.0165395234, 0.1154640317, 0.0626912639, -0.1083390415, 0.1017904058, -0.1473489702, -0.0539674275, -0.1589711756, -0.1183469072, 0.0508220382, 0.1431617290, -0.0321981274, 0.0670328736, -0.0956801996, -0.1233622208, -0.0213091355, 0.0747742504, 0.0659766719, -0.0037778604, 0.0068076341, 0.0382226668, -0.0093690418, -0.1628230959, 0.0206690971, -0.1021286696, -0.0721062645, 0.0680166632, -0.0687826872, -0.0030001032, -0.0588644519, -0.1538859606, -0.0639111549, 0.0270495228, -0.0390904844, 0.0216622353, -0.0013517499, -0.2770732641, 0.0644204021, 0.0826546401, -0.2318374664, 0.0079095019, 0.2772960365, 0.1202603728, 0.0287441369, -0.2005887479, 0.0558295473, 0.1158672199, -0.0382854268, 0.0318146572, 0.1481114775, -0.0935771018, 0.0144766746, 0.2256496251, 0.1240669042, 0.0664904565, -0.1834520847, 0.0936084613, 0.2173388898, 0.0315607265, 0.2094537020, -0.0194454454, 0.1888481230, 0.2082385868, 0.1380311251, 0.0950548798, 0.0256047212, 0.2407580465, 0.0448429137, 0.1416682303, 0.0267190654, -0.0967423841, 0.0091046132, 0.0125426343, -0.1739713252, 0.3386462927, -0.0359371714, 0.0634894297, -0.0132179745, 0.1139716133, -0.0030157617, -0.0939938203, 0.0381137915, 0.0021389099, 0.1124458760, 0.0698700175, 0.1884567738, -0.0763013810, 0.1628393829, 0.0431311466, 0.0254719649, -0.0385481790, 0.0218388923, -0.1205177829, -0.0172392521, 0.1280705780, 0.1022580713, -0.1109311730, -0.1016215757, 0.0060561243, 0.0233703591, -0.2402182221, -0.0273785945, 0.2162222564, 0.1044956520, 0.0135218110, 0.0829809085, -0.1050743535, -0.1253336072, 0.0202426538, -0.1185103133, 0.0158744827, 0.0509592891, 0.1986072212, -0.1242852956, 0.1395496726, 0.1977047324, 0.0538965017, 0.0653856397, 0.0569527820, 0.0599761456, -0.0444669239, 0.0717087835, -0.0958227813, -0.0540020838, -0.0821788013, 0.0430916287, 0.1689946800, -0.1544859260, 0.1112707928, 0.1192965731, 0.1909292787, 0.1645192951, 0.0529761352, -0.1992802173, -0.0096092466, 0.2309622914, 0.0765917003, -0.1484232694, 0.1384470165, 0.1767434031, -0.2087072283, -0.0558668822, -0.0037356073, -0.0892579183, -0.1838137805, -0.3269217312, 0.1649736166, 0.0145676816, 0.0299616233, 0.1064810231, 0.0765778646, -0.0075664362, 0.1094755977, -0.1151644364, 0.0918605849, -0.1311635077, 0.0074135056, -0.0044289618, 0.1128776968, 0.1411465108, -0.0212793816, 0.0823500678, -0.0478228703, 0.0153163765, 0.0539042577, 0.0902776495, -0.0836366564, -0.2626629770, 0.0806543306, 0.0295561384, 0.0551974513, 0.2283874303, 0.0414610095, -0.0649688616, -0.0272859614, -0.0730259195, -0.1499891579, 0.0650858134, -0.0576655790, -0.0039663301, 0.1184970960, 0.0838820115, 0.0616723113, -0.1722024828, -0.1960237175, 0.1444180012, -0.0531188585, 0.0812105015, -0.1371773630, 0.0234898869, -0.1598149091, 0.1356421858, 0.0625344887, -0.0631212741, 0.1633413732, 0.1480085552, 0.1486600637, 0.0628957599, 0.0130918762, 0.1208919287, 0.0566290282, 0.0912241712, 0.1416273713, -0.1128323302, -0.1282064468, 0.0371057279, 0.0576865487, -0.0966101959, -0.0628273115, 0.0660787374, 0.1542837918, -0.1821329147, 0.0842398778, 0.0872549340, -0.0979947522, -0.0255295709, -0.0837858319, 0.0444767028, -0.0872919559, -0.0229980536, -0.1249818355, -0.0027473513, 0.1281566620, -0.0455968380, 0.0239452161, 0.0024568653, -0.2558360696, -0.0523753688, -0.0098906523, -0.1271283776, 0.0690527484, -0.2394244820, -0.0011505737, -0.0612752400, 0.1786070764, -0.1569478959, 0.0290151779, -0.0862733796, -0.0670417324, 0.1440380067, 0.1831971109, -0.1081115156, -0.0971995965, -0.1005243734, -0.0940001458, 0.0555765927, -0.1964616925, 0.0584944338, 0.0163481776, 0.1378984898, 0.1881126910, -0.0847942755, 0.0784475729, 0.1924501806, -0.0036897666, 0.1028668210, 0.0131284464, 0.0503540449, -0.0903019011, 0.1763933450, -0.0128250541, -0.1599621326, -0.0079166442, -0.1019407585, -0.0419673249, -0.1704645604, 0.0197030026, -0.0005298948, -0.0855491832, 0.0573541597, 0.0758053064, -0.0280940104, -0.2332141399, -0.0685644746, -0.1495449990, 0.0805887729, -0.0804311782, 0.1775033772, -0.0204437766, 0.1912477165, 0.0665320978, -0.0614815205, -0.1838911772, -0.0059780851, 0.0980723277, -0.0375692695, -0.1682433784, 0.0839516595, 0.0682598874, 0.0343205966, -0.1559799910, 0.0675157830, 0.1771558374, 0.0359634981, -0.1784939468, -0.0062061334, 0.0069611054, -0.2156971991, 0.0710784644, -0.0213953536, 0.0214954820, -0.1501589417, -0.1831053048, -0.1721769571, 0.0390854403, 0.1633593142, -0.0295244250, 0.1367739439, -0.1604973376, 0.1488197893, -0.1186870411, -0.1310078204, -0.3015722036, 0.0736717656, -0.0313983634, -0.1512273997, -0.0485416092, 0.0424538255, -0.0184739213, -0.1975139230, 0.0439351462, -0.0663467869, -0.0775657371, -0.0401127748, -0.1125625446, 0.0886542648, -0.1195852607, 0.0688105151, -0.0825586170, -0.0545307249, -0.0037720781, -0.0832620636, -0.1299376041, 0.0458094031, 0.0335134752, -0.1284638345, -0.0539586656, 0.0299408492, -0.1883238107, -0.0412262194, 0.1677675545, 0.1173474789, -0.2313177735, 0.1752694249, 0.1400909573, 0.1182512119, 0.1135747582, 0.0742710009, -0.0242107864, 0.0820044279, -0.1932812333, 0.2209908813, 0.2025491744, 0.1282769442, -0.1173810139, 0.1653354019, -0.0783982426, 0.1717522442, -0.0447835922, -0.0838675424, -0.1609877497, -0.0462320521, 0.2012925893, 0.0435184203, -0.2505941689, 0.0677106082, 0.1239857003, 0.0833594501, 0.1798517704, -0.1279410869, -0.0944336727, 0.0424550064, -0.0354681760, 0.1147032380, -0.0383375213, 0.0736919343, -0.0318427756, 0.0206712391, 0.0369647332, 0.1812455356, 0.1906157434, -0.1135548130, 0.1867403239, 0.0964602679, 0.1481221765, 0.0875834674, -0.0411913730, 0.0432469137, 0.0366540030, -0.0588805936, -0.1280983537, 0.0803226978, -0.1191453487, 0.0491465293, 0.0041288687, 0.0111959567, -0.0494502075, 0.0168153159, 0.0867958143, 0.0167593658, -0.2071258128, -0.0198946800, 0.0629100949, -0.1683308631, -0.0453437790, -0.0418415554, 0.0571270660, -0.0587003753, -0.0741746426, -0.1340335310, -0.0047227545, -0.0635699779, -0.1065786108, -0.1700377613, -0.0030107903, -0.0948503166, -0.1525857449, 0.4939298034, 0.1580765098, 0.1252755821, -0.1026481315, -0.0257687885, 0.4612621069, 0.3045772910, 0.0086114816, 0.1850654185, 0.1792866737, 0.1749827266, 0.1141371280, 0.1313301027, -0.0052060117, -0.1087033972, 0.0973864347, -0.0927959010, -0.0104321418, -0.0437328182, 0.0596402213, 0.6340056062, -0.6410295963, 0.0938252285, -0.1479123980, 0.1237804294, -0.2747294009, 0.3766936362, 0.1151392385, 0.5741658807, -0.0811050087, 0.0684948936, -0.1424334347, -0.0277962834, -0.2208319455, -0.0883495808, -0.4118170738, 0.0100044636, -0.1397146434, 0.1514465213, -0.0675003976, 0.0817521065, 0.0046445169, -0.0670901388, 0.1638921052, 0.1225485578, 0.0890846252, -0.1074313372, -0.1350645721, 0.1074640453, 0.0606607124, 0.1076682582, 0.0476394147, -0.0051509738, 0.0952231586, 0.0138400970, -0.0562667139, -0.1759706736, -0.1306899190, -0.0626445785, -0.1874381751, -0.0379694365, -0.0283956043, 0.0555265881, 0.1399208158, 0.1012440771, 0.0782981217, 0.0298965666, 0.0104518114, 0.0734242201, 0.1421027929, -0.1206067279, -0.1661265641, -0.0387969241, 0.1051784828, -0.0073501077, 0.0203772839, -0.1142501533, -0.0232592747, -0.1006962955, 0.2205279320, -0.0626871735, 0.0031449895, -0.1379009783, -0.0742605701, 0.1459995210, -0.1715668291, -0.1461942643, 0.0674412325, 0.0581703708, -0.0570205785, 0.0929629654, -0.0967889577, 0.1485866904, -0.0262963213, -0.0310228299, 0.0269364677, 0.0562615544, 0.1056126207, -0.0122664133, 0.1690459847, -0.1307225674, 0.1453361660, 0.0751880556, 0.1709984839, -0.1225778610, 0.2131210566, 0.0623536371, 0.0182567742, 0.1996416152, 0.0241270717, 0.1274491996, 0.1891057342, -0.0730690062, 0.0103539778, 0.0840575770, 0.0529406220, -0.0746389553, -0.1468966454, -0.1299826950, 0.1666445881, -0.1044965014, -0.0676464736, -0.0555554070, -0.0099157821, -0.0261708852, -0.0304073002, 0.0563562140, -0.0482475348, 0.0570101067, -0.2789169848, 0.1077487245, 0.1670077741, 0.0714032948, 0.0034294543, -0.2004326582, 0.0905736685, -0.0974179506, 0.0114367325, 0.1283203065, 0.0744168609, -0.0669945925, 0.0269175991, 0.1082080156, -0.0519449785, -0.1175084487, -0.1383082271, 0.1261126995, 0.1334306449, -0.0125928447, -0.1793551892, -0.2736554146, 0.1240061894, 0.0064307395, 0.0331583433, -0.0803639814, -0.1306754500, -0.1108378321, -0.0211727135, 0.0486828573, 0.1028600186, -0.0673532784, -0.1159641296, 0.0993552282, -0.0786874518, 0.1255080700, -0.1328748763, -0.1584022045, -0.0977844149, -0.1936374754, -0.1955436915, -0.0157024208, 0.0414359048, 0.0439487360, 0.0075636199, 0.0185518041, 0.0175452866, 0.1578491032, -0.2225742638, -0.0605008602, 0.0299457293, 0.0718549564, 0.0254228190, -0.1114333943, 0.0524459928, 0.1080295444, -0.1412268430, 0.0854259878, -0.1895874292, 0.0273279604, -0.2430936992, 0.0564897023, 0.0545285568, 0.1447787583, 0.0086033158, -0.0050203600, 0.2083732784, 0.0823548436, 0.1101315916, 0.0784233510, -0.0809977204, -0.0023203080, 0.0399340466, -0.0135821840, -0.1158397794, 0.1211423203, 0.0143192764, -0.1052341908, -0.1355265081, -0.0886698812, -0.0833014399, -0.0686209500, 0.1531340480, -0.0467526577, 0.1080328599, -0.0393052287, -0.0129254805, -0.1525563300, 0.0986715779, -0.0202603936, -0.0740231723, 0.1862307638, -0.1015959308, 0.0702088922, 0.1024370044, -0.0885275602, 0.0915678516, 0.1669332832, 0.0949314535, -0.0741993636, -0.0260564815, 0.1587706506, 0.1236964315, 0.0582840331, 0.0459929891, -0.1688947529, -0.1093487069, -0.0183050241, -0.0001751563, -0.0927122980, -0.1190526858, -0.1035127938, 0.0037192409, 0.0403198600, -0.0848621726, 0.0637479350, 0.0585413538, -0.0543093346, -0.0057439106, 0.1214145347, 0.0723901838, 0.0234933589, -0.1681810170, -0.1266312599, 0.0820782557, -0.0872873664, 0.1720412523, 0.0727467984, 0.0765603185, -0.0061173276, -0.0284384731, 0.0896703228, 0.1055759639, -0.1758763641, 0.3244516850, 0.1565573514, 0.1363777220, 0.1112996936, 0.0295299888, 0.1603239030, 0.0821448341, 0.1162006557, 0.1825992763, 0.0313460492, -0.1578928083, 0.1068557054, 0.0786188319, 0.0569332130, 0.0252251867, -0.3753904104, 0.0638256818, -0.0167998858, 0.1076540053, 0.1325452775, 0.0180902500, 0.0228328407, 0.1065504178, 0.1448217779, 0.0437773578, 0.1853885651, 0.1793957502, 0.0101824198, -0.0312175956, -0.0215907171, 0.1735028774, 0.2007508725, 0.2325294167, -0.1545093656, 0.1780917645, 0.0605225228, 0.2300906032, 0.1862640381, 0.2413640022, 0.1110480055, -0.1512498558, -0.0723583698, 0.0270805005, -0.0877530202, -0.0936176553, 0.1876788139, 0.1622125804, 0.0890569612, -0.0515493676, 0.0194605682, 0.0208019558, 0.1089125499, 0.1137665734, 0.0979102105, 0.0673670322, -0.1654707789, -0.0941149220, -0.0950206369, 0.0213337708, -0.0172725320, 0.1302306354, 0.0650085211, -0.0511694811, 0.1158449724, -0.1170142666, 0.1337736994, -0.0655863062, -0.0957888961, -0.1187523082, 0.0731302053, 0.0049854303, 0.0736675411, 0.1598112434, -0.1425047368, -0.1703696102, 0.0998581797, -0.0836193562, -0.1430029869, 0.1615537554, 0.0345850810, 0.0280347690, -0.0597924367, -0.1815016121, 0.0467501432, -0.1464208215, -0.0896910354, -0.0740193501, 0.0919507220, -0.0640203655, -0.1446589082, 0.1245684624, -0.1452353299, -0.0193288215, 0.0063105309, -0.1671209335, -0.1408720315, -0.0215606354, -0.1693073511, 0.0334940851, -0.1286312193, -0.0046217488, 0.0780522972, -0.0391322263, -0.0573344268, -0.0435005799, -0.1478656679, 0.0049524563, -0.1817753911, 0.1591295153, -0.0485079810, 0.1537878513, 0.0248185787, 0.0009694120, -0.0638182387, -0.1215692386, -0.0980425477, 0.1065007374, 0.0674051642, -0.5094208121, -0.2067233175, 0.1939670891, 0.0741842762, -0.2938391268, 0.0931624696, -0.0434191227, -0.0802097172, 0.4147104323, -0.2149699926, 0.0675098747, 0.4257110357, 0.2579102218, -0.4157888591, 0.2086624056, 0.2221654803, -0.0138032241, -0.0649284720, 0.2880471349, -0.0449064299, 0.0541068986, 0.0465522259, 0.1535140425, 0.0366737619, 0.1729525924, -0.3964586854, 0.0862733275, 0.3880045116, -0.1249234155, 0.0855386183, -0.1062889546, 0.2453972250, 0.2643712461, 0.1137817353, 0.0038603018, 0.2553268075, 0.1978226751, 0.3182136714, -0.0063583800, 0.1291044354, -0.0812461227, 0.3477251232, 0.2395126075, 0.0444140323, 0.1888681054, 0.0891908854, 0.0932960287, 0.2606219053, -0.0016472876, -0.0003248979, -0.1123837456, -0.1705690175, 0.0886844844, 0.1057108268, -0.3183155656, 0.3093528748, 0.0731227249, 0.0588964373, 0.1991930008, -0.0518365055, -0.1478272229, -0.0103521021, 0.0351807214, 0.1086413562, -0.0112777175, -0.0522422530, 0.0437776037, 0.1666642874, 0.1129180118, 0.0509857424, -0.0167966839, -0.0865131915, 0.0415006056, -0.0744563341, -0.1449193209, 0.2361019850, 0.0198869854, -0.1278055608, -0.0705301836, 0.0746367350, 0.1120969951, 0.1441211104, 0.0166734308, -0.0681526735, -0.1198641807, -0.0019834796, -0.0453536361, 0.1153406352, 0.0184379723, 0.0751153082, 0.0672931299, 0.1769461632, -0.0625271276, 0.1665750295, 0.0703366920, 0.1561707258, -0.0549450368, -0.1241517141, -0.0951617360, 0.0502494089, 0.2197470069, -0.0062961634, 0.1812940985, 0.1057524830, 0.0078278007, -0.0566172637, -0.0191305559, 0.0497267470, 0.1539759189, -0.0047109127, -0.1224910244, 0.0592416115, 0.1370803565, 0.1654412150, -0.1488738656, 0.0525292866, 0.0875325277, 0.1232641935, -0.1002176851, 0.0502150245, 0.0996152982, 0.1184190735, 0.1815208644, -0.1076598614, 0.0271062665, 0.0432956442, -0.1229497045, 0.0259465985, -0.1224319711, -0.1700606644, -0.0998963937, 0.2727750540, -0.0322225206, 0.0600347258, -0.2265186757, 0.1702410579, 0.3274190724, -0.2640644610, 0.2664612234, 0.4786291718, 0.2160605937, 0.0113695450, -0.3204258382, 0.1030709594, -0.0666580573, -0.0965249538, 0.0869485736, 0.0727063119, 0.1621375978, 0.1395041496, 0.2850382328, 0.4634249210, 0.1996615082, -0.2759256363, -0.1721721143, 0.5630772710, -0.2001136541, 0.2684813738, 0.0764196664, 0.3549924195, 0.2538305521, 0.0312091410, -0.0139221428, 0.0762913525, 0.0101261688, 0.4129537344, 0.3135978281, -0.2300129533, 0.0059459060, 0.2452347577, 0.3015413880, 0.0633915588, 0.3467365801, 0.0051095686, 0.1962110400, 0.2423505038, 0.2304832935, -0.0305033922, -0.3592162132, -0.1625863761, -0.1660523117, 0.1942494959, -0.1911042631, 0.1113813519, -0.1831436902, 0.1097559333, 0.3238332570, -0.0299288165, -0.0076560015, 0.0621491820, 0.0552849695, 0.1238714010, -0.1758277863, -0.0336522721, 0.0157403629, 0.1171409935, -0.1333064884, -0.0624128282, 0.0098496834, 0.1190923527, 0.1298165917, -0.1385633051, 0.0533781499, 0.0279139187, -0.1029661000, -0.1279048622, 0.0770252869, 0.1524273902, 0.0763775036, -0.1715662926, 0.0283657052, -0.0716737360, 0.1129089370, 0.0467562191, 0.1394862235, -0.0584669113, 0.0089249983, 0.1283872277, -0.1498153061, 0.0290463511, -0.0556516536, 0.1309869885, 0.1527175903, 0.0185466185, 0.1800915450, 0.1466343999, 0.1713031381, -0.1121739373, -0.1450712383, -0.1201662198, 0.0906711146, -0.0612203330, -0.1162945405, -0.1073568389, -0.1547793150, -0.0199178904, 0.0399896577, -0.1296019405, -0.0179496258, 0.2005801350, 0.1087665781, 0.0437297486, -0.1682358980, 0.0254023541, -0.1272678077, 0.1037206650, 0.1118686199, 0.1634793133, -0.1134820804, 0.1914255619, 0.0757476389, -0.0372534320, -0.1618048549, 0.0817866772, -0.0814942867, 0.0783784837, 0.3617532849, -0.2214346975, -0.2693924904, -0.3415209651, -0.0284796525, 0.4612708390, 0.1355199367, 0.0246196520, 0.4750621915, -0.1930173635, -0.0688920692, -0.0562796146, 0.4070228636, 0.4081000388, 0.0012849115, 0.5459278822, -0.0610221811, -0.0405089222, 0.4876682162, -0.1951698661, -0.1706265509, 0.5949164033, -0.2521739006, 0.0114328153, 0.3867011368, 0.5037518144, -0.1627829820, 0.1727530509, -0.0380075127, 0.3535861075, 0.0107725644, 0.2123306245, 0.5104765892, 0.0905847698, -0.1639345437, -0.4121912122, -0.4691829681, 0.2815857232, -0.4630501270, 0.0486284867, -0.3642433584, 0.3404350579, 0.6761814952, 0.1166611761, -0.0995572731, -0.4467728138, 0.0234717578, 0.4624142051, -0.2465933859, -0.1002974659, 0.1926102489, 0.0439853817, 0.4287364185, -0.1776396930, -0.3358847499, 0.3895755410, -0.0244889408, -0.3055475354, 0.7356882095, -0.1150962487, -0.0852188990, -0.1917561740, -0.0148638347, -0.0109734749, -0.0902531371, 0.0084881419, 0.0703511536, 0.0232561436, -0.2109280676, -0.0083380155, -0.0601244867, -0.0537754707, -0.0381208807, 0.0306048784, -0.1026185676, 0.0249504652, -0.0025030524, 0.0845277011, -0.0913871899, 0.0228677802, -0.0212755986, -0.1150921211, -0.0915433764, -0.0982909128, -0.0865230635, 0.0966111422, 0.1025860310, 0.0547125787, -0.1169103682, -0.0589656644, 0.0434185974, -0.1230732724, -0.0237043202, 0.0862626508, 0.0631185472, 0.0177648738, 0.1644755602, -0.0212088022, 0.1614580005, -0.0742382109, -0.0567748249, 0.0668766350, 0.1177870557, -0.0430009142, 0.1892566085, 0.2084333897, 0.1286737770, -0.1017828882, -0.1384196281, -0.0848340169, -0.1792556047, 0.0084511274, 0.1584926844, -0.0255720466, -0.1592815369, -0.1151410490, 0.0604922622, 0.0764694810, 0.0215660427, 0.1191075742, 0.0595802777, -0.0677788854, 0.1567238420, -0.0242811665, -0.1323134452, 0.1044394299, 0.0204972215, -0.0981479436, -0.1556926072, 0.0221936200, -0.0246561766, 0.1259087622, 0.1490064859, -0.0340415649, 0.1110337377, -0.0228270236, -0.1046647131, -0.0541550331, -0.2017397732, 0.0604264475, 0.1737069637, 0.1414217204, 0.0903150141, -0.0149279870, 0.0177499820, 0.1441882253, 0.0055072829, 0.1481552273, 0.0391402766, 0.0047949520, 0.0563604087, -0.0773527250, -0.0218355600, 0.1473113894, 0.0655114576, 0.0558227338, 0.1007524133, 0.0984145254, -0.1037141010, 0.0923931152, 0.0225329176, -0.1440549493, 0.0791811198, 0.0033307776, 0.1395421773, 0.0544367768, 0.0743451267, -0.0060902196, -0.1270024627, 0.0105339475, 0.1820632666, -0.1911770105, -0.1341612190, -0.0170166828, -0.2132381350, -0.0334218331, 0.1410358250, -0.1565676332, -0.0122976396, 0.0532394610, 0.1512656361, -0.0330263935, -0.1350414008, -0.0056501734, -0.2503478825, -0.0378104672, 0.1602192372, -0.0069322614, 0.0986879319, 0.0878447592, 0.0972320884, 0.0872599185, 0.1145331934, 0.1131030247, -0.0360083133, -0.0336829126, 0.0868905932, 0.0120332763, 0.0373234712, 0.0541902855, 0.2004336119, -0.0485409163, -0.0531864800, -0.0845261663, -0.0518541150, 0.1146634817, 0.0141192339, 0.0358345211, 0.0048720343, -0.0804744810, -0.0387640968, -0.0213900264, 0.0506774969, 0.0596436858, 0.1795895994, -0.0210259706, -0.0640144944, 0.1729189008, 0.0115842931, 0.0837797225, 0.0239559598, -0.0413070619, -0.1079761013, 0.0564620197, 0.0187457949, -0.1656938344, -0.1538860798, 0.0997140557, 0.1119578108, -0.0586737208, 0.0283705276, 0.0979932770, 0.0897166282, 0.0983311832, 0.1469577849, -0.0239112563, 0.2034034282, -0.0221474934, -0.0467228368, -0.0736154988, -0.0225155707, -0.1310328543, -0.0903053880, -0.1445617676, -0.0286764223, -0.1133249030, -0.1907379925, -0.0227247495, 0.1026369929, -0.0740363300, -0.0523178652, -0.0936834365, -0.0081120022, 0.2567339242, 0.0185142849, 0.1102616489, 0.0252817664, -0.0032496261, 0.0182047188, 0.0047726510, 0.0565504469, -0.1290834993, -0.0334195942, 0.0724912360, -0.2438802570, 0.0592967533, -0.2913335562, 0.0533905216, -0.0976511687, -0.1712706387, -0.1582295001, -0.0925567150, 0.0063927905, -0.1582384408, -0.1138324142, -0.0127686728, -0.0596104339, -0.1582639068, -0.0393992066, 0.1145799607, -0.3006840348, 0.1277609766, -0.1761197150, 0.1179294959, 0.0824349523, -0.1511949897, -0.2724422514, 0.0749174580, 0.2007461786, 0.0950378999, -0.0053249435, 0.1524113566, 0.2071679831, 0.0392514616, -0.0234114770, 0.1148860082, 0.1128816530, -0.0899060816, -0.0199886784, 0.0180470794, 0.1862973273, 0.2463717163, 0.0560741015, -0.1707223058, -0.0591447577, -0.2081724405, 0.0588523895, -0.0267562196, 0.0064455145, -0.0231242366, 0.0418483540, 0.0243560318, -0.0277099591, 0.0179705489, 0.1652350277, 0.0490955338, -0.1415236592, 0.1763495058, -0.1044390202, -0.0251560509, -0.3117793798, -0.3992094994, -0.2259733379, -0.0798658505, -0.6161817312, 0.3991807103, 0.0066646412, -0.1709605604, 0.4645565450, -0.1986895502, -0.4884711206, 0.2851076424, 0.5853179097, -0.1139089689, 0.2122256011, 0.4018413126, -0.0278129075, -0.0756676942, 0.6424480081, -0.3388053775, 0.0853335038, 0.3202017546, 0.0011572551, 0.3212474287, 0.4909814596, 0.0143986540, 0.1206155494, 0.2883619666, -0.2687493265, 0.5369556546, 0.0601652972, 0.4098028541, 0.5131962299, -0.0701472685, -0.2684597075, -0.2109728605, 0.0086053219, 0.3721985817, -0.3652945161, 0.0071472707, -0.1632249951, 0.5713596344, 0.4517073631, 0.0400579423, 0.3874765933, -0.3073488772, -0.2333175987, 0.4577806294, -0.1976371706, 0.0290453508, -0.1073696911, 0.1701370329, 0.4322358072, -0.0217555482, 0.0272047222, 0.6470115185, -0.0038893912, 0.1105159149, 0.5505887866, -0.1063796058, 0.0582981408, 0.1178578138, 0.0850067139, -0.1016116589, -0.2337100059, -0.2248118967, 0.1067837849, 0.0749514624, -0.0424625278, 0.2917500436, 0.0813888088, -0.1106701270, 0.0605401881, -0.2313527316, 0.2028349936, 0.2567582130, 0.0543106794, -0.0321599543, -0.0858889595, 0.1940697283, 0.0094619878, -0.1219678670, 0.1847808808, 0.0352110453, 0.1109481677, 0.2495330125, -0.0074403789, 0.3166022599, 0.0392401256, -0.1799428761, 0.0763005316, 0.2183891684, 0.0404576883, 0.2785240412, -0.1415603906, 0.0931382477, 0.2011327595, -0.0254088975, 0.1480671912, -0.0173328649, 0.2347725183, 0.1588858962, 0.1991144866, -0.0431836471, -0.0961600840, 0.0575908758, 0.0489939153, 0.1420316547, 0.4210046530, -0.0720106512, 0.1561698616, 0.2295971215, 0.0967571810, -0.0708844587, -0.4137681425, -0.0667271018, 0.0476997383, 0.1125334427, -0.0245331693, 0.0860364437, 0.0245073363, 0.2625499964, 0.3058997095, 0.1060504541, -0.0160962529, -0.1367137730, -0.0326589905, 0.1473772675, 0.0030694697, -0.1204982102, -0.0775623396, -0.0326629877, -0.0316416547, 0.0135134291, 0.1580990404, -0.1410863698, -0.1381450146, -0.1166987196, -0.0098367799, 0.0062897159, -0.0822158530, -0.0141210677, -0.0916751549, 0.0974206030, 0.1181476638, -0.1362304986, 0.1229878515, -0.1074053943, 0.0154400319, 0.1542873830, 0.0780938268, 0.0091153271, -0.0805206150, -0.1702731550, -0.1287144572, -0.1328020245, 0.0774198622, 0.1832876056, -0.0046174363, -0.1302786022, 0.0809444860, -0.0340379141, -0.0660398975, 0.0489919186, 0.1399080008, -0.1348209083, 0.0066344938, -0.0175920334, 0.0796912238, -0.1105771363, -0.0963296369, -0.1411596984, -0.1459908485, -0.1056222916, -0.0573540032, -0.0180227440, 0.1798097193, -0.1069187298, -0.0352222882, -0.0677533224, -0.1198282540, -0.0679748952, -0.1849178523, -0.0801018253, -0.0707202479, 0.0737291202, -0.0752927661, -0.0173395276, -0.0447381362, -0.1502733082, 0.0085960189, 0.0441973545, -0.0532070622, 0.1530555040, 0.1531465054, -0.1758375466, 0.1550159454, -0.0137414811, 0.0841040984, 0.1314126700, -0.0773169398, 0.0918567777, -0.0643795058, 0.0275372379, -0.0390769877, 0.1307621151, -0.0800924227, -0.1051841900, -0.1973750144, 0.1441383660, 0.1469296664, -0.1257202327, 0.1025949866, 0.1135097519, -0.0186985601, 0.0547405779, 0.0836898237, 0.0514707342, -0.0872444957, 0.1685771644, -0.1299985200, -0.1719792932, -0.1699171364, 0.0542401485, 0.1814955622, -0.1857797951, 0.1265156120, -0.1319779456, 0.1097515896, 0.1214638129, 0.0252796784, -0.1134267077, 0.0462104790, -0.1574566662, -0.0899662971, -0.1422946900, -0.0873332843, 0.1370462030, -0.0357620306, 0.1703401804, -0.0320353992, 0.0500828959, 0.0400420316, -0.0637313351, -0.1699103713, -0.0123523539, -0.0297637526, 0.1226812974, -0.1232640222, 0.1362947971, 0.1500752419, -0.0785534978, -0.1837133020, -0.2079054862, -0.0946302861, -0.0381152965, 0.0820044205, -0.0244284049, -0.1199502498, -0.0838797614, -0.1370128095, 0.1639600545, 0.1937234104, -0.1477017254, 0.1498802304, 0.0512922667, -0.0112112351, 0.1578269303, -0.0609807745, -0.0805219263, 0.1325385720, 0.0931695700, 0.0751265064, -0.0937792659, -0.1509197503, -0.0785874501, 0.0891286805, 0.1248010099, 0.1471469700, 0.0442160890, 0.0978970751, -0.0812060311, 0.0474107116, 0.1103332788, 0.1232195571, 0.0282815769, -0.0200002268, -0.0826202780, -0.1223194152, 0.0491464138, -0.1447999328, 0.1261361092, 0.1397984475, 0.1781076640, 0.1067973748, 0.0845663622, 0.0753848180, -0.1629928350, 0.1509820223, -0.0258210041, 0.0215634033, -0.0977216586, -0.1252664775, -0.1599928141, 0.0929171294, 0.1418533921, -0.0625274628, 0.0490164012, 0.1320051551, 0.1206379533, -0.0481828600, -0.0981172547, 0.1343008727, -0.1204202846, -0.0185144935, 0.0501303822, -0.0968553275, 0.0540893748, -0.0844255164, 0.0641839877, -0.1216961890, 0.0879323035, -0.1122110114, -0.0082363440, 0.1160601899, -0.0434216484, -0.1748072058, -0.0811005607, -0.0143853398, -0.1766942739, -0.0745235905, -0.0163493417, -0.1455998719, -0.0545037650, 0.1311390996, 0.0123008387, -0.1494933069, 0.1404350400, 0.0033663316, -0.0098443720, 0.0285717640, 0.0119090742, -0.0356940068, 0.0045531625, 0.0366808288, -0.1019734442, 0.0605931208, 0.1512202770, 0.1042798162, 0.0156256370, 0.1320568472, -0.0890816748, -0.0054220920, 0.1320902407, 0.0108066257, -0.1470028907, -0.0372455046, -0.0334973596, 0.0524956584, 0.1273363382, 0.1558507979, 0.1510501951, 0.0058644461, 0.0644925982, -0.0092480173, -0.1015678048, -0.1650462002, 0.1763549894, -0.0389719605, -0.0242077541, 0.0580895469, -0.0209747329, -0.0999034494, -0.0112593286, 0.1524090320, -0.1268419921, 0.1130335554, -0.1590686440, 0.1435581595, -0.0975621864, -0.0817499310, 0.1712933034, -0.0288143661, 0.0804044977, -0.0609276518, 0.2182960808, 0.0344084278, 0.0533418618, -0.0280649494, -0.0646670833, 0.2890902162, -0.0331708565, 0.1665290296, 0.1973360330, 0.0267542470, -0.0928005502, -0.0250185058, 0.0838773847, -0.0913490057, -0.0080599952, -0.1903486401, 0.0876806676, -0.1540361345, 0.0741555840, 0.1167313904, 0.1161585599, 0.0186203793, -0.0534669571, -0.0858785436, -0.0663987249, -0.1790782809, 0.1286997199, 0.1291792095, -0.0060778093, -0.1954247653, -0.0894348696, 0.0261501838, 0.1060568988, -0.0741064921, 0.0584678985, 0.1072874516, -0.1090861186, -0.1377569884, -0.0406636298, -0.0139415022, 0.1697037220, -0.0421659201, 0.0304238927, -0.1297214478, 0.0539821722, 0.0864394009, 0.0569556653, 0.0614893697, -0.0250603482, 0.0650001988, -0.0401267968, 0.2331417501, -0.0980570987, 0.0205424353, -0.0125068184, 0.0215962771, 0.1053936705, 0.0492964089, 0.0759050474, 0.0428363346, 0.0328041278, 0.0451547354, -0.0618588477, 0.0761893541, 0.1001579016, 0.0846438035, 0.0062596556, 0.1910285950, -0.1203726679, -0.1385712177, 0.0286813900, 0.2181915790, 0.0931450650, -0.0840429217, 0.2612403929, -0.0567564778, 0.0523091629, -0.0586860776, 0.0243400186, 0.1316032410, -0.0097731017, 0.2436061502, -0.0783438534, -0.0499921292, 0.1372026801, 0.2086010724, 0.0810096636, 0.0577047579, 0.1639597118, -0.0072139408, -0.0873984918, 0.1817800701, 0.2196417451, -0.0878080502, 0.1930121183, 0.1108835340, -0.1600730866, 0.0797107592, 0.0159623548, 0.1246119514, 0.1697984040, 0.1283913553, -0.0494492278, -0.1133348420, 0.3212377131, 0.1758448184, -0.0062917676, 0.1241480857, -0.1210801229, 0.1436809450, 0.2101165801, 0.0883257464, -0.0791585073, -0.0512977876, 0.0061334590, 0.1481493264, -0.1601100117, -0.0920462534, 0.0769022927, 0.0751805753, 0.1246388182, 0.2435705066, 0.1209545061, 0.1301321834, 0.0937757269, -0.0461741760, -0.0283745453, -0.0873060971, 0.0327419713, 0.1312699914, -0.1386679560, 0.0404562727, 0.1219399646, -0.0085015055, -0.1432181448, -0.0219277516, 0.0232049413, 0.0174460709, -0.0905692726, 0.0894809216, -0.1474111676, -0.1384045035, -0.0691661164, 0.0572457649, -0.0206339825, 0.1136587933, -0.1416301429, 0.0762133449, 0.1505989283, -0.0929363668, 0.0864120200, -0.1328127235, 0.1218037531, -0.1791423410, 0.0828252211, -0.1572096497, -0.1438877881, 0.0691845417, -0.1119901538, -0.0548656620, 0.1568216383, 0.1692972183, 0.0130811995, 0.0451081917, -0.0348525718, 0.1583583355, -0.1582926065, -0.0598273836, 0.0527926013, 0.0961276963, -0.1055469066, -0.1294093132, 0.0807009712, -0.1584050655, 0.0441985168, -0.0891910642, -0.1311757416, -0.0189498197, -0.0412573032, -0.1231641397, 0.0045748567, -0.0732078776, 0.0965704843, 0.0658647418, -0.1143474206, -0.1065566242, -0.0980330408, 0.1209352240, -0.1224063486, 0.1004737541, 0.1208280623, -0.6567200422, -0.0255635530, -0.3225764632, 0.2223730683, -0.3309320211, 0.4684435725, 0.0093978085, -0.1179341227, 0.8071444035, -0.0308038667, -1.0569363832, 0.6195560098, 0.5166807175, -0.0847776234, 0.2846957743, 0.5879592896, 0.0157752726, -0.0531940535, 0.4647271037, -0.3967670798, -0.1472061127, 0.6029174328, 0.2359389514, 0.4962083101, 0.1265783012, 0.0203619935, 0.1392430961, 0.2235533595, -0.0229147505, 0.8498693109, 0.0836072937, 0.4589312971, 0.6025444865, -0.0058469218, -0.0693336204, -0.0402825847, -0.1578435451, 0.4863421321, -0.5368529558, -0.0320081152, -0.5189494491, 0.8356124759, 0.5798307061, -0.0296835285, 0.2707113326, -0.2102967799, -0.3901338577, 0.6555044055, 0.1033488438, -0.1167991906, -0.4047624171, -0.0415815599, 0.3225687146, -0.1618544757, 0.0557255223, 0.6992149353, -0.0110510848, 0.0414492488, 0.6293438673, -0.0906638429, 0.0217603240, 0.0910377875, 0.0373178832, -0.1109660119, -0.0865882933, -0.2122520357, 0.2055751830, 0.0018957539, -0.0139358426, 0.1208012924, -0.1047271639, 0.1367461830, 0.1614789814, -0.0185788386, -0.3257610798, 0.5402086377, 0.0287380498, -0.0031565740, -0.1383799613, 0.1031689420, 0.1047634631, -0.1348895580, 0.0921146125, 0.0771914870, -0.0405740067, -0.0635888949, 0.2638724446, 0.3761654496, -0.3078234196, 0.1298576146, 0.1020413712, 0.0085991584, -0.1672742665, -0.1296996027, -0.0716976076, 0.0977488309, 0.0968741924, -0.1708538830, -0.0905022696, 0.2186759710, 0.2894903719, 0.0627742633, 0.2112940699, 0.1269771606, 0.1642962694, 0.2951388955, -0.1089772210, 0.0943524987, 0.3065803051, 0.1992235482, -0.0641138554, 0.0384970456, 0.2661399543, -0.1262136549, -0.1171760708, -0.1581398696, -0.0081360899, -0.1173876300, -0.2189347595, -0.1187739372, 0.0183065217, 0.4374229014, -0.0443147682, -0.0613624454, -0.1566256881, 0.1001981348, -0.1649425477, 0.1044579372, 0.1100716591, -0.0701353401, -0.0712111592, 0.0628010184, 0.0877446979, 0.1209121346, 0.0885584578, 0.1478016526, -0.1478988677, -0.1736940295, -0.1761800796, -0.1486477852, -0.0391897075, 0.0019366260, 0.0848436132, 0.0173586551, -0.0888931602, 0.0399341621, 0.0717289001, 0.1215305850, -0.0020526301, 0.0368312970, 0.1369844526, -0.1306557208, 0.1110035926, 0.0326320641, -0.0489773229, 0.1828207821, 0.0741815045, 0.0611809865, 0.1524791420, -0.1176332831, -0.0572665781, -0.0524242558, -0.0131155401, 0.1705868542, 0.0256105904, 0.0810049251, -0.0752319098, -0.0346532911, 0.0701647103, -0.0736583322, 0.1471867263, -0.0169958621, -0.0807734132, 0.1365670413, 0.0697610229, -0.1373979896, 0.0449441709, 0.0905836597, 0.0772753283, 0.0971273333, -0.0869631022, -0.0957715586, -0.0109898364, 0.1203981787, -0.0848772526, 0.0729367808, -0.1544544548, -0.1026619077, 0.0355308913, 0.0913003534, 0.1137813926, -0.0664066896, 0.0504465885, -0.0257514790, 0.1081295535, 0.0306161363, -0.0333398730, -0.1419058740, -0.0354981646, 0.0626058728, 0.0865879431, -0.0426745042, -0.1309695244, -0.0835490450, 0.1698201448, 0.1619164050, -0.0207118075, 0.1062533259, 0.1285715550, -0.1952632070, -0.0388719812, -0.0041732411, 0.0254727863, -0.0494994223, 0.1560633481, -0.1038644463, 0.1060756966, 0.1072056442, 0.0994218066, 0.1096334457, 0.0533938818, -0.1531076282, 0.1279816031, -0.0875580609, -0.0632594004, -0.0725168139, 0.1538608074, 0.0380318202, 0.1201146021, 0.1363304704, -0.0572717376, -0.0830210075, 0.0742737129, 0.0427468903, -0.1095892861, 0.0809220076, -0.0435624309, 0.1036902592, -0.0400691181, 0.1677975506, -0.1186879799, 0.1003158316, -0.0078387801, -0.1521675736, 0.1177702695, 0.0604927130, -0.1962914020, 0.0032230979, -0.0252051465, 0.1849197447, 0.1209900007, -0.1437043548, 0.1264386326, 0.1444050819, 0.1114632040, -0.1199221760, 0.0077535990, 0.0652454644, -0.1015064642, -0.0372079425, -0.0262602661, 0.0534030162, 0.0886247307, -0.1341095567, 0.0809083506, -0.1134468690, -0.0065532788, 0.1136651039, -0.0997014493, -0.1170441583, 0.0216642879, -0.1661325246, 0.0176448915, 0.1291518807, -0.1213567331, 0.0977888778, 0.0398363993, 0.0747326612, -0.0890452787, -0.0984764621, -0.1808199584, 0.0652523711, 0.1059596762, -0.0601384751, -0.0164552014, -0.1422898471, -0.0333521254, -0.0509075075, -0.0968763605, 0.0738419592, -0.0336433500, -0.1082054079, 0.0310763363, 0.0162698459, 0.0963548347, -0.1062205285, 0.0861105993, -0.0807685331, 0.0188398864, -0.0567614473, -0.0393030941, -0.1078429073, 0.0459062457, -0.0447016433, 0.0975251272, -0.0588627122, -0.0872315988, 0.1209747046, -0.1312789470, 0.1530760676, -0.0133748148, 0.0293046627, -0.1310667694, 0.1341072023, 0.0578688346, -0.0738022849, 0.0927826315, 0.1409820020, -0.1354753375, 0.0166280754, -0.1365569085, 0.2233310789, 0.0238697212, 0.0602243729, 0.1037588343, 0.0656019747, 0.0706806928, 0.0056782723, 0.0977211222, -0.0011921305, -0.1520467997, -0.0109041091, -0.1219554618, -0.1337511688, -0.0728755444, 0.0129419398, -0.1478550136, -0.0182017293, 0.0813803002, 0.0971769169, -0.0759737641, 0.0718644038, -0.0973641351, 0.0589807518, 0.1452192813, 0.0334233679, -0.0188166369, -0.1121471822, 0.0093629491, -0.0224067103, -0.0223017111, 0.0635867491, -0.0069803842, 0.1026244313, -0.0979034081, 0.1671111137, -0.1140375882, -0.0144808367, -0.0058598439, -0.0881159604, 0.1466075480, -0.1594293863, 0.1561395377, -0.1738467664, 0.1259239316, 0.1693575978, -0.0323829986, 0.0831177607, -0.1153985262, 0.0704882741, 0.0957227051, 0.0309117865, 0.1042027771, -0.0202067476, 0.1986637414, 0.1034018025, -0.1010269076, 0.1401517093, -0.0038452016, 0.0934588537, -0.1411409080, -0.0238057077, -0.0723438933, -0.2296322882, 0.2562262714, 0.1562075615, -0.2514557540, -0.2888617814, 0.0812616348, 0.1285562962, 0.0690043047, -0.0487082638, -0.1349617988, -0.0051861922, 0.0761745274, -0.7806164622, 0.0170532111, 0.1247535124, 0.3767032027, 0.1541400701, -0.1341098994, -0.1762611866, -0.2958248556, -0.3560802937, -0.0703161657, 0.1260729134, 0.1063388735, -0.5357163548, -0.5862508416, 0.0764948055, 0.0563486777, -0.0145021193, -0.1152226552, -0.2920273840, -0.0953290686, -0.4659420848, 0.0026906021, -0.0879809558, 0.2298405766, -0.3733744919, -0.3166793287, -0.0564830117, -0.6028887630, -0.0861382484, -0.2624251842, 0.1134823710, 0.1136840805, -0.1118795350, -0.5147777200, -0.4543530345, 0.0916885585, 0.0132560730, -0.2842928469, 0.0589661933, -0.0389673859, 0.0007245148, -0.0466549620, -0.0866125152, 0.2007307410, 0.0566665083, -0.1668702513, -0.4530456364, -0.0233040396, -0.1567348391, 0.0564867258, -0.0785673857, -0.0619389936, -0.1732067615, 0.1065640822, 0.1100359112, 0.1324282736, -0.0589351542, 0.0836990625, 0.1660251319, 0.1236369088, 0.0682208017, 0.0829279795, -0.0578343607, 0.0320036151, 0.2022313476, 0.1550605595, -0.0083475430, 0.0930634886, 0.1063141301, -0.1785828322, -0.1145932302, 0.1108123437, 0.1453967094, 0.0672165304, -0.0785417408, 0.0476810858, 0.1376042366, -0.0850613117, -0.0884616449, 0.1518862695, -0.0312643312, 0.2016230524, 0.0283696149, 0.0675506964, 0.1520457566, -0.0189466625, -0.0096807806, 0.0582846478, 0.0852078050, 0.0949160829, -0.1133673191, -0.0468006767, -0.1260089725, 0.0961088613, 0.1441500932, -0.0287757404, -0.0672892630, 0.0449315831, 0.0072302776, 0.1086709499, -0.0614764467, -0.1626150906, -0.1595359743, -0.1473861337, 0.2277502269, -0.0705926567, 0.1064761132, 0.0513731577, 0.1191716790, 0.0775026008, -0.1016954705, -0.0281941947, 0.0515104234, 0.1290103197, 0.0418985374, -0.0804655775, -0.0679359287, 0.0209134761, -0.2271368653, -0.2732766271, 0.0294935964, 0.1010785848, 0.1092732549, -0.0064729769, -0.0363794602, 0.2818710208, 0.0801083967, 0.1062426493, -0.7196902633, 0.0762140825, 0.1596473902, 0.3373785317, -0.0033705840, 0.1339278966, 0.1503910571, 0.0178707149, -0.1151568368, 0.0671319216, -0.1888164282, 0.0568447076, -0.2107195407, -0.2516233027, -0.0567634478, -0.0047096917, 0.1802186221, -0.1623260528, -0.1333716363, 0.1368868500, 0.1278016716, -0.0545681566, -0.1024717614, 0.0416719653, -0.2367132455, -0.1576285958, 0.0289334189, -0.4459773600, -0.2305888534, -0.1751517355, 0.0640860721, 0.1672093868, 0.0144273806, -0.2686063647, -0.1568308175, -0.1270288378, -0.0096879955, -0.1887539327, -0.0040513612, -0.4517147243, -0.3489104211, 0.0538563691, -0.1534119397, 0.0445103571, 0.1255693585, -0.0805006102, -0.1290952861, 0.1050191000, -0.0230038483, 0.0406106897, -0.0021054209, 0.1044811606, -0.1531622857, 0.0410778113, -0.1826144904, 0.0844860002, 0.0638217479, 0.0640446395, -0.1085845828, -0.1923487484, -0.0677688643, 0.0409385078, 0.0476620235, -0.0924490541, -0.0243681073, -0.0538129471, 0.0932058394, -0.0796525255, -0.0359009691, 0.0569492504, -0.0641055629, 0.0000825667, 0.0585033260, 0.1303555816, -0.0565412566, 0.1420304477, -0.0488389097, -0.1291015893, 0.0412609801, 0.1544943899, 0.0431694910, -0.0414547883, 0.1957343072, -0.0642524511, -0.1398360580, -0.0382403247, 0.0590840578, -0.0355808251, 0.1211875901, 0.0760702863, 0.1084136292, -0.0342508107, -0.1008569822, 0.0155723514, 0.2706824839, -0.0356879681, -0.0962589905, -0.0702861547, 0.0795476958, -0.0654460937, 0.0694570020, -0.1426434368, -0.1668565273, -0.0507860780, 0.1249716952, 0.2102354914, 0.1525430232, 0.1071687192, 0.1415191442, -0.0430131182, -0.0667318478, 0.1607702225, 0.0310565680, -0.2315799743, -0.0362493247, 0.0390501544, -0.2144535333, -0.4636797309, 0.0418191552, 0.1861845106, 0.0224600621, -0.5046647787, -0.0569732822, 0.0484629683, 0.2225344926, 0.1057625860, 0.2555441260, -0.3473620117, 0.6494242549, 0.1020261645, -0.4080525041, -0.7199231386, 0.1682640463, 0.2542213202, -0.2014497072, 0.0511394851, -0.1394577473, -0.0569659173, 0.1202029288, 0.1612591594, 0.2790649235, 0.2555540800, -0.3745851815, 0.0400152802, 0.1362412572, -0.1075851619, 0.2569357753, 0.1144230887, 0.2894961238, 0.1765491068, 0.1436307579, 0.1319853961, 0.0922413617, 0.2464522719, 0.1292504668, 0.2405590266, 0.0345487520, 0.2243592143, 0.2721309960, 0.1165926829, -0.0024347592, 0.3800343871, 0.1581722647, 0.0189877767, -0.0021960433, 0.2260825187, 0.0965507254, 0.1005904749, 0.0926803201, -0.6526578069, 0.1137045547, 0.3076924980, 0.0029759272, -0.2517625093, 0.2722740173, 0.0619432032, 0.0659720898, -0.1639376581, -0.1772685051, -0.0528972745, 0.1082185358, 0.0813233927, 0.1613538563, 0.0038128018, -0.0619249195, 0.1248069629, 0.0088817356, 0.0461621210, 0.0085632717, 0.1209232956, 0.0714233145, -0.1120610535, -0.0109053748, 0.1757333130, -0.2108241618, 0.0488680750, -0.0455022156, -0.1063823998, 0.0645497665, -0.0197176635, -0.1199172363, 0.1349941194, 0.0542983226, 0.1230987981, 0.0475845747, -0.0518897176, -0.0023236966, -0.2008002400, 0.1045163721, -0.0608647130, -0.0690857247, -0.1018221527, 0.0925014466, -0.1130805090, -0.1077695116, 0.0071507422, 0.0416092463, -0.0689637065, 0.0580295399, 0.0472299606, 0.0055301320, 0.0446201079, 0.0513963439, -0.1398988217, -0.0967870802, -0.1235897765, 0.0289072637, -0.1744047850, 0.1034539193, 0.1661128551, 0.1314545125, -0.0165121350, -0.0080573363, 0.1066511944, 0.0690962970, 0.1063419655, -0.0868251994, 0.0971663669, 0.1278471351, 0.0072673173, 0.0642418265, 0.1519358307, -0.0056722341, -0.0778722540, -0.1278977990, -0.1672564149, -0.3959003687, 0.0145116756, 0.0378387794, 0.1601394266, 0.0076411455, 0.0136087965, 0.1445154101, 0.2597886324, 0.0703472644, -0.1861218363, 0.3771388531, 0.1422619671, -0.0265309922, -0.1193979159, 0.0350674987, -0.0347250216, -0.1733032465, 0.1916859746, 0.1454205662, 0.0233973972, -0.0606191307, 0.0190713983, 0.1715754122, -0.1736845672, 0.0087179467, -0.0359610096, -0.0814764947, -0.0380156487, 0.0269432329, 0.0240733400, 0.0619552173, -0.0946859494, 0.0508070029, 0.1310987622, 0.0967163742, -0.0664477050, -0.0517338328, 0.1094328389, 0.1292667836, 0.1439421773, 0.0965199843, 0.1826001555, -0.1213674396, 0.0173763633, 0.2399270386, -0.0939082801, -0.1239932999, 0.1545619220, -0.0608495735, -0.0394553058, 0.0512572676, 0.1497449279, -0.0804981291, 0.0413870700, -0.0857213885, 0.1629585028, -0.0709001496, -0.0386958085, 0.1353015006, -0.0721295029, -0.0381441712, -0.0479264334, 0.0899428874, -0.4224312603, -0.1814044118, -0.0542268082, -0.1025767177, -0.2196598202, -0.0026592112, -0.0258229636, 0.0543213822, 0.2072461545, 0.0882254392, 0.1292233914, 0.1974105239, -0.0114095761, -0.3112033904, 0.0879896656, -0.0012216688, 0.1192797571, 0.0084905699, 0.1573457718, 0.0729343891, -0.0232359003, 0.0166579876, 0.2006958425, 0.0582233630, 0.0517026447, -0.4573374987, 0.1329259723, -0.0394807570, -0.1306590587, 0.2323338389, -0.0632556379, -0.0196122881, 0.1909639984, 0.0200913567, -0.1335624158, 0.1356409341, 0.1201910824, -0.0831279755, -0.0841250941, -0.0746695921, 0.1484826505, 0.1693442017, 0.2463712245, -0.1395456046, 0.1757555902, 0.0721641406, -0.0955239162, 0.0800383911, 0.0657671615, -0.0565407313, -0.1022165641, 0.0792881027, 0.0958858356, -0.0570717156, -0.2887485027, -0.0341339074, -0.1910716593, 0.0781357214, -0.0859928206, 0.0382191129, 0.1132793948, 0.1525009423, 0.0756406933, -0.1762075126, -0.1497399807, 0.1008598432, 0.1777216494, -0.0840964615, -0.1711121202, 0.0364835486, -0.0052793012, 0.1214458942, -0.0641961098, -0.1512319148, -0.1476147473, -0.0331612378, -0.0800854564, 0.0760946497, -0.0141410995, 0.1695798635, 0.1033966020, 0.1165984944, -0.0124853645, 0.0343211107, 0.1575782895, -0.0675390065, -0.1021660268, 0.0495429933, -0.0832566842, -0.0660767928, -0.1140946373, 0.0154351145, 0.0756870806, -0.1066595986, -0.1043524742, -0.0294063538, 0.1764317602, -0.1394927353, -0.0110672107, 0.1195651591, 0.0581605993, -0.1363658160, 0.1032093242, 0.1302068084, 0.0094417371, 0.2439979762, 0.2045473456, -0.0069049168, 0.1970859170, -0.1261531413, -0.0084609045, -0.0799711868, -0.0797036514, -0.0592558458, 0.0879814550, 0.1565174758, -0.0137677034, 0.1350557506, 0.0199021231, 0.2115656734, -0.1566631347, 0.0384992175, 0.0375651345, -0.0690006390, -0.1855868399, 0.0390949622, -0.1848715991, -0.1967079490, 0.1206067652, 0.1690937877, -0.0989780128, 0.0006141832, -0.1652325392, 0.0175310802, 0.0154114878, 0.1873412430, -0.0786275789, 0.0458079241, 0.0123108104, 0.0343553424, 0.1158501059, 0.0793816075, 0.1176140085, 0.0703449324, 0.0081463484, -0.1171182021, -0.0579555705, -0.0281293504, -0.1872513294, 0.0986998230, 0.1728180945, 0.0662313551, -0.0849571452, 0.1845938712, -0.1091104075, 0.1677166224, -0.0324365087, 0.0490938649, -0.1226975098, 0.0629170462, 0.0496832319, -0.0882358775, 0.1108919904, -0.0795818940, -0.0664175749, 0.1575825661, -0.0162630435, -0.2480580956, -0.1436439455, -0.1398731768, 0.1364223659, 0.0211155303, -0.0758120492, -0.1350501180, -0.1300204545, -0.1465533674, 0.0256228410, -0.0939947814, 0.0554624274, -0.2168566138, 0.0033517862, -0.1237299964, 0.0579370223, -0.0151986573, -0.0912018418, -0.1104134396, -0.0947865397, -0.0889477730, -0.1512749940, 0.1132180095, 0.0586947203, 0.1188242510, 0.0781062096, 0.0194546469, 0.1647888571, 0.0158365220, -0.0726029277, -0.0614563152, 0.0822725892, 0.1116565689, 0.1084891409, 0.0362205990, -0.1802252084, -0.0267426148, 0.0287805572, 0.0051617171, 0.0420716554, 0.0071317875, -0.0824991092, -0.0634917393, -0.0190043952, -0.1321439147, -0.1504994929, 0.0520252548, 0.0039449278, 0.1180878580, 0.0085474346, 0.3282494247, -0.0381684490, -0.1419857591, 0.2479362041, 0.0563493744, 0.0105211930, 0.0958992243, -0.1093612611, -0.0833617076, -0.1098110005, -0.0142304404, 0.0065799514, 0.0763926283, -0.0652101785, -0.1066161245, -0.0650743619, 0.1212940216, 0.1039175838, -0.1870426238, 0.1499063671, -0.0653896853, -0.1257617474, -0.1138137132, -0.1357685030, -0.0697108731, -0.0550047681, -0.1174024269, 0.0759932101, 0.0518998057, -0.1646968424, -0.1599188447, -0.3188434839, 0.1000882313, 0.1455833018, -0.0907244235, -0.0398956686, -0.1355500221, -0.0258097462, -0.0744697675, 0.1411248446, 0.1150046661, -0.1317466497, -0.1557753235, 0.0186380427, -0.0353422090, -0.0735098347, -0.0440866016, -0.1388020664, -0.1792695224, 0.0175368767, -0.1248116642, -0.1620599478, 0.1138281152, 0.0004940673, -0.0964898020, -0.0029802746, 0.0897491053, -0.0786581188, -0.0311602596, -0.0022947278, 0.0740053654, -0.0749645233, -0.1089466810, -0.0649226457, -0.1328637451, -0.1547527462, -0.0249782670, -0.0693271086, -0.0579034276, 0.0946341306, -0.1537437588, -0.0535715297, 0.0586220622, -0.0290572383, 0.0880430639, -0.1548371911, 0.0341907814, 0.0513431802, -0.1541463733, -0.1320590526, -0.1525583267, 0.1488483548, 0.0016522855, -0.0932131112, 0.1604386717, -0.0761221126, -0.1673524976, -0.0054298090, 0.1140848771, 0.0706870556, 0.0968375280, 0.1527540535, -0.0043912390, 0.1238180920, -0.1192815453, -0.0635883138, -0.0485072136, -0.0917648077, -0.1456695646, -0.1510660797, -0.1501787007, -0.0021408475, 0.0902503431, -0.1805280447, 0.0156351812, 0.1208346859, 0.1693753600, -0.1625979096, -0.0332755931, -0.1788010150, -0.0604541190, -0.1522115171, -0.0081319418, -0.0756812543, -0.0606705099, -0.1403704137, -0.0357785374, 0.0335257798, -0.1266339570, -0.0006620050, -0.0401707552, 0.1584553421, -0.0797211826, -0.1760063618, -0.0421425290, 0.0897715613, -0.0012336173, -0.0992816240, -0.0475209802, 0.0535719059, -0.0681025907, 0.1754467934, 0.0484621525, 0.1023336202, 0.0545830801, 0.0601830594, -0.0052434695, -0.0937370360, 0.1976534873, 0.1235283688, -0.0245617162, 0.0158775393, -0.1642857045, -0.0620587543, -0.1186155304, 0.1192201972, -0.0644717813, -0.0654106662, -0.0737382099, 0.1352851689, 0.0810670778, 0.1179497540, -0.1684561968, -0.0501296297, 0.1283768862, 0.1060645208, -0.0521268845, -0.0656826422, 0.0093452567, 0.0535652824, -0.0806218013, 0.0209823158, 0.0100253429, -0.0133955134, 0.0182773471, 0.0816787332, -0.0263066199, -0.1847547442, -0.1306395680, -0.1183339581, -0.1275303662, -0.1354001909, -0.0069690812, -0.1512362659, -0.0239222758, -0.0652281642, -0.0100564389, 0.1483312398, 0.1753218770, 0.0657031164, 0.0350802429, -0.1362946630, -0.0308283791, -0.0521075130, -0.0752520114, 0.0290068220, -0.0005874560, -0.1787416786, -0.1437968165, -0.0948517770, 0.1113668755, 0.0628558844, -0.2045439780, 0.0882784128, -0.0102777043, 0.1584214568, -0.0982010216, 0.0087173311, -0.0763866752, -0.0856388211, -0.0942651778, -0.1293298900, -0.0909232274, 0.1043547913, -0.1003205776, 0.2141390741, -0.0381645150, -0.1372481883, 0.1818106025, 0.1336107552, -0.0864539668, 0.1848426908, 0.1959376484, 0.0994518548, 0.1310578138, -0.0263497178, -0.0714907572, -0.1442502290, -0.1124363244, -0.1661790907, 0.1314661503, 0.0137564670, 0.1569913328, 0.1604085416, 0.1240503341, 0.1366213709, -0.1588475257, -0.0719419494, -0.1733287126, -0.1365958154, -0.1663809270, -0.2323446870, 0.0297032446, 0.1760086864, -0.0223950874, -0.4908230901, 0.0016699859, -0.2698757648, 0.0579915568, 0.2596632242, -0.1067904383, 0.1467742771, 0.0006659835, 0.0937109888, -0.0595368631, 0.0620031431, 0.2240342498, 0.1454072893, 0.0505560338, 0.2451423109, -0.1409788728, 0.1239413619, 0.0015733286, 0.0645517856, 0.2313360125, -0.0642226338, -0.1657592207, 0.0473772287, 0.0970441774, 0.1600320786, 0.1054000333, -0.1485785246, 0.1473191381, 0.0748065189, -0.0840684846, -0.1744097173, -0.1359769553, 0.1006627828, 0.2237269431, -0.1036997736, 0.0912839919, 0.0131770400, 0.0037490737, -0.0611396357, 0.0322016366, 0.0035277458, -0.0559667908, 0.0430407561, -0.0626766831, 0.1583343893, -0.1393711269, -0.4233034253, 0.0339733027, -0.0554820113, 0.0855685472, -0.1692565829, 0.1667834222, -0.0843671858, 0.1806498170, 0.1865573823, 0.1451473385, -0.0921308100, 0.0226203017, -0.0736728534, 0.0035380339, -0.4653250277, -0.2423636615, -0.0046703443, 0.1207879558, -0.1242444441, 0.1470345259, -0.1132438928, -0.0778040439, 0.2169633210, 0.0676622093, 0.2092238963, 0.3764657378, 0.0031280690, -0.4905345142, 0.2029081583, 0.2993762195, 0.0295081157, 0.1265227050, -0.0004953019, -0.0707101300, -0.0639710724, 0.1630301625, 0.0832665414, 0.0177495759, 0.0984076560, -0.3210950196, -0.1168001369, 0.0053904746, -0.1012405083, 0.2388875782, -0.1582970172, 0.3670040965, -0.0006657756, 0.0496531017, -0.0196015928, -0.0047784783, -0.0525466464, 0.3030984402, 0.0197766572, 0.1361687332, -0.1592593342, 0.1387777478, 0.3377675712, -0.1645179242, 0.2700401247, 0.0444739871, 0.0028885109, 0.0102202101, 0.1848931760, 0.0419121459, -0.3883318901, 0.1162684858, 0.0131005030, 0.1458945572, -0.0881241038, 0.2360563874, -0.0317112356, 0.2621112466, 0.1581850946, -0.1798552871, -0.0532788560, -0.1433620006, -0.1576601714, -0.1125665382, 0.0433602333, -0.1171995699, 0.0592360906, 0.1180889383, -0.1543876976, 0.0084428824, -0.0382285416, 0.1243018582, 0.2448382229, 0.0645923838, -0.0125380550, 0.0275790393, 0.1944324970, 0.0130705144, 0.1774139553, -0.0510085933, 0.0916888192, 0.1370454431, 0.1402622014, 0.0530783646, -0.0181815084, -0.1017996371, -0.1802155375, -0.0299588181, 0.1287873387, -0.0311727766, -0.1101493910, 0.0858209804, 0.1550937146, -0.0400073007, 0.0412282422, 0.0683353841, -0.1297803372, -0.1576569676, -0.1069304049, -0.0950433761, 0.1156865358, 0.0857696384, -0.2589824796, 0.0348377302, 0.0613354482, -0.0622898117, 0.2178453356, 0.1266737282, 0.1218543872, 0.0695250481, 0.0853027552, 0.0752441213, 0.0051923865, 0.0197872724, -0.0642693937, -0.1348087341, 0.1674905121, -0.0054946821, 0.1446662545, -0.0241102837, -0.1519097537, 0.0045953318, 0.0479321145, 0.0620342195, 0.1035602391, 0.0242053363, -0.0783439875, 0.0858411789, 0.0336525887, -0.1043336391, -0.0427894108, 0.0756982118, -0.0068522724, -0.0650426447, 0.0235422384, -0.0111013921, 0.1419333816, 0.1565329432, -0.1216620281, 0.0049349912, 0.1341065317, -0.1365854293, 0.0186322052, 0.0162000936, -0.0029744790, 0.0349586159, 0.1259385794, 0.0147105576, 0.0443634987, -0.0936837122, -0.0290443674, 0.0432307608, 0.0743711814, 0.0544533581, 0.0904364139, -0.0097193466, -0.0113311717, -0.0321350954, -0.0465979688, 0.0001650338, -0.1014556363, -0.0429444052, 0.0388461202, 0.1369724870, -0.0296500679, -0.0790220127, -0.0256145634, 0.0360064879, -0.0161252487, 0.0540421605, -0.0879478753, 0.1370017231, -0.0534321256, -0.0943864733, 0.0483259596, -0.1509221196, -0.1142550483, 0.1580880433, -0.0054348856, 0.1046036184, 0.0073096012, -0.0967489332, 0.1464308798, 0.0859564468, -0.0282682199, 0.0878516957, -0.1449905187, -0.0222201142, -0.0091358908, 0.0135828666, -0.1247322708, -0.1364670098, -0.0516721830, 0.0536111817, 0.0342798419, -0.0244584810, -0.1494193375, 0.0177978352, 0.1291359216, 0.0326820910, 0.0068997862, 0.1662737280, -0.0279214345, -0.0880467892, 0.0079767313, 0.0443370678, -0.1224077865, 0.1011225060, -0.0326014608, -0.0214464702, 0.1150112003, 0.0470979586, -0.0866921842, -0.0537907965, -0.0441047661, 0.0869975835, -0.1688087285, -0.1295088083, -0.0902838856, -0.0773046538, -0.1376708001, 0.0725946277, -0.1816350371, 0.0034118942, -0.1092758849, 0.1284538507, -0.1068715751, -0.1575177014, 0.1536063105, 0.1108794957, -0.1412295997, -0.1795302927, -0.1444257200, 0.0918937847, 0.0120681748, 0.0447397232, -0.0580041744, -0.0769456252, -0.0124469921, -0.0476915464, 0.0287878849, -0.0331356451, 0.0953022167, -0.1678943187, 0.1338642985, 0.1628905982, -0.1599367112, 0.0162984189, 0.0957022533, -0.0796452016, 0.0984449759, -0.0949255377, 0.0099851694, 0.0888625085, -0.0842938423, 0.1382228732, -0.1595330536, 0.1223261431, 0.0823251009, -0.0885693580, 0.1331880689, -0.0566517562, -0.0352879502, -0.1003468484, -0.0996755213, -0.1802584678, -0.1182516739, 0.0759843960, 0.1114216968, -0.0785858333, 0.1417815536, -0.1202456877, 0.0129496707, 0.1139870435, -0.1321377009, -0.1208285168, -0.0585800149, -0.0030604424, 0.1320194602, -0.0493455566, 0.0947165638, -0.1554141343, 0.0576303527, 0.0502612889, -0.1080763862, -0.1593070775, -0.1241157576, -0.1606519371, -0.0585694797, 0.0987474993, 0.0250629708, 0.1292432994, 0.1632945836, -0.0287137609, 0.1255725175, -0.0975426659, 