//Numpy array shape [64, 2]
//Min -0.745180010796
//Max 1.050822377205
//Number of zeros 0

#ifndef W6_H_
#define W6_H_

#ifndef __SYNTHESIS__
model_default_t w6[128];
#else
model_default_t w6[128] = {-0.0998220518, -0.0099975495, -0.0720644593, -0.1381097734, 0.3281854391, 0.0769951940, -0.2428216785, 0.3847852647, -0.2645946145, 0.1889616102, -0.0800007358, -0.3790238202, -0.4369531870, 0.3812284768, 0.6027162075, -0.0271180980, -0.0389433727, -0.1169108748, -0.1986693740, -0.1574182957, 0.4070074856, 0.2778108418, 0.3205367625, 0.2656476200, -0.4149037898, -0.2214776874, -0.1253950447, 0.1167723835, -0.1018468216, -0.1371045411, 0.3048481643, 0.0342416316, 0.1389389932, 0.1099093705, -0.2497391850, 0.1737547666, 0.1183909550, 0.4037638307, -0.5270434022, 0.2923203111, 0.2389072925, -0.0958828405, -0.1818751097, 0.2426662594, -0.1650817096, -0.2237072140, -0.2179866582, 0.4863240719, -0.7451800108, 0.2690589428, 0.2147764564, -0.0641853064, -0.1724919081, 0.2062979043, -0.0419201404, -0.0055484828, 0.6721741557, 0.3057976067, 0.2113599628, -0.2233749777, -0.1034879312, -0.0474834144, -0.2235099822, -0.0125974650, 0.1328236610, 0.2978699207, -0.4498325884, 0.4112879932, -0.0429572351, -0.0922289938, 0.2246367335, -0.0033855755, 0.0078400420, 0.0050370172, 0.1831074953, 0.2545610368, 0.1654238701, -0.1154597551, 0.3473261893, 0.0643133149, 0.0440270565, 0.3356143236, 0.0595457219, -0.1379168928, -0.0568621010, -0.2700734138, -0.3195298016, 0.7107008100, -0.3620137274, 0.2597939670, 0.1826737225, -0.0794959590, -0.1889517158, 0.0137359668, 0.3035180867, 0.0644215271, 0.2911548018, 0.1350918710, -0.3973852396, 0.3019431829, 0.1965789348, -0.1909662932, -0.6057687998, 0.3954935372, 0.0818118975, 0.0313745067, -0.1505066454, -0.1701170206, -0.0452821329, -0.2225669771, 0.0052392920, -0.0685084090, 1.0508223772, -0.1312443614, -0.0121574057, -0.1037095115, 0.0957720727, 0.2961917520, -0.2187178433, 0.0526437908, -0.1499860585, 0.2169834226, -0.3257957399, 0.0336035565, 0.1840215474, 0.0330075622, -0.2056777179, 0.6674839854};
#endif

#endif
