//Numpy array shape [64, 2]
//Min -0.712567985058
//Max 0.947521388531
//Number of zeros 0

#ifndef W6_H_
#define W6_H_

#ifndef __SYNTHESIS__
model_default_t w6[128];
#else
model_default_t w6[128] = {-0.2521221340, -0.0931792706, -0.1506270766, -0.2208057046, -0.2566644549, -0.1013721898, -0.0932383835, 0.2718042433, -0.2737328112, 0.2577145994, -0.1666022837, 0.5829053521, -0.2350935340, -0.3850346506, 0.2557749450, -0.2263706475, 0.3265716732, -0.0570674427, -0.4998079240, -0.0815971866, 0.1932166070, 0.3973506391, -0.4274958670, -0.0737074316, 0.2416843772, -0.1686288118, 0.3753469586, 0.3334763646, -0.3993154466, -0.2972927690, 0.2659172118, -0.4889976382, 0.6368127465, 0.1190705821, 0.2626693249, 0.3339673579, -0.4219647348, 0.2446989566, 0.2715161443, -0.7125679851, 0.2237076759, 0.3520907462, -0.1395215988, -0.1008200720, -0.1082896441, -0.2171834856, 0.0962596983, 0.2804696858, 0.1394276768, -0.2260994315, -0.1438072622, -0.1696370542, 0.1052655503, 0.1246949881, 0.2026538700, -0.0021858432, 0.3508234620, 0.0755241364, -0.2820727527, 0.4151495993, -0.2527797818, 0.9475213885, -0.0347094461, -0.2769165337, 0.2471448630, 0.0981276706, -0.0608540960, -0.1768337935, 0.2333320975, 0.3007498085, -0.1863356233, -0.2031490654, 0.1159987450, 0.0751283914, 0.1587699503, 0.1903635412, -0.2290252745, 0.0243944600, 0.1266293228, -0.2095412910, 0.2278464139, -0.0867382661, 0.3041147590, -0.0527333319, 0.3267803788, 0.2517623305, 0.8703408241, -0.2327734083, -0.0311755110, -0.2270359844, 0.1987231374, -0.1668900102, 0.3694724441, 0.3667044938, 0.0876766890, 0.2547260225, -0.2046753466, -0.2431853563, 0.2669458985, 0.1223935857, 0.1979640424, -0.1946889907, 0.0689499527, -0.2450715601, 0.1095191762, 0.2426410168, 0.3306998610, -0.0720374957, -0.2393945605, -0.1254741102, -0.0638027191, 0.4366956055, 0.0364898778, -0.3437084854, 0.0393819287, 0.5670780540, -0.2690891623, -0.1388636827, -0.6188575625, -0.0583462752, 0.1415957808, 0.2507102787, -0.1431225240, -0.3309644759, 0.2567139864, 0.0308074020, 0.1505190432, 0.2880377471};
#endif

#endif
