//Numpy array shape [2, 64]
//Min -0.625858783722
//Max 0.587384402752
//Number of zeros 0

#ifndef W8_H_
#define W8_H_

#ifndef __SYNTHESIS__
model_default_t w8[128];
#else
model_default_t w8[128] = {0.3081136346, -0.0926035643, -0.1309685707, 0.0992534235, -0.2611728609, -0.1387172341, 0.1244169772, -0.0292483345, -0.0510200858, -0.0037870109, -0.3898920119, 0.2513239682, 0.0654078051, -0.0029182623, -0.0495502353, 0.0984511524, -0.1318268329, -0.6258587837, -0.3554584086, 0.2595542073, 0.2724165916, 0.0495182797, -0.2409838438, 0.2362891138, -0.0846892446, -0.2384744436, 0.1976785809, -0.3652242124, -0.1841287762, 0.0785115957, -0.2095152885, 0.1105004102, -0.0449810252, -0.3647524118, -0.2094800174, -0.3846804500, 0.3422438800, -0.3057201505, 0.1333724707, -0.2265825868, 0.0543020479, -0.0313110128, -0.4494402409, -0.0325147510, -0.2149579823, 0.2903425694, 0.3695661128, -0.2461811602, -0.4425501823, 0.2187054604, -0.2871551514, -0.2783014178, 0.1771429330, -0.2021044195, 0.2206949592, -0.3088029027, -0.1711297929, -0.1975695193, 0.2527831197, 0.2692775726, -0.2288374901, -0.1652674973, 0.3765686452, 0.2644525468, -0.2006544322, -0.0392885208, -0.0049144509, -0.0494024195, -0.0085885823, -0.0727700293, 0.2945716381, 0.2375534773, -0.0852591991, -0.0330795348, 0.1566078216, -0.2384682149, -0.0503510907, 0.3820228875, -0.0794443488, 0.2379623055, 0.2727071047, 0.1490445733, 0.1521966755, -0.2918509543, 0.0753035024, 0.4678495526, -0.0823746324, -0.2899004519, -0.0197121855, 0.1557293236, -0.2330506742, 0.1910954565, -0.2188522518, 0.3270437121, -0.1813804358, 0.4687184989, 0.2025229335, 0.1448441297, 0.5873844028, 0.1980100721, -0.3364518285, 0.1759427786, 0.3986733258, -0.0904970914, 0.1282138228, 0.1195487380, 0.2214918584, 0.2180557549, -0.0466830730, -0.1799871325, 0.0830074996, 0.5290021300, 0.1902056634, -0.1104811877, -0.1103253216, 0.3098982573, 0.3935235441, -0.2979818285, 0.0638516769, 0.1381495893, -0.1948591173, 0.1300482452, 0.1683078110, -0.1512861550, -0.1138463616, -0.0656630993, -0.2301813066, -0.3002675474};
#endif

#endif
