//Numpy array shape [2, 64]
//Min -1.085807919502
//Max 0.464720219374
//Number of zeros 0

#ifndef W8_H_
#define W8_H_

#ifndef __SYNTHESIS__
model_default_t w8[128];
#else
model_default_t w8[128] = {0.1783390194, -0.4715767801, 0.2071530968, 0.1981619895, 0.1228899956, 0.1453293860, -0.3742446005, 0.1242215112, -0.2946704030, -0.4366247952, 0.2382424027, 0.0469613858, -0.4455777407, -0.1931826025, 0.1688087881, 0.2821114659, -0.0848135799, 0.2258329242, -0.5976009965, -0.0655483007, -0.2353488505, 0.1210898161, -0.1194427088, -0.3165359497, 0.1777818948, -0.1944278032, -0.2899663150, 0.3041272163, 0.2387445867, -0.0149270296, 0.1959121823, -0.0182853937, 0.1595407575, -0.2767862380, -0.0076378882, 0.0973134041, -0.3644964695, -0.2450073063, 0.1651122868, -0.0770191476, -0.1445089281, -0.0696583092, 0.2166158557, 0.1821525991, -0.2264757752, -0.0597819090, -0.1513944566, -0.0180241633, -0.1358190775, -0.1277131438, -0.1958501339, 0.2546433210, -0.0394751430, -0.2572230101, 0.0638089702, 0.2886827588, -0.1619671434, -0.1843720675, 0.2068926096, 0.2090057433, -0.0078384681, -1.0858079195, -0.1205070168, 0.0094620073, -0.3067599535, 0.1345360726, -0.1685454100, -0.4842284024, 0.3317993879, -0.2561226487, 0.3665867448, -0.6747920513, -0.0446522832, 0.3660125732, 0.4138215482, 0.1090682521, 0.1344663799, 0.3174964786, -0.4181019664, 0.2503911257, -0.0759881437, 0.1135396212, 0.1840300858, -0.1137526929, -0.2747659087, 0.2814601958, 0.2831479311, 0.1998926252, -0.2659226060, -0.0443856716, -0.0897455364, 0.1178034097, -0.1973266602, -0.2512937188, 0.2512212396, -0.2634111047, -0.1304829121, 0.4647202194, -0.0577095747, 0.3429631293, 0.2018115371, -0.1450720876, -0.1409144551, 0.0335462093, -0.1947531551, 0.2730999291, -0.5390598774, 0.0425966904, 0.0586383194, -0.1476947665, -0.1063065380, 0.4539033473, -0.2981294692, 0.2609289289, -0.1228159219, 0.4104956985, -0.0376032293, -0.0247030258, 0.3710552454, -0.2553243637, -0.1599802226, 0.3747279048, -0.3340233564, -0.5207332373, -0.1497970372, 0.0974429101, -0.2417513728, 0.2636135817};
#endif

#endif
