//Numpy array shape [64, 32]
//Min -1.000000000000
//Max 0.875000000000
//Number of zeros 412

#ifndef W2_H_
#define W2_H_

#ifndef __SYNTHESIS__
weight2_t w2[2048];
#else
weight2_t w2[2048] = {0.125, -0.250, 0.125, -0.125, 0.000, 0.000, 0.250, 0.250, -0.375, -0.125, 0.125, -0.250, 0.000, -0.125, 0.000, 0.625, 0.000, 0.375, -0.125, 0.250, 0.000, -0.125, 0.000, 0.250, 0.000, -0.500, -0.125, -0.250, 0.125, -0.125, -0.125, 0.125, 0.000, 0.000, -0.250, 0.250, 0.250, -0.375, 0.375, 0.125, -0.375, 0.000, -0.375, -0.250, -0.250, 0.125, 0.250, 0.250, -0.125, -0.125, 0.000, -0.125, 0.000, 0.375, 0.125, -0.125, 0.250, -0.250, 0.000, -0.375, -0.125, -0.125, -0.500, 0.000, -0.250, 0.250, 0.500, 0.500, 0.375, 0.125, 0.250, 0.125, -0.375, 0.250, -0.250, -1.000, -0.875, 0.125, -0.250, 0.125, 0.125, 0.000, 0.000, -0.125, -0.500, 0.625, 0.000, -0.375, 0.000, -0.125, -0.250, -0.500, 0.000, -0.375, -0.500, -1.000, 0.125, 0.250, 0.125, 0.250, 0.125, -0.375, 0.000, 0.125, -0.625, 0.125, 0.125, -0.375, -0.500, 0.125, -0.250, -0.375, 0.000, 0.125, 0.000, 0.000, -0.250, 0.375, 0.000, -0.375, 0.125, -0.125, -0.250, -0.125, 0.125, -0.375, -0.125, -0.875, -0.125, 0.000, 0.500, 0.625, 0.000, -0.625, 0.125, 0.000, -0.375, 0.250, 0.250, 0.000, -0.250, 0.000, 0.125, 0.000, 0.000, 0.125, 0.125, 0.000, -0.125, 0.250, -0.250, -0.500, 0.125, 0.000, -0.250, -0.125, 0.125, -0.250, 0.000, 0.250, -0.500, -0.250, 0.500, 0.500, 0.000, 0.000, -0.125, 0.125, -0.250, 0.000, 0.125, 0.000, 0.000, 0.000, 0.000, 0.000, -0.250, 0.125, 0.250, -0.125, -0.500, 0.125, -0.875, -0.375, -0.500, -0.125, -0.125, -0.250, 0.250, 0.000, -0.625, -0.125, 0.125, -0.250, 0.250, 0.125, -0.500, 0.625, -0.250, 0.125, -0.375, -0.375, 0.250, 0.000, 0.125, 0.000, 0.250, 0.125, -0.125, -0.375, 0.250, 0.000, -0.250, -0.125, -0.750, -0.125, -0.625, -0.250, 0.125, -0.375, 0.250, -0.125, -0.625, 0.125, -0.125, 0.000, 0.250, -0.375, -0.500, 0.125, -0.500, 0.375, -0.375, -0.375, -0.125, 0.625, -0.125, 0.000, -0.250, 0.250, 0.250, -1.000, 0.250, 0.000, 0.500, -0.625, -0.250, 0.375, -0.250, -0.125, 0.125, -1.000, 0.000, 0.250, -0.250, 0.375, 0.125, 0.250, 0.000, -0.125, -0.125, 0.250, 0.000, 0.250, 0.125, 0.000, 0.000, -0.375, -0.500, -0.125, -0.375, 0.250, 0.000, 0.750, 0.000, -0.125, 0.000, 0.375, -0.125, 0.000, 0.500, -0.750, 0.250, -0.125, 0.125, -0.250, 0.250, 0.250, 0.125, 0.000, 0.125, 0.125, 0.125, 0.625, 0.000, 0.125, 0.250, 0.250, 0.125, -1.000, -0.375, 0.125, -0.125, 0.000, 0.000, 0.375, -0.125, -0.125, -0.250, -0.375, 0.125, -0.125, 0.000, 0.125, 0.125, -1.000, 0.000, -0.125, 0.500, -0.125, 0.250, 0.375, 0.125, -0.125, 0.375, 0.375, 0.000, 0.125, 0.000, 0.250, 0.125, -0.875, -1.000, 0.000, -0.125, -0.125, -0.250, 0.125, -0.125, -0.125, -0.875, -0.375, 0.125, -0.125, -0.125, 0.000, 0.125, -1.000, 0.125, -0.250, 0.250, -1.000, 0.125, 0.625, 0.125, 0.000, 0.375, 0.000, 0.250, 0.125, 0.000, 0.125, 0.000, 0.000, 0.000, -0.125, 0.000, -0.875, -0.125, 0.000, 0.125, 0.000, -0.250, -0.125, 0.125, 0.000, 0.000, 0.000, 0.000, -0.250, 0.125, -0.250, 0.000, -0.750, 0.250, 0.750, -0.875, 0.125, 0.000, -0.250, -0.250, 0.125, -0.125, 0.250, 0.125, -0.125, 0.250, 0.125, 0.250, 0.375, -0.125, 0.125, 0.250, -0.125, 0.500, 0.000, 0.500, 0.000, 0.000, 0.125, -0.125, -0.375, 0.000, 0.000, 0.125, -0.125, 0.125, 0.250, 0.000, -0.125, 0.125, 0.250, -1.000, 0.125, 0.125, 0.000, 0.125, 0.000, -0.125, 0.000, 0.750, -0.125, 0.000, 0.125, -0.125, 0.000, 0.250, -0.125, 0.125, -0.250, -0.500, 0.250, 0.000, -0.250, 0.125, 0.125, 0.000, -0.250, 0.125, 0.125, 0.125, 0.125, 0.125, 0.250, -0.500, 0.250, 0.125, -0.125, 0.125, 0.000, -0.250, -0.125, -0.375, -0.250, -0.250, -0.125, -0.125, 0.125, 0.000, -0.375, -0.125, -0.125, -1.000, 0.250, 0.125, 0.125, 0.000, -0.125, 0.125, -0.125, 0.500, -0.250, 0.500, 0.125, 0.250, -0.250, -0.750, 0.375, 0.000, -0.125, 0.125, -0.375, -0.375, -0.500, -0.500, 0.375, -0.125, -1.000, -0.250, 0.375, 0.000, -0.500, -0.250, 0.125, -0.875, 0.125, 0.625, 0.375, 0.125, -0.125, -0.250, -0.250, 0.125, 0.125, 0.000, 0.125, -0.375, 0.500, -0.125, 0.250, 0.500, -0.125, 0.125, -0.625, -0.625, 0.000, -0.375, 0.000, 0.000, 0.625, -0.125, 0.125, 0.125, -0.250, 0.000, 0.250, 0.000, -0.375, 0.500, -0.125, -0.125, -0.250, 0.125, 0.000, -0.125, 0.375, -0.125, -0.125, -0.125, 0.250, 0.125, -0.125, 0.000, 0.125, 0.125, -0.875, -0.625, -0.125, 0.000, -0.125, 0.125, 0.000, 0.000, 0.000, -0.625, -0.125, 0.125, 0.125, -0.625, 0.000, 0.250, -1.000, 0.125, 0.125, 0.625, -0.250, -0.250, 0.500, 0.000, -0.125, 0.125, 0.375, 0.125, -0.250, 0.000, 0.000, 0.125, -0.250, -0.375, -0.125, -0.250, -0.125, -0.250, -0.625, 0.125, -0.125, 0.375, -0.250, 0.125, 0.000, -0.500, 0.125, 0.125, -0.375, -0.125, -0.125, 0.375, -1.000, 0.125, 0.375, 0.000, -0.125, -0.125, -0.250, 0.250, 0.000, 0.250, 0.000, 0.000, 0.375, 0.250, -0.250, -0.250, -0.500, -0.375, -0.625, 0.375, -0.250, 0.000, -0.250, 0.375, 0.000, 0.500, 0.250, -0.250, 0.000, 0.000, 0.125, 0.125, -0.500, 0.000, 0.625, -0.875, 0.000, 0.000, 0.125, -0.250, 0.000, 0.250, 0.250, 0.000, -0.250, 0.250, -0.125, 0.250, 0.250, 0.000, 0.500, -0.375, 0.000, 0.250, 0.000, 0.750, -0.125, 0.375, 0.125, -0.375, 0.125, 0.000, 0.500, 0.500, 0.375, 0.000, 0.250, 0.000, 0.000, 0.250, 0.250, -0.250, -0.375, 0.250, 0.375, -0.250, 0.000, -0.500, 0.125, 0.375, -0.250, -0.250, 0.500, -0.500, 0.000, -0.250, -0.125, 0.000, 0.000, -0.750, 0.125, 0.000, 0.250, -0.125, 0.250, 0.000, 0.000, -0.250, 0.250, -0.125, 0.250, 0.125, -0.375, 0.000, -0.500, 0.250, 0.125, -0.125, -0.250, -0.750, 0.125, -0.250, -0.125, -0.125, 0.375, -0.625, 0.000, 0.000, -0.125, 0.000, 0.250, -1.000, 0.000, 0.000, 0.250, -0.125, 0.375, 0.000, -0.375, -0.125, 0.125, 0.000, 0.750, -0.125, 0.000, 0.125, -0.500, 0.250, 0.125, 0.125, -0.750, -0.500, -0.125, -0.250, 0.125, 0.000, -0.750, -0.750, 0.250, 0.375, 0.125, 0.250, -0.125, -0.750, 0.000, 0.250, 0.500, -0.125, 0.250, -0.125, -0.750, -0.375, 0.000, -0.250, -0.125, -0.250, 0.000, -0.250, 0.000, 0.250, 0.000, 0.125, -0.125, -0.125, -0.500, 0.250, -0.375, 0.000, -0.375, 0.500, 0.000, -0.125, -0.125, -0.125, 0.375, -0.625, 0.125, 0.625, 0.000, -0.375, -0.250, -0.375, 0.250, -0.125, -0.125, 0.000, -0.250, -0.250, 0.000, 0.125, -0.125, 0.125, -0.125, 0.000, -0.500, -0.500, -0.375, 0.125, -0.125, 0.000, -0.750, 0.250, -0.125, 0.125, -0.625, -0.375, 0.375, 0.000, 0.375, 0.625, 0.000, 0.000, 0.500, -0.375, -0.375, -0.125, -0.500, 0.250, -0.125, -0.375, 0.250, 0.125, 0.000, 0.125, -0.250, 0.000, 0.000, -0.125, -0.375, -0.125, 0.000, 0.000, -0.500, 0.125, 0.000, 0.125, -0.375, -0.250, 0.250, 0.000, 0.375, 0.500, -0.125, 0.000, 0.250, -0.625, -0.625, 0.000, -0.500, 0.250, 0.000, -0.625, -0.250, -0.500, 0.250, 0.000, 0.125, 0.125, 0.375, 0.375, -0.750, -0.125, 0.125, -0.250, -0.125, 0.125, 0.000, -0.250, -0.250, -0.375, -0.125, 0.250, 0.000, 0.500, -0.125, 0.125, 0.375, -0.750, -0.250, 0.000, -0.125, -0.125, -0.250, 0.000, -0.125, 0.125, 0.125, -0.375, 0.000, -0.375, 0.125, -0.375, -0.875, 0.375, 0.125, 0.000, 0.250, -0.250, 0.125, 0.125, 0.250, 0.000, -0.250, -0.250, -0.750, 0.375, 0.125, 0.000, -0.500, 0.000, 0.500, -0.375, 0.000, -0.125, -0.375, 0.000, 0.125, 0.000, 0.000, 0.125, 0.125, -0.375, 0.125, -0.250, -0.375, 0.125, -0.125, 0.125, 0.125, 0.125, -0.375, 0.375, 0.125, -0.125, 0.625, -0.625, -0.375, 0.000, -0.625, -0.250, -0.625, -0.125, 0.000, -0.500, 0.125, -0.250, -0.250, -0.250, -0.250, 0.000, -0.500, 0.250, 0.125, -0.125, -0.250, -0.375, 0.125, 0.125, -0.250, -0.250, -0.250, 0.250, -0.375, 0.125, 0.125, -0.250, 0.500, 0.125, 0.125, 0.250, -1.000, 0.000, -0.250, -0.375, -0.375, 0.000, -0.375, 0.000, -0.625, -0.375, -0.375, 0.250, -1.000, 0.000, -0.125, 0.000, -0.375, -0.750, 0.625, 0.250, 0.000, 0.000, -0.625, 0.125, -0.375, 0.375, 0.375, 0.000, 0.000, 0.000, 0.125, 0.125, 0.000, 0.000, 0.125, 0.125, 0.000, 0.000, 0.000, 0.000, -0.375, 0.375, 0.250, -0.250, -0.500, -0.125, -0.125, -0.375, -0.375, -0.500, -0.250, 0.125, 0.250, -0.125, -0.250, 0.250, 0.000, -0.250, -0.125, -0.125, 0.000, 0.250, 0.250, 0.250, 0.500, -0.125, -0.125, -0.375, 0.375, 0.000, -0.375, 0.000, -0.250, -0.125, 0.250, 0.000, -0.500, 0.000, -0.250, -0.250, -0.125, -0.250, 0.375, 0.000, 0.250, -0.125, -0.250, 0.000, -0.250, 0.000, -0.125, 0.000, 0.125, -0.125, 0.250, 0.125, 0.125, -0.125, 0.000, -0.500, -0.500, 0.125, -0.500, 0.125, -0.125, -0.250, -0.125, 0.125, -0.125, -0.375, -0.125, -0.125, 0.250, 0.250, 0.250, 0.125, 0.250, -0.250, 0.000, 0.000, -0.125, -0.125, 0.000, 0.250, -0.125, -0.500, 0.125, 0.000, -0.125, -0.125, 0.000, -0.375, -0.500, -0.125, -0.250, 0.250, 0.125, -0.125, -0.250, 0.000, 0.000, -1.000, -0.250, 0.125, -0.125, 0.375, -0.125, 0.250, 0.125, -0.250, 0.000, -0.625, -0.125, 0.125, 0.250, 0.000, -0.250, -0.500, -0.250, 0.250, -0.375, 0.125, -0.250, -0.375, 0.000, 0.000, -0.375, 0.125, -0.250, 0.375, 0.000, 0.000, 0.000, -0.250, 0.000, -0.250, 0.125, -0.125, -0.375, 0.250, 0.250, -0.125, -0.125, -0.375, 0.125, 0.000, -0.125, -0.125, -0.125, -0.125, -0.625, 0.625, -0.125, -0.125, -0.500, 0.125, 0.125, -0.250, -0.125, 0.000, -0.500, 0.000, 0.250, -0.250, 0.125, -0.125, 0.250, -0.375, 0.000, 0.250, -0.250, 0.250, 0.125, 0.125, 0.000, 0.125, 0.000, -0.250, -0.250, 0.000, 0.500, -0.375, -0.250, 0.125, -0.125, -0.250, -0.375, 0.000, -0.875, -0.250, -0.250, -0.125, -0.500, -0.125, 0.125, 0.000, 0.250, -0.125, 0.000, -0.250, 0.000, 0.250, 0.000, 0.000, 0.125, -0.125, 0.125, 0.250, -0.125, -0.750, 0.125, 0.000, 0.000, 0.250, 0.000, -0.250, -0.875, 0.125, 0.125, 0.375, -0.500, 0.000, -0.250, -0.125, -0.375, 0.000, -0.125, 0.125, 0.250, -0.250, -0.250, -0.250, 0.125, -0.625, 0.125, -0.125, 0.125, -0.125, 0.000, 0.375, -0.125, -0.875, 0.125, 0.000, -0.250, 0.125, 0.250, -0.375, -0.375, 0.000, 0.250, 0.000, -0.250, 0.000, 0.125, 0.000, 0.500, 0.125, 0.000, -0.375, 0.125, 0.250, 0.000, -0.250, 0.125, 0.000, -0.125, 0.000, 0.250, -0.125, 0.125, -0.250, -0.125, -0.375, 0.625, 0.250, 0.000, -0.125, 0.000, -0.625, 0.500, 0.000, 0.125, -0.625, -0.375, 0.250, -0.125, 0.125, -0.125, -0.250, 0.000, 0.125, -0.500, -0.125, 0.000, -0.500, 0.000, -0.250, 0.375, 0.000, 0.125, -0.125, -0.250, 0.000, -0.250, -0.125, 0.250, 0.250, -0.125, 0.000, 0.000, -0.375, 0.500, -0.125, 0.375, -0.250, -0.875, 0.125, 0.000, -0.125, -0.125, -0.125, -0.125, -0.125, -1.000, -1.000, -0.125, 0.000, 0.000, 0.250, 0.625, 0.250, 0.000, -0.125, -1.000, 0.000, -0.625, -0.125, 0.500, 0.000, -0.375, -0.750, -0.125, -0.125, -0.375, 0.000, -0.125, 0.000, 0.125, -1.000, -0.125, 0.375, 0.125, 0.125, -0.375, 0.375, -1.000, -0.375, -0.125, 0.250, -0.375, 0.125, 0.500, 0.000, 0.000, 0.000, -1.000, -0.125, 0.000, 0.125, -0.125, 0.000, 0.000, -0.500, -0.500, 0.125, -0.125, 0.125, -0.375, 0.000, 0.500, -0.500, -0.250, -0.125, -0.125, -0.250, 0.250, 0.000, -0.500, -0.125, -0.250, -0.375, 0.000, 0.000, 0.250, 0.000, 0.375, -0.125, -0.125, -0.375, -0.125, 0.000, 0.000, 0.000, 0.125, 0.125, -0.375, 0.250, 0.250, -0.125, 0.000, 0.250, -0.250, 0.125, -0.125, -0.250, 0.000, -0.750, 0.000, 0.125, 0.125, 0.000, 0.125, -0.250, 0.125, 0.125, 0.125, 0.000, 0.250, 0.000, 0.250, 0.000, 0.125, -0.125, 0.375, -0.125, 0.125, -0.250, 0.125, -0.375, 0.125, 0.000, 0.000, 0.125, -1.000, 0.250, -0.125, -0.125, -0.125, -0.750, -0.125, 0.000, 0.250, 0.000, 0.125, 0.125, 0.125, 0.000, 0.250, 0.125, 0.375, 0.125, 0.125, 0.250, 0.000, -1.000, 0.125, 0.250, -0.125, 0.125, 0.000, -0.375, -1.000, 0.125, -0.125, 0.125, -0.125, 0.250, 0.375, 0.250, -0.125, -0.125, -0.500, 0.250, 0.000, -0.125, 0.250, 0.250, 0.250, -0.375, 0.250, 0.000, 0.500, -0.125, -0.375, 0.000, 0.125, -0.625, 0.625, 0.375, -0.375, 0.125, -0.125, -0.125, -0.375, 0.250, -0.125, 0.000, 0.125, 0.375, 0.375, 0.125, 0.750, -0.125, -0.125, -0.125, 0.375, -0.125, 0.375, 0.375, -0.125, -0.500, 0.125, -0.125, 0.125, 0.000, 0.375, -0.250, 0.250, -0.250, 0.250, -0.125, -0.500, -0.500, -0.125, -0.500, -0.250, 0.250, -0.125, -0.125, 0.125, 0.500, 0.500, 0.500, 0.875, -0.250, -0.125, -0.250, 0.250, -0.250, 0.250, 0.500, -0.125, -0.125, 0.125, -0.250, 0.125, 0.000, 0.125, -0.125, 0.250, 0.125, 0.500, 0.000, -1.000, 0.000, -0.250, -0.375, 0.000, 0.375, 0.250, -0.250, 0.000, 0.250, 0.375, 0.625, 0.500, 0.250, -0.750, -0.125, 0.000, 0.000, 0.000, 0.375, 0.000, 0.000, 0.250, -0.250, -0.125, -0.250, 0.000, 0.125, 0.125, -0.250, 0.625, -0.250, -0.625, 0.000, -0.125, -0.500, 0.250, 0.125, 0.375, -0.500, -0.125, -0.250, -0.125, 0.500, 0.125, 0.250, 0.000, 0.375, 0.000, -0.125, 0.000, 0.375, -0.125, 0.250, 0.250, -0.250, -0.250, 0.000, -0.125, 0.250, 0.000, -0.125, 0.250, -0.125, -0.250, -0.125, -0.125, -0.500, 0.125, 0.375, 0.250, 0.125, 0.000, 0.000, -0.125, 0.125, 0.000, -0.625, 0.000, 0.250, 0.125, -0.125, -0.125, 0.500, -0.250, 0.000, 0.250, 0.000, -0.250, 0.000, 0.250, 0.125, 0.125, 0.000, 0.250, -0.250, 0.000, 0.250, 0.000, -0.375, 0.250, 0.125, 0.125, 0.125, -0.250, 0.000, -0.250, 0.250, 0.500, -0.125, -0.750, 0.000, 0.125, -0.125, -0.125, 0.375, 0.125, 0.000, 0.125, -0.125, -0.250, -0.125, 0.250, 0.000, 0.000, -0.125, 0.000, -0.375, 0.125, 0.125, 0.000, -0.250, -0.125, 0.375, -0.125, -0.625, -1.000, 0.500, 0.125, 0.375, 0.375, 0.125, -0.750, 0.000, 0.125, -0.125, 0.000, 0.625, -0.125, 0.250, 0.375, 0.000, -0.500, -0.125, 0.125, -0.125, 0.125, -0.875, -0.125, -0.125, -0.250, 0.125, -0.125, -0.250, -0.625, 0.125, -0.125, -0.750, -0.750, 0.250, 0.250, 0.125, 0.750, -0.125, -0.625, 0.000, -0.125, -0.625, 0.125, 0.500, 0.125, 0.000, 0.750, 0.375, -0.250, 0.000, -0.625, -0.125, -0.125, -0.625, 0.125, 0.250, -0.375, -0.250, 0.000, -0.375, -0.500, -0.125, -0.625, -0.375, 0.250, 0.500, 0.375, -0.125, -0.125, 0.125, -0.625, -0.125, 0.625, 0.250, 0.250, 0.500, -0.125, 0.250, 0.000, 0.000, 0.000, -0.250, 0.500, 0.000, 0.125, -0.125, 0.125, 0.125, -0.125, 0.125, -0.250, 0.000, 0.000, 0.000, -0.250, 0.250, 0.375, 0.625, 0.500, -0.625, 0.125, 0.125, -1.000, -0.375, 0.250, 0.125, 0.125, 0.000, -0.375, -0.500, 0.125, 0.125, 0.125, -0.125, 0.250, -0.125, 0.250, 0.125, -0.250, 0.000, -0.125, 0.000, 0.000, 0.125, -0.250, 0.000, 0.000, -0.625, 0.125, 0.875, 0.500, -0.250, 0.125, 0.000, -0.500, -0.500, 0.125, 0.250, 0.250, 0.000, 0.000, -0.125, 0.250, -0.250, 0.000, 0.000, 0.125, -0.125, 0.125, -0.125, 0.000, 0.000, -0.125, 0.000, 0.000, 0.125, 0.000, 0.000, 0.375, -0.125, 0.000, 0.375, 0.250, 0.125, 0.625, 0.125, 0.000, -0.625, 0.250, 0.000, 0.125, 0.625, 0.250, 0.125, 0.125, -0.125, -0.500, -0.125, 0.125, 0.125, 0.375, -0.125, -0.250, -0.125, -0.250, 0.000, 0.250, 0.125, 0.000, 0.250, -0.125, -0.125, 0.000, 0.125, 0.125, 0.250, 0.625, -0.250, 0.125, -1.000, 0.125, 0.000, 0.000, 0.375, 0.000, 0.125, -0.125, -0.125, -0.250, 0.125, 0.125, 0.125, 0.250, -0.125, -0.750, -0.125, -0.250, 0.125, 0.125, 0.125, -0.125, 0.375, -0.125, -0.125, 0.250, 0.125, 0.000, 0.250, 0.375, 0.000, 0.000, -0.875, -0.125, -0.125, 0.000, 0.375, -0.125, -0.125, 0.000, 0.125, 0.000, 0.000, -0.125, -0.125, 0.250, -0.250, -0.750, 0.250, 0.125, 0.125, 0.000, 0.125, -0.125, 0.125, -0.125, -0.500, -0.500, -0.125, -0.125, 0.125, 0.500, 0.125, -0.625, -0.875, 0.000, -0.375, -0.125, 0.000, -0.375, -0.125, 0.250, 0.000, 0.000, 0.000, -0.500, -0.250, 0.125, -0.875, -0.750, 0.000, 0.125, 0.000, 0.000, 0.250, -0.625, -0.250, -0.375, -0.875, -0.500, 0.000, 0.125, 0.250, 0.250, 0.375, -0.500, -0.625, -0.500, -0.375, -0.125, 0.125, -0.125, -0.250, 0.500, 0.250, -0.375, 0.125, -0.750, -0.375, -0.125, -0.250, -0.500, -0.250, 0.125, -0.500, -0.125, 0.125, 0.000, -0.125, -0.125, -0.500, 0.000};
#endif

#endif
